{"learner":{"attributes":{"best_iteration":"75","best_score":"1.0372240227490572"},"feature_names":["Volume","day_of_month","year","day_sin","day_cos","day_of_year_norm","dayy_sin","dayy_cos","is_holiday","Log_Return","Log_Return_change1","Log_Return23","Log_Return123","Log_High_Return","Log_High_Return_change1","Log_High_Return_change3","Log_High_Return13","Log_High_Return23","Log_High_Return123","Close_Roll_Std_5","High_Roll_Std_5","High_Roll_Std_10","High_Roll_Std_20","High_Roll_Std_30","High_Roll_Std_60","High_Roll_Std_90","High_Roll_Std_250","High_Roll_Max_250","Log_Return_Lag_1","Log_Return_Lag_2","Log_Return_Lag_3","Log_Return_Lag_5","Log_Return_Lag_10","Log_Return_Lag_20","Log_Return_Lag_30","Log_Return_Lag_60","Log_Return_Lag_90","Log_Return_Lag_120","Log_Return_Lag_180","Log_Return_Lag_250","Log_Return_Roll_Max_5","Log_Return_Roll_Max_10","Log_Return_Roll_Mean_20","Log_Return_Roll_Max_20","Log_Return_Roll_Mean_30","Log_Return_Roll_Max_30","Log_Return_Roll_Mean_60","Log_Return_Roll_Max_60","Log_Return_Roll_Mean_90","Log_Return_Roll_Max_90","Log_Return_Roll_Mean_180","Log_Return_Roll_Max_180","Log_Return_Roll_Mean_250","Log_Return_Roll_Max_250","Log_Return_change1_Lag_1","Log_Return_change1_Lag_2","Log_Return_change1_Lag_3","Log_Return_change1_Lag_5","Log_Return_change1_Lag_10","Log_Return_change1_Lag_20","Log_Return_change1_Lag_30","Log_Return_change1_Lag_60","Log_Return_change1_Lag_90","Log_Return_change1_Lag_120","Log_Return_change1_Lag_180","Log_Return_change1_Lag_250","Log_Return_change1_Roll_Mean_5","Log_Return_change1_Roll_Min_5","Log_Return_change1_Roll_Mean_10","Log_Return_change1_Roll_Mean_20","Log_Return_change1_Roll_Mean_30","Log_Return_change1_Roll_Mean_60","Log_Return_change1_Roll_Mean_90","Log_Return_change1_Roll_Mean_180","Log_Return_change1_Roll_Mean_250","Log_Return_change2_Lag_1","Log_Return_change2_Lag_2","Log_Return_change2_Lag_3","Log_Return_change2_Lag_5","Log_Return_change2_Lag_10","Log_Return_change2_Lag_20","Log_Return_change2_Lag_30","Log_Return_change2_Lag_60","Log_Return_change2_Lag_90","Log_Return_change2_Lag_120","Log_Return_change2_Lag_180","Log_Return_change2_Lag_250","Log_Return_change2_Roll_Mean_5","Log_Return_change2_Roll_Min_5","Log_Return_change2_Roll_Max_5","Log_Return_change2_Roll_Mean_10","Log_Return_change2_Roll_Min_10","Log_Return_change2_Roll_Max_10","Log_Return_change2_Roll_Mean_20","Log_Return_change2_Roll_Max_20","Log_Return_change2_Roll_Mean_30","Log_Return_change2_Roll_Max_30","Log_Return_change2_Roll_Mean_60","Log_Return_change2_Roll_Mean_90","Log_Return_change2_Roll_Max_90","Log_Return_change2_Roll_Mean_180","Log_Return_change2_Roll_Max_180","Log_Return_change2_Roll_Mean_250","Log_Return_change2_Roll_Max_250","rsi_5_long","rsi_5_short","rsi_5_combined","rsi_7_long","rsi_7_short","rsi_7_combined","rsi_10_long","rsi_10_short","rsi_10_combined","macd_5_10_5_long","macd_5_10_5_short","macd_5_10_5_combined","stoch_3_2_2_long","stoch_3_2_2_short","stoch_3_2_2_combined","cci_6_long","cci_6_short","cci_6_combined","cci_10_long","cci_10_short","cci_10_combined","obv_combined","ad_combined","atr_10_long","atr_10_short","atr_10_combined","sma_2_long","sma_2_short","sma_2_combined","sma_3_long","sma_3_short","sma_3_combined","sma_5_long","sma_5_short","sma_5_combined","sma_8_long","sma_8_short","sma_8_combined","sma_13_long","sma_13_short","sma_13_combined","sma_21_long","sma_21_short","sma_21_combined","ema_3_long","ema_3_short","ema_3_combined","ema_5_long","ema_5_short","ema_5_combined","ema_8_long","ema_8_short","ema_8_combined","ema_13_long","ema_13_short","ema_13_combined","ema_21_long","ema_21_short","ema_21_combined","bb_3_1.5_1.5_long","bb_3_1.5_1.5_short","bb_3_1.5_1.5_combined","bb_3_2.0_2.0_long","bb_3_2.0_2.0_short","bb_3_2.0_2.0_combined","bb_5_1.5_1.5_long","bb_5_1.5_1.5_short","bb_5_1.5_1.5_combined","bb_5_2.0_2.0_long","bb_5_2.0_2.0_short","bb_5_2.0_2.0_combined","bb_8_2.0_2.0_long","bb_8_2.0_2.0_short","bb_8_2.0_2.0_combined","ht_dcperiod_combined","ht_phasor_short","ht_phasor_combined","typprice_long","typprice_short","typprice_combined","linearreg_3_combined","linearreg_5_combined","linearreg_8_combined","stddev_2_2_long","stddev_2_2_short","stddev_2_2_combined","stddev_3_2_long","stddev_3_2_short","stddev_3_2_combined","stddev_5_2_long","stddev_5_2_short","stddev_5_2_combined","Open","High","Low","Close"],"feature_types":["float","int","int","float","float","float","float","float","int","float","float","float","float","float","float","float","float","float","float","float","float","float","float","float","float","float","float","float","float","float","float","float","float","float","float","float","float","float","float","float","float","float","float","float","float","float","float","float","float","float","float","float","float","float","float","float","float","float","float","float","float","float","float","float","float","float","float","float","float","float","float","float","float","float","float","float","float","float","float","float","float","float","float","float","float","float","float","float","float","float","float","float","float","float","float","float","float","float","float","float","float","float","float","float","int","int","int","int","int","int","int","int","int","int","int","int","int","int","int","int","int","int","int","int","int","int","int","int","int","int","int","int","int","int","int","int","int","int","int","int","int","int","int","int","int","int","int","int","int","int","int","int","int","int","int","int","int","int","int","int","int","int","int","int","int","int","int","int","int","int","int","int","int","int","int","int","int","int","int","int","int","int","int","int","int","int","int","int","int","int","int","int","int","int","int","int","float","float","float","float"],"gradient_booster":{"model":{"gbtree_model_param":{"num_parallel_tree":"1","num_trees":"126"},"iteration_indptr":[0,1,2,3,4,5,6,7,8,9,10,11,12,13,14,15,16,17,18,19,20,21,22,23,24,25,26,27,28,29,30,31,32,33,34,35,36,37,38,39,40,41,42,43,44,45,46,47,48,49,50,51,52,53,54,55,56,57,58,59,60,61,62,63,64,65,66,67,68,69,70,71,72,73,74,75,76,77,78,79,80,81,82,83,84,85,86,87,88,89,90,91,92,93,94,95,96,97,98,99,100,101,102,103,104,105,106,107,108,109,110,111,112,113,114,115,116,117,118,119,120,121,122,123,124,125,126],"tree_info":[0,0,0,0,0,0,0,0,0,0,0,0,0,0,0,0,0,0,0,0,0,0,0,0,0,0,0,0,0,0,0,0,0,0,0,0,0,0,0,0,0,0,0,0,0,0,0,0,0,0,0,0,0,0,0,0,0,0,0,0,0,0,0,0,0,0,0,0,0,0,0,0,0,0,0,0,0,0,0,0,0,0,0,0,0,0,0,0,0,0,0,0,0,0,0,0,0,0,0,0,0,0,0,0,0,0,0,0,0,0,0,0,0,0,0,0,0,0,0,0,0,0,0,0,0,0],"trees":[{"base_weights":[-0E0,-8.199944E-3,3.9260574E-3,-4.568485E-2,-0E0,3.2629777E-2,-0E0,-0E0,-8.7098114E-2,7.3773764E-2,-0E0,-1.2596029E-1,-0E0,-0E0,9.872567E-2,-0E0,-1.4851363E-1,1.2433997E-1,-0E0,-0E0,-1.7139931E-1,1.4090985E-1,-0E0,-0E0,-2.0203583E-1,1.636425E-1,-0E0,-2.2291727E-1,-0E0,-0E0,1.7688102E-1,-0E0,-2.3284097E-1,1.8492174E-1,-0E0,-2.4335319E-1,-0E0,1.9721444E-1,-0E0,-2.526898E-1,-0E0,-0E0,2.056419E-1,-0E0,-2.6330644E-1,-0E0,2.1200435E-1,-2.768642E-1,-0E0,-0E0,2.2114725E-1,-0E0,-3.623227E-2,2.9674824E-2,-0E0],"categories":[],"categories_nodes":[],"categories_segments":[],"categories_sizes":[],"default_left":[0,0,0,0,0,0,0,0,0,0,0,0,0,0,0,0,0,0,0,0,0,0,0,0,0,0,0,0,0,0,0,0,0,0,0,0,0,0,0,0,0,0,0,0,0,0,0,0,0,0,0,0,0,0,0],"id":0,"left_children":[1,3,5,7,-1,9,-1,-1,11,13,-1,15,-1,-1,17,-1,19,21,-1,-1,23,25,-1,-1,27,29,-1,31,-1,-1,33,-1,35,37,-1,39,-1,41,-1,43,-1,-1,45,-1,47,-1,49,51,-1,-1,53,-1,-1,-1,-1],"loss_changes":[7.9227395E-2,1.0487094E0,2.3771276E0,2.3978958E0,0E0,3.2416186E0,0E0,0E0,2.9010367E0,3.4024677E0,0E0,1.8304915E0,0E0,0E0,3.8890352E0,0E0,2.434143E0,2.946701E0,0E0,0E0,1.94415E0,2.0882645E0,0E0,0E0,2.142046E0,2.3392506E0,0E0,8.535042E-1,0E0,0E0,1.1716557E0,0E0,8.474455E-1,1.0081348E0,0E0,6.471176E-1,0E0,5.265446E-1,0E0,6.339588E-1,0E0,0E0,1.042614E0,0E0,6.4538383E-1,0E0,7.02816E-1,3.9575195E-1,0E0,0E0,1.2577515E0,0E0,0E0,0E0,0E0],"parents":[2147483647,0,0,1,1,2,2,3,3,5,5,8,8,9,9,11,11,14,14,16,16,17,17,20,20,21,21,24,24,25,25,27,27,30,30,32,32,33,33,35,35,37,37,39,39,42,42,44,44,46,46,47,47,50,50],"right_children":[2,4,6,8,-1,10,-1,-1,12,14,-1,16,-1,-1,18,-1,20,22,-1,-1,24,26,-1,-1,28,30,-1,32,-1,-1,34,-1,36,38,-1,40,-1,42,-1,44,-1,-1,46,-1,48,-1,50,52,-1,-1,54,-1,-1,-1,-1],"split_conditions":[-6.6739624E3,1E0,1.4815347E12,-3.1121204E3,-0E0,1.1965E3,-0E0,-0E0,-1.2514971E3,0E0,-0E0,0E0,-0E0,-0E0,7.3079895E1,-0E0,-2.4121125E3,4.6574224E3,-0E0,-0E0,1.0611927E3,1E3,-0E0,-0E0,1.702191E5,2.1597363E-1,-0E0,9.783041E0,-0E0,-0E0,-9.8929144E2,-0E0,4.574377E3,1.151015E4,-0E0,1.4744242E15,-0E0,-2.210522E3,-0E0,1.2950377E3,-0E0,-0E0,-1.717361E4,-0E0,3.4784992E4,-0E0,2.0537518E2,-1.2487432E4,-0E0,-0E0,1E0,-0E0,-3.623227E-2,2.9674824E-2,-0E0],"split_indices":[84,154,12,39,0,196,0,0,67,137,0,144,0,0,98,0,69,33,0,0,41,29,0,0,83,40,0,22,0,0,91,0,37,77,0,12,0,63,0,41,0,0,38,0,86,0,41,65,0,0,113,0,0,0,0],"split_type":[0,0,0,0,0,0,0,0,0,0,0,0,0,0,0,0,0,0,0,0,0,0,0,0,0,0,0,0,0,0,0,0,0,0,0,0,0,0,0,0,0,0,0,0,0,0,0,0,0,0,0,0,0,0,0],"sum_hessian":[3.141E3,5.92E2,2.549E3,5.2E2,7.2E1,2.268E3,2.81E2,6.2E1,4.58E2,1.038E3,1.23E3,4.01E2,5.7E1,1.1E2,9.28E2,3E1,3.71E2,8.36E2,9.2E1,1E1,3.61E2,7.99E2,3.7E1,5.4E1,3.07E2,6.7E2,1.29E2,2.95E2,1.2E1,2.2E1,6.48E2,9E0,2.86E2,6.27E2,2.1E1,2.76E2,1E1,5.77E2,5E1,2.66E2,1E1,3.4E1,5.43E2,1.2E1,2.54E2,9E0,5.34E2,2.38E2,1.6E1,2.9E1,5.05E2,1.5E1,2.23E2,4.63E2,4.2E1],"tree_param":{"num_deleted":"0","num_feature":"200","num_nodes":"55","size_leaf_vector":"1"}},{"base_weights":[-0E0,-1.1483225E-2,5.4365075E-3,-0E0,-5.5322226E-2,2.4072377E-2,-0E0,-0E0,-8.045457E-2,-0E0,4.7511246E-2,-0E0,-1.0875685E-1,-0E0,6.662162E-2,-0E0,-1.3371089E-1,-0E0,8.440145E-2,-0E0,-1.6192798E-1,-0E0,9.666885E-2,-0E0,-2.0420931E-1,-0E0,1.073208E-1,-0E0,-2.2500935E-1,1.3407908E-1,-0E0,-2.3833734E-1,-0E0,-0E0,1.4592734E-1,-2.5222608E-1,-0E0,-0E0,1.5610234E-1,-0E0,-2.6762265E-1,1.631934E-1,-0E0,-2.8575563E-1,-0E0,1.7048164E-1,-0E0,-3.0041367E-1,-0E0,-0E0,1.7584704E-1,-0E0,-3.9410625E-2,2.2670457E-2,-0E0],"categories":[],"categories_nodes":[],"categories_segments":[],"categories_sizes":[],"default_left":[0,0,0,0,0,0,0,0,0,0,0,0,0,0,0,0,0,0,0,0,0,0,0,0,0,0,0,0,0,0,0,0,0,0,0,0,0,0,0,0,0,0,0,0,0,0,0,0,0,0,0,0,0,0,0],"id":1,"left_children":[1,3,5,-1,7,9,-1,-1,11,-1,13,-1,15,-1,17,-1,19,-1,21,-1,23,-1,25,-1,27,-1,29,-1,31,33,-1,35,-1,-1,37,39,-1,-1,41,-1,43,45,-1,47,-1,49,-1,51,-1,-1,53,-1,-1,-1,-1],"loss_changes":[2.599845E-1,2.7427633E0,7.567449E-1,0E0,3.0330052E0,1.0669587E0,0E0,0E0,4.128699E0,0E0,1.4500082E0,0E0,3.2280464E0,0E0,1.693975E0,0E0,3.6322937E0,0E0,1.2918653E0,0E0,5.146187E0,0E0,1.3045683E0,0E0,3.2687702E0,0E0,1.7143111E0,0E0,2.5295372E0,1.4223528E0,0E0,2.585968E0,0E0,0E0,1.112072E0,2.5494194E0,0E0,0E0,8.353996E-1,0E0,3.24366E0,8.683882E-1,0E0,3.007759E0,0E0,4.9595547E-1,0E0,2.8503036E0,0E0,0E0,4.8293018E-1,0E0,0E0,0E0,0E0],"parents":[2147483647,0,0,1,1,2,2,4,4,5,5,8,8,10,10,12,12,14,14,16,16,18,18,20,20,22,22,24,24,26,26,28,28,29,29,31,31,34,34,35,35,38,38,40,40,41,41,43,43,45,45,47,47,50,50],"right_children":[2,4,6,-1,8,10,-1,-1,12,-1,14,-1,16,-1,18,-1,20,-1,22,-1,24,-1,26,-1,28,-1,30,-1,32,34,-1,36,-1,-1,38,40,-1,-1,42,-1,44,46,-1,48,-1,50,-1,52,-1,-1,54,-1,-1,-1,-1],"split_conditions":[-8.912848E3,-2.1950277E1,1.6211651E8,-0E0,-2.2425652E4,5.314362E2,-0E0,-0E0,-2.399702E3,-0E0,-1.7887547E4,-0E0,7.077969E3,-0E0,-5.6397983E3,-0E0,-1.2575107E4,-0E0,-3.2431969E4,-0E0,8.055307E0,-0E0,-9.4842676E2,-0E0,-9.103178E1,-0E0,1.2917E3,-0E0,4.0328906E4,1.4177025E4,-0E0,1.702191E5,-0E0,-0E0,-1.3139557E11,0E0,-0E0,-0E0,9.261E3,-0E0,2.3639783E4,4.4658363E4,-0E0,4.4658363E4,-0E0,-2.6349935E6,-0E0,6.484E2,-0E0,-0E0,-1.057497E3,-0E0,-3.9410625E-2,2.2670457E-2,-0E0],"split_indices":[88,9,17,0,30,40,0,0,90,0,17,0,45,0,37,0,85,0,86,0,19,0,66,0,102,0,198,0,62,99,0,78,0,0,18,183,0,0,32,0,38,85,0,86,0,16,0,197,0,0,91,0,0,0,0],"split_type":[0,0,0,0,0,0,0,0,0,0,0,0,0,0,0,0,0,0,0,0,0,0,0,0,0,0,0,0,0,0,0,0,0,0,0,0,0,0,0,0,0,0,0,0,0,0,0,0,0,0,0,0,0,0,0],"sum_hessian":[3.135E3,1.633E3,1.502E3,6.68E2,9.65E2,1.381E3,1.21E2,4.1E1,9.24E2,5.55E2,8.26E2,7E1,8.54E2,8E1,7.46E2,1.09E2,7.45E2,4.4E1,7.02E2,9.9E1,6.46E2,2.9E1,6.73E2,1.17E2,5.29E2,1.4E1,6.59E2,2.9E1,5E2,5.17E2,1.42E2,4.9E2,1E1,1.4E1,5.03E2,4.78E2,1.2E1,1.8E1,4.85E2,1.8E1,4.6E2,4.75E2,1E1,4.43E2,1.7E1,4.65E2,1E1,4.34E2,9E0,1.2E1,4.53E2,9E0,4.25E2,4.43E2,1E1],"tree_param":{"num_deleted":"0","num_feature":"200","num_nodes":"55","size_leaf_vector":"1"}},{"base_weights":[-0E0,-9.337898E-3,-0E0,-3.641271E-2,-0E0,2.1336459E-2,-0E0,-0E0,-5.9327066E-2,5.6879364E-2,-0E0,-8.450857E-2,-0E0,-0E0,7.273008E-2,-0E0,-1.0511206E-1,9.826112E-2,-0E0,-0E0,-1.238745E-1,1.1842101E-1,-0E0,-0E0,-1.4052126E-1,-0E0,1.4471717E-1,-0E0,-1.5864089E-1,-0E0,1.6904151E-1,-0E0,-1.8860851E-1,-0E0,2.0204785E-1,-0E0,-2.0387939E-1,2.1218087E-1,-0E0,-2.1601622E-1,-0E0,-0E0,2.2086701E-1,-0E0,-2.2964652E-1,-0E0,2.288963E-1,-0E0,-2.404579E-1,-0E0,2.4976875E-1,-0E0,-3.1355333E-2,-0E0,3.2067765E-2],"categories":[],"categories_nodes":[],"categories_segments":[],"categories_sizes":[],"default_left":[0,0,0,0,0,0,0,0,0,0,0,0,0,0,0,0,0,0,0,0,0,0,0,0,0,0,0,0,0,0,0,0,0,0,0,0,0,0,0,0,0,0,0,0,0,0,0,0,0,0,0,0,0,0,0],"id":2,"left_children":[1,3,5,7,-1,9,-1,-1,11,13,-1,15,-1,-1,17,-1,19,21,-1,-1,23,25,-1,-1,27,-1,29,-1,31,-1,33,-1,35,-1,37,-1,39,41,-1,43,-1,-1,45,-1,47,-1,49,-1,51,-1,53,-1,-1,-1,-1],"loss_changes":[1.18377246E-1,1.3395582E0,6.398889E-1,1.5570194E0,0E0,1.7140685E0,0E0,0E0,2.109886E0,1.4418745E0,0E0,1.8975492E0,0E0,0E0,1.5782216E0,0E0,2.3317657E0,2.2490578E0,0E0,0E0,2.1301308E0,1.8974786E0,0E0,0E0,2.3724785E0,0E0,2.040699E0,0E0,2.4213076E0,0E0,1.7713709E0,0E0,2.3269825E0,0E0,9.206333E-1,0E0,1.8143997E0,7.518339E-1,0E0,1.339735E0,0E0,0E0,5.344801E-1,0E0,1.576622E0,0E0,1.3412485E0,0E0,5.370083E-1,0E0,4.0498734E-2,0E0,0E0,0E0,0E0],"parents":[2147483647,0,0,1,1,2,2,3,3,5,5,8,8,9,9,11,11,14,14,16,16,17,17,20,20,21,21,24,24,26,26,28,28,30,30,32,32,34,34,36,36,37,37,39,39,42,42,44,44,46,46,48,48,50,50],"right_children":[2,4,6,8,-1,10,-1,-1,12,14,-1,16,-1,-1,18,-1,20,22,-1,-1,24,26,-1,-1,28,-1,30,-1,32,-1,34,-1,36,-1,38,-1,40,42,-1,44,-1,-1,46,-1,48,-1,50,-1,52,-1,54,-1,-1,-1,-1],"split_conditions":[-8.259364E1,2.9415704E2,3.6303033E2,-2.863437E2,-0E0,2.013E3,-0E0,-0E0,-9.5881464E2,-9.95927E4,-0E0,-1.650779E2,-0E0,-0E0,1.0478823E1,-0E0,0E0,4.251668E3,-0E0,-0E0,0E0,2.243558E1,-0E0,-0E0,3.109347E0,-0E0,-9.578713E3,-0E0,2.5878832E1,-0E0,-8.111335E3,-0E0,-2.012354E4,-0E0,1.7087065E2,-0E0,1.38416E5,4.3805614E-2,-0E0,-4.677558E3,-0E0,-0E0,0E0,-0E0,-1.4442992E4,-0E0,2.4572578E1,-0E0,8.815666E3,-0E0,-3.2768375E1,-0E0,-3.1355333E-2,-0E0,3.2067765E-2],"split_indices":[56,68,66,68,0,2,0,0,67,78,0,97,0,0,71,0,161,48,0,0,105,25,0,0,20,0,62,0,25,0,15,0,34,0,100,0,0,5,0,42,0,0,177,0,52,0,25,0,96,0,56,0,0,0,0],"split_type":[0,0,0,0,0,0,0,0,0,0,0,0,0,0,0,0,0,0,0,0,0,0,0,0,0,0,0,0,0,0,0,0,0,0,0,0,0,0,0,0,0,0,0,0,0,0,0,0,0,0,0,0,0,0,0],"sum_hessian":[3.132E3,1.356E3,1.776E3,1.098E3,2.58E2,1.404E3,3.72E2,2.43E2,8.55E2,7.26E2,6.78E2,7.16E2,1.39E2,1E1,7.16E2,8.2E1,6.34E2,5.55E2,1.61E2,2.6E1,6.08E2,5.42E2,1.3E1,2.8E1,5.8E2,8.9E1,4.53E2,3.1E1,5.49E2,5E1,4.03E2,9.3E1,4.56E2,7.8E1,3.25E2,1E1,4.46E2,3.15E2,1E1,4.36E2,1E1,9E0,3.06E2,2.5E1,4.11E2,1.1E1,2.95E2,9E0,4.02E2,2.6E1,2.69E2,2.2E1,3.8E2,1.2E1,2.57E2],"tree_param":{"num_deleted":"0","num_feature":"200","num_nodes":"55","size_leaf_vector":"1"}},{"base_weights":[-0E0,-4.0266914E-3,-0E0,-3.3124287E-2,-0E0,2.4469424E-2,-0E0,-0E0,-5.9601072E-2,-0E0,4.2210646E-2,-8.442139E-2,-0E0,5.685171E-2,-0E0,-1.1008081E-1,-0E0,6.452549E-2,-0E0,-1.3581218E-1,-0E0,7.116244E-2,-0E0,-1.5384777E-1,-0E0,-0E0,7.947439E-2,-0E0,-1.667899E-1,8.968691E-2,-0E0,-0E0,-1.8071315E-1,9.588214E-2,-0E0,-0E0,-1.9279492E-1,1.022328E-1,-0E0,-0E0,-2.0049754E-1,1.071337E-1,-0E0,-0E0,-2.0670466E-1,-0E0,1.1169191E-1,-2.1736985E-1,-0E0,1.1600113E-1,-0E0,-2.8484875E-2,-0E0,-0E0,1.5566911E-2],"categories":[],"categories_nodes":[],"categories_segments":[],"categories_sizes":[],"default_left":[0,0,0,0,0,0,0,0,0,0,0,0,0,0,0,0,0,0,0,0,0,0,0,0,0,0,0,0,0,0,0,0,0,0,0,0,0,0,0,0,0,0,0,0,0,0,0,0,0,0,0,0,0,0,0],"id":3,"left_children":[1,3,5,7,-1,9,-1,-1,11,-1,13,15,-1,17,-1,19,-1,21,-1,23,-1,25,-1,27,-1,-1,29,-1,31,33,-1,-1,35,37,-1,-1,39,41,-1,-1,43,45,-1,-1,47,-1,49,51,-1,53,-1,-1,-1,-1,-1],"loss_changes":[1.719673E-2,9.8302096E-1,9.8410636E-1,2.0568602E0,0E0,1.2851052E0,0E0,0E0,2.6059709E0,0E0,1.362376E0,3.2264862E0,0E0,8.841624E-1,0E0,2.8708553E0,0E0,7.437868E-1,0E0,2.4314833E0,0E0,8.8985777E-1,0E0,2.18215E0,0E0,0E0,1.1430135E0,0E0,2.162035E0,8.400059E-1,0E0,0E0,2.040968E0,8.3076954E-1,0E0,0E0,1.0338593E0,6.6189003E-1,0E0,0E0,7.178955E-1,6.1190414E-1,0E0,0E0,1.4186134E0,0E0,5.898514E-1,4.4643974E-1,0E0,1.1945038E0,0E0,0E0,0E0,0E0,0E0],"parents":[2147483647,0,0,1,1,2,2,3,3,5,5,8,8,10,10,11,11,13,13,15,15,17,17,19,19,21,21,23,23,26,26,28,28,29,29,32,32,33,33,36,36,37,37,40,40,41,41,44,44,46,46,47,47,49,49],"right_children":[2,4,6,8,-1,10,-1,-1,12,-1,14,16,-1,18,-1,20,-1,22,-1,24,-1,26,-1,28,-1,-1,30,-1,32,34,-1,-1,36,38,-1,-1,40,42,-1,-1,44,46,-1,-1,48,-1,50,52,-1,54,-1,-1,-1,-1,-1],"split_conditions":[-1.2506223E3,1E0,6.14125E2,-1.2812743E4,-0E0,-2.4497258E3,-0E0,-0E0,-5.9258417E2,-0E0,1.1714254E2,3.027951E4,-0E0,1E0,-0E0,1.0880155E4,-0E0,3.4784992E4,-0E0,6.595596E2,-0E0,-3.1121204E3,-0E0,-3.528751E4,-0E0,-0E0,3.6522812E3,-0E0,-1.9683E4,-9.8929144E2,-0E0,-0E0,-1.4503637E4,2.7635668E4,-0E0,-0E0,6.814692E2,2.0838076E3,-0E0,-0E0,-2.012354E4,5.314362E2,-0E0,-0E0,3.7677504E4,-0E0,5.5261906E4,-9.5881464E2,-0E0,-1.2276067E4,-0E0,-2.8484875E-2,-0E0,-0E0,1.5566911E-2],"split_indices":[84,151,33,32,0,59,0,0,67,0,98,81,0,109,0,86,0,85,0,63,0,29,0,31,0,0,39,0,39,91,0,0,52,86,0,0,43,52,0,0,34,43,0,0,82,0,78,67,0,55,0,0,0,0,0],"split_type":[0,0,0,0,0,0,0,0,0,0,0,0,0,0,0,0,0,0,0,0,0,0,0,0,0,0,0,0,0,0,0,0,0,0,0,0,0,0,0,0,0,0,0,0,0,0,0,0,0,0,0,0,0,0,0],"sum_hessian":[3.137E3,1.059E3,2.078E3,9.1E2,1.49E2,1.642E3,4.36E2,5.1E1,8.59E2,3.7E2,1.272E3,7.93E2,6.6E1,1.122E3,1.5E2,7.32E2,6.1E1,1.083E3,3.9E1,6.36E2,9.6E1,1.037E3,4.6E1,5.98E2,3.8E1,6.5E1,9.72E2,1.1E1,5.87E2,9.05E2,6.7E1,2.1E1,5.66E2,8.83E2,2.2E1,1.4E1,5.52E2,8.56E2,2.7E1,1.6E1,5.36E2,8.37E2,1.9E1,1.5E1,5.21E2,1.8E1,8.19E2,5.01E2,2E1,8.03E2,1.6E1,4.67E2,3.4E1,2.5E1,7.78E2],"tree_param":{"num_deleted":"0","num_feature":"200","num_nodes":"55","size_leaf_vector":"1"}},{"base_weights":[-0E0,-0E0,3.8488305E-3,-3.3754606E-2,-0E0,-0E0,2.4639565E-2,-8.933673E-2,-0E0,-0E0,4.190016E-2,-1.2361345E-1,-0E0,-0E0,6.451283E-2,-1.4943239E-1,-0E0,-0E0,8.2853116E-2,-0E0,-1.7706856E-1,9.767278E-2,-0E0,-0E0,-1.9490734E-1,1.0897361E-1,-0E0,-2.1258597E-1,-0E0,1.1843269E-1,-0E0,-2.3697117E-1,-0E0,1.2813988E-1,-0E0,-0E0,-2.4902475E-1,1.3298903E-1,-0E0,-0E0,-2.694458E-1,-0E0,1.3881002E-1,-2.804133E-1,-0E0,1.4727388E-1,-0E0,-2.9803365E-1,-0E0,-0E0,1.553702E-1,-0E0,-3.974409E-2,2.0598527E-2,-0E0],"categories":[],"categories_nodes":[],"categories_segments":[],"categories_sizes":[],"default_left":[0,0,0,0,0,0,0,0,0,0,0,0,0,0,0,0,0,0,0,0,0,0,0,0,0,0,0,0,0,0,0,0,0,0,0,0,0,0,0,0,0,0,0,0,0,0,0,0,0,0,0,0,0,0,0],"id":4,"left_children":[1,3,5,7,-1,-1,9,11,-1,-1,13,15,-1,-1,17,19,-1,-1,21,-1,23,25,-1,-1,27,29,-1,31,-1,33,-1,35,-1,37,-1,-1,39,41,-1,-1,43,-1,45,47,-1,49,-1,51,-1,-1,53,-1,-1,-1,-1],"loss_changes":[2.2406805E-2,1.4966742E0,7.520167E-1,5.379752E0,0E0,0E0,1.0208666E0,3.4926848E0,0E0,0E0,9.873345E-1,3.3994598E0,0E0,0E0,1.4500709E0,3.557065E0,0E0,0E0,1.3061562E0,0E0,3.020977E0,1.2252192E0,0E0,0E0,3.2256813E0,1.0569129E0,0E0,2.5732956E0,0E0,8.912802E-1,0E0,1.9832859E0,0E0,4.0657616E-1,0E0,0E0,1.9710865E0,5.2671814E-1,0E0,0E0,1.7139206E0,0E0,6.4819527E-1,1.903204E0,0E0,2.2144318E-1,0E0,1.4218292E0,0E0,0E0,3.275385E-1,0E0,0E0,0E0,0E0],"parents":[2147483647,0,0,1,1,2,2,3,3,6,6,7,7,10,10,11,11,14,14,15,15,18,18,20,20,21,21,24,24,25,25,27,27,29,29,31,31,33,33,36,36,37,37,40,40,42,42,43,43,45,45,47,47,50,50],"right_children":[2,4,6,8,-1,-1,10,12,-1,-1,14,16,-1,-1,18,20,-1,-1,22,-1,24,26,-1,-1,28,30,-1,32,-1,34,-1,36,-1,38,-1,-1,40,42,-1,-1,44,-1,46,48,-1,50,-1,52,-1,-1,54,-1,-1,-1,-1],"split_conditions":[-8.912848E3,1.2596864E3,-8.9882547E-1,6.2518024E2,-0E0,-0E0,-8.857249E-1,2.320775E8,-0E0,-0E0,4.8108345E1,2.810615E3,-0E0,-0E0,-9.963234E3,1.1840163E1,-0E0,-0E0,1E0,-0E0,6.37E2,8.652346E3,-0E0,-0E0,1.8242387E4,3.869902E3,-0E0,2.017E3,-0E0,1.9527232E4,-0E0,-9.8334295E-1,-0E0,2.992947E8,-0E0,-0E0,-9.4175893E-1,-3.4137277E4,-0E0,-0E0,6.4481074E4,-0E0,1.1433326E4,9.8215E-1,-0E0,6E0,-0E0,-3.306682E4,-0E0,-0E0,1.3465278E1,-0E0,-3.974409E-2,2.0598527E-2,-0E0],"split_indices":[88,35,7,58,0,0,6,16,0,0,26,90,0,0,59,22,0,0,106,0,197,77,0,0,61,31,0,2,0,64,0,7,0,16,0,0,6,62,0,0,62,0,59,7,0,0,0,15,0,0,19,0,0,0,0],"split_type":[0,0,0,0,0,0,0,0,0,0,0,0,0,0,0,0,0,0,0,0,0,0,0,0,0,0,0,0,0,0,0,0,0,0,0,0,0,0,0,0,0,0,0,0,0,0,0,0,0,0,0,0,0,0,0],"sum_hessian":[3.147E3,1.636E3,1.511E3,1.312E3,3.24E2,2.37E2,1.274E3,8.6E2,4.52E2,2.53E2,1.021E3,6.77E2,1.83E2,3.54E2,6.67E2,6.15E2,6.2E1,5.2E1,6.15E2,6.4E1,5.51E2,5.79E2,3.6E1,1.7E1,5.34E2,5.68E2,1.1E1,5.2E2,1.4E1,5.56E2,1.2E1,4.64E2,5.6E1,5.29E2,2.7E1,1.2E1,4.52E2,5.14E2,1.5E1,3.9E1,4.13E2,1.5E1,4.99E2,4.03E2,1E1,4.73E2,2.6E1,3.78E2,2.5E1,3.9E1,4.34E2,3E1,3.48E2,4E2,3.4E1],"tree_param":{"num_deleted":"0","num_feature":"200","num_nodes":"55","size_leaf_vector":"1"}},{"base_weights":[-0E0,8.168816E-3,-4.2854194E-3,-0E0,4.0050462E-2,-0E0,-3.4430757E-2,-0E0,5.5535108E-2,-6.749513E-2,-0E0,-0E0,7.001228E-2,-0E0,-1.0631587E-1,8.330136E-2,-0E0,-0E0,-1.2902576E-1,-0E0,9.64712E-2,-0E0,-1.445406E-1,1.2413856E-1,-0E0,-0E0,-1.6599563E-1,-0E0,1.3666709E-1,-0E0,-1.8000141E-1,-0E0,1.5044492E-1,-1.9351639E-1,-0E0,-0E0,1.5945362E-1,-0E0,-2.0251842E-1,1.6519542E-1,-0E0,-2.1687938E-1,-0E0,-0E0,1.724477E-1,-2.2816168E-1,-0E0,1.7705964E-1,-0E0,-0E0,-2.3962346E-1,2.3292884E-2,-0E0,-0E0,-3.1563286E-2],"categories":[],"categories_nodes":[],"categories_segments":[],"categories_sizes":[],"default_left":[0,0,0,0,0,0,0,0,0,0,0,0,0,0,0,0,0,0,0,0,0,0,0,0,0,0,0,0,0,0,0,0,0,0,0,0,0,0,0,0,0,0,0,0,0,0,0,0,0,0,0,0,0,0,0],"id":5,"left_children":[1,3,5,-1,7,-1,9,-1,11,13,-1,-1,15,-1,17,19,-1,-1,21,-1,23,-1,25,27,-1,-1,29,-1,31,-1,33,-1,35,37,-1,-1,39,-1,41,43,-1,45,-1,-1,47,49,-1,51,-1,-1,53,-1,-1,-1,-1],"loss_changes":[1.3838537E-1,1.9366964E0,1.4065713E0,0E0,1.6581867E0,0E0,2.4820147E0,0E0,1.669302E0,3.765535E0,0E0,0E0,2.0190845E0,0E0,3.332488E0,1.8062601E0,0E0,0E0,2.369297E0,0E0,2.3664007E0,0E0,1.9809732E0,1.7241364E0,0E0,0E0,2.2808704E0,0E0,1.1173868E0,0E0,2.2623253E0,0E0,1.1924448E0,1.5260715E0,0E0,0E0,8.708887E-1,0E0,2.15979E0,7.345543E-1,0E0,1.6335659E0,0E0,0E0,6.191387E-1,1.3349972E0,0E0,5.274639E-1,0E0,0E0,1.3688602E0,0E0,0E0,0E0,0E0],"parents":[2147483647,0,0,1,1,2,2,4,4,6,6,8,8,9,9,12,12,14,14,15,15,18,18,20,20,22,22,23,23,26,26,28,28,30,30,32,32,33,33,36,36,38,38,39,39,41,41,44,44,45,45,47,47,50,50],"right_children":[2,4,6,-1,8,-1,10,-1,12,14,-1,-1,16,-1,18,20,-1,-1,22,-1,24,-1,26,28,-1,-1,30,-1,32,-1,34,-1,36,38,-1,-1,40,-1,42,44,-1,46,-1,-1,48,50,-1,52,-1,-1,54,-1,-1,-1,-1],"split_conditions":[2.0429219E6,-1.3302534E3,-3.3079922E2,-0E0,-1.1386366E4,-0E0,2.9415704E2,-0E0,-6.39201E1,5.545187E3,-0E0,-0E0,1E0,-0E0,-2.2425652E4,0E0,-0E0,-0E0,-6.3296515E2,-0E0,-3.876301E3,-0E0,2.1081308E1,0E0,-0E0,-0E0,-2.8371265E2,-0E0,2.1492628E1,-0E0,1E0,-0E0,-1.2812743E4,-3.528751E4,-0E0,-0E0,1.3144215E4,-0E0,1.7141E3,1.393587E1,-0E0,9.664613E-1,-0E0,-0E0,1.9683E4,-1.83024E2,-0E0,1E0,-0E0,-0E0,-9.753364E-1,2.3292884E-2,-0E0,-0E0,-3.1563286E-2],"split_indices":[16,62,68,0,50,0,68,0,100,45,0,0,109,0,31,114,0,0,98,0,91,0,24,176,0,0,100,0,25,0,110,0,31,34,0,0,37,0,199,24,0,5,0,0,32,71,0,113,0,0,6,0,0,0,0],"split_type":[0,0,0,0,0,0,0,0,0,0,0,0,0,0,0,0,0,0,0,0,0,0,0,0,0,0,0,0,0,0,0,0,0,0,0,0,0,0,0,0,0,0,0,0,0,0,0,0,0,0,0,0,0,0,0],"sum_hessian":[3.151E3,1.662E3,1.489E3,3.87E2,1.275E3,2.81E2,1.208E3,7.5E1,1.2E3,8.58E2,3.5E2,1.05E2,1.095E3,1.8E2,6.78E2,1.064E3,3.1E1,1.8E1,6.6E2,7.7E1,9.87E2,2.1E1,6.39E2,7.49E2,2.38E2,8.3E1,5.56E2,3.9E1,7.1E2,1.3E1,5.43E2,7.5E1,6.35E2,5.3E2,1.3E1,2.3E1,6.12E2,9E0,5.21E2,6.02E2,1E1,5E2,2.1E1,2.5E1,5.77E2,4.83E2,1.7E1,5.67E2,1E1,2.2E1,4.61E2,5.3E2,3.7E1,2.2E1,4.39E2],"tree_param":{"num_deleted":"0","num_feature":"200","num_nodes":"55","size_leaf_vector":"1"}},{"base_weights":[-0E0,-0E0,5.2703014E-3,-0E0,-3.7783243E-2,-0E0,3.2602414E-2,-0E0,-6.2649496E-2,-0E0,5.972076E-2,-8.3796114E-2,-0E0,-0E0,8.8661484E-2,-1.2212353E-1,-0E0,1.20161444E-1,-0E0,-1.4543162E-1,-0E0,-0E0,1.486265E-1,-0E0,-1.6151571E-1,-0E0,1.6806246E-1,-1.8670143E-1,-0E0,-0E0,1.900646E-1,-0E0,-2.1431573E-1,-0E0,2.1098806E-1,-0E0,-2.302664E-1,-0E0,2.3726393E-1,-2.4871056E-1,-0E0,-0E0,2.5765046E-1,-2.64557E-1,-0E0,2.772304E-1,-0E0,-2.925379E-1,-0E0,2.8911167E-1,-0E0,-3.9852448E-2,-0E0,-0E0,3.8349986E-2],"categories":[],"categories_nodes":[],"categories_segments":[],"categories_sizes":[],"default_left":[0,0,0,0,0,0,0,0,0,0,0,0,0,0,0,0,0,0,0,0,0,0,0,0,0,0,0,0,0,0,0,0,0,0,0,0,0,0,0,0,0,0,0,0,0,0,0,0,0,0,0,0,0,0,0],"id":6,"left_children":[1,3,5,-1,7,-1,9,-1,11,-1,13,15,-1,-1,17,19,-1,21,-1,23,-1,-1,25,-1,27,-1,29,31,-1,-1,33,-1,35,-1,37,-1,39,-1,41,43,-1,-1,45,47,-1,49,-1,51,-1,53,-1,-1,-1,-1,-1],"loss_changes":[1.5682207E-2,2.367765E0,4.8983502E-1,0E0,2.64674E0,0E0,1.0837249E0,0E0,3.3034644E0,0E0,1.630519E0,5.754941E0,0E0,0E0,2.3333051E0,3.3463993E0,0E0,2.4565783E0,0E0,3.3877869E0,0E0,0E0,1.8928823E0,0E0,3.718382E0,0E0,2.1122847E0,4.1169662E0,0E0,0E0,2.2567415E0,0E0,2.9905376E0,0E0,2.4249668E0,0E0,2.7962284E0,0E0,2.3950577E0,2.9872513E0,0E0,0E0,2.0128155E0,2.342762E0,0E0,9.282627E-1,0E0,2.5448685E0,0E0,9.5144844E-1,0E0,0E0,0E0,0E0,0E0],"parents":[2147483647,0,0,1,1,2,2,4,4,6,6,8,8,10,10,11,11,14,14,15,15,17,17,19,19,22,22,24,24,26,26,27,27,30,30,32,32,34,34,36,36,38,38,39,39,42,42,43,43,45,45,47,47,49,49],"right_children":[2,4,6,-1,8,-1,10,-1,12,-1,14,16,-1,-1,18,20,-1,22,-1,24,-1,-1,26,-1,28,-1,30,32,-1,-1,34,-1,36,-1,38,-1,40,-1,42,44,-1,-1,46,48,-1,50,-1,52,-1,54,-1,-1,-1,-1,-1],"split_conditions":[9.7030615E2,8.1205713E3,5.152998E1,-0E0,-3.9887766E4,-0E0,-2.3513958E6,-0E0,9.750985E-1,-0E0,-1.0756228E13,7.049748E2,-0E0,-0E0,1.4809825E4,1E0,-0E0,3.5351305E0,-0E0,1.66375E2,-0E0,-0E0,2E0,-0E0,4.9826675E2,-0E0,4.173262E3,0E0,-0E0,-0E0,0E0,-0E0,-9.7742647E-1,-0E0,0E0,-0E0,9.912686E-1,-0E0,-1.1733227E5,1.3695E4,-0E0,-0E0,1.5683841E2,-1.08783E3,-0E0,3.1E1,-0E0,1E0,-0E0,-1.4362389E4,-0E0,-3.9852448E-2,-0E0,-0E0,3.8349986E-2],"split_indices":[35,45,26,0,88,0,17,0,7,0,18,37,0,0,14,136,0,20,0,41,0,0,1,0,68,0,45,120,0,0,111,0,7,0,158,0,6,0,80,0,0,0,26,67,0,1,0,177,0,52,0,0,0,0,0],"split_type":[0,0,0,0,0,0,0,0,0,0,0,0,0,0,0,0,0,0,0,0,0,0,0,0,0,0,0,0,0,0,0,0,0,0,0,0,0,0,0,0,0,0,0,0,0,0,0,0,0,0,0,0,0,0,0],"sum_hessian":[3.135E3,2.572E3,5.63E2,9.15E2,1.657E3,8.9E1,4.74E2,3.81E2,1.276E3,3E1,4.44E2,1.183E3,9.3E1,3.6E1,4.08E2,9.42E2,2.41E2,3.83E2,2.5E1,8.22E2,1.2E2,2.2E1,3.61E2,2.6E1,7.96E2,1.2E1,3.49E2,7.02E2,9.4E1,1.8E1,3.31E2,8E1,6.22E2,1.2E1,3.19E2,2.7E1,5.95E2,2.4E1,2.95E2,5.55E2,4E1,9E0,2.86E2,5.33E2,2.2E1,2.73E2,1.3E1,4.63E2,7E1,2.62E2,1.1E1,4.17E2,4.6E1,1.8E1,2.44E2],"tree_param":{"num_deleted":"0","num_feature":"200","num_nodes":"55","size_leaf_vector":"1"}},{"base_weights":[-0E0,-0E0,3.2552506E-3,-0E0,-2.4897456E-2,2.5781162E-2,-0E0,-4.9389996E-2,-0E0,-0E0,4.709855E-2,-7.472415E-2,-0E0,-0E0,6.307218E-2,-0E0,-1.0850519E-1,7.560119E-2,-0E0,-0E0,-1.3074413E-1,8.6796954E-2,-0E0,-0E0,-1.4887765E-1,9.715308E-2,-0E0,-0E0,-1.681178E-1,1.045986E-1,-0E0,-0E0,-1.9144443E-1,-0E0,1.1263284E-1,-2.1320848E-1,-0E0,-0E0,1.2066242E-1,-0E0,-2.4409364E-1,-0E0,1.2607498E-1,-0E0,-2.588105E-1,1.3120946E-1,-0E0,-0E0,-2.7410033E-1,-0E0,1.3608783E-1,-0E0,-3.5819758E-2,1.7519541E-2,-0E0],"categories":[],"categories_nodes":[],"categories_segments":[],"categories_sizes":[],"default_left":[0,0,0,0,0,0,0,0,0,0,0,0,0,0,0,0,0,0,0,0,0,0,0,0,0,0,0,0,0,0,0,0,0,0,0,0,0,0,0,0,0,0,0,0,0,0,0,0,0,0,0,0,0,0,0],"id":7,"left_children":[1,3,5,-1,7,9,-1,11,-1,-1,13,15,-1,-1,17,-1,19,21,-1,-1,23,25,-1,-1,27,29,-1,-1,31,33,-1,-1,35,-1,37,39,-1,-1,41,-1,43,-1,45,-1,47,49,-1,-1,51,-1,53,-1,-1,-1,-1],"loss_changes":[1.5986053E-2,7.6778376E-1,8.916811E-1,0E0,1.7974449E0,1.3363252E0,0E0,2.1451466E0,0E0,0E0,1.545522E0,3.349609E0,0E0,0E0,9.120548E-1,0E0,3.095477E0,1.1264653E0,0E0,0E0,2.821375E0,1.3793178E0,0E0,0E0,3.139432E0,1.015739E0,0E0,0E0,2.6603775E0,1.1214561E0,0E0,0E0,4.20665E0,0E0,1.0595284E0,4.293829E0,0E0,0E0,7.9537964E-1,0E0,2.23987E0,0E0,6.725426E-1,0E0,2.2096176E0,6.9549465E-1,0E0,0E0,2.1022568E0,0E0,5.1035595E-1,0E0,0E0,0E0,0E0],"parents":[2147483647,0,0,1,1,2,2,4,4,5,5,7,7,10,10,11,11,14,14,16,16,17,17,20,20,21,21,24,24,25,25,28,28,29,29,32,32,34,34,35,35,38,38,40,40,42,42,44,44,45,45,48,48,50,50],"right_children":[2,4,6,-1,8,10,-1,12,-1,-1,14,16,-1,-1,18,-1,20,22,-1,-1,24,26,-1,-1,28,30,-1,-1,32,34,-1,-1,36,-1,38,40,-1,-1,42,-1,44,-1,46,-1,48,50,-1,-1,52,-1,54,-1,-1,-1,-1],"split_conditions":[-8.912848E3,-1.3984942E4,1.2064548E1,-0E0,2.3526306E3,-7.3137814E-1,-0E0,7.8544336E3,-0E0,-0E0,0E0,-2.5795565E1,-0E0,-0E0,1.319E3,-0E0,0E0,1.2128495E4,-0E0,-0E0,6.341E2,2.3375938E2,-0E0,-0E0,1.5745546E2,7.8544336E3,-0E0,-0E0,-9.839511E3,-2.7061719E4,-0E0,-0E0,6.4223508E4,-0E0,-3.521224E4,5.545187E3,-0E0,-0E0,2.1597363E-1,-0E0,-9.86324E-1,-0E0,-8.887529E2,-0E0,3.0116359E-2,-5.0317007E3,-0E0,-0E0,-2.1237439E2,-0E0,1.0880155E4,-0E0,-3.5819758E-2,1.7519541E-2,-0E0],"split_indices":[88,15,20,0,35,7,0,79,0,0,146,73,0,0,198,0,105,79,0,0,199,72,0,0,41,75,0,0,65,80,0,0,82,0,86,45,0,0,40,0,7,0,91,0,5,14,0,0,72,0,77,0,0,0,0],"split_type":[0,0,0,0,0,0,0,0,0,0,0,0,0,0,0,0,0,0,0,0,0,0,0,0,0,0,0,0,0,0,0,0,0,0,0,0,0,0,0,0,0,0,0,0,0,0,0,0,0,0,0,0,0,0,0],"sum_hessian":[3.141E3,1.634E3,1.507E3,3.97E2,1.237E3,1.364E3,1.43E2,1.05E3,1.87E2,3.54E2,1.01E3,8.42E2,2.08E2,5.9E1,9.51E2,1.59E2,6.83E2,8.21E2,1.3E2,3.2E1,6.51E2,7.72E2,4.9E1,2.2E1,6.29E2,7.62E2,1E1,2.5E1,6.04E2,7.5E2,1.2E1,6.6E1,5.38E2,1.5E1,7.35E2,5.26E2,1.2E1,2.2E1,7.13E2,5.3E1,4.73E2,1E1,7.03E2,1.9E1,4.54E2,6.88E2,1.5E1,2E1,4.34E2,1.1E1,6.77E2,9E0,4.25E2,6.68E2,9E0],"tree_param":{"num_deleted":"0","num_feature":"200","num_nodes":"55","size_leaf_vector":"1"}},{"base_weights":[-0E0,4.526077E-3,-0E0,-0E0,2.3412302E-2,-0E0,-1.7744483E-2,-0E0,4.6376765E-2,-0E0,-3.8082626E-2,5.9579775E-2,-0E0,-0E0,-5.3849377E-2,-0E0,8.8464305E-2,-7.5293116E-2,-0E0,-0E0,1.05953954E-1,-9.470986E-2,-0E0,-0E0,1.271217E-1,-1.099718E-1,-0E0,-0E0,1.3992777E-1,-0E0,-1.3286072E-1,-0E0,1.5271892E-1,-1.5234257E-1,-0E0,-0E0,1.6495454E-1,-1.7698066E-1,-0E0,-0E0,1.7806275E-1,-0E0,-1.9030698E-1,1.8661296E-1,-0E0,-0E0,-2.0434542E-1,-0E0,1.956381E-1,-0E0,-2.1593633E-1,-0E0,2.7086845E-2,-0E0,-2.8277185E-2],"categories":[],"categories_nodes":[],"categories_segments":[],"categories_sizes":[],"default_left":[0,0,0,0,0,0,0,0,0,0,0,0,0,0,0,0,0,0,0,0,0,0,0,0,0,0,0,0,0,0,0,0,0,0,0,0,0,0,0,0,0,0,0,0,0,0,0,0,0,0,0,0,0,0,0],"id":8,"left_children":[1,3,5,-1,7,-1,9,-1,11,-1,13,15,-1,-1,17,-1,19,21,-1,-1,23,25,-1,-1,27,29,-1,-1,31,-1,33,-1,35,37,-1,-1,39,41,-1,-1,43,-1,45,47,-1,-1,49,-1,51,-1,53,-1,-1,-1,-1],"loss_changes":[4.2642225E-2,8.6758894E-1,2.5176555E-1,0E0,1.753742E0,0E0,8.4116167E-1,0E0,1.3564517E0,0E0,9.4732356E-1,2.0101929E0,0E0,0E0,1.3532109E0,0E0,1.7558365E0,1.7695923E0,0E0,0E0,2.177662E0,1.6045628E0,0E0,0E0,1.8149643E0,1.5569482E0,0E0,0E0,1.8321257E0,0E0,1.9240646E0,0E0,1.9418697E0,1.8916512E0,0E0,0E0,1.2067089E0,1.5349464E0,0E0,0E0,9.865227E-1,0E0,1.6744175E0,1.1456432E0,0E0,0E0,1.3710566E0,0E0,1.0244522E0,0E0,1.0159473E0,0E0,0E0,0E0,0E0],"parents":[2147483647,0,0,1,1,2,2,4,4,6,6,8,8,10,10,11,11,14,14,16,16,17,17,20,20,21,21,24,24,25,25,28,28,30,30,32,32,33,33,36,36,37,37,40,40,42,42,43,43,46,46,48,48,50,50],"right_children":[2,4,6,-1,8,-1,10,-1,12,-1,14,16,-1,-1,18,-1,20,22,-1,-1,24,26,-1,-1,28,30,-1,-1,32,-1,34,-1,36,38,-1,-1,40,42,-1,-1,44,-1,46,48,-1,-1,50,-1,52,-1,54,-1,-1,-1,-1],"split_conditions":[7.950294E1,-2.210522E3,-1.66375E2,-0E0,4.5942627E1,-0E0,0E0,-0E0,1.1339974E4,-0E0,1.7145361E4,-4.6655052E1,-0E0,-0E0,1.7715503E3,-0E0,0E0,9.582478E-1,-0E0,-0E0,0E0,3.4893035E4,-0E0,-0E0,-2.2425652E4,7.570997E4,-0E0,-0E0,0E0,-0E0,6.567687E3,-0E0,1.59452E3,1E0,-0E0,-0E0,0E0,-1.4401197E4,-0E0,-0E0,3.2750197E4,-0E0,-1.6514273E2,2.1597363E-1,-0E0,-0E0,1.4836814E1,-0E0,-1.331125E3,-0E0,-2.2425652E4,-0E0,2.7086845E-2,-0E0,-2.8277185E-2],"split_indices":[33,63,34,0,26,0,143,0,64,0,99,35,0,0,35,0,176,5,0,0,156,65,0,0,34,103,0,0,111,0,87,0,92,180,0,0,124,52,0,0,80,0,73,40,0,0,24,0,61,0,32,0,0,0,0],"split_type":[0,0,0,0,0,0,0,0,0,0,0,0,0,0,0,0,0,0,0,0,0,0,0,0,0,0,0,0,0,0,0,0,0,0,0,0,0,0,0,0,0,0,0,0,0,0,0,0,0,0,0,0,0,0,0],"sum_hessian":[3.153E3,2.08E3,1.073E3,4.21E2,1.659E3,2.75E2,7.98E2,4.22E2,1.237E3,4.6E1,7.52E2,1.131E3,1.06E2,5E1,7.02E2,3.62E2,7.69E2,5.97E2,1.05E2,7.7E1,6.92E2,5.74E2,2.3E1,7.7E1,6.15E2,5.58E2,1.6E1,1.5E1,6E2,8.8E1,4.7E2,1.8E1,5.82E2,4.4E2,3E1,1.2E1,5.7E2,3.86E2,5.4E1,4.3E1,5.27E2,1E1,3.76E2,5.08E2,1.9E1,1E1,3.66E2,1.6E1,4.92E2,9E0,3.57E2,6.7E1,4.25E2,1E1,3.47E2],"tree_param":{"num_deleted":"0","num_feature":"200","num_nodes":"55","size_leaf_vector":"1"}},{"base_weights":[-0E0],"categories":[],"categories_nodes":[],"categories_segments":[],"categories_sizes":[],"default_left":[0],"id":9,"left_children":[-1],"loss_changes":[0E0],"parents":[2147483647],"right_children":[-1],"split_conditions":[-0E0],"split_indices":[0],"split_type":[0],"sum_hessian":[3.138E3],"tree_param":{"num_deleted":"0","num_feature":"200","num_nodes":"1","size_leaf_vector":"1"}},{"base_weights":[-0E0,6.668755E-4,-0E0,3.2514483E-2,-0E0,-0E0,6.94691E-2,-0E0,1.0619525E-1,-0E0,1.2129118E-1,-0E0,1.5277874E-1,1.7121467E-1,-0E0,-0E0,1.844318E-1,1.997288E-1,-0E0,2.099996E-1,-0E0,2.1760902E-1,-0E0,2.2451173E-1,-0E0,-0E0,2.2887164E-1,2.969375E-2,-0E0],"categories":[],"categories_nodes":[],"categories_segments":[],"categories_sizes":[],"default_left":[0,0,0,0,0,0,0,0,0,0,0,0,0,0,0,0,0,0,0,0,0,0,0,0,0,0,0,0,0],"id":10,"left_children":[1,3,-1,5,-1,-1,7,-1,9,-1,11,-1,13,15,-1,-1,17,19,-1,21,-1,23,-1,25,-1,-1,27,-1,-1],"loss_changes":[1.2308126E-3,1.3219438E0,0E0,3.5153008E0,0E0,0E0,3.5811882E0,0E0,2.269662E0,0E0,2.1856232E0,0E0,2.3859882E0,1.8008308E0,0E0,0E0,1.830656E0,1.5078983E0,0E0,1.0790291E0,0E0,8.802376E-1,0E0,3.5303307E-1,0E0,0E0,2.1196365E-1,0E0,0E0],"parents":[2147483647,0,0,1,1,3,3,6,6,8,8,10,10,12,12,13,13,16,16,17,17,19,19,21,21,23,23,26,26],"right_children":[2,4,-1,6,-1,-1,8,-1,10,-1,12,-1,14,16,-1,-1,18,20,-1,22,-1,24,-1,26,-1,-1,28,-1,-1],"split_conditions":[1.4815347E12,1.1955E3,-0E0,0E0,-0E0,-0E0,-9.909887E2,-0E0,-4.56854E4,-0E0,2.5203499E1,-0E0,2.7030285E4,0E0,-0E0,-0E0,5.744861E2,4.1179797E4,-0E0,1.4706125E4,-0E0,1.1390625E4,-0E0,5.48E2,-0E0,-0E0,-2.484999E3,2.969375E-2,-0E0],"split_indices":[12,198,0,131,0,0,62,0,67,0,25,0,15,111,0,0,93,78,0,38,0,31,0,198,0,0,91,0,0],"split_type":[0,0,0,0,0,0,0,0,0,0,0,0,0,0,0,0,0,0,0,0,0,0,0,0,0,0,0,0,0],"sum_hessian":[3.148E3,2.766E3,3.82E2,1.25E3,1.516E3,2.49E2,1.001E3,2.56E2,7.45E2,2E1,7.25E2,1.75E2,5.5E2,5.19E2,3.1E1,1.9E1,5E2,4.72E2,2.8E1,4.61E2,1.1E1,4.52E2,9E0,4.42E2,1E1,1E1,4.32E2,4.07E2,2.5E1],"tree_param":{"num_deleted":"0","num_feature":"200","num_nodes":"29","size_leaf_vector":"1"}},{"base_weights":[-0E0],"categories":[],"categories_nodes":[],"categories_segments":[],"categories_sizes":[],"default_left":[0],"id":11,"left_children":[-1],"loss_changes":[0E0],"parents":[2147483647],"right_children":[-1],"split_conditions":[-0E0],"split_indices":[0],"split_type":[0],"sum_hessian":[3.147E3],"tree_param":{"num_deleted":"0","num_feature":"200","num_nodes":"1","size_leaf_vector":"1"}},{"base_weights":[-0E0],"categories":[],"categories_nodes":[],"categories_segments":[],"categories_sizes":[],"default_left":[0],"id":12,"left_children":[-1],"loss_changes":[0E0],"parents":[2147483647],"right_children":[-1],"split_conditions":[-0E0],"split_indices":[0],"split_type":[0],"sum_hessian":[3.128E3],"tree_param":{"num_deleted":"0","num_feature":"200","num_nodes":"1","size_leaf_vector":"1"}},{"base_weights":[-0E0],"categories":[],"categories_nodes":[],"categories_segments":[],"categories_sizes":[],"default_left":[0],"id":13,"left_children":[-1],"loss_changes":[0E0],"parents":[2147483647],"right_children":[-1],"split_conditions":[-0E0],"split_indices":[0],"split_type":[0],"sum_hessian":[3.143E3],"tree_param":{"num_deleted":"0","num_feature":"200","num_nodes":"1","size_leaf_vector":"1"}},{"base_weights":[-0E0],"categories":[],"categories_nodes":[],"categories_segments":[],"categories_sizes":[],"default_left":[0],"id":14,"left_children":[-1],"loss_changes":[0E0],"parents":[2147483647],"right_children":[-1],"split_conditions":[-0E0],"split_indices":[0],"split_type":[0],"sum_hessian":[3.125E3],"tree_param":{"num_deleted":"0","num_feature":"200","num_nodes":"1","size_leaf_vector":"1"}},{"base_weights":[-0E0],"categories":[],"categories_nodes":[],"categories_segments":[],"categories_sizes":[],"default_left":[0],"id":15,"left_children":[-1],"loss_changes":[0E0],"parents":[2147483647],"right_children":[-1],"split_conditions":[-0E0],"split_indices":[0],"split_type":[0],"sum_hessian":[3.149E3],"tree_param":{"num_deleted":"0","num_feature":"200","num_nodes":"1","size_leaf_vector":"1"}},{"base_weights":[-0E0],"categories":[],"categories_nodes":[],"categories_segments":[],"categories_sizes":[],"default_left":[0],"id":16,"left_children":[-1],"loss_changes":[0E0],"parents":[2147483647],"right_children":[-1],"split_conditions":[-0E0],"split_indices":[0],"split_type":[0],"sum_hessian":[3.13E3],"tree_param":{"num_deleted":"0","num_feature":"200","num_nodes":"1","size_leaf_vector":"1"}},{"base_weights":[-0E0],"categories":[],"categories_nodes":[],"categories_segments":[],"categories_sizes":[],"default_left":[0],"id":17,"left_children":[-1],"loss_changes":[0E0],"parents":[2147483647],"right_children":[-1],"split_conditions":[-0E0],"split_indices":[0],"split_type":[0],"sum_hessian":[3.159E3],"tree_param":{"num_deleted":"0","num_feature":"200","num_nodes":"1","size_leaf_vector":"1"}},{"base_weights":[-0E0],"categories":[],"categories_nodes":[],"categories_segments":[],"categories_sizes":[],"default_left":[0],"id":18,"left_children":[-1],"loss_changes":[0E0],"parents":[2147483647],"right_children":[-1],"split_conditions":[-0E0],"split_indices":[0],"split_type":[0],"sum_hessian":[3.152E3],"tree_param":{"num_deleted":"0","num_feature":"200","num_nodes":"1","size_leaf_vector":"1"}},{"base_weights":[-0E0,-0E0,7.946931E-4,-7.6524895E-3,-0E0,3.269815E-2,-0E0,-3.193625E-2,-0E0,-0E0,4.6588767E-2,-0E0,-5.656745E-2,-0E0,7.044478E-2,-0E0,-6.978568E-2,-0E0,9.194129E-2,-8.379726E-2,-0E0,-0E0,1.0879103E-1,-9.824272E-2,-0E0,-0E0,1.6038255E-1,-1.1262176E-1,-0E0,-0E0,1.8098134E-1,-0E0,-1.2636079E-1,1.9759546E-1,-0E0,-1.3758165E-1,-0E0,2.0968094E-1,-0E0,-0E0,-1.5390877E-1,-0E0,2.263774E-1,-1.6935001E-1,-0E0,-0E0,2.3791699E-1,-0E0,-2.35244E-2,-0E0,2.5227895E-1,3.3439312E-2,-0E0],"categories":[],"categories_nodes":[],"categories_segments":[],"categories_sizes":[],"default_left":[0,0,0,0,0,0,0,0,0,0,0,0,0,0,0,0,0,0,0,0,0,0,0,0,0,0,0,0,0,0,0,0,0,0,0,0,0,0,0,0,0,0,0,0,0,0,0,0,0,0,0,0,0],"id":19,"left_children":[1,3,5,7,-1,9,-1,11,-1,-1,13,-1,15,-1,17,-1,19,-1,21,23,-1,-1,25,27,-1,-1,29,31,-1,-1,33,-1,35,37,-1,39,-1,41,-1,-1,43,-1,45,47,-1,-1,49,-1,-1,-1,51,-1,-1],"loss_changes":[1.603848E-3,2.9900692E-2,1.5054903E0,4.4598982E-1,0E0,1.4265583E0,0E0,8.571589E-1,0E0,0E0,2.0119123E0,0E0,6.470803E-1,0E0,2.1685982E0,0E0,6.783507E-1,0E0,1.91151E0,7.928865E-1,0E0,0E0,2.3847036E0,8.432455E-1,0E0,0E0,2.5296364E0,8.0836153E-1,0E0,0E0,1.9740763E0,0E0,7.7617073E-1,1.5665703E0,0E0,1.0991726E0,0E0,1.5110722E0,0E0,0E0,8.682046E-1,0E0,1.1364918E0,9.7791815E-1,0E0,0E0,1.1669064E0,0E0,0E0,0E0,5.199909E-1,0E0,0E0],"parents":[2147483647,0,0,1,1,2,2,3,3,5,5,7,7,10,10,12,12,14,14,16,16,18,18,19,19,22,22,23,23,26,26,27,27,30,30,32,32,33,33,35,35,37,37,40,40,42,42,43,43,46,46,50,50],"right_children":[2,4,6,8,-1,10,-1,12,-1,-1,14,-1,16,-1,18,-1,20,-1,22,24,-1,-1,26,28,-1,-1,30,32,-1,-1,34,-1,36,38,-1,40,-1,42,-1,-1,44,-1,46,48,-1,-1,50,-1,-1,-1,52,-1,-1],"split_conditions":[-6.6739624E3,1E0,4.0958123E0,7.880628E3,-0E0,-1.2812743E4,-0E0,0E0,-0E0,-0E0,4.5942627E1,-0E0,0E0,-0E0,-1.6811299E4,-0E0,-1.5557626E3,-0E0,0E0,2.8778347E3,-0E0,-0E0,-1.06875E2,3.4893035E4,-0E0,-0E0,0E0,1.66375E2,-0E0,-0E0,1.1390625E4,-0E0,1.5750545E2,4.8137555E4,-0E0,-2.1058875E2,-0E0,1.0351007E1,-0E0,-0E0,1E0,-0E0,-3.559546E4,0E0,-0E0,-0E0,1.7663548E1,-0E0,-2.35244E-2,-0E0,9.6825075E-1,3.3439312E-2,-0E0],"split_indices":[84,153,33,33,0,31,0,114,0,0,26,0,112,0,80,0,88,0,155,52,0,0,61,62,0,0,112,41,0,0,38,0,26,55,0,73,0,22,0,0,104,0,79,161,0,0,24,0,0,0,6,0,0],"split_type":[0,0,0,0,0,0,0,0,0,0,0,0,0,0,0,0,0,0,0,0,0,0,0,0,0,0,0,0,0,0,0,0,0,0,0,0,0,0,0,0,0,0,0,0,0,0,0,0,0,0,0,0,0],"sum_hessian":[3.128E3,5.9E2,2.538E3,5.09E2,8.1E1,1.408E3,1.13E3,4.65E2,4.4E1,5.8E1,1.35E3,5E1,4.15E2,3.55E2,9.95E2,1E1,4.05E2,1.55E2,8.4E2,3.77E2,2.8E1,7.9E1,7.61E2,3.56E2,2.1E1,3.19E2,4.42E2,3.37E2,1.9E1,1.8E1,4.24E2,1.9E1,3.18E2,4.06E2,1.8E1,3.09E2,9E0,3.96E2,1E1,1.6E1,2.93E2,2.7E1,3.69E2,2.72E2,2.1E1,1.5E1,3.54E2,2.3E1,2.49E2,2.1E1,3.33E2,3.05E2,2.8E1],"tree_param":{"num_deleted":"0","num_feature":"200","num_nodes":"53","size_leaf_vector":"1"}},{"base_weights":[-0E0],"categories":[],"categories_nodes":[],"categories_segments":[],"categories_sizes":[],"default_left":[0],"id":20,"left_children":[-1],"loss_changes":[0E0],"parents":[2147483647],"right_children":[-1],"split_conditions":[-0E0],"split_indices":[0],"split_type":[0],"sum_hessian":[3.147E3],"tree_param":{"num_deleted":"0","num_feature":"200","num_nodes":"1","size_leaf_vector":"1"}},{"base_weights":[-0E0],"categories":[],"categories_nodes":[],"categories_segments":[],"categories_sizes":[],"default_left":[0],"id":21,"left_children":[-1],"loss_changes":[0E0],"parents":[2147483647],"right_children":[-1],"split_conditions":[-0E0],"split_indices":[0],"split_type":[0],"sum_hessian":[3.127E3],"tree_param":{"num_deleted":"0","num_feature":"200","num_nodes":"1","size_leaf_vector":"1"}},{"base_weights":[-0E0],"categories":[],"categories_nodes":[],"categories_segments":[],"categories_sizes":[],"default_left":[0],"id":22,"left_children":[-1],"loss_changes":[0E0],"parents":[2147483647],"right_children":[-1],"split_conditions":[-0E0],"split_indices":[0],"split_type":[0],"sum_hessian":[3.134E3],"tree_param":{"num_deleted":"0","num_feature":"200","num_nodes":"1","size_leaf_vector":"1"}},{"base_weights":[-0E0,4.393874E-3,-0E0,-0E0,3.161114E-2,-2.0977292E-2,-0E0,4.6045586E-2,-0E0,-4.8268996E-2,-0E0,-0E0,7.027247E-2,-0E0,-7.505519E-2,-0E0,9.8458834E-2,-0E0,-9.451265E-2,1.17101505E-1,-0E0,-0E0,-1.0863664E-1,1.2864669E-1,-0E0,-0E0,-1.19487956E-1,1.3999347E-1,-0E0,-0E0,-1.3294038E-1,1.5571968E-1,-0E0,-0E0,-1.4588965E-1,1.6293317E-1,-0E0,-0E0,-1.6206284E-1,1.9431888E-1,-0E0,-0E0,-1.728203E-1,-0E0,2.0200892E-1,-1.8391037E-1,-0E0,-0E0,2.6097538E-2,-0E0,-2.0226753E-1,-0E0,-2.6612973E-2],"categories":[],"categories_nodes":[],"categories_segments":[],"categories_sizes":[],"default_left":[0,0,0,0,0,0,0,0,0,0,0,0,0,0,0,0,0,0,0,0,0,0,0,0,0,0,0,0,0,0,0,0,0,0,0,0,0,0,0,0,0,0,0,0,0,0,0,0,0,0,0,0,0],"id":23,"left_children":[1,3,5,-1,7,9,-1,11,-1,13,-1,-1,15,-1,17,-1,19,-1,21,23,-1,-1,25,27,-1,-1,29,31,-1,-1,33,35,-1,-1,37,39,-1,-1,41,43,-1,-1,45,-1,47,49,-1,-1,-1,-1,51,-1,-1],"loss_changes":[3.1210177E-2,1.3123945E0,5.7364243E-1,0E0,1.3969482E0,2.2725446E0,0E0,1.5191269E0,0E0,1.922915E0,0E0,0E0,2.2023783E0,0E0,2.2304626E0,0E0,2.322256E0,0E0,1.8470845E0,1.4534006E0,0E0,0E0,1.6842556E0,1.1604662E0,0E0,0E0,1.6210461E0,8.375282E-1,0E0,0E0,1.7377253E0,6.8201065E-1,0E0,0E0,1.5693731E0,1.528965E0,0E0,0E0,1.463335E0,2.682953E-1,0E0,0E0,1.3959656E0,0E0,4.7939682E-1,1.5892601E0,0E0,0E0,0E0,0E0,1.3911476E0,0E0,0E0],"parents":[2147483647,0,0,1,1,2,2,4,4,5,5,7,7,9,9,12,12,14,14,16,16,18,18,19,19,22,22,23,23,26,26,27,27,30,30,31,31,34,34,35,35,38,38,39,39,42,42,44,44,45,45,50,50],"right_children":[2,4,6,-1,8,10,-1,12,-1,14,-1,-1,16,-1,18,-1,20,-1,22,24,-1,-1,26,28,-1,-1,30,32,-1,-1,34,36,-1,-1,38,40,-1,-1,42,44,-1,-1,46,-1,48,50,-1,-1,-1,-1,52,-1,-1],"split_conditions":[1.3413723E5,-7.254454E3,1.4428923E3,-0E0,1.1390625E4,9.7876906E-1,-0E0,5.0319786E1,-0E0,1.5438294E4,-0E0,-0E0,-2.4897012E3,-0E0,-7.47987E1,-0E0,1.7680992E3,-0E0,-2.2425652E4,1.4706125E4,-0E0,-0E0,-3.4224504E4,9.7876906E-1,-0E0,-0E0,-9.726578E-1,1E0,-0E0,-0E0,-3.3025023E4,1.22832275E2,-0E0,-0E0,4.505217E0,2.016E3,-0E0,-0E0,-1.717361E4,9.062129E2,-0E0,-0E0,4.1179797E4,-0E0,2E0,3.2900766E4,-0E0,-0E0,2.6097538E-2,-0E0,3.5351305E0,-0E0,-2.6612973E-2],"split_indices":[12,84,35,0,33,7,0,26,0,49,0,0,61,0,100,0,93,0,30,38,0,0,48,7,0,0,7,180,0,0,80,100,0,0,19,2,0,0,13,89,0,0,82,0,1,99,0,0,0,0,20,0,0],"split_type":[0,0,0,0,0,0,0,0,0,0,0,0,0,0,0,0,0,0,0,0,0,0,0,0,0,0,0,0,0,0,0,0,0,0,0,0,0,0,0,0,0,0,0,0,0,0,0,0,0,0,0,0,0],"sum_hessian":[3.138E3,1.615E3,1.523E3,2.72E2,1.343E3,1.302E3,2.21E2,1.291E3,5.2E1,1.22E3,8.2E1,4.3E2,8.61E2,3.75E2,8.45E2,1.96E2,6.65E2,6.3E1,7.82E2,6.39E2,2.6E1,3.4E1,7.48E2,6.17E2,2.2E1,1.2E1,7.36E2,5.8E2,3.7E1,5E1,6.86E2,5.03E2,7.7E1,3.5E1,6.51E2,4.85E2,1.8E1,6.4E1,5.87E2,3.81E2,1.04E2,2.2E1,5.65E2,2.2E1,3.59E2,5.4E2,2.5E1,1E1,3.49E2,5.5E1,4.85E2,1.4E1,4.71E2],"tree_param":{"num_deleted":"0","num_feature":"200","num_nodes":"53","size_leaf_vector":"1"}},{"base_weights":[-0E0],"categories":[],"categories_nodes":[],"categories_segments":[],"categories_sizes":[],"default_left":[0],"id":24,"left_children":[-1],"loss_changes":[0E0],"parents":[2147483647],"right_children":[-1],"split_conditions":[-0E0],"split_indices":[0],"split_type":[0],"sum_hessian":[3.147E3],"tree_param":{"num_deleted":"0","num_feature":"200","num_nodes":"1","size_leaf_vector":"1"}},{"base_weights":[-0E0],"categories":[],"categories_nodes":[],"categories_segments":[],"categories_sizes":[],"default_left":[0],"id":25,"left_children":[-1],"loss_changes":[0E0],"parents":[2147483647],"right_children":[-1],"split_conditions":[-0E0],"split_indices":[0],"split_type":[0],"sum_hessian":[3.161E3],"tree_param":{"num_deleted":"0","num_feature":"200","num_nodes":"1","size_leaf_vector":"1"}},{"base_weights":[-0E0],"categories":[],"categories_nodes":[],"categories_segments":[],"categories_sizes":[],"default_left":[0],"id":26,"left_children":[-1],"loss_changes":[0E0],"parents":[2147483647],"right_children":[-1],"split_conditions":[-0E0],"split_indices":[0],"split_type":[0],"sum_hessian":[3.143E3],"tree_param":{"num_deleted":"0","num_feature":"200","num_nodes":"1","size_leaf_vector":"1"}},{"base_weights":[-0E0],"categories":[],"categories_nodes":[],"categories_segments":[],"categories_sizes":[],"default_left":[0],"id":27,"left_children":[-1],"loss_changes":[0E0],"parents":[2147483647],"right_children":[-1],"split_conditions":[-0E0],"split_indices":[0],"split_type":[0],"sum_hessian":[3.122E3],"tree_param":{"num_deleted":"0","num_feature":"200","num_nodes":"1","size_leaf_vector":"1"}},{"base_weights":[-0E0],"categories":[],"categories_nodes":[],"categories_segments":[],"categories_sizes":[],"default_left":[0],"id":28,"left_children":[-1],"loss_changes":[0E0],"parents":[2147483647],"right_children":[-1],"split_conditions":[-0E0],"split_indices":[0],"split_type":[0],"sum_hessian":[3.135E3],"tree_param":{"num_deleted":"0","num_feature":"200","num_nodes":"1","size_leaf_vector":"1"}},{"base_weights":[-0E0],"categories":[],"categories_nodes":[],"categories_segments":[],"categories_sizes":[],"default_left":[0],"id":29,"left_children":[-1],"loss_changes":[0E0],"parents":[2147483647],"right_children":[-1],"split_conditions":[-0E0],"split_indices":[0],"split_type":[0],"sum_hessian":[3.152E3],"tree_param":{"num_deleted":"0","num_feature":"200","num_nodes":"1","size_leaf_vector":"1"}},{"base_weights":[-0E0],"categories":[],"categories_nodes":[],"categories_segments":[],"categories_sizes":[],"default_left":[0],"id":30,"left_children":[-1],"loss_changes":[0E0],"parents":[2147483647],"right_children":[-1],"split_conditions":[-0E0],"split_indices":[0],"split_type":[0],"sum_hessian":[3.129E3],"tree_param":{"num_deleted":"0","num_feature":"200","num_nodes":"1","size_leaf_vector":"1"}},{"base_weights":[-0E0],"categories":[],"categories_nodes":[],"categories_segments":[],"categories_sizes":[],"default_left":[0],"id":31,"left_children":[-1],"loss_changes":[0E0],"parents":[2147483647],"right_children":[-1],"split_conditions":[-0E0],"split_indices":[0],"split_type":[0],"sum_hessian":[3.142E3],"tree_param":{"num_deleted":"0","num_feature":"200","num_nodes":"1","size_leaf_vector":"1"}},{"base_weights":[-0E0,2.3571441E-3,-0E0,-0E0,2.1263788E-2,-0E0,3.8161926E-2,7.798988E-2,-0E0,-0E0,9.7573705E-2,1.1636551E-1,-0E0,1.2663947E-1,-0E0,-0E0,1.4254776E-1,1.526542E-1,-0E0,1.6074704E-1,-0E0,1.6697827E-1,-0E0,1.716253E-1,-0E0,-0E0,1.7642628E-1,2.2651052E-2,-0E0],"categories":[],"categories_nodes":[],"categories_segments":[],"categories_sizes":[],"default_left":[0,0,0,0,0,0,0,0,0,0,0,0,0,0,0,0,0,0,0,0,0,0,0,0,0,0,0,0,0],"id":32,"left_children":[1,3,-1,-1,5,-1,7,9,-1,-1,11,13,-1,15,-1,-1,17,19,-1,21,-1,23,-1,25,-1,-1,27,-1,-1],"loss_changes":[1.5238205E-2,9.8427904E-1,0E0,0E0,1.8528469E0,0E0,3.4039793E0,2.5749354E0,0E0,0E0,2.9438353E0,1.8984108E0,0E0,2.0051613E0,0E0,0E0,1.6495132E0,1.6275864E0,0E0,9.9622536E-1,0E0,6.841583E-1,0E0,6.104107E-1,0E0,0E0,6.7959785E-1,0E0,0E0],"parents":[2147483647,0,0,1,1,4,4,6,6,7,7,10,10,11,11,13,13,16,16,17,17,19,19,21,21,23,23,26,26],"right_children":[2,4,-1,-1,6,-1,8,10,-1,-1,12,14,-1,16,-1,-1,18,20,-1,22,-1,24,-1,26,-1,-1,28,-1,-1],"split_conditions":[1.4815347E12,-5.61544E3,-0E0,-0E0,0E0,-0E0,2.013E3,4E0,-0E0,-0E0,1.3145596E4,7.3079895E1,-0E0,1.825189E3,-0E0,-0E0,1.2167E4,1.1545064E5,-0E0,2.3374462E5,-0E0,9.116487E4,-0E0,2.611511E0,-0E0,-0E0,-1.7287566E2,2.2651052E-2,-0E0],"split_indices":[12,83,0,0,155,0,2,1,0,0,60,98,0,92,0,0,38,79,0,45,0,86,0,19,0,0,67,0,0],"split_type":[0,0,0,0,0,0,0,0,0,0,0,0,0,0,0,0,0,0,0,0,0,0,0,0,0,0,0,0,0],"sum_hessian":[3.121E3,2.741E3,3.8E2,5.32E2,2.209E3,2.52E2,1.957E3,1.027E3,9.3E2,1.01E2,9.26E2,8.68E2,5.8E1,8.51E2,1.7E1,8.1E1,7.7E2,7.42E2,2.8E1,7.32E2,1E1,7.14E2,1.8E1,6.99E2,1.5E1,1.8E1,6.81E2,6.7E2,1.1E1],"tree_param":{"num_deleted":"0","num_feature":"200","num_nodes":"29","size_leaf_vector":"1"}},{"base_weights":[-0E0],"categories":[],"categories_nodes":[],"categories_segments":[],"categories_sizes":[],"default_left":[0],"id":33,"left_children":[-1],"loss_changes":[0E0],"parents":[2147483647],"right_children":[-1],"split_conditions":[-0E0],"split_indices":[0],"split_type":[0],"sum_hessian":[3.143E3],"tree_param":{"num_deleted":"0","num_feature":"200","num_nodes":"1","size_leaf_vector":"1"}},{"base_weights":[-0E0],"categories":[],"categories_nodes":[],"categories_segments":[],"categories_sizes":[],"default_left":[0],"id":34,"left_children":[-1],"loss_changes":[0E0],"parents":[2147483647],"right_children":[-1],"split_conditions":[-0E0],"split_indices":[0],"split_type":[0],"sum_hessian":[3.149E3],"tree_param":{"num_deleted":"0","num_feature":"200","num_nodes":"1","size_leaf_vector":"1"}},{"base_weights":[-0E0],"categories":[],"categories_nodes":[],"categories_segments":[],"categories_sizes":[],"default_left":[0],"id":35,"left_children":[-1],"loss_changes":[0E0],"parents":[2147483647],"right_children":[-1],"split_conditions":[-0E0],"split_indices":[0],"split_type":[0],"sum_hessian":[3.153E3],"tree_param":{"num_deleted":"0","num_feature":"200","num_nodes":"1","size_leaf_vector":"1"}},{"base_weights":[-0E0],"categories":[],"categories_nodes":[],"categories_segments":[],"categories_sizes":[],"default_left":[0],"id":36,"left_children":[-1],"loss_changes":[0E0],"parents":[2147483647],"right_children":[-1],"split_conditions":[-0E0],"split_indices":[0],"split_type":[0],"sum_hessian":[3.147E3],"tree_param":{"num_deleted":"0","num_feature":"200","num_nodes":"1","size_leaf_vector":"1"}},{"base_weights":[-0E0,-0E0,-3.3636272E-3,-2.5513714E-2,-0E0,-4.7508035E-2,-0E0,-0E0,-6.831938E-2,-8.7744E-2,-0E0,-0E0,-1.0111641E-1,-0E0,-1.4785811E-1,-1.8123507E-1,-0E0,-0E0,-2.0830706E-1,-2.23946E-1,-0E0,-0E0,-2.3783638E-1,-2.5157017E-1,-0E0,-0E0,-2.66942E-1,-0E0,-3.5029598E-2],"categories":[],"categories_nodes":[],"categories_segments":[],"categories_sizes":[],"default_left":[0,0,0,0,0,0,0,0,0,0,0,0,0,0,0,0,0,0,0,0,0,0,0,0,0,0,0,0,0],"id":37,"left_children":[1,-1,3,5,-1,7,-1,-1,9,11,-1,-1,13,-1,15,17,-1,-1,19,21,-1,-1,23,25,-1,-1,27,-1,-1],"loss_changes":[2.5067206E-2,0E0,1.2049632E0,2.4005876E0,0E0,3.2427707E0,0E0,0E0,3.6095366E0,2.8866081E0,0E0,0E0,3.0399704E0,0E0,5.1570854E0,4.407503E0,0E0,0E0,3.1939087E0,2.42951E0,0E0,0E0,2.362217E0,2.4954567E0,0E0,0E0,2.5540009E0,0E0,0E0],"parents":[2147483647,0,0,2,2,3,3,5,5,8,8,9,9,12,12,14,14,15,15,18,18,19,19,22,22,23,23,26,26],"right_children":[2,-1,4,6,-1,8,-1,-1,10,12,-1,-1,14,-1,16,18,-1,-1,20,22,-1,-1,24,26,-1,-1,28,-1,-1],"split_conditions":[-6.4E1,-0E0,1.0880155E4,1E0,-0E0,-4.0196975E3,-0E0,-0E0,1E0,-1.6857719E5,-0E0,-0E0,1.0452536E4,-0E0,-4.4206426E3,-2.357033E4,-0E0,-0E0,4.8137555E4,-1.9488037E4,-0E0,-0E0,1E0,0E0,-0E0,-0E0,5.86E2,-0E0,-3.5029598E-2],"split_indices":[39,0,86,133,0,32,0,0,175,88,0,0,92,0,88,80,0,0,60,50,0,0,153,146,0,0,197,0,0],"split_type":[0,0,0,0,0,0,0,0,0,0,0,0,0,0,0,0,0,0,0,0,0,0,0,0,0,0,0,0,0],"sum_hessian":[3.142E3,9.28E2,2.214E3,1.888E3,3.26E2,1.607E3,2.81E2,1.36E2,1.471E3,1.36E3,1.11E2,5.4E1,1.306E3,5.57E2,7.49E2,6.55E2,9.4E1,5.8E1,5.97E2,5.8E2,1.7E1,2.3E1,5.57E2,5.35E2,2.2E1,2.5E1,5.1E2,1.2E1,4.98E2],"tree_param":{"num_deleted":"0","num_feature":"200","num_nodes":"29","size_leaf_vector":"1"}},{"base_weights":[-0E0],"categories":[],"categories_nodes":[],"categories_segments":[],"categories_sizes":[],"default_left":[0],"id":38,"left_children":[-1],"loss_changes":[0E0],"parents":[2147483647],"right_children":[-1],"split_conditions":[-0E0],"split_indices":[0],"split_type":[0],"sum_hessian":[3.139E3],"tree_param":{"num_deleted":"0","num_feature":"200","num_nodes":"1","size_leaf_vector":"1"}},{"base_weights":[-0E0,-0E0,3.274975E-3,-8.798799E-3,-0E0,2.1897268E-2,-0E0,-0E0,-3.0792389E-2,-0E0,4.9002778E-2,-6.347637E-2,-0E0,5.9770837E-2,-0E0,-8.0153346E-2,-0E0,-0E0,7.358865E-2,-0E0,-1.026856E-1,-0E0,8.681906E-2,-1.3573788E-1,-0E0,9.9520385E-2,-0E0,-1.551222E-1,-0E0,1.0751215E-1,-0E0,-1.7064504E-1,-0E0,1.1861571E-1,-0E0,-1.8658215E-1,-0E0,1.2522972E-1,-0E0,-1.9795544E-1,-0E0,-0E0,1.2955397E-1,-0E0,-2.0648453E-1,1.334139E-1,-0E0,-0E0,-2.2111872E-1,-0E0,1.3808544E-1,-0E0,-2.954982E-2,-0E0,1.8133875E-2],"categories":[],"categories_nodes":[],"categories_segments":[],"categories_sizes":[],"default_left":[0,0,0,0,0,0,0,0,0,0,0,0,0,0,0,0,0,0,0,0,0,0,0,0,0,0,0,0,0,0,0,0,0,0,0,0,0,0,0,0,0,0,0,0,0,0,0,0,0,0,0,0,0,0,0],"id":39,"left_children":[1,3,5,7,-1,9,-1,-1,11,-1,13,15,-1,17,-1,19,-1,-1,21,-1,23,-1,25,27,-1,29,-1,31,-1,33,-1,35,-1,37,-1,39,-1,41,-1,43,-1,-1,45,-1,47,49,-1,-1,51,-1,53,-1,-1,-1,-1],"loss_changes":[1.9011889E-2,8.536156E-2,6.635876E-1,8.69062E-1,0E0,1.9362137E0,0E0,0E0,1.7918893E0,0E0,1.1344898E0,1.5105622E0,0E0,1.5135751E0,0E0,1.8651023E0,0E0,0E0,1.4083309E0,0E0,2.4012122E0,0E0,1.5908661E0,2.3434725E0,0E0,1.242178E0,0E0,2.0215578E0,0E0,1.1649275E0,0E0,1.9279432E0,0E0,6.432066E-1,0E0,1.3518972E0,0E0,6.4395523E-1,0E0,9.1160965E-1,0E0,0E0,5.63117E-1,0E0,1.3822212E0,5.682354E-1,0E0,0E0,1.518383E0,0E0,6.0552883E-1,0E0,0E0,0E0,0E0],"parents":[2147483647,0,0,1,1,2,2,3,3,5,5,8,8,10,10,11,11,13,13,15,15,18,18,20,20,22,22,23,23,25,25,27,27,29,29,31,31,33,33,35,35,37,37,39,39,42,42,44,44,45,45,48,48,50,50],"right_children":[2,4,6,8,-1,10,-1,-1,12,-1,14,16,-1,18,-1,20,-1,-1,22,-1,24,-1,26,28,-1,30,-1,32,-1,34,-1,36,-1,38,-1,40,-1,42,-1,44,-1,-1,46,-1,48,50,-1,-1,52,-1,54,-1,-1,-1,-1],"split_conditions":[-8.259364E1,2.9415704E2,4.1827905E2,-3.559546E4,-0E0,4.571481E1,-0E0,-0E0,2.015E3,-0E0,1.3144317E4,6.8148334E2,-0E0,-7.6858944E5,-0E0,3.901804E1,-0E0,-0E0,-1.064E4,-0E0,7.786756E2,-0E0,1E0,9.691992E-1,-0E0,5.6376533E3,-0E0,5.5261906E4,-0E0,4.913E3,-0E0,1.4376662E2,-0E0,1.1390625E4,-0E0,2.4389E4,-0E0,-9.95927E4,-0E0,5.5986195E0,-0E0,-0E0,4.6124152E2,-0E0,-5.0001895E3,4.5391545E0,-0E0,-0E0,0E0,-0E0,0E0,-0E0,-2.954982E-2,-0E0,1.8133875E-2],"split_indices":[56,68,66,77,0,26,0,0,2,0,34,30,0,17,0,26,0,0,62,0,37,0,104,5,0,46,0,80,0,37,0,102,0,38,0,34,0,78,0,21,0,0,102,0,39,21,0,0,108,0,111,0,0,0,0],"split_type":[0,0,0,0,0,0,0,0,0,0,0,0,0,0,0,0,0,0,0,0,0,0,0,0,0,0,0,0,0,0,0,0,0,0,0,0,0,0,0,0,0,0,0,0,0,0,0,0,0,0,0,0,0,0,0],"sum_hessian":[3.134E3,1.363E3,1.771E3,1.101E3,2.62E2,1.422E3,3.49E2,9.6E1,1.005E3,3.33E2,1.089E3,6.8E2,3.25E2,1.049E3,4E1,6.61E2,1.9E1,7.8E1,9.71E2,8.2E1,5.79E2,8.7E1,8.84E2,4.61E2,1.18E2,8.33E2,5.1E1,4.5E2,1.1E1,8.21E2,1.2E1,4.41E2,9E0,7.57E2,6.4E1,4.24E2,1.7E1,7.2E2,3.7E1,4.11E2,1.3E1,9E0,7.11E2,1.2E1,3.99E2,7.02E2,9E0,2.3E1,3.76E2,1.7E1,6.85E2,1.8E1,3.58E2,3.2E1,6.53E2],"tree_param":{"num_deleted":"0","num_feature":"200","num_nodes":"55","size_leaf_vector":"1"}},{"base_weights":[-0E0],"categories":[],"categories_nodes":[],"categories_segments":[],"categories_sizes":[],"default_left":[0],"id":40,"left_children":[-1],"loss_changes":[0E0],"parents":[2147483647],"right_children":[-1],"split_conditions":[-0E0],"split_indices":[0],"split_type":[0],"sum_hessian":[3.155E3],"tree_param":{"num_deleted":"0","num_feature":"200","num_nodes":"1","size_leaf_vector":"1"}},{"base_weights":[-0E0],"categories":[],"categories_nodes":[],"categories_segments":[],"categories_sizes":[],"default_left":[0],"id":41,"left_children":[-1],"loss_changes":[0E0],"parents":[2147483647],"right_children":[-1],"split_conditions":[-0E0],"split_indices":[0],"split_type":[0],"sum_hessian":[3.13E3],"tree_param":{"num_deleted":"0","num_feature":"200","num_nodes":"1","size_leaf_vector":"1"}},{"base_weights":[-0E0],"categories":[],"categories_nodes":[],"categories_segments":[],"categories_sizes":[],"default_left":[0],"id":42,"left_children":[-1],"loss_changes":[0E0],"parents":[2147483647],"right_children":[-1],"split_conditions":[-0E0],"split_indices":[0],"split_type":[0],"sum_hessian":[3.144E3],"tree_param":{"num_deleted":"0","num_feature":"200","num_nodes":"1","size_leaf_vector":"1"}},{"base_weights":[-0E0,5.101565E-3,-0E0,-0E0,2.3380546E-2,-0E0,3.5721418E-2,4.716866E-2,-0E0,-0E0,6.95368E-2,-0E0,8.045991E-2,8.927824E-2,-0E0,-0E0,1.000596E-1,1.0928059E-1,-0E0,-0E0,1.1693518E-1,1.2941867E-1,-0E0,-0E0,1.3741718E-1,-0E0,1.468376E-1,1.9015417E-2,-0E0],"categories":[],"categories_nodes":[],"categories_segments":[],"categories_sizes":[],"default_left":[0,0,0,0,0,0,0,0,0,0,0,0,0,0,0,0,0,0,0,0,0,0,0,0,0,0,0,0,0],"id":43,"left_children":[1,3,-1,-1,5,-1,7,9,-1,-1,11,-1,13,15,-1,-1,17,19,-1,-1,21,23,-1,-1,25,-1,27,-1,-1],"loss_changes":[7.1664944E-2,1.1531558E0,0E0,0E0,1.3930537E0,0E0,1.8198626E0,2.4797082E0,0E0,0E0,1.9425545E0,0E0,1.6579638E0,1.7726145E0,0E0,0E0,1.8203115E0,1.6768408E0,0E0,0E0,1.7418756E0,1.572813E0,0E0,0E0,1.3289242E0,0E0,1.0954056E0,0E0,0E0],"parents":[2147483647,0,0,1,1,4,4,6,6,7,7,10,10,12,12,13,13,16,16,17,17,20,20,21,21,24,24,26,26],"right_children":[2,4,-1,-1,6,-1,8,10,-1,-1,12,-1,14,16,-1,-1,18,20,-1,-1,22,24,-1,-1,26,-1,28,-1,-1],"split_conditions":[1.4815347E12,-6.1461196E3,-0E0,-0E0,-9.578713E3,-0E0,1.5248029E2,1.5435871E1,-0E0,-0E0,0E0,-0E0,1.0360302E4,9.281911E2,-0E0,-0E0,9.555099E-1,6.401172E-2,-0E0,-0E0,9.608854E-1,3.279098E1,-0E0,-0E0,0E0,-0E0,-1.5665453E3,1.9015417E-2,-0E0],"split_indices":[12,84,0,0,62,0,26,23,0,0,111,0,33,89,0,0,5,40,0,0,6,26,0,0,117,0,91,0,0],"split_type":[0,0,0,0,0,0,0,0,0,0,0,0,0,0,0,0,0,0,0,0,0,0,0,0,0,0,0,0,0],"sum_hessian":[3.137E3,2.752E3,3.85E2,5.13E2,2.239E3,1.89E2,2.05E3,1.993E3,5.7E1,5.64E2,1.429E3,6.2E1,1.367E3,1.318E3,4.9E1,9.2E1,1.226E3,1.18E3,4.6E1,2.7E1,1.153E3,1.045E3,1.08E2,3.5E1,1.01E3,6.4E1,9.46E2,9.34E2,1.2E1],"tree_param":{"num_deleted":"0","num_feature":"200","num_nodes":"29","size_leaf_vector":"1"}},{"base_weights":[-0E0],"categories":[],"categories_nodes":[],"categories_segments":[],"categories_sizes":[],"default_left":[0],"id":44,"left_children":[-1],"loss_changes":[0E0],"parents":[2147483647],"right_children":[-1],"split_conditions":[-0E0],"split_indices":[0],"split_type":[0],"sum_hessian":[3.149E3],"tree_param":{"num_deleted":"0","num_feature":"200","num_nodes":"1","size_leaf_vector":"1"}},{"base_weights":[-0E0],"categories":[],"categories_nodes":[],"categories_segments":[],"categories_sizes":[],"default_left":[0],"id":45,"left_children":[-1],"loss_changes":[0E0],"parents":[2147483647],"right_children":[-1],"split_conditions":[-0E0],"split_indices":[0],"split_type":[0],"sum_hessian":[3.144E3],"tree_param":{"num_deleted":"0","num_feature":"200","num_nodes":"1","size_leaf_vector":"1"}},{"base_weights":[-0E0],"categories":[],"categories_nodes":[],"categories_segments":[],"categories_sizes":[],"default_left":[0],"id":46,"left_children":[-1],"loss_changes":[0E0],"parents":[2147483647],"right_children":[-1],"split_conditions":[-0E0],"split_indices":[0],"split_type":[0],"sum_hessian":[3.15E3],"tree_param":{"num_deleted":"0","num_feature":"200","num_nodes":"1","size_leaf_vector":"1"}},{"base_weights":[-0E0],"categories":[],"categories_nodes":[],"categories_segments":[],"categories_sizes":[],"default_left":[0],"id":47,"left_children":[-1],"loss_changes":[0E0],"parents":[2147483647],"right_children":[-1],"split_conditions":[-0E0],"split_indices":[0],"split_type":[0],"sum_hessian":[3.145E3],"tree_param":{"num_deleted":"0","num_feature":"200","num_nodes":"1","size_leaf_vector":"1"}},{"base_weights":[-0E0],"categories":[],"categories_nodes":[],"categories_segments":[],"categories_sizes":[],"default_left":[0],"id":48,"left_children":[-1],"loss_changes":[0E0],"parents":[2147483647],"right_children":[-1],"split_conditions":[-0E0],"split_indices":[0],"split_type":[0],"sum_hessian":[3.158E3],"tree_param":{"num_deleted":"0","num_feature":"200","num_nodes":"1","size_leaf_vector":"1"}},{"base_weights":[-0E0],"categories":[],"categories_nodes":[],"categories_segments":[],"categories_sizes":[],"default_left":[0],"id":49,"left_children":[-1],"loss_changes":[0E0],"parents":[2147483647],"right_children":[-1],"split_conditions":[-0E0],"split_indices":[0],"split_type":[0],"sum_hessian":[3.156E3],"tree_param":{"num_deleted":"0","num_feature":"200","num_nodes":"1","size_leaf_vector":"1"}},{"base_weights":[-0E0],"categories":[],"categories_nodes":[],"categories_segments":[],"categories_sizes":[],"default_left":[0],"id":50,"left_children":[-1],"loss_changes":[0E0],"parents":[2147483647],"right_children":[-1],"split_conditions":[-0E0],"split_indices":[0],"split_type":[0],"sum_hessian":[3.152E3],"tree_param":{"num_deleted":"0","num_feature":"200","num_nodes":"1","size_leaf_vector":"1"}},{"base_weights":[-0E0],"categories":[],"categories_nodes":[],"categories_segments":[],"categories_sizes":[],"default_left":[0],"id":51,"left_children":[-1],"loss_changes":[0E0],"parents":[2147483647],"right_children":[-1],"split_conditions":[-0E0],"split_indices":[0],"split_type":[0],"sum_hessian":[3.141E3],"tree_param":{"num_deleted":"0","num_feature":"200","num_nodes":"1","size_leaf_vector":"1"}},{"base_weights":[-0E0],"categories":[],"categories_nodes":[],"categories_segments":[],"categories_sizes":[],"default_left":[0],"id":52,"left_children":[-1],"loss_changes":[0E0],"parents":[2147483647],"right_children":[-1],"split_conditions":[-0E0],"split_indices":[0],"split_type":[0],"sum_hessian":[3.143E3],"tree_param":{"num_deleted":"0","num_feature":"200","num_nodes":"1","size_leaf_vector":"1"}},{"base_weights":[-0E0],"categories":[],"categories_nodes":[],"categories_segments":[],"categories_sizes":[],"default_left":[0],"id":53,"left_children":[-1],"loss_changes":[0E0],"parents":[2147483647],"right_children":[-1],"split_conditions":[-0E0],"split_indices":[0],"split_type":[0],"sum_hessian":[3.146E3],"tree_param":{"num_deleted":"0","num_feature":"200","num_nodes":"1","size_leaf_vector":"1"}},{"base_weights":[-0E0],"categories":[],"categories_nodes":[],"categories_segments":[],"categories_sizes":[],"default_left":[0],"id":54,"left_children":[-1],"loss_changes":[0E0],"parents":[2147483647],"right_children":[-1],"split_conditions":[-0E0],"split_indices":[0],"split_type":[0],"sum_hessian":[3.161E3],"tree_param":{"num_deleted":"0","num_feature":"200","num_nodes":"1","size_leaf_vector":"1"}},{"base_weights":[-0E0],"categories":[],"categories_nodes":[],"categories_segments":[],"categories_sizes":[],"default_left":[0],"id":55,"left_children":[-1],"loss_changes":[0E0],"parents":[2147483647],"right_children":[-1],"split_conditions":[-0E0],"split_indices":[0],"split_type":[0],"sum_hessian":[3.153E3],"tree_param":{"num_deleted":"0","num_feature":"200","num_nodes":"1","size_leaf_vector":"1"}},{"base_weights":[-0E0],"categories":[],"categories_nodes":[],"categories_segments":[],"categories_sizes":[],"default_left":[0],"id":56,"left_children":[-1],"loss_changes":[0E0],"parents":[2147483647],"right_children":[-1],"split_conditions":[-0E0],"split_indices":[0],"split_type":[0],"sum_hessian":[3.152E3],"tree_param":{"num_deleted":"0","num_feature":"200","num_nodes":"1","size_leaf_vector":"1"}},{"base_weights":[-0E0],"categories":[],"categories_nodes":[],"categories_segments":[],"categories_sizes":[],"default_left":[0],"id":57,"left_children":[-1],"loss_changes":[0E0],"parents":[2147483647],"right_children":[-1],"split_conditions":[-0E0],"split_indices":[0],"split_type":[0],"sum_hessian":[3.136E3],"tree_param":{"num_deleted":"0","num_feature":"200","num_nodes":"1","size_leaf_vector":"1"}},{"base_weights":[-0E0],"categories":[],"categories_nodes":[],"categories_segments":[],"categories_sizes":[],"default_left":[0],"id":58,"left_children":[-1],"loss_changes":[0E0],"parents":[2147483647],"right_children":[-1],"split_conditions":[-0E0],"split_indices":[0],"split_type":[0],"sum_hessian":[3.132E3],"tree_param":{"num_deleted":"0","num_feature":"200","num_nodes":"1","size_leaf_vector":"1"}},{"base_weights":[-0E0],"categories":[],"categories_nodes":[],"categories_segments":[],"categories_sizes":[],"default_left":[0],"id":59,"left_children":[-1],"loss_changes":[0E0],"parents":[2147483647],"right_children":[-1],"split_conditions":[-0E0],"split_indices":[0],"split_type":[0],"sum_hessian":[3.138E3],"tree_param":{"num_deleted":"0","num_feature":"200","num_nodes":"1","size_leaf_vector":"1"}},{"base_weights":[-0E0],"categories":[],"categories_nodes":[],"categories_segments":[],"categories_sizes":[],"default_left":[0],"id":60,"left_children":[-1],"loss_changes":[0E0],"parents":[2147483647],"right_children":[-1],"split_conditions":[-0E0],"split_indices":[0],"split_type":[0],"sum_hessian":[3.15E3],"tree_param":{"num_deleted":"0","num_feature":"200","num_nodes":"1","size_leaf_vector":"1"}},{"base_weights":[-0E0],"categories":[],"categories_nodes":[],"categories_segments":[],"categories_sizes":[],"default_left":[0],"id":61,"left_children":[-1],"loss_changes":[0E0],"parents":[2147483647],"right_children":[-1],"split_conditions":[-0E0],"split_indices":[0],"split_type":[0],"sum_hessian":[3.115E3],"tree_param":{"num_deleted":"0","num_feature":"200","num_nodes":"1","size_leaf_vector":"1"}},{"base_weights":[-0E0],"categories":[],"categories_nodes":[],"categories_segments":[],"categories_sizes":[],"default_left":[0],"id":62,"left_children":[-1],"loss_changes":[0E0],"parents":[2147483647],"right_children":[-1],"split_conditions":[-0E0],"split_indices":[0],"split_type":[0],"sum_hessian":[3.148E3],"tree_param":{"num_deleted":"0","num_feature":"200","num_nodes":"1","size_leaf_vector":"1"}},{"base_weights":[-0E0],"categories":[],"categories_nodes":[],"categories_segments":[],"categories_sizes":[],"default_left":[0],"id":63,"left_children":[-1],"loss_changes":[0E0],"parents":[2147483647],"right_children":[-1],"split_conditions":[-0E0],"split_indices":[0],"split_type":[0],"sum_hessian":[3.148E3],"tree_param":{"num_deleted":"0","num_feature":"200","num_nodes":"1","size_leaf_vector":"1"}},{"base_weights":[-0E0],"categories":[],"categories_nodes":[],"categories_segments":[],"categories_sizes":[],"default_left":[0],"id":64,"left_children":[-1],"loss_changes":[0E0],"parents":[2147483647],"right_children":[-1],"split_conditions":[-0E0],"split_indices":[0],"split_type":[0],"sum_hessian":[3.148E3],"tree_param":{"num_deleted":"0","num_feature":"200","num_nodes":"1","size_leaf_vector":"1"}},{"base_weights":[-0E0],"categories":[],"categories_nodes":[],"categories_segments":[],"categories_sizes":[],"default_left":[0],"id":65,"left_children":[-1],"loss_changes":[0E0],"parents":[2147483647],"right_children":[-1],"split_conditions":[-0E0],"split_indices":[0],"split_type":[0],"sum_hessian":[3.138E3],"tree_param":{"num_deleted":"0","num_feature":"200","num_nodes":"1","size_leaf_vector":"1"}},{"base_weights":[-0E0],"categories":[],"categories_nodes":[],"categories_segments":[],"categories_sizes":[],"default_left":[0],"id":66,"left_children":[-1],"loss_changes":[0E0],"parents":[2147483647],"right_children":[-1],"split_conditions":[-0E0],"split_indices":[0],"split_type":[0],"sum_hessian":[3.135E3],"tree_param":{"num_deleted":"0","num_feature":"200","num_nodes":"1","size_leaf_vector":"1"}},{"base_weights":[-0E0],"categories":[],"categories_nodes":[],"categories_segments":[],"categories_sizes":[],"default_left":[0],"id":67,"left_children":[-1],"loss_changes":[0E0],"parents":[2147483647],"right_children":[-1],"split_conditions":[-0E0],"split_indices":[0],"split_type":[0],"sum_hessian":[3.151E3],"tree_param":{"num_deleted":"0","num_feature":"200","num_nodes":"1","size_leaf_vector":"1"}},{"base_weights":[-0E0],"categories":[],"categories_nodes":[],"categories_segments":[],"categories_sizes":[],"default_left":[0],"id":68,"left_children":[-1],"loss_changes":[0E0],"parents":[2147483647],"right_children":[-1],"split_conditions":[-0E0],"split_indices":[0],"split_type":[0],"sum_hessian":[3.131E3],"tree_param":{"num_deleted":"0","num_feature":"200","num_nodes":"1","size_leaf_vector":"1"}},{"base_weights":[-0E0],"categories":[],"categories_nodes":[],"categories_segments":[],"categories_sizes":[],"default_left":[0],"id":69,"left_children":[-1],"loss_changes":[0E0],"parents":[2147483647],"right_children":[-1],"split_conditions":[-0E0],"split_indices":[0],"split_type":[0],"sum_hessian":[3.149E3],"tree_param":{"num_deleted":"0","num_feature":"200","num_nodes":"1","size_leaf_vector":"1"}},{"base_weights":[-0E0],"categories":[],"categories_nodes":[],"categories_segments":[],"categories_sizes":[],"default_left":[0],"id":70,"left_children":[-1],"loss_changes":[0E0],"parents":[2147483647],"right_children":[-1],"split_conditions":[-0E0],"split_indices":[0],"split_type":[0],"sum_hessian":[3.135E3],"tree_param":{"num_deleted":"0","num_feature":"200","num_nodes":"1","size_leaf_vector":"1"}},{"base_weights":[-0E0],"categories":[],"categories_nodes":[],"categories_segments":[],"categories_sizes":[],"default_left":[0],"id":71,"left_children":[-1],"loss_changes":[0E0],"parents":[2147483647],"right_children":[-1],"split_conditions":[-0E0],"split_indices":[0],"split_type":[0],"sum_hessian":[3.136E3],"tree_param":{"num_deleted":"0","num_feature":"200","num_nodes":"1","size_leaf_vector":"1"}},{"base_weights":[-0E0],"categories":[],"categories_nodes":[],"categories_segments":[],"categories_sizes":[],"default_left":[0],"id":72,"left_children":[-1],"loss_changes":[0E0],"parents":[2147483647],"right_children":[-1],"split_conditions":[-0E0],"split_indices":[0],"split_type":[0],"sum_hessian":[3.137E3],"tree_param":{"num_deleted":"0","num_feature":"200","num_nodes":"1","size_leaf_vector":"1"}},{"base_weights":[-0E0],"categories":[],"categories_nodes":[],"categories_segments":[],"categories_sizes":[],"default_left":[0],"id":73,"left_children":[-1],"loss_changes":[0E0],"parents":[2147483647],"right_children":[-1],"split_conditions":[-0E0],"split_indices":[0],"split_type":[0],"sum_hessian":[3.153E3],"tree_param":{"num_deleted":"0","num_feature":"200","num_nodes":"1","size_leaf_vector":"1"}},{"base_weights":[-0E0],"categories":[],"categories_nodes":[],"categories_segments":[],"categories_sizes":[],"default_left":[0],"id":74,"left_children":[-1],"loss_changes":[0E0],"parents":[2147483647],"right_children":[-1],"split_conditions":[-0E0],"split_indices":[0],"split_type":[0],"sum_hessian":[3.138E3],"tree_param":{"num_deleted":"0","num_feature":"200","num_nodes":"1","size_leaf_vector":"1"}},{"base_weights":[-0E0,-4.0289345E-3,-0E0,-0E0,-2.7075492E-2,-0E0,-5.275659E-2,-0E0,-7.39303E-2,-9.180714E-2,-0E0,-0E0,-1.0931854E-1,-1.2356208E-1,-0E0,-1.4304721E-1,-0E0,-1.5395638E-1,-0E0,-0E0,-1.7479132E-1,-0E0,-1.8959478E-1,-2.0929167E-1,-0E0,-2.1836306E-1,-0E0,-0E0,-2.8391458E-2],"categories":[],"categories_nodes":[],"categories_segments":[],"categories_sizes":[],"default_left":[0,0,0,0,0,0,0,0,0,0,0,0,0,0,0,0,0,0,0,0,0,0,0,0,0,0,0,0,0],"id":75,"left_children":[1,3,-1,-1,5,-1,7,-1,9,11,-1,-1,13,15,-1,17,-1,19,-1,-1,21,-1,23,25,-1,27,-1,-1,-1],"loss_changes":[4.2668168E-2,1.4715823E0,0E0,0E0,2.8571174E0,0E0,3.3767605E0,0E0,3.677565E0,3.6629915E0,0E0,0E0,3.9132643E0,2.8846245E0,0E0,2.2093163E0,0E0,2.288641E0,0E0,0E0,2.501606E0,0E0,3.59791E0,2.3524513E0,0E0,1.7655907E0,0E0,0E0,0E0],"parents":[2147483647,0,0,1,1,4,4,6,6,8,8,9,9,12,12,13,13,15,15,17,17,20,20,22,22,23,23,25,25],"right_children":[2,4,-1,-1,6,-1,8,-1,10,12,-1,-1,14,16,-1,18,-1,20,-1,-1,22,-1,24,26,-1,28,-1,-1,-1],"split_conditions":[1.2596864E3,2.8032065E3,-0E0,-0E0,-1.4457101E4,-0E0,-9.724051E3,-0E0,9.8215E-1,-7.077969E3,-0E0,-0E0,4.0353348E4,1E0,-0E0,1E0,-0E0,1.1592928E4,-0E0,-0E0,-1.0940976E4,-0E0,5.088405E3,1.702191E5,-0E0,1.5745546E2,-0E0,-0E0,-2.8391458E-2],"split_indices":[35,43,0,0,16,0,60,0,7,38,0,0,28,133,0,141,0,94,0,0,35,0,39,83,0,41,0,0,0],"split_type":[0,0,0,0,0,0,0,0,0,0,0,0,0,0,0,0,0,0,0,0,0,0,0,0,0,0,0,0,0],"sum_hessian":[3.135E3,2.627E3,5.08E2,5.63E2,2.064E3,4.95E2,1.569E3,1.53E2,1.416E3,1.354E3,6.2E1,9.3E1,1.261E3,1.243E3,1.8E1,1.068E3,1.75E2,1.015E3,5.3E1,1.53E2,8.62E2,6E1,8.02E2,7.4E2,6.2E1,7.29E2,1.1E1,1.7E1,7.12E2],"tree_param":{"num_deleted":"0","num_feature":"200","num_nodes":"29","size_leaf_vector":"1"}},{"base_weights":[-0E0],"categories":[],"categories_nodes":[],"categories_segments":[],"categories_sizes":[],"default_left":[0],"id":76,"left_children":[-1],"loss_changes":[0E0],"parents":[2147483647],"right_children":[-1],"split_conditions":[-0E0],"split_indices":[0],"split_type":[0],"sum_hessian":[3.136E3],"tree_param":{"num_deleted":"0","num_feature":"200","num_nodes":"1","size_leaf_vector":"1"}},{"base_weights":[-0E0],"categories":[],"categories_nodes":[],"categories_segments":[],"categories_sizes":[],"default_left":[0],"id":77,"left_children":[-1],"loss_changes":[0E0],"parents":[2147483647],"right_children":[-1],"split_conditions":[-0E0],"split_indices":[0],"split_type":[0],"sum_hessian":[3.132E3],"tree_param":{"num_deleted":"0","num_feature":"200","num_nodes":"1","size_leaf_vector":"1"}},{"base_weights":[-0E0],"categories":[],"categories_nodes":[],"categories_segments":[],"categories_sizes":[],"default_left":[0],"id":78,"left_children":[-1],"loss_changes":[0E0],"parents":[2147483647],"right_children":[-1],"split_conditions":[-0E0],"split_indices":[0],"split_type":[0],"sum_hessian":[3.141E3],"tree_param":{"num_deleted":"0","num_feature":"200","num_nodes":"1","size_leaf_vector":"1"}},{"base_weights":[-0E0],"categories":[],"categories_nodes":[],"categories_segments":[],"categories_sizes":[],"default_left":[0],"id":79,"left_children":[-1],"loss_changes":[0E0],"parents":[2147483647],"right_children":[-1],"split_conditions":[-0E0],"split_indices":[0],"split_type":[0],"sum_hessian":[3.139E3],"tree_param":{"num_deleted":"0","num_feature":"200","num_nodes":"1","size_leaf_vector":"1"}},{"base_weights":[-0E0],"categories":[],"categories_nodes":[],"categories_segments":[],"categories_sizes":[],"default_left":[0],"id":80,"left_children":[-1],"loss_changes":[0E0],"parents":[2147483647],"right_children":[-1],"split_conditions":[-0E0],"split_indices":[0],"split_type":[0],"sum_hessian":[3.156E3],"tree_param":{"num_deleted":"0","num_feature":"200","num_nodes":"1","size_leaf_vector":"1"}},{"base_weights":[-0E0],"categories":[],"categories_nodes":[],"categories_segments":[],"categories_sizes":[],"default_left":[0],"id":81,"left_children":[-1],"loss_changes":[0E0],"parents":[2147483647],"right_children":[-1],"split_conditions":[-0E0],"split_indices":[0],"split_type":[0],"sum_hessian":[3.15E3],"tree_param":{"num_deleted":"0","num_feature":"200","num_nodes":"1","size_leaf_vector":"1"}},{"base_weights":[-0E0],"categories":[],"categories_nodes":[],"categories_segments":[],"categories_sizes":[],"default_left":[0],"id":82,"left_children":[-1],"loss_changes":[0E0],"parents":[2147483647],"right_children":[-1],"split_conditions":[-0E0],"split_indices":[0],"split_type":[0],"sum_hessian":[3.159E3],"tree_param":{"num_deleted":"0","num_feature":"200","num_nodes":"1","size_leaf_vector":"1"}},{"base_weights":[-0E0],"categories":[],"categories_nodes":[],"categories_segments":[],"categories_sizes":[],"default_left":[0],"id":83,"left_children":[-1],"loss_changes":[0E0],"parents":[2147483647],"right_children":[-1],"split_conditions":[-0E0],"split_indices":[0],"split_type":[0],"sum_hessian":[3.112E3],"tree_param":{"num_deleted":"0","num_feature":"200","num_nodes":"1","size_leaf_vector":"1"}},{"base_weights":[-0E0],"categories":[],"categories_nodes":[],"categories_segments":[],"categories_sizes":[],"default_left":[0],"id":84,"left_children":[-1],"loss_changes":[0E0],"parents":[2147483647],"right_children":[-1],"split_conditions":[-0E0],"split_indices":[0],"split_type":[0],"sum_hessian":[3.145E3],"tree_param":{"num_deleted":"0","num_feature":"200","num_nodes":"1","size_leaf_vector":"1"}},{"base_weights":[-0E0],"categories":[],"categories_nodes":[],"categories_segments":[],"categories_sizes":[],"default_left":[0],"id":85,"left_children":[-1],"loss_changes":[0E0],"parents":[2147483647],"right_children":[-1],"split_conditions":[-0E0],"split_indices":[0],"split_type":[0],"sum_hessian":[3.152E3],"tree_param":{"num_deleted":"0","num_feature":"200","num_nodes":"1","size_leaf_vector":"1"}},{"base_weights":[-0E0],"categories":[],"categories_nodes":[],"categories_segments":[],"categories_sizes":[],"default_left":[0],"id":86,"left_children":[-1],"loss_changes":[0E0],"parents":[2147483647],"right_children":[-1],"split_conditions":[-0E0],"split_indices":[0],"split_type":[0],"sum_hessian":[3.144E3],"tree_param":{"num_deleted":"0","num_feature":"200","num_nodes":"1","size_leaf_vector":"1"}},{"base_weights":[-0E0],"categories":[],"categories_nodes":[],"categories_segments":[],"categories_sizes":[],"default_left":[0],"id":87,"left_children":[-1],"loss_changes":[0E0],"parents":[2147483647],"right_children":[-1],"split_conditions":[-0E0],"split_indices":[0],"split_type":[0],"sum_hessian":[3.168E3],"tree_param":{"num_deleted":"0","num_feature":"200","num_nodes":"1","size_leaf_vector":"1"}},{"base_weights":[-0E0],"categories":[],"categories_nodes":[],"categories_segments":[],"categories_sizes":[],"default_left":[0],"id":88,"left_children":[-1],"loss_changes":[0E0],"parents":[2147483647],"right_children":[-1],"split_conditions":[-0E0],"split_indices":[0],"split_type":[0],"sum_hessian":[3.149E3],"tree_param":{"num_deleted":"0","num_feature":"200","num_nodes":"1","size_leaf_vector":"1"}},{"base_weights":[-0E0],"categories":[],"categories_nodes":[],"categories_segments":[],"categories_sizes":[],"default_left":[0],"id":89,"left_children":[-1],"loss_changes":[0E0],"parents":[2147483647],"right_children":[-1],"split_conditions":[-0E0],"split_indices":[0],"split_type":[0],"sum_hessian":[3.157E3],"tree_param":{"num_deleted":"0","num_feature":"200","num_nodes":"1","size_leaf_vector":"1"}},{"base_weights":[-0E0],"categories":[],"categories_nodes":[],"categories_segments":[],"categories_sizes":[],"default_left":[0],"id":90,"left_children":[-1],"loss_changes":[0E0],"parents":[2147483647],"right_children":[-1],"split_conditions":[-0E0],"split_indices":[0],"split_type":[0],"sum_hessian":[3.143E3],"tree_param":{"num_deleted":"0","num_feature":"200","num_nodes":"1","size_leaf_vector":"1"}},{"base_weights":[-0E0],"categories":[],"categories_nodes":[],"categories_segments":[],"categories_sizes":[],"default_left":[0],"id":91,"left_children":[-1],"loss_changes":[0E0],"parents":[2147483647],"right_children":[-1],"split_conditions":[-0E0],"split_indices":[0],"split_type":[0],"sum_hessian":[3.139E3],"tree_param":{"num_deleted":"0","num_feature":"200","num_nodes":"1","size_leaf_vector":"1"}},{"base_weights":[-0E0],"categories":[],"categories_nodes":[],"categories_segments":[],"categories_sizes":[],"default_left":[0],"id":92,"left_children":[-1],"loss_changes":[0E0],"parents":[2147483647],"right_children":[-1],"split_conditions":[-0E0],"split_indices":[0],"split_type":[0],"sum_hessian":[3.143E3],"tree_param":{"num_deleted":"0","num_feature":"200","num_nodes":"1","size_leaf_vector":"1"}},{"base_weights":[-0E0],"categories":[],"categories_nodes":[],"categories_segments":[],"categories_sizes":[],"default_left":[0],"id":93,"left_children":[-1],"loss_changes":[0E0],"parents":[2147483647],"right_children":[-1],"split_conditions":[-0E0],"split_indices":[0],"split_type":[0],"sum_hessian":[3.155E3],"tree_param":{"num_deleted":"0","num_feature":"200","num_nodes":"1","size_leaf_vector":"1"}},{"base_weights":[-0E0],"categories":[],"categories_nodes":[],"categories_segments":[],"categories_sizes":[],"default_left":[0],"id":94,"left_children":[-1],"loss_changes":[0E0],"parents":[2147483647],"right_children":[-1],"split_conditions":[-0E0],"split_indices":[0],"split_type":[0],"sum_hessian":[3.148E3],"tree_param":{"num_deleted":"0","num_feature":"200","num_nodes":"1","size_leaf_vector":"1"}},{"base_weights":[-0E0],"categories":[],"categories_nodes":[],"categories_segments":[],"categories_sizes":[],"default_left":[0],"id":95,"left_children":[-1],"loss_changes":[0E0],"parents":[2147483647],"right_children":[-1],"split_conditions":[-0E0],"split_indices":[0],"split_type":[0],"sum_hessian":[3.142E3],"tree_param":{"num_deleted":"0","num_feature":"200","num_nodes":"1","size_leaf_vector":"1"}},{"base_weights":[-0E0],"categories":[],"categories_nodes":[],"categories_segments":[],"categories_sizes":[],"default_left":[0],"id":96,"left_children":[-1],"loss_changes":[0E0],"parents":[2147483647],"right_children":[-1],"split_conditions":[-0E0],"split_indices":[0],"split_type":[0],"sum_hessian":[3.126E3],"tree_param":{"num_deleted":"0","num_feature":"200","num_nodes":"1","size_leaf_vector":"1"}},{"base_weights":[-0E0],"categories":[],"categories_nodes":[],"categories_segments":[],"categories_sizes":[],"default_left":[0],"id":97,"left_children":[-1],"loss_changes":[0E0],"parents":[2147483647],"right_children":[-1],"split_conditions":[-0E0],"split_indices":[0],"split_type":[0],"sum_hessian":[3.139E3],"tree_param":{"num_deleted":"0","num_feature":"200","num_nodes":"1","size_leaf_vector":"1"}},{"base_weights":[-0E0],"categories":[],"categories_nodes":[],"categories_segments":[],"categories_sizes":[],"default_left":[0],"id":98,"left_children":[-1],"loss_changes":[0E0],"parents":[2147483647],"right_children":[-1],"split_conditions":[-0E0],"split_indices":[0],"split_type":[0],"sum_hessian":[3.143E3],"tree_param":{"num_deleted":"0","num_feature":"200","num_nodes":"1","size_leaf_vector":"1"}},{"base_weights":[-0E0],"categories":[],"categories_nodes":[],"categories_segments":[],"categories_sizes":[],"default_left":[0],"id":99,"left_children":[-1],"loss_changes":[0E0],"parents":[2147483647],"right_children":[-1],"split_conditions":[-0E0],"split_indices":[0],"split_type":[0],"sum_hessian":[3.141E3],"tree_param":{"num_deleted":"0","num_feature":"200","num_nodes":"1","size_leaf_vector":"1"}},{"base_weights":[-0E0,5.237578E-4,-0E0,-0E0,2.548943E-2,-3.2831945E-2,-0E0,4.7984626E-2,-0E0,-5.8687057E-2,-0E0,-0E0,7.983706E-2,-0E0,-8.170701E-2,-0E0,1.1234265E-1,-0E0,-9.9940315E-2,1.41503E-1,-0E0,-1.1825958E-1,-0E0,-0E0,1.7453568E-1,-1.3423032E-1,-0E0,-0E0,1.8905191E-1,-1.5263148E-1,-0E0,-0E0,2.0639442E-1,-1.656183E-1,-0E0,2.1615335E-1,-0E0,-1.8523784E-1,-0E0,2.235791E-1,-0E0,-0E0,-2.0051518E-1,2.29519E-1,-0E0,-2.1310532E-1,-0E0,-0E0,2.3511115E-1,-0E0,-2.2586294E-1,-0E0,3.0266644E-2,-2.9289734E-2,-0E0],"categories":[],"categories_nodes":[],"categories_segments":[],"categories_sizes":[],"default_left":[0,0,0,0,0,0,0,0,0,0,0,0,0,0,0,0,0,0,0,0,0,0,0,0,0,0,0,0,0,0,0,0,0,0,0,0,0,0,0,0,0,0,0,0,0,0,0,0,0,0,0,0,0,0,0],"id":100,"left_children":[1,3,5,-1,7,9,-1,11,-1,13,-1,-1,15,-1,17,-1,19,-1,21,23,-1,25,-1,-1,27,29,-1,-1,31,33,-1,-1,35,37,-1,39,-1,41,-1,43,-1,-1,45,47,-1,49,-1,-1,51,-1,53,-1,-1,-1,-1],"loss_changes":[4.1768138E-4,7.913164E-1,1.0872006E0,0E0,1.5858387E0,1.6805143E0,0E0,2.5979002E0,0E0,2.336742E0,0E0,0E0,2.4783387E0,0E0,2.0529323E0,0E0,2.6497269E0,0E0,2.2490602E0,4.0492525E0,0E0,1.9374361E0,0E0,0E0,2.1304235E0,2.601184E0,0E0,0E0,2.1873093E0,1.7608538E0,0E0,0E0,1.1805859E0,1.2651119E0,0E0,7.7353096E-1,0E0,1.9498291E0,0E0,4.675274E-1,0E0,0E0,1.5877724E0,4.7768784E-1,0E0,1.6107616E0,0E0,0E0,4.0763092E-1,0E0,8.952656E-1,0E0,0E0,0E0,0E0],"parents":[2147483647,0,0,1,1,2,2,4,4,5,5,7,7,9,9,12,12,14,14,16,16,18,18,19,19,21,21,24,24,25,25,28,28,29,29,32,32,33,33,35,35,37,37,39,39,42,42,43,43,45,45,48,48,50,50],"right_children":[2,4,6,-1,8,10,-1,12,-1,14,-1,-1,16,-1,18,-1,20,-1,22,24,-1,26,-1,-1,28,30,-1,-1,32,34,-1,-1,36,38,-1,40,-1,42,-1,44,-1,-1,46,48,-1,50,-1,-1,52,-1,54,-1,-1,-1,-1],"split_conditions":[-5.489205E0,-6.1461196E3,7.115919E2,-0E0,8.717381E3,2.5E1,-0E0,1.5334452E1,-0E0,4.9281314E-2,-0E0,-0E0,-6.1797383E3,-0E0,-4.330786E3,-0E0,9.146278E3,-0E0,1.5412583E3,-2.384676E4,-0E0,1.0173693E4,-0E0,-0E0,-2.012354E4,3.2750197E4,-0E0,-0E0,0E0,7.7523157E2,-0E0,-0E0,9.9410987E-1,1E0,-0E0,1E0,-0E0,-9.8235166E-1,-0E0,1.003927E4,-0E0,-0E0,5.6592474E2,2E0,-0E0,2E0,-0E0,-0E0,1.2197225E3,-0E0,1E0,-0E0,3.0266644E-2,-2.9289734E-2,-0E0],"split_indices":[65,84,82,0,83,1,0,23,0,5,0,0,83,0,30,0,82,0,52,65,0,63,0,0,29,77,0,0,111,61,0,0,6,151,0,116,0,6,0,90,0,0,82,0,0,1,0,0,92,0,136,0,0,0,0],"split_type":[0,0,0,0,0,0,0,0,0,0,0,0,0,0,0,0,0,0,0,0,0,0,0,0,0,0,0,0,0,0,0,0,0,0,0,0,0,0,0,0,0,0,0,0,0,0,0,0,0,0,0,0,0,0,0],"sum_hessian":[3.144E3,1.521E3,1.623E3,3.04E2,1.217E3,1.007E3,6.16E2,1.031E3,1.86E2,8.02E2,2.05E2,2.52E2,7.79E2,3.9E1,7.63E2,1.9E2,5.89E2,4.8E1,7.15E2,5.03E2,8.6E1,6.71E2,4.4E1,4E1,4.63E2,6.28E2,4.3E1,9E0,4.54E2,5.97E2,3.1E1,2.2E1,4.32E2,5.71E2,2.6E1,4.19E2,1.3E1,4.93E2,7.8E1,4.07E2,1.2E1,2.4E1,4.69E2,3.95E2,1.2E1,4.5E2,1.9E1,1E1,3.85E2,1.8E1,4.32E2,1.3E1,3.72E2,4.2E2,1.2E1],"tree_param":{"num_deleted":"0","num_feature":"200","num_nodes":"55","size_leaf_vector":"1"}},{"base_weights":[-0E0],"categories":[],"categories_nodes":[],"categories_segments":[],"categories_sizes":[],"default_left":[0],"id":101,"left_children":[-1],"loss_changes":[0E0],"parents":[2147483647],"right_children":[-1],"split_conditions":[-0E0],"split_indices":[0],"split_type":[0],"sum_hessian":[3.143E3],"tree_param":{"num_deleted":"0","num_feature":"200","num_nodes":"1","size_leaf_vector":"1"}},{"base_weights":[-0E0],"categories":[],"categories_nodes":[],"categories_segments":[],"categories_sizes":[],"default_left":[0],"id":102,"left_children":[-1],"loss_changes":[0E0],"parents":[2147483647],"right_children":[-1],"split_conditions":[-0E0],"split_indices":[0],"split_type":[0],"sum_hessian":[3.142E3],"tree_param":{"num_deleted":"0","num_feature":"200","num_nodes":"1","size_leaf_vector":"1"}},{"base_weights":[-0E0],"categories":[],"categories_nodes":[],"categories_segments":[],"categories_sizes":[],"default_left":[0],"id":103,"left_children":[-1],"loss_changes":[0E0],"parents":[2147483647],"right_children":[-1],"split_conditions":[-0E0],"split_indices":[0],"split_type":[0],"sum_hessian":[3.153E3],"tree_param":{"num_deleted":"0","num_feature":"200","num_nodes":"1","size_leaf_vector":"1"}},{"base_weights":[-0E0],"categories":[],"categories_nodes":[],"categories_segments":[],"categories_sizes":[],"default_left":[0],"id":104,"left_children":[-1],"loss_changes":[0E0],"parents":[2147483647],"right_children":[-1],"split_conditions":[-0E0],"split_indices":[0],"split_type":[0],"sum_hessian":[3.127E3],"tree_param":{"num_deleted":"0","num_feature":"200","num_nodes":"1","size_leaf_vector":"1"}},{"base_weights":[-0E0],"categories":[],"categories_nodes":[],"categories_segments":[],"categories_sizes":[],"default_left":[0],"id":105,"left_children":[-1],"loss_changes":[0E0],"parents":[2147483647],"right_children":[-1],"split_conditions":[-0E0],"split_indices":[0],"split_type":[0],"sum_hessian":[3.134E3],"tree_param":{"num_deleted":"0","num_feature":"200","num_nodes":"1","size_leaf_vector":"1"}},{"base_weights":[-0E0],"categories":[],"categories_nodes":[],"categories_segments":[],"categories_sizes":[],"default_left":[0],"id":106,"left_children":[-1],"loss_changes":[0E0],"parents":[2147483647],"right_children":[-1],"split_conditions":[-0E0],"split_indices":[0],"split_type":[0],"sum_hessian":[3.137E3],"tree_param":{"num_deleted":"0","num_feature":"200","num_nodes":"1","size_leaf_vector":"1"}},{"base_weights":[-0E0],"categories":[],"categories_nodes":[],"categories_segments":[],"categories_sizes":[],"default_left":[0],"id":107,"left_children":[-1],"loss_changes":[0E0],"parents":[2147483647],"right_children":[-1],"split_conditions":[-0E0],"split_indices":[0],"split_type":[0],"sum_hessian":[3.148E3],"tree_param":{"num_deleted":"0","num_feature":"200","num_nodes":"1","size_leaf_vector":"1"}},{"base_weights":[-0E0],"categories":[],"categories_nodes":[],"categories_segments":[],"categories_sizes":[],"default_left":[0],"id":108,"left_children":[-1],"loss_changes":[0E0],"parents":[2147483647],"right_children":[-1],"split_conditions":[-0E0],"split_indices":[0],"split_type":[0],"sum_hessian":[3.132E3],"tree_param":{"num_deleted":"0","num_feature":"200","num_nodes":"1","size_leaf_vector":"1"}},{"base_weights":[-0E0,1.5934696E-3,-0E0,-0E0,1.9412614E-2,5.292907E-2,-0E0,-0E0,9.6784696E-2,-0E0,1.1265831E-1,1.2801215E-1,-0E0,1.4194417E-1,-0E0,-0E0,1.5662695E-1,-0E0,1.7268103E-1,1.9189171E-1,-0E0,-0E0,2.1591268E-1,-0E0,2.309405E-1,-0E0,2.4688303E-1,3.250753E-2,-0E0],"categories":[],"categories_nodes":[],"categories_segments":[],"categories_sizes":[],"default_left":[0,0,0,0,0,0,0,0,0,0,0,0,0,0,0,0,0,0,0,0,0,0,0,0,0,0,0,0,0],"id":109,"left_children":[1,3,-1,-1,5,7,-1,-1,9,-1,11,13,-1,15,-1,-1,17,-1,19,21,-1,-1,23,-1,25,-1,27,-1,-1],"loss_changes":[6.9968547E-3,8.2191926E-1,0E0,0E0,1.9938452E0,2.3067048E0,0E0,0E0,1.7063131E0,0E0,1.7444153E0,1.5058489E0,0E0,1.9246807E0,0E0,0E0,1.4552422E0,0E0,1.9108629E0,1.8063946E0,0E0,0E0,1.9418583E0,0E0,2.061203E0,0E0,1.5145588E0,0E0,0E0],"parents":[2147483647,0,0,1,1,4,4,5,5,8,8,10,10,11,11,13,13,16,16,18,18,19,19,22,22,24,24,26,26],"right_children":[2,4,-1,-1,6,8,-1,-1,10,-1,12,14,-1,16,-1,-1,18,-1,20,22,-1,-1,24,-1,26,-1,28,-1,-1],"split_conditions":[1.4815347E12,0E0,-0E0,-0E0,1.1955E3,3.4936996E1,-0E0,-0E0,-3.528751E4,-0E0,1.1260323E2,1.1390625E4,-0E0,-9.9039733E-1,-0E0,-0E0,-1.0149839E6,-0E0,1.7314041E4,6.667E2,-0E0,-0E0,8.008792E-3,-0E0,9.745329E2,-0E0,3.2613195E4,3.250753E-2,-0E0],"split_indices":[12,131,0,0,198,25,0,0,33,0,26,31,0,6,0,0,17,0,86,196,0,0,40,0,89,0,84,0,0],"split_type":[0,0,0,0,0,0,0,0,0,0,0,0,0,0,0,0,0,0,0,0,0,0,0,0,0,0,0,0,0],"sum_hessian":[3.141E3,2.754E3,3.87E2,5.56E2,2.198E3,1.006E3,1.192E3,4.6E2,5.46E2,9E0,5.37E2,5.22E2,1.5E1,4.99E2,2.3E1,1.1E1,4.88E2,3.8E1,4.5E2,4.16E2,3.4E1,4.9E1,3.67E2,1E1,3.57E2,1.1E1,3.46E2,3.36E2,1E1],"tree_param":{"num_deleted":"0","num_feature":"200","num_nodes":"29","size_leaf_vector":"1"}},{"base_weights":[-0E0],"categories":[],"categories_nodes":[],"categories_segments":[],"categories_sizes":[],"default_left":[0],"id":110,"left_children":[-1],"loss_changes":[0E0],"parents":[2147483647],"right_children":[-1],"split_conditions":[-0E0],"split_indices":[0],"split_type":[0],"sum_hessian":[3.167E3],"tree_param":{"num_deleted":"0","num_feature":"200","num_nodes":"1","size_leaf_vector":"1"}},{"base_weights":[-0E0],"categories":[],"categories_nodes":[],"categories_segments":[],"categories_sizes":[],"default_left":[0],"id":111,"left_children":[-1],"loss_changes":[0E0],"parents":[2147483647],"right_children":[-1],"split_conditions":[-0E0],"split_indices":[0],"split_type":[0],"sum_hessian":[3.118E3],"tree_param":{"num_deleted":"0","num_feature":"200","num_nodes":"1","size_leaf_vector":"1"}},{"base_weights":[-0E0],"categories":[],"categories_nodes":[],"categories_segments":[],"categories_sizes":[],"default_left":[0],"id":112,"left_children":[-1],"loss_changes":[0E0],"parents":[2147483647],"right_children":[-1],"split_conditions":[-0E0],"split_indices":[0],"split_type":[0],"sum_hessian":[3.147E3],"tree_param":{"num_deleted":"0","num_feature":"200","num_nodes":"1","size_leaf_vector":"1"}},{"base_weights":[-0E0],"categories":[],"categories_nodes":[],"categories_segments":[],"categories_sizes":[],"default_left":[0],"id":113,"left_children":[-1],"loss_changes":[0E0],"parents":[2147483647],"right_children":[-1],"split_conditions":[-0E0],"split_indices":[0],"split_type":[0],"sum_hessian":[3.159E3],"tree_param":{"num_deleted":"0","num_feature":"200","num_nodes":"1","size_leaf_vector":"1"}},{"base_weights":[-0E0],"categories":[],"categories_nodes":[],"categories_segments":[],"categories_sizes":[],"default_left":[0],"id":114,"left_children":[-1],"loss_changes":[0E0],"parents":[2147483647],"right_children":[-1],"split_conditions":[-0E0],"split_indices":[0],"split_type":[0],"sum_hessian":[3.135E3],"tree_param":{"num_deleted":"0","num_feature":"200","num_nodes":"1","size_leaf_vector":"1"}},{"base_weights":[-0E0],"categories":[],"categories_nodes":[],"categories_segments":[],"categories_sizes":[],"default_left":[0],"id":115,"left_children":[-1],"loss_changes":[0E0],"parents":[2147483647],"right_children":[-1],"split_conditions":[-0E0],"split_indices":[0],"split_type":[0],"sum_hessian":[3.154E3],"tree_param":{"num_deleted":"0","num_feature":"200","num_nodes":"1","size_leaf_vector":"1"}},{"base_weights":[-0E0],"categories":[],"categories_nodes":[],"categories_segments":[],"categories_sizes":[],"default_left":[0],"id":116,"left_children":[-1],"loss_changes":[0E0],"parents":[2147483647],"right_children":[-1],"split_conditions":[-0E0],"split_indices":[0],"split_type":[0],"sum_hessian":[3.137E3],"tree_param":{"num_deleted":"0","num_feature":"200","num_nodes":"1","size_leaf_vector":"1"}},{"base_weights":[-0E0],"categories":[],"categories_nodes":[],"categories_segments":[],"categories_sizes":[],"default_left":[0],"id":117,"left_children":[-1],"loss_changes":[0E0],"parents":[2147483647],"right_children":[-1],"split_conditions":[-0E0],"split_indices":[0],"split_type":[0],"sum_hessian":[3.124E3],"tree_param":{"num_deleted":"0","num_feature":"200","num_nodes":"1","size_leaf_vector":"1"}},{"base_weights":[-0E0],"categories":[],"categories_nodes":[],"categories_segments":[],"categories_sizes":[],"default_left":[0],"id":118,"left_children":[-1],"loss_changes":[0E0],"parents":[2147483647],"right_children":[-1],"split_conditions":[-0E0],"split_indices":[0],"split_type":[0],"sum_hessian":[3.143E3],"tree_param":{"num_deleted":"0","num_feature":"200","num_nodes":"1","size_leaf_vector":"1"}},{"base_weights":[-0E0],"categories":[],"categories_nodes":[],"categories_segments":[],"categories_sizes":[],"default_left":[0],"id":119,"left_children":[-1],"loss_changes":[0E0],"parents":[2147483647],"right_children":[-1],"split_conditions":[-0E0],"split_indices":[0],"split_type":[0],"sum_hessian":[3.134E3],"tree_param":{"num_deleted":"0","num_feature":"200","num_nodes":"1","size_leaf_vector":"1"}},{"base_weights":[-0E0],"categories":[],"categories_nodes":[],"categories_segments":[],"categories_sizes":[],"default_left":[0],"id":120,"left_children":[-1],"loss_changes":[0E0],"parents":[2147483647],"right_children":[-1],"split_conditions":[-0E0],"split_indices":[0],"split_type":[0],"sum_hessian":[3.133E3],"tree_param":{"num_deleted":"0","num_feature":"200","num_nodes":"1","size_leaf_vector":"1"}},{"base_weights":[-0E0],"categories":[],"categories_nodes":[],"categories_segments":[],"categories_sizes":[],"default_left":[0],"id":121,"left_children":[-1],"loss_changes":[0E0],"parents":[2147483647],"right_children":[-1],"split_conditions":[-0E0],"split_indices":[0],"split_type":[0],"sum_hessian":[3.129E3],"tree_param":{"num_deleted":"0","num_feature":"200","num_nodes":"1","size_leaf_vector":"1"}},{"base_weights":[-0E0],"categories":[],"categories_nodes":[],"categories_segments":[],"categories_sizes":[],"default_left":[0],"id":122,"left_children":[-1],"loss_changes":[0E0],"parents":[2147483647],"right_children":[-1],"split_conditions":[-0E0],"split_indices":[0],"split_type":[0],"sum_hessian":[3.135E3],"tree_param":{"num_deleted":"0","num_feature":"200","num_nodes":"1","size_leaf_vector":"1"}},{"base_weights":[-0E0],"categories":[],"categories_nodes":[],"categories_segments":[],"categories_sizes":[],"default_left":[0],"id":123,"left_children":[-1],"loss_changes":[0E0],"parents":[2147483647],"right_children":[-1],"split_conditions":[-0E0],"split_indices":[0],"split_type":[0],"sum_hessian":[3.136E3],"tree_param":{"num_deleted":"0","num_feature":"200","num_nodes":"1","size_leaf_vector":"1"}},{"base_weights":[-0E0],"categories":[],"categories_nodes":[],"categories_segments":[],"categories_sizes":[],"default_left":[0],"id":124,"left_children":[-1],"loss_changes":[0E0],"parents":[2147483647],"right_children":[-1],"split_conditions":[-0E0],"split_indices":[0],"split_type":[0],"sum_hessian":[3.142E3],"tree_param":{"num_deleted":"0","num_feature":"200","num_nodes":"1","size_leaf_vector":"1"}},{"base_weights":[-0E0],"categories":[],"categories_nodes":[],"categories_segments":[],"categories_sizes":[],"default_left":[0],"id":125,"left_children":[-1],"loss_changes":[0E0],"parents":[2147483647],"right_children":[-1],"split_conditions":[-0E0],"split_indices":[0],"split_type":[0],"sum_hessian":[3.135E3],"tree_param":{"num_deleted":"0","num_feature":"200","num_nodes":"1","size_leaf_vector":"1"}}]},"name":"gbtree"},"learner_model_param":{"base_score":"2.6271285E-2","boost_from_average":"1","num_class":"0","num_feature":"200","num_target":"1"},"objective":{"name":"reg:squarederror","reg_loss_param":{"scale_pos_weight":"1"}}},"version":[3,0,4]}