{"learner":{"attributes":{"best_iteration":"35","best_score":"1.037582937329651"},"feature_names":["Volume","day_of_month","year","day_sin","day_cos","day_of_year_norm","dayy_sin","dayy_cos","is_holiday","Log_Return","Log_Return_change1","Log_Return23","Log_Return123","Log_High_Return","Log_High_Return_change1","Log_High_Return_change3","Log_High_Return13","Log_High_Return23","Log_High_Return123","Close_Roll_Std_5","High_Roll_Std_5","High_Roll_Std_10","High_Roll_Std_20","High_Roll_Std_30","High_Roll_Std_60","High_Roll_Std_90","High_Roll_Std_250","High_Roll_Max_250","Log_Return_Lag_1","Log_Return_Lag_2","Log_Return_Lag_3","Log_Return_Lag_5","Log_Return_Lag_10","Log_Return_Lag_20","Log_Return_Lag_30","Log_Return_Lag_60","Log_Return_Lag_90","Log_Return_Lag_120","Log_Return_Lag_180","Log_Return_Lag_250","Log_Return_Roll_Max_5","Log_Return_Roll_Max_10","Log_Return_Roll_Mean_20","Log_Return_Roll_Max_20","Log_Return_Roll_Mean_30","Log_Return_Roll_Max_30","Log_Return_Roll_Mean_60","Log_Return_Roll_Max_60","Log_Return_Roll_Mean_90","Log_Return_Roll_Max_90","Log_Return_Roll_Mean_180","Log_Return_Roll_Max_180","Log_Return_Roll_Mean_250","Log_Return_Roll_Max_250","Log_Return_change1_Lag_1","Log_Return_change1_Lag_2","Log_Return_change1_Lag_3","Log_Return_change1_Lag_5","Log_Return_change1_Lag_10","Log_Return_change1_Lag_20","Log_Return_change1_Lag_30","Log_Return_change1_Lag_60","Log_Return_change1_Lag_90","Log_Return_change1_Lag_120","Log_Return_change1_Lag_180","Log_Return_change1_Lag_250","Log_Return_change1_Roll_Mean_5","Log_Return_change1_Roll_Min_5","Log_Return_change1_Roll_Mean_10","Log_Return_change1_Roll_Mean_20","Log_Return_change1_Roll_Mean_30","Log_Return_change1_Roll_Mean_60","Log_Return_change1_Roll_Mean_90","Log_Return_change1_Roll_Mean_180","Log_Return_change1_Roll_Mean_250","Log_Return_change2_Lag_1","Log_Return_change2_Lag_2","Log_Return_change2_Lag_3","Log_Return_change2_Lag_5","Log_Return_change2_Lag_10","Log_Return_change2_Lag_20","Log_Return_change2_Lag_30","Log_Return_change2_Lag_60","Log_Return_change2_Lag_90","Log_Return_change2_Lag_120","Log_Return_change2_Lag_180","Log_Return_change2_Lag_250","Log_Return_change2_Roll_Mean_5","Log_Return_change2_Roll_Min_5","Log_Return_change2_Roll_Max_5","Log_Return_change2_Roll_Mean_10","Log_Return_change2_Roll_Min_10","Log_Return_change2_Roll_Max_10","Log_Return_change2_Roll_Mean_20","Log_Return_change2_Roll_Max_20","Log_Return_change2_Roll_Mean_30","Log_Return_change2_Roll_Max_30","Log_Return_change2_Roll_Mean_60","Log_Return_change2_Roll_Mean_90","Log_Return_change2_Roll_Max_90","Log_Return_change2_Roll_Mean_180","Log_Return_change2_Roll_Max_180","Log_Return_change2_Roll_Mean_250","Log_Return_change2_Roll_Max_250","rsi_5_long","rsi_5_short","rsi_5_combined","rsi_7_long","rsi_7_short","rsi_7_combined","rsi_10_long","rsi_10_short","rsi_10_combined","macd_5_10_5_long","macd_5_10_5_short","macd_5_10_5_combined","stoch_3_2_2_long","stoch_3_2_2_short","stoch_3_2_2_combined","cci_6_long","cci_6_short","cci_6_combined","cci_10_long","cci_10_short","cci_10_combined","obv_combined","ad_combined","atr_10_long","atr_10_short","atr_10_combined","sma_2_long","sma_2_short","sma_2_combined","sma_3_long","sma_3_short","sma_3_combined","sma_5_long","sma_5_short","sma_5_combined","sma_8_long","sma_8_short","sma_8_combined","sma_13_long","sma_13_short","sma_13_combined","sma_21_long","sma_21_short","sma_21_combined","ema_3_long","ema_3_short","ema_3_combined","ema_5_long","ema_5_short","ema_5_combined","ema_8_long","ema_8_short","ema_8_combined","ema_13_long","ema_13_short","ema_13_combined","ema_21_long","ema_21_short","ema_21_combined","bb_3_1.5_1.5_long","bb_3_1.5_1.5_short","bb_3_1.5_1.5_combined","bb_3_2.0_2.0_long","bb_3_2.0_2.0_short","bb_3_2.0_2.0_combined","bb_5_1.5_1.5_long","bb_5_1.5_1.5_short","bb_5_1.5_1.5_combined","bb_5_2.0_2.0_long","bb_5_2.0_2.0_short","bb_5_2.0_2.0_combined","bb_8_2.0_2.0_long","bb_8_2.0_2.0_short","bb_8_2.0_2.0_combined","ht_dcperiod_combined","ht_phasor_short","ht_phasor_combined","typprice_long","typprice_short","typprice_combined","linearreg_3_combined","linearreg_5_combined","linearreg_8_combined","stddev_2_2_long","stddev_2_2_short","stddev_2_2_combined","stddev_3_2_long","stddev_3_2_short","stddev_3_2_combined","stddev_5_2_long","stddev_5_2_short","stddev_5_2_combined","Open","High","Low","Close"],"feature_types":["float","int","int","float","float","float","float","float","int","float","float","float","float","float","float","float","float","float","float","float","float","float","float","float","float","float","float","float","float","float","float","float","float","float","float","float","float","float","float","float","float","float","float","float","float","float","float","float","float","float","float","float","float","float","float","float","float","float","float","float","float","float","float","float","float","float","float","float","float","float","float","float","float","float","float","float","float","float","float","float","float","float","float","float","float","float","float","float","float","float","float","float","float","float","float","float","float","float","float","float","float","float","float","float","int","int","int","int","int","int","int","int","int","int","int","int","int","int","int","int","int","int","int","int","int","int","int","int","int","int","int","int","int","int","int","int","int","int","int","int","int","int","int","int","int","int","int","int","int","int","int","int","int","int","int","int","int","int","int","int","int","int","int","int","int","int","int","int","int","int","int","int","int","int","int","int","int","int","int","int","int","int","int","int","int","int","int","int","int","int","int","int","int","int","int","int","float","float","float","float"],"gradient_booster":{"model":{"gbtree_model_param":{"num_parallel_tree":"1","num_trees":"86"},"iteration_indptr":[0,1,2,3,4,5,6,7,8,9,10,11,12,13,14,15,16,17,18,19,20,21,22,23,24,25,26,27,28,29,30,31,32,33,34,35,36,37,38,39,40,41,42,43,44,45,46,47,48,49,50,51,52,53,54,55,56,57,58,59,60,61,62,63,64,65,66,67,68,69,70,71,72,73,74,75,76,77,78,79,80,81,82,83,84,85,86],"tree_info":[0,0,0,0,0,0,0,0,0,0,0,0,0,0,0,0,0,0,0,0,0,0,0,0,0,0,0,0,0,0,0,0,0,0,0,0,0,0,0,0,0,0,0,0,0,0,0,0,0,0,0,0,0,0,0,0,0,0,0,0,0,0,0,0,0,0,0,0,0,0,0,0,0,0,0,0,0,0,0,0,0,0,0,0,0,0],"trees":[{"base_weights":[-0E0,-7.4081556E-3,1.40072405E-2,-0E0,-4.754805E-2,-0E0,4.4605765E-2,-7.2219834E-2,-0E0,-0E0,8.212118E-2,-0E0,-1.02818064E-1,-0E0,9.636535E-2,-0E0,-1.4478476E-1,-0E0,1.0850927E-1,-1.7098446E-1,-0E0,1.2114671E-1,-0E0,-0E0,-1.9012372E-1,-0E0,1.328306E-1,-0E0,-2.0705554E-1,1.4412779E-1,-0E0,-2.2383961E-1,-0E0,-0E0,1.5497963E-1,-0E0,-2.3827079E-1,1.6525741E-1,-0E0,-3.1315975E-2,-0E0,2.1552507E-2,-0E0],"categories":[],"categories_nodes":[],"categories_segments":[],"categories_sizes":[],"default_left":[0,0,0,0,0,0,0,0,0,0,0,0,0,0,0,0,0,0,0,0,0,0,0,0,0,0,0,0,0,0,0,0,0,0,0,0,0,0,0,0,0,0,0],"id":0,"left_children":[1,3,5,-1,7,-1,9,11,-1,-1,13,-1,15,-1,17,-1,19,-1,21,23,-1,25,-1,-1,27,-1,29,-1,31,33,-1,35,-1,-1,37,-1,39,41,-1,-1,-1,-1,-1],"loss_changes":[3.540026E-1,2.3684816E0,1.3220834E0,0E0,2.5845244E0,0E0,2.9425068E0,3.9752336E0,0E0,0E0,1.4001069E0,0E0,3.5415668E0,0E0,1.411315E0,0E0,3.2326365E0,0E0,1.3685088E0,2.9385471E0,0E0,1.1428652E0,0E0,0E0,3.227913E0,0E0,1.1650076E0,0E0,2.7526245E0,1.2887516E0,0E0,2.948677E0,0E0,0E0,1.0031967E0,0E0,3.050949E0,1.0292892E0,0E0,0E0,0E0,0E0,0E0],"parents":[2147483647,0,0,1,1,2,2,4,4,6,6,7,7,10,10,12,12,14,14,16,16,18,18,19,19,21,21,24,24,26,26,28,28,29,29,31,31,34,34,36,36,37,37],"right_children":[2,4,6,-1,8,-1,10,12,-1,-1,14,-1,16,-1,18,-1,20,-1,22,24,-1,26,-1,-1,28,-1,30,-1,32,34,-1,36,-1,-1,38,-1,40,42,-1,-1,-1,-1,-1],"split_conditions":[-7.6710366E3,-5.770575E10,4.8108345E1,-0E0,1.2051633E5,-0E0,-1.3569738E3,1.0452536E4,-0E0,-0E0,-1.4344789E4,-0E0,2.754007E1,-0E0,-3.6522812E3,-0E0,1.8398139E4,-0E0,1.1390625E4,-2.1346254E4,-0E0,6.165498E2,-0E0,-0E0,-3.4224504E4,-0E0,2.2982463E3,-0E0,3.1169451E4,-1.5625E4,-0E0,-3.528751E4,-0E0,-0E0,1.1433326E4,-0E0,3.876278E3,4.4539414E8,-0E0,-3.1315975E-2,-0E0,2.1552507E-2,-0E0],"split_indices":[88,12,26,0,89,0,56,92,0,0,59,0,24,0,9,0,55,0,38,64,0,89,0,0,48,0,55,0,65,36,0,31,0,0,59,0,95,17,0,0,0,0,0],"split_type":[0,0,0,0,0,0,0,0,0,0,0,0,0,0,0,0,0,0,0,0,0,0,0,0,0,0,0,0,0,0,0,0,0,0,0,0,0,0,0,0,0,0,0],"sum_hessian":[3.009E3,1.673E3,1.336E3,5.85E2,1.088E3,5.4E2,7.96E2,9.67E2,1.21E2,1.25E2,6.71E2,1.14E2,8.53E2,3.3E1,6.38E2,2.54E2,5.99E2,1.5E1,6.23E2,5.4E2,5.9E1,5.93E2,3E1,2.2E1,5.18E2,3.5E1,5.58E2,6E0,5.12E2,5.3E2,2.8E1,4.93E2,1.9E1,1.8E1,5.12E2,6E0,4.87E2,4.87E2,2.5E1,4.81E2,6E0,4.74E2,1.3E1],"tree_param":{"num_deleted":"0","num_feature":"200","num_nodes":"43","size_leaf_vector":"1"}},{"base_weights":[-0E0,-0E0,-8.869929E-3,-0E0,3.543193E-2,-4.152007E-2,-0E0,-0E0,5.2132614E-2,-7.423443E-2,-0E0,-0E0,7.265501E-2,-0E0,-9.216017E-2,8.538795E-2,-0E0,-0E0,-1.1442259E-1,9.539928E-2,-0E0,-1.3605249E-1,-0E0,-0E0,1.0491112E-1,-1.616555E-1,-0E0,1.1703805E-1,-0E0,-0E0,-1.8127476E-1,-0E0,1.2724052E-1,-1.9568239E-1,-0E0,-0E0,1.3267782E-1,-2.0880945E-1,-0E0,-0E0,1.6961215E-2,-0E0,-2.9181302E-2],"categories":[],"categories_nodes":[],"categories_segments":[],"categories_sizes":[],"default_left":[0,0,0,0,0,0,0,0,0,0,0,0,0,0,0,0,0,0,0,0,0,0,0,0,0,0,0,0,0,0,0,0,0,0,0,0,0,0,0,0,0,0,0],"id":1,"left_children":[1,3,5,-1,7,9,-1,-1,11,13,-1,-1,15,-1,17,19,-1,-1,21,23,-1,25,-1,-1,27,29,-1,31,-1,-1,33,-1,35,37,-1,-1,39,41,-1,-1,-1,-1,-1],"loss_changes":[1.1244635E-1,1.3636886E0,2.0101075E0,0E0,1.4064101E0,2.877017E0,0E0,0E0,1.9186959E0,2.035079E0,0E0,0E0,1.3208208E0,0E0,2.2772741E0,1.33709E0,0E0,0E0,2.7612123E0,1.3179226E0,0E0,2.985444E0,0E0,0E0,1.3792162E0,3.416912E0,0E0,1.5036116E0,0E0,0E0,2.5174732E0,0E0,7.6153946E-1,2.2134132E0,0E0,0E0,7.069931E-1,2.2430096E0,0E0,0E0,0E0,0E0,0E0],"parents":[2147483647,0,0,1,1,2,2,4,4,5,5,8,8,9,9,12,12,14,14,15,15,18,18,19,19,21,21,24,24,25,25,27,27,30,30,32,32,33,33,36,36,37,37],"right_children":[2,4,6,-1,8,10,-1,-1,12,14,-1,-1,16,-1,18,20,-1,-1,22,24,-1,26,-1,-1,28,30,-1,32,-1,-1,34,-1,36,38,-1,-1,40,42,-1,-1,-1,-1,-1],"split_conditions":[2.0429219E6,-4.2875E1,2.3526306E3,-0E0,-9.6712456E1,4.21875E2,-0E0,-0E0,0E0,0E0,-0E0,-0E0,4.410865E3,-0E0,1.1592928E4,6.803465E2,-0E0,-0E0,2.3201073E2,3.7874708E0,-0E0,1E0,-0E0,-0E0,1E0,2.8032065E3,-0E0,2.1597363E-1,-0E0,-0E0,6.4481074E4,-0E0,-1.0848369E3,9.664613E-1,-0E0,-0E0,-7.785422E4,-9.212524E3,-0E0,-0E0,1.6961215E-2,-0E0,-2.9181302E-2],"split_indices":[16,35,35,0,100,37,0,0,121,106,0,0,31,0,94,70,0,0,100,21,0,156,0,0,159,45,0,40,0,0,54,0,93,5,0,0,36,86,0,0,0,0,0],"split_type":[0,0,0,0,0,0,0,0,0,0,0,0,0,0,0,0,0,0,0,0,0,0,0,0,0,0,0,0,0,0,0,0,0,0,0,0,0,0,0,0,0,0,0],"sum_hessian":[3.018E3,1.589E3,1.429E3,5.03E2,1.086E3,1.231E3,1.98E2,6.7E1,1.019E3,9.07E2,3.24E2,1.31E2,8.88E2,7.9E1,8.28E2,8.24E2,6.4E1,1.17E2,7.11E2,8.07E2,1.7E1,6.52E2,5.9E1,2E1,7.87E2,5.76E2,7.6E1,7.33E2,5.4E1,1.4E1,5.62E2,2E1,7.13E2,5.48E2,1.4E1,1.4E1,6.99E2,5.32E2,1.6E1,4E0,6.95E2,7.3E1,4.59E2],"tree_param":{"num_deleted":"0","num_feature":"200","num_nodes":"43","size_leaf_vector":"1"}},{"base_weights":[-0E0,-0E0,1.1627754E-2,-4.144848E-2,-0E0,4.160793E-2,-0E0,-6.6507444E-2,-0E0,-0E0,5.547336E-2,-0E0,-9.3107805E-2,-0E0,6.762723E-2,-0E0,-1.2521131E-1,-0E0,8.1321456E-2,-1.446144E-1,-0E0,-0E0,9.179495E-2,-0E0,-1.633756E-1,-0E0,9.815495E-2,-1.7851147E-1,-0E0,1.03312865E-1,-0E0,-0E0,-2.4039409E-1,1.1207119E-1,-0E0,-0E0,-2.6089576E-1,-0E0,1.2345174E-1,-0E0,-3.416209E-2,1.7589627E-2,-0E0],"categories":[],"categories_nodes":[],"categories_segments":[],"categories_sizes":[],"default_left":[0,0,0,0,0,0,0,0,0,0,0,0,0,0,0,0,0,0,0,0,0,0,0,0,0,0,0,0,0,0,0,0,0,0,0,0,0,0,0,0,0,0,0],"id":2,"left_children":[1,3,5,7,-1,9,-1,11,-1,-1,13,-1,15,-1,17,-1,19,-1,21,23,-1,-1,25,-1,27,-1,29,31,-1,33,-1,-1,35,37,-1,-1,39,-1,41,-1,-1,-1,-1],"loss_changes":[2.7138814E-1,1.4744354E0,2.469548E0,1.7821282E0,0E0,1.6264803E0,0E0,2.7618418E0,0E0,0E0,1.8901482E0,0E0,2.8119903E0,0E0,1.335949E0,0E0,2.321416E0,0E0,1.7701387E0,2.5740576E0,0E0,0E0,9.1855335E-1,0E0,2.1512032E0,0E0,9.5959663E-1,2.8027182E0,0E0,1.0071583E0,0E0,0E0,2.7774868E0,1.3795462E0,0E0,0E0,1.1934814E0,0E0,1.6785793E0,0E0,0E0,0E0,0E0],"parents":[2147483647,0,0,1,1,2,2,3,3,5,5,7,7,10,10,12,12,14,14,16,16,18,18,19,19,22,22,24,24,26,26,27,27,29,29,32,32,33,33,36,36,38,38],"right_children":[2,4,6,8,-1,10,-1,12,-1,-1,14,-1,16,-1,18,-1,20,-1,22,24,-1,-1,26,-1,28,-1,30,32,-1,34,-1,-1,36,38,-1,-1,40,-1,42,-1,-1,-1,-1],"split_conditions":[-1.2506223E3,1.2596864E3,6.14125E2,1E0,-0E0,-1.2873968E4,-0E0,-1.0940976E4,-0E0,-0E0,-1.2812743E4,-0E0,2.2E1,-0E0,1.0351007E1,-0E0,2.9540357E4,-0E0,0E0,-1.2812743E4,-0E0,-0E0,1.926864E1,-0E0,4.8137555E4,-0E0,1.4205772E14,2.8104254E1,-0E0,3.7677504E4,-0E0,-0E0,7.834E2,-9.963234E3,-0E0,-0E0,0E0,-0E0,3.521606E3,-0E0,-3.416209E-2,1.7589627E-2,-0E0],"split_indices":[84,35,33,151,0,86,0,35,0,0,31,0,0,0,22,0,86,0,111,34,0,0,25,0,54,0,18,24,0,84,0,0,197,54,0,0,109,0,62,0,0,0,0],"split_type":[0,0,0,0,0,0,0,0,0,0,0,0,0,0,0,0,0,0,0,0,0,0,0,0,0,0,0,0,0,0,0,0,0,0,0,0,0,0,0,0,0,0,0],"sum_hessian":[3.036E3,1.029E3,2.007E3,8.58E2,1.71E2,1.583E3,4.24E2,7.36E2,1.22E2,1.64E2,1.419E3,4.2E1,6.94E2,5.1E1,1.368E3,1.31E2,5.63E2,2.2E2,1.148E3,5.33E2,3E1,3.7E1,1.111E3,1.9E1,5.14E2,4.4E1,1.067E3,4.98E2,1.6E1,1.053E3,1.4E1,1.75E2,3.23E2,9.75E2,7.8E1,8E0,3.15E2,8.1E1,8.94E2,1.7E1,2.98E2,7.6E2,1.34E2],"tree_param":{"num_deleted":"0","num_feature":"200","num_nodes":"43","size_leaf_vector":"1"}},{"base_weights":[-0E0,-0E0,1.0248747E-2,-0E0,-4.0294662E-2,-0E0,3.1857014E-2,-0E0,-6.909983E-2,-0E0,5.1621407E-2,-8.9563265E-2,-0E0,7.89159E-2,-0E0,-1.1167957E-1,-0E0,-0E0,1.04971334E-1,-0E0,-1.24796994E-1,1.2201984E-1,-0E0,-0E0,-1.4161733E-1,-0E0,1.4643721E-1,-1.5503627E-1,-0E0,-0E0,1.6398181E-1,-0E0,-1.6920586E-1,1.7606585E-1,-0E0,-0E0,-1.790561E-1,-0E0,1.874694E-1,-0E0,-2.454837E-2,2.4644626E-2,-0E0],"categories":[],"categories_nodes":[],"categories_segments":[],"categories_sizes":[],"default_left":[0,0,0,0,0,0,0,0,0,0,0,0,0,0,0,0,0,0,0,0,0,0,0,0,0,0,0,0,0,0,0,0,0,0,0,0,0,0,0,0,0,0,0],"id":3,"left_children":[1,3,5,-1,7,-1,9,-1,11,-1,13,15,-1,17,-1,19,-1,-1,21,-1,23,25,-1,-1,27,-1,29,31,-1,-1,33,-1,35,37,-1,-1,39,-1,41,-1,-1,-1,-1],"loss_changes":[9.981013E-2,2.3498244E0,5.4893434E-1,0E0,3.3094406E0,0E0,9.321021E-1,0E0,2.893659E0,0E0,1.8770297E0,3.411024E0,0E0,1.9220252E0,0E0,2.2123852E0,0E0,0E0,1.770309E0,0E0,2.4343958E0,2.1186714E0,0E0,0E0,2.6961308E0,0E0,2.1120434E0,2.2874851E0,0E0,0E0,1.5221596E0,0E0,2.170597E0,1.409255E0,0E0,0E0,1.7354851E0,0E0,1.3886013E0,0E0,0E0,0E0,0E0],"parents":[2147483647,0,0,1,1,2,2,4,4,6,6,8,8,10,10,11,11,13,13,15,15,18,18,20,20,21,21,24,24,26,26,27,27,30,30,32,32,33,33,36,36,38,38],"right_children":[2,4,6,-1,8,-1,10,-1,12,-1,14,16,-1,18,-1,20,-1,-1,22,-1,24,26,-1,-1,28,-1,30,32,-1,-1,34,-1,36,38,-1,-1,40,-1,42,-1,-1,-1,-1],"split_conditions":[1.326491E2,1.5438294E4,2.95037E4,-0E0,-3.9069893E3,-0E0,-9.129361E3,-0E0,1E0,-0E0,2.1145222E9,2.0285654E4,-0E0,1.47632065E1,-0E0,2.576592E3,-0E0,-0E0,2.3374462E5,-0E0,2.097116E3,0E0,-0E0,-0E0,4.0328906E4,-0E0,-3.528751E4,-1.2812743E4,-0E0,-0E0,2.181994E3,-0E0,-3.528751E4,2.3118612E1,-0E0,-0E0,6.4223508E4,-0E0,9.9724954E-1,-0E0,-2.454837E-2,2.4644626E-2,-0E0],"split_indices":[35,49,51,0,60,0,38,0,154,0,16,79,0,23,0,92,0,0,41,0,43,156,0,0,54,0,36,35,0,0,70,0,38,25,0,0,103,0,6,0,0,0,0],"split_type":[0,0,0,0,0,0,0,0,0,0,0,0,0,0,0,0,0,0,0,0,0,0,0,0,0,0,0,0,0,0,0,0,0,0,0,0,0,0,0,0,0,0,0],"sum_hessian":[3.035E3,2.085E3,9.5E2,6.38E2,1.447E3,3.11E2,6.39E2,2.62E2,1.185E3,4.6E1,5.93E2,1.066E3,1.19E2,5.55E2,3.8E1,9.59E2,1.07E2,6.7E1,4.88E2,4.9E1,9.1E2,4.8E2,8E0,8.2E1,8.28E2,4.8E1,4.32E2,8.03E2,2.5E1,9E0,4.23E2,4.9E1,7.54E2,4.16E2,7E0,1.3E1,7.41E2,9E0,4.07E2,9.1E1,6.5E2,3.97E2,1E1],"tree_param":{"num_deleted":"0","num_feature":"200","num_nodes":"43","size_leaf_vector":"1"}},{"base_weights":[-0E0,3.4114693E-3,-0E0,-0E0,3.8796216E-2,-3.8039397E-2,-0E0,5.962309E-2,-0E0,-0E0,-7.7409744E-2,7.4548535E-2,-0E0,-1.0370789E-1,-0E0,8.9381635E-2,-0E0,-1.2005917E-1,-0E0,1.0412202E-1,-0E0,-1.4923723E-1,-0E0,1.14587374E-1,-0E0,-1.7278484E-1,-0E0,1.2644179E-1,-0E0,-1.9131052E-1,-0E0,1.538194E-1,-0E0,-0E0,-2.0475115E-1,1.6616729E-1,-0E0,-2.2063869E-1,-0E0,-0E0,2.1864794E-2,-0E0,-2.9151158E-2],"categories":[],"categories_nodes":[],"categories_segments":[],"categories_sizes":[],"default_left":[0,0,0,0,0,0,0,0,0,0,0,0,0,0,0,0,0,0,0,0,0,0,0,0,0,0,0,0,0,0,0,0,0,0,0,0,0,0,0,0,0,0,0],"id":4,"left_children":[1,3,5,-1,7,9,-1,11,-1,-1,13,15,-1,17,-1,19,-1,21,-1,23,-1,25,-1,27,-1,29,-1,31,-1,33,-1,35,-1,-1,37,39,-1,41,-1,-1,-1,-1,-1],"loss_changes":[2.4047147E-2,2.4372275E0,1.27515E0,0E0,2.7226396E0,3.2864017E0,0E0,1.9365535E0,0E0,0E0,3.0773053E0,2.2765994E0,0E0,2.2671537E0,0E0,2.5961123E0,0E0,2.4156008E0,0E0,2.4663877E0,0E0,3.269639E0,0E0,2.187276E0,0E0,2.3879766E0,0E0,2.097866E0,0E0,2.1538696E0,0E0,2.1638622E0,0E0,0E0,1.9799309E0,1.9035339E0,0E0,1.5141468E0,0E0,0E0,0E0,0E0,0E0],"parents":[2147483647,0,0,1,1,2,2,4,4,5,5,7,7,10,10,11,11,13,13,15,15,17,17,19,19,21,21,23,23,25,25,27,27,29,29,31,31,34,34,35,35,37,37],"right_children":[2,4,6,-1,8,10,-1,12,-1,-1,14,16,-1,18,-1,20,-1,22,-1,24,-1,26,-1,28,-1,30,-1,32,-1,34,-1,36,-1,-1,38,40,-1,42,-1,-1,-1,-1,-1],"split_conditions":[3.339553E1,-4.969038E3,9.657866E-1,-0E0,1.1665861E4,-1.2575107E4,-0E0,1.7715503E3,-0E0,-0E0,1E0,9.740318E2,-0E0,1.9683E4,-0E0,-3.0024432E2,-0E0,-1.5586888E3,-0E0,1.4205772E14,-0E0,6.344E3,-0E0,6.718867E2,-0E0,4.4658363E4,-0E0,2.5004555E2,-0E0,2.5533398E3,-0E0,1.5786119E2,-0E0,-0E0,2.018E3,2E0,-0E0,-1.0940976E4,-0E0,-0E0,2.1864794E-2,-0E0,-2.9151158E-2],"split_indices":[97,84,7,0,85,85,0,36,0,0,119,52,0,31,0,67,0,67,0,18,0,0,0,93,0,85,0,39,0,89,0,98,0,0,2,1,0,36,0,0,0,0,0],"split_type":[0,0,0,0,0,0,0,0,0,0,0,0,0,0,0,0,0,0,0,0,0,0,0,0,0,0,0,0,0,0,0,0,0,0,0,0,0,0,0,0,0,0,0],"sum_hessian":[3.026E3,2.066E3,9.6E2,4.31E2,1.635E3,8.81E2,7.9E1,1.458E3,1.77E2,1.2E2,7.61E2,1.281E3,1.77E2,7.1E2,5.1E1,1.176E3,1.05E2,6.87E2,2.3E1,1.106E3,7E1,5.53E2,1.34E2,1.101E3,5E0,5.22E2,3.1E1,1.041E3,6E1,4.91E2,3.1E1,7.92E2,2.49E2,1.1E1,4.8E2,7.57E2,3.5E1,4.54E2,2.6E1,2.4E1,7.33E2,2.7E1,4.27E2],"tree_param":{"num_deleted":"0","num_feature":"200","num_nodes":"43","size_leaf_vector":"1"}},{"base_weights":[-0E0],"categories":[],"categories_nodes":[],"categories_segments":[],"categories_sizes":[],"default_left":[0],"id":5,"left_children":[-1],"loss_changes":[0E0],"parents":[2147483647],"right_children":[-1],"split_conditions":[-0E0],"split_indices":[0],"split_type":[0],"sum_hessian":[3.036E3],"tree_param":{"num_deleted":"0","num_feature":"200","num_nodes":"1","size_leaf_vector":"1"}},{"base_weights":[-0E0,-0E0,5.2927285E-3,-3.0076582E-2,-0E0,-0E0,3.5824277E-2,-5.6648545E-2,-0E0,-0E0,6.64875E-2,-0E0,-1.1287771E-1,9.810482E-2,-0E0,-1.3821515E-1,-0E0,-0E0,1.1129581E-1,-1.6068792E-1,-0E0,1.2103218E-1,-0E0,-0E0,-1.8061242E-1,1.3368952E-1,-0E0,-1.9324629E-1,-0E0,-0E0,1.4168708E-1,-0E0,-2.0645702E-1,1.477321E-1,-0E0,-2.1787074E-1,-0E0,1.5288156E-1,-0E0,-2.8381366E-2,-0E0,-0E0,2.0094188E-2],"categories":[],"categories_nodes":[],"categories_segments":[],"categories_sizes":[],"default_left":[0,0,0,0,0,0,0,0,0,0,0,0,0,0,0,0,0,0,0,0,0,0,0,0,0,0,0,0,0,0,0,0,0,0,0,0,0,0,0,0,0,0,0],"id":6,"left_children":[1,3,5,7,-1,-1,9,11,-1,-1,13,-1,15,17,-1,19,-1,-1,21,23,-1,25,-1,-1,27,29,-1,31,-1,-1,33,-1,35,37,-1,39,-1,41,-1,-1,-1,-1,-1],"loss_changes":[4.7992934E-2,8.442092E-1,1.3152628E0,1.7430599E0,0E0,0E0,2.1875346E0,2.2957299E0,0E0,0E0,2.9095922E0,0E0,2.2662582E0,1.6806841E0,0E0,1.9457803E0,0E0,0E0,1.2376671E0,1.7428961E0,0E0,1.2599163E0,0E0,0E0,1.3825407E0,1.2105436E0,0E0,1.344327E0,0E0,0E0,9.453497E-1,0E0,9.716711E-1,8.373823E-1,0E0,9.9234295E-1,0E0,8.790703E-1,0E0,0E0,0E0,0E0,0E0],"parents":[2147483647,0,0,1,1,2,2,3,3,6,6,7,7,10,10,12,12,13,13,15,15,18,18,19,19,21,21,24,24,25,25,27,27,30,30,32,32,33,33,35,35,37,37],"right_children":[2,4,6,8,-1,-1,10,12,-1,-1,14,-1,16,18,-1,20,-1,-1,22,24,-1,26,-1,-1,28,30,-1,32,-1,-1,34,-1,36,38,-1,40,-1,42,-1,-1,-1,-1,-1],"split_conditions":[-8.259364E1,2.3653454E1,4.3388373E-1,1.8608615E3,-0E0,-0E0,1.5435871E1,2.2669096E1,-0E0,-0E0,1.6430015E3,-0E0,9.4486E4,1.0011708E1,-0E0,6.12165E1,-0E0,-0E0,1.38416E5,2.8032065E3,-0E0,2.9540357E4,-0E0,-0E0,9.9223286E-1,-5.1777607E3,-0E0,-9.8334295E-1,-0E0,-0E0,5.6181566E4,-0E0,1E0,2.1682074E4,-0E0,-1.6430484E2,-0E0,0E0,-0E0,-2.8381366E-2,-0E0,-0E0,2.0094188E-2],"split_indices":[56,70,3,35,0,0,23,23,0,0,9,0,0,22,0,23,0,0,0,45,0,85,0,0,7,30,0,7,0,0,37,0,116,42,0,56,0,108,0,0,0,0,0],"split_type":[0,0,0,0,0,0,0,0,0,0,0,0,0,0,0,0,0,0,0,0,0,0,0,0,0,0,0,0,0,0,0,0,0,0,0,0,0,0,0,0,0,0,0],"sum_hessian":[3.035E3,1.322E3,1.713E3,9.33E2,3.89E2,6.51E2,1.062E3,8.06E2,1.27E2,2.59E2,8.03E2,4.23E2,3.83E2,6.71E2,1.32E2,3.74E2,9E0,1.4E1,6.57E2,3.52E2,2.2E1,6.4E2,1.7E1,2E1,3.32E2,5.95E2,4.5E1,3.27E2,5E0,5E0,5.9E2,9E0,3.18E2,5.86E2,4E0,3.06E2,1.2E1,5.83E2,3E0,2.96E2,1E1,3.1E1,5.52E2],"tree_param":{"num_deleted":"0","num_feature":"200","num_nodes":"43","size_leaf_vector":"1"}},{"base_weights":[-0E0,-0E0,1.9253396E-3,-0E0,-4.230396E-2,2.9476646E-2,-0E0,-0E0,-8.859566E-2,-0E0,6.2159166E-2,-1.2416479E-1,-0E0,-0E0,7.77056E-2,-1.6510971E-1,-0E0,9.505266E-2,-0E0,-0E0,-1.8993658E-1,1.0702665E-1,-0E0,-2.1431462E-1,-0E0,-0E0,1.151267E-1,-2.4708831E-1,-0E0,1.2356958E-1,-0E0,-0E0,-2.788697E-1,1.283252E-1,-0E0,-3.0037725E-1,-0E0,-0E0,1.3279666E-1,-3.9502624E-2,-0E0,1.6878692E-2,-0E0],"categories":[],"categories_nodes":[],"categories_segments":[],"categories_sizes":[],"default_left":[0,0,0,0,0,0,0,0,0,0,0,0,0,0,0,0,0,0,0,0,0,0,0,0,0,0,0,0,0,0,0,0,0,0,0,0,0,0,0,0,0,0,0],"id":7,"left_children":[1,3,5,-1,7,9,-1,-1,11,-1,13,15,-1,-1,17,19,-1,21,-1,-1,23,25,-1,27,-1,-1,29,31,-1,33,-1,-1,35,37,-1,39,-1,-1,41,-1,-1,-1,-1],"loss_changes":[6.087671E-3,9.990394E-1,1.0063572E0,0E0,2.1582148E0,2.029261E0,0E0,0E0,2.8436108E0,0E0,1.4883602E0,2.7292538E0,0E0,0E0,2.1489687E0,2.498127E0,0E0,1.4794583E0,0E0,0E0,2.607913E0,9.63542E-1,0E0,1.8079367E0,0E0,0E0,8.525667E-1,2.027934E0,0E0,6.5078545E-1,0E0,0E0,2.0189533E0,5.4176235E-1,0E0,1.7604237E0,0E0,0E0,5.1740074E-1,0E0,0E0,0E0,0E0],"parents":[2147483647,0,0,1,1,2,2,4,4,5,5,8,8,10,10,11,11,14,14,15,15,17,17,20,20,21,21,23,23,26,26,27,27,29,29,32,32,33,33,35,35,38,38],"right_children":[2,4,6,-1,8,10,-1,-1,12,-1,14,16,-1,-1,18,20,-1,22,-1,-1,24,26,-1,28,-1,-1,30,32,-1,34,-1,-1,36,38,-1,40,-1,-1,42,-1,-1,-1,-1],"split_conditions":[-1.25E-1,2.5412597E5,2.015E3,-0E0,-1.6750584E11,-3.277025E1,-0E0,-0E0,6.431475E1,-0E0,-1.7822285E6,-4.389706E3,-0E0,-0E0,5.6181566E4,-3.8906033E3,-0E0,1.5374419E2,-0E0,-0E0,1.702191E5,3.5439968E3,-0E0,2.014E3,-0E0,-0E0,1.8058338E4,-1.0360128E4,-0E0,1.65342E5,-0E0,-0E0,4.0328906E4,-1.1733227E5,-0E0,2.3639783E4,-0E0,-0E0,5.5261906E4,-3.9502624E-2,-0E0,1.6878692E-2,-0E0],"split_indices":[30,103,2,0,12,35,0,0,22,0,17,88,0,0,30,90,0,26,0,0,82,96,0,2,0,0,64,35,0,0,0,0,62,80,0,39,0,0,76,0,0,0,0],"split_type":[0,0,0,0,0,0,0,0,0,0,0,0,0,0,0,0,0,0,0,0,0,0,0,0,0,0,0,0,0,0,0,0,0,0,0,0,0,0,0,0,0,0,0],"sum_hessian":[3.004E3,1.362E3,1.642E3,8.04E2,5.58E2,1.165E3,4.77E2,1.56E2,4.02E2,3.78E2,7.87E2,3.89E2,1.3E1,3.7E1,7.5E2,3.2E2,6.9E1,7.39E2,1.1E1,9E0,3.11E2,7.12E2,2.7E1,3.01E2,1E1,2.4E1,6.88E2,2.56E2,4.5E1,6.53E2,3.5E1,2.9E1,2.27E2,6.45E2,8E0,2.18E2,9E0,1.2E1,6.33E2,2.11E2,7E0,6.3E2,3E0],"tree_param":{"num_deleted":"0","num_feature":"200","num_nodes":"43","size_leaf_vector":"1"}},{"base_weights":[-0E0],"categories":[],"categories_nodes":[],"categories_segments":[],"categories_sizes":[],"default_left":[0],"id":8,"left_children":[-1],"loss_changes":[0E0],"parents":[2147483647],"right_children":[-1],"split_conditions":[-0E0],"split_indices":[0],"split_type":[0],"sum_hessian":[3.045E3],"tree_param":{"num_deleted":"0","num_feature":"200","num_nodes":"1","size_leaf_vector":"1"}},{"base_weights":[-0E0],"categories":[],"categories_nodes":[],"categories_segments":[],"categories_sizes":[],"default_left":[0],"id":9,"left_children":[-1],"loss_changes":[0E0],"parents":[2147483647],"right_children":[-1],"split_conditions":[-0E0],"split_indices":[0],"split_type":[0],"sum_hessian":[2.996E3],"tree_param":{"num_deleted":"0","num_feature":"200","num_nodes":"1","size_leaf_vector":"1"}},{"base_weights":[-0E0],"categories":[],"categories_nodes":[],"categories_segments":[],"categories_sizes":[],"default_left":[0],"id":10,"left_children":[-1],"loss_changes":[0E0],"parents":[2147483647],"right_children":[-1],"split_conditions":[-0E0],"split_indices":[0],"split_type":[0],"sum_hessian":[3.002E3],"tree_param":{"num_deleted":"0","num_feature":"200","num_nodes":"1","size_leaf_vector":"1"}},{"base_weights":[-0E0],"categories":[],"categories_nodes":[],"categories_segments":[],"categories_sizes":[],"default_left":[0],"id":11,"left_children":[-1],"loss_changes":[0E0],"parents":[2147483647],"right_children":[-1],"split_conditions":[-0E0],"split_indices":[0],"split_type":[0],"sum_hessian":[3.027E3],"tree_param":{"num_deleted":"0","num_feature":"200","num_nodes":"1","size_leaf_vector":"1"}},{"base_weights":[-0E0],"categories":[],"categories_nodes":[],"categories_segments":[],"categories_sizes":[],"default_left":[0],"id":12,"left_children":[-1],"loss_changes":[0E0],"parents":[2147483647],"right_children":[-1],"split_conditions":[-0E0],"split_indices":[0],"split_type":[0],"sum_hessian":[3.016E3],"tree_param":{"num_deleted":"0","num_feature":"200","num_nodes":"1","size_leaf_vector":"1"}},{"base_weights":[-0E0,-0E0,-4.0141344E-3,-0E0,1.8950649E-2,-3.479768E-2,-0E0,5.1264152E-2,-0E0,-6.852111E-2,-0E0,-0E0,6.853224E-2,-0E0,-1.00812145E-1,-0E0,8.6016275E-2,-1.2717211E-1,-0E0,1.0072955E-1,-0E0,-1.5108573E-1,-0E0,-0E0,1.12602875E-1,-1.7366321E-1,-0E0,1.2419193E-1,-0E0,-1.9766054E-1,-0E0,-0E0,1.3247605E-1,-0E0,-2.1942905E-1,1.451307E-1,-0E0,-0E0,-2.4231248E-1,-0E0,1.8759483E-2,-0E0,-3.266463E-2],"categories":[],"categories_nodes":[],"categories_segments":[],"categories_sizes":[],"default_left":[0,0,0,0,0,0,0,0,0,0,0,0,0,0,0,0,0,0,0,0,0,0,0,0,0,0,0,0,0,0,0,0,0,0,0,0,0,0,0,0,0,0,0],"id":13,"left_children":[1,3,5,-1,7,9,-1,11,-1,13,-1,-1,15,-1,17,-1,19,21,-1,23,-1,25,-1,-1,27,29,-1,31,-1,33,-1,-1,35,-1,37,39,-1,-1,41,-1,-1,-1,-1],"loss_changes":[2.2949163E-2,4.6120518E-1,1.4630888E0,0E0,1.9466844E0,2.792362E0,0E0,1.5947964E0,0E0,3.4987974E0,0E0,0E0,1.8219414E0,0E0,3.7254977E0,0E0,1.9702692E0,3.522871E0,0E0,1.4514279E0,0E0,4.3135166E0,0E0,0E0,1.6464567E0,3.1353436E0,0E0,1.3963537E0,0E0,3.778368E0,0E0,0E0,1.0487366E0,0E0,4.175812E0,1.0728779E0,0E0,0E0,3.7505093E0,0E0,0E0,0E0,0E0],"parents":[2147483647,0,0,1,1,2,2,4,4,5,5,7,7,9,9,12,12,14,14,16,16,17,17,19,19,21,21,24,24,25,25,27,27,29,29,32,32,34,34,35,35,38,38],"right_children":[2,4,6,-1,8,10,-1,12,-1,14,-1,-1,16,-1,18,-1,20,22,-1,24,-1,26,-1,-1,28,30,-1,32,-1,34,-1,-1,36,-1,38,40,-1,-1,42,-1,-1,-1,-1],"split_conditions":[2.0429219E6,-4.703587E3,2.3526306E3,-0E0,1.29E3,4.21875E2,-0E0,-6.39201E1,-0E0,1.4784394E-1,-0E0,-0E0,0E0,-0E0,6.803465E2,-0E0,4.390405E2,2.6810254E3,-0E0,3.5439968E3,-0E0,9.664613E-1,-0E0,-0E0,1E0,1E0,-0E0,-9.270355E2,-0E0,2.8032065E3,-0E0,-0E0,2.018E3,-0E0,6.3612686E3,-3.528751E4,-0E0,-0E0,-1.0360128E4,-0E0,1.8759483E-2,-0E0,-3.266463E-2],"split_indices":[16,83,35,0,197,37,0,100,0,5,0,0,115,0,70,0,70,90,0,96,0,5,0,0,107,154,0,70,0,45,0,0,2,0,94,37,0,0,35,0,0,0,0],"split_type":[0,0,0,0,0,0,0,0,0,0,0,0,0,0,0,0,0,0,0,0,0,0,0,0,0,0,0,0,0,0,0,0,0,0,0,0,0,0,0,0,0,0,0],"sum_hessian":[3.011E3,1.587E3,1.424E3,3.03E2,1.284E3,1.227E3,1.97E2,9.16E2,3.68E2,9.11E2,3.16E2,6.4E1,8.52E2,1.46E2,7.65E2,6.5E1,7.87E2,7.11E2,5.4E1,7.68E2,1.9E1,6.58E2,5.3E1,3.9E1,7.29E2,6.41E2,1.7E1,7.06E2,2.3E1,5.75E2,6.6E1,6E0,7E2,3E1,5.45E2,6.33E2,6.7E1,2.7E1,5.18E2,4E0,6.29E2,2.6E1,4.92E2],"tree_param":{"num_deleted":"0","num_feature":"200","num_nodes":"43","size_leaf_vector":"1"}},{"base_weights":[-0E0,1.5584353E-2,-0E0,-0E0,5.0347954E-2,-1.0470028E-2,-0E0,-0E0,7.804837E-2,-0E0,-4.784045E-2,-0E0,9.37749E-2,-7.241869E-2,-0E0,1.2037864E-1,-0E0,-0E0,-1.0587525E-1,-0E0,1.3012843E-1,-1.3155262E-1,-0E0,-0E0,1.4129727E-1,-1.5312625E-1,-0E0,-0E0,1.5088564E-1,-1.7086875E-1,-0E0,1.6528141E-1,-0E0,-0E0,-1.8536788E-1,-0E0,1.7392363E-1,-2.0478044E-1,-0E0,2.296818E-2,-0E0,-2.7857102E-2,-0E0],"categories":[],"categories_nodes":[],"categories_segments":[],"categories_sizes":[],"default_left":[0,0,0,0,0,0,0,0,0,0,0,0,0,0,0,0,0,0,0,0,0,0,0,0,0,0,0,0,0,0,0,0,0,0,0,0,0,0,0,0,0,0,0],"id":14,"left_children":[1,3,5,-1,7,9,-1,-1,11,-1,13,-1,15,17,-1,19,-1,-1,21,-1,23,25,-1,-1,27,29,-1,-1,31,33,-1,35,-1,-1,37,-1,39,41,-1,-1,-1,-1,-1],"loss_changes":[3.544085E-1,2.1811152E0,1.2236383E-1,0E0,3.1676247E0,1.3955982E0,0E0,0E0,2.230904E0,0E0,1.6194847E0,0E0,2.0247478E0,2.2458313E0,0E0,1.2043705E0,0E0,0E0,2.2874656E0,0E0,1.1799288E0,2.5345998E0,0E0,0E0,1.2084055E0,2.0932198E0,0E0,0E0,1.288681E0,2.07267E0,0E0,1.3807535E0,0E0,0E0,2.245081E0,0E0,1.0899277E0,2.3841858E0,0E0,0E0,0E0,0E0,0E0],"parents":[2147483647,0,0,1,1,2,2,4,4,5,5,8,8,10,10,12,12,13,13,15,15,18,18,20,20,21,21,24,24,25,25,28,28,29,29,31,31,34,34,36,36,37,37],"right_children":[2,4,6,-1,8,10,-1,-1,12,-1,14,-1,16,18,-1,20,-1,-1,22,-1,24,26,-1,-1,28,30,-1,-1,32,34,-1,36,-1,-1,38,-1,40,42,-1,-1,-1,-1,-1],"split_conditions":[-5.489205E0,-1.9334102E3,-3.8183447E3,-0E0,-1.2276067E4,-3.4826477E2,-0E0,-0E0,-2.3513958E6,-0E0,9.2274404E-1,-0E0,1E0,-2.1600659E-1,-0E0,-1.2812743E4,-0E0,-0E0,3.1169451E4,-0E0,9.062129E2,5.042114E1,-0E0,-0E0,2.1738567E1,1.4706125E4,-0E0,-0E0,3.5816113E3,-1.4875489E5,-0E0,2.4813354E0,-0E0,-0E0,1E0,-0E0,1E0,1.3337516E3,-0E0,2.296818E-2,-0E0,-2.7857102E-2,-0E0],"split_indices":[65,84,88,0,55,44,0,0,17,0,7,0,127,39,0,31,0,0,65,0,89,21,0,0,25,36,0,0,33,77,0,19,0,0,119,0,147,95,0,0,0,0,0],"split_type":[0,0,0,0,0,0,0,0,0,0,0,0,0,0,0,0,0,0,0,0,0,0,0,0,0,0,0,0,0,0,0,0,0,0,0,0,0,0,0,0,0,0,0],"sum_hessian":[3.023E3,1.459E3,1.564E3,4.59E2,1E3,1.116E3,4.48E2,6.4E1,9.36E2,4.53E2,6.63E2,3.4E1,9.02E2,5.98E2,6.5E1,6.87E2,2.15E2,1.18E2,4.8E2,2.8E1,6.59E2,4.43E2,3.7E1,4.1E1,6.18E2,4.35E2,8E0,2.3E1,5.95E2,4.21E2,1.4E1,5.43E2,5.2E1,3E0,4.18E2,7E0,5.36E2,3.96E2,2.2E1,5.04E2,3.2E1,3.76E2,2E1],"tree_param":{"num_deleted":"0","num_feature":"200","num_nodes":"43","size_leaf_vector":"1"}},{"base_weights":[-0E0,-0E0,-8.963732E-4,-0E0,1.7262388E-2,-5.9619904E-2,-0E0,-0E0,3.6166392E-2,-0E0,-1.14420064E-1,5.3482115E-2,-0E0,-1.4124437E-1,-0E0,-0E0,7.265072E-2,-0E0,-1.7286038E-1,9.247461E-2,-0E0,-1.9057444E-1,-0E0,1.02902986E-1,-0E0,-0E0,-2.0934539E-1,-0E0,1.1016852E-1,-0E0,-2.2858754E-1,1.18740365E-1,-0E0,-2.4442562E-1,-0E0,-0E0,1.2604848E-1,-2.6050338E-1,-0E0,1.627903E-2,-0E0,-0E0,-3.3656802E-2],"categories":[],"categories_nodes":[],"categories_segments":[],"categories_sizes":[],"default_left":[0,0,0,0,0,0,0,0,0,0,0,0,0,0,0,0,0,0,0,0,0,0,0,0,0,0,0,0,0,0,0,0,0,0,0,0,0,0,0,0,0,0,0],"id":15,"left_children":[1,3,5,-1,7,9,-1,-1,11,-1,13,15,-1,17,-1,-1,19,-1,21,23,-1,25,-1,27,-1,-1,29,-1,31,-1,33,35,-1,37,-1,-1,39,41,-1,-1,-1,-1,-1],"loss_changes":[1.1523897E-3,4.2172727E-1,4.0127664E0,0E0,1.24368E0,6.94718E0,0E0,0E0,1.2499608E0,0E0,4.3054056E0,1.9892764E0,0E0,3.206932E0,0E0,0E0,1.1348004E0,0E0,3.4353867E0,1.0471482E0,0E0,2.7754211E0,0E0,9.268012E-1,0E0,0E0,3.3877354E0,0E0,1.2391062E0,0E0,2.6506844E0,9.356518E-1,0E0,2.2745285E0,0E0,0E0,7.3263264E-1,1.7417183E0,0E0,0E0,0E0,0E0,0E0],"parents":[2147483647,0,0,1,1,2,2,4,4,5,5,8,8,10,10,11,11,13,13,16,16,18,18,19,19,21,21,23,23,26,26,28,28,30,30,31,31,33,33,36,36,37,37],"right_children":[2,4,6,-1,8,10,-1,-1,12,-1,14,16,-1,18,-1,-1,20,-1,22,24,-1,26,-1,28,-1,-1,30,-1,32,-1,34,36,-1,38,-1,-1,40,42,-1,-1,-1,-1,-1],"split_conditions":[9.581492E0,-7.39925E3,9.7030615E2,-0E0,-6.814692E2,-4.155923E1,-0E0,-0E0,3.874937E3,-0E0,9.657866E-1,-3.994509E1,-0E0,-2.3525972E2,-0E0,-0E0,2.017E3,-0E0,4.541352E1,-1.159538E3,-0E0,-3.829852E4,-0E0,-3.008016E4,-0E0,-0E0,-5.798053E4,-0E0,4.3446402E4,-0E0,1.9549816E3,5.314362E2,-0E0,-1.08783E3,-0E0,-0E0,1E0,1.4911125E1,-0E0,1.627903E-2,-0E0,-0E0,-3.3656802E-2],"split_indices":[19,62,35,0,13,100,0,0,86,0,7,100,0,68,0,0,2,0,21,91,0,85,0,37,0,0,81,0,15,0,52,43,0,67,0,0,110,24,0,0,0,0,0],"split_type":[0,0,0,0,0,0,0,0,0,0,0,0,0,0,0,0,0,0,0,0,0,0,0,0,0,0,0,0,0,0,0,0,0,0,0,0,0,0,0,0,0,0,0],"sum_hessian":[2.991E3,1.557E3,1.434E3,1.42E2,1.415E3,1.129E3,3.05E2,1.42E2,1.273E3,2.92E2,8.37E2,1.019E3,2.54E2,7.65E2,7.2E1,9E1,9.29E2,1.47E2,6.18E2,7.06E2,2.23E2,6.03E2,1.5E1,6.69E2,3.7E1,4E1,5.63E2,9E0,6.6E2,2.6E1,5.37E2,6.56E2,4E0,5.14E2,2.3E1,1.5E1,6.41E2,4.86E2,2.8E1,6.33E2,8E0,1.5E1,4.71E2],"tree_param":{"num_deleted":"0","num_feature":"200","num_nodes":"43","size_leaf_vector":"1"}},{"base_weights":[-0E0],"categories":[],"categories_nodes":[],"categories_segments":[],"categories_sizes":[],"default_left":[0],"id":16,"left_children":[-1],"loss_changes":[0E0],"parents":[2147483647],"right_children":[-1],"split_conditions":[-0E0],"split_indices":[0],"split_type":[0],"sum_hessian":[3.027E3],"tree_param":{"num_deleted":"0","num_feature":"200","num_nodes":"1","size_leaf_vector":"1"}},{"base_weights":[-0E0,1.9656487E-2,-0E0,5.6526832E-2,-0E0,-0E0,8.111806E-2,9.8375425E-2,-0E0,-0E0,1.3607898E-1,1.5141128E-1,-0E0,-0E0,1.6718751E-1,1.8106641E-1,-0E0,2.1063133E-1,-0E0,-0E0,2.2381166E-1,-0E0,2.9721549E-2],"categories":[],"categories_nodes":[],"categories_segments":[],"categories_sizes":[],"default_left":[0,0,0,0,0,0,0,0,0,0,0,0,0,0,0,0,0,0,0,0,0,0,0],"id":17,"left_children":[1,3,-1,5,-1,-1,7,9,-1,-1,11,13,-1,-1,15,17,-1,19,-1,-1,21,-1,-1],"loss_changes":[5.1783836E-1,3.0520577E0,0E0,2.9196978E0,0E0,0E0,2.8130174E0,3.2937164E0,0E0,0E0,2.585761E0,2.7136688E0,0E0,0E0,2.7994556E0,2.8735218E0,0E0,2.1402817E0,0E0,0E0,2.071104E0,0E0,0E0],"parents":[2147483647,0,0,1,1,3,3,6,6,7,7,10,10,11,11,14,14,15,15,17,17,20,20],"right_children":[2,4,-1,6,-1,-1,8,10,-1,-1,12,14,-1,-1,16,18,-1,20,-1,-1,22,-1,-1],"split_conditions":[1.1955E3,7.034761E1,-0E0,0E0,-0E0,-0E0,7.004846E3,2.7035944E1,-0E0,-0E0,1.2167E4,-5.252715E3,-0E0,-0E0,1.7688014E3,7.18E2,-0E0,-1.2812743E4,-0E0,-0E0,0E0,-0E0,2.9721549E-2],"split_indices":[198,98,0,137,0,0,42,25,0,0,37,44,0,0,69,0,0,29,0,0,177,0,0],"split_type":[0,0,0,0,0,0,0,0,0,0,0,0,0,0,0,0,0,0,0,0,0,0,0],"sum_hessian":[3.036E3,1.34E3,1.696E3,1.117E3,2.23E2,1.31E2,9.86E2,9.61E2,2.5E1,2.81E2,6.8E2,6.62E2,1.8E1,2.2E1,6.4E2,6.31E2,9E0,5.31E2,1E2,1.8E1,5.13E2,3E1,4.83E2],"tree_param":{"num_deleted":"0","num_feature":"200","num_nodes":"23","size_leaf_vector":"1"}},{"base_weights":[-0E0],"categories":[],"categories_nodes":[],"categories_segments":[],"categories_sizes":[],"default_left":[0],"id":18,"left_children":[-1],"loss_changes":[0E0],"parents":[2147483647],"right_children":[-1],"split_conditions":[-0E0],"split_indices":[0],"split_type":[0],"sum_hessian":[3.037E3],"tree_param":{"num_deleted":"0","num_feature":"200","num_nodes":"1","size_leaf_vector":"1"}},{"base_weights":[-0E0],"categories":[],"categories_nodes":[],"categories_segments":[],"categories_sizes":[],"default_left":[0],"id":19,"left_children":[-1],"loss_changes":[0E0],"parents":[2147483647],"right_children":[-1],"split_conditions":[-0E0],"split_indices":[0],"split_type":[0],"sum_hessian":[3.026E3],"tree_param":{"num_deleted":"0","num_feature":"200","num_nodes":"1","size_leaf_vector":"1"}},{"base_weights":[-0E0],"categories":[],"categories_nodes":[],"categories_segments":[],"categories_sizes":[],"default_left":[0],"id":20,"left_children":[-1],"loss_changes":[0E0],"parents":[2147483647],"right_children":[-1],"split_conditions":[-0E0],"split_indices":[0],"split_type":[0],"sum_hessian":[3.022E3],"tree_param":{"num_deleted":"0","num_feature":"200","num_nodes":"1","size_leaf_vector":"1"}},{"base_weights":[-0E0],"categories":[],"categories_nodes":[],"categories_segments":[],"categories_sizes":[],"default_left":[0],"id":21,"left_children":[-1],"loss_changes":[0E0],"parents":[2147483647],"right_children":[-1],"split_conditions":[-0E0],"split_indices":[0],"split_type":[0],"sum_hessian":[3.033E3],"tree_param":{"num_deleted":"0","num_feature":"200","num_nodes":"1","size_leaf_vector":"1"}},{"base_weights":[-0E0],"categories":[],"categories_nodes":[],"categories_segments":[],"categories_sizes":[],"default_left":[0],"id":22,"left_children":[-1],"loss_changes":[0E0],"parents":[2147483647],"right_children":[-1],"split_conditions":[-0E0],"split_indices":[0],"split_type":[0],"sum_hessian":[3.013E3],"tree_param":{"num_deleted":"0","num_feature":"200","num_nodes":"1","size_leaf_vector":"1"}},{"base_weights":[-0E0],"categories":[],"categories_nodes":[],"categories_segments":[],"categories_sizes":[],"default_left":[0],"id":23,"left_children":[-1],"loss_changes":[0E0],"parents":[2147483647],"right_children":[-1],"split_conditions":[-0E0],"split_indices":[0],"split_type":[0],"sum_hessian":[3.003E3],"tree_param":{"num_deleted":"0","num_feature":"200","num_nodes":"1","size_leaf_vector":"1"}},{"base_weights":[-0E0],"categories":[],"categories_nodes":[],"categories_segments":[],"categories_sizes":[],"default_left":[0],"id":24,"left_children":[-1],"loss_changes":[0E0],"parents":[2147483647],"right_children":[-1],"split_conditions":[-0E0],"split_indices":[0],"split_type":[0],"sum_hessian":[3.046E3],"tree_param":{"num_deleted":"0","num_feature":"200","num_nodes":"1","size_leaf_vector":"1"}},{"base_weights":[-0E0],"categories":[],"categories_nodes":[],"categories_segments":[],"categories_sizes":[],"default_left":[0],"id":25,"left_children":[-1],"loss_changes":[0E0],"parents":[2147483647],"right_children":[-1],"split_conditions":[-0E0],"split_indices":[0],"split_type":[0],"sum_hessian":[3.058E3],"tree_param":{"num_deleted":"0","num_feature":"200","num_nodes":"1","size_leaf_vector":"1"}},{"base_weights":[-0E0,-1.6006519E-3,-0E0,-0E0,-3.5784345E-2,1.1050314E-2,-0E0,-5.6511898E-2,-0E0,3.401456E-2,-0E0,-7.70308E-2,-0E0,-0E0,5.4782074E-2,-0E0,-9.332598E-2,-0E0,7.6714456E-2,-0E0,-1.0811271E-1,-0E0,9.006119E-2,-1.2115504E-1,-0E0,-0E0,1.02318026E-1,-0E0,-1.2996106E-1,-0E0,1.1904945E-1,-0E0,-1.488603E-1,-0E0,1.3137005E-1,-1.6429757E-1,-0E0,1.3993031E-1,-0E0,-0E0,-2.1319976E-2,-0E0,1.8641038E-2],"categories":[],"categories_nodes":[],"categories_segments":[],"categories_sizes":[],"default_left":[0,0,0,0,0,0,0,0,0,0,0,0,0,0,0,0,0,0,0,0,0,0,0,0,0,0,0,0,0,0,0,0,0,0,0,0,0,0,0,0,0,0,0],"id":26,"left_children":[1,3,5,-1,7,9,-1,11,-1,13,-1,15,-1,-1,17,-1,19,-1,21,-1,23,-1,25,27,-1,-1,29,-1,31,-1,33,-1,35,-1,37,39,-1,41,-1,-1,-1,-1,-1],"loss_changes":[4.8327083E-3,1.6960036E0,1.15422666E-1,0E0,2.2599854E0,8.8449407E-1,0E0,2.9830797E0,0E0,1.2816193E0,0E0,2.6127677E0,0E0,0E0,1.7040913E0,0E0,2.3215008E0,0E0,1.2803657E0,0E0,2.6717834E0,0E0,1.3319707E0,2.0399494E0,0E0,0E0,1.2004547E0,0E0,2.2065678E0,0E0,1.5595994E0,0E0,1.914154E0,0E0,1.2005558E0,1.7183094E0,0E0,9.119177E-1,0E0,0E0,0E0,0E0,0E0],"parents":[2147483647,0,0,1,1,2,2,4,4,5,5,7,7,9,9,11,11,14,14,16,16,18,18,20,20,22,22,23,23,26,26,28,28,30,30,32,32,34,34,35,35,37,37],"right_children":[2,4,6,-1,8,10,-1,12,-1,14,-1,16,-1,-1,18,-1,20,-1,22,-1,24,-1,26,28,-1,-1,30,-1,32,-1,34,-1,36,-1,38,40,-1,42,-1,-1,-1,-1,-1],"split_conditions":[2.1775264E2,2.3773733E1,1E0,-0E0,3.5205957E4,9.6825075E-1,-0E0,9.8215E-1,-0E0,-1.6811299E4,-0E0,-1.748437E4,-0E0,-0E0,0E0,-0E0,1.6015929E3,-0E0,1.7341965E1,-0E0,2.3639783E4,-0E0,-7.994142E-3,-6.734977E5,-0E0,-0E0,-9.3160135E-1,-0E0,-1.8608337E3,-0E0,-1.4875489E5,-0E0,1E0,-0E0,1.9635103E5,4.228448E3,-0E0,1.2691695E1,-0E0,-0E0,-2.1319976E-2,-0E0,1.8641038E-2],"split_indices":[61,24,127,0,77,6,0,7,0,80,0,60,0,0,120,0,43,0,24,0,39,0,40,88,0,0,7,0,39,0,78,0,119,0,60,94,0,23,0,0,0,0,0],"split_type":[0,0,0,0,0,0,0,0,0,0,0,0,0,0,0,0,0,0,0,0,0,0,0,0,0,0,0,0,0,0,0,0,0,0,0,0,0,0,0,0,0,0,0],"sum_hessian":[3.034E3,1.886E3,1.148E3,5.58E2,1.328E3,9.45E2,2.03E2,1.24E3,8.8E1,8.64E2,8.1E1,1.17E3,7E1,1.04E2,7.6E2,7.3E1,1.097E3,8.3E1,6.77E2,8.1E1,1.016E3,2.8E1,6.49E2,9.91E2,2.5E1,1.9E1,6.3E2,9E0,9.82E2,8E1,5.5E2,1.34E2,8.48E2,8E0,5.42E2,7.67E2,8.1E1,5.39E2,3E0,9E0,7.58E2,3.2E1,5.07E2],"tree_param":{"num_deleted":"0","num_feature":"200","num_nodes":"43","size_leaf_vector":"1"}},{"base_weights":[-0E0,-0E0,7.086842E-4,1.664555E-2,-0E0,-0E0,3.2709464E-2,4.3785475E-2,-0E0,8.348218E-2,-0E0,-0E0,1.14736825E-1,1.3505416E-1,-0E0,1.470061E-1,-0E0,-0E0,1.6191092E-1,-0E0,1.702582E-1,2.1785999E-2,-0E0],"categories":[],"categories_nodes":[],"categories_segments":[],"categories_sizes":[],"default_left":[0,0,0,0,0,0,0,0,0,0,0,0,0,0,0,0,0,0,0,0,0,0,0],"id":27,"left_children":[1,-1,3,5,-1,-1,7,9,-1,11,-1,-1,13,15,-1,17,-1,-1,19,-1,21,-1,-1],"loss_changes":[1.2396321E-3,0E0,6.0589653E-1,1.486932E0,0E0,0E0,1.2154226E0,2.413953E0,0E0,2.7576714E0,0E0,0E0,2.6494246E0,1.819499E0,0E0,1.186204E0,0E0,0E0,1.0023594E0,0E0,7.7589417E-1,0E0,0E0],"parents":[2147483647,0,0,2,2,3,3,6,6,7,7,9,9,12,12,13,13,15,15,18,18,20,20],"right_children":[2,-1,4,6,-1,-1,8,10,-1,12,-1,-1,14,16,-1,18,-1,-1,20,-1,22,-1,-1],"split_conditions":[-2.527449E3,-0E0,1.4815347E12,0E0,-0E0,-0E0,7.3079895E1,1.202E3,-0E0,-7.458724E-1,-0E0,-0E0,2.7030285E4,7.200142E1,-0E0,0E0,-0E0,-0E0,0E0,-0E0,1.5648997E2,2.1785999E-2,-0E0],"split_indices":[63,0,12,155,0,0,98,197,0,7,0,0,15,25,0,105,0,0,112,0,102,0,0],"split_type":[0,0,0,0,0,0,0,0,0,0,0,0,0,0,0,0,0,0,0,0,0,0,0],"sum_hessian":[3.048E3,5.8E2,2.468E3,2.191E3,2.77E2,2.34E2,1.957E3,1.726E3,2.31E2,8.21E2,9.05E2,1.77E2,6.44E2,6.1E2,3.4E1,5.99E2,1.1E1,6E1,5.39E2,1.7E1,5.22E2,5.15E2,7E0],"tree_param":{"num_deleted":"0","num_feature":"200","num_nodes":"23","size_leaf_vector":"1"}},{"base_weights":[-0E0],"categories":[],"categories_nodes":[],"categories_segments":[],"categories_sizes":[],"default_left":[0],"id":28,"left_children":[-1],"loss_changes":[0E0],"parents":[2147483647],"right_children":[-1],"split_conditions":[-0E0],"split_indices":[0],"split_type":[0],"sum_hessian":[3.019E3],"tree_param":{"num_deleted":"0","num_feature":"200","num_nodes":"1","size_leaf_vector":"1"}},{"base_weights":[-0E0],"categories":[],"categories_nodes":[],"categories_segments":[],"categories_sizes":[],"default_left":[0],"id":29,"left_children":[-1],"loss_changes":[0E0],"parents":[2147483647],"right_children":[-1],"split_conditions":[-0E0],"split_indices":[0],"split_type":[0],"sum_hessian":[3.013E3],"tree_param":{"num_deleted":"0","num_feature":"200","num_nodes":"1","size_leaf_vector":"1"}},{"base_weights":[-0E0,-0E0,-1.0272613E-3,-1.6603127E-2,-0E0,-3.4934606E-2,-0E0,-0E0,-6.302228E-2,-0E0,-9.5359646E-2,-1.1750434E-1,-0E0,-0E0,-1.3441464E-1,-0E0,-1.6429137E-1,-1.8796927E-1,-0E0,-2.0544405E-1,-0E0,-0E0,-2.7950468E-2],"categories":[],"categories_nodes":[],"categories_segments":[],"categories_sizes":[],"default_left":[0,0,0,0,0,0,0,0,0,0,0,0,0,0,0,0,0,0,0,0,0,0,0],"id":30,"left_children":[1,-1,3,5,-1,7,-1,-1,9,-1,11,13,-1,-1,15,-1,17,19,-1,21,-1,-1,-1],"loss_changes":[2.4885694E-3,0E0,6.156158E-1,1.7144233E0,0E0,2.93504E0,0E0,0E0,3.5279875E0,0E0,2.736823E0,3.178729E0,0E0,0E0,3.5956974E0,0E0,3.6077728E0,2.7867794E0,0E0,2.9170303E0,0E0,0E0,0E0],"parents":[2147483647,0,0,2,2,3,3,5,5,8,8,10,10,11,11,14,14,16,16,17,17,19,19],"right_children":[2,-1,4,6,-1,8,-1,-1,10,-1,12,14,-1,-1,16,-1,18,20,-1,22,-1,-1,-1],"split_conditions":[-3.7644516E4,-0E0,9.8215E-1,1.4428923E3,-0E0,-6.829265E2,-0E0,-0E0,1.1592928E4,-0E0,1E0,-6.3296515E2,-0E0,-0E0,2.744E3,-0E0,9.701158E3,5.6396826E3,-0E0,0E0,-0E0,-0E0,-2.7950468E-2],"split_indices":[16,0,7,35,0,50,0,0,94,0,133,98,0,0,43,0,63,39,0,106,0,0,0],"split_type":[0,0,0,0,0,0,0,0,0,0,0,0,0,0,0,0,0,0,0,0,0,0,0],"sum_hessian":[3.018E3,6.6E2,2.358E3,2.242E3,1.16E2,1.911E3,3.31E2,5.85E2,1.326E3,3.59E2,9.67E2,8.35E2,1.32E2,2.1E1,8.14E2,1.36E2,6.78E2,6.2E2,5.8E1,5.85E2,3.5E1,4.2E1,5.43E2],"tree_param":{"num_deleted":"0","num_feature":"200","num_nodes":"23","size_leaf_vector":"1"}},{"base_weights":[-0E0],"categories":[],"categories_nodes":[],"categories_segments":[],"categories_sizes":[],"default_left":[0],"id":31,"left_children":[-1],"loss_changes":[0E0],"parents":[2147483647],"right_children":[-1],"split_conditions":[-0E0],"split_indices":[0],"split_type":[0],"sum_hessian":[3.034E3],"tree_param":{"num_deleted":"0","num_feature":"200","num_nodes":"1","size_leaf_vector":"1"}},{"base_weights":[-0E0],"categories":[],"categories_nodes":[],"categories_segments":[],"categories_sizes":[],"default_left":[0],"id":32,"left_children":[-1],"loss_changes":[0E0],"parents":[2147483647],"right_children":[-1],"split_conditions":[-0E0],"split_indices":[0],"split_type":[0],"sum_hessian":[3.026E3],"tree_param":{"num_deleted":"0","num_feature":"200","num_nodes":"1","size_leaf_vector":"1"}},{"base_weights":[-0E0],"categories":[],"categories_nodes":[],"categories_segments":[],"categories_sizes":[],"default_left":[0],"id":33,"left_children":[-1],"loss_changes":[0E0],"parents":[2147483647],"right_children":[-1],"split_conditions":[-0E0],"split_indices":[0],"split_type":[0],"sum_hessian":[3.026E3],"tree_param":{"num_deleted":"0","num_feature":"200","num_nodes":"1","size_leaf_vector":"1"}},{"base_weights":[-0E0],"categories":[],"categories_nodes":[],"categories_segments":[],"categories_sizes":[],"default_left":[0],"id":34,"left_children":[-1],"loss_changes":[0E0],"parents":[2147483647],"right_children":[-1],"split_conditions":[-0E0],"split_indices":[0],"split_type":[0],"sum_hessian":[3.036E3],"tree_param":{"num_deleted":"0","num_feature":"200","num_nodes":"1","size_leaf_vector":"1"}},{"base_weights":[-0E0,2.0584003E-3,-0E0,3.966134E-2,-0E0,-0E0,-2.1669354E-2,6.905071E-2,-0E0,-0E0,-6.2468E-2,-0E0,1.0164053E-1,-9.346115E-2,-0E0,-0E0,1.22997954E-1,-1.14994355E-1,-0E0,1.360449E-1,-0E0,-0E0,-1.2971826E-1,-0E0,1.4952093E-1,-0E0,-1.3907003E-1,-0E0,1.6036074E-1,-1.4816073E-1,-0E0,1.7092986E-1,-0E0,-0E0,-1.570805E-1,-0E0,1.791897E-1,-0E0,-1.671401E-1,2.3071302E-2,-0E0,-0E0,-2.1659493E-2],"categories":[],"categories_nodes":[],"categories_segments":[],"categories_sizes":[],"default_left":[0,0,0,0,0,0,0,0,0,0,0,0,0,0,0,0,0,0,0,0,0,0,0,0,0,0,0,0,0,0,0,0,0,0,0,0,0,0,0,0,0,0,0],"id":35,"left_children":[1,3,5,7,-1,-1,9,11,-1,-1,13,-1,15,17,-1,-1,19,21,-1,23,-1,-1,25,-1,27,-1,29,-1,31,33,-1,35,-1,-1,37,-1,39,-1,41,-1,-1,-1,-1],"loss_changes":[7.5556063E-3,1.3235977E0,4.992557E-1,2.3127408E0,0E0,0E0,2.5766528E0,1.8752255E0,0E0,0E0,2.7174795E0,0E0,1.0956564E0,2.3291316E0,0E0,0E0,1.2741566E0,2.0617409E0,0E0,1.3496594E0,0E0,0E0,9.9916553E-1,0E0,1.2595186E0,0E0,1.0927753E0,0E0,1.3417797E0,1.2018671E0,0E0,1.0434875E0,0E0,0E0,1.1949224E0,0E0,9.114847E-1,0E0,1.0572205E0,0E0,0E0,0E0,0E0],"parents":[2147483647,0,0,1,1,2,2,3,3,6,6,7,7,10,10,12,12,13,13,16,16,17,17,19,19,22,22,24,24,26,26,28,28,29,29,31,31,34,34,36,36,38,38],"right_children":[2,4,6,8,-1,-1,10,12,-1,-1,14,-1,16,18,-1,-1,20,22,-1,24,-1,-1,26,-1,28,-1,30,-1,32,34,-1,36,-1,-1,38,-1,40,-1,42,-1,-1,-1,-1],"split_conditions":[1.9681932E1,1.2119E3,-6.653961E3,3.003534E3,-0E0,-0E0,5.761329E0,6.0628386E0,-0E0,-0E0,1.520875E3,-0E0,6.762E2,9.750985E-1,-0E0,-0E0,1.1390625E4,-3.371688E5,-0E0,6.784464E2,-0E0,-0E0,-1.5253082E4,-0E0,1.5963859E4,-0E0,3E1,-0E0,2.1682074E4,6.925E2,-0E0,-3.429761E2,-0E0,-0E0,2.576592E3,-0E0,3.2278527E13,-0E0,-3.528751E4,2.3071302E-2,-0E0,-0E0,-2.1659493E-2],"split_indices":[31,199,60,87,0,0,20,19,0,0,35,0,197,7,0,0,38,67,0,89,0,0,38,0,99,0,1,0,42,27,0,74,0,0,92,0,12,0,35,0,0,0,0],"split_type":[0,0,0,0,0,0,0,0,0,0,0,0,0,0,0,0,0,0,0,0,0,0,0,0,0,0,0,0,0,0,0,0,0,0,0,0,0,0,0,0,0,0,0],"sum_hessian":[3.003E3,1.783E3,1.22E3,8.46E2,9.37E2,1.57E2,1.063E3,7.64E2,8.2E1,2.75E2,7.88E2,2.3E2,5.34E2,6.63E2,1.25E2,9.7E1,4.37E2,6.14E2,4.9E1,4.26E2,1.1E1,9E0,6.05E2,1.3E1,4.13E2,2.7E1,5.78E2,5E0,4.08E2,5.59E2,1.9E1,4.05E2,3E0,1.3E1,5.46E2,4E0,4.01E2,2.1E1,5.25E2,3.98E2,3E0,1E1,5.15E2],"tree_param":{"num_deleted":"0","num_feature":"200","num_nodes":"43","size_leaf_vector":"1"}},{"base_weights":[-0E0],"categories":[],"categories_nodes":[],"categories_segments":[],"categories_sizes":[],"default_left":[0],"id":36,"left_children":[-1],"loss_changes":[0E0],"parents":[2147483647],"right_children":[-1],"split_conditions":[-0E0],"split_indices":[0],"split_type":[0],"sum_hessian":[3.032E3],"tree_param":{"num_deleted":"0","num_feature":"200","num_nodes":"1","size_leaf_vector":"1"}},{"base_weights":[-0E0],"categories":[],"categories_nodes":[],"categories_segments":[],"categories_sizes":[],"default_left":[0],"id":37,"left_children":[-1],"loss_changes":[0E0],"parents":[2147483647],"right_children":[-1],"split_conditions":[-0E0],"split_indices":[0],"split_type":[0],"sum_hessian":[3.01E3],"tree_param":{"num_deleted":"0","num_feature":"200","num_nodes":"1","size_leaf_vector":"1"}},{"base_weights":[-0E0,-0E0,1.2918323E-2,3.417957E-2,-0E0,-0E0,5.2229937E-2,-0E0,6.401607E-2,-0E0,8.63206E-2,1.1570739E-1,-0E0,1.2810014E-1,-0E0,1.4409074E-1,-0E0,1.5314591E-1,-0E0,-0E0,1.5970178E-1,2.0534473E-2,-0E0],"categories":[],"categories_nodes":[],"categories_segments":[],"categories_sizes":[],"default_left":[0,0,0,0,0,0,0,0,0,0,0,0,0,0,0,0,0,0,0,0,0,0,0],"id":38,"left_children":[1,-1,3,5,-1,-1,7,-1,9,-1,11,13,-1,15,-1,17,-1,19,-1,-1,21,-1,-1],"loss_changes":[4.0456453E-1,0E0,2.1086054E0,1.7922146E0,0E0,0E0,1.6623669E0,0E0,2.7370882E0,0E0,2.9728765E0,2.3564615E0,0E0,1.7707844E0,0E0,1.8378124E0,0E0,1.4408169E0,0E0,0E0,8.724003E-1,0E0,0E0],"parents":[2147483647,0,0,2,2,3,3,6,6,8,8,10,10,11,11,13,13,15,15,17,17,20,20],"right_children":[2,-1,4,6,-1,-1,8,-1,10,-1,12,14,-1,16,-1,18,-1,20,-1,-1,22,-1,-1],"split_conditions":[-6.1461196E3,-0E0,1.4815347E12,1.5435871E1,-0E0,-0E0,0E0,-0E0,0E0,-0E0,2.5004555E2,1.9683E4,-0E0,9.846099E2,-0E0,1.9137441E4,-0E0,-7.785422E4,-0E0,-0E0,9.527721E-1,2.0534473E-2,-0E0],"split_indices":[84,0,12,23,0,0,158,0,3,0,39,34,0,52,0,14,0,33,0,0,5,0,0],"split_type":[0,0,0,0,0,0,0,0,0,0,0,0,0,0,0,0,0,0,0,0,0,0,0],"sum_hessian":[3.012E3,5.88E2,2.424E3,2.151E3,2.73E2,5.73E2,1.578E3,1.22E2,1.456E3,2.88E2,1.168E3,8.72E2,2.96E2,8.55E2,1.7E1,7.61E2,9.4E1,7.52E2,9E0,4E0,7.48E2,7.27E2,2.1E1],"tree_param":{"num_deleted":"0","num_feature":"200","num_nodes":"23","size_leaf_vector":"1"}},{"base_weights":[-0E0],"categories":[],"categories_nodes":[],"categories_segments":[],"categories_sizes":[],"default_left":[0],"id":39,"left_children":[-1],"loss_changes":[0E0],"parents":[2147483647],"right_children":[-1],"split_conditions":[-0E0],"split_indices":[0],"split_type":[0],"sum_hessian":[3.014E3],"tree_param":{"num_deleted":"0","num_feature":"200","num_nodes":"1","size_leaf_vector":"1"}},{"base_weights":[-0E0],"categories":[],"categories_nodes":[],"categories_segments":[],"categories_sizes":[],"default_left":[0],"id":40,"left_children":[-1],"loss_changes":[0E0],"parents":[2147483647],"right_children":[-1],"split_conditions":[-0E0],"split_indices":[0],"split_type":[0],"sum_hessian":[3.016E3],"tree_param":{"num_deleted":"0","num_feature":"200","num_nodes":"1","size_leaf_vector":"1"}},{"base_weights":[-0E0],"categories":[],"categories_nodes":[],"categories_segments":[],"categories_sizes":[],"default_left":[0],"id":41,"left_children":[-1],"loss_changes":[0E0],"parents":[2147483647],"right_children":[-1],"split_conditions":[-0E0],"split_indices":[0],"split_type":[0],"sum_hessian":[3.017E3],"tree_param":{"num_deleted":"0","num_feature":"200","num_nodes":"1","size_leaf_vector":"1"}},{"base_weights":[-0E0],"categories":[],"categories_nodes":[],"categories_segments":[],"categories_sizes":[],"default_left":[0],"id":42,"left_children":[-1],"loss_changes":[0E0],"parents":[2147483647],"right_children":[-1],"split_conditions":[-0E0],"split_indices":[0],"split_type":[0],"sum_hessian":[3.028E3],"tree_param":{"num_deleted":"0","num_feature":"200","num_nodes":"1","size_leaf_vector":"1"}},{"base_weights":[-0E0],"categories":[],"categories_nodes":[],"categories_segments":[],"categories_sizes":[],"default_left":[0],"id":43,"left_children":[-1],"loss_changes":[0E0],"parents":[2147483647],"right_children":[-1],"split_conditions":[-0E0],"split_indices":[0],"split_type":[0],"sum_hessian":[2.993E3],"tree_param":{"num_deleted":"0","num_feature":"200","num_nodes":"1","size_leaf_vector":"1"}},{"base_weights":[-0E0],"categories":[],"categories_nodes":[],"categories_segments":[],"categories_sizes":[],"default_left":[0],"id":44,"left_children":[-1],"loss_changes":[0E0],"parents":[2147483647],"right_children":[-1],"split_conditions":[-0E0],"split_indices":[0],"split_type":[0],"sum_hessian":[3.025E3],"tree_param":{"num_deleted":"0","num_feature":"200","num_nodes":"1","size_leaf_vector":"1"}},{"base_weights":[-0E0],"categories":[],"categories_nodes":[],"categories_segments":[],"categories_sizes":[],"default_left":[0],"id":45,"left_children":[-1],"loss_changes":[0E0],"parents":[2147483647],"right_children":[-1],"split_conditions":[-0E0],"split_indices":[0],"split_type":[0],"sum_hessian":[2.983E3],"tree_param":{"num_deleted":"0","num_feature":"200","num_nodes":"1","size_leaf_vector":"1"}},{"base_weights":[-0E0],"categories":[],"categories_nodes":[],"categories_segments":[],"categories_sizes":[],"default_left":[0],"id":46,"left_children":[-1],"loss_changes":[0E0],"parents":[2147483647],"right_children":[-1],"split_conditions":[-0E0],"split_indices":[0],"split_type":[0],"sum_hessian":[3.018E3],"tree_param":{"num_deleted":"0","num_feature":"200","num_nodes":"1","size_leaf_vector":"1"}},{"base_weights":[-0E0],"categories":[],"categories_nodes":[],"categories_segments":[],"categories_sizes":[],"default_left":[0],"id":47,"left_children":[-1],"loss_changes":[0E0],"parents":[2147483647],"right_children":[-1],"split_conditions":[-0E0],"split_indices":[0],"split_type":[0],"sum_hessian":[3.014E3],"tree_param":{"num_deleted":"0","num_feature":"200","num_nodes":"1","size_leaf_vector":"1"}},{"base_weights":[-0E0],"categories":[],"categories_nodes":[],"categories_segments":[],"categories_sizes":[],"default_left":[0],"id":48,"left_children":[-1],"loss_changes":[0E0],"parents":[2147483647],"right_children":[-1],"split_conditions":[-0E0],"split_indices":[0],"split_type":[0],"sum_hessian":[2.992E3],"tree_param":{"num_deleted":"0","num_feature":"200","num_nodes":"1","size_leaf_vector":"1"}},{"base_weights":[-0E0],"categories":[],"categories_nodes":[],"categories_segments":[],"categories_sizes":[],"default_left":[0],"id":49,"left_children":[-1],"loss_changes":[0E0],"parents":[2147483647],"right_children":[-1],"split_conditions":[-0E0],"split_indices":[0],"split_type":[0],"sum_hessian":[3.039E3],"tree_param":{"num_deleted":"0","num_feature":"200","num_nodes":"1","size_leaf_vector":"1"}},{"base_weights":[-0E0,-0E0,-6.696507E-4,1.865247E-2,-0E0,-3.580358E-2,-0E0,-0E0,4.1270018E-2,-0E0,-6.1510503E-2,-0E0,6.2963255E-2,-8.478157E-2,-0E0,-0E0,9.515853E-2,-0E0,-1.0415998E-1,1.17984034E-1,-0E0,-0E0,-1.1377196E-1,1.3035198E-1,-0E0,-1.22204825E-1,-0E0,-0E0,1.419531E-1,-0E0,-1.3313057E-1,1.4970036E-1,-0E0,-0E0,-1.4522015E-1,-0E0,1.5663423E-1,-0E0,-1.5435627E-1,2.0188127E-2,-0E0,-0E0,-2.0078128E-2],"categories":[],"categories_nodes":[],"categories_segments":[],"categories_sizes":[],"default_left":[0,0,0,0,0,0,0,0,0,0,0,0,0,0,0,0,0,0,0,0,0,0,0,0,0,0,0,0,0,0,0,0,0,0,0,0,0,0,0,0,0,0,0],"id":50,"left_children":[1,3,5,7,-1,9,-1,-1,11,-1,13,-1,15,17,-1,-1,19,-1,21,23,-1,-1,25,27,-1,29,-1,-1,31,-1,33,35,-1,-1,37,-1,39,-1,41,-1,-1,-1,-1],"loss_changes":[7.763432E-4,3.7931028E-1,1.7275268E0,1.2101965E0,0E0,1.8102146E0,0E0,0E0,1.3569711E0,0E0,2.6376226E0,0E0,2.2714548E0,2.8313775E0,0E0,0E0,2.5807314E0,0E0,1.402606E0,1.3638983E0,0E0,0E0,1.4361305E0,1.2803173E0,0E0,1.3090105E0,0E0,0E0,9.692793E-1,0E0,1.4011211E0,9.0992546E-1,0E0,0E0,1.5079508E0,0E0,8.130989E-1,0E0,1.2305794E0,0E0,0E0,0E0,0E0],"parents":[2147483647,0,0,1,1,2,2,3,3,5,5,8,8,10,10,12,12,13,13,16,16,18,18,19,19,22,22,23,23,25,25,28,28,30,30,31,31,34,34,36,36,38,38],"right_children":[2,4,6,8,-1,10,-1,-1,12,-1,14,-1,16,18,-1,-1,20,-1,22,24,-1,-1,26,28,-1,30,-1,-1,32,-1,34,36,-1,-1,38,-1,40,-1,42,-1,-1,-1,-1],"split_conditions":[-2.7441435E0,1.4815347E12,1E0,-1.125226E4,-0E0,2.3773733E1,-0E0,-0E0,4.496328E1,-0E0,1.9664135E4,-0E0,0E0,-1.0172687E3,-0E0,-0E0,2.1145222E9,-0E0,2.9859233E3,9.912686E-1,-0E0,-0E0,-3.3904904E2,-4.960348E4,-0E0,-3.3025023E4,-0E0,-0E0,1.1652149E2,-0E0,0E0,-3.528751E4,-0E0,-0E0,-3.528751E4,-0E0,1.991851E2,-0E0,1.0077747E4,2.0188127E-2,-0E0,-0E0,-2.0078128E-2],"split_indices":[13,12,135,78,0,24,0,0,26,0,86,0,137,97,0,0,16,0,47,6,0,0,88,83,0,81,0,0,73,0,123,33,0,0,35,0,100,0,53,0,0,0,0],"split_type":[0,0,0,0,0,0,0,0,0,0,0,0,0,0,0,0,0,0,0,0,0,0,0,0,0,0,0,0,0,0,0,0,0,0,0,0,0,0,0,0,0,0,0],"sum_hessian":[3.008E3,1.277E3,1.731E3,1.09E3,1.87E2,1.348E3,3.83E2,1.57E2,9.33E2,4.13E2,9.35E2,1.9E2,7.43E2,8.59E2,7.6E1,1.67E2,5.76E2,2.9E1,8.3E2,5.6E2,1.6E1,2.6E1,8.04E2,5.39E2,2.1E1,7.93E2,1.1E1,2.1E1,5.18E2,5.1E1,7.42E2,5.09E2,9E0,5.2E1,6.9E2,7E0,5.02E2,1.6E1,6.74E2,4.95E2,7E0,1.5E1,6.59E2],"tree_param":{"num_deleted":"0","num_feature":"200","num_nodes":"43","size_leaf_vector":"1"}},{"base_weights":[-0E0],"categories":[],"categories_nodes":[],"categories_segments":[],"categories_sizes":[],"default_left":[0],"id":51,"left_children":[-1],"loss_changes":[0E0],"parents":[2147483647],"right_children":[-1],"split_conditions":[-0E0],"split_indices":[0],"split_type":[0],"sum_hessian":[3.026E3],"tree_param":{"num_deleted":"0","num_feature":"200","num_nodes":"1","size_leaf_vector":"1"}},{"base_weights":[-0E0],"categories":[],"categories_nodes":[],"categories_segments":[],"categories_sizes":[],"default_left":[0],"id":52,"left_children":[-1],"loss_changes":[0E0],"parents":[2147483647],"right_children":[-1],"split_conditions":[-0E0],"split_indices":[0],"split_type":[0],"sum_hessian":[3.024E3],"tree_param":{"num_deleted":"0","num_feature":"200","num_nodes":"1","size_leaf_vector":"1"}},{"base_weights":[-0E0],"categories":[],"categories_nodes":[],"categories_segments":[],"categories_sizes":[],"default_left":[0],"id":53,"left_children":[-1],"loss_changes":[0E0],"parents":[2147483647],"right_children":[-1],"split_conditions":[-0E0],"split_indices":[0],"split_type":[0],"sum_hessian":[3.019E3],"tree_param":{"num_deleted":"0","num_feature":"200","num_nodes":"1","size_leaf_vector":"1"}},{"base_weights":[-0E0],"categories":[],"categories_nodes":[],"categories_segments":[],"categories_sizes":[],"default_left":[0],"id":54,"left_children":[-1],"loss_changes":[0E0],"parents":[2147483647],"right_children":[-1],"split_conditions":[-0E0],"split_indices":[0],"split_type":[0],"sum_hessian":[3.005E3],"tree_param":{"num_deleted":"0","num_feature":"200","num_nodes":"1","size_leaf_vector":"1"}},{"base_weights":[-0E0],"categories":[],"categories_nodes":[],"categories_segments":[],"categories_sizes":[],"default_left":[0],"id":55,"left_children":[-1],"loss_changes":[0E0],"parents":[2147483647],"right_children":[-1],"split_conditions":[-0E0],"split_indices":[0],"split_type":[0],"sum_hessian":[3.027E3],"tree_param":{"num_deleted":"0","num_feature":"200","num_nodes":"1","size_leaf_vector":"1"}},{"base_weights":[-0E0],"categories":[],"categories_nodes":[],"categories_segments":[],"categories_sizes":[],"default_left":[0],"id":56,"left_children":[-1],"loss_changes":[0E0],"parents":[2147483647],"right_children":[-1],"split_conditions":[-0E0],"split_indices":[0],"split_type":[0],"sum_hessian":[3.002E3],"tree_param":{"num_deleted":"0","num_feature":"200","num_nodes":"1","size_leaf_vector":"1"}},{"base_weights":[-0E0],"categories":[],"categories_nodes":[],"categories_segments":[],"categories_sizes":[],"default_left":[0],"id":57,"left_children":[-1],"loss_changes":[0E0],"parents":[2147483647],"right_children":[-1],"split_conditions":[-0E0],"split_indices":[0],"split_type":[0],"sum_hessian":[3.005E3],"tree_param":{"num_deleted":"0","num_feature":"200","num_nodes":"1","size_leaf_vector":"1"}},{"base_weights":[-0E0],"categories":[],"categories_nodes":[],"categories_segments":[],"categories_sizes":[],"default_left":[0],"id":58,"left_children":[-1],"loss_changes":[0E0],"parents":[2147483647],"right_children":[-1],"split_conditions":[-0E0],"split_indices":[0],"split_type":[0],"sum_hessian":[3.024E3],"tree_param":{"num_deleted":"0","num_feature":"200","num_nodes":"1","size_leaf_vector":"1"}},{"base_weights":[-0E0],"categories":[],"categories_nodes":[],"categories_segments":[],"categories_sizes":[],"default_left":[0],"id":59,"left_children":[-1],"loss_changes":[0E0],"parents":[2147483647],"right_children":[-1],"split_conditions":[-0E0],"split_indices":[0],"split_type":[0],"sum_hessian":[3.014E3],"tree_param":{"num_deleted":"0","num_feature":"200","num_nodes":"1","size_leaf_vector":"1"}},{"base_weights":[-0E0],"categories":[],"categories_nodes":[],"categories_segments":[],"categories_sizes":[],"default_left":[0],"id":60,"left_children":[-1],"loss_changes":[0E0],"parents":[2147483647],"right_children":[-1],"split_conditions":[-0E0],"split_indices":[0],"split_type":[0],"sum_hessian":[3.027E3],"tree_param":{"num_deleted":"0","num_feature":"200","num_nodes":"1","size_leaf_vector":"1"}},{"base_weights":[-0E0],"categories":[],"categories_nodes":[],"categories_segments":[],"categories_sizes":[],"default_left":[0],"id":61,"left_children":[-1],"loss_changes":[0E0],"parents":[2147483647],"right_children":[-1],"split_conditions":[-0E0],"split_indices":[0],"split_type":[0],"sum_hessian":[3.014E3],"tree_param":{"num_deleted":"0","num_feature":"200","num_nodes":"1","size_leaf_vector":"1"}},{"base_weights":[-0E0],"categories":[],"categories_nodes":[],"categories_segments":[],"categories_sizes":[],"default_left":[0],"id":62,"left_children":[-1],"loss_changes":[0E0],"parents":[2147483647],"right_children":[-1],"split_conditions":[-0E0],"split_indices":[0],"split_type":[0],"sum_hessian":[3.019E3],"tree_param":{"num_deleted":"0","num_feature":"200","num_nodes":"1","size_leaf_vector":"1"}},{"base_weights":[-0E0],"categories":[],"categories_nodes":[],"categories_segments":[],"categories_sizes":[],"default_left":[0],"id":63,"left_children":[-1],"loss_changes":[0E0],"parents":[2147483647],"right_children":[-1],"split_conditions":[-0E0],"split_indices":[0],"split_type":[0],"sum_hessian":[3.019E3],"tree_param":{"num_deleted":"0","num_feature":"200","num_nodes":"1","size_leaf_vector":"1"}},{"base_weights":[-0E0],"categories":[],"categories_nodes":[],"categories_segments":[],"categories_sizes":[],"default_left":[0],"id":64,"left_children":[-1],"loss_changes":[0E0],"parents":[2147483647],"right_children":[-1],"split_conditions":[-0E0],"split_indices":[0],"split_type":[0],"sum_hessian":[3.033E3],"tree_param":{"num_deleted":"0","num_feature":"200","num_nodes":"1","size_leaf_vector":"1"}},{"base_weights":[-0E0],"categories":[],"categories_nodes":[],"categories_segments":[],"categories_sizes":[],"default_left":[0],"id":65,"left_children":[-1],"loss_changes":[0E0],"parents":[2147483647],"right_children":[-1],"split_conditions":[-0E0],"split_indices":[0],"split_type":[0],"sum_hessian":[3.009E3],"tree_param":{"num_deleted":"0","num_feature":"200","num_nodes":"1","size_leaf_vector":"1"}},{"base_weights":[-0E0],"categories":[],"categories_nodes":[],"categories_segments":[],"categories_sizes":[],"default_left":[0],"id":66,"left_children":[-1],"loss_changes":[0E0],"parents":[2147483647],"right_children":[-1],"split_conditions":[-0E0],"split_indices":[0],"split_type":[0],"sum_hessian":[3.04E3],"tree_param":{"num_deleted":"0","num_feature":"200","num_nodes":"1","size_leaf_vector":"1"}},{"base_weights":[-0E0],"categories":[],"categories_nodes":[],"categories_segments":[],"categories_sizes":[],"default_left":[0],"id":67,"left_children":[-1],"loss_changes":[0E0],"parents":[2147483647],"right_children":[-1],"split_conditions":[-0E0],"split_indices":[0],"split_type":[0],"sum_hessian":[3.028E3],"tree_param":{"num_deleted":"0","num_feature":"200","num_nodes":"1","size_leaf_vector":"1"}},{"base_weights":[-0E0],"categories":[],"categories_nodes":[],"categories_segments":[],"categories_sizes":[],"default_left":[0],"id":68,"left_children":[-1],"loss_changes":[0E0],"parents":[2147483647],"right_children":[-1],"split_conditions":[-0E0],"split_indices":[0],"split_type":[0],"sum_hessian":[2.999E3],"tree_param":{"num_deleted":"0","num_feature":"200","num_nodes":"1","size_leaf_vector":"1"}},{"base_weights":[-0E0],"categories":[],"categories_nodes":[],"categories_segments":[],"categories_sizes":[],"default_left":[0],"id":69,"left_children":[-1],"loss_changes":[0E0],"parents":[2147483647],"right_children":[-1],"split_conditions":[-0E0],"split_indices":[0],"split_type":[0],"sum_hessian":[3.01E3],"tree_param":{"num_deleted":"0","num_feature":"200","num_nodes":"1","size_leaf_vector":"1"}},{"base_weights":[-0E0],"categories":[],"categories_nodes":[],"categories_segments":[],"categories_sizes":[],"default_left":[0],"id":70,"left_children":[-1],"loss_changes":[0E0],"parents":[2147483647],"right_children":[-1],"split_conditions":[-0E0],"split_indices":[0],"split_type":[0],"sum_hessian":[3.025E3],"tree_param":{"num_deleted":"0","num_feature":"200","num_nodes":"1","size_leaf_vector":"1"}},{"base_weights":[-0E0],"categories":[],"categories_nodes":[],"categories_segments":[],"categories_sizes":[],"default_left":[0],"id":71,"left_children":[-1],"loss_changes":[0E0],"parents":[2147483647],"right_children":[-1],"split_conditions":[-0E0],"split_indices":[0],"split_type":[0],"sum_hessian":[3.026E3],"tree_param":{"num_deleted":"0","num_feature":"200","num_nodes":"1","size_leaf_vector":"1"}},{"base_weights":[-0E0],"categories":[],"categories_nodes":[],"categories_segments":[],"categories_sizes":[],"default_left":[0],"id":72,"left_children":[-1],"loss_changes":[0E0],"parents":[2147483647],"right_children":[-1],"split_conditions":[-0E0],"split_indices":[0],"split_type":[0],"sum_hessian":[2.999E3],"tree_param":{"num_deleted":"0","num_feature":"200","num_nodes":"1","size_leaf_vector":"1"}},{"base_weights":[-0E0],"categories":[],"categories_nodes":[],"categories_segments":[],"categories_sizes":[],"default_left":[0],"id":73,"left_children":[-1],"loss_changes":[0E0],"parents":[2147483647],"right_children":[-1],"split_conditions":[-0E0],"split_indices":[0],"split_type":[0],"sum_hessian":[3.042E3],"tree_param":{"num_deleted":"0","num_feature":"200","num_nodes":"1","size_leaf_vector":"1"}},{"base_weights":[-0E0],"categories":[],"categories_nodes":[],"categories_segments":[],"categories_sizes":[],"default_left":[0],"id":74,"left_children":[-1],"loss_changes":[0E0],"parents":[2147483647],"right_children":[-1],"split_conditions":[-0E0],"split_indices":[0],"split_type":[0],"sum_hessian":[3.019E3],"tree_param":{"num_deleted":"0","num_feature":"200","num_nodes":"1","size_leaf_vector":"1"}},{"base_weights":[-0E0],"categories":[],"categories_nodes":[],"categories_segments":[],"categories_sizes":[],"default_left":[0],"id":75,"left_children":[-1],"loss_changes":[0E0],"parents":[2147483647],"right_children":[-1],"split_conditions":[-0E0],"split_indices":[0],"split_type":[0],"sum_hessian":[3.014E3],"tree_param":{"num_deleted":"0","num_feature":"200","num_nodes":"1","size_leaf_vector":"1"}},{"base_weights":[-0E0],"categories":[],"categories_nodes":[],"categories_segments":[],"categories_sizes":[],"default_left":[0],"id":76,"left_children":[-1],"loss_changes":[0E0],"parents":[2147483647],"right_children":[-1],"split_conditions":[-0E0],"split_indices":[0],"split_type":[0],"sum_hessian":[3.03E3],"tree_param":{"num_deleted":"0","num_feature":"200","num_nodes":"1","size_leaf_vector":"1"}},{"base_weights":[-0E0],"categories":[],"categories_nodes":[],"categories_segments":[],"categories_sizes":[],"default_left":[0],"id":77,"left_children":[-1],"loss_changes":[0E0],"parents":[2147483647],"right_children":[-1],"split_conditions":[-0E0],"split_indices":[0],"split_type":[0],"sum_hessian":[3.008E3],"tree_param":{"num_deleted":"0","num_feature":"200","num_nodes":"1","size_leaf_vector":"1"}},{"base_weights":[-0E0],"categories":[],"categories_nodes":[],"categories_segments":[],"categories_sizes":[],"default_left":[0],"id":78,"left_children":[-1],"loss_changes":[0E0],"parents":[2147483647],"right_children":[-1],"split_conditions":[-0E0],"split_indices":[0],"split_type":[0],"sum_hessian":[3.022E3],"tree_param":{"num_deleted":"0","num_feature":"200","num_nodes":"1","size_leaf_vector":"1"}},{"base_weights":[-0E0],"categories":[],"categories_nodes":[],"categories_segments":[],"categories_sizes":[],"default_left":[0],"id":79,"left_children":[-1],"loss_changes":[0E0],"parents":[2147483647],"right_children":[-1],"split_conditions":[-0E0],"split_indices":[0],"split_type":[0],"sum_hessian":[3.026E3],"tree_param":{"num_deleted":"0","num_feature":"200","num_nodes":"1","size_leaf_vector":"1"}},{"base_weights":[-0E0],"categories":[],"categories_nodes":[],"categories_segments":[],"categories_sizes":[],"default_left":[0],"id":80,"left_children":[-1],"loss_changes":[0E0],"parents":[2147483647],"right_children":[-1],"split_conditions":[-0E0],"split_indices":[0],"split_type":[0],"sum_hessian":[3.018E3],"tree_param":{"num_deleted":"0","num_feature":"200","num_nodes":"1","size_leaf_vector":"1"}},{"base_weights":[-0E0],"categories":[],"categories_nodes":[],"categories_segments":[],"categories_sizes":[],"default_left":[0],"id":81,"left_children":[-1],"loss_changes":[0E0],"parents":[2147483647],"right_children":[-1],"split_conditions":[-0E0],"split_indices":[0],"split_type":[0],"sum_hessian":[3.026E3],"tree_param":{"num_deleted":"0","num_feature":"200","num_nodes":"1","size_leaf_vector":"1"}},{"base_weights":[-0E0,-0E0,3.58496E-3,-0E0,2.3381298E-2,5.013483E-2,-0E0,6.689395E-2,-0E0,-0E0,8.7751284E-2,1.2407955E-1,-0E0,-0E0,1.4207014E-1,1.5613337E-1,-0E0,1.650715E-1,-0E0,-0E0,1.8647762E-1,-0E0,2.4281055E-2],"categories":[],"categories_nodes":[],"categories_segments":[],"categories_sizes":[],"default_left":[0,0,0,0,0,0,0,0,0,0,0,0,0,0,0,0,0,0,0,0,0,0,0],"id":82,"left_children":[1,-1,3,-1,5,7,-1,9,-1,-1,11,13,-1,-1,15,17,-1,19,-1,-1,21,-1,-1],"loss_changes":[3.1348955E-2,0E0,9.0416014E-1,0E0,2.2522125E0,1.7535298E0,0E0,2.745481E0,0E0,0E0,3.2479267E0,2.4319324E0,0E0,0E0,2.1434202E0,1.4451447E0,0E0,1.6224346E0,0E0,0E0,1.6129227E0,0E0,0E0],"parents":[2147483647,0,0,2,2,4,4,5,5,7,7,10,10,11,11,14,14,15,15,17,17,20,20],"right_children":[2,-1,4,-1,6,8,-1,10,-1,-1,12,14,-1,-1,16,18,-1,20,-1,-1,22,-1,-1],"split_conditions":[-2.527449E3,-0E0,5.314362E2,-0E0,7.0672655E-1,1E0,-0E0,-9.3556714E2,-0E0,-0E0,2.015E3,0E0,-0E0,-0E0,-2.484999E3,3.1E1,-0E0,1.56640005E1,-0E0,-0E0,-3.3664941E3,-0E0,2.4281055E-2],"split_indices":[63,0,40,0,6,180,0,93,0,0,2,114,0,0,91,1,0,23,0,0,95,0,0],"split_type":[0,0,0,0,0,0,0,0,0,0,0,0,0,0,0,0,0,0,0,0,0,0,0],"sum_hessian":[3.021E3,5.82E2,2.439E3,7.28E2,1.711E3,1.268E3,4.43E2,1.104E3,1.64E2,1.06E2,9.98E2,7.1E2,2.88E2,4.8E1,6.62E2,6.36E2,2.6E1,6.22E2,1.4E1,8.8E1,5.34E2,8E0,5.26E2],"tree_param":{"num_deleted":"0","num_feature":"200","num_nodes":"23","size_leaf_vector":"1"}},{"base_weights":[-0E0,-3.969763E-3,-0E0,-0E0,-3.4130357E-2,-6.0097862E-2,-0E0,-7.982127E-2,-0E0,-9.857373E-2,-0E0,-0E0,-1.5101199E-1,-0E0,-1.7177574E-1,-0E0,-2.0031063E-1,-2.1835862E-1,-0E0,-2.3539917E-1,-0E0,-0E0,-3.1927805E-2],"categories":[],"categories_nodes":[],"categories_segments":[],"categories_sizes":[],"default_left":[0,0,0,0,0,0,0,0,0,0,0,0,0,0,0,0,0,0,0,0,0,0,0],"id":83,"left_children":[1,3,-1,-1,5,7,-1,9,-1,11,-1,-1,13,-1,15,-1,17,19,-1,21,-1,-1,-1],"loss_changes":[3.862913E-2,1.8009974E0,0E0,0E0,2.6145298E0,2.6897488E0,0E0,2.6140695E0,0E0,3.6109953E0,0E0,0E0,3.5160475E0,0E0,3.427515E0,0E0,3.3007278E0,2.8319035E0,0E0,3.091446E0,0E0,0E0,0E0],"parents":[2147483647,0,0,1,1,4,4,5,5,7,7,9,9,12,12,14,14,16,16,17,17,19,19],"right_children":[2,4,-1,-1,6,8,-1,10,-1,12,-1,-1,14,-1,16,-1,18,20,-1,22,-1,-1,-1],"split_conditions":[9.7030615E2,7.880628E3,-0E0,-0E0,7.4504653E3,2.810615E3,-0E0,9.032611E3,-0E0,3.1033249E1,-0E0,-0E0,6.37E2,-0E0,-1.1390617E4,-0E0,1.8242387E4,1.9683E4,-0E0,-7.880628E3,-0E0,-0E0,-3.1927805E-2],"split_indices":[35,45,0,0,79,90,0,64,0,24,0,0,197,0,64,0,61,30,0,32,0,0,0],"split_type":[0,0,0,0,0,0,0,0,0,0,0,0,0,0,0,0,0,0,0,0,0,0,0],"sum_hessian":[2.992E3,2.451E3,5.41E2,8.72E2,1.579E3,1.233E3,3.46E2,1.121E3,1.12E2,1.004E3,1.17E2,4.18E2,5.86E2,1.4E1,5.72E2,6.6E1,5.06E2,4.95E2,1.1E1,4.77E2,1.8E1,3.2E1,4.45E2],"tree_param":{"num_deleted":"0","num_feature":"200","num_nodes":"23","size_leaf_vector":"1"}},{"base_weights":[-0E0],"categories":[],"categories_nodes":[],"categories_segments":[],"categories_sizes":[],"default_left":[0],"id":84,"left_children":[-1],"loss_changes":[0E0],"parents":[2147483647],"right_children":[-1],"split_conditions":[-0E0],"split_indices":[0],"split_type":[0],"sum_hessian":[3.033E3],"tree_param":{"num_deleted":"0","num_feature":"200","num_nodes":"1","size_leaf_vector":"1"}},{"base_weights":[-0E0],"categories":[],"categories_nodes":[],"categories_segments":[],"categories_sizes":[],"default_left":[0],"id":85,"left_children":[-1],"loss_changes":[0E0],"parents":[2147483647],"right_children":[-1],"split_conditions":[-0E0],"split_indices":[0],"split_type":[0],"sum_hessian":[3.006E3],"tree_param":{"num_deleted":"0","num_feature":"200","num_nodes":"1","size_leaf_vector":"1"}}]},"name":"gbtree"},"learner_model_param":{"base_score":"2.6271285E-2","boost_from_average":"1","num_class":"0","num_feature":"200","num_target":"1"},"objective":{"name":"reg:squarederror","reg_loss_param":{"scale_pos_weight":"1"}}},"version":[3,0,4]}