{"learner":{"attributes":{"best_iteration":"14","best_score":"1.0372559627813676"},"feature_names":["Volume","day_of_month","year","day_sin","day_cos","day_of_year_norm","dayy_sin","dayy_cos","is_holiday","Log_Return","Log_Return_change1","Log_Return23","Log_Return123","Log_High_Return","Log_High_Return_change1","Log_High_Return_change3","Log_High_Return13","Log_High_Return23","Log_High_Return123","Close_Roll_Std_5","High_Roll_Std_5","High_Roll_Std_10","High_Roll_Std_20","High_Roll_Std_30","High_Roll_Std_60","High_Roll_Std_90","High_Roll_Std_250","High_Roll_Max_250","Log_Return_Lag_1","Log_Return_Lag_2","Log_Return_Lag_3","Log_Return_Lag_5","Log_Return_Lag_10","Log_Return_Lag_20","Log_Return_Lag_30","Log_Return_Lag_60","Log_Return_Lag_90","Log_Return_Lag_120","Log_Return_Lag_180","Log_Return_Lag_250","Log_Return_Roll_Max_5","Log_Return_Roll_Max_10","Log_Return_Roll_Mean_20","Log_Return_Roll_Max_20","Log_Return_Roll_Mean_30","Log_Return_Roll_Max_30","Log_Return_Roll_Mean_60","Log_Return_Roll_Max_60","Log_Return_Roll_Mean_90","Log_Return_Roll_Max_90","Log_Return_Roll_Mean_180","Log_Return_Roll_Max_180","Log_Return_Roll_Mean_250","Log_Return_Roll_Max_250","Log_Return_change1_Lag_1","Log_Return_change1_Lag_2","Log_Return_change1_Lag_3","Log_Return_change1_Lag_5","Log_Return_change1_Lag_10","Log_Return_change1_Lag_20","Log_Return_change1_Lag_30","Log_Return_change1_Lag_60","Log_Return_change1_Lag_90","Log_Return_change1_Lag_120","Log_Return_change1_Lag_180","Log_Return_change1_Lag_250","Log_Return_change1_Roll_Mean_5","Log_Return_change1_Roll_Min_5","Log_Return_change1_Roll_Mean_10","Log_Return_change1_Roll_Mean_20","Log_Return_change1_Roll_Mean_30","Log_Return_change1_Roll_Mean_60","Log_Return_change1_Roll_Mean_90","Log_Return_change1_Roll_Mean_180","Log_Return_change1_Roll_Mean_250","Log_Return_change2_Lag_1","Log_Return_change2_Lag_2","Log_Return_change2_Lag_3","Log_Return_change2_Lag_5","Log_Return_change2_Lag_10","Log_Return_change2_Lag_20","Log_Return_change2_Lag_30","Log_Return_change2_Lag_60","Log_Return_change2_Lag_90","Log_Return_change2_Lag_120","Log_Return_change2_Lag_180","Log_Return_change2_Lag_250","Log_Return_change2_Roll_Mean_5","Log_Return_change2_Roll_Min_5","Log_Return_change2_Roll_Max_5","Log_Return_change2_Roll_Mean_10","Log_Return_change2_Roll_Min_10","Log_Return_change2_Roll_Max_10","Log_Return_change2_Roll_Mean_20","Log_Return_change2_Roll_Max_20","Log_Return_change2_Roll_Mean_30","Log_Return_change2_Roll_Max_30","Log_Return_change2_Roll_Mean_60","Log_Return_change2_Roll_Mean_90","Log_Return_change2_Roll_Max_90","Log_Return_change2_Roll_Mean_180","Log_Return_change2_Roll_Max_180","Log_Return_change2_Roll_Mean_250","Log_Return_change2_Roll_Max_250","rsi_5_long","rsi_5_short","rsi_5_combined","rsi_7_long","rsi_7_short","rsi_7_combined","rsi_10_long","rsi_10_short","rsi_10_combined","macd_5_10_5_long","macd_5_10_5_short","macd_5_10_5_combined","stoch_3_2_2_long","stoch_3_2_2_short","stoch_3_2_2_combined","cci_6_long","cci_6_short","cci_6_combined","cci_10_long","cci_10_short","cci_10_combined","obv_combined","ad_combined","atr_10_long","atr_10_short","atr_10_combined","sma_2_long","sma_2_short","sma_2_combined","sma_3_long","sma_3_short","sma_3_combined","sma_5_long","sma_5_short","sma_5_combined","sma_8_long","sma_8_short","sma_8_combined","sma_13_long","sma_13_short","sma_13_combined","sma_21_long","sma_21_short","sma_21_combined","ema_3_long","ema_3_short","ema_3_combined","ema_5_long","ema_5_short","ema_5_combined","ema_8_long","ema_8_short","ema_8_combined","ema_13_long","ema_13_short","ema_13_combined","ema_21_long","ema_21_short","ema_21_combined","bb_3_1.5_1.5_long","bb_3_1.5_1.5_short","bb_3_1.5_1.5_combined","bb_3_2.0_2.0_long","bb_3_2.0_2.0_short","bb_3_2.0_2.0_combined","bb_5_1.5_1.5_long","bb_5_1.5_1.5_short","bb_5_1.5_1.5_combined","bb_5_2.0_2.0_long","bb_5_2.0_2.0_short","bb_5_2.0_2.0_combined","bb_8_2.0_2.0_long","bb_8_2.0_2.0_short","bb_8_2.0_2.0_combined","ht_dcperiod_combined","ht_phasor_short","ht_phasor_combined","typprice_long","typprice_short","typprice_combined","linearreg_3_combined","linearreg_5_combined","linearreg_8_combined","stddev_2_2_long","stddev_2_2_short","stddev_2_2_combined","stddev_3_2_long","stddev_3_2_short","stddev_3_2_combined","stddev_5_2_long","stddev_5_2_short","stddev_5_2_combined","Open","High","Low","Close"],"feature_types":["float","int","int","float","float","float","float","float","int","float","float","float","float","float","float","float","float","float","float","float","float","float","float","float","float","float","float","float","float","float","float","float","float","float","float","float","float","float","float","float","float","float","float","float","float","float","float","float","float","float","float","float","float","float","float","float","float","float","float","float","float","float","float","float","float","float","float","float","float","float","float","float","float","float","float","float","float","float","float","float","float","float","float","float","float","float","float","float","float","float","float","float","float","float","float","float","float","float","float","float","float","float","float","float","int","int","int","int","int","int","int","int","int","int","int","int","int","int","int","int","int","int","int","int","int","int","int","int","int","int","int","int","int","int","int","int","int","int","int","int","int","int","int","int","int","int","int","int","int","int","int","int","int","int","int","int","int","int","int","int","int","int","int","int","int","int","int","int","int","int","int","int","int","int","int","int","int","int","int","int","int","int","int","int","int","int","int","int","int","int","int","int","int","int","int","int","float","float","float","float"],"gradient_booster":{"model":{"gbtree_model_param":{"num_parallel_tree":"1","num_trees":"65"},"iteration_indptr":[0,1,2,3,4,5,6,7,8,9,10,11,12,13,14,15,16,17,18,19,20,21,22,23,24,25,26,27,28,29,30,31,32,33,34,35,36,37,38,39,40,41,42,43,44,45,46,47,48,49,50,51,52,53,54,55,56,57,58,59,60,61,62,63,64,65],"tree_info":[0,0,0,0,0,0,0,0,0,0,0,0,0,0,0,0,0,0,0,0,0,0,0,0,0,0,0,0,0,0,0,0,0,0,0,0,0,0,0,0,0,0,0,0,0,0,0,0,0,0,0,0,0,0,0,0,0,0,0,0,0,0,0,0,0],"trees":[{"base_weights":[-0E0,-3.5456307E-2,6.6654407E-3,-7.999697E-2,-0E0,3.664797E-2,-0E0,-0E0,-1.2256434E-1,8.380893E-2,-0E0,-1.4916117E-3,-0E0,-1.5254268E-1,-0E0,-0E0,1.096453E-1,-6.003313E-2,-0E0,-0E0,-1.8138824E-1,-0E0,1.3406448E-1,-1.016987E-1,-0E0,-0E0,-2.072696E-1,1.5398534E-1,-0E0,-0E0,-1.1968339E-1,-2.2630924E-1,-0E0,-0E0,1.7554674E-1,-1.3355635E-1,-0E0,-2.4259967E-1,-0E0,-0E0,1.8853793E-1,-0E0,-1.4687847E-1,-2.6074442E-1,-0E0,-0E0,2.0307669E-1,-0E0,-1.5779185E-1,-2.7643436E-1,-0E0,2.1166024E-1,-0E0,-1.6928032E-1,-0E0,-0E0,-2.9292235E-1,-0E0,2.2133312E-1,-0E0,-1.7732096E-1,-3.0701366E-1,-0E0,2.3071586E-1,-0E0,-0E0,-1.8642396E-1,-0E0,-3.762865E-1,2.4103059E-1,-0E0,-0E0,-1.9173704E-1,-3.9515442E-1,-0E0,-0E0,2.4939084E-1,-1.9719863E-1,-0E0,-5.0941974E-2,-0E0,3.0304475E-2,-0E0,-0E0,-2.3956507E-2],"categories":[],"categories_nodes":[],"categories_segments":[],"categories_sizes":[],"default_left":[0,0,0,0,0,0,0,0,0,0,0,0,0,0,0,0,0,0,0,0,0,0,0,0,0,0,0,0,0,0,0,0,0,0,0,0,0,0,0,0,0,0,0,0,0,0,0,0,0,0,0,0,0,0,0,0,0,0,0,0,0,0,0,0,0,0,0,0,0,0,0,0,0,0,0,0,0,0,0,0,0,0,0,0,0],"id":0,"left_children":[1,3,5,7,-1,9,11,-1,13,15,-1,17,-1,19,-1,-1,21,23,-1,-1,25,-1,27,29,-1,-1,31,33,-1,-1,35,37,-1,-1,39,41,-1,43,-1,-1,45,-1,47,49,-1,-1,51,-1,53,55,-1,57,-1,59,-1,-1,61,-1,63,-1,65,67,-1,69,-1,-1,71,-1,73,75,-1,-1,77,79,-1,-1,81,83,-1,-1,-1,-1,-1,-1,-1],"loss_changes":[8.771105E-1,2.573572E0,3.0155134E0,3.5759802E0,0E0,4.713689E0,5.829253E-4,0E0,2.7000809E0,3.7315369E0,0E0,6.1930114E-1,0E0,2.892436E0,0E0,0E0,3.8078575E0,9.418524E-1,0E0,0E0,3.3928108E0,0E0,4.081995E0,5.582324E-1,0E0,0E0,2.38861E0,3.2447453E0,0E0,0E0,4.4860244E-1,2.1973343E0,0E0,0E0,2.7750034E0,4.7326183E-1,0E0,2.3624554E0,0E0,0E0,2.6801434E0,0E0,3.9412808E-1,2.144165E0,0E0,0E0,2.1626186E0,0E0,4.0391946E-1,2.040083E0,0E0,2.0516605E0,0E0,2.7911544E-1,0E0,0E0,1.720398E0,0E0,1.8454666E0,0E0,2.947483E-1,1.4104977E0,0E0,1.9668846E0,0E0,0E0,1.4487886E-1,0E0,1.694994E0,1.8079796E0,0E0,0E0,1.4673996E-1,2.4835014E0,0E0,0E0,1.8684921E0,1.3830471E-1,0E0,0E0,0E0,0E0,0E0,0E0,0E0],"parents":[2147483647,0,0,1,1,2,2,3,3,5,5,6,6,8,8,9,9,11,11,13,13,16,16,17,17,20,20,22,22,23,23,26,26,27,27,30,30,31,31,34,34,35,35,37,37,40,40,42,42,43,43,46,46,48,48,49,49,51,51,53,53,56,56,58,58,60,60,61,61,63,63,66,66,68,68,69,69,72,72,73,73,76,76,77,77],"right_children":[2,4,6,8,-1,10,12,-1,14,16,-1,18,-1,20,-1,-1,22,24,-1,-1,26,-1,28,30,-1,-1,32,34,-1,-1,36,38,-1,-1,40,42,-1,44,-1,-1,46,-1,48,50,-1,-1,52,-1,54,56,-1,58,-1,60,-1,-1,62,-1,64,-1,66,68,-1,70,-1,-1,72,-1,74,76,-1,-1,78,80,-1,-1,82,84,-1,-1,-1,-1,-1,-1,-1],"split_conditions":[-6.6739624E3,1E0,1.4815347E12,-3.1121204E3,-0E0,1.2043E3,5.6733444E1,-0E0,-9.82375E2,-6.439993E3,-0E0,1.5197258E3,-0E0,0E0,-0E0,-0E0,0E0,-8.896927E3,-0E0,-0E0,-2.4121125E3,-0E0,5.4517534E3,2.1953148E1,-0E0,-0E0,1.4744242E15,-1.547875E3,-0E0,-0E0,1E0,4.5773105E3,-0E0,-0E0,2.1597363E-1,-1.272639E5,-0E0,7.9404336E4,-0E0,-0E0,0E0,-0E0,-8.693549E4,4.0353348E4,-0E0,-0E0,1.2039E3,-0E0,4.8137555E4,4E0,-0E0,-5.252715E3,-0E0,-4.960348E4,-0E0,-0E0,2.986909E3,-0E0,1.2167E4,-0E0,-6.1994443E3,1.7354123E5,-0E0,-9.8929144E2,-0E0,-0E0,-5.0752E4,-0E0,9.691992E-1,-1.2812743E4,-0E0,-0E0,7.403E3,1.8242387E4,-0E0,-0E0,4.8069313E1,-1.1494855E5,-0E0,-5.0941974E-2,-0E0,3.0304475E-2,-0E0,-0E0,-2.3956507E-2],"split_indices":[84,151,12,39,0,196,22,0,67,83,0,77,0,144,0,0,137,91,0,0,69,0,33,41,0,0,12,62,0,0,190,63,0,0,40,33,0,62,0,0,112,0,61,38,0,0,199,0,54,0,0,44,0,86,0,0,52,0,37,0,63,101,0,91,0,0,62,0,5,33,0,0,0,61,0,0,22,58,0,0,0,0,0,0,0],"split_type":[0,0,0,0,0,0,0,0,0,0,0,0,0,0,0,0,0,0,0,0,0,0,0,0,0,0,0,0,0,0,0,0,0,0,0,0,0,0,0,0,0,0,0,0,0,0,0,0,0,0,0,0,0,0,0,0,0,0,0,0,0,0,0,0,0,0,0,0,0,0,0,0,0,0,0,0,0,0,0,0,0,0,0,0,0],"sum_hessian":[3.228E3,6.05E2,2.623E3,5.21E2,8.4E1,2.332E3,2.91E2,6.1E1,4.6E2,1.117E3,1.215E3,2.62E2,2.9E1,4.13E2,4.7E1,1.54E2,9.63E2,1.72E2,9E1,3.3E1,3.8E2,1.07E2,8.56E2,1.51E2,2.1E1,1E1,3.7E2,8.21E2,3.5E1,3E0,1.48E2,3.57E2,1.3E1,8.4E1,7.37E2,1.44E2,4E0,3.48E2,9E0,2E1,7.17E2,3E0,1.41E2,3.36E2,1.2E1,3.4E1,6.83E2,3E0,1.38E2,3.27E2,9E0,6.77E2,6E0,1.34E2,4E0,1.2E1,3.15E2,1.6E1,6.61E2,3E0,1.31E2,3.05E2,1E1,6.43E2,1.8E1,4E0,1.27E2,9.2E1,2.13E2,6.23E2,2E1,3E0,1.24E2,2.04E2,9E0,1.2E1,6.11E2,1.21E2,3E0,1.85E2,1.9E1,6.07E2,4E0,3E0,1.18E2],"tree_param":{"num_deleted":"0","num_feature":"200","num_nodes":"85","size_leaf_vector":"1"}},{"base_weights":[-0E0,-2.0419328E-2,2.1641256E-2,-0E0,-7.012092E-2,-0E0,4.1428175E-2,-0E0,-1.10315725E-1,-0E0,8.941933E-2,-1.3634329E-1,-0E0,-0E0,1.0346915E-1,-0E0,-1.6454837E-1,1.18835144E-1,-0E0,-0E0,-1.8464719E-1,-0E0,1.3619824E-1,-0E0,-2.0626934E-1,-0E0,1.5100987E-1,-0E0,-2.263675E-1,-0E0,1.6542499E-1,-2.4111319E-1,-0E0,-0E0,1.8055838E-1,-0E0,-2.52657E-1,1.9081701E-1,-0E0,-0E0,-2.9634562E-1,1.9927354E-1,-0E0,-0E0,-3.2011637E-1,-0E0,2.0850019E-1,-0E0,-3.3704662E-1,2.1430954E-1,-0E0,-3.5187843E-1,-0E0,-0E0,2.201405E-1,-4.2940028E-2,-0E0,2.782735E-2,-0E0],"categories":[],"categories_nodes":[],"categories_segments":[],"categories_sizes":[],"default_left":[0,0,0,0,0,0,0,0,0,0,0,0,0,0,0,0,0,0,0,0,0,0,0,0,0,0,0,0,0,0,0,0,0,0,0,0,0,0,0,0,0,0,0,0,0,0,0,0,0,0,0,0,0,0,0,0,0,0,0],"id":1,"left_children":[1,3,5,-1,7,-1,9,-1,11,-1,13,15,-1,-1,17,-1,19,21,-1,-1,23,-1,25,-1,27,-1,29,-1,31,-1,33,35,-1,-1,37,-1,39,41,-1,-1,43,45,-1,-1,47,-1,49,-1,51,53,-1,55,-1,-1,57,-1,-1,-1,-1],"loss_changes":[1.4155211E0,4.139552E0,1.5403571E0,0E0,4.159949E0,0E0,4.0066442E0,0E0,3.3315296E0,0E0,2.028325E0,3.9479418E0,0E0,0E0,1.8424015E0,0E0,3.7748394E0,1.9365759E0,0E0,0E0,3.6085396E0,0E0,2.1992702E0,0E0,3.655962E0,0E0,1.9524069E0,0E0,2.8602448E0,0E0,2.2572536E0,2.511446E0,0E0,0E0,1.2862949E0,0E0,2.356659E0,1.5529919E0,0E0,0E0,3.182518E0,1.2378998E0,0E0,0E0,3.581974E0,0E0,1.1370068E0,0E0,3.1411362E0,1.0163898E0,0E0,2.2659683E0,0E0,0E0,9.275379E-1,0E0,0E0,0E0,0E0],"parents":[2147483647,0,0,1,1,2,2,4,4,6,6,8,8,10,10,11,11,14,14,16,16,17,17,20,20,22,22,24,24,26,26,28,28,30,30,31,31,34,34,36,36,37,37,40,40,41,41,44,44,46,46,48,48,49,49,51,51,54,54],"right_children":[2,4,6,-1,8,-1,10,-1,12,-1,14,16,-1,-1,18,-1,20,22,-1,-1,24,-1,26,-1,28,-1,30,-1,32,-1,34,36,-1,-1,38,-1,40,42,-1,-1,44,46,-1,-1,48,-1,50,-1,52,54,-1,56,-1,-1,58,-1,-1,-1,-1],"split_conditions":[-8.912848E3,-2.1950277E1,-1.3569738E3,-0E0,-5.5553984E4,-0E0,4.8108345E1,-0E0,1E0,-0E0,-3.3866916E12,5.177706E3,-0E0,-0E0,8.488363E3,-0E0,-2.2425652E4,9.281911E2,-0E0,-0E0,0E0,-0E0,-5.817946E5,-0E0,-1.7373783E4,-0E0,-1.4344789E4,-0E0,3.5205957E4,-0E0,-1.07474266E2,-3.528751E4,-0E0,-0E0,1.9693062E4,-0E0,8.52661E0,4.983623E4,-0E0,-0E0,7.077969E3,-1.5625E4,-0E0,-0E0,6.37E2,-0E0,-9.8929144E2,-0E0,6.4481074E4,3.9430141E0,-0E0,7.9404336E4,-0E0,-0E0,2.5713254E3,-4.2940028E-2,-0E0,2.782735E-2,-0E0],"split_indices":[88,9,56,0,88,0,26,0,180,0,18,45,0,0,59,0,30,89,0,0,183,0,17,0,32,0,59,0,77,0,100,28,0,0,15,0,19,41,0,0,45,36,0,0,197,0,91,0,62,21,0,64,0,0,38,0,0,0,0],"split_type":[0,0,0,0,0,0,0,0,0,0,0,0,0,0,0,0,0,0,0,0,0,0,0,0,0,0,0,0,0,0,0,0,0,0,0,0,0,0,0,0,0,0,0,0,0,0,0,0,0,0,0,0,0,0,0,0,0,0,0],"sum_hessian":[3.205E3,1.664E3,1.541E3,6.81E2,9.83E2,2.23E2,1.318E3,2.44E2,7.39E2,5.34E2,7.84E2,6.63E2,7.6E1,9E0,7.75E2,6.2E1,6.01E2,7.18E2,5.7E1,1.3E1,5.88E2,6.7E1,6.51E2,3.2E1,5.56E2,2.5E1,6.26E2,2.3E1,5.33E2,3.3E1,5.93E2,5.19E2,1.4E1,2.6E1,5.67E2,7E0,5.12E2,5.43E2,2.4E1,1.13E2,3.99E2,5.37E2,6E0,2.6E1,3.73E2,1.8E1,5.19E2,5E0,3.68E2,5.16E2,3E0,3.63E2,5E0,6E0,5.1E2,3.58E2,5E0,4.63E2,4.7E1],"tree_param":{"num_deleted":"0","num_feature":"200","num_nodes":"59","size_leaf_vector":"1"}},{"base_weights":[-0E0,-1.1438387E-2,3.7595497E-3,-0E0,-6.0215823E-2,-0E0,2.7910907E-2,-0E0,-1.0117883E-1,-0E0,4.4517573E-2,-0E0,-1.2523516E-1,5.9375923E-2,-0E0,-0E0,-1.6072968E-1,-0E0,7.210041E-2,-0E0,-1.9705032E-1,8.4192775E-2,-0E0,-0E0,-2.180813E-1,9.663368E-2,-0E0,-0E0,-2.4226418E-1,-0E0,1.0883023E-1,-0E0,-2.637424E-1,1.17825545E-1,-0E0,-2.8955925E-1,-0E0,-0E0,1.2878805E-1,-3.196283E-1,-0E0,-0E0,1.4268953E-1,-0E0,-3.3953097E-1,1.5065847E-1,-0E0,-3.5989818E-1,-0E0,-0E0,1.5800014E-1,-0E0,-3.7070742E-1,1.6614063E-1,-0E0,-4.5542803E-2,-0E0,-0E0,2.0653078E-2],"categories":[],"categories_nodes":[],"categories_segments":[],"categories_sizes":[],"default_left":[0,0,0,0,0,0,0,0,0,0,0,0,0,0,0,0,0,0,0,0,0,0,0,0,0,0,0,0,0,0,0,0,0,0,0,0,0,0,0,0,0,0,0,0,0,0,0,0,0,0,0,0,0,0,0,0,0,0,0],"id":2,"left_children":[1,3,5,-1,7,-1,9,-1,11,-1,13,-1,15,17,-1,-1,19,-1,21,-1,23,25,-1,-1,27,29,-1,-1,31,-1,33,-1,35,37,-1,39,-1,-1,41,43,-1,-1,45,-1,47,49,-1,51,-1,-1,53,-1,55,57,-1,-1,-1,-1,-1],"loss_changes":[2.4090403E-1,3.3632827E0,1.001878E0,0E0,4.341124E0,0E0,1.0275471E0,0E0,3.3844938E0,0E0,1.3192005E0,0E0,4.321537E0,1.3550293E0,0E0,0E0,5.5709496E0,0E0,1.1721611E0,0E0,4.243767E0,1.2273769E0,0E0,0E0,4.019045E0,1.1658678E0,0E0,0E0,3.2298717E0,0E0,1.2605944E0,0E0,3.527626E0,1.3790054E0,0E0,3.5202675E0,0E0,0E0,1.2450466E0,3.6046486E0,0E0,0E0,1.2163448E0,0E0,3.8019562E0,1.0374146E0,0E0,2.324913E0,0E0,0E0,8.07477E-1,0E0,2.3011894E0,8.105545E-1,0E0,0E0,0E0,0E0,0E0],"parents":[2147483647,0,0,1,1,2,2,4,4,6,6,8,8,10,10,12,12,13,13,16,16,18,18,20,20,21,21,24,24,25,25,28,28,30,30,32,32,33,33,35,35,38,38,39,39,42,42,44,44,45,45,47,47,50,50,52,52,53,53],"right_children":[2,4,6,-1,8,-1,10,-1,12,-1,14,-1,16,18,-1,-1,20,-1,22,-1,24,26,-1,-1,28,30,-1,-1,32,-1,34,-1,36,38,-1,40,-1,-1,42,44,-1,-1,46,-1,48,50,-1,52,-1,-1,54,-1,56,58,-1,-1,-1,-1,-1],"split_conditions":[-8.912848E3,-2.1950277E1,-1.3569738E3,-0E0,-1.6115866E4,-0E0,1.0351007E1,-0E0,-2.1237596E4,-0E0,1.28475065E1,-0E0,-9.419174E1,-3.2431969E4,-0E0,-0E0,-1.1994046E4,-0E0,-3.0024432E2,-0E0,-1.9467658E5,2.3526306E3,-0E0,-0E0,7.188975E3,-4.80557E3,-0E0,-0E0,1.1840163E1,-0E0,9.448559E2,-0E0,2.5560607E4,-9.5280625E3,-0E0,2.017E3,-0E0,-0E0,-2.5495825E2,0E0,-0E0,-0E0,1.748293E8,-0E0,7.0263E4,1.6430015E3,-0E0,-3.821894E2,-0E0,-0E0,1E0,-0E0,1E0,0E0,-0E0,-4.5542803E-2,-0E0,-0E0,2.0653078E-2],"split_indices":[88,9,56,0,15,0,22,0,48,0,20,0,68,86,0,0,65,0,67,0,67,36,0,0,47,67,0,0,22,0,69,0,86,36,0,2,0,0,93,105,0,0,16,0,0,47,0,72,0,0,106,0,127,147,0,0,0,0,0],"split_type":[0,0,0,0,0,0,0,0,0,0,0,0,0,0,0,0,0,0,0,0,0,0,0,0,0,0,0,0,0,0,0,0,0,0,0,0,0,0,0,0,0,0,0,0,0,0,0,0,0,0,0,0,0,0,0,0,0,0,0],"sum_hessian":[3.214E3,1.675E3,1.539E3,6.87E2,9.88E2,2.25E2,1.314E3,2.14E2,7.74E2,2.79E2,1.035E3,5.3E1,7.21E2,9.56E2,7.9E1,1.16E2,6.05E2,4.7E1,9.09E2,5.9E1,5.46E2,8.32E2,7.7E1,1.1E1,5.35E2,7.63E2,6.9E1,3.3E1,5.02E2,6.3E1,7E2,3.2E1,4.7E2,6.88E2,1.2E1,4.32E2,3.8E1,2.9E1,6.59E2,3.89E2,4.3E1,6.1E1,5.98E2,1.3E1,3.76E2,5.9E2,8E0,3.64E2,1.2E1,1.2E1,5.78E2,4E0,3.6E2,5.52E2,2.6E1,3.49E2,1.1E1,2.6E1,5.26E2],"tree_param":{"num_deleted":"0","num_feature":"200","num_nodes":"59","size_leaf_vector":"1"}},{"base_weights":[-0E0,-6.9538695E-3,9.374934E-3,-3.6980916E-2,-0E0,3.8458116E-2,-0E0,-0E0,-6.8369836E-2,5.40389E-2,-0E0,-9.055626E-2,-0E0,-0E0,6.873921E-2,-1.0915546E-1,-0E0,-0E0,9.7356476E-2,-1.3248038E-1,-0E0,-0E0,1.4306344E-1,-0E0,-1.6854037E-1,-0E0,1.6653162E-1,-1.890538E-1,-0E0,1.8551926E-1,-0E0,-0E0,-2.0441964E-1,-0E0,2.0093925E-1,-0E0,-2.1990384E-1,2.2063214E-1,-0E0,-0E0,-2.650248E-1,2.374562E-1,-0E0,-0E0,-2.834416E-1,-0E0,2.5040552E-1,-2.9505068E-1,-0E0,2.628256E-1,-0E0,-0E0,-3.0842322E-1,2.7169314E-1,-0E0,-0E0,-3.7970144E-2,-0E0,3.3673774E-2],"categories":[],"categories_nodes":[],"categories_segments":[],"categories_sizes":[],"default_left":[0,0,0,0,0,0,0,0,0,0,0,0,0,0,0,0,0,0,0,0,0,0,0,0,0,0,0,0,0,0,0,0,0,0,0,0,0,0,0,0,0,0,0,0,0,0,0,0,0,0,0,0,0,0,0,0,0,0,0],"id":3,"left_children":[1,3,5,7,-1,9,-1,-1,11,13,-1,15,-1,-1,17,19,-1,-1,21,23,-1,-1,25,-1,27,-1,29,31,-1,33,-1,-1,35,-1,37,-1,39,41,-1,-1,43,45,-1,-1,47,-1,49,51,-1,53,-1,-1,55,57,-1,-1,-1,-1,-1],"loss_changes":[2.4046199E-1,1.2221254E0,2.3145177E0,2.63791E0,0E0,1.7785041E0,0E0,0E0,2.51664E0,2.1498156E0,0E0,2.185341E0,0E0,0E0,2.3176222E0,2.425129E0,0E0,0E0,4.473321E0,2.5951986E0,0E0,0E0,3.3624277E0,0E0,2.4845362E0,0E0,2.8960438E0,2.3088913E0,0E0,2.3231087E0,0E0,0E0,2.220499E0,0E0,2.243843E0,0E0,2.74057E0,2.1720333E0,0E0,0E0,1.8371868E0,2.185192E0,0E0,0E0,1.8475838E0,0E0,2.0586624E0,1.1780167E0,0E0,1.8688297E0,0E0,0E0,1.2393417E0,1.4874153E0,0E0,0E0,0E0,0E0,0E0],"parents":[2147483647,0,0,1,1,2,2,3,3,5,5,8,8,9,9,11,11,14,14,15,15,18,18,19,19,22,22,24,24,26,26,27,27,29,29,32,32,34,34,36,36,37,37,40,40,41,41,44,44,46,46,47,47,49,49,52,52,53,53],"right_children":[2,4,6,8,-1,10,-1,-1,12,14,-1,16,-1,-1,18,20,-1,-1,22,24,-1,-1,26,-1,28,-1,30,32,-1,34,-1,-1,36,-1,38,-1,40,42,-1,-1,44,46,-1,-1,48,-1,50,52,-1,54,-1,-1,56,58,-1,-1,-1,-1,-1],"split_conditions":[-1.2506223E3,1E0,6.14125E2,-4.330786E3,-0E0,1.2008878E2,-0E0,-0E0,-9.0449115E2,-3.1121204E3,-0E0,3.027951E4,-0E0,-0E0,-3.27665E1,1.0880155E4,-0E0,-0E0,1.5435871E1,2.2840433E1,-0E0,-0E0,-7.5529297E2,-0E0,1.00974615E3,-0E0,5.6103623E3,-3.528751E4,-0E0,-1.7822285E6,-0E0,-0E0,-1.4503637E4,-0E0,1E0,-0E0,1.5438294E4,3.4784992E4,-0E0,-0E0,-5.7589137E4,-4.0158984E4,-0E0,-0E0,3.2768E4,-0E0,1E0,3.6117816E0,-0E0,1.702191E5,-0E0,-0E0,2.5694183E1,-3.0466447E4,-0E0,-0E0,-3.7970144E-2,-0E0,3.3673774E-2],"split_indices":[84,151,33,32,0,98,0,0,88,29,0,81,0,0,34,86,0,0,23,24,0,0,63,0,63,0,59,31,0,17,0,0,52,0,115,0,49,85,0,0,86,59,0,0,33,0,109,20,0,78,0,0,25,86,0,0,0,0,0],"split_type":[0,0,0,0,0,0,0,0,0,0,0,0,0,0,0,0,0,0,0,0,0,0,0,0,0,0,0,0,0,0,0,0,0,0,0,0,0,0,0,0,0,0,0,0,0,0,0,0,0,0,0,0,0,0,0,0,0,0,0],"sum_hessian":[3.224E3,1.085E3,2.139E3,9.32E2,1.53E2,1.692E3,4.47E2,9.5E1,8.37E2,1.466E3,2.26E2,7.84E2,5.3E1,1.05E2,1.361E3,7.23E2,6.1E1,4.38E2,9.23E2,6.29E2,9.4E1,2.77E2,6.46E2,1.49E2,4.8E2,4.8E1,5.98E2,4.51E2,2.9E1,5.66E2,3.2E1,1E1,4.41E2,2.6E1,5.4E2,1.4E1,4.27E2,4.94E2,4.6E1,9.4E1,3.33E2,4.65E2,2.9E1,1.9E1,3.14E2,1.2E1,4.53E2,3.11E2,3E0,4.41E2,1.2E1,1.4E1,2.97E2,4.38E2,3E0,1.1E1,2.86E2,2.1E1,4.17E2],"tree_param":{"num_deleted":"0","num_feature":"200","num_nodes":"59","size_leaf_vector":"1"}},{"base_weights":[-0E0,-1.2005902E-3,2.4716767E-2,-0E0,-5.4605186E-2,-0E0,5.8216978E-2,-0E0,1.748732E-2,-8.117604E-2,-0E0,-0E0,8.4801376E-2,-0E0,3.2749575E-2,-0E0,-1.2732479E-1,1.12603545E-1,-0E0,-0E0,5.1487207E-2,-1.630384E-1,-0E0,1.3885047E-1,-0E0,7.055672E-2,-0E0,-0E0,-1.8578888E-1,-0E0,1.675069E-1,-0E0,9.3536824E-2,-2.1864095E-1,-0E0,-0E0,1.8937354E-1,-0E0,1.04812324E-1,-2.4279597E-1,-0E0,-0E0,2.161941E-1,1.15956545E-1,-0E0,-2.5695375E-1,-0E0,-0E0,2.3352602E-1,-0E0,1.2764487E-1,-2.686476E-1,-0E0,2.508113E-1,-0E0,-0E0,1.4100887E-1,-2.8321785E-1,-0E0,-0E0,2.7189553E-1,-0E0,1.5018792E-1,-3.052126E-1,-0E0,-0E0,2.936621E-1,1.5802222E-1,-0E0,-0E0,-3.2771623E-1,3.2356742E-1,-0E0,1.6662404E-1,-0E0,-0E0,-3.6145395E-1,3.37711E-1,-0E0,2.0888608E-2,-0E0,-4.4722907E-2,-0E0,-0E0,4.09888E-2],"categories":[],"categories_nodes":[],"categories_segments":[],"categories_sizes":[],"default_left":[0,0,0,0,0,0,0,0,0,0,0,0,0,0,0,0,0,0,0,0,0,0,0,0,0,0,0,0,0,0,0,0,0,0,0,0,0,0,0,0,0,0,0,0,0,0,0,0,0,0,0,0,0,0,0,0,0,0,0,0,0,0,0,0,0,0,0,0,0,0,0,0,0,0,0,0,0,0,0,0,0,0,0,0,0],"id":4,"left_children":[1,3,5,7,9,-1,11,-1,13,15,-1,-1,17,-1,19,-1,21,23,-1,-1,25,27,-1,29,-1,31,-1,-1,33,-1,35,-1,37,39,-1,-1,41,-1,43,45,-1,-1,47,49,-1,51,-1,-1,53,-1,55,57,-1,59,-1,-1,61,63,-1,-1,65,-1,67,69,-1,-1,71,73,-1,-1,75,77,-1,79,-1,-1,81,83,-1,-1,-1,-1,-1,-1,-1],"loss_changes":[3.6302257E-1,3.6100495E0,1.3116635E0,2.0519604E-1,3.6676002E0,0E0,1.7090149E0,0E0,4.415424E-1,5.785099E0,0E0,0E0,2.1864276E0,0E0,7.8211415E-1,0E0,5.6202583E0,2.2804112E0,0E0,0E0,9.2586064E-1,4.1983013E0,0E0,2.5068717E0,0E0,1.4249144E0,0E0,0E0,4.7933292E0,0E0,2.3057957E0,0E0,8.4532E-1,3.1523495E0,0E0,0E0,2.4375772E0,0E0,9.4166327E-1,2.7760563E0,0E0,0E0,1.9722872E0,9.18087E-1,0E0,2.6232643E0,0E0,0E0,1.9284401E0,0E0,9.517317E-1,2.3520355E0,0E0,2.5151024E0,0E0,0E0,7.5154734E-1,2.4990883E0,0E0,0E0,2.2024822E0,0E0,7.2667885E-1,2.9519157E0,0E0,0E0,2.353979E0,7.748308E-1,0E0,0E0,2.3472328E0,1.6445656E0,0E0,6.7152977E-1,0E0,0E0,3.1169205E0,1.1256104E0,0E0,0E0,0E0,0E0,0E0,0E0,0E0],"parents":[2147483647,0,0,1,1,2,2,3,3,4,4,6,6,8,8,9,9,12,12,14,14,16,16,17,17,20,20,21,21,23,23,25,25,28,28,30,30,32,32,33,33,36,36,38,38,39,39,42,42,43,43,45,45,48,48,50,50,51,51,53,53,56,56,57,57,60,60,62,62,63,63,66,66,67,67,70,70,71,71,73,73,76,76,77,77],"right_children":[2,4,6,8,10,-1,12,-1,14,16,-1,-1,18,-1,20,-1,22,24,-1,-1,26,28,-1,30,-1,32,-1,-1,34,-1,36,-1,38,40,-1,-1,42,-1,44,46,-1,-1,48,50,-1,52,-1,-1,54,-1,56,58,-1,60,-1,-1,62,64,-1,-1,66,-1,68,70,-1,-1,72,74,-1,-1,76,78,-1,80,-1,-1,82,84,-1,-1,-1,-1,-1,-1,-1],"split_conditions":[9.7030615E2,9.581492E0,5.152998E1,5.789586E-2,9.657866E-1,-0E0,6.577E2,-0E0,-4.994357E3,-6.755498E1,-0E0,-0E0,1.554043E2,-0E0,1.295016E3,-0E0,2.810615E3,1.4247744E4,-0E0,-0E0,2.097116E3,6E0,-0E0,0E0,-0E0,0E0,-0E0,-0E0,1.6904912E4,-0E0,-2.012354E4,-0E0,-1.2812743E4,-3.188898E3,-0E0,-0E0,-1.1004976E3,-0E0,5.5261906E4,1.1545064E5,-0E0,-0E0,-1.1733227E5,2.9859233E3,-0E0,2.0173351E3,-0E0,-0E0,2.7876167E3,-0E0,-1.4785009E4,5.2133E4,-0E0,4.306193E0,-0E0,-0E0,-7.880628E3,1.4247744E4,-0E0,-0E0,0E0,-0E0,3.1930396E4,-4.330786E3,-0E0,-0E0,9.701047E-1,9.116487E4,-0E0,-0E0,2.765608E1,2.448379E3,-0E0,5.314362E2,-0E0,-0E0,1.34212705E4,3E0,-0E0,2.0888608E-2,-0E0,-4.4722907E-2,-0E0,-0E0,4.09888E-2],"split_indices":[35,19,26,73,7,0,197,0,62,97,0,0,26,0,45,0,90,64,0,0,36,0,0,155,0,114,0,0,77,0,36,0,34,88,0,0,61,0,80,76,0,0,80,49,0,95,0,0,50,0,80,0,0,19,0,0,31,64,0,0,118,0,58,32,0,0,7,86,0,0,25,69,0,35,0,0,77,0,0,0,0,0,0,0,0],"split_type":[0,0,0,0,0,0,0,0,0,0,0,0,0,0,0,0,0,0,0,0,0,0,0,0,0,0,0,0,0,0,0,0,0,0,0,0,0,0,0,0,0,0,0,0,0,0,0,0,0,0,0,0,0,0,0,0,0,0,0,0,0,0,0,0,0,0,0,0,0,0,0,0,0,0,0,0,0,0,0,0,0,0,0,0,0],"sum_hessian":[3.226E3,2.638E3,5.88E2,1.426E3,1.212E3,9.5E1,4.93E2,7.55E2,6.71E2,1.105E3,1.07E2,2.3E1,4.7E2,6.8E1,6.03E2,2.99E2,8.06E2,4.39E2,3.1E1,6.4E1,5.39E2,7.03E2,1.03E2,4.07E2,3.2E1,4.73E2,6.6E1,4E1,6.63E2,3.8E1,3.69E2,4.1E1,4.32E2,5.79E2,8.4E1,1.6E1,3.53E2,1.1E1,4.21E2,5.23E2,5.6E1,3E1,3.23E2,4.14E2,7E0,5.09E2,1.4E1,1E1,3.13E2,1.6E1,3.98E2,5.02E2,7E0,3.02E2,1.1E1,2.4E1,3.74E2,4.81E2,2.1E1,1.1E1,2.91E2,1.1E1,3.63E2,4.41E2,4E1,1.6E1,2.75E2,3.57E2,6E0,3.1E1,4.1E2,2.49E2,2.6E1,3.49E2,8E0,5.5E1,3.55E2,2.43E2,6E0,3.32E2,1.7E1,3.46E2,9E0,3E0,2.4E2],"tree_param":{"num_deleted":"0","num_feature":"200","num_nodes":"85","size_leaf_vector":"1"}},{"base_weights":[-0E0,3.1785578E-3,-8.953334E-3,-0E0,3.5851404E-2,-0E0,-4.336345E-2,6.708093E-2,-0E0,-8.708432E-2,-0E0,8.188626E-2,-0E0,-0E0,-1.2802914E-1,-0E0,9.5704675E-2,-0E0,-1.5077217E-1,1.1127455E-1,-0E0,-0E0,-1.6660427E-1,1.2522699E-1,-0E0,-0E0,-1.7997876E-1,1.3998543E-1,-0E0,-0E0,-2.0382775E-1,1.770005E-1,-0E0,-2.2555256E-1,-0E0,-0E0,1.9884947E-1,-0E0,-2.4004276E-1,-0E0,2.1577378E-1,-0E0,-2.5126424E-1,2.3341009E-1,-0E0,-0E0,-2.6348504E-1,-0E0,2.4245009E-1,-0E0,-2.7187452E-1,2.7749673E-1,-0E0,-0E0,-2.8670374E-1,3.4178473E-2,-0E0,-0E0,-3.4884162E-2],"categories":[],"categories_nodes":[],"categories_segments":[],"categories_sizes":[],"default_left":[0,0,0,0,0,0,0,0,0,0,0,0,0,0,0,0,0,0,0,0,0,0,0,0,0,0,0,0,0,0,0,0,0,0,0,0,0,0,0,0,0,0,0,0,0,0,0,0,0,0,0,0,0,0,0,0,0,0,0],"id":5,"left_children":[1,3,5,-1,7,-1,9,11,-1,13,-1,15,-1,-1,17,-1,19,-1,21,23,-1,-1,25,27,-1,-1,29,31,-1,-1,33,35,-1,37,-1,-1,39,-1,41,-1,43,-1,45,47,-1,-1,49,-1,51,-1,53,55,-1,-1,57,-1,-1,-1,-1],"loss_changes":[1.3937297E-1,1.6639967E0,2.2019935E0,0E0,2.0491738E0,0E0,4.341893E0,1.6875548E0,0E0,4.7096195E0,0E0,1.790504E0,0E0,0E0,3.9913254E0,0E0,1.8304424E0,0E0,2.786066E0,2.0011082E0,0E0,0E0,2.2865086E0,2.2852402E0,0E0,0E0,2.3690453E0,2.4333487E0,0E0,0E0,2.6283588E0,1.7581396E0,0E0,2.8547E0,0E0,0E0,2.0377827E0,0E0,2.201912E0,0E0,1.2569656E0,0E0,1.5804653E0,1.2318058E0,0E0,0E0,1.7793617E0,0E0,1.4430828E0,0E0,1.7387657E0,1.4953423E0,0E0,0E0,1.8335571E0,0E0,0E0,0E0,0E0],"parents":[2147483647,0,0,1,1,2,2,4,4,6,6,7,7,9,9,11,11,14,14,16,16,18,18,19,19,22,22,23,23,26,26,27,27,30,30,31,31,33,33,36,36,38,38,40,40,42,42,43,43,46,46,48,48,50,50,51,51,54,54],"right_children":[2,4,6,-1,8,-1,10,12,-1,14,-1,16,-1,-1,18,-1,20,-1,22,24,-1,-1,26,28,-1,-1,30,32,-1,-1,34,36,-1,38,-1,-1,40,-1,42,-1,44,-1,46,48,-1,-1,50,-1,52,-1,54,56,-1,-1,58,-1,-1,-1,-1],"split_conditions":[2.0429219E6,-1.3302534E3,-3.3079922E2,-0E0,1.2534E3,-0E0,2.9415704E2,1.0077833E4,-0E0,5.545187E3,-0E0,-9.9639505E-1,-0E0,-0E0,-2.2425652E4,-0E0,1E0,-0E0,-6.3296515E2,1E0,-0E0,-0E0,-2.1687529E2,7.880628E3,-0E0,-0E0,2.1081308E1,-3.413073E3,-0E0,-0E0,1.2607686E3,2.140374E1,-0E0,-3.528751E4,-0E0,-0E0,0E0,-0E0,-3.528751E4,-0E0,1E0,-0E0,-1.83024E2,-1.5625E4,-0E0,-0E0,-1.911186E3,-0E0,1.219E3,-0E0,9.529949E0,3.8459575E5,-0E0,-0E0,-2.1865566E14,3.4178473E-2,-0E0,-0E0,-3.4884162E-2],"split_indices":[16,62,68,0,196,0,68,38,0,45,0,6,0,0,31,0,113,0,98,109,0,0,100,31,0,0,24,91,0,0,93,25,0,34,0,0,114,0,30,0,180,0,71,37,0,0,97,0,196,0,22,96,0,0,18,0,0,0,0],"split_type":[0,0,0,0,0,0,0,0,0,0,0,0,0,0,0,0,0,0,0,0,0,0,0,0,0,0,0,0,0,0,0,0,0,0,0,0,0,0,0,0,0,0,0,0,0,0,0,0,0,0,0,0,0,0,0,0,0,0,0],"sum_hessian":[3.227E3,1.703E3,1.524E3,3.95E2,1.308E3,2.88E2,1.236E3,8.29E2,4.79E2,8.79E2,3.57E2,8.08E2,2.1E1,1.85E2,6.94E2,2.1E1,7.87E2,1.8E1,6.76E2,7.3E2,5.7E1,2.2E1,6.54E2,7.04E2,2.6E1,2.3E1,6.31E2,6.8E2,2.4E1,8.2E1,5.49E2,5.03E2,1.77E2,5E2,4.9E1,6E1,4.43E2,9E0,4.91E2,2.3E1,4.2E2,8E0,4.83E2,3.82E2,3.8E1,2.1E1,4.62E2,7E0,3.75E2,4E0,4.58E2,3.05E2,7E1,2.5E1,4.33E2,2.99E2,6E0,3E0,4.3E2],"tree_param":{"num_deleted":"0","num_feature":"200","num_nodes":"59","size_leaf_vector":"1"}},{"base_weights":[-0E0,4.2642138E-4,-6.8200645E-3,-0E0,2.0096462E-2,-4.3888643E-2,-0E0,-0E0,4.80969E-2,-7.385139E-2,-0E0,-0E0,7.769776E-2,-0E0,-1.08383976E-1,9.7088836E-2,-0E0,-0E0,-1.2491775E-1,1.1266037E-1,-0E0,-0E0,-1.3949524E-1,-0E0,1.2686184E-1,-1.5367272E-1,-0E0,-0E0,1.4020433E-1,-0E0,-1.623267E-1,-0E0,1.4738357E-1,-0E0,-1.7233622E-1,-0E0,1.6098034E-1,-0E0,-1.8483253E-1,1.6862746E-1,-0E0,-0E0,-1.9872758E-1,-0E0,1.7666632E-1,-0E0,-2.1311508E-1,-0E0,1.8199074E-1,-2.2359829E-1,-0E0,-0E0,1.8849538E-1,-2.3635487E-1,-0E0,2.2657325E-2,-0E0,-0E0,-2.9540446E-2],"categories":[],"categories_nodes":[],"categories_segments":[],"categories_sizes":[],"default_left":[0,0,0,0,0,0,0,0,0,0,0,0,0,0,0,0,0,0,0,0,0,0,0,0,0,0,0,0,0,0,0,0,0,0,0,0,0,0,0,0,0,0,0,0,0,0,0,0,0,0,0,0,0,0,0,0,0,0,0],"id":6,"left_children":[1,3,5,-1,7,9,-1,-1,11,13,-1,-1,15,-1,17,19,-1,-1,21,23,-1,-1,25,-1,27,29,-1,-1,31,-1,33,-1,35,-1,37,-1,39,-1,41,43,-1,-1,45,-1,47,-1,49,-1,51,53,-1,-1,55,57,-1,-1,-1,-1,-1],"loss_changes":[7.290817E-2,5.4088193E-1,2.495035E0,0E0,1.5014714E0,4.249892E0,0E0,0E0,3.143079E0,3.355442E0,0E0,0E0,2.1855884E0,0E0,2.5134373E0,2.1479483E0,0E0,0E0,2.5693817E0,1.9235125E0,0E0,0E0,2.6446047E0,0E0,1.8651762E0,1.8093681E0,0E0,0E0,9.8506165E-1,0E0,2.0007648E0,0E0,9.966345E-1,0E0,1.9644699E0,0E0,1.1459017E0,0E0,2.706087E0,8.2411957E-1,0E0,0E0,2.5047817E0,0E0,4.2674065E-1,0E0,2.1117687E0,0E0,6.828575E-1,2.3529453E0,0E0,0E0,3.194828E-1,1.9755287E0,0E0,0E0,0E0,0E0,0E0],"parents":[2147483647,0,0,1,1,2,2,4,4,5,5,8,8,9,9,12,12,14,14,15,15,18,18,19,19,22,22,24,24,25,25,28,28,30,30,32,32,34,34,36,36,38,38,39,39,42,42,44,44,46,46,48,48,49,49,52,52,53,53],"right_children":[2,4,6,-1,8,10,-1,-1,12,14,-1,-1,16,-1,18,20,-1,-1,22,24,-1,-1,26,-1,28,30,-1,-1,32,-1,34,-1,36,-1,38,-1,40,-1,42,44,-1,-1,46,-1,48,-1,50,-1,52,54,-1,-1,56,58,-1,-1,-1,-1,-1],"split_conditions":[1.3413723E5,-2.5997593E3,1.4428923E3,-0E0,5.0319786E1,9.7876906E-1,-0E0,-0E0,-8.463751E4,2.4520096E1,-0E0,-0E0,1.622E3,-0E0,-1.7373783E4,1.4706125E4,-0E0,-0E0,-9.896398E-1,-1.7822285E6,-0E0,-0E0,2.2516496E4,-0E0,-3.4268805E4,-3.4224504E4,-0E0,-0E0,0E0,-0E0,-1.0138324E4,-0E0,-1.906607E3,-0E0,3.1443878E2,-0E0,2.4389E4,-0E0,5.858866E0,3E0,-0E0,-0E0,3.6375787E0,-0E0,-1.5625E4,-0E0,1.6923441E4,-0E0,-1.8738114E3,1E0,-0E0,-0E0,1.1390625E4,-1.0077833E4,-0E0,2.2657325E-2,-0E0,-0E0,-2.9540446E-2],"split_indices":[12,61,35,0,26,7,0,0,78,24,0,0,0,0,30,38,0,0,7,17,0,0,65,0,59,48,0,0,115,0,87,0,13,0,41,0,31,0,21,1,0,0,20,0,31,0,61,0,61,113,0,0,38,38,0,0,0,0,0],"split_type":[0,0,0,0,0,0,0,0,0,0,0,0,0,0,0,0,0,0,0,0,0,0,0,0,0,0,0,0,0,0,0,0,0,0,0,0,0,0,0,0,0,0,0,0,0,0,0,0,0,0,0,0,0,0,0,0,0,0,0],"sum_hessian":[3.216E3,1.655E3,1.561E3,3.15E2,1.34E3,1.333E3,2.28E2,4.57E2,8.83E2,1.25E3,8.3E1,2.4E1,8.59E2,3.84E2,8.66E2,7.82E2,7.7E1,5.3E1,8.13E2,7.5E2,3.2E1,2.9E1,7.84E2,3.9E1,7.11E2,7.58E2,2.6E1,3.4E1,6.77E2,1E1,7.48E2,1.9E1,6.58E2,1.7E1,7.31E2,6.8E1,5.9E2,3.8E1,6.93E2,5.78E2,1.2E1,2.5E1,6.68E2,2.5E1,5.53E2,3.2E1,6.36E2,1.9E1,5.34E2,6.2E2,1.6E1,1.7E1,5.17E2,5.97E2,2.3E1,5.09E2,8E0,3.1E1,5.66E2],"tree_param":{"num_deleted":"0","num_feature":"200","num_nodes":"59","size_leaf_vector":"1"}},{"base_weights":[-0E0,-0E0,2.4757527E-3,-3.157109E-2,-0E0,2.6854001E-2,-0E0,-0E0,-6.865088E-2,5.585258E-2,-0E0,-0E0,-9.846313E-2,7.433919E-2,-0E0,-1.9193488E-1,-0E0,1.0248855E-1,-0E0,-0E0,-2.4771132E-1,1.1343247E-1,-0E0,-0E0,-2.8805134E-1,-0E0,1.2401846E-1,-0E0,-3.3234847E-1,1.3376132E-1,-0E0,-3.7701178E-1,-0E0,1.412995E-1,-0E0,-4.0008423E-1,-0E0,1.4922315E-1,-0E0,-4.2598185E-1,-0E0,-0E0,1.5578729E-1,-4.5192477E-1,-0E0,-0E0,1.6245066E-1,-4.8635942E-1,-0E0,-0E0,1.6845973E-1,-5.071476E-1,-0E0,-0E0,1.8785411E-1,-0E0,-6.1843235E-2,2.3852982E-2,-0E0],"categories":[],"categories_nodes":[],"categories_segments":[],"categories_sizes":[],"default_left":[0,0,0,0,0,0,0,0,0,0,0,0,0,0,0,0,0,0,0,0,0,0,0,0,0,0,0,0,0,0,0,0,0,0,0,0,0,0,0,0,0,0,0,0,0,0,0,0,0,0,0,0,0,0,0,0,0,0,0],"id":7,"left_children":[1,3,5,7,-1,9,-1,-1,11,13,-1,-1,15,17,-1,19,-1,21,-1,-1,23,25,-1,-1,27,-1,29,-1,31,33,-1,35,-1,37,-1,39,-1,41,-1,43,-1,-1,45,47,-1,-1,49,51,-1,-1,53,55,-1,-1,57,-1,-1,-1,-1],"loss_changes":[1.0763141E-2,1.2200019E0,7.1758556E-1,2.5739176E0,0E0,1.7173479E0,0E0,0E0,2.9053178E0,1.5940397E0,0E0,0E0,4.2419457E0,1.5693474E0,0E0,6.362589E0,0E0,1.1589184E0,0E0,0E0,4.352331E0,1.1837564E0,0E0,0E0,3.969574E0,0E0,1.0658541E0,0E0,4.3654156E0,9.851284E-1,0E0,3.1428604E0,0E0,9.9742794E-1,0E0,3.1581535E0,0E0,8.434353E-1,0E0,3.3296776E0,0E0,0E0,8.500881E-1,2.9564018E0,0E0,0E0,8.4293747E-1,2.945984E0,0E0,0E0,6.8490505E-1,2.0727615E0,0E0,0E0,9.5733833E-1,0E0,0E0,0E0,0E0],"parents":[2147483647,0,0,1,1,2,2,3,3,5,5,8,8,9,9,12,12,13,13,15,15,17,17,20,20,21,21,24,24,26,26,28,28,29,29,31,31,33,33,35,35,37,37,39,39,42,42,43,43,46,46,47,47,50,50,51,51,54,54],"right_children":[2,4,6,8,-1,10,-1,-1,12,14,-1,-1,16,18,-1,20,-1,22,-1,-1,24,26,-1,-1,28,-1,30,-1,32,34,-1,36,-1,38,-1,40,-1,42,-1,44,-1,-1,46,48,-1,-1,50,52,-1,-1,54,56,-1,-1,58,-1,-1,-1,-1],"split_conditions":[-1.25E-1,1E0,1.2534E3,1.8411336E4,-0E0,2.335332E3,-0E0,-0E0,-8.274625E3,2.3630405E3,-0E0,-0E0,0E0,-4.6701694E3,-0E0,-9.95927E4,-0E0,6.3493887E4,-0E0,-0E0,2.6728395E1,-9.983151E-1,-0E0,-0E0,-1.0940976E4,-0E0,2.0769875E4,-0E0,1.1390625E4,6.4481074E4,-0E0,-5.1197654E-1,-0E0,7.077969E3,-0E0,1.1545064E5,-0E0,-3.3664941E3,-0E0,2.8982617E3,-0E0,-0E0,-2.7578612E5,-3.8183447E3,-0E0,-0E0,-8.532339E3,4.2147563E3,-0E0,-0E0,-1.953125E3,-1.7003455E2,-0E0,-0E0,3.869902E3,-0E0,-6.1843235E-2,2.3852982E-2,-0E0],"split_indices":[30,119,196,94,0,85,0,0,14,55,0,0,128,91,0,80,0,15,0,0,24,7,0,0,32,0,57,0,32,59,0,30,0,38,0,79,0,95,0,70,0,0,91,88,0,0,44,50,0,0,38,74,0,0,32,0,0,0,0],"split_type":[0,0,0,0,0,0,0,0,0,0,0,0,0,0,0,0,0,0,0,0,0,0,0,0,0,0,0,0,0,0,0,0,0,0,0,0,0,0,0,0,0,0,0,0,0,0,0,0,0,0,0,0,0,0,0,0,0,0,0],"sum_hessian":[3.222E3,1.466E3,1.756E3,1.224E3,2.42E2,1.01E3,7.46E2,4.19E2,8.05E2,7.84E2,2.26E2,1.14E2,6.91E2,7.31E2,5.3E1,2.97E2,3.94E2,5.34E2,1.97E2,1.5E1,2.82E2,5.26E2,8E0,2.1E1,2.61E2,9E0,5.17E2,2.9E1,2.32E2,5.04E2,1.3E1,2.11E2,2.1E1,5.01E2,3E0,2.07E2,4E0,4.94E2,7E0,2E2,7E0,6E0,4.88E2,1.94E2,6E0,7E0,4.81E2,1.8E2,1.4E1,4E0,4.77E2,1.77E2,3E0,7.4E1,4.03E2,3E0,1.74E2,3.73E2,3E1],"tree_param":{"num_deleted":"0","num_feature":"200","num_nodes":"59","size_leaf_vector":"1"}},{"base_weights":[-0E0,-0E0,1.3913809E-2,-0E0,-3.4035772E-2,-0E0,4.366402E-2,-0E0,-6.285906E-2,-0E0,7.538041E-2,-8.361145E-2,-0E0,9.82327E-2,-0E0,-1.15679696E-1,-0E0,1.2769175E-1,-0E0,-0E0,-1.3607928E-1,1.5223247E-1,-0E0,-1.5750892E-1,-0E0,1.7860298E-1,-0E0,-1.7403048E-1,-0E0,-0E0,2.0839752E-1,-1.9029136E-1,-0E0,-0E0,2.315951E-1,-0E0,-2.0087902E-1,-0E0,2.653828E-1,-0E0,-2.1260686E-1,2.788155E-1,-0E0,-0E0,-2.2462127E-1,-0E0,2.898495E-1,-0E0,-2.3300529E-1,-0E0,2.9822722E-1,-0E0,-2.4265622E-1,3.235613E-1,-0E0,-0E0,-3.0817255E-2,3.9468847E-2,-0E0],"categories":[],"categories_nodes":[],"categories_segments":[],"categories_sizes":[],"default_left":[0,0,0,0,0,0,0,0,0,0,0,0,0,0,0,0,0,0,0,0,0,0,0,0,0,0,0,0,0,0,0,0,0,0,0,0,0,0,0,0,0,0,0,0,0,0,0,0,0,0,0,0,0,0,0,0,0,0,0],"id":8,"left_children":[1,3,5,-1,7,-1,9,-1,11,-1,13,15,-1,17,-1,19,-1,21,-1,-1,23,25,-1,27,-1,29,-1,31,-1,-1,33,35,-1,-1,37,-1,39,-1,41,-1,43,45,-1,-1,47,-1,49,-1,51,-1,53,-1,55,57,-1,-1,-1,-1,-1],"loss_changes":[1.9533645E-1,1.783988E0,1.3527793E0,0E0,3.1985521E0,0E0,2.5146618E0,0E0,2.9521031E0,0E0,2.4217958E0,2.998281E0,0E0,2.630023E0,0E0,3.1774635E0,0E0,3.353406E0,0E0,0E0,3.2311478E0,3.672905E0,0E0,3.1624985E0,0E0,3.3589497E0,0E0,3.2502499E0,0E0,0E0,2.5982952E0,2.0712414E0,0E0,0E0,3.2559395E0,0E0,2.0639095E0,0E0,1.7764988E0,0E0,2.0302105E0,1.1816959E0,0E0,0E0,2.0580254E0,0E0,1.1266804E0,0E0,1.8206196E0,0E0,1.1310711E0,0E0,1.9305573E0,9.611778E-1,0E0,0E0,0E0,0E0,0E0],"parents":[2147483647,0,0,1,1,2,2,4,4,6,6,8,8,10,10,11,11,13,13,15,15,17,17,20,20,21,21,23,23,25,25,27,27,30,30,31,31,34,34,36,36,38,38,40,40,41,41,44,44,46,46,48,48,50,50,52,52,53,53],"right_children":[2,4,6,-1,8,-1,10,-1,12,-1,14,16,-1,18,-1,20,-1,22,-1,-1,24,26,-1,28,-1,30,-1,32,-1,-1,34,36,-1,-1,38,-1,40,-1,42,-1,44,46,-1,-1,48,-1,50,-1,52,-1,54,-1,56,58,-1,-1,-1,-1,-1],"split_conditions":[1.326491E2,1.5438294E4,4.8108345E1,-0E0,-3.9069893E3,-0E0,-1.1004976E3,-0E0,1E0,-0E0,1.6761695E4,1.2196152E3,-0E0,2.2480784E3,-0E0,-1.0940976E4,-0E0,2.6495554E3,-0E0,-0E0,5.6396826E3,2.1145222E9,-0E0,9.691992E-1,-0E0,0E0,-0E0,6.4223508E4,-0E0,-0E0,0E0,3.0116359E-2,-0E0,-0E0,-1.2545409E4,-0E0,2.5713254E3,-0E0,1E0,-0E0,1.1765076E2,0E0,-0E0,-0E0,-4.023467E4,-0E0,-3.2013072E4,-0E0,1.393587E1,-0E0,1E0,-0E0,0E0,7.077969E3,-0E0,-0E0,-3.0817255E-2,3.9468847E-2,-0E0],"split_indices":[35,49,26,0,60,0,61,0,154,0,64,63,0,29,0,35,0,50,0,0,39,16,0,5,0,138,0,75,0,0,124,5,0,0,52,0,45,0,107,0,41,111,0,0,81,0,64,0,24,0,180,0,124,37,0,0,0,0,0],"split_type":[0,0,0,0,0,0,0,0,0,0,0,0,0,0,0,0,0,0,0,0,0,0,0,0,0,0,0,0,0,0,0,0,0,0,0,0,0,0,0,0,0,0,0,0,0,0,0,0,0,0,0,0,0,0,0,0,0,0,0],"sum_hessian":[3.224E3,2.215E3,1.009E3,6.75E2,1.54E3,1.97E2,8.12E2,2.79E2,1.261E3,9.7E1,7.15E2,1.135E3,1.26E2,6.72E2,4.3E1,8.17E2,3.18E2,5.59E2,1.13E2,5.5E1,7.62E2,5.38E2,2.1E1,6.99E2,6.3E1,5.06E2,3.2E1,6.77E2,2.2E1,5.7E1,4.49E2,6.56E2,2.1E1,3.7E1,4.12E2,1.6E1,6.4E2,5.2E1,3.6E2,2.3E1,6.17E2,3.49E2,1.1E1,2.4E1,5.93E2,1.2E1,3.37E2,4E0,5.89E2,6E0,3.31E2,1.5E1,5.74E2,2.92E2,3.9E1,4.8E1,5.26E2,2.83E2,9E0],"tree_param":{"num_deleted":"0","num_feature":"200","num_nodes":"59","size_leaf_vector":"1"}},{"base_weights":[-0E0,-8.5298583E-4,2.3877064E-3,-2.8970433E-2,-0E0,2.9162938E-2,-0E0,-5.6431297E-2,-0E0,-0E0,6.2304128E-2,-8.0774456E-2,-0E0,-0E0,9.439183E-2,-0E0,-1.0767327E-1,1.16167895E-1,-0E0,-1.2488883E-1,-0E0,-0E0,1.3671777E-1,-0E0,-1.4800556E-1,1.5477176E-1,-0E0,-1.7510463E-1,-0E0,-0E0,1.8218325E-1,-2.0009366E-1,-0E0,2.0049411E-1,-0E0,-2.1335538E-1,-0E0,2.1192087E-1,-0E0,-0E0,-2.2694768E-1,-0E0,2.236199E-1,-0E0,-2.3793918E-1,-0E0,2.3172118E-1,-2.4797882E-1,-0E0,-0E0,2.3990221E-1,-2.587119E-1,-0E0,-0E0,2.5173476E-1,-3.2237444E-2,-0E0,3.0650362E-2,-0E0],"categories":[],"categories_nodes":[],"categories_segments":[],"categories_sizes":[],"default_left":[0,0,0,0,0,0,0,0,0,0,0,0,0,0,0,0,0,0,0,0,0,0,0,0,0,0,0,0,0,0,0,0,0,0,0,0,0,0,0,0,0,0,0,0,0,0,0,0,0,0,0,0,0,0,0,0,0,0,0],"id":9,"left_children":[1,3,5,7,-1,9,-1,11,-1,-1,13,15,-1,-1,17,-1,19,21,-1,23,-1,-1,25,-1,27,29,-1,31,-1,-1,33,35,-1,37,-1,39,-1,41,-1,-1,43,-1,45,-1,47,-1,49,51,-1,-1,53,55,-1,-1,57,-1,-1,-1,-1],"loss_changes":[1.1395913E-2,9.4150966E-1,1.0399516E0,1.7260858E0,0E0,2.2608402E0,0E0,2.0486193E0,0E0,0E0,3.2018976E0,2.1925225E0,0E0,0E0,3.0413685E0,0E0,2.1522393E0,3.0624857E0,0E0,2.5699139E0,0E0,0E0,2.4263687E0,0E0,2.1964989E0,2.249074E0,0E0,3.6679783E0,0E0,0E0,2.002613E0,2.0319252E0,0E0,1.8578377E0,0E0,2.1554089E0,0E0,1.9498787E0,0E0,0E0,1.8681526E0,0E0,1.4894714E0,0E0,1.8449497E0,0E0,1.5369205E0,1.7775211E0,0E0,0E0,1.5003948E0,1.4428749E0,0E0,0E0,1.1958122E0,0E0,0E0,0E0,0E0],"parents":[2147483647,0,0,1,1,2,2,3,3,5,5,7,7,10,10,11,11,14,14,16,16,17,17,19,19,22,22,24,24,25,25,27,27,30,30,31,31,33,33,35,35,37,37,40,40,42,42,44,44,46,46,47,47,50,50,51,51,54,54],"right_children":[2,4,6,8,-1,10,-1,12,-1,-1,14,16,-1,-1,18,-1,20,22,-1,24,-1,-1,26,-1,28,30,-1,32,-1,-1,34,36,-1,38,-1,40,-1,42,-1,-1,44,-1,46,-1,48,-1,50,52,-1,-1,54,56,-1,-1,58,-1,-1,-1,-1],"split_conditions":[-8.259364E1,2.9415704E2,2.015E3,2.875008E2,-0E0,-7.409187E1,-0E0,-9.5881464E2,-0E0,-0E0,0E0,-3.9887766E4,-0E0,-0E0,1.3144317E4,-0E0,6.8148334E2,-1.7277186E4,-0E0,4.9304358E2,-0E0,-0E0,1E0,-0E0,1.4428923E3,-1.0611927E3,-0E0,9.9223286E-1,-0E0,-0E0,4.913E3,7.0263E4,-0E0,4.251668E3,-0E0,2.1314328E0,-0E0,-3.4137277E4,-0E0,-0E0,-2.012354E4,-0E0,-9.99833E-1,-0E0,5.5261906E4,-0E0,-1.1494855E5,2.4389E4,-0E0,-0E0,-7.6858944E5,1E0,-0E0,-0E0,4.0353348E4,-3.2237444E-2,-0E0,3.0650362E-2,-0E0],"split_indices":[56,68,2,37,0,35,0,67,0,0,120,88,0,0,33,0,30,14,0,41,0,0,145,0,35,39,0,7,0,0,37,0,0,48,0,20,0,65,0,0,34,0,6,0,78,0,63,34,0,0,17,116,0,0,34,0,0,0,0],"split_type":[0,0,0,0,0,0,0,0,0,0,0,0,0,0,0,0,0,0,0,0,0,0,0,0,0,0,0,0,0,0,0,0,0,0,0,0,0,0,0,0,0,0,0,0,0,0,0,0,0,0,0,0,0,0,0,0,0,0,0],"sum_hessian":[3.208E3,1.386E3,1.822E3,1.123E3,2.63E2,1.235E3,5.87E2,8.38E2,2.85E2,3.82E2,8.53E2,7.23E2,1.15E2,1.22E2,7.31E2,1.27E2,5.96E2,7.08E2,2.3E1,5.81E2,1.5E1,3.3E1,6.75E2,5E1,5.31E2,6.28E2,4.7E1,4.51E2,8E1,1.07E2,5.21E2,4.37E2,1.4E1,4.8E2,4.1E1,4.29E2,8E0,4.71E2,9E0,8E0,4.21E2,9E0,4.62E2,5E0,4.16E2,4E0,4.58E2,4.13E2,3E0,4E0,4.54E2,4.06E2,7E0,1.8E1,4.36E2,3.85E2,2.1E1,4.29E2,7E0],"tree_param":{"num_deleted":"0","num_feature":"200","num_nodes":"59","size_leaf_vector":"1"}},{"base_weights":[-0E0],"categories":[],"categories_nodes":[],"categories_segments":[],"categories_sizes":[],"default_left":[0],"id":10,"left_children":[-1],"loss_changes":[0E0],"parents":[2147483647],"right_children":[-1],"split_conditions":[-0E0],"split_indices":[0],"split_type":[0],"sum_hessian":[3.223E3],"tree_param":{"num_deleted":"0","num_feature":"200","num_nodes":"1","size_leaf_vector":"1"}},{"base_weights":[-0E0,-0E0,1.683994E-3,-2.459816E-2,-0E0,-0E0,2.2132434E-2,-5.709679E-2,-0E0,3.8275782E-2,-0E0,-0E0,-7.471001E-2,5.603391E-2,-0E0,-9.5270626E-2,-0E0,7.056323E-2,-0E0,-0E0,-1.1575933E-1,-0E0,8.4426895E-2,-0E0,-1.3486122E-1,-0E0,9.6481495E-2,-0E0,-1.5781066E-1,-0E0,1.2250598E-1,-0E0,-1.7681557E-1,-0E0,1.4108752E-1,-0E0,-1.858413E-1,1.6281047E-1,-0E0,-0E0,-1.9267456E-1,-0E0,1.7363873E-1,-2.0949E-1,-0E0,-0E0,1.8269907E-1,-0E0,-2.1419859E-1,1.952055E-1,-0E0,-2.1907172E-1,-0E0,2.1948037E-1,-0E0,-0E0,-2.6970092E-2,2.720264E-2,-0E0],"categories":[],"categories_nodes":[],"categories_segments":[],"categories_sizes":[],"default_left":[0,0,0,0,0,0,0,0,0,0,0,0,0,0,0,0,0,0,0,0,0,0,0,0,0,0,0,0,0,0,0,0,0,0,0,0,0,0,0,0,0,0,0,0,0,0,0,0,0,0,0,0,0,0,0,0,0,0,0],"id":11,"left_children":[1,3,5,7,-1,-1,9,11,-1,13,-1,-1,15,17,-1,19,-1,21,-1,-1,23,-1,25,-1,27,-1,29,-1,31,-1,33,-1,35,-1,37,-1,39,41,-1,-1,43,-1,45,47,-1,-1,49,-1,51,53,-1,55,-1,57,-1,-1,-1,-1,-1],"loss_changes":[6.068689E-3,4.114473E-1,7.2722876E-1,1.6260798E0,0E0,0E0,1.3177522E0,1.2946801E0,0E0,1.7229886E0,0E0,0E0,1.3058805E0,1.7976513E0,0E0,1.6734166E0,0E0,1.8555827E0,0E0,0E0,1.927455E0,0E0,1.2577252E0,0E0,1.9717636E0,0E0,2.7658873E0,0E0,1.91961E0,0E0,1.7465858E0,0E0,1.0627985E0,0E0,1.6200838E0,0E0,8.395462E-1,1.3430634E0,0E0,0E0,1.546874E0,0E0,1.2965736E0,5.2469254E-1,0E0,0E0,1.6335068E0,0E0,4.5314026E-1,1.8639622E0,0E0,5.587635E-1,0E0,1.6975803E0,0E0,0E0,0E0,0E0,0E0],"parents":[2147483647,0,0,1,1,2,2,3,3,6,6,7,7,9,9,12,12,13,13,15,15,17,17,20,20,22,22,24,24,26,26,28,28,30,30,32,32,34,34,36,36,37,37,40,40,42,42,43,43,46,46,48,48,49,49,51,51,53,53],"right_children":[2,4,6,8,-1,-1,10,12,-1,14,-1,-1,16,18,-1,20,-1,22,-1,-1,24,-1,26,-1,28,-1,30,-1,32,-1,34,-1,36,-1,38,-1,40,42,-1,-1,44,-1,46,48,-1,-1,50,-1,52,54,-1,56,-1,58,-1,-1,-1,-1,-1],"split_conditions":[-1.2506223E3,4.091815E2,5.314362E2,9.657866E-1,-0E0,-0E0,1.5811123E4,-1.0940976E4,-0E0,1.7715503E3,-0E0,-0E0,-9.82375E2,1.6595E3,-0E0,-2.4306256E4,-0E0,0E0,-0E0,-0E0,-1.0940976E4,-0E0,0E0,-0E0,1E1,-0E0,4.5130833E1,-0E0,-2.1346254E4,-0E0,0E0,-0E0,-3.1750896E3,-0E0,8.391585E2,-0E0,-2.1249005E5,-1.0264056E3,-0E0,-0E0,7.3023286E3,-0E0,-9.938375E3,-2.0496793E4,-0E0,-0E0,4.9235305E4,-0E0,1.702191E5,6.4321533E2,-0E0,0E0,-0E0,1.6974496E4,-0E0,-0E0,-2.6970092E-2,2.720264E-2,-0E0],"split_indices":[84,61,40,7,0,0,59,34,0,36,0,0,67,199,0,61,0,115,0,0,28,0,155,0,0,0,26,0,64,0,176,0,69,0,52,0,77,84,0,0,82,0,13,61,0,0,84,0,83,93,0,118,0,34,0,0,0,0,0],"split_type":[0,0,0,0,0,0,0,0,0,0,0,0,0,0,0,0,0,0,0,0,0,0,0,0,0,0,0,0,0,0,0,0,0,0,0,0,0,0,0,0,0,0,0,0,0,0,0,0,0,0,0,0,0,0,0,0,0,0,0],"sum_hessian":[3.225E3,1.085E3,2.14E3,6.8E2,4.05E2,6.43E2,1.497E3,6.25E2,5.5E1,1.4E3,9.7E1,2.8E1,5.97E2,1.202E3,1.98E2,5.11E2,8.6E1,1.119E3,8.3E1,4E1,4.71E2,7.7E1,1.042E3,1.8E1,4.53E2,1.09E2,9.33E2,4.3E1,4.1E2,1.7E2,7.63E2,2.2E1,3.88E2,1E2,6.63E2,6E0,3.82E2,5.59E2,1.04E2,4E0,3.78E2,2.3E1,5.36E2,3.55E2,2.3E1,1.3E1,5.23E2,4E0,3.51E2,5.01E2,2.2E1,3.45E2,6E0,4.35E2,6.6E1,1.6E1,3.29E2,4.28E2,7E0],"tree_param":{"num_deleted":"0","num_feature":"200","num_nodes":"59","size_leaf_vector":"1"}},{"base_weights":[-0E0],"categories":[],"categories_nodes":[],"categories_segments":[],"categories_sizes":[],"default_left":[0],"id":12,"left_children":[-1],"loss_changes":[0E0],"parents":[2147483647],"right_children":[-1],"split_conditions":[-0E0],"split_indices":[0],"split_type":[0],"sum_hessian":[3.213E3],"tree_param":{"num_deleted":"0","num_feature":"200","num_nodes":"1","size_leaf_vector":"1"}},{"base_weights":[-0E0],"categories":[],"categories_nodes":[],"categories_segments":[],"categories_sizes":[],"default_left":[0],"id":13,"left_children":[-1],"loss_changes":[0E0],"parents":[2147483647],"right_children":[-1],"split_conditions":[-0E0],"split_indices":[0],"split_type":[0],"sum_hessian":[3.211E3],"tree_param":{"num_deleted":"0","num_feature":"200","num_nodes":"1","size_leaf_vector":"1"}},{"base_weights":[-0E0,1.7829305E-3,-0E0,-0E0,3.281806E-2,-1.1355452E-2,-0E0,-0E0,5.2982148E-2,-0E0,-4.643548E-2,-0E0,7.488791E-2,-0E0,-7.241285E-2,9.720328E-2,-0E0,-0E0,-1.1355072E-1,1.1931778E-1,-0E0,-0E0,-1.363505E-1,-0E0,1.3298135E-1,-1.543619E-1,-0E0,-0E0,1.4753635E-1,-0E0,-1.7431977E-1,-0E0,1.5898542E-1,-1.8883762E-1,-0E0,-0E0,1.685577E-1,-0E0,-2.0515572E-1,1.7770097E-1,-0E0,-2.197433E-1,-0E0,-0E0,1.846808E-1,-0E0,-2.306966E-1,1.9092801E-1,-0E0,-0E0,-2.401421E-1,-0E0,1.983411E-1,-0E0,-2.5415713E-1,2.4378676E-2,-0E0,-3.2170504E-2,-0E0],"categories":[],"categories_nodes":[],"categories_segments":[],"categories_sizes":[],"default_left":[0,0,0,0,0,0,0,0,0,0,0,0,0,0,0,0,0,0,0,0,0,0,0,0,0,0,0,0,0,0,0,0,0,0,0,0,0,0,0,0,0,0,0,0,0,0,0,0,0,0,0,0,0,0,0,0,0,0,0],"id":14,"left_children":[1,3,5,-1,7,9,-1,-1,11,-1,13,-1,15,-1,17,19,-1,-1,21,23,-1,-1,25,-1,27,29,-1,-1,31,-1,33,-1,35,37,-1,-1,39,-1,41,43,-1,45,-1,-1,47,-1,49,51,-1,-1,53,-1,55,-1,57,-1,-1,-1,-1],"loss_changes":[3.6588456E-3,7.577979E-1,1.6182761E-1,0E0,1.0014071E0,2.2682705E0,0E0,0E0,1.4225926E0,0E0,2.4202514E0,0E0,1.5198853E0,0E0,4.587888E0,1.9716854E0,0E0,0E0,2.7205772E0,1.4399457E0,0E0,0E0,3.1861582E0,0E0,1.4822636E0,3.495203E0,0E0,0E0,1.3454294E0,0E0,2.4129753E0,0E0,1.0450706E0,2.1061707E0,0E0,0E0,9.570923E-1,0E0,2.2811356E0,7.982931E-1,0E0,1.5554371E0,0E0,0E0,7.998266E-1,0E0,1.9265652E0,6.0063934E-1,0E0,0E0,1.7543526E0,0E0,6.246939E-1,0E0,1.6188698E0,0E0,0E0,0E0,0E0],"parents":[2147483647,0,0,1,1,2,2,4,4,5,5,8,8,10,10,12,12,14,14,15,15,18,18,19,19,22,22,24,24,25,25,28,28,30,30,32,32,33,33,36,36,38,38,39,39,41,41,44,44,46,46,47,47,50,50,52,52,54,54],"right_children":[2,4,6,-1,8,10,-1,-1,12,-1,14,-1,16,-1,18,20,-1,-1,22,24,-1,-1,26,-1,28,30,-1,-1,32,-1,34,-1,36,38,-1,-1,40,-1,42,44,-1,46,-1,-1,48,-1,50,52,-1,-1,54,-1,56,-1,58,-1,-1,-1,-1],"split_conditions":[7.688734E4,-5.3567126E2,1.3715738E1,-0E0,1.9228632E3,-3.7220663E2,-0E0,-0E0,-5.9572502E1,-0E0,2.8032065E3,-0E0,1E0,-0E0,-1.3984942E4,2.825642E3,-0E0,-0E0,0E0,1.4177025E4,-0E0,-0E0,2.181994E3,-0E0,-3.1429534E3,5.858866E0,-0E0,-0E0,-9.983151E-1,-0E0,9.8215E-1,-0E0,-4.960348E4,-7.6454585E3,-0E0,-0E0,2.1732701E2,-0E0,9.871958E-1,6.401172E-2,-0E0,-1.0360128E4,-0E0,-0E0,3.4784992E4,-0E0,-7.043153E2,0E0,-0E0,-0E0,0E0,-0E0,-1.9786107E2,-0E0,1E0,2.4378676E-2,-0E0,-3.2170504E-2,-0E0],"split_indices":[16,82,69,0,92,97,0,0,100,0,43,0,180,0,15,66,0,0,140,101,0,0,70,0,66,21,0,0,7,0,7,0,83,39,0,0,100,0,6,40,0,31,0,0,85,0,98,176,0,0,109,0,67,0,175,0,0,0,0],"split_type":[0,0,0,0,0,0,0,0,0,0,0,0,0,0,0,0,0,0,0,0,0,0,0,0,0,0,0,0,0,0,0,0,0,0,0,0,0,0,0,0,0,0,0,0,0,0,0,0,0,0,0,0,0,0,0,0,0,0,0],"sum_hessian":[3.206E3,1.151E3,2.055E3,4.44E2,7.07E2,1.255E3,8E2,7.9E1,6.28E2,1.28E2,1.127E3,6E1,5.68E2,2.02E2,9.25E2,4.98E2,7E1,1.93E2,7.32E2,4.69E2,2.9E1,7.8E1,6.54E2,1E1,4.59E2,6.44E2,1E1,1.8E1,4.41E2,2.4E1,6.2E2,8E0,4.33E2,5.96E2,2.4E1,1.1E1,4.22E2,4.1E1,5.55E2,4.1E2,1.2E1,5.31E2,2.4E1,7E0,4.03E2,2E1,5.11E2,3.99E2,4E0,6E0,5.05E2,1.4E1,3.85E2,2.7E1,4.78E2,3.71E2,1.4E1,4.39E2,3.9E1],"tree_param":{"num_deleted":"0","num_feature":"200","num_nodes":"59","size_leaf_vector":"1"}},{"base_weights":[-0E0,4.7104964E-3,-0E0,-0E0,2.6218273E-2,-3.8915355E-2,-0E0,4.7550123E-2,-0E0,-6.500142E-2,-0E0,-0E0,1.850623E-2,-0E0,7.188807E-2,-0E0,-8.749431E-2,4.2244736E-2,-0E0,-0E0,9.938023E-2,-1.1149551E-1,-0E0,-0E0,6.115039E-2,-0E0,1.2194686E-1,-1.3410212E-1,-0E0,-0E0,8.215712E-2,1.3527806E-1,-0E0,-1.5503606E-1,-0E0,1.0088752E-1,-0E0,-0E0,1.4757048E-1,-1.8066007E-1,-0E0,1.0955821E-1,-0E0,1.6716641E-1,-0E0,-0E0,-1.9618249E-1,1.2502433E-1,-0E0,-0E0,1.7753084E-1,-2.0819065E-1,-0E0,1.3357235E-1,-0E0,-0E0,1.8558055E-1,-0E0,-2.2473621E-1,1.4026684E-1,-0E0,1.9239652E-1,-0E0,-0E0,-2.3477343E-1,-0E0,1.4640114E-1,2.0045714E-1,-0E0,-2.4670406E-1,-0E0,-0E0,1.5178566E-1,-0E0,2.1098444E-1,-2.6007575E-1,-0E0,-0E0,1.5586151E-1,-0E0,2.5581794E-2,-3.1740572E-2,-0E0,-0E0,1.8904483E-2],"categories":[],"categories_nodes":[],"categories_segments":[],"categories_sizes":[],"default_left":[0,0,0,0,0,0,0,0,0,0,0,0,0,0,0,0,0,0,0,0,0,0,0,0,0,0,0,0,0,0,0,0,0,0,0,0,0,0,0,0,0,0,0,0,0,0,0,0,0,0,0,0,0,0,0,0,0,0,0,0,0,0,0,0,0,0,0,0,0,0,0,0,0,0,0,0,0,0,0,0,0,0,0,0,0],"id":15,"left_children":[1,3,5,-1,7,9,11,13,-1,15,-1,-1,17,-1,19,-1,21,23,-1,-1,25,27,-1,-1,29,-1,31,33,-1,-1,35,37,-1,39,-1,41,-1,-1,43,45,-1,47,-1,49,-1,-1,51,53,-1,-1,55,57,-1,59,-1,-1,61,-1,63,65,-1,67,-1,-1,69,-1,71,73,-1,75,-1,-1,77,-1,79,81,-1,-1,83,-1,-1,-1,-1,-1,-1],"loss_changes":[3.448136E-2,9.560589E-1,1.5628656E0,0E0,2.032436E0,1.9186863E0,1.5137643E-1,2.1449182E0,0E0,2.4206498E0,0E0,0E0,5.357014E-1,0E0,2.7431269E0,0E0,2.526185E0,6.7031354E-1,0E0,0E0,3.1678991E0,3.0090437E0,0E0,0E0,8.497908E-1,0E0,1.7311888E0,2.7919874E0,0E0,0E0,1.06005E0,1.6498499E0,0E0,2.4159927E0,0E0,4.89707E-1,0E0,0E0,1.8876362E0,2.2519875E0,0E0,5.2597785E-1,0E0,1.7432766E0,0E0,0E0,1.7773781E0,4.80783E-1,0E0,0E0,1.2989273E0,1.5480251E0,0E0,4.304433E-1,0E0,0E0,1.3023796E0,0E0,1.4781799E0,3.999462E-1,0E0,1.28796E0,0E0,0E0,1.861433E0,0E0,2.808261E-1,1.300911E0,0E0,1.425703E0,0E0,0E0,2.2257996E-1,0E0,1.011589E0,1.4743061E0,0E0,0E0,1.6490746E-1,0E0,0E0,0E0,0E0,0E0,0E0],"parents":[2147483647,0,0,1,1,2,2,4,4,5,5,6,6,7,7,9,9,12,12,14,14,16,16,17,17,20,20,21,21,24,24,26,26,27,27,30,30,31,31,33,33,35,35,38,38,39,39,41,41,43,43,46,46,47,47,50,50,51,51,53,53,56,56,58,58,59,59,61,61,64,64,66,66,67,67,69,69,72,72,74,74,75,75,78,78],"right_children":[2,4,6,-1,8,10,12,14,-1,16,-1,-1,18,-1,20,-1,22,24,-1,-1,26,28,-1,-1,30,-1,32,34,-1,-1,36,38,-1,40,-1,42,-1,-1,44,46,-1,48,-1,50,-1,-1,52,54,-1,-1,56,58,-1,60,-1,-1,62,-1,64,66,-1,68,-1,-1,70,-1,72,74,-1,76,-1,-1,78,-1,80,82,-1,-1,84,-1,-1,-1,-1,-1,-1],"split_conditions":[-5.489205E0,-1.2276067E4,7.115919E2,-0E0,2.3711226E3,2.5E1,-1.0381976E2,1.5435871E1,-0E0,-4.330786E3,-0E0,-0E0,2.017E3,-0E0,-7.8706777E3,-0E0,1E0,-3.1645024E3,-0E0,-0E0,-2.4404278E6,1.5412583E3,-0E0,-0E0,1.0985125E1,-0E0,2.2471605E4,1.0173693E4,-0E0,-0E0,1.7211809E6,0E0,-0E0,-1.5557626E3,-0E0,3.9364897E3,-0E0,-0E0,1.9024926E4,-9.850557E-1,-0E0,7.228202E3,-0E0,4.5391545E0,-0E0,-0E0,3.2461834E4,1.6289761E2,-0E0,-0E0,-5.1197654E-1,-3.2768375E1,-0E0,3.790718E4,-0E0,-0E0,1.89732E5,-0E0,-6.1765495E6,6.584919E2,-0E0,9.9410987E-1,-0E0,-0E0,9.912686E-1,-0E0,-3.999548E13,1.825189E3,-0E0,1.1576329E3,-0E0,-0E0,-5.0752E4,-0E0,-6.778865E3,5.042114E1,-0E0,-0E0,-2.4132211E0,-0E0,2.5581794E-2,-3.1740572E-2,-0E0,-0E0,1.8904483E-2],"split_indices":[65,55,82,0,66,1,30,23,0,30,0,0,2,0,83,0,151,86,0,0,11,52,0,0,22,0,82,63,0,0,92,112,0,88,0,50,0,0,83,6,0,64,0,21,0,0,39,26,0,0,40,39,0,76,0,0,0,0,11,43,0,6,0,0,6,0,18,92,0,61,0,0,63,0,95,21,0,0,65,0,0,0,0,0,0],"split_type":[0,0,0,0,0,0,0,0,0,0,0,0,0,0,0,0,0,0,0,0,0,0,0,0,0,0,0,0,0,0,0,0,0,0,0,0,0,0,0,0,0,0,0,0,0,0,0,0,0,0,0,0,0,0,0,0,0,0,0,0,0,0,0,0,0,0,0,0,0,0,0,0,0,0,0,0,0,0,0,0,0,0,0,0,0],"sum_hessian":[3.227E3,1.554E3,1.673E3,1.13E2,1.441E3,1.032E3,6.41E2,1.337E3,1.04E2,8.24E2,2.08E2,1.99E2,4.42E2,3.37E2,1E3,5.3E1,7.71E2,3.85E2,5.7E1,1.99E2,8.01E2,6.78E2,9.3E1,2.2E1,3.63E2,5.6E1,7.45E2,6.36E2,4.2E1,3.6E1,3.27E2,7E2,4.5E1,5.92E2,4.4E1,3.21E2,6E0,3.6E1,6.64E2,5.1E2,8.2E1,3.13E2,8E0,5.85E2,7.9E1,1.9E1,4.91E2,2.74E2,3.9E1,1.1E1,5.74E2,4.77E2,1.4E1,2.67E2,7E0,1.1E1,5.63E2,3.7E1,4.4E2,2.64E2,3E0,5.59E2,4E0,1E1,4.3E2,3E0,2.61E2,5.47E2,1.2E1,4.2E2,1E1,6E0,2.55E2,2.4E1,5.23E2,3.99E2,2.1E1,4E0,2.51E2,4E0,5.19E2,3.95E2,4E0,6E0,2.45E2],"tree_param":{"num_deleted":"0","num_feature":"200","num_nodes":"85","size_leaf_vector":"1"}},{"base_weights":[-0E0],"categories":[],"categories_nodes":[],"categories_segments":[],"categories_sizes":[],"default_left":[0],"id":16,"left_children":[-1],"loss_changes":[0E0],"parents":[2147483647],"right_children":[-1],"split_conditions":[-0E0],"split_indices":[0],"split_type":[0],"sum_hessian":[3.225E3],"tree_param":{"num_deleted":"0","num_feature":"200","num_nodes":"1","size_leaf_vector":"1"}},{"base_weights":[-0E0],"categories":[],"categories_nodes":[],"categories_segments":[],"categories_sizes":[],"default_left":[0],"id":17,"left_children":[-1],"loss_changes":[0E0],"parents":[2147483647],"right_children":[-1],"split_conditions":[-0E0],"split_indices":[0],"split_type":[0],"sum_hessian":[3.22E3],"tree_param":{"num_deleted":"0","num_feature":"200","num_nodes":"1","size_leaf_vector":"1"}},{"base_weights":[-0E0,-0E0,1.205766E-3,-1.5148405E-3,-0E0,2.1061778E-2,-0E0,-0E0,-4.8659407E-2,-0E0,4.3978482E-2,-0E0,-1.0114585E-1,6.0634274E-2,-0E0,-0E0,-1.3236348E-1,7.6843195E-2,-0E0,-0E0,-1.6640154E-1,-0E0,9.785211E-2,-1.9071175E-1,-0E0,1.1111166E-1,-0E0,-0E0,-2.268891E-1,1.2425471E-1,-0E0,-0E0,-2.4258024E-1,-0E0,1.3904688E-1,-0E0,-2.5890103E-1,1.561745E-1,-0E0,-0E0,-2.722673E-1,1.7624815E-1,-0E0,-0E0,-2.9299775E-1,1.8468627E-1,-0E0,-0E0,-3.44741E-1,2.2241177E-1,-0E0,-3.6344552E-1,-0E0,2.2698326E-1,-0E0,-4.6204265E-2,-0E0,2.7750757E-2,-0E0],"categories":[],"categories_nodes":[],"categories_segments":[],"categories_sizes":[],"default_left":[0,0,0,0,0,0,0,0,0,0,0,0,0,0,0,0,0,0,0,0,0,0,0,0,0,0,0,0,0,0,0,0,0,0,0,0,0,0,0,0,0,0,0,0,0,0,0,0,0,0,0,0,0,0,0,0,0,0,0],"id":18,"left_children":[1,3,5,7,-1,9,-1,-1,11,-1,13,-1,15,17,-1,-1,19,21,-1,-1,23,-1,25,27,-1,29,-1,-1,31,33,-1,-1,35,-1,37,-1,39,41,-1,-1,43,45,-1,-1,47,49,-1,-1,51,53,-1,55,-1,57,-1,-1,-1,-1,-1],"loss_changes":[3.7829739E-3,1.1588447E-3,7.827171E-1,7.517818E-1,0E0,1.6794862E0,0E0,0E0,2.1422858E0,0E0,1.6480341E0,0E0,1.8527188E0,1.9030485E0,0E0,0E0,1.9805961E0,1.8440351E0,0E0,0E0,1.3458147E0,0E0,1.5957804E0,2.0154629E0,0E0,1.4277763E0,0E0,0E0,1.2084532E0,2.2624826E0,0E0,0E0,1.0352011E0,0E0,2.121293E0,0E0,1.0839624E0,1.7853737E0,0E0,0E0,1.0049725E0,1.3309517E0,0E0,0E0,1.2653084E0,8.578987E-1,0E0,0E0,1.3522348E0,6.445999E-1,0E0,1.4354916E0,0E0,5.474701E-1,0E0,0E0,0E0,0E0,0E0],"parents":[2147483647,0,0,1,1,2,2,3,3,5,5,8,8,10,10,12,12,13,13,16,16,17,17,20,20,22,22,23,23,25,25,28,28,29,29,32,32,34,34,36,36,37,37,40,40,41,41,44,44,45,45,48,48,49,49,51,51,53,53],"right_children":[2,4,6,8,-1,10,-1,-1,12,-1,14,-1,16,18,-1,-1,20,22,-1,-1,24,-1,26,28,-1,30,-1,-1,32,34,-1,-1,36,-1,38,-1,40,42,-1,-1,44,46,-1,-1,48,50,-1,-1,52,54,-1,56,-1,58,-1,-1,-1,-1,-1],"split_conditions":[-2.527449E3,1.4428923E3,3.339553E1,3.0006546E1,-0E0,1.5435871E1,-0E0,-0E0,-7.880628E3,-0E0,2.685633E3,-0E0,-3.4268805E4,1.718E3,-0E0,-0E0,5.47293E0,-2.1914473E3,-0E0,-0E0,1.4247744E4,-0E0,2.018E3,-1.325382E4,-0E0,9.6825075E-1,-0E0,-0E0,9.064665E0,-1.5625E4,-0E0,-0E0,-3.528751E4,-0E0,-2.9786682E3,-0E0,-5.798053E4,9.3993753E-1,-0E0,-0E0,0E0,6.4481074E4,-0E0,-0E0,1.2487089E4,2.015E3,-0E0,-0E0,4.574377E3,1E0,-0E0,9.778786E-1,-0E0,1.9678088E4,-0E0,-4.6204265E-2,-0E0,2.7750757E-2,-0E0],"split_indices":[63,35,97,24,0,23,0,0,35,0,37,0,60,0,0,0,19,64,0,0,64,0,2,58,0,6,0,0,22,29,0,0,30,0,91,0,81,7,0,0,146,64,0,0,47,2,0,0,37,107,0,7,0,63,0,0,0,0,0],"split_type":[0,0,0,0,0,0,0,0,0,0,0,0,0,0,0,0,0,0,0,0,0,0,0,0,0,0,0,0,0,0,0,0,0,0,0,0,0,0,0,0,0,0,0,0,0,0,0,0,0,0,0,0,0,0,0,0,0,0,0],"sum_hessian":[3.214E3,6.12E2,2.602E3,5.05E2,1.07E2,1.773E3,8.29E2,1.87E2,3.18E2,4.98E2,1.275E3,3.5E1,2.83E2,1.119E3,1.56E2,1.2E1,2.71E2,1.019E3,1E2,2.8E1,2.43E2,1.98E2,8.21E2,2.22E2,2.1E1,7.66E2,5.5E1,2.6E1,1.96E2,7.05E2,6.1E1,4E0,1.92E2,2.5E1,6.8E2,8E0,1.84E2,6.26E2,5.4E1,3E0,1.81E2,5.49E2,7.7E1,1.3E1,1.68E2,5.39E2,1E1,3.6E1,1.32E2,3.89E2,1.5E2,1.29E2,3E0,3.86E2,3E0,1.21E2,8E0,3.71E2,1.5E1],"tree_param":{"num_deleted":"0","num_feature":"200","num_nodes":"59","size_leaf_vector":"1"}},{"base_weights":[-0E0],"categories":[],"categories_nodes":[],"categories_segments":[],"categories_sizes":[],"default_left":[0],"id":19,"left_children":[-1],"loss_changes":[0E0],"parents":[2147483647],"right_children":[-1],"split_conditions":[-0E0],"split_indices":[0],"split_type":[0],"sum_hessian":[3.218E3],"tree_param":{"num_deleted":"0","num_feature":"200","num_nodes":"1","size_leaf_vector":"1"}},{"base_weights":[-0E0],"categories":[],"categories_nodes":[],"categories_segments":[],"categories_sizes":[],"default_left":[0],"id":20,"left_children":[-1],"loss_changes":[0E0],"parents":[2147483647],"right_children":[-1],"split_conditions":[-0E0],"split_indices":[0],"split_type":[0],"sum_hessian":[3.223E3],"tree_param":{"num_deleted":"0","num_feature":"200","num_nodes":"1","size_leaf_vector":"1"}},{"base_weights":[-0E0],"categories":[],"categories_nodes":[],"categories_segments":[],"categories_sizes":[],"default_left":[0],"id":21,"left_children":[-1],"loss_changes":[0E0],"parents":[2147483647],"right_children":[-1],"split_conditions":[-0E0],"split_indices":[0],"split_type":[0],"sum_hessian":[3.209E3],"tree_param":{"num_deleted":"0","num_feature":"200","num_nodes":"1","size_leaf_vector":"1"}},{"base_weights":[-0E0],"categories":[],"categories_nodes":[],"categories_segments":[],"categories_sizes":[],"default_left":[0],"id":22,"left_children":[-1],"loss_changes":[0E0],"parents":[2147483647],"right_children":[-1],"split_conditions":[-0E0],"split_indices":[0],"split_type":[0],"sum_hessian":[3.226E3],"tree_param":{"num_deleted":"0","num_feature":"200","num_nodes":"1","size_leaf_vector":"1"}},{"base_weights":[-0E0],"categories":[],"categories_nodes":[],"categories_segments":[],"categories_sizes":[],"default_left":[0],"id":23,"left_children":[-1],"loss_changes":[0E0],"parents":[2147483647],"right_children":[-1],"split_conditions":[-0E0],"split_indices":[0],"split_type":[0],"sum_hessian":[3.217E3],"tree_param":{"num_deleted":"0","num_feature":"200","num_nodes":"1","size_leaf_vector":"1"}},{"base_weights":[-0E0],"categories":[],"categories_nodes":[],"categories_segments":[],"categories_sizes":[],"default_left":[0],"id":24,"left_children":[-1],"loss_changes":[0E0],"parents":[2147483647],"right_children":[-1],"split_conditions":[-0E0],"split_indices":[0],"split_type":[0],"sum_hessian":[3.224E3],"tree_param":{"num_deleted":"0","num_feature":"200","num_nodes":"1","size_leaf_vector":"1"}},{"base_weights":[-0E0],"categories":[],"categories_nodes":[],"categories_segments":[],"categories_sizes":[],"default_left":[0],"id":25,"left_children":[-1],"loss_changes":[0E0],"parents":[2147483647],"right_children":[-1],"split_conditions":[-0E0],"split_indices":[0],"split_type":[0],"sum_hessian":[3.225E3],"tree_param":{"num_deleted":"0","num_feature":"200","num_nodes":"1","size_leaf_vector":"1"}},{"base_weights":[-0E0],"categories":[],"categories_nodes":[],"categories_segments":[],"categories_sizes":[],"default_left":[0],"id":26,"left_children":[-1],"loss_changes":[0E0],"parents":[2147483647],"right_children":[-1],"split_conditions":[-0E0],"split_indices":[0],"split_type":[0],"sum_hessian":[3.224E3],"tree_param":{"num_deleted":"0","num_feature":"200","num_nodes":"1","size_leaf_vector":"1"}},{"base_weights":[-0E0],"categories":[],"categories_nodes":[],"categories_segments":[],"categories_sizes":[],"default_left":[0],"id":27,"left_children":[-1],"loss_changes":[0E0],"parents":[2147483647],"right_children":[-1],"split_conditions":[-0E0],"split_indices":[0],"split_type":[0],"sum_hessian":[3.222E3],"tree_param":{"num_deleted":"0","num_feature":"200","num_nodes":"1","size_leaf_vector":"1"}},{"base_weights":[-0E0,2.2356513E-4,-0E0,2.9156951E-2,-0E0,-0E0,6.4158216E-2,-0E0,1.0404652E-1,-0E0,1.2333513E-1,-0E0,1.3826606E-1,-0E0,1.6273029E-1,1.849511E-1,-0E0,2.0831181E-1,-0E0,-0E0,2.1723227E-1,2.2890072E-1,-0E0,-0E0,2.4700852E-1,-0E0,2.5222456E-1,-0E0,2.589656E-1,-0E0,3.164287E-2],"categories":[],"categories_nodes":[],"categories_segments":[],"categories_sizes":[],"default_left":[0,0,0,0,0,0,0,0,0,0,0,0,0,0,0,0,0,0,0,0,0,0,0,0,0,0,0,0,0,0,0],"id":28,"left_children":[1,3,-1,5,-1,-1,7,-1,9,-1,11,-1,13,-1,15,17,-1,19,-1,-1,21,23,-1,-1,25,-1,27,-1,29,-1,-1],"loss_changes":[1.419471E-4,1.0982232E0,0E0,3.1660972E0,0E0,0E0,2.46911E0,0E0,2.0130706E0,0E0,1.7297497E0,0E0,1.943265E0,0E0,2.2208977E0,2.4132128E0,0E0,1.3502789E0,0E0,0E0,1.3490696E0,1.5404949E0,0E0,0E0,7.179489E-1,0E0,7.228584E-1,0E0,8.265381E-1,0E0,0E0],"parents":[2147483647,0,0,1,1,3,3,6,6,8,8,10,10,12,12,14,14,15,15,17,17,20,20,21,21,24,24,26,26,28,28],"right_children":[2,4,-1,6,-1,-1,8,-1,10,-1,12,-1,14,-1,16,18,-1,20,-1,-1,22,24,-1,-1,26,-1,28,-1,30,-1,-1],"split_conditions":[1.4815347E12,1.1955E3,-0E0,0E0,-0E0,-0E0,-1.06875E2,-0E0,-1.3567278E4,-0E0,2.1597363E-1,-0E0,1.5294205E1,-0E0,1.151015E4,9.6825075E-1,-0E0,-7.1891113E3,-0E0,-0E0,1E0,7.674043E2,-0E0,-0E0,-7.694351E3,-0E0,2.3594282E0,-0E0,5.3633347E0,-0E0,3.164287E-2],"split_indices":[12,198,0,131,0,0,61,0,83,0,40,0,24,0,77,6,0,28,0,0,118,89,0,0,42,0,19,0,21,0,0],"split_type":[0,0,0,0,0,0,0,0,0,0,0,0,0,0,0,0,0,0,0,0,0,0,0,0,0,0,0,0,0,0,0],"sum_hessian":[3.23E3,2.84E3,3.9E2,1.292E3,1.548E3,2.56E2,1.036E3,4.14E2,6.22E2,4.7E1,5.75E2,2.7E1,5.48E2,7.9E1,4.69E2,4.28E2,4.1E1,3.93E2,3.5E1,3E0,3.9E2,3.77E2,1.3E1,2.8E1,3.49E2,3E0,3.46E2,7E0,3.39E2,1E1,3.29E2],"tree_param":{"num_deleted":"0","num_feature":"200","num_nodes":"31","size_leaf_vector":"1"}},{"base_weights":[-0E0],"categories":[],"categories_nodes":[],"categories_segments":[],"categories_sizes":[],"default_left":[0],"id":29,"left_children":[-1],"loss_changes":[0E0],"parents":[2147483647],"right_children":[-1],"split_conditions":[-0E0],"split_indices":[0],"split_type":[0],"sum_hessian":[3.233E3],"tree_param":{"num_deleted":"0","num_feature":"200","num_nodes":"1","size_leaf_vector":"1"}},{"base_weights":[-0E0],"categories":[],"categories_nodes":[],"categories_segments":[],"categories_sizes":[],"default_left":[0],"id":30,"left_children":[-1],"loss_changes":[0E0],"parents":[2147483647],"right_children":[-1],"split_conditions":[-0E0],"split_indices":[0],"split_type":[0],"sum_hessian":[3.215E3],"tree_param":{"num_deleted":"0","num_feature":"200","num_nodes":"1","size_leaf_vector":"1"}},{"base_weights":[-0E0],"categories":[],"categories_nodes":[],"categories_segments":[],"categories_sizes":[],"default_left":[0],"id":31,"left_children":[-1],"loss_changes":[0E0],"parents":[2147483647],"right_children":[-1],"split_conditions":[-0E0],"split_indices":[0],"split_type":[0],"sum_hessian":[3.22E3],"tree_param":{"num_deleted":"0","num_feature":"200","num_nodes":"1","size_leaf_vector":"1"}},{"base_weights":[-0E0],"categories":[],"categories_nodes":[],"categories_segments":[],"categories_sizes":[],"default_left":[0],"id":32,"left_children":[-1],"loss_changes":[0E0],"parents":[2147483647],"right_children":[-1],"split_conditions":[-0E0],"split_indices":[0],"split_type":[0],"sum_hessian":[3.211E3],"tree_param":{"num_deleted":"0","num_feature":"200","num_nodes":"1","size_leaf_vector":"1"}},{"base_weights":[-0E0],"categories":[],"categories_nodes":[],"categories_segments":[],"categories_sizes":[],"default_left":[0],"id":33,"left_children":[-1],"loss_changes":[0E0],"parents":[2147483647],"right_children":[-1],"split_conditions":[-0E0],"split_indices":[0],"split_type":[0],"sum_hessian":[3.222E3],"tree_param":{"num_deleted":"0","num_feature":"200","num_nodes":"1","size_leaf_vector":"1"}},{"base_weights":[-0E0],"categories":[],"categories_nodes":[],"categories_segments":[],"categories_sizes":[],"default_left":[0],"id":34,"left_children":[-1],"loss_changes":[0E0],"parents":[2147483647],"right_children":[-1],"split_conditions":[-0E0],"split_indices":[0],"split_type":[0],"sum_hessian":[3.224E3],"tree_param":{"num_deleted":"0","num_feature":"200","num_nodes":"1","size_leaf_vector":"1"}},{"base_weights":[-0E0],"categories":[],"categories_nodes":[],"categories_segments":[],"categories_sizes":[],"default_left":[0],"id":35,"left_children":[-1],"loss_changes":[0E0],"parents":[2147483647],"right_children":[-1],"split_conditions":[-0E0],"split_indices":[0],"split_type":[0],"sum_hessian":[3.23E3],"tree_param":{"num_deleted":"0","num_feature":"200","num_nodes":"1","size_leaf_vector":"1"}},{"base_weights":[-0E0],"categories":[],"categories_nodes":[],"categories_segments":[],"categories_sizes":[],"default_left":[0],"id":36,"left_children":[-1],"loss_changes":[0E0],"parents":[2147483647],"right_children":[-1],"split_conditions":[-0E0],"split_indices":[0],"split_type":[0],"sum_hessian":[3.231E3],"tree_param":{"num_deleted":"0","num_feature":"200","num_nodes":"1","size_leaf_vector":"1"}},{"base_weights":[-0E0],"categories":[],"categories_nodes":[],"categories_segments":[],"categories_sizes":[],"default_left":[0],"id":37,"left_children":[-1],"loss_changes":[0E0],"parents":[2147483647],"right_children":[-1],"split_conditions":[-0E0],"split_indices":[0],"split_type":[0],"sum_hessian":[3.219E3],"tree_param":{"num_deleted":"0","num_feature":"200","num_nodes":"1","size_leaf_vector":"1"}},{"base_weights":[-0E0],"categories":[],"categories_nodes":[],"categories_segments":[],"categories_sizes":[],"default_left":[0],"id":38,"left_children":[-1],"loss_changes":[0E0],"parents":[2147483647],"right_children":[-1],"split_conditions":[-0E0],"split_indices":[0],"split_type":[0],"sum_hessian":[3.216E3],"tree_param":{"num_deleted":"0","num_feature":"200","num_nodes":"1","size_leaf_vector":"1"}},{"base_weights":[-0E0],"categories":[],"categories_nodes":[],"categories_segments":[],"categories_sizes":[],"default_left":[0],"id":39,"left_children":[-1],"loss_changes":[0E0],"parents":[2147483647],"right_children":[-1],"split_conditions":[-0E0],"split_indices":[0],"split_type":[0],"sum_hessian":[3.212E3],"tree_param":{"num_deleted":"0","num_feature":"200","num_nodes":"1","size_leaf_vector":"1"}},{"base_weights":[-0E0],"categories":[],"categories_nodes":[],"categories_segments":[],"categories_sizes":[],"default_left":[0],"id":40,"left_children":[-1],"loss_changes":[0E0],"parents":[2147483647],"right_children":[-1],"split_conditions":[-0E0],"split_indices":[0],"split_type":[0],"sum_hessian":[3.221E3],"tree_param":{"num_deleted":"0","num_feature":"200","num_nodes":"1","size_leaf_vector":"1"}},{"base_weights":[-0E0],"categories":[],"categories_nodes":[],"categories_segments":[],"categories_sizes":[],"default_left":[0],"id":41,"left_children":[-1],"loss_changes":[0E0],"parents":[2147483647],"right_children":[-1],"split_conditions":[-0E0],"split_indices":[0],"split_type":[0],"sum_hessian":[3.219E3],"tree_param":{"num_deleted":"0","num_feature":"200","num_nodes":"1","size_leaf_vector":"1"}},{"base_weights":[-0E0],"categories":[],"categories_nodes":[],"categories_segments":[],"categories_sizes":[],"default_left":[0],"id":42,"left_children":[-1],"loss_changes":[0E0],"parents":[2147483647],"right_children":[-1],"split_conditions":[-0E0],"split_indices":[0],"split_type":[0],"sum_hessian":[3.225E3],"tree_param":{"num_deleted":"0","num_feature":"200","num_nodes":"1","size_leaf_vector":"1"}},{"base_weights":[-0E0],"categories":[],"categories_nodes":[],"categories_segments":[],"categories_sizes":[],"default_left":[0],"id":43,"left_children":[-1],"loss_changes":[0E0],"parents":[2147483647],"right_children":[-1],"split_conditions":[-0E0],"split_indices":[0],"split_type":[0],"sum_hessian":[3.215E3],"tree_param":{"num_deleted":"0","num_feature":"200","num_nodes":"1","size_leaf_vector":"1"}},{"base_weights":[-0E0],"categories":[],"categories_nodes":[],"categories_segments":[],"categories_sizes":[],"default_left":[0],"id":44,"left_children":[-1],"loss_changes":[0E0],"parents":[2147483647],"right_children":[-1],"split_conditions":[-0E0],"split_indices":[0],"split_type":[0],"sum_hessian":[3.232E3],"tree_param":{"num_deleted":"0","num_feature":"200","num_nodes":"1","size_leaf_vector":"1"}},{"base_weights":[-0E0],"categories":[],"categories_nodes":[],"categories_segments":[],"categories_sizes":[],"default_left":[0],"id":45,"left_children":[-1],"loss_changes":[0E0],"parents":[2147483647],"right_children":[-1],"split_conditions":[-0E0],"split_indices":[0],"split_type":[0],"sum_hessian":[3.215E3],"tree_param":{"num_deleted":"0","num_feature":"200","num_nodes":"1","size_leaf_vector":"1"}},{"base_weights":[-0E0],"categories":[],"categories_nodes":[],"categories_segments":[],"categories_sizes":[],"default_left":[0],"id":46,"left_children":[-1],"loss_changes":[0E0],"parents":[2147483647],"right_children":[-1],"split_conditions":[-0E0],"split_indices":[0],"split_type":[0],"sum_hessian":[3.219E3],"tree_param":{"num_deleted":"0","num_feature":"200","num_nodes":"1","size_leaf_vector":"1"}},{"base_weights":[-0E0],"categories":[],"categories_nodes":[],"categories_segments":[],"categories_sizes":[],"default_left":[0],"id":47,"left_children":[-1],"loss_changes":[0E0],"parents":[2147483647],"right_children":[-1],"split_conditions":[-0E0],"split_indices":[0],"split_type":[0],"sum_hessian":[3.226E3],"tree_param":{"num_deleted":"0","num_feature":"200","num_nodes":"1","size_leaf_vector":"1"}},{"base_weights":[-0E0],"categories":[],"categories_nodes":[],"categories_segments":[],"categories_sizes":[],"default_left":[0],"id":48,"left_children":[-1],"loss_changes":[0E0],"parents":[2147483647],"right_children":[-1],"split_conditions":[-0E0],"split_indices":[0],"split_type":[0],"sum_hessian":[3.224E3],"tree_param":{"num_deleted":"0","num_feature":"200","num_nodes":"1","size_leaf_vector":"1"}},{"base_weights":[-0E0],"categories":[],"categories_nodes":[],"categories_segments":[],"categories_sizes":[],"default_left":[0],"id":49,"left_children":[-1],"loss_changes":[0E0],"parents":[2147483647],"right_children":[-1],"split_conditions":[-0E0],"split_indices":[0],"split_type":[0],"sum_hessian":[3.227E3],"tree_param":{"num_deleted":"0","num_feature":"200","num_nodes":"1","size_leaf_vector":"1"}},{"base_weights":[-0E0],"categories":[],"categories_nodes":[],"categories_segments":[],"categories_sizes":[],"default_left":[0],"id":50,"left_children":[-1],"loss_changes":[0E0],"parents":[2147483647],"right_children":[-1],"split_conditions":[-0E0],"split_indices":[0],"split_type":[0],"sum_hessian":[3.225E3],"tree_param":{"num_deleted":"0","num_feature":"200","num_nodes":"1","size_leaf_vector":"1"}},{"base_weights":[-0E0],"categories":[],"categories_nodes":[],"categories_segments":[],"categories_sizes":[],"default_left":[0],"id":51,"left_children":[-1],"loss_changes":[0E0],"parents":[2147483647],"right_children":[-1],"split_conditions":[-0E0],"split_indices":[0],"split_type":[0],"sum_hessian":[3.223E3],"tree_param":{"num_deleted":"0","num_feature":"200","num_nodes":"1","size_leaf_vector":"1"}},{"base_weights":[-0E0],"categories":[],"categories_nodes":[],"categories_segments":[],"categories_sizes":[],"default_left":[0],"id":52,"left_children":[-1],"loss_changes":[0E0],"parents":[2147483647],"right_children":[-1],"split_conditions":[-0E0],"split_indices":[0],"split_type":[0],"sum_hessian":[3.226E3],"tree_param":{"num_deleted":"0","num_feature":"200","num_nodes":"1","size_leaf_vector":"1"}},{"base_weights":[-0E0],"categories":[],"categories_nodes":[],"categories_segments":[],"categories_sizes":[],"default_left":[0],"id":53,"left_children":[-1],"loss_changes":[0E0],"parents":[2147483647],"right_children":[-1],"split_conditions":[-0E0],"split_indices":[0],"split_type":[0],"sum_hessian":[3.22E3],"tree_param":{"num_deleted":"0","num_feature":"200","num_nodes":"1","size_leaf_vector":"1"}},{"base_weights":[-0E0],"categories":[],"categories_nodes":[],"categories_segments":[],"categories_sizes":[],"default_left":[0],"id":54,"left_children":[-1],"loss_changes":[0E0],"parents":[2147483647],"right_children":[-1],"split_conditions":[-0E0],"split_indices":[0],"split_type":[0],"sum_hessian":[3.229E3],"tree_param":{"num_deleted":"0","num_feature":"200","num_nodes":"1","size_leaf_vector":"1"}},{"base_weights":[-0E0],"categories":[],"categories_nodes":[],"categories_segments":[],"categories_sizes":[],"default_left":[0],"id":55,"left_children":[-1],"loss_changes":[0E0],"parents":[2147483647],"right_children":[-1],"split_conditions":[-0E0],"split_indices":[0],"split_type":[0],"sum_hessian":[3.232E3],"tree_param":{"num_deleted":"0","num_feature":"200","num_nodes":"1","size_leaf_vector":"1"}},{"base_weights":[-0E0],"categories":[],"categories_nodes":[],"categories_segments":[],"categories_sizes":[],"default_left":[0],"id":56,"left_children":[-1],"loss_changes":[0E0],"parents":[2147483647],"right_children":[-1],"split_conditions":[-0E0],"split_indices":[0],"split_type":[0],"sum_hessian":[3.231E3],"tree_param":{"num_deleted":"0","num_feature":"200","num_nodes":"1","size_leaf_vector":"1"}},{"base_weights":[-0E0],"categories":[],"categories_nodes":[],"categories_segments":[],"categories_sizes":[],"default_left":[0],"id":57,"left_children":[-1],"loss_changes":[0E0],"parents":[2147483647],"right_children":[-1],"split_conditions":[-0E0],"split_indices":[0],"split_type":[0],"sum_hessian":[3.219E3],"tree_param":{"num_deleted":"0","num_feature":"200","num_nodes":"1","size_leaf_vector":"1"}},{"base_weights":[-0E0],"categories":[],"categories_nodes":[],"categories_segments":[],"categories_sizes":[],"default_left":[0],"id":58,"left_children":[-1],"loss_changes":[0E0],"parents":[2147483647],"right_children":[-1],"split_conditions":[-0E0],"split_indices":[0],"split_type":[0],"sum_hessian":[3.214E3],"tree_param":{"num_deleted":"0","num_feature":"200","num_nodes":"1","size_leaf_vector":"1"}},{"base_weights":[-0E0],"categories":[],"categories_nodes":[],"categories_segments":[],"categories_sizes":[],"default_left":[0],"id":59,"left_children":[-1],"loss_changes":[0E0],"parents":[2147483647],"right_children":[-1],"split_conditions":[-0E0],"split_indices":[0],"split_type":[0],"sum_hessian":[3.217E3],"tree_param":{"num_deleted":"0","num_feature":"200","num_nodes":"1","size_leaf_vector":"1"}},{"base_weights":[-0E0],"categories":[],"categories_nodes":[],"categories_segments":[],"categories_sizes":[],"default_left":[0],"id":60,"left_children":[-1],"loss_changes":[0E0],"parents":[2147483647],"right_children":[-1],"split_conditions":[-0E0],"split_indices":[0],"split_type":[0],"sum_hessian":[3.225E3],"tree_param":{"num_deleted":"0","num_feature":"200","num_nodes":"1","size_leaf_vector":"1"}},{"base_weights":[-0E0],"categories":[],"categories_nodes":[],"categories_segments":[],"categories_sizes":[],"default_left":[0],"id":61,"left_children":[-1],"loss_changes":[0E0],"parents":[2147483647],"right_children":[-1],"split_conditions":[-0E0],"split_indices":[0],"split_type":[0],"sum_hessian":[3.213E3],"tree_param":{"num_deleted":"0","num_feature":"200","num_nodes":"1","size_leaf_vector":"1"}},{"base_weights":[-0E0],"categories":[],"categories_nodes":[],"categories_segments":[],"categories_sizes":[],"default_left":[0],"id":62,"left_children":[-1],"loss_changes":[0E0],"parents":[2147483647],"right_children":[-1],"split_conditions":[-0E0],"split_indices":[0],"split_type":[0],"sum_hessian":[3.215E3],"tree_param":{"num_deleted":"0","num_feature":"200","num_nodes":"1","size_leaf_vector":"1"}},{"base_weights":[-0E0,-1.7879286E-3,-0E0,-2.635078E-2,-0E0,-5.0055187E-2,-0E0,-0E0,-7.337459E-2,-0E0,-9.786059E-2,-0E0,-1.13758184E-1,-0E0,-1.2766641E-1,-1.5040487E-1,-0E0,-1.7086737E-1,-0E0,-0E0,-1.8915229E-1,-0E0,-2.1426915E-1,-0E0,-2.4055107E-1,-2.5285712E-1,-0E0,-0E0,-2.6245248E-1,-0E0,-3.2388203E-2],"categories":[],"categories_nodes":[],"categories_segments":[],"categories_sizes":[],"default_left":[0,0,0,0,0,0,0,0,0,0,0,0,0,0,0,0,0,0,0,0,0,0,0,0,0,0,0,0,0,0,0],"id":63,"left_children":[1,3,-1,5,-1,7,-1,-1,9,-1,11,-1,13,-1,15,17,-1,19,-1,-1,21,-1,23,-1,25,27,-1,-1,29,-1,-1],"loss_changes":[8.653437E-3,1.2134265E0,0E0,2.3683329E0,0E0,2.70867E0,0E0,0E0,3.4404163E0,0E0,3.0331945E0,0E0,2.8577728E0,0E0,2.8966446E0,2.756525E0,0E0,2.902687E0,0E0,0E0,2.6258583E0,0E0,2.3516846E0,0E0,2.229063E0,2.0145035E0,0E0,0E0,1.6302948E0,0E0,0E0],"parents":[2147483647,0,0,1,1,3,3,5,5,8,8,10,10,12,12,14,14,15,15,17,17,20,20,22,22,24,24,25,25,28,28],"right_children":[2,4,-1,6,-1,8,-1,-1,10,-1,12,-1,14,-1,16,18,-1,20,-1,-1,22,-1,24,-1,26,28,-1,-1,30,-1,-1],"split_conditions":[1.2596864E3,-4.580645E3,-0E0,7.8544336E3,-0E0,-2.5227034E2,-0E0,-0E0,5.000243E3,-0E0,-6.3296515E2,-0E0,6.416E2,-0E0,1.2772919E4,5.4517534E3,-0E0,0E0,-0E0,-0E0,-9.317E3,-0E0,-2.2831914E4,-0E0,7.0263E4,-2.1058875E2,-0E0,-0E0,3.596488E1,-0E0,-3.2388203E-2],"split_indices":[35,88,0,79,0,68,0,0,45,0,98,0,197,0,86,29,0,105,0,0,65,0,15,0,0,73,0,0,26,0,0],"split_type":[0,0,0,0,0,0,0,0,0,0,0,0,0,0,0,0,0,0,0,0,0,0,0,0,0,0,0,0,0,0,0],"sum_hessian":[3.222E3,2.707E3,5.15E2,1.76E3,9.47E2,1.433E3,3.27E2,2.63E2,1.17E3,1.53E2,1.017E3,3E1,9.87E2,2.8E1,9.59E2,8.19E2,1.4E2,7.29E2,9E1,5.3E1,6.76E2,9.2E1,5.84E2,8E1,5.04E2,4.91E2,1.3E1,6E0,4.85E2,1.8E1,4.67E2],"tree_param":{"num_deleted":"0","num_feature":"200","num_nodes":"31","size_leaf_vector":"1"}},{"base_weights":[-0E0],"categories":[],"categories_nodes":[],"categories_segments":[],"categories_sizes":[],"default_left":[0],"id":64,"left_children":[-1],"loss_changes":[0E0],"parents":[2147483647],"right_children":[-1],"split_conditions":[-0E0],"split_indices":[0],"split_type":[0],"sum_hessian":[3.222E3],"tree_param":{"num_deleted":"0","num_feature":"200","num_nodes":"1","size_leaf_vector":"1"}}]},"name":"gbtree"},"learner_model_param":{"base_score":"2.6271285E-2","boost_from_average":"1","num_class":"0","num_feature":"200","num_target":"1"},"objective":{"name":"reg:squarederror","reg_loss_param":{"scale_pos_weight":"1"}}},"version":[3,0,4]}