{"learner":{"attributes":{"best_iteration":"50","best_score":"1.038134792951228"},"feature_names":["Volume","day_of_month","year","day_sin","day_cos","day_of_year_norm","dayy_sin","dayy_cos","is_holiday","Log_Return","Log_Return_change1","Log_Return23","Log_Return123","Log_High_Return","Log_High_Return_change1","Log_High_Return_change3","Log_High_Return13","Log_High_Return23","Log_High_Return123","Close_Roll_Std_5","High_Roll_Std_5","High_Roll_Std_10","High_Roll_Std_20","High_Roll_Std_30","High_Roll_Std_60","High_Roll_Std_90","High_Roll_Std_250","High_Roll_Max_250","Log_Return_Lag_1","Log_Return_Lag_2","Log_Return_Lag_3","Log_Return_Lag_5","Log_Return_Lag_10","Log_Return_Lag_20","Log_Return_Lag_30","Log_Return_Lag_60","Log_Return_Lag_90","Log_Return_Lag_120","Log_Return_Lag_180","Log_Return_Lag_250","Log_Return_Roll_Max_5","Log_Return_Roll_Max_10","Log_Return_Roll_Mean_20","Log_Return_Roll_Max_20","Log_Return_Roll_Mean_30","Log_Return_Roll_Max_30","Log_Return_Roll_Mean_60","Log_Return_Roll_Max_60","Log_Return_Roll_Mean_90","Log_Return_Roll_Max_90","Log_Return_Roll_Mean_180","Log_Return_Roll_Max_180","Log_Return_Roll_Mean_250","Log_Return_Roll_Max_250","Log_Return_change1_Lag_1","Log_Return_change1_Lag_2","Log_Return_change1_Lag_3","Log_Return_change1_Lag_5","Log_Return_change1_Lag_10","Log_Return_change1_Lag_20","Log_Return_change1_Lag_30","Log_Return_change1_Lag_60","Log_Return_change1_Lag_90","Log_Return_change1_Lag_120","Log_Return_change1_Lag_180","Log_Return_change1_Lag_250","Log_Return_change1_Roll_Mean_5","Log_Return_change1_Roll_Min_5","Log_Return_change1_Roll_Mean_10","Log_Return_change1_Roll_Mean_20","Log_Return_change1_Roll_Mean_30","Log_Return_change1_Roll_Mean_60","Log_Return_change1_Roll_Mean_90","Log_Return_change1_Roll_Mean_180","Log_Return_change1_Roll_Mean_250","Log_Return_change2_Lag_1","Log_Return_change2_Lag_2","Log_Return_change2_Lag_3","Log_Return_change2_Lag_5","Log_Return_change2_Lag_10","Log_Return_change2_Lag_20","Log_Return_change2_Lag_30","Log_Return_change2_Lag_60","Log_Return_change2_Lag_90","Log_Return_change2_Lag_120","Log_Return_change2_Lag_180","Log_Return_change2_Lag_250","Log_Return_change2_Roll_Mean_5","Log_Return_change2_Roll_Min_5","Log_Return_change2_Roll_Max_5","Log_Return_change2_Roll_Mean_10","Log_Return_change2_Roll_Min_10","Log_Return_change2_Roll_Max_10","Log_Return_change2_Roll_Mean_20","Log_Return_change2_Roll_Max_20","Log_Return_change2_Roll_Mean_30","Log_Return_change2_Roll_Max_30","Log_Return_change2_Roll_Mean_60","Log_Return_change2_Roll_Mean_90","Log_Return_change2_Roll_Max_90","Log_Return_change2_Roll_Mean_180","Log_Return_change2_Roll_Max_180","Log_Return_change2_Roll_Mean_250","Log_Return_change2_Roll_Max_250","rsi_5_long","rsi_5_short","rsi_5_combined","rsi_7_long","rsi_7_short","rsi_7_combined","rsi_10_long","rsi_10_short","rsi_10_combined","macd_5_10_5_long","macd_5_10_5_short","macd_5_10_5_combined","stoch_3_2_2_long","stoch_3_2_2_short","stoch_3_2_2_combined","cci_6_long","cci_6_short","cci_6_combined","cci_10_long","cci_10_short","cci_10_combined","obv_combined","ad_combined","atr_10_long","atr_10_short","atr_10_combined","sma_2_long","sma_2_short","sma_2_combined","sma_3_long","sma_3_short","sma_3_combined","sma_5_long","sma_5_short","sma_5_combined","sma_8_long","sma_8_short","sma_8_combined","sma_13_long","sma_13_short","sma_13_combined","sma_21_long","sma_21_short","sma_21_combined","ema_3_long","ema_3_short","ema_3_combined","ema_5_long","ema_5_short","ema_5_combined","ema_8_long","ema_8_short","ema_8_combined","ema_13_long","ema_13_short","ema_13_combined","ema_21_long","ema_21_short","ema_21_combined","bb_3_1.5_1.5_long","bb_3_1.5_1.5_short","bb_3_1.5_1.5_combined","bb_3_2.0_2.0_long","bb_3_2.0_2.0_short","bb_3_2.0_2.0_combined","bb_5_1.5_1.5_long","bb_5_1.5_1.5_short","bb_5_1.5_1.5_combined","bb_5_2.0_2.0_long","bb_5_2.0_2.0_short","bb_5_2.0_2.0_combined","bb_8_2.0_2.0_long","bb_8_2.0_2.0_short","bb_8_2.0_2.0_combined","ht_dcperiod_combined","ht_phasor_short","ht_phasor_combined","typprice_long","typprice_short","typprice_combined","linearreg_3_combined","linearreg_5_combined","linearreg_8_combined","stddev_2_2_long","stddev_2_2_short","stddev_2_2_combined","stddev_3_2_long","stddev_3_2_short","stddev_3_2_combined","stddev_5_2_long","stddev_5_2_short","stddev_5_2_combined","Open","High","Low","Close"],"feature_types":["float","int","int","float","float","float","float","float","int","float","float","float","float","float","float","float","float","float","float","float","float","float","float","float","float","float","float","float","float","float","float","float","float","float","float","float","float","float","float","float","float","float","float","float","float","float","float","float","float","float","float","float","float","float","float","float","float","float","float","float","float","float","float","float","float","float","float","float","float","float","float","float","float","float","float","float","float","float","float","float","float","float","float","float","float","float","float","float","float","float","float","float","float","float","float","float","float","float","float","float","float","float","float","float","int","int","int","int","int","int","int","int","int","int","int","int","int","int","int","int","int","int","int","int","int","int","int","int","int","int","int","int","int","int","int","int","int","int","int","int","int","int","int","int","int","int","int","int","int","int","int","int","int","int","int","int","int","int","int","int","int","int","int","int","int","int","int","int","int","int","int","int","int","int","int","int","int","int","int","int","int","int","int","int","int","int","int","int","int","int","int","int","int","int","int","int","float","float","float","float"],"gradient_booster":{"model":{"gbtree_model_param":{"num_parallel_tree":"1","num_trees":"101"},"iteration_indptr":[0,1,2,3,4,5,6,7,8,9,10,11,12,13,14,15,16,17,18,19,20,21,22,23,24,25,26,27,28,29,30,31,32,33,34,35,36,37,38,39,40,41,42,43,44,45,46,47,48,49,50,51,52,53,54,55,56,57,58,59,60,61,62,63,64,65,66,67,68,69,70,71,72,73,74,75,76,77,78,79,80,81,82,83,84,85,86,87,88,89,90,91,92,93,94,95,96,97,98,99,100,101],"tree_info":[0,0,0,0,0,0,0,0,0,0,0,0,0,0,0,0,0,0,0,0,0,0,0,0,0,0,0,0,0,0,0,0,0,0,0,0,0,0,0,0,0,0,0,0,0,0,0,0,0,0,0,0,0,0,0,0,0,0,0,0,0,0,0,0,0,0,0,0,0,0,0,0,0,0,0,0,0,0,0,0,0,0,0,0,0,0,0,0,0,0,0,0,0,0,0,0,0,0,0,0,0],"trees":[{"base_weights":[-0E0,-2.2453671E-2,3.1138942E-2,-6.886443E-2,-0E0,-0E0,6.796643E-2,-9.515747E-2,-0E0,-0E0,1.08142525E-1,-0E0,-1.4578538E-1,-0E0,1.2232154E-1,-1.831504E-1,-0E0,-0E0,1.3436046E-1,-2.1194337E-1,-0E0,1.4635454E-1,-0E0,-0E0,-2.104283E-2,-0E0,1.41913295E-2],"categories":[],"categories_nodes":[],"categories_segments":[],"categories_sizes":[],"default_left":[0,0,0,0,0,0,0,0,0,0,0,0,0,0,0,0,0,0,0,0,0,0,0,0,0,0,0],"id":0,"left_children":[1,3,5,7,-1,-1,9,11,-1,-1,13,-1,15,-1,17,19,-1,-1,21,23,-1,25,-1,-1,-1,-1,-1],"loss_changes":[2.2679996E0,5.7992954E0,2.5601375E0,4.0974226E0,0E0,0E0,4.4307613E0,5.4867916E0,0E0,0E0,1.7529573E0,0E0,5.959833E0,0E0,1.8182163E0,4.937063E0,0E0,0E0,1.5187397E0,4.578287E0,0E0,1.4496431E0,0E0,0E0,0E0,0E0,0E0],"parents":[2147483647,0,0,1,1,2,2,3,3,6,6,7,7,10,10,12,12,14,14,15,15,18,18,19,19,21,21],"right_children":[2,4,6,8,-1,-1,10,12,-1,-1,14,-1,16,-1,18,20,-1,-1,22,24,-1,26,-1,-1,-1,-1,-1],"split_conditions":[-7.6710366E3,1.0302936E3,4.8108345E1,1.2128495E4,-0E0,-0E0,-1.3569738E3,2.0289348E5,-0E0,-0E0,-1.325382E4,-0E0,2.810615E3,-0E0,-3.6522812E3,1.0360302E4,-0E0,-0E0,1.1390625E4,-9.7742647E-1,-0E0,6.784464E2,-0E0,-0E0,-2.104283E-2,-0E0,1.41913295E-2],"split_indices":[88,35,26,79,0,0,56,103,0,0,59,0,90,0,9,28,0,0,38,7,0,89,0,0,0,0,0],"split_type":[0,0,0,0,0,0,0,0,0,0,0,0,0,0,0,0,0,0,0,0,0,0,0,0,0,0,0],"sum_hessian":[3.193E3,1.779E3,1.414E3,1.412E3,3.67E2,5.63E2,8.51E2,1.192E3,2.2E2,1.36E2,7.15E2,4.26E2,7.66E2,3.9E1,6.76E2,6.63E2,1.03E2,1.5E1,6.61E2,6.05E2,5.8E1,6.28E2,3.3E1,3.8E1,5.67E2,4.3E1,5.85E2],"tree_param":{"num_deleted":"0","num_feature":"200","num_nodes":"27","size_leaf_vector":"1"}},{"base_weights":[-0E0,-2.6490953E-2,1.0285709E-2,-7.9406895E-2,-0E0,3.820342E-2,-0E0,-1.3218887E-1,-0E0,5.463386E-2,-0E0,-1.6302554E-1,-0E0,1.09861925E-1,-0E0,-0E0,-1.944147E-1,-0E0,1.3237885E-1,-2.3805104E-1,-0E0,-0E0,1.6064185E-1,-0E0,-2.3536643E-2,-0E0,1.5584531E-2],"categories":[],"categories_nodes":[],"categories_segments":[],"categories_sizes":[],"default_left":[0,0,0,0,0,0,0,0,0,0,0,0,0,0,0,0,0,0,0,0,0,0,0,0,0,0,0],"id":1,"left_children":[1,3,5,7,-1,9,-1,11,-1,13,-1,15,-1,17,-1,-1,19,-1,21,23,-1,-1,25,-1,-1,-1,-1],"loss_changes":[6.9340456E-1,2.8347492E0,2.73216E0,4.487503E0,0E0,2.515441E0,0E0,2.810413E0,0E0,5.1960015E0,0E0,3.3961039E0,0E0,3.1088085E0,0E0,0E0,3.6770258E0,0E0,2.3280067E0,3.115841E0,0E0,0E0,2.5226784E0,0E0,0E0,0E0,0E0],"parents":[2147483647,0,0,1,1,2,2,3,3,5,5,7,7,9,9,11,11,13,13,16,16,18,18,19,19,22,22],"right_children":[2,4,6,8,-1,10,-1,12,-1,14,-1,16,-1,18,-1,-1,20,-1,22,24,-1,-1,26,-1,-1,-1,-1],"split_conditions":[-6.6739624E3,2.460375E3,6.14125E2,1E0,-0E0,1.629749E12,-0E0,-9.82375E2,-0E0,1.1955E3,-0E0,-8.489694E3,-0E0,0E0,-0E0,-0E0,4.456651E3,-0E0,-2.5003828E2,1.5745546E2,-0E0,-0E0,-2.357033E4,-0E0,-2.3536643E-2,-0E0,1.5584531E-2],"split_indices":[84,35,33,151,0,12,0,67,0,198,0,35,0,137,0,0,65,0,35,41,0,0,75,0,0,0,0],"split_type":[0,0,0,0,0,0,0,0,0,0,0,0,0,0,0,0,0,0,0,0,0,0,0,0,0,0,0],"sum_hessian":[3.191E3,5.97E2,2.594E3,5.16E2,8.1E1,2.06E3,5.34E2,4.43E2,7.3E1,1.85E3,2.1E2,3.97E2,4.6E1,8.88E2,9.62E2,2.8E1,3.69E2,9.9E1,7.89E2,3.11E2,5.8E1,1.63E2,6.26E2,1.5E1,2.96E2,1.8E1,6.08E2],"tree_param":{"num_deleted":"0","num_feature":"200","num_nodes":"27","size_leaf_vector":"1"}},{"base_weights":[-0E0,-1.8351777E-2,1.3020174E-2,-6.876445E-2,-0E0,5.4302808E-2,-0E0,-9.737736E-2,-0E0,7.625044E-2,-0E0,-0E0,-1.2536995E-1,-0E0,9.651078E-2,-0E0,-1.6578643E-1,-0E0,1.14078276E-1,-0E0,-2.4591461E-1,1.291452E-1,-0E0,-0E0,-2.5881868E-2,-0E0,1.2553977E-2],"categories":[],"categories_nodes":[],"categories_segments":[],"categories_sizes":[],"default_left":[0,0,0,0,0,0,0,0,0,0,0,0,0,0,0,0,0,0,0,0,0,0,0,0,0,0,0],"id":2,"left_children":[1,3,5,7,-1,9,-1,11,-1,13,-1,-1,15,-1,17,-1,19,-1,21,-1,23,25,-1,-1,-1,-1,-1],"loss_changes":[7.238121E-1,3.882915E0,2.6975355E0,3.0552492E0,0E0,2.6283655E0,0E0,4.109689E0,0E0,2.519764E0,0E0,0E0,4.942854E0,0E0,2.5045347E0,0E0,4.449934E0,0E0,2.3489122E0,0E0,3.2590427E0,2.1698484E0,0E0,0E0,0E0,0E0,0E0],"parents":[2147483647,0,0,1,1,2,2,3,3,5,5,7,7,9,9,12,12,14,14,16,16,18,18,20,20,21,21],"right_children":[2,4,6,8,-1,10,-1,12,-1,14,-1,-1,16,-1,18,-1,20,-1,22,-1,24,26,-1,-1,-1,-1,-1],"split_conditions":[-1.2506223E3,1.2596864E3,-1.2061329E0,1E0,-0E0,7.880628E3,-0E0,-1.0940976E4,-0E0,-3.048625E3,-0E0,-0E0,2E1,-0E0,-2.384676E4,-0E0,3.7893536E1,-0E0,1.0077833E4,-0E0,5.0001895E3,-1.2812743E4,-0E0,-0E0,-2.5881868E-2,-0E0,1.2553977E-2],"split_indices":[84,35,65,151,0,34,0,35,0,35,0,0,0,0,65,0,25,0,35,0,43,29,0,0,0,0,0],"split_type":[0,0,0,0,0,0,0,0,0,0,0,0,0,0,0,0,0,0,0,0,0,0,0,0,0,0,0],"sum_hessian":[3.205E3,1.079E3,2.126E3,8.98E2,1.81E2,1.037E3,1.089E3,7.7E2,1.28E2,9.78E2,5.9E1,4.4E1,7.26E2,9.7E1,8.81E2,1.31E2,5.95E2,5.8E1,8.23E2,2.51E2,3.44E2,7.83E2,4E1,6E1,2.84E2,1.9E1,7.64E2],"tree_param":{"num_deleted":"0","num_feature":"200","num_nodes":"27","size_leaf_vector":"1"}},{"base_weights":[-0E0,-2.2092955E-3,1.9282768E-2,-0E0,-4.967193E-2,-0E0,4.776563E-2,-0E0,7.259007E-3,-0E0,-7.79828E-2,7.917618E-2,-0E0,-0E0,2.4375297E-2,-9.332482E-2,-0E0,-0E0,1.0612588E-1,3.7018124E-2,-0E0,-1.0826779E-1,-0E0,-0E0,1.368119E-1,5.0611015E-2,-0E0,-0E0,-1.2306304E-1,-0E0,1.6186398E-1,5.5570956E-3,-0E0,-0E0,-1.2249038E-2,1.592919E-2,-0E0],"categories":[],"categories_nodes":[],"categories_segments":[],"categories_sizes":[],"default_left":[0,0,0,0,0,0,0,0,0,0,0,0,0,0,0,0,0,0,0,0,0,0,0,0,0,0,0,0,0,0,0,0,0,0,0,0,0],"id":3,"left_children":[1,3,5,7,9,-1,11,-1,13,-1,15,17,-1,-1,19,21,-1,-1,23,25,-1,27,-1,-1,29,31,-1,-1,33,-1,35,-1,-1,-1,-1,-1,-1],"loss_changes":[3.8851374E-1,3.756875E0,1.2010932E0,3.3250254E-2,3.821974E0,0E0,2.2953885E0,0E0,3.3216485E-1,0E0,3.001336E0,2.275356E0,0E0,0E0,4.5955282E-1,2.7253675E0,0E0,0E0,2.8725195E0,6.453604E-1,0E0,2.6765652E0,0E0,0E0,2.637267E0,5.9591556E-1,0E0,0E0,2.6805325E0,0E0,2.140912E0,0E0,0E0,0E0,0E0,0E0,0E0],"parents":[2147483647,0,0,1,1,2,2,3,3,4,4,6,6,8,8,10,10,11,11,14,14,15,15,18,18,19,19,21,21,24,24,25,25,28,28,30,30],"right_children":[2,4,6,8,10,-1,12,-1,14,-1,16,18,-1,-1,20,22,-1,-1,24,26,-1,28,-1,-1,30,32,-1,-1,34,-1,36,-1,-1,-1,-1,-1,-1],"split_conditions":[1.326491E2,1.5438294E4,2.7E4,-2.2917131E3,-3.9069893E3,-0E0,9.67784E8,-0E0,-2.572007E4,-0E0,4.8137555E4,1.47632065E1,-0E0,-0E0,1.276368E12,1E0,-0E0,-0E0,-3.241824E3,5.6103623E3,-0E0,-7.077969E3,-0E0,-0E0,0E0,9.146278E3,-0E0,-0E0,-1.0940976E4,-0E0,6.4223508E4,5.5570956E-3,-0E0,-0E0,-1.2249038E-2,1.592919E-2,-0E0],"split_indices":[35,49,51,42,60,0,16,0,84,0,54,23,0,0,12,144,0,0,38,54,0,38,0,0,159,83,0,0,35,0,85,0,0,0,0,0,0],"split_type":[0,0,0,0,0,0,0,0,0,0,0,0,0,0,0,0,0,0,0,0,0,0,0,0,0,0,0,0,0,0,0,0,0,0,0,0,0],"sum_hessian":[3.215E3,2.199E3,1.016E3,6.72E2,1.527E3,3.24E2,6.92E2,4.1E1,6.31E2,2.79E2,1.248E3,6.18E2,7.4E1,1.6E1,6.15E2,1.216E3,3.2E1,7.2E1,5.46E2,6.02E2,1.3E1,1.136E3,8E1,6.4E1,4.82E2,5.74E2,2.8E1,8E1,1.056E3,3.7E1,4.45E2,5.29E2,4.5E1,7.2E1,9.84E2,4.3E2,1.5E1],"tree_param":{"num_deleted":"0","num_feature":"200","num_nodes":"37","size_leaf_vector":"1"}},{"base_weights":[-0E0,5.5462876E-3,-4.0442653E-2,4.4385597E-2,-0E0,-0E0,-8.248205E-2,-0E0,9.6447155E-2,-0E0,-1.1366782E-1,-0E0,1.2693681E-1,-1.393478E-1,-0E0,-0E0,1.6103886E-1,-1.6598664E-1,-0E0,2.0634475E-1,-0E0,-0E0,-1.9474594E-1,2.0375097E-2,-0E0,-0E0,-1.932284E-2],"categories":[],"categories_nodes":[],"categories_segments":[],"categories_sizes":[],"default_left":[0,0,0,0,0,0,0,0,0,0,0,0,0,0,0,0,0,0,0,0,0,0,0,0,0,0,0],"id":4,"left_children":[1,3,5,7,-1,-1,9,-1,11,-1,13,-1,15,17,-1,-1,19,21,-1,23,-1,-1,25,-1,-1,-1,-1],"loss_changes":[7.434887E-1,2.4771602E0,1.5876547E0,4.6647387E0,0E0,0E0,1.8120127E0,0E0,3.858127E0,0E0,1.6713619E0,0E0,4.9672947E0,1.8761115E0,0E0,0E0,6.215803E0,1.5360975E0,0E0,3.9852219E0,0E0,0E0,1.4852915E0,0E0,0E0,0E0,0E0],"parents":[2147483647,0,0,1,1,2,2,3,3,6,6,8,8,10,10,12,12,13,13,16,16,17,17,19,19,22,22],"right_children":[2,4,6,8,-1,-1,10,-1,12,-1,14,-1,16,18,-1,-1,20,22,-1,24,-1,-1,26,-1,-1,-1,-1],"split_conditions":[1.276368E12,1.2039E3,-1.1919495E4,-1.06875E2,-0E0,-0E0,-1.9467658E5,-0E0,0E0,-0E0,9.778786E-1,-0E0,1.9228632E3,1E0,-0E0,-0E0,1.157625E3,-1.5479431E1,-0E0,2.5493967E3,-0E0,-0E0,-9.726578E-1,2.0375097E-2,-0E0,-0E0,-1.932284E-2],"split_indices":[12,199,48,61,0,0,67,0,137,0,7,0,92,195,0,0,29,74,0,50,0,0,7,0,0,0,0],"split_type":[0,0,0,0,0,0,0,0,0,0,0,0,0,0,0,0,0,0,0,0,0,0,0,0,0,0,0],"sum_hessian":[3.196E3,2.794E3,4.02E2,1.301E3,1.493E3,7.2E1,3.3E2,5.24E2,7.77E2,1.6E1,3.14E2,8.9E1,6.88E2,2.95E2,1.9E1,6.9E1,6.19E2,2.76E2,1.9E1,5.23E2,9.6E1,3.5E1,2.41E2,5E2,2.3E1,1.6E1,2.25E2],"tree_param":{"num_deleted":"0","num_feature":"200","num_nodes":"27","size_leaf_vector":"1"}},{"base_weights":[-0E0,-1.5831163E-2,1.3415036E-2,-0E0,-7.207219E-2,-0E0,4.3810587E-2,-0E0,1.0276385E-2,-0E0,-1.3881075E-1,6.8918735E-2,-0E0,-0E0,5.187185E-2,-0E0,-1.9015308E-1,-0E0,8.90184E-2,9.951029E-2,-0E0,-2.1305844E-1,-0E0,-0E0,1.1051688E-1,-0E0,1.2949905E-1,-0E0,-2.3446314E-1,-0E0,1.2927474E-1,1.3434332E-2,-0E0,-0E0,-2.3335733E-2,-0E0,1.2916164E-2],"categories":[],"categories_nodes":[],"categories_segments":[],"categories_sizes":[],"default_left":[0,0,0,0,0,0,0,0,0,0,0,0,0,0,0,0,0,0,0,0,0,0,0,0,0,0,0,0,0,0,0,0,0,0,0,0,0],"id":5,"left_children":[1,3,5,7,9,-1,11,-1,13,-1,15,17,-1,-1,19,-1,21,-1,23,25,-1,27,-1,-1,29,-1,31,-1,33,-1,35,-1,-1,-1,-1,-1,-1],"loss_changes":[6.955153E-1,4.708409E0,1.5195931E0,4.245456E-2,4.083664E0,0E0,2.017601E0,0E0,8.616608E-1,0E0,6.482624E0,1.9865384E0,0E0,0E0,2.0172238E0,0E0,3.3275366E0,0E0,2.272943E0,1.657145E0,0E0,2.7494068E0,0E0,0E0,1.7532616E0,0E0,1.4025631E0,0E0,3.0946999E0,0E0,2.0738783E0,0E0,0E0,0E0,0E0,0E0,0E0],"parents":[2147483647,0,0,1,1,2,2,3,3,4,4,6,6,8,8,10,10,11,11,14,14,16,16,18,18,19,19,21,21,24,24,26,26,28,28,30,30],"right_children":[2,4,6,8,10,-1,12,-1,14,-1,16,18,-1,-1,20,-1,22,-1,24,26,-1,28,-1,-1,30,-1,32,-1,34,-1,36,-1,-1,-1,-1,-1,-1],"split_conditions":[-8.912848E3,-2.1950277E1,5.314362E2,0E0,1.18306076E2,-0E0,8.507797E7,-0E0,2.4124998E1,-0E0,-2.7428586E7,-5.932379E3,-0E0,-0E0,2.1145222E9,-0E0,4.541352E1,-0E0,-1.7887547E4,1.5334452E1,-0E0,-4.7744576E1,-0E0,-0E0,-2.714092E2,-0E0,1.7141E3,-0E0,-1.587863E4,-0E0,-3.2431969E4,1.3434332E-2,-0E0,-0E0,-2.3335733E-2,-0E0,1.2916164E-2],"split_indices":[88,9,40,132,90,0,17,0,24,0,16,63,0,0,16,0,21,0,17,23,0,73,0,0,66,0,199,0,48,0,86,0,0,0,0,0,0],"split_type":[0,0,0,0,0,0,0,0,0,0,0,0,0,0,0,0,0,0,0,0,0,0,0,0,0,0,0,0,0,0,0,0,0,0,0,0,0],"sum_hessian":[3.209E3,1.67E3,1.539E3,6.83E2,9.87E2,6.03E2,9.36E2,2.81E2,4.02E2,5.09E2,4.78E2,8.03E2,1.33E2,6.6E1,3.36E2,4.4E1,4.34E2,7.1E1,7.32E2,2.95E2,4.1E1,4.19E2,1.5E1,7.1E1,6.61E2,2.2E1,2.73E2,2.3E1,3.96E2,7.3E1,5.88E2,2.62E2,1.1E1,3.5E1,3.61E2,2.4E1,5.64E2],"tree_param":{"num_deleted":"0","num_feature":"200","num_nodes":"37","size_leaf_vector":"1"}},{"base_weights":[-0E0,-1.26323365E-2,9.693598E-3,-4.7431123E-2,-0E0,-0E0,3.7536062E-2,-0E0,-7.550758E-2,-0E0,6.1646756E-2,-0E0,-9.998833E-2,-0E0,8.354714E-2,-0E0,-1.6248609E-1,1.0046837E-1,-0E0,-2.080479E-1,-0E0,-0E0,1.23224474E-1,-2.0731235E-2,-0E0,-0E0,1.2221866E-2],"categories":[],"categories_nodes":[],"categories_segments":[],"categories_sizes":[],"default_left":[0,0,0,0,0,0,0,0,0,0,0,0,0,0,0,0,0,0,0,0,0,0,0,0,0,0,0],"id":6,"left_children":[1,3,5,7,-1,-1,9,-1,11,-1,13,-1,15,-1,17,-1,19,21,-1,23,-1,-1,25,-1,-1,-1,-1],"loss_changes":[3.936676E-1,2.366524E0,1.4270415E0,2.5818043E0,0E0,0E0,2.1456006E0,0E0,3.6468453E0,0E0,1.8198924E0,0E0,4.066372E0,0E0,2.1385336E0,0E0,4.8626404E0,1.8341641E0,0E0,3.8884354E0,0E0,0E0,1.592082E0,0E0,0E0,0E0,0E0],"parents":[2147483647,0,0,1,1,2,2,3,3,6,6,8,8,10,10,12,12,14,14,16,16,17,17,19,19,22,22],"right_children":[2,4,6,8,-1,-1,10,-1,12,-1,14,-1,16,-1,18,-1,20,22,-1,24,-1,-1,26,-1,-1,-1,-1],"split_conditions":[-8.259364E1,1.2596864E3,4.3388373E-1,5.177706E3,-0E0,-0E0,0E0,-0E0,-2.012354E4,-0E0,1.413003E1,-0E0,2.3086351E1,-0E0,6.4481074E4,-0E0,1.0360331E4,1.4032897E1,-0E0,1.5569472E4,-0E0,-0E0,-8.489694E3,-2.0731235E-2,-0E0,-0E0,1.2221866E-2],"split_indices":[56,35,3,45,0,0,170,0,34,0,23,0,23,0,56,0,54,22,0,66,0,0,31,0,0,0,0],"split_type":[0,0,0,0,0,0,0,0,0,0,0,0,0,0,0,0,0,0,0,0,0,0,0,0,0,0,0],"sum_hessian":[3.214E3,1.397E3,1.817E3,1.151E3,2.46E2,6.83E2,1.134E3,2.44E2,9.07E2,1.49E2,9.85E2,2.5E1,8.82E2,1.88E2,7.97E2,3.94E2,4.88E2,7.63E2,3.4E1,4.1E2,7.8E1,1.35E2,6.28E2,3.98E2,1.2E1,3.9E1,5.89E2],"tree_param":{"num_deleted":"0","num_feature":"200","num_nodes":"27","size_leaf_vector":"1"}},{"base_weights":[-0E0,-4.579423E-3,1.2933998E-2,-4.2266827E-2,-0E0,-0E0,3.8865186E-2,-8.738335E-2,-0E0,6.73349E-2,-0E0,-1.2705371E-1,-0E0,8.620403E-2,-0E0,-1.511631E-1,-0E0,-0E0,9.829428E-2,-0E0,-1.7382845E-1,1.1100498E-1,-0E0,-0E0,-1.6727278E-2,-0E0,1.0770764E-2],"categories":[],"categories_nodes":[],"categories_segments":[],"categories_sizes":[],"default_left":[0,0,0,0,0,0,0,0,0,0,0,0,0,0,0,0,0,0,0,0,0,0,0,0,0,0,0],"id":7,"left_children":[1,3,5,7,-1,-1,9,11,-1,13,-1,15,-1,17,-1,19,-1,-1,21,-1,23,25,-1,-1,-1,-1,-1],"loss_changes":[2.9229325E-1,2.1963472E0,1.180731E0,4.8853884E0,0E0,0E0,2.148435E0,5.797643E0,0E0,1.9870136E0,0E0,3.2182913E0,0E0,1.2575536E0,0E0,2.8134594E0,0E0,0E0,1.4249854E0,0E0,2.5709095E0,1.4282055E0,0E0,0E0,0E0,0E0,0E0],"parents":[2147483647,0,0,1,1,2,2,3,3,6,6,7,7,9,9,11,11,13,13,15,15,18,18,20,20,21,21],"right_children":[2,4,6,8,-1,-1,10,12,-1,14,-1,16,-1,18,-1,20,-1,-1,22,-1,24,26,-1,-1,-1,-1,-1],"split_conditions":[-8.912848E3,1.7709442E1,4.8108345E1,1.8877468E3,-0E0,-0E0,2.3142466E3,1.953125E3,-0E0,3.4053814E8,-0E0,2.320775E8,-0E0,-7.880628E3,-0E0,1.1840163E1,-0E0,-0E0,1.1390625E4,-0E0,6.43E2,-1.1295931E5,-0E0,-0E0,-1.6727278E-2,-0E0,1.0770764E-2],"split_indices":[88,19,26,58,0,0,76,35,0,17,0,16,0,36,0,22,0,0,38,0,198,91,0,0,0,0,0],"split_type":[0,0,0,0,0,0,0,0,0,0,0,0,0,0,0,0,0,0,0,0,0,0,0,0,0,0,0],"sum_hessian":[3.207E3,1.669E3,1.538E3,1.249E3,4.2E2,5.86E2,9.52E2,9.32E2,3.17E2,7.91E2,1.61E2,8E2,1.32E2,7.5E2,4.1E1,7.06E2,9.4E1,4.3E1,7.07E2,7.9E1,6.27E2,6.7E2,3.7E1,1.9E1,6.08E2,1E1,6.6E2],"tree_param":{"num_deleted":"0","num_feature":"200","num_nodes":"27","size_leaf_vector":"1"}},{"base_weights":[-0E0,-1.1966028E-3,3.663183E-3,-0E0,-4.187433E-2,-0E0,2.7164472E-2,-0E0,-6.465687E-2,-0E0,4.801968E-2,-0E0,-8.9858584E-2,-0E0,7.1730904E-2,-0E0,-1.1972847E-1,9.1750845E-2,-0E0,-1.3620058E-1,-0E0,1.06599994E-1,-0E0,-0E0,-1.3702828E-2,-0E0,1.0547688E-2],"categories":[],"categories_nodes":[],"categories_segments":[],"categories_sizes":[],"default_left":[0,0,0,0,0,0,0,0,0,0,0,0,0,0,0,0,0,0,0,0,0,0,0,0,0,0,0],"id":8,"left_children":[1,3,5,-1,7,-1,9,-1,11,-1,13,-1,15,-1,17,-1,19,21,-1,23,-1,25,-1,-1,-1,-1,-1],"loss_changes":[2.3119364E-2,1.4880823E0,8.286123E-1,0E0,1.912535E0,0E0,1.2052407E0,0E0,2.8226166E0,0E0,2.0463204E0,0E0,3.6800332E0,0E0,2.229731E0,0E0,2.5606499E0,1.6240396E0,0E0,2.7569065E0,0E0,1.3044071E0,0E0,0E0,0E0,0E0,0E0],"parents":[2147483647,0,0,1,1,2,2,4,4,6,6,8,8,10,10,12,12,14,14,16,16,17,17,19,19,21,21],"right_children":[2,4,6,-1,8,-1,10,-1,12,-1,14,-1,16,-1,18,-1,20,22,-1,24,-1,26,-1,-1,-1,-1,-1],"split_conditions":[-8.912848E3,-3.4310767E-1,-7.430009E-1,-0E0,-2.2425652E4,-0E0,-8.857249E-1,-0E0,6E0,-0E0,-6.814692E2,-0E0,0E0,-0E0,1.5236213E4,-0E0,1E0,1.2128495E4,-0E0,-1.7914916E7,-0E0,2E0,-0E0,-0E0,-1.3702828E-2,-0E0,1.0547688E-2],"split_indices":[88,13,7,0,30,0,6,0,0,0,13,0,105,0,15,0,104,79,0,17,0,0,0,0,0,0,0],"split_type":[0,0,0,0,0,0,0,0,0,0,0,0,0,0,0,0,0,0,0,0,0,0,0,0,0,0,0],"sum_hessian":[3.212E3,1.667E3,1.545E3,8.17E2,8.5E2,3.94E2,1.151E3,3.6E1,8.14E2,2.6E2,8.91E2,4.3E1,7.71E2,9.4E1,7.97E2,8E1,6.91E2,7.52E2,4.5E1,6.72E2,1.9E1,7E2,5.2E1,3.1E1,6.41E2,4.2E1,6.58E2],"tree_param":{"num_deleted":"0","num_feature":"200","num_nodes":"27","size_leaf_vector":"1"}},{"base_weights":[-0E0,2.4164026E-3,-5.202823E-3,-0E0,2.3379553E-2,-4.7378186E-2,-0E0,-0E0,4.401353E-2,-0E0,-1.2520908E-1,-0E0,5.5955052E-2,-0E0,-1.627277E-1,6.980933E-2,-0E0,-1.8767281E-1,-0E0,-0E0,8.102536E-2,-0E0,-2.110044E-1,-0E0,7.770624E-3,-2.0316664E-2,-0E0],"categories":[],"categories_nodes":[],"categories_segments":[],"categories_sizes":[],"default_left":[0,0,0,0,0,0,0,0,0,0,0,0,0,0,0,0,0,0,0,0,0,0,0,0,0,0,0],"id":9,"left_children":[1,3,5,-1,7,9,-1,-1,11,-1,13,-1,15,-1,17,19,-1,21,-1,-1,23,-1,25,-1,-1,-1,-1],"loss_changes":[5.114974E-2,7.659872E-1,2.5264668E0,0E0,1.762112E0,9.080536E0,0E0,0E0,1.2632945E0,0E0,5.802452E0,0E0,1.7448971E0,0E0,3.5766087E0,1.6429582E0,0E0,3.6388283E0,0E0,0E0,1.0898399E0,0E0,3.1603355E0,0E0,0E0,0E0,0E0],"parents":[2147483647,0,0,1,1,2,2,4,4,5,5,8,8,10,10,12,12,14,14,15,15,17,17,20,20,22,22],"right_children":[2,4,6,-1,8,10,-1,-1,12,-1,14,-1,16,-1,18,20,-1,22,-1,-1,24,-1,26,-1,-1,-1,-1],"split_conditions":[9.581492E0,-8.467487E0,2.9415704E2,-0E0,-8.291402E3,-2.5227034E2,-0E0,-0E0,-8.305581E2,-0E0,-4.415471E4,-0E0,1E0,-0E0,9.7113943E-1,3.8472192E2,-0E0,-2.7913162E1,-0E0,-0E0,2.1597363E-1,-0E0,2.7287512E4,-0E0,7.770624E-3,-2.0316664E-2,-0E0],"split_indices":[19,74,68,0,62,68,0,0,13,0,15,0,145,0,7,89,0,74,0,0,40,0,10,0,0,0,0],"split_type":[0,0,0,0,0,0,0,0,0,0,0,0,0,0,0,0,0,0,0,0,0,0,0,0,0,0,0],"sum_hessian":[3.186E3,1.653E3,1.533E3,2.34E2,1.419E3,1.144E3,3.89E2,1.09E2,1.31E3,4.01E2,7.43E2,9.6E1,1.214E3,8.4E1,6.59E2,1.138E3,7.6E1,5.97E2,6.2E1,4.3E1,1.095E3,4.3E1,5.54E2,1.1E1,1.084E3,5.33E2,2.1E1],"tree_param":{"num_deleted":"0","num_feature":"200","num_nodes":"27","size_leaf_vector":"1"}},{"base_weights":[-0E0,-0E0,1.932984E-2,-0E0,-3.184483E-2,4.5349132E-2,-0E0,-0E0,3.4769438E-3,-0E0,-5.6598585E-2,-0E0,8.408986E-2,2.0458486E-2,-0E0,-7.735932E-2,-0E0,-0E0,1.1830061E-1,-0E0,3.4643136E-2,-1.0839052E-1,-0E0,-0E0,1.5252717E-1,-0E0,4.9709473E-2,-1.337332E-1,-0E0,1.732619E-1,-0E0,-0E0,6.0985046E-3,-1.3358867E-2,-0E0,-0E0,1.7426807E-2],"categories":[],"categories_nodes":[],"categories_segments":[],"categories_sizes":[],"default_left":[0,0,0,0,0,0,0,0,0,0,0,0,0,0,0,0,0,0,0,0,0,0,0,0,0,0,0,0,0,0,0,0,0,0,0,0,0],"id":10,"left_children":[1,3,5,7,9,11,-1,-1,13,-1,15,-1,17,19,-1,21,-1,-1,23,-1,25,27,-1,-1,29,-1,31,33,-1,35,-1,-1,-1,-1,-1,-1,-1],"loss_changes":[2.1559793E-1,1.7168761E0,8.353295E-1,8.498861E-3,2.4411888E0,1.6644919E0,0E0,0E0,2.773774E-1,0E0,3.2627678E0,0E0,2.448976E0,4.6663538E-1,0E0,3.9636602E0,0E0,0E0,3.0018368E0,0E0,7.449738E-1,4.90864E0,0E0,0E0,1.7707729E0,0E0,1.0050974E0,3.9536648E0,0E0,1.8557119E0,0E0,0E0,0E0,0E0,0E0,0E0,0E0],"parents":[2147483647,0,0,1,1,2,2,3,3,4,4,5,5,8,8,10,10,12,12,13,13,15,15,18,18,20,20,21,21,24,24,26,26,27,27,29,29],"right_children":[2,4,6,8,10,12,-1,-1,14,-1,16,-1,18,20,-1,22,-1,-1,24,-1,26,28,-1,-1,30,-1,32,34,-1,36,-1,-1,-1,-1,-1,-1,-1],"split_conditions":[9.7030615E2,5.735245E3,4.2546416E8,-8.466016E-1,-3.7644516E4,6.0251164E0,-0E0,-0E0,2.7030285E4,-0E0,1.077592E3,-0E0,3E0,-2.6555852E3,-0E0,7.049748E2,-0E0,-0E0,-6.6436915E6,-0E0,-9.977069E-1,9.750985E-1,-0E0,-0E0,1.6761695E4,-0E0,5.674446E3,2.0173351E3,-0E0,1.1522506E1,-0E0,-0E0,6.0985046E-3,-1.3358867E-2,-0E0,-0E0,1.7426807E-2],"split_indices":[35,43,16,7,16,20,0,0,15,0,70,0,0,14,0,37,0,0,17,0,6,7,0,0,64,0,96,95,0,22,0,0,0,0,0,0,0],"split_type":[0,0,0,0,0,0,0,0,0,0,0,0,0,0,0,0,0,0,0,0,0,0,0,0,0,0,0,0,0,0,0,0,0,0,0,0,0],"sum_hessian":[3.196E3,2.619E3,5.77E2,9.26E2,1.693E3,5.11E2,6.6E1,2.23E2,7.03E2,3.95E2,1.298E3,1.27E2,3.84E2,6.83E2,2E1,1.24E3,5.8E1,1.5E1,3.69E2,5.6E1,6.27E2,9.69E2,2.71E2,1.8E1,3.51E2,2.1E1,6.06E2,9.11E2,5.8E1,3.31E2,2E1,7.4E1,5.32E2,8.97E2,1.4E1,2.4E1,3.07E2],"tree_param":{"num_deleted":"0","num_feature":"200","num_nodes":"37","size_leaf_vector":"1"}},{"base_weights":[-0E0,-1.3567524E-2,1.5192403E-4,-5.490952E-2,-0E0,3.3762675E-2,-0E0,-9.0123504E-2,-0E0,7.3852874E-2,-0E0,-0E0,-7.2124726E-3,-1.0481196E-1,-0E0,-0E0,1.08164914E-1,-0E0,-3.839974E-2,-1.1831171E-1,-0E0,-0E0,1.2762076E-1,-6.734922E-2,-0E0,-0E0,-1.4800756E-1,-0E0,1.5135786E-1,-8.8698976E-2,-0E0,-1.4257864E-2,-0E0,-0E0,1.6806431E-2,-0E0,-9.335358E-3],"categories":[],"categories_nodes":[],"categories_segments":[],"categories_sizes":[],"default_left":[0,0,0,0,0,0,0,0,0,0,0,0,0,0,0,0,0,0,0,0,0,0,0,0,0,0,0,0,0,0,0,0,0,0,0,0,0],"id":11,"left_children":[1,3,5,7,-1,9,11,13,-1,15,-1,-1,17,19,-1,-1,21,-1,23,25,-1,-1,27,29,-1,-1,31,-1,33,35,-1,-1,-1,-1,-1,-1,-1],"loss_changes":[1.1124602E-1,1.4597071E0,1.6425804E0,2.1167393E0,0E0,2.8190227E0,4.374947E-2,1.1132305E0,0E0,3.166699E0,0E0,0E0,7.6874626E-1,1.1623693E0,0E0,0E0,2.3884435E0,0E0,1.5145037E0,1.2880888E0,0E0,0E0,2.354536E0,1.4574008E0,0E0,0E0,1.0024567E0,0E0,2.026268E0,1.3632705E0,0E0,0E0,0E0,0E0,0E0,0E0,0E0],"parents":[2147483647,0,0,1,1,2,2,3,3,5,5,6,6,7,7,9,9,12,12,13,13,16,16,18,18,19,19,22,22,23,23,26,26,28,28,29,29],"right_children":[2,4,6,8,-1,10,12,14,-1,16,-1,-1,18,20,-1,-1,22,-1,24,26,-1,-1,28,30,-1,-1,32,-1,34,36,-1,-1,-1,-1,-1,-1,-1],"split_conditions":[-6.6739624E3,1E0,4.0958123E0,2.924162E3,-0E0,1.0647291E1,-4.5111183E1,1.4205772E14,-0E0,4.711537E3,-0E0,-0E0,6.4580812E0,2.986909E3,-0E0,-0E0,-4.7915512E2,-0E0,9.657866E-1,5.121712E1,-0E0,-0E0,-1.8920734E4,9.776531E-1,-0E0,-0E0,6.4223508E4,-0E0,-1.2459058E3,-9.986126E-1,-0E0,-1.4257864E-2,-0E0,-0E0,1.6806431E-2,-0E0,-9.335358E-3],"split_indices":[84,153,33,36,0,36,97,18,0,92,0,0,20,52,0,0,70,0,7,26,0,0,80,6,0,0,78,0,61,6,0,0,0,0,0,0,0],"split_type":[0,0,0,0,0,0,0,0,0,0,0,0,0,0,0,0,0,0,0,0,0,0,0,0,0,0,0,0,0,0,0,0,0,0,0,0,0],"sum_hessian":[3.207E3,6.04E2,2.603E3,5.21E2,8.3E1,1.441E3,1.162E3,4.54E2,6.7E1,8.18E2,6.23E2,3.21E2,8.41E2,4.37E2,1.7E1,1.66E2,6.52E2,2.9E2,5.51E2,4.26E2,1.1E1,3.7E1,6.15E2,5.13E2,3.8E1,9.5E1,3.31E2,7.5E1,5.4E2,4.81E2,3.2E1,3.21E2,1E1,1.37E2,4.03E2,1.4E1,4.67E2],"tree_param":{"num_deleted":"0","num_feature":"200","num_nodes":"37","size_leaf_vector":"1"}},{"base_weights":[-0E0,6.6343485E-3,-6.663246E-4,-0E0,4.5955308E-2,-4.4290595E-2,-0E0,-0E0,6.5693475E-2,-0E0,-7.300609E-2,-0E0,8.956842E-2,-1.00682735E-1,-0E0,1.0103952E-1,-0E0,-0E0,-1.21312976E-1,-0E0,1.12581484E-1,-1.4307186E-1,-0E0,1.10081555E-2,-0E0,-1.5066324E-2,-0E0],"categories":[],"categories_nodes":[],"categories_segments":[],"categories_sizes":[],"default_left":[0,0,0,0,0,0,0,0,0,0,0,0,0,0,0,0,0,0,0,0,0,0,0,0,0,0,0],"id":12,"left_children":[1,3,5,-1,7,9,-1,-1,11,-1,13,-1,15,17,-1,19,-1,-1,21,-1,23,25,-1,-1,-1,-1,-1],"loss_changes":[7.466054E-2,2.337824E0,1.7844683E0,0E0,2.223246E0,2.2976432E0,0E0,0E0,2.4088283E0,0E0,2.6280856E0,0E0,1.8074689E0,2.767015E0,0E0,1.7828312E0,0E0,0E0,3.1316977E0,0E0,1.9492035E0,3.0377703E0,0E0,0E0,0E0,0E0,0E0],"parents":[2147483647,0,0,1,1,2,2,4,4,5,5,8,8,10,10,12,12,13,13,15,15,18,18,20,20,21,21],"right_children":[2,4,6,-1,8,10,-1,-1,12,-1,14,-1,16,18,-1,20,-1,-1,22,-1,24,26,-1,-1,-1,-1,-1],"split_conditions":[2.0429219E6,-4.2875E1,7.934627E2,-0E0,-9.6712456E1,1.4784394E-1,-0E0,-0E0,1.2878807E1,-0E0,3.5790732E2,-0E0,1.6289761E2,-2.012354E4,-0E0,-1.2812743E4,-0E0,-0E0,9.582478E-1,-0E0,3.1E1,2.3526306E3,-0E0,1.10081555E-2,-0E0,-1.5066324E-2,-0E0],"split_indices":[16,35,84,0,100,5,0,0,23,0,37,0,26,34,0,34,0,0,5,0,1,35,0,0,0,0,0],"split_type":[0,0,0,0,0,0,0,0,0,0,0,0,0,0,0,0,0,0,0,0,0,0,0,0,0,0,0],"sum_hessian":[3.193E3,1.681E3,1.512E3,5.39E2,1.142E3,9.1E2,6.02E2,6.8E1,1.074E3,1.44E2,7.66E2,1.96E2,8.78E2,6.62E2,1.04E2,8.67E2,1.1E1,1.8E1,6.44E2,2.8E1,8.39E2,6.16E2,2.8E1,8.21E2,1.8E1,5.45E2,7.1E1],"tree_param":{"num_deleted":"0","num_feature":"200","num_nodes":"27","size_leaf_vector":"1"}},{"base_weights":[-0E0,2.6008463E-3,-3.8435184E-3,-0E0,3.5234552E-2,-3.681747E-2,-0E0,5.6004446E-2,-0E0,-6.480233E-2,-0E0,7.2203666E-2,-0E0,-0E0,-9.647608E-2,8.754545E-2,-0E0,-0E0,-1.2517576E-1,-0E0,1.0152407E-1,-0E0,-1.5653819E-1,-0E0,1.0256153E-2,-0E0,-1.8624166E-2],"categories":[],"categories_nodes":[],"categories_segments":[],"categories_sizes":[],"default_left":[0,0,0,0,0,0,0,0,0,0,0,0,0,0,0,0,0,0,0,0,0,0,0,0,0,0,0],"id":13,"left_children":[1,3,5,-1,7,9,-1,11,-1,13,-1,15,-1,-1,17,19,-1,-1,21,-1,23,-1,25,-1,-1,-1,-1],"loss_changes":[3.4119528E-2,1.6884499E0,1.7758334E0,0E0,2.264987E0,3.4252446E0,0E0,2.3749573E0,0E0,2.8272057E0,0E0,2.0452237E0,0E0,0E0,3.8104124E0,2.0977612E0,0E0,0E0,4.8505993E0,0E0,2.2630243E0,0E0,5.26746E0,0E0,0E0,0E0,0E0],"parents":[2147483647,0,0,1,1,2,2,4,4,5,5,7,7,9,9,11,11,14,14,15,15,18,18,20,20,22,22],"right_children":[2,4,6,-1,8,10,-1,12,-1,14,-1,16,-1,-1,18,20,-1,-1,22,-1,24,-1,26,-1,-1,-1,-1],"split_conditions":[1.3413723E5,-7.254454E3,1.4428923E3,-0E0,1.827889E4,9.7876906E-1,-0E0,1.1390625E4,-0E0,2.4520096E1,-0E0,2.018E3,-0E0,-0E0,-1.2575107E4,0E0,-0E0,-0E0,-4.7088173E1,-0E0,-1.5173347E4,-0E0,7.0786967E0,-0E0,1.0256153E-2,-0E0,-1.8624166E-2],"split_indices":[12,84,35,0,85,7,0,33,0,24,0,2,0,0,85,118,0,0,100,0,62,0,19,0,0,0,0],"split_type":[0,0,0,0,0,0,0,0,0,0,0,0,0,0,0,0,0,0,0,0,0,0,0,0,0,0,0],"sum_hessian":[3.203E3,1.648E3,1.555E3,2.79E2,1.369E3,1.327E3,2.28E2,1.264E3,1.05E2,1.244E3,8.3E1,1.216E3,4.8E1,3.79E2,8.65E2,1.094E3,1.22E2,1.08E2,7.57E2,7.7E1,1.017E3,7.5E1,6.82E2,5.9E1,9.58E2,1.81E2,5.01E2],"tree_param":{"num_deleted":"0","num_feature":"200","num_nodes":"27","size_leaf_vector":"1"}},{"base_weights":[-0E0,-0E0,6.0146227E-3,-2.5450304E-2,-0E0,4.1932702E-2,-0E0,-7.5365245E-2,-0E0,1.1163701E-1,-0E0,-0E0,-1.08080275E-1,1.5269527E-1,-0E0,-0E0,-1.5775941E-1,-0E0,1.7363131E-1,-0E0,-1.9199577E-1,-0E0,1.9314899E-1,-1.922781E-2,-0E0,-0E0,1.9100204E-2],"categories":[],"categories_nodes":[],"categories_segments":[],"categories_sizes":[],"default_left":[0,0,0,0,0,0,0,0,0,0,0,0,0,0,0,0,0,0,0,0,0,0,0,0,0,0,0],"id":14,"left_children":[1,3,5,7,-1,9,-1,11,-1,13,-1,-1,15,17,-1,-1,19,-1,21,-1,23,-1,25,-1,-1,-1,-1],"loss_changes":[6.558711E-2,5.8230895E-1,1.6031172E0,3.4334872E0,0E0,4.326116E0,0E0,2.000288E0,0E0,4.8474274E0,0E0,0E0,2.3964772E0,2.3629932E0,0E0,0E0,2.1306791E0,0E0,2.6133347E0,0E0,2.082777E0,0E0,1.9928389E0,0E0,0E0,0E0,0E0],"parents":[2147483647,0,0,1,1,2,2,3,3,5,5,7,7,9,9,12,12,13,13,16,16,18,18,20,20,22,22],"right_children":[2,4,6,8,-1,10,-1,12,-1,14,-1,-1,16,18,-1,-1,20,-1,22,-1,24,-1,26,-1,-1,-1,-1],"split_conditions":[-8.259364E1,8.834304E1,2.013E3,9.749279E-1,-0E0,1E0,-0E0,-6.4E1,-0E0,1.3144317E4,-0E0,-0E0,4.612544E3,8.13243E0,-0E0,-0E0,-2.0931802E3,-0E0,-3.2013072E4,-0E0,4.319624E1,-0E0,-1.1828602E4,-1.922781E-2,-0E0,-0E0,1.9100204E-2],"split_indices":[56,66,2,3,0,13,0,39,0,33,0,0,89,22,0,0,55,0,65,0,22,0,14,0,0,0,0],"split_type":[0,0,0,0,0,0,0,0,0,0,0,0,0,0,0,0,0,0,0,0,0,0,0,0,0,0,0],"sum_hessian":[3.191E3,1.378E3,1.813E3,8.99E2,4.79E2,9.49E2,8.64E2,7.07E2,1.92E2,4.81E2,4.68E2,1.92E2,5.15E2,4.65E2,1.6E1,1.77E2,3.38E2,2.7E1,4.38E2,5.2E1,2.86E2,1.4E1,4.24E2,2.7E2,1.6E1,3.8E1,3.86E2],"tree_param":{"num_deleted":"0","num_feature":"200","num_nodes":"27","size_leaf_vector":"1"}},{"base_weights":[-0E0,-7.740929E-3,-0E0,-5.2605566E-2,-0E0,3.253286E-2,-0E0,-0E0,-7.341849E-2,5.3717E-2,-0E0,-0E0,-1.10342555E-1,7.1445964E-2,-0E0,-0E0,-1.6250817E-1,9.3711995E-2,-0E0,-0E0,-1.9700353E-1,-0E0,1.1241003E-1,-2.12095E-2,-0E0,1.52226165E-2,-0E0],"categories":[],"categories_nodes":[],"categories_segments":[],"categories_sizes":[],"default_left":[0,0,0,0,0,0,0,0,0,0,0,0,0,0,0,0,0,0,0,0,0,0,0,0,0,0,0],"id":15,"left_children":[1,3,5,7,-1,9,-1,-1,11,13,-1,-1,15,17,-1,-1,19,21,-1,-1,23,-1,25,-1,-1,-1,-1],"loss_changes":[6.4177416E-2,2.4098744E0,1.065813E0,2.1239405E0,0E0,1.6725887E0,0E0,0E0,2.9266524E0,1.6362603E0,0E0,0E0,2.933712E0,2.0450783E0,0E0,0E0,3.048293E0,1.844419E0,0E0,0E0,4.074977E0,0E0,3.0201378E0,0E0,0E0,0E0,0E0],"parents":[2147483647,0,0,1,1,2,2,3,3,5,5,8,8,9,9,12,12,13,13,16,16,17,17,20,20,22,22],"right_children":[2,4,6,8,-1,10,-1,-1,12,14,-1,-1,16,18,-1,-1,20,22,-1,-1,24,-1,26,-1,-1,-1,-1],"split_conditions":[-1.2506223E3,1.2596864E3,-5.489205E0,-1.5625E4,-0E0,7.880628E3,-0E0,-0E0,1.6002915E4,9.4139683E-1,-0E0,-0E0,3.1033249E1,1.7715503E3,-0E0,-0E0,-4.330786E3,-2.8633323E3,-0E0,-0E0,7.460729E3,-0E0,2.014E3,-2.12095E-2,-0E0,1.52226165E-2,-0E0],"split_indices":[84,35,65,35,0,34,0,0,49,7,0,0,24,36,0,0,32,35,0,0,64,0,2,0,0,0,0],"split_type":[0,0,0,0,0,0,0,0,0,0,0,0,0,0,0,0,0,0,0,0,0,0,0,0,0,0,0],"sum_hessian":[3.192E3,1.071E3,2.121E3,8.94E2,1.77E2,1.007E3,1.114E3,4.1E1,8.53E2,9.49E2,5.8E1,2.35E2,6.18E2,8.57E2,9.2E1,2.22E2,3.96E2,7.31E2,1.26E2,4.8E1,3.48E2,7.7E1,6.54E2,3.09E2,3.9E1,3.85E2,2.69E2],"tree_param":{"num_deleted":"0","num_feature":"200","num_nodes":"27","size_leaf_vector":"1"}},{"base_weights":[-0E0,-0E0,-4.5328466E-3,-0E0,3.139908E-2,-2.9813893E-2,-0E0,-0E0,5.7024516E-2,-0E0,-6.1258227E-2,-0E0,7.241784E-2,-0E0,-1.0875501E-1,-0E0,8.5663125E-2,-0E0,-1.298704E-1,-0E0,9.554562E-2,-1.6422021E-1,-0E0,9.3583E-3,-0E0,-0E0,-1.618436E-2],"categories":[],"categories_nodes":[],"categories_segments":[],"categories_sizes":[],"default_left":[0,0,0,0,0,0,0,0,0,0,0,0,0,0,0,0,0,0,0,0,0,0,0,0,0,0,0],"id":16,"left_children":[1,3,5,-1,7,9,-1,-1,11,-1,13,-1,15,-1,17,-1,19,-1,21,-1,23,25,-1,-1,-1,-1,-1],"loss_changes":[4.265528E-2,7.621184E-1,1.4479913E0,0E0,1.6410115E0,3.5003333E0,0E0,0E0,1.3466611E0,0E0,3.8681235E0,0E0,1.3063285E0,0E0,3.2343225E0,0E0,1.0695648E0,0E0,2.9553127E0,0E0,1.1297402E0,3.007084E0,0E0,0E0,0E0,0E0,0E0],"parents":[2147483647,0,0,1,1,2,2,4,4,5,5,8,8,10,10,12,12,14,14,16,16,18,18,20,20,21,21],"right_children":[2,4,6,-1,8,10,-1,-1,12,-1,14,-1,16,-1,18,-1,20,-1,22,-1,24,26,-1,-1,-1,-1,-1],"split_conditions":[6.0662414E4,-4.2875E1,2.9415704E2,-0E0,-1.5166338E2,-3.3079922E2,-0E0,-0E0,6.8077745E0,-0E0,7.188975E3,-0E0,-1.2812743E4,-0E0,-2.3904965E2,-0E0,2.1597363E-1,-0E0,2.4598628E3,-0E0,3.1E1,-3.528751E4,-0E0,9.3583E-3,-0E0,-0E0,-1.618436E-2],"split_indices":[16,35,68,0,100,68,0,0,22,0,43,0,34,0,100,0,40,0,60,0,1,34,0,0,0,0,0],"split_type":[0,0,0,0,0,0,0,0,0,0,0,0,0,0,0,0,0,0,0,0,0,0,0,0,0,0,0],"sum_hessian":[3.2E3,1.124E3,2.076E3,3.51E2,7.73E2,1.677E3,3.99E2,3.4E1,7.39E2,3.47E2,1.33E3,2.4E1,7.15E2,5.81E2,7.49E2,2.6E1,6.89E2,3.2E1,7.17E2,1.8E1,6.71E2,5.58E2,1.59E2,6.55E2,1.6E1,1.3E1,5.45E2],"tree_param":{"num_deleted":"0","num_feature":"200","num_nodes":"27","size_leaf_vector":"1"}},{"base_weights":[-0E0,1.8287858E-4,-0E0,-0E0,2.2612562E-2,-1.5233829E-2,-0E0,-0E0,6.109563E-2,-0E0,-4.9379215E-2,-0E0,1.0759805E-1,-0E0,-7.752526E-2,1.4918192E-1,-0E0,-0E0,-1.0027497E-1,1.7296001E-1,-0E0,-0E0,-1.1881743E-1,-0E0,1.7522493E-2,-1.3684915E-2,-0E0],"categories":[],"categories_nodes":[],"categories_segments":[],"categories_sizes":[],"default_left":[0,0,0,0,0,0,0,0,0,0,0,0,0,0,0,0,0,0,0,0,0,0,0,0,0,0,0],"id":17,"left_children":[1,3,5,-1,7,9,-1,-1,11,-1,13,-1,15,-1,17,19,-1,-1,21,23,-1,-1,25,-1,-1,-1,-1],"loss_changes":[5.157208E-5,7.306444E-1,3.0146208E-1,0E0,2.1733866E0,1.6199633E0,0E0,0E0,3.3015602E0,0E0,2.1054835E0,0E0,4.054387E0,0E0,2.287839E0,2.9629622E0,0E0,0E0,2.0148554E0,2.6217842E0,0E0,0E0,2.7560692E0,0E0,0E0,0E0,0E0],"parents":[2147483647,0,0,1,1,2,2,4,4,5,5,8,8,10,10,12,12,14,14,15,15,18,18,19,19,22,22],"right_children":[2,4,6,-1,8,10,-1,-1,12,-1,14,-1,16,-1,18,20,-1,-1,22,24,-1,-1,26,-1,-1,-1,-1],"split_conditions":[-5.489205E0,-1.2276067E4,1.0880155E4,-0E0,1.6549686E1,6.4348306E3,-0E0,-0E0,-1.0936733E3,-0E0,5.456187E0,-0E0,1.3824422E1,-0E0,-5.798053E4,1E0,-0E0,-0E0,-9.8334295E-1,0E0,-0E0,-0E0,7.049748E2,-0E0,1.7522493E-2,-1.3684915E-2,-0E0],"split_indices":[65,55,86,0,22,43,0,0,62,0,20,0,39,0,76,109,0,0,7,155,0,0,37,0,0,0,0],"split_type":[0,0,0,0,0,0,0,0,0,0,0,0,0,0,0,0,0,0,0,0,0,0,0,0,0,0,0],"sum_hessian":[3.203E3,1.542E3,1.661E3,1.13E2,1.429E3,1.299E3,3.62E2,6.51E2,7.78E2,5.11E2,7.88E2,2.42E2,5.36E2,1.18E2,6.7E2,4.61E2,7.5E1,4.2E1,6.28E2,4.42E2,1.9E1,3.8E1,5.9E2,3.4E1,4.08E2,4.68E2,1.22E2],"tree_param":{"num_deleted":"0","num_feature":"200","num_nodes":"27","size_leaf_vector":"1"}},{"base_weights":[-0E0],"categories":[],"categories_nodes":[],"categories_segments":[],"categories_sizes":[],"default_left":[0],"id":18,"left_children":[-1],"loss_changes":[0E0],"parents":[2147483647],"right_children":[-1],"split_conditions":[-0E0],"split_indices":[0],"split_type":[0],"sum_hessian":[3.218E3],"tree_param":{"num_deleted":"0","num_feature":"200","num_nodes":"1","size_leaf_vector":"1"}},{"base_weights":[-0E0,-0E0,4.558183E-3,-2.5295734E-2,-0E0,2.9232124E-2,-0E0,-0E0,-7.011174E-2,7.1915455E-2,-0E0,-1.097382E-1,-0E0,1.06404126E-1,-0E0,-0E0,-1.3970532E-1,1.4512338E-1,-0E0,-0E0,-1.6944285E-1,-0E0,1.7817718E-1,-0E0,-1.6964456E-2,1.7668987E-2,-0E0],"categories":[],"categories_nodes":[],"categories_segments":[],"categories_sizes":[],"default_left":[0,0,0,0,0,0,0,0,0,0,0,0,0,0,0,0,0,0,0,0,0,0,0,0,0,0,0],"id":19,"left_children":[1,3,5,7,-1,9,-1,-1,11,13,-1,15,-1,17,-1,-1,19,21,-1,-1,23,-1,25,-1,-1,-1,-1],"loss_changes":[3.7648313E-2,6.3732517E-1,1.0638381E0,2.3367267E0,0E0,2.420616E0,0E0,0E0,3.7338023E0,3.7580237E0,0E0,2.6218653E0,0E0,3.3980393E0,0E0,0E0,3.4470892E0,2.783125E0,0E0,0E0,2.7664137E0,0E0,2.1756964E0,0E0,0E0,0E0,0E0],"parents":[2147483647,0,0,1,1,2,2,3,3,5,5,8,8,9,9,11,11,13,13,16,16,17,17,20,20,22,22],"right_children":[2,4,6,8,-1,10,-1,-1,12,14,-1,16,-1,18,-1,-1,20,22,-1,-1,24,-1,26,-1,-1,-1,-1],"split_conditions":[-7.2905934E-1,1.4888112E2,2.015E3,1.7387372E5,-0E0,1E0,-0E0,-0E0,2.810615E3,2.1145222E9,-0E0,1.8E1,-0E0,3.5816113E3,-0E0,-0E0,-7.880628E3,1.3299564E1,-0E0,-0E0,-4.6656E4,-0E0,1.6877E3,-0E0,-1.6964456E-2,1.7668987E-2,-0E0],"split_indices":[30,37,2,103,0,184,0,0,90,16,0,0,0,30,0,0,35,23,0,0,30,0,198,0,0,0,0],"split_type":[0,0,0,0,0,0,0,0,0,0,0,0,0,0,0,0,0,0,0,0,0,0,0,0,0,0,0],"sum_hessian":[3.202E3,1.39E3,1.812E3,9.96E2,3.94E2,1.289E3,5.23E2,3.91E2,6.05E2,6.81E2,6.08E2,5.57E2,4.8E1,6.43E2,3.8E1,7.9E1,4.78E2,5.07E2,1.36E2,3.3E1,4.45E2,8.3E1,4.24E2,1.8E1,4.27E2,3.96E2,2.8E1],"tree_param":{"num_deleted":"0","num_feature":"200","num_nodes":"27","size_leaf_vector":"1"}},{"base_weights":[-0E0],"categories":[],"categories_nodes":[],"categories_segments":[],"categories_sizes":[],"default_left":[0],"id":20,"left_children":[-1],"loss_changes":[0E0],"parents":[2147483647],"right_children":[-1],"split_conditions":[-0E0],"split_indices":[0],"split_type":[0],"sum_hessian":[3.215E3],"tree_param":{"num_deleted":"0","num_feature":"200","num_nodes":"1","size_leaf_vector":"1"}},{"base_weights":[-0E0],"categories":[],"categories_nodes":[],"categories_segments":[],"categories_sizes":[],"default_left":[0],"id":21,"left_children":[-1],"loss_changes":[0E0],"parents":[2147483647],"right_children":[-1],"split_conditions":[-0E0],"split_indices":[0],"split_type":[0],"sum_hessian":[3.22E3],"tree_param":{"num_deleted":"0","num_feature":"200","num_nodes":"1","size_leaf_vector":"1"}},{"base_weights":[-0E0],"categories":[],"categories_nodes":[],"categories_segments":[],"categories_sizes":[],"default_left":[0],"id":22,"left_children":[-1],"loss_changes":[0E0],"parents":[2147483647],"right_children":[-1],"split_conditions":[-0E0],"split_indices":[0],"split_type":[0],"sum_hessian":[3.198E3],"tree_param":{"num_deleted":"0","num_feature":"200","num_nodes":"1","size_leaf_vector":"1"}},{"base_weights":[-0E0],"categories":[],"categories_nodes":[],"categories_segments":[],"categories_sizes":[],"default_left":[0],"id":23,"left_children":[-1],"loss_changes":[0E0],"parents":[2147483647],"right_children":[-1],"split_conditions":[-0E0],"split_indices":[0],"split_type":[0],"sum_hessian":[3.197E3],"tree_param":{"num_deleted":"0","num_feature":"200","num_nodes":"1","size_leaf_vector":"1"}},{"base_weights":[-0E0,-0E0,6.6385895E-4,-4.743779E-3,-0E0,-0E0,1.923382E-2,-4.3751024E-2,-0E0,-0E0,4.1194253E-2,-0E0,-6.549406E-2,-0E0,6.29683E-2,-8.434755E-2,-0E0,8.373743E-2,-0E0,-1.0086835E-1,-0E0,-0E0,1.0063119E-1,-1.0605786E-2,-0E0,1.165843E-2,-0E0],"categories":[],"categories_nodes":[],"categories_segments":[],"categories_sizes":[],"default_left":[0,0,0,0,0,0,0,0,0,0,0,0,0,0,0,0,0,0,0,0,0,0,0,0,0,0,0],"id":24,"left_children":[1,3,5,7,-1,-1,9,11,-1,-1,13,-1,15,-1,17,19,-1,21,-1,23,-1,-1,25,-1,-1,-1,-1],"loss_changes":[1.1498162E-3,1.1882183E-2,7.8016895E-1,8.590883E-1,0E0,0E0,1.8710674E0,9.5641446E-1,0E0,0E0,2.946268E0,0E0,1.0256498E0,0E0,3.9517465E0,9.9306345E-1,0E0,3.128312E0,0E0,1.3468592E0,0E0,0E0,2.7073612E0,0E0,0E0,0E0,0E0],"parents":[2147483647,0,0,1,1,2,2,3,3,6,6,7,7,10,10,12,12,14,14,15,15,17,17,19,19,22,22],"right_children":[2,4,6,8,-1,-1,10,12,-1,-1,14,-1,16,-1,18,20,-1,22,-1,24,-1,-1,26,-1,-1,-1,-1],"split_conditions":[-6.6739624E3,1E0,-5.61544E3,2.460375E3,-0E0,-0E0,4.5817425E1,-8.489694E3,-0E0,-0E0,0E0,-0E0,-1.2318574E3,-0E0,2.210088E4,9.8215E-1,-0E0,0E0,-0E0,6.153063E2,-0E0,-0E0,4.907652E3,-1.0605786E-2,-0E0,1.165843E-2,-0E0],"split_indices":[84,156,83,35,0,0,26,35,0,0,156,0,88,0,14,7,0,115,0,70,0,0,83,0,0,0,0],"split_type":[0,0,0,0,0,0,0,0,0,0,0,0,0,0,0,0,0,0,0,0,0,0,0,0,0,0,0],"sum_hessian":[3.21E3,6.01E2,2.609E3,5.28E2,7.3E1,4.97E2,2.112E3,4.55E2,7.3E1,5.49E2,1.563E3,2.9E1,4.26E2,1.51E2,1.412E3,4.01E2,2.5E1,1.362E3,5E1,3.78E2,2.3E1,1.1E2,1.252E3,3.65E2,1.3E1,8.95E2,3.57E2],"tree_param":{"num_deleted":"0","num_feature":"200","num_nodes":"27","size_leaf_vector":"1"}},{"base_weights":[-0E0],"categories":[],"categories_nodes":[],"categories_segments":[],"categories_sizes":[],"default_left":[0],"id":25,"left_children":[-1],"loss_changes":[0E0],"parents":[2147483647],"right_children":[-1],"split_conditions":[-0E0],"split_indices":[0],"split_type":[0],"sum_hessian":[3.208E3],"tree_param":{"num_deleted":"0","num_feature":"200","num_nodes":"1","size_leaf_vector":"1"}},{"base_weights":[-0E0],"categories":[],"categories_nodes":[],"categories_segments":[],"categories_sizes":[],"default_left":[0],"id":26,"left_children":[-1],"loss_changes":[0E0],"parents":[2147483647],"right_children":[-1],"split_conditions":[-0E0],"split_indices":[0],"split_type":[0],"sum_hessian":[3.208E3],"tree_param":{"num_deleted":"0","num_feature":"200","num_nodes":"1","size_leaf_vector":"1"}},{"base_weights":[-0E0,1.9094595E-3,-0E0,-0E0,2.7902996E-2,-2.1063756E-2,-0E0,-0E0,4.575201E-2,-0E0,-5.5411562E-2,-0E0,6.827747E-2,-0E0,-8.649652E-2,8.222883E-2,-0E0,-1.1135664E-1,-0E0,-0E0,9.746521E-2,-1.3309415E-1,-0E0,1.0960017E-2,-0E0,-0E0,-1.4171899E-2],"categories":[],"categories_nodes":[],"categories_segments":[],"categories_sizes":[],"default_left":[0,0,0,0,0,0,0,0,0,0,0,0,0,0,0,0,0,0,0,0,0,0,0,0,0,0,0],"id":27,"left_children":[1,3,5,-1,7,9,-1,-1,11,-1,13,-1,15,-1,17,19,-1,21,-1,-1,23,25,-1,-1,-1,-1,-1],"loss_changes":[5.031588E-3,6.030499E-1,7.0324296E-1,0E0,9.9537945E-1,2.45015E0,0E0,0E0,8.813616E-1,0E0,3.52784E0,0E0,1.024548E0,0E0,3.474815E0,1.1645224E0,0E0,3.4663458E0,0E0,0E0,1.3579164E0,3.4991655E0,0E0,0E0,0E0,0E0,0E0],"parents":[2147483647,0,0,1,1,2,2,4,4,5,5,8,8,10,10,12,12,14,14,15,15,17,17,20,20,21,21],"right_children":[2,4,6,-1,8,10,-1,-1,12,-1,14,-1,16,-1,18,20,-1,22,-1,-1,24,26,-1,-1,-1,-1,-1],"split_conditions":[-4.690535E7,-6.7083606E2,1.4428923E3,-0E0,-6.57136E4,2.461788E1,-0E0,-0E0,1.8158534E3,-0E0,-1.0771737E4,-0E0,1.4205772E14,-0E0,1.4247744E4,0E0,-0E0,9.7876906E-1,-0E0,-0E0,2.1534692E3,-2.9753265E2,-0E0,1.0960017E-2,-0E0,-0E0,-1.4171899E-2],"split_indices":[12,14,35,0,78,24,0,0,41,0,85,0,18,0,64,177,0,7,0,0,55,68,0,0,0,0,0],"split_type":[0,0,0,0,0,0,0,0,0,0,0,0,0,0,0,0,0,0,0,0,0,0,0,0,0,0,0],"sum_hessian":[3.215E3,1.38E3,1.835E3,5.99E2,7.81E2,1.585E3,2.5E2,1.5E1,7.66E2,5.58E2,1.027E3,2.33E2,5.33E2,1.34E2,8.93E2,5.19E2,1.4E1,8.19E2,7.4E1,2.7E1,4.92E2,7.69E2,5E1,3.97E2,9.5E1,9.5E1,6.74E2],"tree_param":{"num_deleted":"0","num_feature":"200","num_nodes":"27","size_leaf_vector":"1"}},{"base_weights":[-0E0],"categories":[],"categories_nodes":[],"categories_segments":[],"categories_sizes":[],"default_left":[0],"id":28,"left_children":[-1],"loss_changes":[0E0],"parents":[2147483647],"right_children":[-1],"split_conditions":[-0E0],"split_indices":[0],"split_type":[0],"sum_hessian":[3.198E3],"tree_param":{"num_deleted":"0","num_feature":"200","num_nodes":"1","size_leaf_vector":"1"}},{"base_weights":[-0E0],"categories":[],"categories_nodes":[],"categories_segments":[],"categories_sizes":[],"default_left":[0],"id":29,"left_children":[-1],"loss_changes":[0E0],"parents":[2147483647],"right_children":[-1],"split_conditions":[-0E0],"split_indices":[0],"split_type":[0],"sum_hessian":[3.196E3],"tree_param":{"num_deleted":"0","num_feature":"200","num_nodes":"1","size_leaf_vector":"1"}},{"base_weights":[-0E0,-2.7480829E-3,-0E0,-0E0,-3.9259553E-2,-0E0,7.2590844E-3,-7.5821765E-2,-0E0,3.479928E-2,-0E0,-0E0,-1.13847256E-1,-0E0,6.2009167E-2,-1.4119771E-1,-0E0,9.794336E-2,-0E0,-1.6162805E-1,-0E0,-0E0,1.1883331E-1,-0E0,-1.6041912E-2,-0E0,1.2508879E-2],"categories":[],"categories_nodes":[],"categories_segments":[],"categories_sizes":[],"default_left":[0,0,0,0,0,0,0,0,0,0,0,0,0,0,0,0,0,0,0,0,0,0,0,0,0,0,0],"id":30,"left_children":[1,3,5,-1,7,-1,9,11,-1,13,-1,-1,15,-1,17,19,-1,21,-1,23,-1,-1,25,-1,-1,-1,-1],"loss_changes":[1.9846674E-2,1.8420838E0,2.8508477E-2,0E0,3.3179584E0,0E0,5.5036443E-1,3.504325E0,0E0,8.131292E-1,0E0,0E0,3.975975E0,0E0,1.7066615E0,3.197279E0,0E0,9.402745E-1,0E0,2.858368E0,0E0,0E0,1.0475059E0,0E0,0E0,0E0,0E0],"parents":[2147483647,0,0,1,1,2,2,4,4,6,6,7,7,9,9,12,12,14,14,15,15,17,17,19,19,22,22],"right_children":[2,4,6,-1,8,-1,10,12,-1,14,-1,-1,16,-1,18,20,-1,22,-1,24,-1,-1,26,-1,-1,-1,-1],"split_conditions":[9.7030615E2,9.581492E0,6.762E2,-0E0,4.7202344E3,-0E0,4.2546416E8,-1.3984942E4,-0E0,6.788996E0,-0E0,-0E0,1.557213E5,-0E0,9.3993753E-1,9.9275863E-1,-0E0,1.3575938E4,-0E0,-9.726578E-1,-0E0,-0E0,0E0,-0E0,-1.6041912E-2,-0E0,1.2508879E-2],"split_indices":[35,19,197,0,79,0,16,15,0,19,0,0,43,0,7,7,0,94,0,7,0,0,120,0,0,0,0],"split_type":[0,0,0,0,0,0,0,0,0,0,0,0,0,0,0,0,0,0,0,0,0,0,0,0,0,0,0],"sum_hessian":[3.203E3,2.628E3,5.75E2,1.42E3,1.208E3,3.4E1,5.41E2,9.01E2,3.07E2,4.78E2,6.3E1,2.31E2,6.7E2,1.16E2,3.62E2,6.35E2,3.5E1,3.23E2,3.9E1,6.07E2,2.8E1,3.7E1,2.86E2,3.2E1,5.75E2,2.9E1,2.57E2],"tree_param":{"num_deleted":"0","num_feature":"200","num_nodes":"27","size_leaf_vector":"1"}},{"base_weights":[-0E0],"categories":[],"categories_nodes":[],"categories_segments":[],"categories_sizes":[],"default_left":[0],"id":31,"left_children":[-1],"loss_changes":[0E0],"parents":[2147483647],"right_children":[-1],"split_conditions":[-0E0],"split_indices":[0],"split_type":[0],"sum_hessian":[3.208E3],"tree_param":{"num_deleted":"0","num_feature":"200","num_nodes":"1","size_leaf_vector":"1"}},{"base_weights":[-0E0],"categories":[],"categories_nodes":[],"categories_segments":[],"categories_sizes":[],"default_left":[0],"id":32,"left_children":[-1],"loss_changes":[0E0],"parents":[2147483647],"right_children":[-1],"split_conditions":[-0E0],"split_indices":[0],"split_type":[0],"sum_hessian":[3.217E3],"tree_param":{"num_deleted":"0","num_feature":"200","num_nodes":"1","size_leaf_vector":"1"}},{"base_weights":[-0E0],"categories":[],"categories_nodes":[],"categories_segments":[],"categories_sizes":[],"default_left":[0],"id":33,"left_children":[-1],"loss_changes":[0E0],"parents":[2147483647],"right_children":[-1],"split_conditions":[-0E0],"split_indices":[0],"split_type":[0],"sum_hessian":[3.208E3],"tree_param":{"num_deleted":"0","num_feature":"200","num_nodes":"1","size_leaf_vector":"1"}},{"base_weights":[-0E0],"categories":[],"categories_nodes":[],"categories_segments":[],"categories_sizes":[],"default_left":[0],"id":34,"left_children":[-1],"loss_changes":[0E0],"parents":[2147483647],"right_children":[-1],"split_conditions":[-0E0],"split_indices":[0],"split_type":[0],"sum_hessian":[3.21E3],"tree_param":{"num_deleted":"0","num_feature":"200","num_nodes":"1","size_leaf_vector":"1"}},{"base_weights":[-0E0],"categories":[],"categories_nodes":[],"categories_segments":[],"categories_sizes":[],"default_left":[0],"id":35,"left_children":[-1],"loss_changes":[0E0],"parents":[2147483647],"right_children":[-1],"split_conditions":[-0E0],"split_indices":[0],"split_type":[0],"sum_hessian":[3.189E3],"tree_param":{"num_deleted":"0","num_feature":"200","num_nodes":"1","size_leaf_vector":"1"}},{"base_weights":[-0E0],"categories":[],"categories_nodes":[],"categories_segments":[],"categories_sizes":[],"default_left":[0],"id":36,"left_children":[-1],"loss_changes":[0E0],"parents":[2147483647],"right_children":[-1],"split_conditions":[-0E0],"split_indices":[0],"split_type":[0],"sum_hessian":[3.204E3],"tree_param":{"num_deleted":"0","num_feature":"200","num_nodes":"1","size_leaf_vector":"1"}},{"base_weights":[-0E0],"categories":[],"categories_nodes":[],"categories_segments":[],"categories_sizes":[],"default_left":[0],"id":37,"left_children":[-1],"loss_changes":[0E0],"parents":[2147483647],"right_children":[-1],"split_conditions":[-0E0],"split_indices":[0],"split_type":[0],"sum_hessian":[3.216E3],"tree_param":{"num_deleted":"0","num_feature":"200","num_nodes":"1","size_leaf_vector":"1"}},{"base_weights":[-0E0,1.0145528E-3,-0E0,-0E0,2.1434836E-2,-0E0,4.2874336E-2,5.6428768E-2,-0E0,6.991575E-2,-0E0,-0E0,8.559755E-2,8.657601E-3,-0E0],"categories":[],"categories_nodes":[],"categories_segments":[],"categories_sizes":[],"default_left":[0,0,0,0,0,0,0,0,0,0,0,0,0,0,0],"id":38,"left_children":[1,3,-1,-1,5,-1,7,9,-1,11,-1,-1,13,-1,-1],"loss_changes":[2.8975452E-3,1.0708497E0,0E0,0E0,2.0861638E0,0E0,2.0717914E0,2.2326765E0,0E0,2.573649E0,0E0,0E0,2.5990696E0,0E0,0E0],"parents":[2147483647,0,0,1,1,4,4,6,6,7,7,9,9,12,12],"right_children":[2,4,-1,-1,6,-1,8,10,-1,12,-1,-1,14,-1,-1],"split_conditions":[1.4815347E12,-7.254454E3,-0E0,-0E0,1.5435871E1,-0E0,1.0360302E4,6.718867E2,-0E0,0E0,-0E0,-0E0,9.9410987E-1,8.657601E-3,-0E0],"split_indices":[12,84,0,0,23,0,33,93,0,155,0,0,6,0,0],"split_type":[0,0,0,0,0,0,0,0,0,0,0,0,0,0,0],"sum_hessian":[3.207E3,2.815E3,3.92E2,4.78E2,2.337E3,6.18E2,1.719E3,1.643E3,7.6E1,1.527E3,1.16E2,1.57E2,1.37E3,1.333E3,3.7E1],"tree_param":{"num_deleted":"0","num_feature":"200","num_nodes":"15","size_leaf_vector":"1"}},{"base_weights":[-0E0],"categories":[],"categories_nodes":[],"categories_segments":[],"categories_sizes":[],"default_left":[0],"id":39,"left_children":[-1],"loss_changes":[0E0],"parents":[2147483647],"right_children":[-1],"split_conditions":[-0E0],"split_indices":[0],"split_type":[0],"sum_hessian":[3.202E3],"tree_param":{"num_deleted":"0","num_feature":"200","num_nodes":"1","size_leaf_vector":"1"}},{"base_weights":[-0E0,-0E0,1.9170288E-3,-2.363314E-2,-0E0,2.1461679E-2,-0E0,-4.1200433E-2,-0E0,-0E0,5.4355435E-2,-5.750341E-2,-0E0,8.523172E-2,-0E0,-0E0,-7.547621E-2,-0E0,1.2137923E-1,-0E0,-8.8113576E-2,1.423777E-1,-0E0,-0E0,-9.246681E-3,-0E0,1.4506111E-2],"categories":[],"categories_nodes":[],"categories_segments":[],"categories_sizes":[],"default_left":[0,0,0,0,0,0,0,0,0,0,0,0,0,0,0,0,0,0,0,0,0,0,0,0,0,0,0],"id":40,"left_children":[1,3,5,7,-1,9,-1,11,-1,-1,13,15,-1,17,-1,-1,19,-1,21,-1,23,25,-1,-1,-1,-1,-1],"loss_changes":[6.677534E-3,5.043574E-1,6.658113E-1,8.264912E-1,0E0,1.7118515E0,0E0,9.5409524E-1,0E0,0E0,1.988975E0,1.093267E0,0E0,2.3304024E0,0E0,0E0,1.1172731E0,0E0,2.2971196E0,0E0,1.2036986E0,2.151083E0,0E0,0E0,0E0,0E0,0E0],"parents":[2147483647,0,0,1,1,2,2,3,3,5,5,7,7,10,10,11,11,13,13,16,16,18,18,20,20,21,21],"right_children":[2,4,6,8,-1,10,-1,12,-1,-1,14,16,-1,18,-1,-1,20,-1,22,-1,24,26,-1,-1,-1,-1,-1],"split_conditions":[-8.259364E1,8.834304E1,4.1827905E2,1.6430015E3,-0E0,1.6108429E1,-0E0,8.777208E0,-0E0,-0E0,2.8781794E1,-4.615315E11,-0E0,-7.379428E-1,-0E0,-0E0,-5.531421E2,-0E0,1.819142E4,-0E0,3.5790732E2,3E0,-0E0,-0E0,-9.246681E-3,-0E0,1.4506111E-2],"split_indices":[56,66,66,32,0,22,0,74,0,0,98,18,0,6,0,0,98,0,14,0,41,1,0,0,0,0,0],"split_type":[0,0,0,0,0,0,0,0,0,0,0,0,0,0,0,0,0,0,0,0,0,0,0,0,0,0,0],"sum_hessian":[3.207E3,1.39E3,1.817E3,9.03E2,4.87E2,1.46E3,3.57E2,7.84E2,1.19E2,6.53E2,8.07E2,6.91E2,9.3E1,6.02E2,2.05E2,9.8E1,5.93E2,1.47E2,4.55E2,1.4E1,5.79E2,4.44E2,1.1E1,5.2E1,5.27E2,2.5E1,4.19E2],"tree_param":{"num_deleted":"0","num_feature":"200","num_nodes":"27","size_leaf_vector":"1"}},{"base_weights":[-0E0],"categories":[],"categories_nodes":[],"categories_segments":[],"categories_sizes":[],"default_left":[0],"id":41,"left_children":[-1],"loss_changes":[0E0],"parents":[2147483647],"right_children":[-1],"split_conditions":[-0E0],"split_indices":[0],"split_type":[0],"sum_hessian":[3.205E3],"tree_param":{"num_deleted":"0","num_feature":"200","num_nodes":"1","size_leaf_vector":"1"}},{"base_weights":[-0E0],"categories":[],"categories_nodes":[],"categories_segments":[],"categories_sizes":[],"default_left":[0],"id":42,"left_children":[-1],"loss_changes":[0E0],"parents":[2147483647],"right_children":[-1],"split_conditions":[-0E0],"split_indices":[0],"split_type":[0],"sum_hessian":[3.193E3],"tree_param":{"num_deleted":"0","num_feature":"200","num_nodes":"1","size_leaf_vector":"1"}},{"base_weights":[-0E0],"categories":[],"categories_nodes":[],"categories_segments":[],"categories_sizes":[],"default_left":[0],"id":43,"left_children":[-1],"loss_changes":[0E0],"parents":[2147483647],"right_children":[-1],"split_conditions":[-0E0],"split_indices":[0],"split_type":[0],"sum_hessian":[3.183E3],"tree_param":{"num_deleted":"0","num_feature":"200","num_nodes":"1","size_leaf_vector":"1"}},{"base_weights":[-0E0,-1.4611575E-4,-0E0,-0E0,-2.3404201E-2,-0E0,8.841019E-3,-0E0,-5.2935712E-2,3.6716416E-2,-0E0,-8.784083E-2,-0E0,6.8043865E-2,-0E0,-1.3128905E-1,-0E0,-0E0,8.534081E-2,-1.5506534E-1,-0E0,-0E0,1.0442382E-1,-0E0,-1.7211072E-2,1.0515816E-2,-0E0],"categories":[],"categories_nodes":[],"categories_segments":[],"categories_sizes":[],"default_left":[0,0,0,0,0,0,0,0,0,0,0,0,0,0,0,0,0,0,0,0,0,0,0,0,0,0,0],"id":44,"left_children":[1,3,5,-1,7,-1,9,-1,11,13,-1,15,-1,17,-1,19,-1,-1,21,23,-1,-1,25,-1,-1,-1,-1],"loss_changes":[5.591551E-5,9.108722E-1,3.447143E-2,0E0,2.6675134E0,0E0,4.872634E-1,0E0,3.0960345E0,1.1543889E0,0E0,5.2019715E0,0E0,8.876301E-1,0E0,4.210224E0,0E0,0E0,8.71289E-1,3.0588589E0,0E0,0E0,7.750602E-1,0E0,0E0,0E0,0E0],"parents":[2147483647,0,0,1,1,2,2,4,4,6,6,8,8,9,9,11,11,13,13,15,15,18,18,19,19,22,22],"right_children":[2,4,6,-1,8,-1,10,-1,12,14,-1,16,-1,18,-1,20,-1,-1,22,24,-1,-1,26,-1,-1,-1,-1],"split_conditions":[9.7030615E2,8.489694E3,6.788996E0,-0E0,-3.9887766E4,-0E0,8.3625257E12,-0E0,9.7338326E1,1.5374419E2,-0E0,2.9415704E2,-0E0,1.9164955E-2,-0E0,9.664613E-1,-0E0,-0E0,5.0319786E1,1.8487223E4,-0E0,-0E0,2.7876167E3,-0E0,-1.7211072E-2,1.0515816E-2,-0E0],"split_indices":[35,45,19,0,88,0,12,0,37,26,0,68,0,5,0,5,0,0,26,96,0,0,50,0,0,0,0],"split_type":[0,0,0,0,0,0,0,0,0,0,0,0,0,0,0,0,0,0,0,0,0,0,0,0,0,0,0],"sum_hessian":[3.195E3,2.619E3,5.76E2,9.56E2,1.663E3,1.35E2,4.41E2,3.86E2,1.277E3,3.87E2,5.4E1,8.65E2,4.12E2,3.62E2,2.5E1,6.89E2,1.76E2,1E1,3.52E2,6.69E2,2E1,3.7E1,3.15E2,1.58E2,5.11E2,3.01E2,1.4E1],"tree_param":{"num_deleted":"0","num_feature":"200","num_nodes":"27","size_leaf_vector":"1"}},{"base_weights":[-0E0],"categories":[],"categories_nodes":[],"categories_segments":[],"categories_sizes":[],"default_left":[0],"id":45,"left_children":[-1],"loss_changes":[0E0],"parents":[2147483647],"right_children":[-1],"split_conditions":[-0E0],"split_indices":[0],"split_type":[0],"sum_hessian":[3.201E3],"tree_param":{"num_deleted":"0","num_feature":"200","num_nodes":"1","size_leaf_vector":"1"}},{"base_weights":[-0E0],"categories":[],"categories_nodes":[],"categories_segments":[],"categories_sizes":[],"default_left":[0],"id":46,"left_children":[-1],"loss_changes":[0E0],"parents":[2147483647],"right_children":[-1],"split_conditions":[-0E0],"split_indices":[0],"split_type":[0],"sum_hessian":[3.214E3],"tree_param":{"num_deleted":"0","num_feature":"200","num_nodes":"1","size_leaf_vector":"1"}},{"base_weights":[-0E0],"categories":[],"categories_nodes":[],"categories_segments":[],"categories_sizes":[],"default_left":[0],"id":47,"left_children":[-1],"loss_changes":[0E0],"parents":[2147483647],"right_children":[-1],"split_conditions":[-0E0],"split_indices":[0],"split_type":[0],"sum_hessian":[3.21E3],"tree_param":{"num_deleted":"0","num_feature":"200","num_nodes":"1","size_leaf_vector":"1"}},{"base_weights":[-0E0],"categories":[],"categories_nodes":[],"categories_segments":[],"categories_sizes":[],"default_left":[0],"id":48,"left_children":[-1],"loss_changes":[0E0],"parents":[2147483647],"right_children":[-1],"split_conditions":[-0E0],"split_indices":[0],"split_type":[0],"sum_hessian":[3.196E3],"tree_param":{"num_deleted":"0","num_feature":"200","num_nodes":"1","size_leaf_vector":"1"}},{"base_weights":[-0E0,8.7737496E-4,-0E0,2.8772479E-2,-0E0,-0E0,6.0086478E-2,-0E0,1.0236734E-1,-0E0,1.357027E-1,-0E0,1.536584E-1,-0E0,1.5032019E-2],"categories":[],"categories_nodes":[],"categories_segments":[],"categories_sizes":[],"default_left":[0,0,0,0,0,0,0,0,0,0,0,0,0,0,0],"id":49,"left_children":[1,3,-1,5,-1,-1,7,-1,9,-1,11,-1,13,-1,-1],"loss_changes":[2.165423E-3,1.063298E0,0E0,2.674954E0,0E0,0E0,4.286723E0,0E0,2.7460651E0,0E0,2.7090073E0,0E0,1.5795355E0,0E0,0E0],"parents":[2147483647,0,0,1,1,3,3,6,6,8,8,10,10,12,12],"right_children":[2,4,-1,6,-1,-1,8,-1,10,-1,12,-1,14,-1,-1],"split_conditions":[1.4815347E12,1.1955E3,-0E0,0E0,-0E0,-0E0,-9.909887E2,-0E0,2.5203499E1,-0E0,-1.5946939E5,-0E0,-1.7584238E4,-0E0,1.5032019E-2],"split_indices":[12,198,0,132,0,0,62,0,25,0,91,0,80,0,0],"split_type":[0,0,0,0,0,0,0,0,0,0,0,0,0,0,0],"sum_hessian":[3.204E3,2.813E3,3.91E2,1.287E3,1.526E3,2.51E2,1.036E3,2.7E2,7.66E2,1.81E2,5.85E2,1.4E1,5.71E2,4.4E1,5.27E2],"tree_param":{"num_deleted":"0","num_feature":"200","num_nodes":"15","size_leaf_vector":"1"}},{"base_weights":[-0E0,-0E0,-1.7988733E-3,-0E0,1.92617E-2,-4.1138686E-2,-0E0,-0E0,9.048985E-2,-6.654796E-2,-0E0,1.2370696E-1,-0E0,-1.0652943E-1,-0E0,1.5487005E-1,-0E0,-0E0,-1.3294706E-1,-0E0,1.872251E-1,-0E0,-1.5519041E-1,-0E0,1.887744E-2,-0E0,-1.5555317E-2],"categories":[],"categories_nodes":[],"categories_segments":[],"categories_sizes":[],"default_left":[0,0,0,0,0,0,0,0,0,0,0,0,0,0,0,0,0,0,0,0,0,0,0,0,0,0,0],"id":50,"left_children":[1,3,5,-1,7,9,-1,-1,11,13,-1,15,-1,17,-1,19,-1,-1,21,-1,23,-1,25,-1,-1,-1,-1],"loss_changes":[5.595002E-3,3.1128603E-1,2.2334664E0,0E0,3.0706618E0,2.7033625E0,0E0,0E0,2.7549703E0,3.0698156E0,0E0,2.3780537E0,0E0,3.034874E0,0E0,2.9129562E0,0E0,0E0,2.9461193E0,0E0,2.4097862E0,0E0,2.2578526E0,0E0,0E0,0E0,0E0],"parents":[2147483647,0,0,1,1,2,2,4,4,5,5,8,8,9,9,11,11,13,13,15,15,18,18,20,20,22,22],"right_children":[2,4,6,-1,8,10,-1,-1,12,14,-1,16,-1,18,-1,20,-1,-1,22,-1,24,-1,26,-1,-1,-1,-1],"split_conditions":[-3.4292823E-1,-8.259364E1,1E0,-0E0,6.464578E1,7.5618623E3,-0E0,-0E0,1.4205772E14,-4.5423726E3,-0E0,2.015E3,-0E0,0E0,-0E0,-3.0466447E4,-0E0,-0E0,7.188975E3,-0E0,1.2849213E5,-0E0,5.177706E3,-0E0,1.887744E-2,-0E0,-1.5555317E-2],"split_indices":[13,56,135,0,26,86,0,0,18,88,0,2,0,105,0,86,0,0,49,0,101,0,45,0,0,0,0],"split_type":[0,0,0,0,0,0,0,0,0,0,0,0,0,0,0,0,0,0,0,0,0,0,0,0,0,0,0],"sum_hessian":[3.197E3,1.468E3,1.729E3,6.29E2,8.39E2,1.323E3,4.06E2,4.26E2,4.13E2,1.116E3,2.07E2,4.01E2,1.2E1,7.06E2,4.1E2,3.55E2,4.6E1,8.1E1,6.25E2,2.9E1,3.26E2,4.4E1,5.81E2,1.9E1,3.07E2,5E1,5.31E2],"tree_param":{"num_deleted":"0","num_feature":"200","num_nodes":"27","size_leaf_vector":"1"}},{"base_weights":[-0E0],"categories":[],"categories_nodes":[],"categories_segments":[],"categories_sizes":[],"default_left":[0],"id":51,"left_children":[-1],"loss_changes":[0E0],"parents":[2147483647],"right_children":[-1],"split_conditions":[-0E0],"split_indices":[0],"split_type":[0],"sum_hessian":[3.208E3],"tree_param":{"num_deleted":"0","num_feature":"200","num_nodes":"1","size_leaf_vector":"1"}},{"base_weights":[-0E0],"categories":[],"categories_nodes":[],"categories_segments":[],"categories_sizes":[],"default_left":[0],"id":52,"left_children":[-1],"loss_changes":[0E0],"parents":[2147483647],"right_children":[-1],"split_conditions":[-0E0],"split_indices":[0],"split_type":[0],"sum_hessian":[3.204E3],"tree_param":{"num_deleted":"0","num_feature":"200","num_nodes":"1","size_leaf_vector":"1"}},{"base_weights":[-0E0],"categories":[],"categories_nodes":[],"categories_segments":[],"categories_sizes":[],"default_left":[0],"id":53,"left_children":[-1],"loss_changes":[0E0],"parents":[2147483647],"right_children":[-1],"split_conditions":[-0E0],"split_indices":[0],"split_type":[0],"sum_hessian":[3.211E3],"tree_param":{"num_deleted":"0","num_feature":"200","num_nodes":"1","size_leaf_vector":"1"}},{"base_weights":[-0E0],"categories":[],"categories_nodes":[],"categories_segments":[],"categories_sizes":[],"default_left":[0],"id":54,"left_children":[-1],"loss_changes":[0E0],"parents":[2147483647],"right_children":[-1],"split_conditions":[-0E0],"split_indices":[0],"split_type":[0],"sum_hessian":[3.201E3],"tree_param":{"num_deleted":"0","num_feature":"200","num_nodes":"1","size_leaf_vector":"1"}},{"base_weights":[-0E0],"categories":[],"categories_nodes":[],"categories_segments":[],"categories_sizes":[],"default_left":[0],"id":55,"left_children":[-1],"loss_changes":[0E0],"parents":[2147483647],"right_children":[-1],"split_conditions":[-0E0],"split_indices":[0],"split_type":[0],"sum_hessian":[3.203E3],"tree_param":{"num_deleted":"0","num_feature":"200","num_nodes":"1","size_leaf_vector":"1"}},{"base_weights":[-0E0,-0E0,3.2298066E-4,-2.6627148E-2,-0E0,-0E0,2.1547223E-2,-0E0,-5.26189E-2,4.823512E-2,-0E0,-0E0,-8.434653E-2,-0E0,7.174358E-2,-9.8235585E-2,-0E0,8.930374E-2,-0E0,-0E0,-1.1460695E-1,-0E0,1.0454699E-1,-0E0,-1.1206369E-2,1.1243635E-2,-0E0],"categories":[],"categories_nodes":[],"categories_segments":[],"categories_sizes":[],"default_left":[0,0,0,0,0,0,0,0,0,0,0,0,0,0,0,0,0,0,0,0,0,0,0,0,0,0,0],"id":56,"left_children":[1,3,5,7,-1,-1,9,-1,11,13,-1,-1,15,-1,17,19,-1,21,-1,-1,23,-1,25,-1,-1,-1,-1],"loss_changes":[1.2559876E-4,9.9970853E-1,4.4420063E-1,2.549872E0,0E0,0E0,1.3518677E0,0E0,2.6044376E0,1.7863E0,0E0,0E0,1.9330316E0,0E0,1.8885946E0,2.2896194E0,0E0,1.830378E0,0E0,0E0,1.6950617E0,0E0,1.7167745E0,0E0,0E0,0E0,0E0],"parents":[2147483647,0,0,1,1,2,2,3,3,6,6,8,8,9,9,12,12,14,14,15,15,17,17,20,20,22,22],"right_children":[2,4,6,8,-1,-1,10,-1,12,14,-1,-1,16,-1,18,20,-1,22,-1,-1,24,-1,26,-1,-1,-1,-1],"split_conditions":[2.1775264E2,1.9511076E2,-2.527449E3,1.0677618E-1,-0E0,-0E0,1E0,-0E0,6.2183743E0,0E0,-0E0,-0E0,6.397871E1,-0E0,1.7742E3,1.1450726E1,-0E0,-7.994142E-3,-0E0,-0E0,6.891977E1,-0E0,7.762449E3,-0E0,-1.1206369E-2,1.1243635E-2,-0E0],"split_indices":[61,32,63,5,0,0,127,0,20,155,0,0,23,0,198,23,0,40,0,0,41,0,35,0,0,0,0],"split_type":[0,0,0,0,0,0,0,0,0,0,0,0,0,0,0,0,0,0,0,0,0,0,0,0,0,0,0],"sum_hessian":[3.189E3,1.985E3,1.204E3,1.41E3,5.75E2,2.47E2,9.57E2,1.28E2,1.282E3,7.72E2,1.85E2,4.17E2,8.65E2,7.6E1,6.96E2,8.38E2,2.7E1,6.86E2,1E1,4.8E1,7.9E2,1.8E1,6.68E2,3E1,7.6E2,5.64E2,1.04E2],"tree_param":{"num_deleted":"0","num_feature":"200","num_nodes":"27","size_leaf_vector":"1"}},{"base_weights":[-0E0],"categories":[],"categories_nodes":[],"categories_segments":[],"categories_sizes":[],"default_left":[0],"id":57,"left_children":[-1],"loss_changes":[0E0],"parents":[2147483647],"right_children":[-1],"split_conditions":[-0E0],"split_indices":[0],"split_type":[0],"sum_hessian":[3.206E3],"tree_param":{"num_deleted":"0","num_feature":"200","num_nodes":"1","size_leaf_vector":"1"}},{"base_weights":[-0E0],"categories":[],"categories_nodes":[],"categories_segments":[],"categories_sizes":[],"default_left":[0],"id":58,"left_children":[-1],"loss_changes":[0E0],"parents":[2147483647],"right_children":[-1],"split_conditions":[-0E0],"split_indices":[0],"split_type":[0],"sum_hessian":[3.203E3],"tree_param":{"num_deleted":"0","num_feature":"200","num_nodes":"1","size_leaf_vector":"1"}},{"base_weights":[-0E0,-0E0,-6.0308084E-4,3.1021198E-2,-0E0,-0E0,-2.8495219E-2,-0E0,7.611207E-2,-0E0,-5.974959E-2,-0E0,9.16858E-2,-7.5239316E-2,-0E0,-0E0,1.1739891E-1,-9.7007535E-2,-0E0,-0E0,1.3321926E-1,-0E0,-1.1265907E-1,-0E0,1.3064798E-2,-0E0,-1.1531008E-2],"categories":[],"categories_nodes":[],"categories_segments":[],"categories_sizes":[],"default_left":[0,0,0,0,0,0,0,0,0,0,0,0,0,0,0,0,0,0,0,0,0,0,0,0,0,0,0],"id":59,"left_children":[1,3,5,7,-1,-1,9,-1,11,-1,13,-1,15,17,-1,-1,19,21,-1,-1,23,-1,25,-1,-1,-1,-1],"loss_changes":[4.710058E-4,7.910384E-1,8.6267424E-1,3.4263945E0,0E0,0E0,2.1714244E0,0E0,1.7931981E0,0E0,1.5905225E0,0E0,1.9283161E0,1.9812055E0,0E0,0E0,1.8933854E0,2.151434E0,0E0,0E0,1.5019732E0,0E0,1.971858E0,0E0,0E0,0E0,0E0],"parents":[2147483647,0,0,1,1,2,2,3,3,6,6,8,8,10,10,12,12,13,13,16,16,17,17,20,20,22,22],"right_children":[2,4,6,8,-1,-1,10,-1,12,-1,14,-1,16,18,-1,-1,20,22,-1,-1,24,-1,26,-1,-1,-1,-1],"split_conditions":[1.9681932E1,1.202E3,-3.9887766E4,-7.415585E3,-0E0,-0E0,6.881176E4,-0E0,-1.5625E4,-0E0,1.3695E4,-0E0,-2.62147E2,-2.0167539E3,-0E0,-0E0,0E0,-3.528751E4,-0E0,-0E0,-2.357033E4,-0E0,0E0,-0E0,1.3064798E-2,-0E0,-1.1531008E-2],"split_indices":[31,197,88,57,0,0,103,0,29,0,0,0,35,88,0,0,111,34,0,0,75,0,105,0,0,0,0],"split_type":[0,0,0,0,0,0,0,0,0,0,0,0,0,0,0,0,0,0,0,0,0,0,0,0,0,0,0],"sum_hessian":[3.197E3,1.902E3,1.295E3,8.22E2,1.08E3,2.32E2,1.063E3,9.4E1,7.28E2,2.13E2,8.5E2,1.3E1,7.15E2,8.17E2,3.3E1,1.39E2,5.76E2,7.02E2,1.15E2,2.2E1,5.54E2,1.2E1,6.9E2,2.9E1,5.25E2,5.2E1,6.38E2],"tree_param":{"num_deleted":"0","num_feature":"200","num_nodes":"27","size_leaf_vector":"1"}},{"base_weights":[-0E0],"categories":[],"categories_nodes":[],"categories_segments":[],"categories_sizes":[],"default_left":[0],"id":60,"left_children":[-1],"loss_changes":[0E0],"parents":[2147483647],"right_children":[-1],"split_conditions":[-0E0],"split_indices":[0],"split_type":[0],"sum_hessian":[3.205E3],"tree_param":{"num_deleted":"0","num_feature":"200","num_nodes":"1","size_leaf_vector":"1"}},{"base_weights":[-0E0],"categories":[],"categories_nodes":[],"categories_segments":[],"categories_sizes":[],"default_left":[0],"id":61,"left_children":[-1],"loss_changes":[0E0],"parents":[2147483647],"right_children":[-1],"split_conditions":[-0E0],"split_indices":[0],"split_type":[0],"sum_hessian":[3.2E3],"tree_param":{"num_deleted":"0","num_feature":"200","num_nodes":"1","size_leaf_vector":"1"}},{"base_weights":[-0E0,2.2938469E-4,-0E0,2.2346376E-2,-0E0,-3.3499517E-2,-0E0,-0E0,4.3323193E-2,-6.0243376E-2,-0E0,6.0515214E-2,-0E0,-8.6939484E-2,-0E0,-0E0,7.642251E-2,-1.1764989E-1,-0E0,1.1438403E-1,-0E0,-1.3869719E-1,-0E0,-0E0,1.2154672E-2,-1.47330975E-2,-0E0],"categories":[],"categories_nodes":[],"categories_segments":[],"categories_sizes":[],"default_left":[0,0,0,0,0,0,0,0,0,0,0,0,0,0,0,0,0,0,0,0,0,0,0,0,0,0,0],"id":62,"left_children":[1,3,5,7,-1,9,-1,-1,11,13,-1,15,-1,17,-1,-1,19,21,-1,23,-1,25,-1,-1,-1,-1,-1],"loss_changes":[8.082109E-5,6.750627E-1,1.1559024E0,1.4007373E0,0E0,1.8274119E0,0E0,0E0,1.6778221E0,2.7612488E0,0E0,2.0108674E0,0E0,3.0173292E0,0E0,0E0,1.7326074E0,2.7998047E0,0E0,1.2665982E0,0E0,2.9069843E0,0E0,0E0,0E0,0E0,0E0],"parents":[2147483647,0,0,1,1,2,2,3,3,5,5,8,8,9,9,11,11,13,13,16,16,17,17,19,19,21,21],"right_children":[2,4,6,8,-1,10,-1,-1,12,14,-1,16,-1,18,-1,-1,20,22,-1,24,-1,26,-1,-1,-1,-1,-1],"split_conditions":[-5.489205E0,6.4321533E2,7.115919E2,0E0,-0E0,2.5E1,-0E0,-0E0,1.2813397E4,1E0,-0E0,-1.2844454E4,-0E0,7.786756E2,-0E0,-0E0,2.014E3,3.2750197E4,-0E0,0E0,-0E0,1E0,-0E0,-0E0,1.2154672E-2,-1.47330975E-2,-0E0],"split_indices":[65,93,82,3,0,1,0,0,64,119,0,46,0,37,0,0,2,77,0,149,0,151,0,0,0,0,0],"split_type":[0,0,0,0,0,0,0,0,0,0,0,0,0,0,0,0,0,0,0,0,0,0,0,0,0,0,0],"sum_hessian":[3.201E3,1.536E3,1.665E3,1.352E3,1.84E2,1.03E3,6.35E2,2.46E2,1.106E3,8.22E2,2.08E2,1.025E3,8.1E1,7.6E2,6.2E1,3.8E1,9.87E2,6.33E2,1.27E2,5.73E2,4.14E2,6.01E2,3.2E1,1.04E2,4.69E2,5.27E2,7.4E1],"tree_param":{"num_deleted":"0","num_feature":"200","num_nodes":"27","size_leaf_vector":"1"}},{"base_weights":[-0E0],"categories":[],"categories_nodes":[],"categories_segments":[],"categories_sizes":[],"default_left":[0],"id":63,"left_children":[-1],"loss_changes":[0E0],"parents":[2147483647],"right_children":[-1],"split_conditions":[-0E0],"split_indices":[0],"split_type":[0],"sum_hessian":[3.217E3],"tree_param":{"num_deleted":"0","num_feature":"200","num_nodes":"1","size_leaf_vector":"1"}},{"base_weights":[-0E0],"categories":[],"categories_nodes":[],"categories_segments":[],"categories_sizes":[],"default_left":[0],"id":64,"left_children":[-1],"loss_changes":[0E0],"parents":[2147483647],"right_children":[-1],"split_conditions":[-0E0],"split_indices":[0],"split_type":[0],"sum_hessian":[3.206E3],"tree_param":{"num_deleted":"0","num_feature":"200","num_nodes":"1","size_leaf_vector":"1"}},{"base_weights":[-0E0],"categories":[],"categories_nodes":[],"categories_segments":[],"categories_sizes":[],"default_left":[0],"id":65,"left_children":[-1],"loss_changes":[0E0],"parents":[2147483647],"right_children":[-1],"split_conditions":[-0E0],"split_indices":[0],"split_type":[0],"sum_hessian":[3.194E3],"tree_param":{"num_deleted":"0","num_feature":"200","num_nodes":"1","size_leaf_vector":"1"}},{"base_weights":[-0E0],"categories":[],"categories_nodes":[],"categories_segments":[],"categories_sizes":[],"default_left":[0],"id":66,"left_children":[-1],"loss_changes":[0E0],"parents":[2147483647],"right_children":[-1],"split_conditions":[-0E0],"split_indices":[0],"split_type":[0],"sum_hessian":[3.208E3],"tree_param":{"num_deleted":"0","num_feature":"200","num_nodes":"1","size_leaf_vector":"1"}},{"base_weights":[-0E0],"categories":[],"categories_nodes":[],"categories_segments":[],"categories_sizes":[],"default_left":[0],"id":67,"left_children":[-1],"loss_changes":[0E0],"parents":[2147483647],"right_children":[-1],"split_conditions":[-0E0],"split_indices":[0],"split_type":[0],"sum_hessian":[3.202E3],"tree_param":{"num_deleted":"0","num_feature":"200","num_nodes":"1","size_leaf_vector":"1"}},{"base_weights":[-0E0],"categories":[],"categories_nodes":[],"categories_segments":[],"categories_sizes":[],"default_left":[0],"id":68,"left_children":[-1],"loss_changes":[0E0],"parents":[2147483647],"right_children":[-1],"split_conditions":[-0E0],"split_indices":[0],"split_type":[0],"sum_hessian":[3.202E3],"tree_param":{"num_deleted":"0","num_feature":"200","num_nodes":"1","size_leaf_vector":"1"}},{"base_weights":[-0E0],"categories":[],"categories_nodes":[],"categories_segments":[],"categories_sizes":[],"default_left":[0],"id":69,"left_children":[-1],"loss_changes":[0E0],"parents":[2147483647],"right_children":[-1],"split_conditions":[-0E0],"split_indices":[0],"split_type":[0],"sum_hessian":[3.199E3],"tree_param":{"num_deleted":"0","num_feature":"200","num_nodes":"1","size_leaf_vector":"1"}},{"base_weights":[-0E0],"categories":[],"categories_nodes":[],"categories_segments":[],"categories_sizes":[],"default_left":[0],"id":70,"left_children":[-1],"loss_changes":[0E0],"parents":[2147483647],"right_children":[-1],"split_conditions":[-0E0],"split_indices":[0],"split_type":[0],"sum_hessian":[3.212E3],"tree_param":{"num_deleted":"0","num_feature":"200","num_nodes":"1","size_leaf_vector":"1"}},{"base_weights":[-0E0],"categories":[],"categories_nodes":[],"categories_segments":[],"categories_sizes":[],"default_left":[0],"id":71,"left_children":[-1],"loss_changes":[0E0],"parents":[2147483647],"right_children":[-1],"split_conditions":[-0E0],"split_indices":[0],"split_type":[0],"sum_hessian":[3.2E3],"tree_param":{"num_deleted":"0","num_feature":"200","num_nodes":"1","size_leaf_vector":"1"}},{"base_weights":[-0E0],"categories":[],"categories_nodes":[],"categories_segments":[],"categories_sizes":[],"default_left":[0],"id":72,"left_children":[-1],"loss_changes":[0E0],"parents":[2147483647],"right_children":[-1],"split_conditions":[-0E0],"split_indices":[0],"split_type":[0],"sum_hessian":[3.203E3],"tree_param":{"num_deleted":"0","num_feature":"200","num_nodes":"1","size_leaf_vector":"1"}},{"base_weights":[-0E0],"categories":[],"categories_nodes":[],"categories_segments":[],"categories_sizes":[],"default_left":[0],"id":73,"left_children":[-1],"loss_changes":[0E0],"parents":[2147483647],"right_children":[-1],"split_conditions":[-0E0],"split_indices":[0],"split_type":[0],"sum_hessian":[3.207E3],"tree_param":{"num_deleted":"0","num_feature":"200","num_nodes":"1","size_leaf_vector":"1"}},{"base_weights":[-0E0],"categories":[],"categories_nodes":[],"categories_segments":[],"categories_sizes":[],"default_left":[0],"id":74,"left_children":[-1],"loss_changes":[0E0],"parents":[2147483647],"right_children":[-1],"split_conditions":[-0E0],"split_indices":[0],"split_type":[0],"sum_hessian":[3.189E3],"tree_param":{"num_deleted":"0","num_feature":"200","num_nodes":"1","size_leaf_vector":"1"}},{"base_weights":[-0E0],"categories":[],"categories_nodes":[],"categories_segments":[],"categories_sizes":[],"default_left":[0],"id":75,"left_children":[-1],"loss_changes":[0E0],"parents":[2147483647],"right_children":[-1],"split_conditions":[-0E0],"split_indices":[0],"split_type":[0],"sum_hessian":[3.203E3],"tree_param":{"num_deleted":"0","num_feature":"200","num_nodes":"1","size_leaf_vector":"1"}},{"base_weights":[-0E0],"categories":[],"categories_nodes":[],"categories_segments":[],"categories_sizes":[],"default_left":[0],"id":76,"left_children":[-1],"loss_changes":[0E0],"parents":[2147483647],"right_children":[-1],"split_conditions":[-0E0],"split_indices":[0],"split_type":[0],"sum_hessian":[3.199E3],"tree_param":{"num_deleted":"0","num_feature":"200","num_nodes":"1","size_leaf_vector":"1"}},{"base_weights":[-0E0],"categories":[],"categories_nodes":[],"categories_segments":[],"categories_sizes":[],"default_left":[0],"id":77,"left_children":[-1],"loss_changes":[0E0],"parents":[2147483647],"right_children":[-1],"split_conditions":[-0E0],"split_indices":[0],"split_type":[0],"sum_hessian":[3.193E3],"tree_param":{"num_deleted":"0","num_feature":"200","num_nodes":"1","size_leaf_vector":"1"}},{"base_weights":[-0E0],"categories":[],"categories_nodes":[],"categories_segments":[],"categories_sizes":[],"default_left":[0],"id":78,"left_children":[-1],"loss_changes":[0E0],"parents":[2147483647],"right_children":[-1],"split_conditions":[-0E0],"split_indices":[0],"split_type":[0],"sum_hessian":[3.196E3],"tree_param":{"num_deleted":"0","num_feature":"200","num_nodes":"1","size_leaf_vector":"1"}},{"base_weights":[-0E0],"categories":[],"categories_nodes":[],"categories_segments":[],"categories_sizes":[],"default_left":[0],"id":79,"left_children":[-1],"loss_changes":[0E0],"parents":[2147483647],"right_children":[-1],"split_conditions":[-0E0],"split_indices":[0],"split_type":[0],"sum_hessian":[3.215E3],"tree_param":{"num_deleted":"0","num_feature":"200","num_nodes":"1","size_leaf_vector":"1"}},{"base_weights":[-0E0],"categories":[],"categories_nodes":[],"categories_segments":[],"categories_sizes":[],"default_left":[0],"id":80,"left_children":[-1],"loss_changes":[0E0],"parents":[2147483647],"right_children":[-1],"split_conditions":[-0E0],"split_indices":[0],"split_type":[0],"sum_hessian":[3.203E3],"tree_param":{"num_deleted":"0","num_feature":"200","num_nodes":"1","size_leaf_vector":"1"}},{"base_weights":[-0E0],"categories":[],"categories_nodes":[],"categories_segments":[],"categories_sizes":[],"default_left":[0],"id":81,"left_children":[-1],"loss_changes":[0E0],"parents":[2147483647],"right_children":[-1],"split_conditions":[-0E0],"split_indices":[0],"split_type":[0],"sum_hessian":[3.213E3],"tree_param":{"num_deleted":"0","num_feature":"200","num_nodes":"1","size_leaf_vector":"1"}},{"base_weights":[-0E0],"categories":[],"categories_nodes":[],"categories_segments":[],"categories_sizes":[],"default_left":[0],"id":82,"left_children":[-1],"loss_changes":[0E0],"parents":[2147483647],"right_children":[-1],"split_conditions":[-0E0],"split_indices":[0],"split_type":[0],"sum_hessian":[3.215E3],"tree_param":{"num_deleted":"0","num_feature":"200","num_nodes":"1","size_leaf_vector":"1"}},{"base_weights":[-0E0],"categories":[],"categories_nodes":[],"categories_segments":[],"categories_sizes":[],"default_left":[0],"id":83,"left_children":[-1],"loss_changes":[0E0],"parents":[2147483647],"right_children":[-1],"split_conditions":[-0E0],"split_indices":[0],"split_type":[0],"sum_hessian":[3.192E3],"tree_param":{"num_deleted":"0","num_feature":"200","num_nodes":"1","size_leaf_vector":"1"}},{"base_weights":[-0E0],"categories":[],"categories_nodes":[],"categories_segments":[],"categories_sizes":[],"default_left":[0],"id":84,"left_children":[-1],"loss_changes":[0E0],"parents":[2147483647],"right_children":[-1],"split_conditions":[-0E0],"split_indices":[0],"split_type":[0],"sum_hessian":[3.203E3],"tree_param":{"num_deleted":"0","num_feature":"200","num_nodes":"1","size_leaf_vector":"1"}},{"base_weights":[-0E0],"categories":[],"categories_nodes":[],"categories_segments":[],"categories_sizes":[],"default_left":[0],"id":85,"left_children":[-1],"loss_changes":[0E0],"parents":[2147483647],"right_children":[-1],"split_conditions":[-0E0],"split_indices":[0],"split_type":[0],"sum_hessian":[3.203E3],"tree_param":{"num_deleted":"0","num_feature":"200","num_nodes":"1","size_leaf_vector":"1"}},{"base_weights":[-0E0],"categories":[],"categories_nodes":[],"categories_segments":[],"categories_sizes":[],"default_left":[0],"id":86,"left_children":[-1],"loss_changes":[0E0],"parents":[2147483647],"right_children":[-1],"split_conditions":[-0E0],"split_indices":[0],"split_type":[0],"sum_hessian":[3.203E3],"tree_param":{"num_deleted":"0","num_feature":"200","num_nodes":"1","size_leaf_vector":"1"}},{"base_weights":[-0E0],"categories":[],"categories_nodes":[],"categories_segments":[],"categories_sizes":[],"default_left":[0],"id":87,"left_children":[-1],"loss_changes":[0E0],"parents":[2147483647],"right_children":[-1],"split_conditions":[-0E0],"split_indices":[0],"split_type":[0],"sum_hessian":[3.184E3],"tree_param":{"num_deleted":"0","num_feature":"200","num_nodes":"1","size_leaf_vector":"1"}},{"base_weights":[-0E0],"categories":[],"categories_nodes":[],"categories_segments":[],"categories_sizes":[],"default_left":[0],"id":88,"left_children":[-1],"loss_changes":[0E0],"parents":[2147483647],"right_children":[-1],"split_conditions":[-0E0],"split_indices":[0],"split_type":[0],"sum_hessian":[3.202E3],"tree_param":{"num_deleted":"0","num_feature":"200","num_nodes":"1","size_leaf_vector":"1"}},{"base_weights":[-0E0],"categories":[],"categories_nodes":[],"categories_segments":[],"categories_sizes":[],"default_left":[0],"id":89,"left_children":[-1],"loss_changes":[0E0],"parents":[2147483647],"right_children":[-1],"split_conditions":[-0E0],"split_indices":[0],"split_type":[0],"sum_hessian":[3.2E3],"tree_param":{"num_deleted":"0","num_feature":"200","num_nodes":"1","size_leaf_vector":"1"}},{"base_weights":[-0E0],"categories":[],"categories_nodes":[],"categories_segments":[],"categories_sizes":[],"default_left":[0],"id":90,"left_children":[-1],"loss_changes":[0E0],"parents":[2147483647],"right_children":[-1],"split_conditions":[-0E0],"split_indices":[0],"split_type":[0],"sum_hessian":[3.192E3],"tree_param":{"num_deleted":"0","num_feature":"200","num_nodes":"1","size_leaf_vector":"1"}},{"base_weights":[-0E0],"categories":[],"categories_nodes":[],"categories_segments":[],"categories_sizes":[],"default_left":[0],"id":91,"left_children":[-1],"loss_changes":[0E0],"parents":[2147483647],"right_children":[-1],"split_conditions":[-0E0],"split_indices":[0],"split_type":[0],"sum_hessian":[3.199E3],"tree_param":{"num_deleted":"0","num_feature":"200","num_nodes":"1","size_leaf_vector":"1"}},{"base_weights":[-0E0],"categories":[],"categories_nodes":[],"categories_segments":[],"categories_sizes":[],"default_left":[0],"id":92,"left_children":[-1],"loss_changes":[0E0],"parents":[2147483647],"right_children":[-1],"split_conditions":[-0E0],"split_indices":[0],"split_type":[0],"sum_hessian":[3.211E3],"tree_param":{"num_deleted":"0","num_feature":"200","num_nodes":"1","size_leaf_vector":"1"}},{"base_weights":[-0E0],"categories":[],"categories_nodes":[],"categories_segments":[],"categories_sizes":[],"default_left":[0],"id":93,"left_children":[-1],"loss_changes":[0E0],"parents":[2147483647],"right_children":[-1],"split_conditions":[-0E0],"split_indices":[0],"split_type":[0],"sum_hessian":[3.185E3],"tree_param":{"num_deleted":"0","num_feature":"200","num_nodes":"1","size_leaf_vector":"1"}},{"base_weights":[-0E0],"categories":[],"categories_nodes":[],"categories_segments":[],"categories_sizes":[],"default_left":[0],"id":94,"left_children":[-1],"loss_changes":[0E0],"parents":[2147483647],"right_children":[-1],"split_conditions":[-0E0],"split_indices":[0],"split_type":[0],"sum_hessian":[3.212E3],"tree_param":{"num_deleted":"0","num_feature":"200","num_nodes":"1","size_leaf_vector":"1"}},{"base_weights":[-0E0],"categories":[],"categories_nodes":[],"categories_segments":[],"categories_sizes":[],"default_left":[0],"id":95,"left_children":[-1],"loss_changes":[0E0],"parents":[2147483647],"right_children":[-1],"split_conditions":[-0E0],"split_indices":[0],"split_type":[0],"sum_hessian":[3.198E3],"tree_param":{"num_deleted":"0","num_feature":"200","num_nodes":"1","size_leaf_vector":"1"}},{"base_weights":[-0E0],"categories":[],"categories_nodes":[],"categories_segments":[],"categories_sizes":[],"default_left":[0],"id":96,"left_children":[-1],"loss_changes":[0E0],"parents":[2147483647],"right_children":[-1],"split_conditions":[-0E0],"split_indices":[0],"split_type":[0],"sum_hessian":[3.207E3],"tree_param":{"num_deleted":"0","num_feature":"200","num_nodes":"1","size_leaf_vector":"1"}},{"base_weights":[-0E0],"categories":[],"categories_nodes":[],"categories_segments":[],"categories_sizes":[],"default_left":[0],"id":97,"left_children":[-1],"loss_changes":[0E0],"parents":[2147483647],"right_children":[-1],"split_conditions":[-0E0],"split_indices":[0],"split_type":[0],"sum_hessian":[3.207E3],"tree_param":{"num_deleted":"0","num_feature":"200","num_nodes":"1","size_leaf_vector":"1"}},{"base_weights":[-0E0],"categories":[],"categories_nodes":[],"categories_segments":[],"categories_sizes":[],"default_left":[0],"id":98,"left_children":[-1],"loss_changes":[0E0],"parents":[2147483647],"right_children":[-1],"split_conditions":[-0E0],"split_indices":[0],"split_type":[0],"sum_hessian":[3.201E3],"tree_param":{"num_deleted":"0","num_feature":"200","num_nodes":"1","size_leaf_vector":"1"}},{"base_weights":[-0E0],"categories":[],"categories_nodes":[],"categories_segments":[],"categories_sizes":[],"default_left":[0],"id":99,"left_children":[-1],"loss_changes":[0E0],"parents":[2147483647],"right_children":[-1],"split_conditions":[-0E0],"split_indices":[0],"split_type":[0],"sum_hessian":[3.196E3],"tree_param":{"num_deleted":"0","num_feature":"200","num_nodes":"1","size_leaf_vector":"1"}},{"base_weights":[-0E0],"categories":[],"categories_nodes":[],"categories_segments":[],"categories_sizes":[],"default_left":[0],"id":100,"left_children":[-1],"loss_changes":[0E0],"parents":[2147483647],"right_children":[-1],"split_conditions":[-0E0],"split_indices":[0],"split_type":[0],"sum_hessian":[3.204E3],"tree_param":{"num_deleted":"0","num_feature":"200","num_nodes":"1","size_leaf_vector":"1"}}]},"name":"gbtree"},"learner_model_param":{"base_score":"2.6271285E-2","boost_from_average":"1","num_class":"0","num_feature":"200","num_target":"1"},"objective":{"name":"reg:squarederror","reg_loss_param":{"scale_pos_weight":"1"}}},"version":[3,0,4]}