{"learner":{"attributes":{"best_iteration":"96","best_score":"1.0388906342964996"},"feature_names":["Volume","day_of_month","year","day_sin","day_cos","day_of_year_norm","dayy_sin","dayy_cos","is_holiday","Log_Return","Log_Return_change1","Log_Return23","Log_Return123","Log_High_Return","Log_High_Return_change1","Log_High_Return_change3","Log_High_Return13","Log_High_Return23","Log_High_Return123","Close_Roll_Std_5","High_Roll_Std_5","High_Roll_Std_10","High_Roll_Std_20","High_Roll_Std_30","High_Roll_Std_60","High_Roll_Std_90","High_Roll_Std_250","High_Roll_Max_250","Log_Return_Lag_1","Log_Return_Lag_2","Log_Return_Lag_3","Log_Return_Lag_5","Log_Return_Lag_10","Log_Return_Lag_20","Log_Return_Lag_30","Log_Return_Lag_60","Log_Return_Lag_90","Log_Return_Lag_120","Log_Return_Lag_180","Log_Return_Lag_250","Log_Return_Roll_Max_5","Log_Return_Roll_Max_10","Log_Return_Roll_Mean_20","Log_Return_Roll_Max_20","Log_Return_Roll_Mean_30","Log_Return_Roll_Max_30","Log_Return_Roll_Mean_60","Log_Return_Roll_Max_60","Log_Return_Roll_Mean_90","Log_Return_Roll_Max_90","Log_Return_Roll_Mean_180","Log_Return_Roll_Max_180","Log_Return_Roll_Mean_250","Log_Return_Roll_Max_250","Log_Return_change1_Lag_1","Log_Return_change1_Lag_2","Log_Return_change1_Lag_3","Log_Return_change1_Lag_5","Log_Return_change1_Lag_10","Log_Return_change1_Lag_20","Log_Return_change1_Lag_30","Log_Return_change1_Lag_60","Log_Return_change1_Lag_90","Log_Return_change1_Lag_120","Log_Return_change1_Lag_180","Log_Return_change1_Lag_250","Log_Return_change1_Roll_Mean_5","Log_Return_change1_Roll_Min_5","Log_Return_change1_Roll_Mean_10","Log_Return_change1_Roll_Mean_20","Log_Return_change1_Roll_Mean_30","Log_Return_change1_Roll_Mean_60","Log_Return_change1_Roll_Mean_90","Log_Return_change1_Roll_Mean_180","Log_Return_change1_Roll_Mean_250","Log_Return_change2_Lag_1","Log_Return_change2_Lag_2","Log_Return_change2_Lag_3","Log_Return_change2_Lag_5","Log_Return_change2_Lag_10","Log_Return_change2_Lag_20","Log_Return_change2_Lag_30","Log_Return_change2_Lag_60","Log_Return_change2_Lag_90","Log_Return_change2_Lag_120","Log_Return_change2_Lag_180","Log_Return_change2_Lag_250","Log_Return_change2_Roll_Mean_5","Log_Return_change2_Roll_Min_5","Log_Return_change2_Roll_Max_5","Log_Return_change2_Roll_Mean_10","Log_Return_change2_Roll_Min_10","Log_Return_change2_Roll_Max_10","Log_Return_change2_Roll_Mean_20","Log_Return_change2_Roll_Max_20","Log_Return_change2_Roll_Mean_30","Log_Return_change2_Roll_Max_30","Log_Return_change2_Roll_Mean_60","Log_Return_change2_Roll_Mean_90","Log_Return_change2_Roll_Max_90","Log_Return_change2_Roll_Mean_180","Log_Return_change2_Roll_Max_180","Log_Return_change2_Roll_Mean_250","Log_Return_change2_Roll_Max_250","rsi_5_long","rsi_5_short","rsi_5_combined","rsi_7_long","rsi_7_short","rsi_7_combined","rsi_10_long","rsi_10_short","rsi_10_combined","macd_5_10_5_long","macd_5_10_5_short","macd_5_10_5_combined","stoch_3_2_2_long","stoch_3_2_2_short","stoch_3_2_2_combined","cci_6_long","cci_6_short","cci_6_combined","cci_10_long","cci_10_short","cci_10_combined","obv_combined","ad_combined","atr_10_long","atr_10_short","atr_10_combined","sma_2_long","sma_2_short","sma_2_combined","sma_3_long","sma_3_short","sma_3_combined","sma_5_long","sma_5_short","sma_5_combined","sma_8_long","sma_8_short","sma_8_combined","sma_13_long","sma_13_short","sma_13_combined","sma_21_long","sma_21_short","sma_21_combined","ema_3_long","ema_3_short","ema_3_combined","ema_5_long","ema_5_short","ema_5_combined","ema_8_long","ema_8_short","ema_8_combined","ema_13_long","ema_13_short","ema_13_combined","ema_21_long","ema_21_short","ema_21_combined","bb_3_1.5_1.5_long","bb_3_1.5_1.5_short","bb_3_1.5_1.5_combined","bb_3_2.0_2.0_long","bb_3_2.0_2.0_short","bb_3_2.0_2.0_combined","bb_5_1.5_1.5_long","bb_5_1.5_1.5_short","bb_5_1.5_1.5_combined","bb_5_2.0_2.0_long","bb_5_2.0_2.0_short","bb_5_2.0_2.0_combined","bb_8_2.0_2.0_long","bb_8_2.0_2.0_short","bb_8_2.0_2.0_combined","ht_dcperiod_combined","ht_phasor_short","ht_phasor_combined","typprice_long","typprice_short","typprice_combined","linearreg_3_combined","linearreg_5_combined","linearreg_8_combined","stddev_2_2_long","stddev_2_2_short","stddev_2_2_combined","stddev_3_2_long","stddev_3_2_short","stddev_3_2_combined","stddev_5_2_long","stddev_5_2_short","stddev_5_2_combined","Open","High","Low","Close"],"feature_types":["float","int","int","float","float","float","float","float","int","float","float","float","float","float","float","float","float","float","float","float","float","float","float","float","float","float","float","float","float","float","float","float","float","float","float","float","float","float","float","float","float","float","float","float","float","float","float","float","float","float","float","float","float","float","float","float","float","float","float","float","float","float","float","float","float","float","float","float","float","float","float","float","float","float","float","float","float","float","float","float","float","float","float","float","float","float","float","float","float","float","float","float","float","float","float","float","float","float","float","float","float","float","float","float","int","int","int","int","int","int","int","int","int","int","int","int","int","int","int","int","int","int","int","int","int","int","int","int","int","int","int","int","int","int","int","int","int","int","int","int","int","int","int","int","int","int","int","int","int","int","int","int","int","int","int","int","int","int","int","int","int","int","int","int","int","int","int","int","int","int","int","int","int","int","int","int","int","int","int","int","int","int","int","int","int","int","int","int","int","int","int","int","int","int","int","int","float","float","float","float"],"gradient_booster":{"model":{"gbtree_model_param":{"num_parallel_tree":"1","num_trees":"147"},"iteration_indptr":[0,1,2,3,4,5,6,7,8,9,10,11,12,13,14,15,16,17,18,19,20,21,22,23,24,25,26,27,28,29,30,31,32,33,34,35,36,37,38,39,40,41,42,43,44,45,46,47,48,49,50,51,52,53,54,55,56,57,58,59,60,61,62,63,64,65,66,67,68,69,70,71,72,73,74,75,76,77,78,79,80,81,82,83,84,85,86,87,88,89,90,91,92,93,94,95,96,97,98,99,100,101,102,103,104,105,106,107,108,109,110,111,112,113,114,115,116,117,118,119,120,121,122,123,124,125,126,127,128,129,130,131,132,133,134,135,136,137,138,139,140,141,142,143,144,145,146,147],"tree_info":[0,0,0,0,0,0,0,0,0,0,0,0,0,0,0,0,0,0,0,0,0,0,0,0,0,0,0,0,0,0,0,0,0,0,0,0,0,0,0,0,0,0,0,0,0,0,0,0,0,0,0,0,0,0,0,0,0,0,0,0,0,0,0,0,0,0,0,0,0,0,0,0,0,0,0,0,0,0,0,0,0,0,0,0,0,0,0,0,0,0,0,0,0,0,0,0,0,0,0,0,0,0,0,0,0,0,0,0,0,0,0,0,0,0,0,0,0,0,0,0,0,0,0,0,0,0,0,0,0,0,0,0,0,0,0,0,0,0,0,0,0,0,0,0,0,0,0],"trees":[{"base_weights":[-0E0,3.1366978E-2,-0E0,7.396874E-2,-0E0,-2.5231214E-3,-0E0,9.7537026E-2,-0E0,-3.2924302E-2,-0E0,-0E0,1.2717007E-1,-0E0,-5.2025374E-2,-0E0,1.5562223E-1,-7.094623E-2,-0E0,1.8603548E-1,-0E0,-0E0,-8.3884954E-2,-0E0,1.997246E-1,-9.534202E-2,-0E0,-0E0,2.1398298E-1,-1.06608085E-1,-0E0,2.3254852E-1,-0E0,-0E0,-1.1372814E-1,2.5140825E-1,-0E0,-0E0,-1.1989857E-1,-0E0,2.623059E-1,-0E0,-1.2589154E-1,-0E0,5.2275723E-3,-2.495457E-3,-0E0],"categories":[],"categories_nodes":[],"categories_segments":[],"categories_sizes":[],"default_left":[0,0,0,0,0,0,0,0,0,0,0,0,0,0,0,0,0,0,0,0,0,0,0,0,0,0,0,0,0,0,0,0,0,0,0,0,0,0,0,0,0,0,0,0,0,0,0],"id":0,"left_children":[1,3,5,7,-1,9,-1,11,-1,13,-1,-1,15,-1,17,-1,19,21,-1,23,-1,-1,25,-1,27,29,-1,-1,31,33,-1,35,-1,-1,37,39,-1,-1,41,-1,43,-1,45,-1,-1,-1,-1],"loss_changes":[9.39627E-1,3.432083E0,3.2340952E-3,2.725482E0,0E0,4.7049427E-1,0E0,2.9298306E0,0E0,6.3874084E-1,0E0,0E0,3.7777567E0,0E0,7.549852E-1,0E0,3.7772121E0,6.7289436E-1,0E0,2.0045528E0,0E0,0E0,6.595018E-1,0E0,2.0722027E0,7.327075E-1,0E0,0E0,2.244896E0,3.876214E-1,0E0,1.8221855E0,0E0,0E0,3.5212708E-1,1.4529266E0,0E0,0E0,2.7271748E-1,0E0,1.4611797E0,0E0,9.205675E-2,0E0,0E0,0E0,0E0],"parents":[2147483647,0,0,1,1,2,2,3,3,5,5,7,7,9,9,12,12,14,14,16,16,17,17,19,19,22,22,24,24,25,25,28,28,29,29,31,31,34,34,35,35,38,38,40,40,42,42],"right_children":[2,4,6,8,-1,10,-1,12,-1,14,-1,-1,16,-1,18,-1,20,22,-1,24,-1,-1,26,-1,28,30,-1,-1,32,34,-1,36,-1,-1,38,40,-1,-1,42,-1,44,-1,46,-1,-1,-1,-1],"split_conditions":[1.2496E3,2.7714926E1,1.9511076E2,6.886962E1,-0E0,2.5713599E3,-0E0,-4.703587E3,-0E0,-4.319021E2,-0E0,-0E0,0E0,-0E0,-1.2742714E3,-0E0,4.3762764E3,-3.528751E4,-0E0,-6.301792E2,-0E0,-0E0,4.0353348E4,-0E0,2.7139475E3,5.042114E1,-0E0,-0E0,1.0834248E3,1.4452484E1,-0E0,1.2294E3,-0E0,-0E0,6.0624883E3,-2.4056254E4,-0E0,-0E0,-8.463751E4,-0E0,-6.385595E2,-0E0,2.7287512E4,-0E0,5.2275723E-3,-2.495457E-3,-0E0],"split_indices":[197,22,32,102,0,31,0,83,0,98,0,0,176,0,88,0,64,39,0,69,0,0,38,0,96,21,0,0,90,24,0,196,0,0,96,84,0,0,85,0,70,0,60,0,0,0,0],"split_type":[0,0,0,0,0,0,0,0,0,0,0,0,0,0,0,0,0,0,0,0,0,0,0,0,0,0,0,0,0,0,0,0,0,0,0,0,0,0,0,0,0,0,0,0,0,0,0],"sum_hessian":[1.688E3,9.55E2,7.33E2,7.99E2,1.56E2,5.08E2,2.25E2,7.46E2,5.3E1,4.37E2,7.1E1,1.26E2,6.2E2,2.6E1,4.11E2,5E1,5.7E2,3.71E2,4E1,5.08E2,6.2E1,1E1,3.61E2,1.7E1,4.91E2,3.52E2,9E0,1.8E1,4.73E2,3.46E2,6E0,4.42E2,3.1E1,1.2E1,3.34E2,4.07E2,3.5E1,9E0,3.25E2,1.2E1,3.95E2,1.3E1,3.12E2,5E0,3.9E2,3.01E2,1.1E1],"tree_param":{"num_deleted":"0","num_feature":"200","num_nodes":"47","size_leaf_vector":"1"}},{"base_weights":[-0E0,-1.9284736E-2,-0E0,-6.3345134E-2,-0E0,-0E0,2.7605738E-2,-0E0,-1.1830084E-1,7.5039856E-2,-0E0,-0E0,-1.5588318E-1,1.0966549E-1,-0E0,-1.8468972E-1,-0E0,-0E0,1.474838E-1,-2.0604323E-1,-0E0,-0E0,1.6818899E-1,-0E0,-2.2524397E-1,1.9046997E-1,-0E0,-0E0,-2.4147563E-1,-0E0,2.0628567E-1,-0E0,-2.523614E-1,-0E0,2.2250207E-1,-0E0,-2.6877147E-1,-0E0,2.315787E-1,-0E0,-2.819601E-1,-0E0,2.4638762E-1,-0E0,-5.821447E-3,4.962788E-3,-0E0],"categories":[],"categories_nodes":[],"categories_segments":[],"categories_sizes":[],"default_left":[0,0,0,0,0,0,0,0,0,0,0,0,0,0,0,0,0,0,0,0,0,0,0,0,0,0,0,0,0,0,0,0,0,0,0,0,0,0,0,0,0,0,0,0,0,0,0],"id":1,"left_children":[1,3,5,7,-1,-1,9,-1,11,13,-1,-1,15,17,-1,19,-1,-1,21,23,-1,-1,25,-1,27,29,-1,-1,31,-1,33,-1,35,-1,37,-1,39,-1,41,-1,43,-1,45,-1,-1,-1,-1],"loss_changes":[4.407083E-1,3.4154663E0,3.1855944E-1,4.695034E0,0E0,0E0,1.7480941E0,0E0,4.7896156E0,1.8782246E0,0E0,0E0,4.8404694E0,2.102355E0,0E0,3.852869E0,0E0,0E0,1.477673E0,3.7906303E0,0E0,0E0,1.6904526E0,0E0,2.2234154E0,1.3386135E0,0E0,0E0,2.0763493E0,0E0,1.2789812E0,0E0,2.239193E0,0E0,7.1696186E-1,0E0,2.300087E0,0E0,4.422598E-1,0E0,2.4921455E0,0E0,4.438324E-1,0E0,0E0,0E0,0E0],"parents":[2147483647,0,0,1,1,2,2,3,3,6,6,8,8,9,9,12,12,13,13,15,15,18,18,19,19,22,22,24,24,25,25,28,28,30,30,32,32,34,34,36,36,38,38,40,40,42,42],"right_children":[2,4,6,8,-1,-1,10,-1,12,14,-1,-1,16,18,-1,20,-1,-1,22,24,-1,-1,26,-1,28,30,-1,-1,32,-1,34,-1,36,-1,38,-1,40,-1,42,-1,44,-1,46,-1,-1,-1,-1],"split_conditions":[1.326491E2,7.786756E2,0E0,8.242498E3,-0E0,-0E0,2.097176E3,-0E0,0E0,3.241824E3,-0E0,-0E0,9.691992E-1,3.8368435E1,-0E0,3.2713125E3,-0E0,-0E0,-8.489694E3,2.7E1,-0E0,-0E0,2.8232458E3,-0E0,1.8487223E4,-1.7373783E4,-0E0,-0E0,2.1902807E-2,-0E0,6.765462E3,-0E0,3.5351305E0,-0E0,-7.994142E-3,-0E0,-3.528751E4,-0E0,-1.8738114E3,-0E0,-3.9887766E4,-0E0,-3.1785876E2,-0E0,-5.821447E-3,4.962788E-3,-0E0],"split_indices":[35,37,192,45,0,0,31,0,121,37,0,0,5,26,0,68,0,0,38,41,0,0,52,0,99,33,0,0,5,0,96,0,20,0,40,0,31,0,61,0,86,0,67,0,0,0,0],"split_type":[0,0,0,0,0,0,0,0,0,0,0,0,0,0,0,0,0,0,0,0,0,0,0,0,0,0,0,0,0,0,0,0,0,0,0,0,0,0,0,0,0,0,0,0,0,0,0],"sum_hessian":[1.72E3,1.185E3,5.35E2,9.61E2,2.24E2,1.17E2,4.18E2,3.5E2,6.11E2,3.67E2,5.1E1,6.2E1,5.49E2,3.28E2,3.9E1,5.33E2,1.6E1,5E1,2.78E2,5.19E2,1.4E1,1.2E1,2.66E2,1E1,5.09E2,2.54E2,1.2E1,2.8E1,4.81E2,6E0,2.48E2,8E0,4.73E2,9E0,2.39E2,2.5E1,4.48E2,5E0,2.34E2,1.2E1,4.36E2,2E1,2.14E2,2.8E1,4.08E2,2.03E2,1.1E1],"tree_param":{"num_deleted":"0","num_feature":"200","num_nodes":"47","size_leaf_vector":"1"}},{"base_weights":[-0E0],"categories":[],"categories_nodes":[],"categories_segments":[],"categories_sizes":[],"default_left":[0],"id":2,"left_children":[-1],"loss_changes":[0E0],"parents":[2147483647],"right_children":[-1],"split_conditions":[-0E0],"split_indices":[0],"split_type":[0],"sum_hessian":[1.712E3],"tree_param":{"num_deleted":"0","num_feature":"200","num_nodes":"1","size_leaf_vector":"1"}},{"base_weights":[-0E0,-0E0,2.625959E-2,-4.227586E-3,-0E0,-0E0,5.772045E-2,-0E0,-5.7026662E-2,9.925086E-2,-0E0,-0E0,-8.816135E-2,1.2712592E-1,-0E0,-1.13253295E-1,-0E0,-0E0,1.384448E-1,-1.318974E-1,-0E0,1.508356E-1,-0E0,-1.8599954E-1,-0E0,-0E0,1.6201487E-1,-2.0424366E-1,-0E0,-0E0,1.7502412E-1,-2.2370258E-1,-0E0,-0E0,1.8260078E-1,-2.3845086E-1,-0E0,1.8724802E-1,-0E0,-2.4646157E-1,-0E0,-0E0,1.9047356E-1,-0E0,-5.1847347E-3,-0E0,3.749231E-3],"categories":[],"categories_nodes":[],"categories_segments":[],"categories_sizes":[],"default_left":[0,0,0,0,0,0,0,0,0,0,0,0,0,0,0,0,0,0,0,0,0,0,0,0,0,0,0,0,0,0,0,0,0,0,0,0,0,0,0,0,0,0,0,0,0,0,0],"id":3,"left_children":[1,3,5,7,-1,-1,9,-1,11,13,-1,-1,15,17,-1,19,-1,-1,21,23,-1,25,-1,27,-1,-1,29,31,-1,-1,33,35,-1,-1,37,39,-1,41,-1,43,-1,-1,45,-1,-1,-1,-1],"loss_changes":[6.6613114E-1,1.038418E-2,2.1391678E0,1.352269E0,0E0,0E0,3.7357347E0,0E0,1.7697494E0,2.9780369E0,0E0,0E0,1.677654E0,1.617219E0,0E0,1.5574775E0,0E0,0E0,1.6275749E0,1.4516411E0,0E0,1.2271461E0,0E0,1.4005675E0,0E0,0E0,1.2649012E0,1.5402155E0,0E0,0E0,6.492195E-1,9.538059E-1,0E0,0E0,6.4457226E-1,4.965477E-1,0E0,3.9368057E-1,0E0,5.0401306E-1,0E0,0E0,2.8141785E-1,0E0,0E0,0E0,0E0],"parents":[2147483647,0,0,1,1,2,2,3,3,6,6,8,8,9,9,12,12,13,13,15,15,18,18,19,19,21,21,23,23,26,26,27,27,30,30,31,31,34,34,35,35,37,37,39,39,42,42],"right_children":[2,4,6,8,-1,-1,10,-1,12,14,-1,-1,16,18,-1,20,-1,-1,22,24,-1,26,-1,28,-1,-1,30,32,-1,-1,34,36,-1,-1,38,40,-1,42,-1,44,-1,-1,46,-1,-1,-1,-1],"split_conditions":[-3.4292823E-1,4.5653516E2,1.3116468E1,9.8889555E4,-0E0,-0E0,1.3497821E3,-0E0,-3.205376E4,1.4355424E8,-0E0,-0E0,3.1559558E3,-1.3634447E3,-0E0,3.496225E4,-0E0,-0E0,4.770276E2,-1.1650545E4,-0E0,0E0,-0E0,4.0353348E4,-0E0,-0E0,-2.1036914E4,4.1286606E2,-0E0,-0E0,0E0,9.116487E4,-0E0,-0E0,8.137582E2,4.0353348E4,-0E0,-7.454614E4,-0E0,1.6039705E1,-0E0,-0E0,4.3897177E2,-0E0,-5.1847347E-3,-0E0,3.749231E-3],"split_indices":[30,36,23,103,0,0,42,0,60,16,0,0,90,70,0,60,0,0,70,91,0,111,0,35,0,0,83,71,0,0,108,85,0,0,102,32,0,79,0,23,0,0,43,0,0,0,0],"split_type":[0,0,0,0,0,0,0,0,0,0,0,0,0,0,0,0,0,0,0,0,0,0,0,0,0,0,0,0,0,0,0,0,0,0,0,0,0,0,0,0,0,0,0,0,0,0,0],"sum_hessian":[1.72E3,7.54E2,9.66E2,5.81E2,1.73E2,1.24E2,8.42E2,1.62E2,4.19E2,6.64E2,1.78E2,1.6E1,4.03E2,5.89E2,7.5E1,3.75E2,2.8E1,8E0,5.81E2,3.66E2,9E0,5.61E2,2E1,2.26E2,1.4E2,2.8E1,5.33E2,2.21E2,5E0,3.5E1,4.98E2,2.15E2,6E0,2.1E1,4.77E2,2.06E2,9E0,4.72E2,5E0,2.01E2,5E0,5E0,4.67E2,2.5E1,1.76E2,1.1E1,4.56E2],"tree_param":{"num_deleted":"0","num_feature":"200","num_nodes":"47","size_leaf_vector":"1"}},{"base_weights":[-0E0,-0E0,-2.4347302E-2,-0E0,-6.3571386E-2,-9.394062E-2,-0E0,-1.16836116E-1,-0E0,-0E0,-1.4417478E-1,-1.6199403E-1,-0E0,-0E0,-1.9013783E-1,-0E0,-2.2989969E-1,-0E0,-2.5162572E-1,-0E0,-2.7402917E-1,-0E0,-2.9461798E-1,-6.157224E-3,-0E0],"categories":[],"categories_nodes":[],"categories_segments":[],"categories_sizes":[],"default_left":[0,0,0,0,0,0,0,0,0,0,0,0,0,0,0,0,0,0,0,0,0,0,0,0,0],"id":4,"left_children":[1,-1,3,-1,5,7,-1,9,-1,-1,11,13,-1,-1,15,-1,17,-1,19,-1,21,-1,23,-1,-1],"loss_changes":[6.0761976E-1,0E0,2.581043E0,0E0,3.094756E0,3.1357517E0,0E0,3.5102596E0,0E0,0E0,2.7112331E0,3.7014065E0,0E0,0E0,3.438734E0,0E0,3.052864E0,0E0,2.8525925E0,0E0,2.9101486E0,0E0,2.1251984E0,0E0,0E0],"parents":[2147483647,0,0,2,2,4,4,5,5,7,7,10,10,11,11,14,14,16,16,18,18,20,20,22,22],"right_children":[2,-1,4,-1,6,8,-1,10,-1,-1,12,14,-1,-1,16,-1,18,-1,20,-1,22,-1,24,-1,-1],"split_conditions":[7.077969E3,-0E0,2.108145E-1,-0E0,1.0891738E4,9.116487E4,-0E0,1.0927037E3,-0E0,-0E0,1.9683E4,-3.6521946E3,-0E0,-0E0,1.054835E4,-0E0,-1.0077662E4,-0E0,-1.0940976E4,-0E0,1.1587027E1,-0E0,1E0,-6.157224E-3,-0E0],"split_indices":[43,0,5,0,63,75,0,41,0,0,31,36,0,0,92,0,39,0,32,0,23,0,127,0,0],"split_type":[0,0,0,0,0,0,0,0,0,0,0,0,0,0,0,0,0,0,0,0,0,0,0,0,0],"sum_hessian":[1.674E3,6.49E2,1.025E3,2.36E2,7.89E2,7.12E2,7.7E1,6.9E2,2.2E1,6.8E1,6.22E2,5.96E2,2.6E1,6.1E1,5.35E2,1.04E2,4.31E2,2.3E1,4.08E2,2.6E1,3.82E2,1.8E1,3.64E2,3.31E2,3.3E1],"tree_param":{"num_deleted":"0","num_feature":"200","num_nodes":"25","size_leaf_vector":"1"}},{"base_weights":[-0E0,-1.7740691E-2,-0E0,-7.086346E-2,-0E0,-0E0,-1.23418756E-1,-1.5521464E-1,-0E0,-0E0,-1.839403E-1,-0E0,-2.2203429E-1,-0E0,-2.5639912E-1,-0E0,-2.7645087E-1,-2.9377836E-1,-0E0,-0E0,-3.1943166E-1,-0E0,-3.360456E-1,-6.8279724E-3,-0E0],"categories":[],"categories_nodes":[],"categories_segments":[],"categories_sizes":[],"default_left":[0,0,0,0,0,0,0,0,0,0,0,0,0,0,0,0,0,0,0,0,0,0,0,0,0],"id":5,"left_children":[1,3,-1,5,-1,-1,7,9,-1,-1,11,-1,13,-1,15,-1,17,19,-1,-1,21,-1,23,-1,-1],"loss_changes":[3.5407835E-1,3.236462E0,0E0,6.1430554E0,0E0,0E0,4.8662624E0,5.1935587E0,0E0,0E0,5.8922157E0,0E0,4.293022E0,0E0,3.1909733E0,0E0,2.3033104E0,4.322857E0,0E0,0E0,2.4404564E0,0E0,2.6150856E0,0E0,0E0],"parents":[2147483647,0,0,1,1,3,3,6,6,7,7,10,10,12,12,14,14,16,16,17,17,20,20,22,22],"right_children":[2,4,-1,6,-1,-1,8,10,-1,-1,12,-1,14,-1,16,-1,18,20,-1,-1,22,-1,24,-1,-1],"split_conditions":[-4.580645E3,2.5443704E2,-0E0,-4.330786E3,-0E0,-0E0,9.852403E-1,-1.5216521E4,-0E0,-0E0,2.434456E4,-0E0,1.20465435E-1,-0E0,1.1692058E1,-0E0,3.5790732E2,-2.77268E4,-0E0,-0E0,2.20559E3,-0E0,1.1390625E4,-6.8279724E-3,-0E0],"split_indices":[88,63,0,32,0,0,7,58,0,0,99,0,5,0,23,0,37,56,0,0,89,0,35,0,0],"split_type":[0,0,0,0,0,0,0,0,0,0,0,0,0,0,0,0,0,0,0,0,0,0,0,0,0],"sum_hessian":[1.668E3,1.125E3,5.43E2,7.15E2,4.1E2,7.6E1,6.39E2,6.06E2,3.3E1,2.1E1,5.85E2,6.4E1,5.21E2,6.5E1,4.56E2,2.2E1,4.34E2,4.11E2,2.3E1,2.1E1,3.9E2,1.6E1,3.74E2,3.58E2,1.6E1],"tree_param":{"num_deleted":"0","num_feature":"200","num_nodes":"25","size_leaf_vector":"1"}},{"base_weights":[-0E0,3.8665287E-2,-0E0,6.409601E-2,-0E0,-0E0,-4.6040174E-3,-0E0,9.533736E-2,-6.352214E-2,-0E0,1.6885397E-1,-0E0,-9.697074E-2,-0E0,-0E0,2.0468436E-1,-1.4140695E-1,-0E0,-0E0,2.2863954E-1,-1.683268E-1,-0E0,-0E0,2.5063506E-1,-1.9074523E-1,-0E0,-0E0,2.7015567E-1,-0E0,-2.2200406E-1,2.8701958E-1,-0E0,-0E0,-2.3688115E-1,3.039703E-1,-0E0,-0E0,-2.5363228E-1,3.2860452E-1,-0E0,-0E0,-2.6266956E-1,6.7513795E-3,-0E0,-5.3112847E-3,-0E0],"categories":[],"categories_nodes":[],"categories_segments":[],"categories_sizes":[],"default_left":[0,0,0,0,0,0,0,0,0,0,0,0,0,0,0,0,0,0,0,0,0,0,0,0,0,0,0,0,0,0,0,0,0,0,0,0,0,0,0,0,0,0,0,0,0,0,0],"id":6,"left_children":[1,3,5,7,-1,-1,9,-1,11,13,-1,15,-1,17,-1,-1,19,21,-1,-1,23,25,-1,-1,27,29,-1,-1,31,-1,33,35,-1,-1,37,39,-1,-1,41,43,-1,-1,45,-1,-1,-1,-1],"loss_changes":[1.8747579E0,2.4472337E0,7.1648937E-3,3.0404058E0,0E0,0E0,1.2437645E0,0E0,3.6720428E0,1.5137885E0,0E0,3.1269283E0,0E0,2.1345832E0,0E0,0E0,3.03823E0,1.646256E0,0E0,0E0,2.9658947E0,1.5685616E0,0E0,0E0,2.3146935E0,1.6452065E0,0E0,0E0,2.3174934E0,0E0,9.029217E-1,2.3686981E0,0E0,0E0,9.823246E-1,1.882103E0,0E0,0E0,4.9963093E-1,2.4314766E0,0E0,0E0,5.1613426E-1,0E0,0E0,0E0,0E0],"parents":[2147483647,0,0,1,1,2,2,3,3,6,6,8,8,9,9,11,11,13,13,16,16,17,17,20,20,21,21,24,24,25,25,28,28,30,30,31,31,34,34,35,35,38,38,39,39,42,42],"right_children":[2,4,6,8,-1,-1,10,-1,12,14,-1,16,-1,18,-1,-1,20,22,-1,-1,24,26,-1,-1,28,30,-1,-1,32,-1,34,36,-1,-1,38,40,-1,-1,42,44,-1,-1,46,-1,-1,-1,-1],"split_conditions":[7.083225E1,6.19E2,-8.646076E3,-6.9831014E-1,-0E0,-0E0,1.4428923E3,-0E0,1.2105E3,9.88039E-1,-0E0,-1.3588285E3,-0E0,1.407E3,-0E0,-0E0,-9.7406875E4,4.4658363E4,-0E0,-0E0,-3.5253035E4,1.9683E4,-0E0,-0E0,9.151146E2,2.7203695E1,-0E0,-0E0,1.2326352E4,-0E0,-3.205376E4,2.6619548E3,-0E0,-0E0,-8.5358766E11,2.016E3,-0E0,-0E0,1.825189E3,1E0,-0E0,-0E0,2.018E3,6.7513795E-3,-0E0,-5.3112847E-3,-0E0],"split_indices":[97,0,85,7,0,0,35,0,199,7,0,46,0,0,0,0,15,85,0,0,83,31,0,0,92,25,0,0,31,0,59,66,0,0,12,2,0,0,92,160,0,0,2,0,0,0,0],"split_type":[0,0,0,0,0,0,0,0,0,0,0,0,0,0,0,0,0,0,0,0,0,0,0,0,0,0,0,0,0,0,0,0,0,0,0,0,0,0,0,0,0,0,0,0,0,0,0],"sum_hessian":[1.669E3,1.254E3,4.15E2,1.052E3,2.02E2,7.7E1,3.38E2,2.42E2,8.1E2,3.1E2,2.8E1,3.87E2,4.23E2,2.94E2,1.6E1,4.9E1,3.38E2,2.45E2,4.9E1,9E0,3.29E2,2.31E2,1.4E1,8E0,3.21E2,2.23E2,8E0,1.3E1,3.08E2,2.5E1,1.98E2,3.01E2,7E0,8E0,1.9E2,2.94E2,7E0,9E0,1.81E2,2.69E2,2.5E1,5E0,1.76E2,2.57E2,1.2E1,1.67E2,9E0],"tree_param":{"num_deleted":"0","num_feature":"200","num_nodes":"47","size_leaf_vector":"1"}},{"base_weights":[-0E0],"categories":[],"categories_nodes":[],"categories_segments":[],"categories_sizes":[],"default_left":[0],"id":7,"left_children":[-1],"loss_changes":[0E0],"parents":[2147483647],"right_children":[-1],"split_conditions":[-0E0],"split_indices":[0],"split_type":[0],"sum_hessian":[1.686E3],"tree_param":{"num_deleted":"0","num_feature":"200","num_nodes":"1","size_leaf_vector":"1"}},{"base_weights":[-0E0],"categories":[],"categories_nodes":[],"categories_segments":[],"categories_sizes":[],"default_left":[0],"id":8,"left_children":[-1],"loss_changes":[0E0],"parents":[2147483647],"right_children":[-1],"split_conditions":[-0E0],"split_indices":[0],"split_type":[0],"sum_hessian":[1.71E3],"tree_param":{"num_deleted":"0","num_feature":"200","num_nodes":"1","size_leaf_vector":"1"}},{"base_weights":[-0E0],"categories":[],"categories_nodes":[],"categories_segments":[],"categories_sizes":[],"default_left":[0],"id":9,"left_children":[-1],"loss_changes":[0E0],"parents":[2147483647],"right_children":[-1],"split_conditions":[-0E0],"split_indices":[0],"split_type":[0],"sum_hessian":[1.64E3],"tree_param":{"num_deleted":"0","num_feature":"200","num_nodes":"1","size_leaf_vector":"1"}},{"base_weights":[-0E0,9.69359E-3,-0E0,-0E0,3.751647E-2,-0E0,6.0016446E-2,8.258005E-2,-0E0,1.0793691E-1,-0E0,-0E0,1.2386853E-1,1.3919924E-1,-0E0,1.5017256E-1,-0E0,-0E0,1.6414948E-1,-0E0,1.740085E-1,1.8009827E-1,-0E0,-0E0,3.563312E-3],"categories":[],"categories_nodes":[],"categories_segments":[],"categories_sizes":[],"default_left":[0,0,0,0,0,0,0,0,0,0,0,0,0,0,0,0,0,0,0,0,0,0,0,0,0],"id":10,"left_children":[1,3,-1,-1,5,-1,7,9,-1,11,-1,-1,13,15,-1,17,-1,-1,19,-1,21,23,-1,-1,-1],"loss_changes":[1.1210247E-1,1.3165162E0,0E0,0E0,1.7339683E0,0E0,2.245351E0,2.3979883E0,0E0,1.7072182E0,0E0,0E0,1.8417311E0,1.6352949E0,0E0,2.0725155E0,0E0,0E0,1.6820288E0,0E0,9.979248E-1,7.504597E-1,0E0,0E0,0E0],"parents":[2147483647,0,0,1,1,4,4,6,6,7,7,9,9,12,12,13,13,15,15,18,18,20,20,21,21],"right_children":[2,4,-1,-1,6,-1,8,10,-1,12,-1,-1,14,16,-1,18,-1,-1,20,-1,22,24,-1,-1,-1],"split_conditions":[1.9038664E8,-8.419807E3,-0E0,-0E0,-1.7887547E4,-0E0,5.7571953E3,4.9371587E3,-0E0,-1.3567278E4,-0E0,-0E0,5.304126E1,9.116487E4,-0E0,0E0,-0E0,-0E0,1.6122217E3,-0E0,1.0360302E4,-3.2431969E4,-0E0,-0E0,3.563312E-3],"split_indices":[11,84,0,0,17,0,64,86,0,83,0,0,102,78,0,112,0,0,96,0,33,86,0,0,0],"split_type":[0,0,0,0,0,0,0,0,0,0,0,0,0,0,0,0,0,0,0,0,0,0,0,0,0],"sum_hessian":[1.66E3,1.193E3,4.67E2,1.78E2,1.015E3,1.37E2,8.78E2,7.93E2,8.5E1,6.7E2,1.23E2,5E1,6.2E2,5.86E2,3.4E1,5.76E2,1E1,1.7E1,5.59E2,6E0,5.53E2,5.47E2,6E0,5E0,5.42E2],"tree_param":{"num_deleted":"0","num_feature":"200","num_nodes":"25","size_leaf_vector":"1"}},{"base_weights":[-0E0,-0E0,-8.690606E-3,2.478894E-2,-0E0,-0E0,-3.4848314E-2,4.3297116E-2,-0E0,-6.1417703E-2,-0E0,5.955341E-2,-0E0,-0E0,-8.220662E-2,-0E0,7.190135E-2,-0E0,-1.0235038E-1,-0E0,8.824125E-2,-1.15316674E-1,-0E0,-0E0,9.870035E-2,-0E0,-1.24698654E-1,1.1107405E-1,-0E0,-0E0,-1.3357453E-1,1.3835165E-1,-0E0,-1.488669E-1,-0E0,-0E0,1.5091471E-1,-0E0,-1.6966099E-1,-0E0,1.6099091E-1,-0E0,-1.8325938E-1,3.3670461E-3,-0E0,-0E0,-3.7573741E-3],"categories":[],"categories_nodes":[],"categories_segments":[],"categories_sizes":[],"default_left":[0,0,0,0,0,0,0,0,0,0,0,0,0,0,0,0,0,0,0,0,0,0,0,0,0,0,0,0,0,0,0,0,0,0,0,0,0,0,0,0,0,0,0,0,0,0,0],"id":11,"left_children":[1,3,5,7,-1,-1,9,11,-1,13,-1,15,-1,-1,17,-1,19,-1,21,-1,23,25,-1,-1,27,-1,29,31,-1,-1,33,35,-1,37,-1,-1,39,-1,41,-1,43,-1,45,-1,-1,-1,-1],"loss_changes":[6.0724538E-2,4.1540548E-1,8.258091E-1,7.975147E-1,0E0,0E0,1.7012064E0,7.9451346E-1,0E0,1.7644665E0,0E0,8.1535673E-1,0E0,0E0,1.5457125E0,0E0,9.9271965E-1,0E0,1.4294415E0,0E0,9.093888E-1,1.1163888E0,0E0,0E0,9.0115976E-1,0E0,1.0128603E0,1.3033338E0,0E0,0E0,1.4692688E0,1.0195098E0,0E0,1.1641874E0,0E0,0E0,9.673004E-1,0E0,1.4783716E0,0E0,9.241686E-1,0E0,1.3412542E0,0E0,0E0,0E0,0E0],"parents":[2147483647,0,0,1,1,2,2,3,3,6,6,7,7,9,9,11,11,14,14,16,16,18,18,20,20,21,21,24,24,26,26,27,27,30,30,31,31,33,33,36,36,38,38,40,40,42,42],"right_children":[2,4,6,8,-1,-1,10,12,-1,14,-1,16,-1,-1,18,-1,20,-1,22,-1,24,26,-1,-1,28,-1,30,32,-1,-1,34,36,-1,38,-1,-1,40,-1,42,-1,44,-1,46,-1,-1,-1,-1],"split_conditions":[8.7447044E5,1.4474027E5,-3.4446622E2,2.5230525E3,-0E0,-0E0,9.7876906E-1,2.018E3,-0E0,-9.7742647E-1,-0E0,-2.1876929E3,-0E0,-0E0,-3.9300613E1,-0E0,7.119423E3,-0E0,5.042114E1,-0E0,-1.1733227E5,2.3822258E0,-0E0,-0E0,1.9815557E4,-0E0,-4.960348E4,8.271893E-1,-0E0,-0E0,1E0,-9.9639505E-1,-0E0,1.2171162E4,-0E0,-0E0,-2.012354E4,-0E0,2.0537518E2,-0E0,4.410865E3,-0E0,-4.319021E2,3.3670461E-3,-0E0,-0E0,-3.7573741E-3],"split_indices":[12,96,68,44,0,0,7,2,0,7,0,93,0,0,9,0,96,0,21,0,84,20,0,0,85,0,85,6,0,0,119,6,0,96,0,0,29,0,41,0,31,0,98,0,0,0,0],"split_type":[0,0,0,0,0,0,0,0,0,0,0,0,0,0,0,0,0,0,0,0,0,0,0,0,0,0,0,0,0,0,0,0,0,0,0,0,0,0,0,0,0,0,0,0,0,0,0],"sum_hessian":[1.64E3,8.36E2,8.04E2,6.76E2,1.6E2,7.4E1,7.3E2,6.47E2,2.9E1,6.86E2,4.4E1,5.66E2,8.1E1,4.2E1,6.44E2,2E1,5.46E2,8.1E1,5.63E2,5.6E1,4.9E2,5.51E2,1.2E1,5E0,4.85E2,8E0,5.43E2,4.56E2,2.9E1,1.3E1,5.3E2,3.62E2,9.4E1,4.93E2,3.7E1,1.3E1,3.49E2,7.3E1,4.2E2,5E0,3.44E2,1.6E1,4.04E2,3.23E2,2.1E1,1.1E1,3.93E2],"tree_param":{"num_deleted":"0","num_feature":"200","num_nodes":"47","size_leaf_vector":"1"}},{"base_weights":[-0E0,-0E0,7.3472955E-3,-0E0,-1.4311328E-2,-0E0,3.81129E-2,-0E0,-5.411544E-2,-0E0,6.023698E-2,-8.072507E-2,-0E0,-0E0,9.381501E-2,-9.956805E-2,-0E0,-0E0,1.2019794E-1,-0E0,-1.2007509E-1,-0E0,1.4585157E-1,-1.3183506E-1,-0E0,-0E0,1.6572385E-1,-0E0,-1.413071E-1,1.7844772E-1,-0E0,-0E0,-1.5163766E-1,-0E0,1.8795408E-1,-0E0,-1.6184431E-1,-0E0,1.96334E-1,-1.702307E-1,-0E0,-0E0,2.0767032E-1,-0E0,-3.4277667E-3,-0E0,4.27189E-3],"categories":[],"categories_nodes":[],"categories_segments":[],"categories_sizes":[],"default_left":[0,0,0,0,0,0,0,0,0,0,0,0,0,0,0,0,0,0,0,0,0,0,0,0,0,0,0,0,0,0,0,0,0,0,0,0,0,0,0,0,0,0,0,0,0,0,0],"id":12,"left_children":[1,3,5,-1,7,-1,9,-1,11,-1,13,15,-1,-1,17,19,-1,-1,21,-1,23,-1,25,27,-1,-1,29,-1,31,33,-1,-1,35,-1,37,-1,39,-1,41,43,-1,-1,45,-1,-1,-1,-1],"loss_changes":[4.388878E-2,1.4869809E-1,1.0005473E0,0E0,1.3653703E0,0E0,1.2560829E0,0E0,1.6335161E0,0E0,2.2322593E0,1.4922199E0,0E0,0E0,2.069965E0,1.4159818E0,0E0,0E0,2.5448256E0,0E0,1.0704713E0,0E0,1.7562046E0,9.4099E-1,0E0,0E0,1.3564854E0,0E0,1.0157185E0,9.524679E-1,0E0,0E0,8.9718056E-1,0E0,1.0117073E0,0E0,8.292637E-1,0E0,9.137707E-1,7.78285E-1,0E0,0E0,1.4863377E0,0E0,0E0,0E0,0E0],"parents":[2147483647,0,0,1,1,2,2,4,4,6,6,8,8,10,10,11,11,14,14,15,15,18,18,20,20,22,22,23,23,26,26,28,28,29,29,32,32,34,34,36,36,38,38,39,39,42,42],"right_children":[2,4,6,-1,8,-1,10,-1,12,-1,14,16,-1,-1,18,20,-1,-1,22,-1,24,-1,26,28,-1,-1,30,-1,32,34,-1,-1,36,-1,38,-1,40,-1,42,44,-1,-1,46,-1,-1,-1,-1],"split_conditions":[0E0,1.4784394E-1,-1.4785009E4,-0E0,6.2183743E0,-0E0,0E0,-0E0,3.5205957E4,-0E0,9.2496836E4,-9.0449115E2,-0E0,-0E0,0E0,1.1410868E1,-0E0,-0E0,0E0,-0E0,1.6974496E4,-0E0,4E0,-2.1249005E5,-0E0,-0E0,1.4706125E4,-0E0,-3.528751E4,3.4442932E1,-0E0,-0E0,-1.0138324E4,-0E0,0E0,-0E0,1E0,-0E0,1.9683E4,-8.693549E4,-0E0,-0E0,-1.7277186E4,-0E0,-3.4277667E-3,-0E0,4.27189E-3],"split_indices":[61,5,79,0,20,0,170,0,77,0,103,88,0,0,155,22,0,0,108,0,34,0,1,77,0,0,38,0,34,26,0,0,87,0,111,0,116,0,53,65,0,0,14,0,0,0,0],"split_type":[0,0,0,0,0,0,0,0,0,0,0,0,0,0,0,0,0,0,0,0,0,0,0,0,0,0,0,0,0,0,0,0,0,0,0,0,0,0,0,0,0,0,0,0,0,0,0],"sum_hessian":[1.651E3,8.38E2,8.13E2,1.12E2,7.26E2,9.4E1,7.19E2,2.09E2,5.17E2,8.5E1,6.34E2,4.83E2,3.4E1,1.19E2,5.15E2,4.68E2,1.5E1,5.8E1,4.57E2,4.8E1,4.2E2,2.7E1,4.3E2,4.1E2,1E1,3.3E1,3.97E2,6E0,4.04E2,3.85E2,1.2E1,9E0,3.95E2,1.1E1,3.74E2,1.4E1,3.81E2,5E0,3.69E2,3.73E2,8E0,1.8E1,3.51E2,6E0,3.67E2,1.2E1,3.39E2],"tree_param":{"num_deleted":"0","num_feature":"200","num_nodes":"47","size_leaf_vector":"1"}},{"base_weights":[1.0914791E-3,-0E0,2.8972514E-2,-0E0,6.329325E-2,-0E0,9.747174E-2,-0E0,1.18913725E-1,-0E0,1.4229436E-1,1.5711653E-1,-0E0,1.7509456E-1,-0E0,1.9355966E-1,-0E0,-0E0,2.0643234E-1,2.247231E-1,-0E0,2.413701E-1,-0E0,-0E0,4.8877797E-3],"categories":[],"categories_nodes":[],"categories_segments":[],"categories_sizes":[],"default_left":[0,0,0,0,0,0,0,0,0,0,0,0,0,0,0,0,0,0,0,0,0,0,0,0,0],"id":13,"left_children":[1,-1,3,-1,5,-1,7,-1,9,-1,11,13,-1,15,-1,17,-1,-1,19,21,-1,23,-1,-1,-1],"loss_changes":[1.1496782E0,0E0,3.0547185E0,0E0,3.802867E0,0E0,3.0205164E0,0E0,2.9616718E0,0E0,2.6717024E0,1.8241425E0,0E0,1.6321526E0,0E0,1.6997147E0,0E0,0E0,1.5633068E0,2.4856262E0,0E0,1.4807396E0,0E0,0E0,0E0],"parents":[2147483647,0,0,2,2,4,4,6,6,8,8,10,10,11,11,13,13,15,15,18,18,19,19,21,21],"right_children":[2,-1,4,-1,6,-1,8,-1,10,-1,12,14,-1,16,-1,18,-1,-1,20,22,-1,24,-1,-1,-1],"split_conditions":[-7.296607E3,-0E0,-3.1443878E2,-0E0,-1.6049679E3,-0E0,-4.7416733E3,-0E0,-1.953125E3,-0E0,5.2995255E6,2.018E3,-0E0,1.2378125E4,-0E0,4.298386E3,-0E0,-0E0,2.5713599E3,5.2179233E3,-0E0,-3.6852988E3,-0E0,-0E0,4.8877797E-3],"split_indices":[83,0,35,0,14,0,29,0,38,0,99,2,0,85,0,96,0,0,32,58,0,62,0,0,0],"split_type":[0,0,0,0,0,0,0,0,0,0,0,0,0,0,0,0,0,0,0,0,0,0,0,0,0],"sum_hessian":[1.679E3,3.07E2,1.372E3,3.22E2,1.05E3,2.07E2,8.43E2,6.3E1,7.8E2,8.9E1,6.91E2,6.75E2,1.6E1,6.03E2,7.2E1,5.37E2,6.6E1,2.5E1,5.12E2,4.63E2,4.9E1,4.44E2,1.9E1,1.8E1,4.26E2],"tree_param":{"num_deleted":"0","num_feature":"200","num_nodes":"25","size_leaf_vector":"1"}},{"base_weights":[-0E0,-1.3284052E-2,7.5349153E-4,-0E0,-7.230746E-2,-0E0,3.5941545E-2,-0E0,-1.1574463E-1,6.656489E-2,-0E0,-0E0,-1.3517518E-1,-0E0,9.1499455E-2,-0E0,-1.5548286E-1,1.11797675E-1,-0E0,-0E0,-1.7516139E-1,-0E0,1.3643903E-1,-0E0,-1.968279E-1,1.4480112E-1,-0E0,-2.1659121E-1,-0E0,-0E0,1.5201302E-1,-0E0,-2.4017514E-1,-0E0,1.6066805E-1,-0E0,-2.59644E-1,1.715267E-1,-0E0,-0E0,-2.7559274E-1,-0E0,1.780284E-1,-5.571037E-3,-0E0,3.566322E-3,-0E0],"categories":[],"categories_nodes":[],"categories_segments":[],"categories_sizes":[],"default_left":[0,0,0,0,0,0,0,0,0,0,0,0,0,0,0,0,0,0,0,0,0,0,0,0,0,0,0,0,0,0,0,0,0,0,0,0,0,0,0,0,0,0,0,0,0,0,0],"id":14,"left_children":[1,3,5,-1,7,-1,9,-1,11,13,-1,-1,15,-1,17,-1,19,21,-1,-1,23,-1,25,-1,27,29,-1,31,-1,-1,33,-1,35,-1,37,-1,39,41,-1,-1,43,-1,45,-1,-1,-1,-1],"loss_changes":[1.4695658E-1,2.0129247E0,9.6321094E-1,0E0,2.1277878E0,0E0,2.1468487E0,0E0,1.4323301E0,1.7956579E0,0E0,0E0,1.630024E0,0E0,1.4433322E0,0E0,1.794013E0,1.9346867E0,0E0,0E0,1.9757605E0,0E0,7.949581E-1,0E0,2.0166817E0,8.11368E-1,0E0,1.9781046E0,0E0,0E0,7.711086E-1,0E0,1.8754921E0,0E0,1.2544498E0,0E0,1.6955833E0,7.620096E-1,0E0,0E0,1.4153252E0,0E0,6.855364E-1,0E0,0E0,0E0,0E0],"parents":[2147483647,0,0,1,1,2,2,4,4,6,6,8,8,9,9,12,12,14,14,16,16,17,17,20,20,22,22,24,24,25,25,27,27,30,30,32,32,34,34,36,36,37,37,40,40,42,42],"right_children":[2,4,6,-1,8,-1,10,-1,12,14,-1,-1,16,-1,18,-1,20,22,-1,-1,24,-1,26,-1,28,30,-1,32,-1,-1,34,-1,36,-1,38,-1,40,42,-1,-1,44,-1,46,-1,-1,-1,-1],"split_conditions":[-4.80557E3,-3.703184E7,-1.3569738E3,-0E0,-1.2514608E4,-0E0,1.28475065E1,-0E0,-3.205376E4,-8.9882547E-1,-0E0,-0E0,4.913E3,-0E0,2.018E3,-0E0,1.9164955E-2,6.968184E2,-0E0,-0E0,3.026069E0,-0E0,9.552475E2,-0E0,2.4587766E3,-3.528751E4,-0E0,2.3669062E1,-0E0,-0E0,-1.2812743E4,-0E0,-4.2597783E3,-0E0,1E0,-0E0,-2.4763594E7,5.48E2,-0E0,-0E0,6.431475E1,-0E0,1E0,-5.571037E-3,-0E0,3.566322E-3,-0E0],"split_indices":[67,12,56,0,15,0,20,0,59,7,0,0,47,0,2,0,5,89,0,0,20,0,93,0,50,36,0,25,0,0,31,0,90,0,118,0,17,198,0,0,22,0,107,0,0,0,0],"split_type":[0,0,0,0,0,0,0,0,0,0,0,0,0,0,0,0,0,0,0,0,0,0,0,0,0,0,0,0,0,0,0,0,0,0,0,0,0,0,0,0,0,0,0,0,0,0,0],"sum_hessian":[1.688E3,8.3E2,8.58E2,4.17E2,4.13E2,1.12E2,7.46E2,9.3E1,3.2E2,7.02E2,4.4E1,7E0,3.13E2,1.16E2,5.86E2,9E0,3.04E2,5.08E2,7.8E1,6E0,2.98E2,6.3E1,4.45E2,1.1E1,2.87E2,4.33E2,1.2E1,2.8E2,7E0,5E0,4.28E2,1.8E1,2.62E2,1.5E1,4.13E2,1E1,2.52E2,4.05E2,8E0,6E0,2.46E2,5E0,4E2,2.41E2,5E0,3.91E2,9E0],"tree_param":{"num_deleted":"0","num_feature":"200","num_nodes":"47","size_leaf_vector":"1"}},{"base_weights":[-0E0,-0E0,4.248713E-2,-3.1362407E-2,-0E0,7.728454E-2,-0E0,-0E0,-6.1117344E-2,1.12555586E-1,-0E0,-1.00364335E-1,-0E0,1.4683953E-1,-0E0,-1.4254153E-1,-0E0,1.6489935E-1,-0E0,-1.6644667E-1,-0E0,1.8218513E-1,-0E0,-0E0,-1.886694E-1,-0E0,1.9597276E-1,-2.1811226E-1,-0E0,2.061551E-1,-0E0,-0E0,-2.3392689E-1,-0E0,2.245682E-1,-0E0,-2.7518392E-1,-0E0,2.3611175E-1,-0E0,-2.9127923E-1,2.4401297E-1,-0E0,-5.825874E-3,-0E0,5.1078387E-3,-0E0],"categories":[],"categories_nodes":[],"categories_segments":[],"categories_sizes":[],"default_left":[0,0,0,0,0,0,0,0,0,0,0,0,0,0,0,0,0,0,0,0,0,0,0,0,0,0,0,0,0,0,0,0,0,0,0,0,0,0,0,0,0,0,0,0,0,0,0],"id":15,"left_children":[1,3,5,7,-1,9,-1,-1,11,13,-1,15,-1,17,-1,19,-1,21,-1,23,-1,25,-1,-1,27,-1,29,31,-1,33,-1,-1,35,-1,37,-1,39,-1,41,-1,43,45,-1,-1,-1,-1,-1],"loss_changes":[1.9983346E0,4.6033973E-1,3.795468E0,1.16832E0,0E0,3.5179248E0,0E0,0E0,2.0279899E0,3.6472645E0,0E0,2.8251243E0,0E0,2.513546E0,0E0,1.7745786E0,0E0,2.7832394E0,0E0,1.9958668E0,0E0,2.4068584E0,0E0,0E0,1.7368765E0,0E0,1.9054604E0,1.5280037E0,0E0,1.9420624E0,0E0,0E0,2.537981E0,0E0,1.1908493E0,0E0,1.0845928E0,0E0,1.2725563E0,0E0,8.2883644E-1,2.1922436E0,0E0,0E0,0E0,0E0,0E0],"parents":[2147483647,0,0,1,1,2,2,3,3,5,5,8,8,9,9,11,11,13,13,15,15,17,17,19,19,21,21,24,24,26,26,27,27,29,29,32,32,34,34,36,36,38,38,40,40,41,41],"right_children":[2,4,6,8,-1,10,-1,-1,12,14,-1,16,-1,18,-1,20,-1,22,-1,24,-1,26,-1,-1,28,-1,30,32,-1,34,-1,-1,36,-1,38,-1,40,-1,42,-1,44,46,-1,-1,-1,-1,-1],"split_conditions":[-1.2506223E3,3.2851248E2,1.1138284E12,-1.0360128E4,-0E0,1E0,-0E0,-0E0,1.4428923E3,2.4598628E3,-0E0,-9.1977734E2,-0E0,-2.484999E3,-0E0,9.778786E-1,-0E0,1.22832275E2,-0E0,-3.8385215E4,-0E0,-5.431559E7,-0E0,-0E0,4.5945854E3,-0E0,2.0119513E3,-3.008016E4,-0E0,0E0,-0E0,-0E0,-3.2221812E6,-0E0,-3.0466447E4,-0E0,0E0,-0E0,3.2916133E3,-0E0,-1.4457692E3,6.0285195E3,-0E0,-5.825874E-3,-0E0,5.1078387E-3,-0E0],"split_indices":[84,37,12,35,0,129,0,0,35,65,0,67,0,91,0,7,0,100,0,81,0,16,0,0,65,0,69,32,0,158,0,0,16,0,86,0,143,0,66,0,84,30,0,0,0,0,0],"split_type":[0,0,0,0,0,0,0,0,0,0,0,0,0,0,0,0,0,0,0,0,0,0,0,0,0,0,0,0,0,0,0,0,0,0,0,0,0,0,0,0,0,0,0,0,0,0,0],"sum_hessian":[1.648E3,5.41E2,1.107E3,4.68E2,7.3E1,9.7E2,1.37E2,3.2E1,4.36E2,7.35E2,2.35E2,3.63E2,7.3E1,6.01E2,1.34E2,3.19E2,4.4E1,5.69E2,3.2E1,2.98E2,2.1E1,5.5E2,1.9E1,1E1,2.88E2,1.2E1,5.38E2,2.52E2,3.6E1,5.31E2,7E0,5E0,2.47E2,4.5E1,4.86E2,3.5E1,2.12E2,2.5E1,4.61E2,1E1,2.02E2,4.53E2,8E0,1.97E2,5E0,4.16E2,3.7E1],"tree_param":{"num_deleted":"0","num_feature":"200","num_nodes":"47","size_leaf_vector":"1"}},{"base_weights":[-0E0,5.045819E-2,-0E0,-0E0,8.005055E-2,-0E0,1.1320019E-1,-0E0,1.4607663E-1,-0E0,1.7368075E-1,-0E0,1.9069374E-1,2.0873575E-1,-0E0,2.2125657E-1,-0E0,-0E0,2.3456483E-1,2.4651465E-1,-0E0,-0E0,2.5600412E-1,-0E0,5.1168543E-3],"categories":[],"categories_nodes":[],"categories_segments":[],"categories_sizes":[],"default_left":[0,0,0,0,0,0,0,0,0,0,0,0,0,0,0,0,0,0,0,0,0,0,0,0,0],"id":16,"left_children":[1,3,-1,-1,5,-1,7,-1,9,-1,11,-1,13,15,-1,17,-1,-1,19,21,-1,-1,23,-1,-1],"loss_changes":[2.181985E0,2.290958E0,0E0,0E0,4.151261E0,0E0,4.0297766E0,0E0,4.1483784E0,0E0,2.8348007E0,0E0,2.8894978E0,2.0492172E0,0E0,1.889883E0,0E0,0E0,1.8537235E0,1.6324177E0,0E0,0E0,9.351311E-1,0E0,0E0],"parents":[2147483647,0,0,1,1,4,4,6,6,8,8,10,10,12,12,13,13,15,15,18,18,19,19,22,22],"right_children":[2,4,-1,-1,6,-1,8,-1,10,-1,12,-1,14,16,-1,18,-1,-1,20,22,-1,-1,24,-1,-1],"split_conditions":[-2.0800513E-1,-4.7088173E1,-0E0,-0E0,-1.2812743E4,-0E0,0E0,-0E0,-3.7461417E2,-0E0,4.9303214E2,-0E0,1.6626E3,1E0,-0E0,-9.5280625E3,-0E0,-0E0,7.0444625E4,-5.020159E4,-0E0,-0E0,-6.539152E3,-0E0,5.1168543E-3],"split_indices":[65,100,0,0,31,0,170,0,70,0,43,0,199,110,0,35,0,0,41,76,0,0,37,0,0],"split_type":[0,0,0,0,0,0,0,0,0,0,0,0,0,0,0,0,0,0,0,0,0,0,0,0,0],"sum_hessian":[1.73E3,8.57E2,8.73E2,1.59E2,6.98E2,2.5E1,6.73E2,8E1,5.93E2,3.6E1,5.57E2,1.7E1,5.4E2,5.17E2,2.3E1,5.02E2,1.5E1,2.1E1,4.81E2,4.66E2,1.5E1,9E0,4.57E2,1.8E1,4.39E2],"tree_param":{"num_deleted":"0","num_feature":"200","num_nodes":"25","size_leaf_vector":"1"}},{"base_weights":[-0E0,6.838749E-3,-0E0,4.1376982E-2,-0E0,-0E0,7.043612E-2,-0E0,9.174213E-2,-0E0,1.24357924E-1,1.4173466E-1,-0E0,1.5681694E-1,-0E0,1.7220408E-1,-0E0,-0E0,1.9117069E-1,2.0364884E-1,-0E0,-0E0,2.1105771E-1,-0E0,4.221579E-3],"categories":[],"categories_nodes":[],"categories_segments":[],"categories_sizes":[],"default_left":[0,0,0,0,0,0,0,0,0,0,0,0,0,0,0,0,0,0,0,0,0,0,0,0,0],"id":17,"left_children":[1,3,-1,5,-1,-1,7,-1,9,-1,11,13,-1,15,-1,17,-1,-1,19,21,-1,-1,23,-1,-1],"loss_changes":[5.3878002E-2,1.617113E0,0E0,2.2534294E0,0E0,0E0,2.0515041E0,0E0,2.8392954E0,0E0,2.4950266E0,2.0679264E0,0E0,2.2797108E0,0E0,2.3965025E0,0E0,0E0,2.1020374E0,1.2705574E0,0E0,0E0,1.3212605E0,0E0,0E0],"parents":[2147483647,0,0,1,1,3,3,6,6,8,8,10,10,11,11,13,13,15,15,18,18,19,19,22,22],"right_children":[2,4,-1,6,-1,-1,8,-1,10,-1,12,14,-1,16,-1,18,-1,-1,20,22,-1,-1,24,-1,-1],"split_conditions":[1.2921E3,7.3079895E1,-0E0,-4.3199536E3,-0E0,-0E0,0E0,-0E0,2.2267515E1,-0E0,1.6246261E4,1.8058338E4,-0E0,2.4598628E3,-0E0,1.6976426E3,-0E0,-0E0,1.1824521E3,-5.4671375E5,-0E0,-0E0,3.2850378E2,-0E0,4.221579E-3],"split_indices":[196,98,0,76,0,0,137,0,25,0,14,64,0,56,0,92,0,0,69,91,0,0,43,0,0],"split_type":[0,0,0,0,0,0,0,0,0,0,0,0,0,0,0,0,0,0,0,0,0,0,0,0,0],"sum_hessian":[1.708E3,1.152E3,5.56E2,9.76E2,1.76E2,1.85E2,7.91E2,8.1E1,7.1E2,1.4E2,5.7E2,5.63E2,7E0,5.44E2,1.9E1,5.28E2,1.6E1,3.4E1,4.94E2,4.86E2,8E0,5E0,4.81E2,6E0,4.75E2],"tree_param":{"num_deleted":"0","num_feature":"200","num_nodes":"25","size_leaf_vector":"1"}},{"base_weights":[-0E0,-3.4006365E-2,-0E0,-0E0,-9.188089E-2,8.437721E-3,-0E0,-1.4007565E-1,-0E0,-0E0,3.46881E-2,-0E0,-1.6656649E-1,6.24001E-2,-0E0,-1.908169E-1,-0E0,8.518588E-2,-0E0,-2.1280102E-1,-0E0,-0E0,1.0037333E-1,-0E0,-2.3129927E-1,-0E0,1.0648527E-1,-0E0,-2.5864106E-1,-0E0,1.11882806E-1,-0E0,-3.0825293E-1,-0E0,1.159009E-1,-0E0,-3.3471087E-1,1.22601256E-1,-0E0,-3.5731122E-1,-0E0,1.2681417E-1,-0E0,-0E0,-7.145291E-3,2.5063509E-3,-0E0],"categories":[],"categories_nodes":[],"categories_segments":[],"categories_sizes":[],"default_left":[0,0,0,0,0,0,0,0,0,0,0,0,0,0,0,0,0,0,0,0,0,0,0,0,0,0,0,0,0,0,0,0,0,0,0,0,0,0,0,0,0,0,0,0,0,0,0],"id":18,"left_children":[1,3,5,-1,7,9,-1,11,-1,-1,13,-1,15,17,-1,19,-1,21,-1,23,-1,-1,25,-1,27,-1,29,-1,31,-1,33,-1,35,-1,37,-1,39,41,-1,43,-1,45,-1,-1,-1,-1,-1],"loss_changes":[1.4004574E0,5.682589E0,2.9689431E-2,0E0,7.338818E0,4.0350366E-1,0E0,4.4447393E0,0E0,0E0,8.67385E-1,0E0,5.201668E0,1.0434229E0,0E0,3.6916637E0,0E0,6.7859054E-1,0E0,4.072977E0,0E0,0E0,3.2261586E-1,0E0,3.9570198E0,0E0,2.851305E-1,0E0,3.6447334E0,0E0,1.982727E-1,0E0,4.707363E0,0E0,1.8490863E-1,0E0,3.2259293E0,1.840787E-1,0E0,2.7093735E0,0E0,1.23954296E-1,0E0,0E0,0E0,0E0,0E0],"parents":[2147483647,0,0,1,1,2,2,4,4,5,5,7,7,10,10,12,12,13,13,15,15,17,17,19,19,22,22,24,24,26,26,28,28,30,30,32,32,34,34,36,36,37,37,39,39,41,41],"right_children":[2,4,6,-1,8,10,-1,12,-1,-1,14,-1,16,18,-1,20,-1,22,-1,24,-1,-1,26,-1,28,-1,30,-1,32,-1,34,-1,36,-1,38,-1,40,42,-1,44,-1,46,-1,-1,-1,-1,-1],"split_conditions":[2.376315E3,7.077969E3,7.530508E3,-0E0,1E0,7.4785734E4,-0E0,0E0,-0E0,-0E0,1E0,-0E0,9.9275863E-1,1.4886892E4,-0E0,4.574276E3,-0E0,0E0,-0E0,6.434E2,-0E0,-0E0,0E0,-0E0,-1.1390617E4,-0E0,-9.986126E-1,-0E0,2.3773733E1,-0E0,2.5947373E3,-0E0,-1.0940976E4,-0E0,2.017E3,-0E0,1.62211E3,3.2768E4,-0E0,-4.6656E4,-0E0,1E0,-0E0,-0E0,-7.145291E-3,2.5063509E-3,-0E0],"split_indices":[84,45,14,0,154,101,0,123,0,0,154,0,7,33,0,39,0,158,0,196,0,0,146,0,64,0,6,0,24,0,84,0,32,0,2,0,63,34,0,39,0,142,0,0,0,0,0],"split_type":[0,0,0,0,0,0,0,0,0,0,0,0,0,0,0,0,0,0,0,0,0,0,0,0,0,0,0,0,0,0,0,0,0,0,0,0,0,0,0,0,0,0,0,0,0,0,0],"sum_hessian":[1.673E3,1.211E3,4.62E2,3.72E2,8.39E2,4.17E2,4.5E1,7.35E2,1.04E2,5.7E1,3.6E2,5.5E1,6.8E2,3.34E2,2.6E1,6.61E2,1.9E1,3.23E2,1.1E1,6.13E2,4.8E1,2.3E1,3E2,1.8E1,5.95E2,5E0,2.95E2,6E1,5.35E2,5E0,2.9E2,1.2E2,4.15E2,5E0,2.85E2,2.1E1,3.94E2,2.67E2,1.8E1,3.71E2,2.3E1,2.61E2,6E0,6E0,3.65E2,2.56E2,5E0],"tree_param":{"num_deleted":"0","num_feature":"200","num_nodes":"47","size_leaf_vector":"1"}},{"base_weights":[-0E0,-0E0,3.8104593E-3,-2.5969157E-2,-0E0,3.3055842E-2,-0E0,-5.389803E-2,-0E0,-0E0,5.7783447E-2,-0E0,-8.284686E-2,-0E0,7.976522E-2,-0E0,-1.16243616E-1,9.341717E-2,-0E0,-0E0,-1.4119177E-1,1.0716021E-1,-0E0,-0E0,-1.6091916E-1,1.18716426E-1,-0E0,-1.754188E-1,-0E0,1.2685302E-1,-0E0,-1.90596E-1,-0E0,-0E0,1.3577953E-1,-0E0,-2.0326157E-1,-0E0,1.4547992E-1,-0E0,-2.121832E-1,-0E0,1.5592547E-1,-4.2446293E-3,-0E0,3.1710095E-3,-0E0],"categories":[],"categories_nodes":[],"categories_segments":[],"categories_sizes":[],"default_left":[0,0,0,0,0,0,0,0,0,0,0,0,0,0,0,0,0,0,0,0,0,0,0,0,0,0,0,0,0,0,0,0,0,0,0,0,0,0,0,0,0,0,0,0,0,0,0],"id":19,"left_children":[1,3,5,7,-1,9,-1,11,-1,-1,13,-1,15,-1,17,-1,19,21,-1,-1,23,25,-1,-1,27,29,-1,31,-1,33,-1,35,-1,-1,37,-1,39,-1,41,-1,43,-1,45,-1,-1,-1,-1],"loss_changes":[1.1383584E-2,4.7141364E-1,7.983149E-1,1.5098381E0,0E0,1.207063E0,0E0,2.2674208E0,0E0,0E0,1.6608531E0,0E0,3.3591108E0,0E0,1.2269588E0,0E0,3.0378666E0,1.3654852E0,0E0,0E0,2.2245398E0,1.0870056E0,0E0,0E0,2.146884E0,8.6602783E-1,0E0,2.2387152E0,0E0,9.214792E-1,0E0,1.9564266E0,0E0,0E0,7.39522E-1,0E0,1.4984436E0,0E0,7.65254E-1,0E0,1.3183975E0,0E0,7.2649E-1,0E0,0E0,0E0,0E0],"parents":[2147483647,0,0,1,1,2,2,3,3,5,5,7,7,10,10,12,12,14,14,16,16,17,17,20,20,21,21,24,24,25,25,27,27,29,29,31,31,34,34,36,36,38,38,40,40,42,42],"right_children":[2,4,6,8,-1,10,-1,12,-1,-1,14,-1,16,-1,18,-1,20,22,-1,-1,24,26,-1,-1,28,30,-1,32,-1,34,-1,36,-1,-1,38,-1,40,-1,42,-1,44,-1,46,-1,-1,-1,-1],"split_conditions":[-8.730973E3,1.2250262E3,1.1648604E8,6.431475E1,-0E0,-8.776087E-1,-0E0,-7.880628E3,-0E0,-0E0,9.874794E2,-0E0,1.3423398E4,-0E0,1.6777408E4,-0E0,-3.829852E4,3.7412645E4,-0E0,-0E0,1.1522506E1,3.827102E1,-0E0,-0E0,1.5569472E4,1.1390625E4,-0E0,7.0263E4,-0E0,6.8077745E0,-0E0,-3.528751E4,-0E0,-0E0,0E0,-0E0,4.913E3,-0E0,4.6844397E0,-0E0,-3.1785876E2,-0E0,3.167147E4,-4.2446293E-3,-0E0,3.1710095E-3,-0E0],"split_indices":[88,35,16,22,0,6,0,35,0,0,92,0,94,0,38,0,85,85,0,0,22,23,0,0,66,34,0,0,0,22,0,34,0,0,109,0,47,0,21,0,67,0,86,0,0,0,0],"split_type":[0,0,0,0,0,0,0,0,0,0,0,0,0,0,0,0,0,0,0,0,0,0,0,0,0,0,0,0,0,0,0,0,0,0,0,0,0,0,0,0,0,0,0,0,0,0,0],"sum_hessian":[1.667E3,8.83E2,7.84E2,6.99E2,1.84E2,7.41E2,4.3E1,6.82E2,1.7E1,1.37E2,6.04E2,6.3E1,6.19E2,2.6E1,5.78E2,5.6E1,5.63E2,5.62E2,1.6E1,2.9E1,5.34E2,5.46E2,1.6E1,3.7E1,4.97E2,5.22E2,2.4E1,4.88E2,9E0,5.11E2,1.1E1,4.75E2,1.3E1,1.5E1,4.96E2,1E1,4.65E2,2.9E1,4.67E2,5E0,4.6E2,2.9E1,4.38E2,4.55E2,5E0,4.21E2,1.7E1],"tree_param":{"num_deleted":"0","num_feature":"200","num_nodes":"47","size_leaf_vector":"1"}},{"base_weights":[-0E0],"categories":[],"categories_nodes":[],"categories_segments":[],"categories_sizes":[],"default_left":[0],"id":20,"left_children":[-1],"loss_changes":[0E0],"parents":[2147483647],"right_children":[-1],"split_conditions":[-0E0],"split_indices":[0],"split_type":[0],"sum_hessian":[1.698E3],"tree_param":{"num_deleted":"0","num_feature":"200","num_nodes":"1","size_leaf_vector":"1"}},{"base_weights":[-0E0,-0E0,-1.3363576E-2,2.2021811E-2,-0E0,-0E0,-5.184381E-2,-0E0,5.3706396E-2,-8.7109745E-2,-0E0,8.569618E-2,-0E0,-0E0,-1.230343E-1,-0E0,1.1204957E-1,-1.5370403E-1,-0E0,-0E0,1.3287109E-1,-0E0,-1.8171427E-1,1.5992777E-1,-0E0,-0E0,-2.1057504E-1,1.818509E-1,-0E0,-2.2752343E-1,-0E0,1.9915313E-1,-0E0,-0E0,-2.4839354E-1,-0E0,2.0868129E-1,-2.594216E-1,-0E0,-0E0,2.2092085E-1,-0E0,-2.7228495E-1,4.5024278E-3,-0E0,-0E0,-5.5765607E-3],"categories":[],"categories_nodes":[],"categories_segments":[],"categories_sizes":[],"default_left":[0,0,0,0,0,0,0,0,0,0,0,0,0,0,0,0,0,0,0,0,0,0,0,0,0,0,0,0,0,0,0,0,0,0,0,0,0,0,0,0,0,0,0,0,0,0,0],"id":21,"left_children":[1,3,5,7,-1,-1,9,-1,11,13,-1,15,-1,-1,17,-1,19,21,-1,-1,23,-1,25,27,-1,-1,29,31,-1,33,-1,35,-1,-1,37,-1,39,41,-1,-1,43,-1,45,-1,-1,-1,-1],"loss_changes":[1.9644634E-1,2.415174E-1,2.262913E0,7.046013E-1,0E0,0E0,2.677903E0,0E0,1.2718295E0,3.8243275E0,0E0,1.2725587E0,0E0,0E0,3.7489767E0,0E0,1.0470216E0,3.4367418E0,0E0,0E0,1.0130396E0,0E0,3.1420555E0,1.1300154E0,0E0,0E0,2.1946774E0,7.3679733E-1,0E0,2.3945274E0,0E0,4.6543598E-1,0E0,0E0,1.3597679E0,0E0,5.12547E-1,1.5269833E0,0E0,0E0,5.390825E-1,0E0,1.5644112E0,0E0,0E0,0E0,0E0],"parents":[2147483647,0,0,1,1,2,2,3,3,6,6,8,8,9,9,11,11,14,14,16,16,17,17,20,20,22,22,23,23,26,26,27,27,29,29,31,31,34,34,36,36,37,37,40,40,42,42],"right_children":[2,4,6,8,-1,-1,10,-1,12,14,-1,16,-1,-1,18,-1,20,22,-1,-1,24,-1,26,28,-1,-1,30,32,-1,34,-1,36,-1,-1,38,-1,40,42,-1,-1,44,-1,46,-1,-1,-1,-1],"split_conditions":[6.752986E4,3.46459E4,0E0,-3.1785876E2,-0E0,-0E0,-4.3199536E3,-0E0,9.621309E3,-3.7220663E2,-0E0,-1.4785009E4,-0E0,-0E0,2.0285654E4,-0E0,-1.8117166E3,2.4225382E1,-0E0,-0E0,3.3326316E3,-0E0,-2.1261453E4,1.0880155E4,-0E0,-0E0,1.1390625E4,-2.1498909E2,-0E0,-6.539152E3,-0E0,0E0,-0E0,-0E0,7.361112E4,-0E0,2.7139475E3,-6.1765495E6,-0E0,-0E0,3.723875E3,-0E0,0E0,4.5024278E-3,-0E0,-0E0,-5.5765607E-3],"split_indices":[16,45,167,61,0,0,88,0,64,97,0,78,0,0,77,0,82,25,0,0,81,0,81,79,0,0,36,67,0,36,0,108,0,0,81,0,94,11,0,0,37,0,143,0,0,0,0],"split_type":[0,0,0,0,0,0,0,0,0,0,0,0,0,0,0,0,0,0,0,0,0,0,0,0,0,0,0,0,0,0,0,0,0,0,0,0,0,0,0,0,0,0,0,0,0,0,0],"sum_hessian":[1.714E3,6.14E2,1.1E3,4.98E2,1.16E2,1.85E2,9.15E2,1.7E2,3.28E2,6.77E2,2.38E2,3.02E2,2.6E1,8.5E1,5.92E2,2.4E1,2.78E2,5.38E2,5.4E1,2.1E1,2.57E2,4.9E1,4.89E2,2.17E2,4E1,5.4E1,4.35E2,2.02E2,1.5E1,4.15E2,2E1,1.87E2,1.5E1,2.8E1,3.87E2,6E0,1.81E2,3.75E2,1.2E1,9E0,1.72E2,1.4E1,3.61E2,1.64E2,8E0,2.2E1,3.39E2],"tree_param":{"num_deleted":"0","num_feature":"200","num_nodes":"47","size_leaf_vector":"1"}},{"base_weights":[-0E0,-1.8274048E-2,-0E0,-0E0,-5.4036234E-2,-9.4217084E-2,-0E0,-1.2558113E-1,-0E0,-1.5060422E-1,-0E0,-0E0,-1.7478952E-1,-0E0,-2.102007E-1,-0E0,-2.3266354E-1,-2.5332624E-1,-0E0,-0E0,-2.7087256E-1,-0E0,-2.820024E-1,-0E0,-5.80636E-3],"categories":[],"categories_nodes":[],"categories_segments":[],"categories_sizes":[],"default_left":[0,0,0,0,0,0,0,0,0,0,0,0,0,0,0,0,0,0,0,0,0,0,0,0,0],"id":22,"left_children":[1,3,-1,-1,5,7,-1,9,-1,11,-1,-1,13,-1,15,-1,17,19,-1,-1,21,-1,23,-1,-1],"loss_changes":[4.7553673E-1,2.4969795E0,0E0,0E0,3.250294E0,3.712916E0,0E0,3.900405E0,0E0,4.0979834E0,0E0,0E0,3.8936043E0,0E0,4.2648697E0,0E0,3.2359715E0,3.4697952E0,0E0,0E0,2.3530312E0,0E0,1.9934425E0,0E0,0E0],"parents":[2147483647,0,0,1,1,4,4,5,5,7,7,9,9,12,12,14,14,16,16,17,17,20,20,22,22],"right_children":[2,4,-1,-1,6,8,-1,10,-1,12,-1,-1,14,-1,16,-1,18,20,-1,-1,22,-1,24,-1,-1],"split_conditions":[1.2596864E3,6.2183743E0,-0E0,-0E0,2.6065166E3,1E0,-0E0,9.691992E-1,-0E0,-1.0940976E4,-0E0,-0E0,1.5879534E-1,-0E0,5.95E2,-0E0,4.1030637E4,-2.5934271E4,-0E0,-0E0,-6.7946256E5,-0E0,0E0,-0E0,-5.80636E-3],"split_indices":[35,20,0,0,77,180,0,5,0,37,0,0,5,0,196,0,86,13,0,0,91,0,105,0,0],"split_type":[0,0,0,0,0,0,0,0,0,0,0,0,0,0,0,0,0,0,0,0,0,0,0,0,0],"sum_hessian":[1.702E3,1.424E3,2.78E2,4.06E2,1.018E3,7.01E2,3.17E2,6.3E2,7.1E1,6.1E2,2E1,2.3E1,5.87E2,9.3E1,4.94E2,1.2E1,4.82E2,4.57E2,2.5E1,1E1,4.47E2,5E0,4.42E2,3.2E1,4.1E2],"tree_param":{"num_deleted":"0","num_feature":"200","num_nodes":"25","size_leaf_vector":"1"}},{"base_weights":[-0E0,-1.7774735E-2,-0E0,-0E0,-5.666474E-2,-0E0,1.2937729E-2,-0E0,-9.740678E-2,3.621455E-2,-0E0,-0E0,-1.3073097E-1,5.7860196E-2,-0E0,-1.6284032E-1,-0E0,-0E0,7.769451E-2,-0E0,-1.8707414E-1,9.9523276E-2,-0E0,-2.0148516E-1,-0E0,1.14625335E-1,-0E0,-2.1434927E-1,-0E0,1.3037835E-1,-0E0,-0E0,-2.2550848E-1,-0E0,1.3892363E-1,-2.3445337E-1,-0E0,1.450626E-1,-0E0,-2.433035E-1,-0E0,1.5658677E-1,-0E0,-0E0,-4.918196E-3,-0E0,3.119707E-3],"categories":[],"categories_nodes":[],"categories_segments":[],"categories_sizes":[],"default_left":[0,0,0,0,0,0,0,0,0,0,0,0,0,0,0,0,0,0,0,0,0,0,0,0,0,0,0,0,0,0,0,0,0,0,0,0,0,0,0,0,0,0,0,0,0,0,0],"id":23,"left_children":[1,3,5,-1,7,-1,9,-1,11,13,-1,-1,15,17,-1,19,-1,-1,21,-1,23,25,-1,27,-1,29,-1,31,-1,33,-1,-1,35,-1,37,39,-1,41,-1,43,-1,45,-1,-1,-1,-1,-1],"loss_changes":[2.859315E-1,2.051646E0,1.1499588E-1,0E0,3.1751392E0,0E0,6.692968E-1,0E0,2.1441212E0,1.0871788E0,0E0,0E0,2.9768643E0,1.2011656E0,0E0,2.560588E0,0E0,0E0,1.2460394E0,0E0,1.7863388E0,1.278719E0,0E0,1.6523685E0,0E0,1.4402437E0,0E0,1.4718132E0,0E0,8.562565E-1,0E0,0E0,1.134943E0,0E0,5.026374E-1,1.1247559E0,0E0,4.553423E-1,0E0,1.1509151E0,0E0,4.589157E-1,0E0,0E0,0E0,0E0,0E0],"parents":[2147483647,0,0,1,1,2,2,4,4,6,6,8,8,9,9,12,12,13,13,15,15,18,18,20,20,21,21,23,23,25,25,27,27,29,29,32,32,34,34,35,35,37,37,39,39,41,41],"right_children":[2,4,6,-1,8,-1,10,-1,12,14,-1,-1,16,18,-1,20,-1,-1,22,-1,24,26,-1,28,-1,30,-1,32,-1,34,-1,-1,36,-1,38,40,-1,42,-1,44,-1,46,-1,-1,-1,-1,-1],"split_conditions":[2.227094E2,0E0,-1.178724E4,-0E0,-8.237014E1,-0E0,2.460375E3,-0E0,2.5713254E3,1.3675766E4,-0E0,-0E0,4.6059214E3,0E0,-0E0,-4.162447E1,-0E0,-0E0,1.331E3,-0E0,1.9465162E4,6.611712E2,-0E0,8.273355E3,-0E0,1E0,-0E0,1E0,-0E0,-6.4957164E4,-0E0,-0E0,4.4094707E3,-0E0,6.5138245E1,6.153063E2,-0E0,2.018E3,-0E0,-5.6101654E1,-0E0,4.21875E2,-0E0,-0E0,-4.918196E-3,-0E0,3.119707E-3],"split_indices":[75,164,78,0,97,0,37,0,43,60,0,0,56,176,0,74,0,0,36,0,36,98,0,66,0,116,0,0,0,63,0,0,48,0,74,70,0,2,0,102,0,43,0,0,0,0,0],"split_type":[0,0,0,0,0,0,0,0,0,0,0,0,0,0,0,0,0,0,0,0,0,0,0,0,0,0,0,0,0,0,0,0,0,0,0,0,0,0,0,0,0,0,0,0,0,0,0],"sum_hessian":[1.696E3,9.05E2,7.91E2,1.77E2,7.28E2,1.04E2,6.87E2,1.47E2,5.81E2,5.98E2,8.9E1,1.33E2,4.48E2,5.59E2,3.9E1,4.01E2,4.7E1,5E1,5.09E2,2.4E1,3.77E2,4.36E2,7.3E1,3.69E2,8E0,4.26E2,1E1,3.62E2,7E0,4.14E2,1.2E1,6E0,3.56E2,5E0,4.09E2,3.5E2,6E0,3.99E2,1E1,3.44E2,6E0,3.61E2,3.8E1,1.3E1,3.31E2,5E0,3.56E2],"tree_param":{"num_deleted":"0","num_feature":"200","num_nodes":"47","size_leaf_vector":"1"}},{"base_weights":[-0E0,-0E0,1.3075467E-3,-6.657375E-2,-0E0,-0E0,2.7614743E-2,-0E0,-1.0428853E-1,4.704882E-2,-0E0,-1.2909944E-1,-0E0,-0E0,7.189004E-2,-0E0,-1.5869835E-1,-0E0,1.0065983E-1,-1.7569989E-1,-0E0,-0E0,1.1911865E-1,-1.8727802E-1,-0E0,1.4094725E-1,-0E0,-1.9987987E-1,-0E0,1.5058312E-1,-0E0,-0E0,-2.0933989E-1,1.5999973E-1,-0E0,-2.1839286E-1,-0E0,-0E0,1.6604318E-1,-2.2784312E-1,-0E0,-0E0,1.7031772E-1,-0E0,-4.534391E-3,3.350532E-3,-0E0],"categories":[],"categories_nodes":[],"categories_segments":[],"categories_sizes":[],"default_left":[0,0,0,0,0,0,0,0,0,0,0,0,0,0,0,0,0,0,0,0,0,0,0,0,0,0,0,0,0,0,0,0,0,0,0,0,0,0,0,0,0,0,0,0,0,0,0],"id":24,"left_children":[1,3,5,7,-1,-1,9,-1,11,13,-1,15,-1,-1,17,-1,19,-1,21,23,-1,-1,25,27,-1,29,-1,31,-1,33,-1,-1,35,37,-1,39,-1,-1,41,43,-1,-1,45,-1,-1,-1,-1],"loss_changes":[1.9849625E-3,1.7019787E0,8.0711746E-1,1.9416764E0,0E0,0E0,1.2119392E0,0E0,1.7065938E0,1.9430285E0,0E0,2.104937E0,0E0,0E0,2.915982E0,0E0,1.5285759E0,0E0,1.9458747E0,1.0476551E0,0E0,0E0,2.637126E0,7.9615974E-1,0E0,1.5075417E0,0E0,7.8622246E-1,0E0,9.561415E-1,0E0,0E0,7.877283E-1,8.789463E-1,0E0,7.3310757E-1,0E0,0E0,6.2707424E-1,5.128298E-1,0E0,0E0,3.7469864E-1,0E0,0E0,0E0,0E0],"parents":[2147483647,0,0,1,1,2,2,3,3,6,6,8,8,9,9,11,11,14,14,16,16,18,18,19,19,22,22,23,23,25,25,27,27,29,29,32,32,33,33,35,35,38,38,39,39,42,42],"right_children":[2,4,6,8,-1,-1,10,-1,12,14,-1,16,-1,-1,18,-1,20,-1,22,24,-1,-1,26,28,-1,30,-1,32,-1,34,-1,-1,36,38,-1,40,-1,-1,42,44,-1,-1,46,-1,-1,-1,-1],"split_conditions":[-1.7446931E3,3.0075644E2,-4.1442695E3,-3.8322452E6,-0E0,-0E0,3.8995637E3,-0E0,9.9223286E-1,0E0,-0E0,-9.963234E3,-0E0,-0E0,-6.582027E3,-0E0,9.8215E-1,-0E0,3E0,4.8137555E4,-0E0,-0E0,-6.534001E2,-7.79517E2,-0E0,7.880628E3,-0E0,-1.0360128E4,-0E0,3.7677504E4,-0E0,-0E0,4.5773105E3,-9.983151E-1,-0E0,1.3144317E4,-0E0,-0E0,-1.7471982E4,1E0,-0E0,-0E0,6.4223508E4,-0E0,-4.534391E-3,3.350532E-3,-0E0],"split_indices":[84,35,44,16,0,0,62,0,7,191,0,60,0,0,62,0,7,0,0,54,0,0,88,88,0,28,0,28,0,84,0,0,63,7,0,28,0,0,50,0,0,0,82,0,0,0,0],"split_type":[0,0,0,0,0,0,0,0,0,0,0,0,0,0,0,0,0,0,0,0,0,0,0,0,0,0,0,0,0,0,0,0,0,0,0,0,0,0,0,0,0,0,0,0,0,0,0],"sum_hessian":[1.686E3,5.25E2,1.161E3,3.84E2,1.41E2,1E2,1.061E3,4.9E1,3.35E2,9.13E2,1.48E2,3.21E2,1.4E1,1.46E2,7.67E2,2.5E1,2.96E2,8.8E1,6.79E2,2.91E2,5E0,5.7E1,6.22E2,2.86E2,5E0,5.77E2,4.5E1,2.71E2,1.5E1,5.72E2,5E0,6E0,2.65E2,5.44E2,2.8E1,2.6E2,5E0,7E0,5.37E2,2.53E2,7E0,5E0,5.32E2,6E0,2.47E2,5.24E2,8E0],"tree_param":{"num_deleted":"0","num_feature":"200","num_nodes":"47","size_leaf_vector":"1"}},{"base_weights":[-0E0],"categories":[],"categories_nodes":[],"categories_segments":[],"categories_sizes":[],"default_left":[0],"id":25,"left_children":[-1],"loss_changes":[0E0],"parents":[2147483647],"right_children":[-1],"split_conditions":[-0E0],"split_indices":[0],"split_type":[0],"sum_hessian":[1.757E3],"tree_param":{"num_deleted":"0","num_feature":"200","num_nodes":"1","size_leaf_vector":"1"}},{"base_weights":[-0E0,-1.1933218E-2,-0E0,-0E0,-8.029385E-2,2.4445774E-3,-0E0,-1.3665852E-1,-0E0,2.1510579E-2,-0E0,-0E0,-1.7324392E-1,-0E0,3.990093E-2,-2.2157125E-1,-0E0,5.0579797E-2,-0E0,-2.4967661E-1,-0E0,-0E0,6.2007338E-2,-0E0,-2.8507406E-1,-0E0,7.419011E-2,-3.1398237E-1,-0E0,8.2233936E-2,-0E0,-3.2661164E-1,-0E0,1.13378376E-1,-0E0,-0E0,-3.5064572E-1,1.2386061E-1,-0E0,-0E0,-3.6245888E-1,-0E0,1.3175727E-1,-0E0,-7.193101E-3,-0E0,2.708855E-3],"categories":[],"categories_nodes":[],"categories_segments":[],"categories_sizes":[],"default_left":[0,0,0,0,0,0,0,0,0,0,0,0,0,0,0,0,0,0,0,0,0,0,0,0,0,0,0,0,0,0,0,0,0,0,0,0,0,0,0,0,0,0,0,0,0,0,0],"id":26,"left_children":[1,3,5,-1,7,9,-1,11,-1,13,-1,-1,15,-1,17,19,-1,21,-1,23,-1,-1,25,-1,27,-1,29,31,-1,33,-1,35,-1,37,-1,-1,39,41,-1,-1,43,-1,45,-1,-1,-1,-1],"loss_changes":[1.3115409E-1,3.8016746E0,4.1235E-3,0E0,5.8347635E0,2.9895514E-1,0E0,5.209571E0,0E0,5.821439E-1,0E0,0E0,5.692066E0,0E0,4.911896E-1,4.204729E0,0E0,6.1146355E-1,0E0,3.9771175E0,0E0,0E0,7.092509E-1,0E0,3.3876667E0,0E0,5.2188635E-1,1.8989029E0,0E0,5.475931E-1,0E0,2.3810577E0,0E0,4.8320508E-1,0E0,0E0,1.7138023E0,4.5500183E-1,0E0,0E0,1.3944435E0,0E0,4.8130846E-1,0E0,0E0,0E0,0E0],"parents":[2147483647,0,0,1,1,2,2,4,4,5,5,7,7,9,9,12,12,14,14,15,15,17,17,19,19,22,22,24,24,26,26,27,27,29,29,31,31,33,33,36,36,37,37,40,40,42,42],"right_children":[2,4,6,-1,8,10,-1,12,-1,14,-1,-1,16,-1,18,20,-1,22,-1,24,-1,-1,26,-1,28,-1,30,32,-1,34,-1,36,-1,38,-1,-1,40,42,-1,-1,44,-1,46,-1,-1,-1,-1],"split_conditions":[-8.912848E3,-1.13946526E2,8.507797E7,-0E0,1.912077E4,1.5786119E2,-0E0,-2.2425652E4,-0E0,9.062129E2,-0E0,-0E0,6.272404E3,-0E0,8.38759E3,3.7677504E4,-0E0,-1.5216521E4,-0E0,4.574326E3,-0E0,-0E0,4.8431525E0,-0E0,9.657866E-1,-0E0,1E0,2.0769875E4,-0E0,1.2432E3,-0E0,-9.129361E3,-0E0,-1.4034395E3,-0E0,-0E0,6.416E2,-8.346553E2,-0E0,-0E0,-5.19489E3,-0E0,-1.14282814E2,-0E0,-7.193101E-3,-0E0,2.708855E-3],"split_indices":[88,68,17,0,78,98,0,30,0,89,0,0,60,0,77,82,0,59,0,43,0,0,21,0,7,0,107,58,0,197,0,39,0,91,0,0,197,66,0,0,87,0,73,0,0,0,0],"split_type":[0,0,0,0,0,0,0,0,0,0,0,0,0,0,0,0,0,0,0,0,0,0,0,0,0,0,0,0,0,0,0,0,0,0,0,0,0,0,0,0,0,0,0,0,0,0,0],"sum_hessian":[1.715E3,9.21E2,7.94E2,3.11E2,6.1E2,6.9E2,1.04E2,5.23E2,8.7E1,6.55E2,3.5E1,2.4E1,4.99E2,9.9E1,5.56E2,4.21E2,7.8E1,5.38E2,1.8E1,3.99E2,2.2E1,2.1E1,5.17E2,4.4E1,3.55E2,2.7E1,4.9E2,3.27E2,2.8E1,4.76E2,1.4E1,3.2E2,7E0,2.93E2,1.83E2,2.3E1,2.97E2,2.77E2,1.6E1,6E0,2.91E2,6E0,2.71E2,6E0,2.85E2,8E0,2.63E2],"tree_param":{"num_deleted":"0","num_feature":"200","num_nodes":"47","size_leaf_vector":"1"}},{"base_weights":[-0E0,8.292219E-3,-0E0,-0E0,3.190646E-2,-1.9023689E-2,-0E0,-0E0,5.9006177E-2,-4.563616E-2,-0E0,8.042514E-2,-0E0,-7.1650796E-2,-0E0,1.0096818E-1,-0E0,-0E0,-9.794138E-2,-0E0,1.1275761E-1,-0E0,-1.15558386E-1,1.2467104E-1,-0E0,-0E0,-1.3509348E-1,1.34723E-1,-0E0,-1.4990328E-1,-0E0,-0E0,1.4635615E-1,-1.6029425E-1,-0E0,-0E0,1.5802664E-1,-1.7428696E-1,-0E0,1.7464103E-1,-0E0,-0E0,-1.8955772E-1,-0E0,3.553746E-3,-3.993125E-3,-0E0],"categories":[],"categories_nodes":[],"categories_segments":[],"categories_sizes":[],"default_left":[0,0,0,0,0,0,0,0,0,0,0,0,0,0,0,0,0,0,0,0,0,0,0,0,0,0,0,0,0,0,0,0,0,0,0,0,0,0,0,0,0,0,0,0,0,0,0],"id":27,"left_children":[1,3,5,-1,7,9,-1,-1,11,13,-1,15,-1,17,-1,19,-1,-1,21,-1,23,-1,25,27,-1,-1,29,31,-1,33,-1,-1,35,37,-1,-1,39,41,-1,43,-1,-1,45,-1,-1,-1,-1],"loss_changes":[5.9754238E-2,7.1497583E-1,2.0665073E-1,0E0,1.6207515E0,9.034376E-1,0E0,0E0,1.6925197E0,1.4363713E0,0E0,1.733252E0,0E0,1.6264277E0,0E0,1.3370748E0,0E0,0E0,1.2622843E0,0E0,1.4526539E0,0E0,1.500195E0,1.1722927E0,0E0,0E0,1.064642E0,1.2484074E0,0E0,9.933624E-1,0E0,0E0,1.35501E0,1.091897E0,0E0,0E0,1.2165365E0,1.1620245E0,0E0,1.0237904E0,0E0,0E0,1.2645607E0,0E0,0E0,0E0,0E0],"parents":[2147483647,0,0,1,1,2,2,4,4,5,5,8,8,9,9,11,11,13,13,15,15,18,18,20,20,22,22,23,23,26,26,27,27,29,29,32,32,33,33,36,36,37,37,39,39,42,42],"right_children":[2,4,6,-1,8,10,-1,-1,12,14,-1,16,-1,18,-1,20,-1,-1,22,-1,24,-1,26,28,-1,-1,30,32,-1,34,-1,-1,36,38,-1,-1,40,42,-1,44,-1,-1,46,-1,-1,-1,-1],"split_conditions":[2.0346525E4,-2.2485906E3,1.326491E2,-0E0,-4.2491714E3,6.12165E1,-0E0,-0E0,1.1276249E2,2.2516496E4,-0E0,2.018E3,-0E0,3.626461E4,-0E0,1.6122217E3,-0E0,-0E0,-1.4442992E4,-0E0,7.529508E3,-0E0,-1.7373783E4,1E0,-0E0,-0E0,9.897936E-1,-5.817946E5,-0E0,5.042114E1,-0E0,-0E0,-3.6521946E3,2.017E3,-0E0,-0E0,4.571068E3,-9.8334295E-1,-0E0,0E0,-0E0,-0E0,1.9549816E3,-0E0,3.553746E-3,-3.993125E-3,-0E0],"split_indices":[47,14,35,0,63,23,0,0,98,64,0,2,0,51,0,96,0,0,52,0,13,0,35,116,0,0,6,17,0,21,0,0,36,2,0,0,64,7,0,112,0,0,52,0,0,0,0],"split_type":[0,0,0,0,0,0,0,0,0,0,0,0,0,0,0,0,0,0,0,0,0,0,0,0,0,0,0,0,0,0,0,0,0,0,0,0,0,0,0,0,0,0,0,0,0,0,0],"sum_hessian":[1.732E3,8.69E2,8.63E2,1.08E2,7.61E2,5.71E2,2.92E2,7.3E1,6.88E2,5.33E2,3.8E1,6.32E2,5.6E1,4.96E2,3.7E1,5.71E2,6.1E1,6.1E1,4.35E2,8E0,5.63E2,2.8E1,4.07E2,5.54E2,9E0,2.7E1,3.8E2,5.39E2,1.5E1,3.56E2,2.4E1,2.4E1,5.15E2,3.5E2,6E0,1.9E1,4.96E2,3.32E2,1.8E1,4.46E2,5E1,1.9E1,3.13E2,1.5E1,4.31E2,2.92E2,2.1E1],"tree_param":{"num_deleted":"0","num_feature":"200","num_nodes":"47","size_leaf_vector":"1"}},{"base_weights":[-0E0,-0E0,2.3383832E-2,-0E0,4.686922E-2,6.645985E-2,-0E0,9.001685E-2,-0E0,1.1275638E-1,-0E0,-0E0,1.3457568E-1,1.4393389E-1,-0E0,-0E0,1.5186784E-1,-0E0,1.5863055E-1,1.8260661E-1,-0E0,1.9214147E-1,-0E0,-0E0,3.7950112E-3],"categories":[],"categories_nodes":[],"categories_segments":[],"categories_sizes":[],"default_left":[0,0,0,0,0,0,0,0,0,0,0,0,0,0,0,0,0,0,0,0,0,0,0,0,0],"id":28,"left_children":[1,-1,3,-1,5,7,-1,9,-1,11,-1,-1,13,15,-1,-1,17,-1,19,21,-1,23,-1,-1,-1],"loss_changes":[6.0258573E-1,0E0,1.3744984E0,0E0,1.410753E0,2.316819E0,0E0,2.4579225E0,0E0,1.4906492E0,0E0,0E0,1.2027712E0,1.0222216E0,0E0,0E0,9.556179E-1,0E0,1.0715971E0,8.993721E-1,0E0,5.211773E-1,0E0,0E0,0E0],"parents":[2147483647,0,0,2,2,4,4,5,5,7,7,9,9,12,12,13,13,16,16,18,18,19,19,21,21],"right_children":[2,-1,4,-1,6,8,-1,10,-1,12,-1,-1,14,16,-1,-1,18,-1,20,22,-1,24,-1,-1,-1],"split_conditions":[-4.6655052E1,-0E0,0E0,-0E0,2.3142466E3,1.9482383E12,-0E0,4.330786E3,-0E0,1.3299564E1,-0E0,-0E0,4.0353348E4,-6.8715597E13,-0E0,-0E0,-5.1197654E-1,-0E0,2.017E3,6.803465E2,-0E0,-6.5194332E4,-0E0,-0E0,3.7950112E-3],"split_indices":[30,0,3,0,76,18,0,38,0,23,0,0,37,18,0,0,40,0,2,70,0,82,0,0,0],"split_type":[0,0,0,0,0,0,0,0,0,0,0,0,0,0,0,0,0,0,0,0,0,0,0,0,0],"sum_hessian":[1.657E3,5.55E2,1.102E3,2.02E2,9E2,7.67E2,1.33E2,7.04E2,6.3E1,6.42E2,6.2E1,1.09E2,5.33E2,5.24E2,9E0,9E0,5.15E2,5E0,5.1E2,4.17E2,9.3E1,4.01E2,1.6E1,5E0,3.96E2],"tree_param":{"num_deleted":"0","num_feature":"200","num_nodes":"25","size_leaf_vector":"1"}},{"base_weights":[-0E0],"categories":[],"categories_nodes":[],"categories_segments":[],"categories_sizes":[],"default_left":[0],"id":29,"left_children":[-1],"loss_changes":[0E0],"parents":[2147483647],"right_children":[-1],"split_conditions":[-0E0],"split_indices":[0],"split_type":[0],"sum_hessian":[1.688E3],"tree_param":{"num_deleted":"0","num_feature":"200","num_nodes":"1","size_leaf_vector":"1"}},{"base_weights":[-0E0],"categories":[],"categories_nodes":[],"categories_segments":[],"categories_sizes":[],"default_left":[0],"id":30,"left_children":[-1],"loss_changes":[0E0],"parents":[2147483647],"right_children":[-1],"split_conditions":[-0E0],"split_indices":[0],"split_type":[0],"sum_hessian":[1.671E3],"tree_param":{"num_deleted":"0","num_feature":"200","num_nodes":"1","size_leaf_vector":"1"}},{"base_weights":[-0E0,-0E0,2.0791782E-2,-2.5542622E-2,-0E0,6.393937E-2,-0E0,-7.449931E-2,-0E0,-0E0,9.175048E-2,-0E0,-9.773185E-2,-0E0,1.14240915E-1,-0E0,-1.1936805E-1,1.3639224E-1,-0E0,-1.4249554E-1,-0E0,-0E0,1.5827172E-1,-0E0,-1.5925168E-1,-0E0,1.7595781E-1,-1.714199E-1,-0E0,1.8739589E-1,-0E0,-1.827874E-1,-0E0,-0E0,2.0135282E-1,-0E0,-1.9655858E-1,-0E0,2.122999E-1,-2.0718071E-1,-0E0,-0E0,2.21887E-1,-0E0,-4.2118E-3,4.429568E-3,-0E0],"categories":[],"categories_nodes":[],"categories_segments":[],"categories_sizes":[],"default_left":[0,0,0,0,0,0,0,0,0,0,0,0,0,0,0,0,0,0,0,0,0,0,0,0,0,0,0,0,0,0,0,0,0,0,0,0,0,0,0,0,0,0,0,0,0,0,0],"id":31,"left_children":[1,3,5,7,-1,9,-1,11,-1,-1,13,-1,15,-1,17,-1,19,21,-1,23,-1,-1,25,-1,27,-1,29,31,-1,33,-1,35,-1,-1,37,-1,39,-1,41,43,-1,-1,45,-1,-1,-1,-1],"loss_changes":[2.9180774E-1,3.1969827E-1,1.8709339E0,2.0502973E0,0E0,2.1390586E0,0E0,1.5653708E0,0E0,0E0,1.9759188E0,0E0,1.735841E0,0E0,1.9822202E0,0E0,1.659194E0,1.6852598E0,0E0,1.140583E0,0E0,0E0,1.8514614E0,0E0,1.138279E0,0E0,1.3377037E0,1.0828314E0,0E0,1.3400784E0,0E0,9.763346E-1,0E0,0E0,1.0307388E0,0E0,9.947462E-1,0E0,8.904238E-1,1.0658989E0,0E0,0E0,7.406845E-1,0E0,0E0,0E0,0E0],"parents":[2147483647,0,0,1,1,2,2,3,3,5,5,7,7,10,10,12,12,14,14,16,16,17,17,19,19,22,22,24,24,26,26,27,27,29,29,31,31,34,34,36,36,38,38,39,39,42,42],"right_children":[2,4,6,8,-1,10,-1,12,-1,-1,14,-1,16,-1,18,-1,20,22,-1,24,-1,-1,26,-1,28,-1,30,32,-1,34,-1,36,-1,-1,38,-1,40,-1,42,44,-1,-1,46,-1,-1,-1,-1],"split_conditions":[5.9457983E2,-9.115819E3,2.316692E3,3.2669387E3,-0E0,-1.1951166E4,-0E0,6.416E2,-0E0,-0E0,-9.5280625E3,-0E0,-1.0940976E4,-0E0,-4.3997177E2,-0E0,1.7354123E5,-1.2594344E4,-0E0,0E0,-0E0,-0E0,7.674043E2,-0E0,-9.1977734E2,-0E0,9.116487E4,9.9675065E-1,-0E0,0E0,-0E0,-5.617573E4,-0E0,-0E0,-3.4137277E4,-0E0,1.5648997E2,-0E0,1.926864E1,-1.4875489E5,-0E0,-0E0,2.4905884E3,-0E0,-4.2118E-3,4.429568E-3,-0E0],"split_indices":[79,88,63,90,0,90,0,197,0,0,34,0,32,0,67,0,92,63,0,109,0,0,89,0,67,0,85,6,0,111,0,67,0,0,65,0,102,0,25,85,0,0,50,0,0,0,0],"split_type":[0,0,0,0,0,0,0,0,0,0,0,0,0,0,0,0,0,0,0,0,0,0,0,0,0,0,0,0,0,0,0,0,0,0,0,0,0,0,0,0,0,0,0,0,0,0,0],"sum_hessian":[1.677E3,1.002E3,6.75E2,4.9E2,5.12E2,5.29E2,1.46E2,4.27E2,6.3E1,1.8E1,5.11E2,1.5E1,4.12E2,3E1,4.81E2,1.4E1,3.98E2,4.44E2,3.7E1,3.61E2,3.7E1,4.7E1,3.97E2,2.7E1,3.34E2,1.6E1,3.81E2,3.27E2,7E0,3.74E2,7E0,3.2E2,7E0,1.7E1,3.57E2,1.8E1,3.02E2,1.3E1,3.44E2,2.95E2,7E0,1.1E1,3.33E2,7E0,2.88E2,3.25E2,8E0],"tree_param":{"num_deleted":"0","num_feature":"200","num_nodes":"47","size_leaf_vector":"1"}},{"base_weights":[-0E0,-4.3383386E-2,-0E0,-0E0,-8.990059E-2,-0E0,1.5200698E-2,-1.4589167E-1,-0E0,3.873744E-2,-0E0,-0E0,-1.9162804E-1,-0E0,6.50231E-2,-0E0,-2.116392E-1,-0E0,7.980393E-2,-0E0,-2.3557068E-1,-0E0,9.415654E-2,-0E0,-2.6752317E-1,1.1254123E-1,-0E0,-2.8645805E-1,-0E0,-0E0,1.2023408E-1,-0E0,-3.0275714E-1,1.2474686E-1,-0E0,-0E0,-3.1505364E-1,1.2954797E-1,-0E0,-0E0,-3.3816144E-1,-0E0,1.3854913E-1,-0E0,-6.784199E-3,-0E0,2.7387103E-3],"categories":[],"categories_nodes":[],"categories_segments":[],"categories_sizes":[],"default_left":[0,0,0,0,0,0,0,0,0,0,0,0,0,0,0,0,0,0,0,0,0,0,0,0,0,0,0,0,0,0,0,0,0,0,0,0,0,0,0,0,0,0,0,0,0,0,0],"id":32,"left_children":[1,3,5,-1,7,-1,9,11,-1,13,-1,-1,15,-1,17,-1,19,-1,21,-1,23,-1,25,-1,27,29,-1,31,-1,-1,33,-1,35,37,-1,-1,39,41,-1,-1,43,-1,45,-1,-1,-1,-1],"loss_changes":[1.7503979E0,3.1394026E0,1.4464776E-1,0E0,4.816193E0,0E0,4.3010026E-1,5.313567E0,0E0,8.543805E-1,0E0,0E0,2.8527765E0,0E0,6.7899525E-1,0E0,2.6611023E0,0E0,6.846268E-1,0E0,3.2999897E0,0E0,1.0957553E0,0E0,2.344366E0,3.4738636E-1,0E0,2.422081E0,0E0,0E0,1.9944715E-1,0E0,1.874054E0,2.6406002E-1,0E0,0E0,3.0332527E0,3.3020306E-1,0E0,0E0,1.9898758E0,0E0,6.991482E-2,0E0,0E0,0E0,0E0],"parents":[2147483647,0,0,1,1,2,2,4,4,6,6,7,7,9,9,12,12,14,14,16,16,18,18,20,20,22,22,24,24,25,25,27,27,30,30,32,32,33,33,36,36,37,37,40,40,42,42],"right_children":[2,4,6,-1,8,-1,10,12,-1,14,-1,-1,16,-1,18,-1,20,-1,22,-1,24,-1,26,-1,28,30,-1,32,-1,-1,34,-1,36,38,-1,-1,40,42,-1,-1,44,-1,46,-1,-1,-1,-1],"split_conditions":[-7.6710366E3,-6.764299E10,-4.703587E3,-0E0,-1.662025E4,-0E0,5.9781403E1,-7.0429E4,-0E0,-2.1787539E1,-0E0,-0E0,-3.3836848E4,-0E0,-9.977069E-1,-0E0,1.2967682E4,-0E0,-2.5154424E3,-0E0,-6.39201E1,-0E0,6.803465E2,-0E0,3.1169451E4,-1.9961777E4,-0E0,6.341E2,-0E0,-0E0,3.790718E4,-0E0,-9.859545E4,2.0331896E1,-0E0,-0E0,-2.2425652E4,0E0,-0E0,-0E0,6.427337E0,-0E0,1.7860551E0,-0E0,-6.784199E-3,-0E0,2.7387103E-3],"split_indices":[88,12,83,0,91,0,65,67,0,100,0,0,48,0,6,0,92,0,29,0,100,0,70,0,65,65,0,199,0,0,81,0,44,21,0,0,28,111,0,0,21,0,20,0,0,0,0],"split_type":[0,0,0,0,0,0,0,0,0,0,0,0,0,0,0,0,0,0,0,0,0,0,0,0,0,0,0,0,0,0,0,0,0,0,0,0,0,0,0,0,0,0,0,0,0,0,0],"sum_hessian":[1.69E3,9.3E2,7.6E2,3.25E2,6.05E2,1.34E2,6.26E2,4.56E2,1.49E2,3.83E2,2.43E2,4.7E1,4.09E2,4.5E1,3.38E2,1E1,3.99E2,7E0,3.31E2,2.9E1,3.7E2,1.6E1,3.15E2,3.7E1,3.33E2,3.07E2,8E0,3.19E2,1.4E1,1.4E1,2.93E2,7E0,3.12E2,2.85E2,8E0,5E0,3.07E2,2.8E2,5E0,1.4E1,2.93E2,1.8E1,2.62E2,6E0,2.87E2,9E0,2.53E2],"tree_param":{"num_deleted":"0","num_feature":"200","num_nodes":"47","size_leaf_vector":"1"}},{"base_weights":[-0E0],"categories":[],"categories_nodes":[],"categories_segments":[],"categories_sizes":[],"default_left":[0],"id":33,"left_children":[-1],"loss_changes":[0E0],"parents":[2147483647],"right_children":[-1],"split_conditions":[-0E0],"split_indices":[0],"split_type":[0],"sum_hessian":[1.676E3],"tree_param":{"num_deleted":"0","num_feature":"200","num_nodes":"1","size_leaf_vector":"1"}},{"base_weights":[-0E0,5.0442973E-3,-0E0,4.2608857E-2,-0E0,-1.3561994E-2,-0E0,7.2129816E-2,-0E0,-0E0,-4.837686E-2,-0E0,9.124478E-2,-8.7217025E-2,-0E0,-0E0,1.11011826E-1,-1.14110805E-1,-0E0,-0E0,1.2480345E-1,-0E0,-1.482749E-1,-0E0,1.3611028E-1,-0E0,-1.8667874E-1,1.5126844E-1,-0E0,-0E0,-2.1319383E-1,-0E0,1.6118166E-1,-2.3989622E-1,-0E0,-0E0,1.7430753E-1,-0E0,-2.8234205E-1,1.8519934E-1,-0E0,-0E0,-3.0187604E-1,-0E0,3.7918827E-3,-0E0,-6.131029E-3],"categories":[],"categories_nodes":[],"categories_segments":[],"categories_sizes":[],"default_left":[0,0,0,0,0,0,0,0,0,0,0,0,0,0,0,0,0,0,0,0,0,0,0,0,0,0,0,0,0,0,0,0,0,0,0,0,0,0,0,0,0,0,0,0,0,0,0],"id":34,"left_children":[1,3,5,7,-1,9,-1,11,-1,-1,13,-1,15,17,-1,-1,19,21,-1,-1,23,-1,25,-1,27,-1,29,31,-1,-1,33,-1,35,37,-1,-1,39,-1,41,43,-1,-1,45,-1,-1,-1,-1],"loss_changes":[3.0814197E-2,1.8373775E0,7.578095E-2,3.131691E0,0E0,7.574081E-1,0E0,1.8938465E0,0E0,0E0,1.5250356E0,0E0,1.5358143E0,1.2749057E0,0E0,0E0,1.4302359E0,1.7536323E0,0E0,0E0,1.3672581E0,0E0,2.0714335E0,0E0,1.816123E0,0E0,1.814611E0,1.6356611E0,0E0,0E0,1.6625891E0,0E0,1.6373653E0,1.7408028E0,0E0,0E0,1.8283863E0,0E0,9.945345E-1,1.1743755E0,0E0,0E0,7.749758E-1,0E0,0E0,0E0,0E0],"parents":[2147483647,0,0,1,1,2,2,3,3,5,5,7,7,10,10,12,12,13,13,16,16,17,17,20,20,22,22,24,24,26,26,27,27,30,30,32,32,33,33,36,36,38,38,39,39,42,42],"right_children":[2,4,6,8,-1,10,-1,12,-1,-1,14,-1,16,18,-1,-1,20,22,-1,-1,24,-1,26,-1,28,-1,30,32,-1,-1,34,-1,36,38,-1,-1,40,-1,42,44,-1,-1,46,-1,-1,-1,-1],"split_conditions":[2.9428183E1,2.3526306E3,3.5815256E3,7.200142E1,-0E0,-5.2735085E1,-0E0,-8.419807E3,-0E0,-0E0,2.3786716E3,-0E0,2.1927172E1,5.2995255E6,-0E0,-0E0,5.756433E0,2.4225382E1,-0E0,-0E0,2.7441435E0,-0E0,-1.8520013E2,-0E0,3.7677504E4,-0E0,6.844627E-2,-1.2139826E4,-0E0,-0E0,2.1235964E3,-0E0,2E0,5.0761266E0,-0E0,-0E0,-1.5665453E3,-0E0,-2.5619531E4,-3.2431969E4,-0E0,-0E0,1.6575306E3,-0E0,3.7918827E-3,-0E0,-6.131029E-3],"split_indices":[98,36,13,25,0,71,0,84,0,0,42,0,25,103,0,0,21,25,0,0,40,0,9,0,84,0,5,62,0,0,50,0,0,20,0,0,91,0,86,86,0,0,89,0,0,0,0],"split_type":[0,0,0,0,0,0,0,0,0,0,0,0,0,0,0,0,0,0,0,0,0,0,0,0,0,0,0,0,0,0,0,0,0,0,0,0,0,0,0,0,0,0,0,0,0,0,0],"sum_hessian":[1.707E3,1.211E3,4.96E2,1.029E3,1.82E2,4.12E2,8.4E1,9.61E2,6.8E1,5.6E1,3.56E2,1.33E2,8.28E2,3.1E2,4.6E1,1.44E2,6.84E2,2.79E2,3.1E1,5.1E1,6.33E2,3.4E1,2.45E2,2.7E1,6.06E2,3.1E1,2.14E2,5.7E2,3.6E1,1E1,2.04E2,5E0,5.65E2,1.9E2,1.4E1,2.8E1,5.37E2,3.1E1,1.59E2,5.29E2,8E0,9E0,1.5E2,2.9E1,5E2,7E0,1.43E2],"tree_param":{"num_deleted":"0","num_feature":"200","num_nodes":"47","size_leaf_vector":"1"}},{"base_weights":[-0E0,1.6165882E-2,-0E0,4.9380295E-2,-0E0,-0E0,-1.9458145E-2,-0E0,8.799657E-2,-0E0,-5.0766967E-2,1.6159742E-1,-0E0,-0E0,-7.477237E-2,-0E0,1.9456802E-1,-9.502297E-2,-0E0,-0E0,2.1613213E-1,-0E0,-1.2256773E-1,2.3465723E-1,-0E0,-0E0,-1.3651033E-1,-0E0,2.5054356E-1,-1.5276212E-1,-0E0,-0E0,2.6876387E-1,-1.6696902E-1,-0E0,2.9272598E-1,-0E0,-0E0,-1.7690702E-1,3.1221765E-1,-0E0,-1.8411575E-1,-0E0,-0E0,6.2502353E-3,-3.7214502E-3,-0E0],"categories":[],"categories_nodes":[],"categories_segments":[],"categories_sizes":[],"default_left":[0,0,0,0,0,0,0,0,0,0,0,0,0,0,0,0,0,0,0,0,0,0,0,0,0,0,0,0,0,0,0,0,0,0,0,0,0,0,0,0,0,0,0,0,0,0,0],"id":35,"left_children":[1,3,5,7,-1,-1,9,-1,11,-1,13,15,-1,-1,17,-1,19,21,-1,-1,23,-1,25,27,-1,-1,29,-1,31,33,-1,-1,35,37,-1,39,-1,-1,41,43,-1,45,-1,-1,-1,-1,-1],"loss_changes":[2.6525965E-1,1.7318375E0,2.192263E-1,3.733132E0,0E0,0E0,1.1519277E0,0E0,3.775556E0,0E0,1.0777469E0,3.6689167E0,0E0,0E0,1.3977432E0,0E0,2.3814564E0,1.7120335E0,0E0,0E0,2.0100842E0,0E0,1.2434001E0,1.5174065E0,0E0,0E0,1.2726178E0,0E0,1.6485939E0,1.3765831E0,0E0,0E0,1.4623566E0,8.45603E-1,0E0,1.2995033E0,0E0,0E0,6.867733E-1,1.0714779E0,0E0,6.651182E-1,0E0,0E0,0E0,0E0,0E0],"parents":[2147483647,0,0,1,1,2,2,3,3,6,6,8,8,10,10,11,11,14,14,16,16,17,17,20,20,22,22,23,23,26,26,28,28,29,29,32,32,33,33,35,35,38,38,39,39,41,41],"right_children":[2,4,6,8,-1,-1,10,-1,12,-1,14,16,-1,-1,18,-1,20,22,-1,-1,24,-1,26,28,-1,-1,30,-1,32,34,-1,-1,36,38,-1,40,-1,-1,42,44,-1,46,-1,-1,-1,-1,-1],"split_conditions":[2.1953148E1,1E3,-6.653961E3,-1.2276067E4,-0E0,-0E0,2.0435729E4,-0E0,2.013E3,-0E0,-8.770899E3,-5.817946E5,-0E0,-0E0,1.4706125E4,-0E0,0E0,4.2122426E0,-0E0,-0E0,1.1390625E4,-0E0,-2.1249005E5,2.216843E3,-0E0,-0E0,1E0,-0E0,-7.880628E3,5.6733444E1,-0E0,-0E0,1E0,-3.008016E4,-0E0,5.6103623E3,-0E0,-0E0,9.116487E4,-7.848784E3,-0E0,3.2768E4,-0E0,-0E0,6.2502353E-3,-3.7214502E-3,-0E0],"split_indices":[31,29,60,55,0,0,103,0,2,0,82,17,0,0,35,0,111,20,0,0,38,0,83,94,0,0,109,0,28,22,0,0,113,38,0,56,0,0,82,44,0,32,0,0,0,0,0],"split_type":[0,0,0,0,0,0,0,0,0,0,0,0,0,0,0,0,0,0,0,0,0,0,0,0,0,0,0,0,0,0,0,0,0,0,0,0,0,0,0,0,0,0,0,0,0,0,0],"sum_hessian":[1.683E3,1.015E3,6.68E2,8.19E2,1.96E2,8.9E1,5.79E2,7.9E1,7.4E2,4.7E1,5.32E2,3.64E2,3.76E2,9.4E1,4.38E2,1.6E1,3.48E2,4.26E2,1.2E1,1.5E1,3.33E2,5.6E1,3.7E2,3.19E2,1.4E1,5E0,3.65E2,1.5E1,3.04E2,3.46E2,1.9E1,1.7E1,2.87E2,3.39E2,7E0,2.59E2,2.8E1,1E1,3.29E2,2.41E2,1.8E1,3.24E2,5E0,7E0,2.34E2,3.13E2,1.1E1],"tree_param":{"num_deleted":"0","num_feature":"200","num_nodes":"47","size_leaf_vector":"1"}},{"base_weights":[-0E0,-0E0,6.859694E-4,3.245851E-2,-0E0,-0E0,5.24038E-2,7.4974E-2,-0E0,-0E0,9.479001E-2,1.0423725E-1,-0E0,-0E0,1.2167795E-1,1.3154513E-1,-0E0,-0E0,1.4326178E-1,1.5145627E-1,-0E0,1.8659866E-1,-0E0,-0E0,3.8909798E-3],"categories":[],"categories_nodes":[],"categories_segments":[],"categories_sizes":[],"default_left":[0,0,0,0,0,0,0,0,0,0,0,0,0,0,0,0,0,0,0,0,0,0,0,0,0],"id":36,"left_children":[1,-1,3,5,-1,-1,7,9,-1,-1,11,13,-1,-1,15,17,-1,-1,19,21,-1,23,-1,-1,-1],"loss_changes":[6.799577E-4,0E0,1.1498177E0,1.5380323E0,0E0,0E0,1.2125981E0,1.8405144E0,0E0,0E0,1.1254559E0,1.3057714E0,0E0,0E0,1.1370068E0,1.0344934E0,0E0,0E0,9.649E-1,9.127388E-1,0E0,1.3259048E0,0E0,0E0,0E0],"parents":[2147483647,0,0,2,2,3,3,6,6,7,7,10,10,11,11,14,14,15,15,18,18,19,19,21,21],"right_children":[2,-1,4,6,-1,-1,8,10,-1,-1,12,14,-1,-1,16,18,-1,-1,20,22,-1,24,-1,-1,-1],"split_conditions":[-4.3185703E3,-0E0,1E0,-9.062976E3,-0E0,-0E0,7.4556494E2,6.229529E3,-0E0,-0E0,6.4481074E4,-1.2597291E3,-0E0,-0E0,3.0735514E9,6.283E2,-0E0,-0E0,1.6777408E4,2.016E3,-0E0,1.9915453E1,-0E0,-0E0,3.8909798E-3],"split_indices":[57,0,189,61,0,0,55,49,0,0,59,39,0,0,16,198,0,0,37,2,0,25,0,0,0],"split_type":[0,0,0,0,0,0,0,0,0,0,0,0,0,0,0,0,0,0,0,0,0,0,0,0,0],"sum_hessian":[1.711E3,2.66E2,1.445E3,1.092E3,3.53E2,1.13E2,9.79E2,6.94E2,2.85E2,5.5E1,6.39E2,6.32E2,7E0,8E1,5.52E2,5.38E2,1.4E1,3.4E1,5.04E2,4.93E2,1.1E1,3.51E2,1.42E2,1.8E1,3.33E2],"tree_param":{"num_deleted":"0","num_feature":"200","num_nodes":"25","size_leaf_vector":"1"}},{"base_weights":[-0E0,-0E0,-7.5667207E-3,-0E0,-5.451251E-2,-0E0,-7.721547E-2,-1.14775E-1,-0E0,-1.5890716E-1,-0E0,-0E0,-1.87669E-1,-0E0,-2.0859772E-1,-2.2786681E-1,-0E0,-0E0,-2.4516967E-1,-0E0,-2.615328E-1,-0E0,-2.8157452E-1,-5.9823967E-3,-0E0],"categories":[],"categories_nodes":[],"categories_segments":[],"categories_sizes":[],"default_left":[0,0,0,0,0,0,0,0,0,0,0,0,0,0,0,0,0,0,0,0,0,0,0,0,0],"id":37,"left_children":[1,-1,3,-1,5,-1,7,9,-1,11,-1,-1,13,-1,15,17,-1,-1,19,-1,21,-1,23,-1,-1],"loss_changes":[5.9489075E-2,0E0,2.4010513E0,0E0,2.0648804E0,0E0,2.6805716E0,3.6020198E0,0E0,3.2451534E0,0E0,0E0,2.6999931E0,0E0,2.4592323E0,2.4875546E0,0E0,0E0,1.8988743E0,0E0,2.1697311E0,0E0,2.8916492E0,0E0,0E0],"parents":[2147483647,0,0,2,2,4,4,6,6,7,7,9,9,12,12,14,14,15,15,18,18,20,20,22,22],"right_children":[2,-1,4,-1,6,-1,8,10,-1,12,-1,-1,14,-1,16,18,-1,-1,20,-1,22,-1,24,-1,-1],"split_conditions":[7.50585E0,-0E0,-3.4446622E2,-0E0,6.570842E-2,-0E0,5.12E2,4.8432593E3,-0E0,-3.1299348E4,-0E0,-0E0,-2.6904366E1,-0E0,8.273355E3,6.925E2,-0E0,-0E0,0E0,-0E0,0E0,-0E0,4.0196975E3,-5.9823967E-3,-0E0],"split_indices":[19,0,68,0,5,0,28,85,0,80,0,0,73,0,66,27,0,0,141,0,149,0,36,0,0],"split_type":[0,0,0,0,0,0,0,0,0,0,0,0,0,0,0,0,0,0,0,0,0,0,0,0,0],"sum_hessian":[1.613E3,5.74E2,1.039E3,2.11E2,8.28E2,6.9E1,7.59E2,5.47E2,2.12E2,4.28E2,1.19E2,2.9E1,3.99E2,1.4E1,3.85E2,3.7E2,1.5E1,9E0,3.61E2,1.6E1,3.45E2,2E1,3.25E2,2.98E2,2.7E1],"tree_param":{"num_deleted":"0","num_feature":"200","num_nodes":"25","size_leaf_vector":"1"}},{"base_weights":[-0E0,-0E0,4.1402742E-2,-2.5023576E-2,-0E0,-0E0,7.708242E-2,-5.94925E-2,-0E0,9.878119E-2,-0E0,-0E0,-9.196193E-2,1.1238076E-1,-0E0,-0E0,-1.2646143E-1,1.2432068E-1,-0E0,-0E0,-1.5011117E-1,1.3161027E-1,-0E0,-1.774136E-1,-0E0,-0E0,1.3817802E-1,-0E0,-1.9842799E-1,-0E0,1.458335E-1,-0E0,-2.1523434E-1,1.5642582E-1,-0E0,-0E0,-2.2872974E-1,-0E0,1.6346768E-1,-2.416703E-1,-0E0,-0E0,1.7158563E-1,-0E0,-4.9084793E-3,3.4115056E-3,-0E0],"categories":[],"categories_nodes":[],"categories_segments":[],"categories_sizes":[],"default_left":[0,0,0,0,0,0,0,0,0,0,0,0,0,0,0,0,0,0,0,0,0,0,0,0,0,0,0,0,0,0,0,0,0,0,0,0,0,0,0,0,0,0,0,0,0,0,0],"id":38,"left_children":[1,3,5,7,-1,-1,9,11,-1,13,-1,-1,15,17,-1,-1,19,21,-1,-1,23,25,-1,27,-1,-1,29,-1,31,-1,33,-1,35,37,-1,-1,39,-1,41,43,-1,-1,45,-1,-1,-1,-1],"loss_changes":[2.350176E0,1.8285371E-1,2.7894819E0,7.551288E-1,0E0,0E0,2.734971E0,1.074909E0,0E0,2.0396662E0,0E0,0E0,1.6016512E0,1.4149132E0,0E0,0E0,9.826E-1,1.0903959E0,0E0,0E0,1.2263107E0,9.6498966E-1,0E0,9.4940567E-1,0E0,0E0,9.286909E-1,0E0,9.6424484E-1,0E0,9.802294E-1,0E0,7.39079E-1,1.1407166E0,0E0,0E0,6.9420147E-1,0E0,9.662132E-1,6.065922E-1,0E0,0E0,8.327427E-1,0E0,0E0,0E0,0E0],"parents":[2147483647,0,0,1,1,2,2,3,3,6,6,7,7,9,9,12,12,13,13,16,16,17,17,20,20,21,21,23,23,26,26,28,28,30,30,32,32,33,33,36,36,38,38,39,39,42,42],"right_children":[2,4,6,8,-1,-1,10,12,-1,14,-1,-1,16,18,-1,-1,20,22,-1,-1,24,26,-1,28,-1,-1,30,-1,32,-1,34,-1,36,38,-1,-1,40,-1,42,44,-1,-1,46,-1,-1,-1,-1],"split_conditions":[-2.210522E3,1.6016431E3,-1.5625E1,1.1339974E4,-0E0,-0E0,2.117736E3,5.000243E3,-0E0,1.7141E3,-0E0,-0E0,-1.8783707E4,6.1269474E1,-0E0,-0E0,4.985447E0,2.0329798E5,-0E0,-0E0,1E0,-9.9639505E-1,-0E0,-1.2812743E4,-0E0,-0E0,4.6844397E0,-0E0,4.3805614E-2,-0E0,4.6574224E3,-0E0,-5.0752E4,-8.463751E4,-0E0,-0E0,9.691992E-1,-0E0,1.6430015E3,0E0,-0E0,-0E0,9.995787E-1,-0E0,-4.9084793E-3,3.4115056E-3,-0E0],"split_indices":[63,35,29,64,0,0,66,45,0,199,0,0,60,102,0,0,19,45,0,0,159,6,0,35,0,0,21,0,5,0,31,0,64,80,0,0,5,0,47,108,0,0,6,0,0,0,0],"split_type":[0,0,0,0,0,0,0,0,0,0,0,0,0,0,0,0,0,0,0,0,0,0,0,0,0,0,0,0,0,0,0,0,0,0,0,0,0,0,0,0,0,0,0,0,0,0,0],"sum_hessian":[1.715E3,3.44E2,1.371E3,2.92E2,5.2E1,5.06E2,8.65E2,2.65E2,2.7E1,8.07E2,5.8E1,2.7E1,2.38E2,7.85E2,2.2E1,1.2E1,2.26E2,7.33E2,5.2E1,2.2E1,2.04E2,7.17E2,1.6E1,1.85E2,1.9E1,1.6E1,7.01E2,1.3E1,1.72E2,2.8E1,6.73E2,5E0,1.67E2,6.25E2,4.8E1,5E0,1.62E2,1E1,6.15E2,1.57E2,5E0,2.4E1,5.91E2,6E0,1.51E2,5.83E2,8E0],"tree_param":{"num_deleted":"0","num_feature":"200","num_nodes":"47","size_leaf_vector":"1"}},{"base_weights":[-0E0,-0E0,7.848574E-3,-0E0,3.07195E-2,5.373688E-2,-0E0,-0E0,7.303545E-2,-0E0,9.0267025E-2,-0E0,1.1317121E-1,1.2683488E-1,-0E0,1.3843869E-1,-0E0,-0E0,1.5033127E-1,1.8727069E-1,-0E0,-0E0,2.0346572E-1,4.1531897E-3,-0E0],"categories":[],"categories_nodes":[],"categories_segments":[],"categories_sizes":[],"default_left":[0,0,0,0,0,0,0,0,0,0,0,0,0,0,0,0,0,0,0,0,0,0,0,0,0],"id":39,"left_children":[1,-1,3,-1,5,7,-1,-1,9,-1,11,-1,13,15,-1,17,-1,-1,19,21,-1,-1,23,-1,-1],"loss_changes":[7.8417875E-2,0E0,7.973383E-1,0E0,1.1629694E0,1.396564E0,0E0,0E0,1.51075E0,0E0,1.9318991E0,0E0,1.5841098E0,1.5233431E0,0E0,1.5632868E0,0E0,0E0,1.4629288E0,1.6854048E0,0E0,0E0,1.3409481E0,0E0,0E0],"parents":[2147483647,0,0,2,2,4,4,5,5,8,8,10,10,12,12,13,13,15,15,18,18,19,19,22,22],"right_children":[2,-1,4,-1,6,8,-1,-1,10,-1,12,-1,14,16,-1,18,-1,-1,20,22,-1,-1,24,-1,-1],"split_conditions":[-1.4922017E3,-0E0,-2.8829565E2,-0E0,2.3512996E3,-4.330786E3,-0E0,-0E0,-9.850557E-1,-0E0,8.043537E3,-0E0,5.2995255E6,9.116487E4,-0E0,2.1597363E-1,-0E0,-0E0,1E0,-2.6119818E1,-0E0,-0E0,2.018E3,4.1531897E-3,-0E0],"split_indices":[62,0,90,0,62,28,0,0,6,0,96,0,99,80,0,40,0,0,127,74,0,0,2,0,0],"split_type":[0,0,0,0,0,0,0,0,0,0,0,0,0,0,0,0,0,0,0,0,0,0,0,0,0],"sum_hessian":[1.682E3,4.09E2,1.273E3,3.45E2,9.28E2,7.06E2,2.22E2,6.2E1,6.44E2,3.7E1,6.07E2,7E1,5.37E2,5.26E2,1.1E1,5.21E2,5E0,1E1,5.11E2,3.71E2,1.4E2,1.6E1,3.55E2,3.46E2,9E0],"tree_param":{"num_deleted":"0","num_feature":"200","num_nodes":"25","size_leaf_vector":"1"}},{"base_weights":[-0E0,-0E0,9.531681E-3,2.9379014E-2,-0E0,5.3867172E-2,-0E0,-0E0,7.2064325E-2,9.2036925E-2,-0E0,-0E0,1.1109147E-1,-0E0,1.24689795E-1,1.415044E-1,-0E0,-0E0,1.5475409E-1,1.6972032E-1,-0E0,-0E0,1.8854885E-1,-0E0,3.7445559E-3],"categories":[],"categories_nodes":[],"categories_segments":[],"categories_sizes":[],"default_left":[0,0,0,0,0,0,0,0,0,0,0,0,0,0,0,0,0,0,0,0,0,0,0,0,0],"id":40,"left_children":[1,-1,3,5,-1,7,-1,-1,9,11,-1,-1,13,-1,15,17,-1,-1,19,21,-1,-1,23,-1,-1],"loss_changes":[1.1765594E-1,0E0,8.4042746E-1,1.69699E0,0E0,1.8008273E0,0E0,0E0,2.2361546E0,2.2555823E0,0E0,0E0,1.9203291E0,0E0,2.1275826E0,2.2841606E0,0E0,0E0,2.320569E0,2.237526E0,0E0,0E0,9.988613E-1,0E0,0E0],"parents":[2147483647,0,0,2,2,3,3,5,5,8,8,9,9,12,12,14,14,15,15,18,18,19,19,22,22],"right_children":[2,-1,4,6,-1,8,-1,-1,10,12,-1,-1,14,-1,16,18,-1,-1,20,22,-1,-1,24,-1,-1],"split_conditions":[-4.5423726E3,-0E0,1.1714254E2,6.9357275E3,-0E0,0E0,-0E0,-0E0,3.944257E3,6.784464E2,-0E0,-0E0,0E0,-0E0,5.304126E1,-4.960348E4,-0E0,-0E0,1E0,-1.8608615E3,-0E0,-0E0,5.509E2,-0E0,3.7445559E-3],"split_indices":[84,0,98,83,0,114,0,0,39,89,0,0,111,0,102,82,0,0,116,36,0,0,197,0,0],"split_type":[0,0,0,0,0,0,0,0,0,0,0,0,0,0,0,0,0,0,0,0,0,0,0,0,0],"sum_hessian":[1.69E3,3.95E2,1.295E3,1.11E3,1.85E2,9.15E2,1.95E2,5.7E1,8.58E2,7.9E2,6.8E1,6.5E1,7.25E2,2.6E1,6.99E2,6.49E2,5E1,1.1E1,6.38E2,6.11E2,2.7E1,5.3E1,5.58E2,5E0,5.53E2],"tree_param":{"num_deleted":"0","num_feature":"200","num_nodes":"25","size_leaf_vector":"1"}},{"base_weights":[-0E0],"categories":[],"categories_nodes":[],"categories_segments":[],"categories_sizes":[],"default_left":[0],"id":41,"left_children":[-1],"loss_changes":[0E0],"parents":[2147483647],"right_children":[-1],"split_conditions":[-0E0],"split_indices":[0],"split_type":[0],"sum_hessian":[1.722E3],"tree_param":{"num_deleted":"0","num_feature":"200","num_nodes":"1","size_leaf_vector":"1"}},{"base_weights":[-0E0,-0E0,-6.141877E-3,1.8344058E-2,-0E0,-3.534314E-2,-0E0,-0E0,5.920643E-2,-0E0,-5.4179143E-2,-0E0,9.42205E-2,-7.337765E-2,-0E0,1.3290693E-1,-0E0,-8.8310465E-2,-0E0,-0E0,1.5211143E-1,-9.801794E-2,-0E0,-0E0,1.6748227E-1,-0E0,-1.1262089E-1,1.8482913E-1,-0E0,-0E0,-1.2661994E-1,1.9792229E-1,-0E0,-0E0,-1.3852878E-1,2.0915617E-1,-0E0,-0E0,-1.5658116E-1,-0E0,2.1660589E-1,-1.6610362E-1,-0E0,-0E0,4.3153E-3,-0E0,-3.3420492E-3],"categories":[],"categories_nodes":[],"categories_segments":[],"categories_sizes":[],"default_left":[0,0,0,0,0,0,0,0,0,0,0,0,0,0,0,0,0,0,0,0,0,0,0,0,0,0,0,0,0,0,0,0,0,0,0,0,0,0,0,0,0,0,0,0,0,0,0],"id":42,"left_children":[1,3,5,7,-1,9,-1,-1,11,-1,13,-1,15,17,-1,19,-1,21,-1,-1,23,25,-1,-1,27,-1,29,31,-1,-1,33,35,-1,-1,37,39,-1,-1,41,-1,43,45,-1,-1,-1,-1,-1],"loss_changes":[3.530896E-2,2.0089819E-1,9.765111E-1,1.5378333E0,0E0,9.4612193E-1,0E0,0E0,2.0964818E0,0E0,1.4988456E0,0E0,3.124766E0,1.4097419E0,0E0,1.9021764E0,0E0,1.080667E0,0E0,0E0,1.4888268E0,1.1937833E0,0E0,0E0,1.6744843E0,0E0,1.2924109E0,1.2940168E0,0E0,0E0,1.2771482E0,1.1174498E0,0E0,0E0,1.4943981E0,7.183151E-1,0E0,0E0,1.0180264E0,0E0,7.5804996E-1,8.633642E-1,0E0,0E0,0E0,0E0,0E0],"parents":[2147483647,0,0,1,1,2,2,3,3,5,5,8,8,10,10,12,12,13,13,15,15,17,17,20,20,21,21,24,24,26,26,27,27,30,30,31,31,34,34,35,35,38,38,40,40,41,41],"right_children":[2,4,6,8,-1,10,-1,-1,12,-1,14,-1,16,18,-1,20,-1,22,-1,-1,24,26,-1,-1,28,-1,30,32,-1,-1,34,36,-1,-1,38,40,-1,-1,42,-1,44,46,-1,-1,-1,-1,-1],"split_conditions":[1.1955E3,2.5293344E8,2.3526306E3,-4.703587E3,-0E0,-7.6532085E3,-0E0,-0E0,0E0,-0E0,5.5261906E4,-0E0,1.5002263E4,3.8499646E3,-0E0,-2.701524E4,-0E0,7.361112E4,-0E0,-0E0,-1.5216521E4,0E0,-0E0,-0E0,1.3675766E4,-0E0,-7.6454585E3,-9.8929144E2,-0E0,-0E0,1.2326449E4,1.1388332E4,-0E0,-0E0,8E0,0E0,-0E0,-0E0,-4.8258313E2,-0E0,-2.012354E4,1.9377863E0,-0E0,-0E0,4.3153E-3,-0E0,-3.3420492E-3],"split_indices":[198,11,35,83,0,81,0,0,152,0,75,0,83,68,0,84,0,82,0,0,59,123,0,0,59,0,39,91,0,0,51,63,0,0,0,143,0,0,88,0,35,19,0,0,0,0,0],"split_type":[0,0,0,0,0,0,0,0,0,0,0,0,0,0,0,0,0,0,0,0,0,0,0,0,0,0,0,0,0,0,0,0,0,0,0,0,0,0,0,0,0,0,0,0,0,0,0],"sum_hessian":[1.684E3,7.48E2,9.36E2,5.97E2,1.51E2,8.1E2,1.26E2,1.01E2,4.96E2,1.43E2,6.67E2,6.4E1,4.32E2,6.42E2,2.5E1,3.94E2,3.8E1,6.24E2,1.8E1,1.1E1,3.83E2,6.19E2,5E0,1.4E1,3.69E2,5.6E1,5.63E2,3.52E2,1.7E1,3.7E1,5.26E2,3.4E2,1.2E1,2E1,5.06E2,3.3E2,1E1,4.9E1,4.57E2,7E0,3.23E2,4.43E2,1.4E1,5E0,3.18E2,7E0,4.36E2],"tree_param":{"num_deleted":"0","num_feature":"200","num_nodes":"47","size_leaf_vector":"1"}},{"base_weights":[-0E0],"categories":[],"categories_nodes":[],"categories_segments":[],"categories_sizes":[],"default_left":[0],"id":43,"left_children":[-1],"loss_changes":[0E0],"parents":[2147483647],"right_children":[-1],"split_conditions":[-0E0],"split_indices":[0],"split_type":[0],"sum_hessian":[1.682E3],"tree_param":{"num_deleted":"0","num_feature":"200","num_nodes":"1","size_leaf_vector":"1"}},{"base_weights":[-0E0,-0E0,3.7311234E-2,-0E0,-3.556187E-2,-0E0,1.0054521E-1,-0E0,-5.7906527E-2,-0E0,1.7502148E-1,-0E0,-8.3109446E-2,-0E0,1.9263259E-1,-0E0,-1.0284212E-1,2.0898348E-1,-0E0,-0E0,-1.1618893E-1,2.2873977E-1,-0E0,-0E0,-1.24844365E-1,-0E0,2.4051407E-1,-1.3520998E-1,-0E0,-0E0,2.5631872E-1,-1.4478509E-1,-0E0,-0E0,2.656524E-1,-1.5284774E-1,-0E0,-0E0,2.8141809E-1,-1.6782011E-1,-0E0,2.9041582E-1,-0E0,-3.4054187E-3,-0E0,5.77327E-3,-0E0],"categories":[],"categories_nodes":[],"categories_segments":[],"categories_sizes":[],"default_left":[0,0,0,0,0,0,0,0,0,0,0,0,0,0,0,0,0,0,0,0,0,0,0,0,0,0,0,0,0,0,0,0,0,0,0,0,0,0,0,0,0,0,0,0,0,0,0],"id":44,"left_children":[1,3,5,-1,7,-1,9,-1,11,-1,13,-1,15,-1,17,-1,19,21,-1,-1,23,25,-1,-1,27,-1,29,31,-1,-1,33,35,-1,-1,37,39,-1,-1,41,43,-1,45,-1,-1,-1,-1,-1],"loss_changes":[9.174333E-1,7.5627756E-1,2.9748137E0,0E0,1.1617832E0,0E0,4.869111E0,0E0,1.5080037E0,0E0,1.4437065E0,0E0,1.5873556E0,0E0,1.5875931E0,0E0,1.1697206E0,1.2885933E0,0E0,0E0,8.464298E-1,7.4505043E-1,0E0,0E0,7.952852E-1,0E0,8.256216E-1,9.798012E-1,0E0,0E0,5.9250927E-1,8.9109993E-1,0E0,0E0,6.7517376E-1,9.2233753E-1,0E0,0E0,6.125593E-1,7.2550774E-1,0E0,5.759373E-1,0E0,0E0,0E0,0E0,0E0],"parents":[2147483647,0,0,1,1,2,2,4,4,6,6,8,8,10,10,12,12,14,14,16,16,17,17,20,20,21,21,24,24,26,26,27,27,30,30,31,31,34,34,35,35,38,38,39,39,41,41],"right_children":[2,4,6,-1,8,-1,10,-1,12,-1,14,-1,16,-1,18,-1,20,22,-1,-1,24,26,-1,-1,28,-1,30,32,-1,-1,34,36,-1,-1,38,40,-1,-1,42,44,-1,46,-1,-1,-1,-1,-1],"split_conditions":[6.184297E2,8.139096E0,-4.9136353E0,-0E0,-6.2608E3,-0E0,5.152998E1,-0E0,1.14989735E-1,-0E0,1.0985125E1,-0E0,-2.012354E4,-0E0,8.137582E2,-0E0,2.8032065E3,2.017E3,-0E0,-0E0,-5.0752E4,-1.2812743E4,-0E0,-0E0,1.8213871E3,-0E0,0E0,9.9675065E-1,-0E0,-0E0,-1.7373783E4,4.0353348E4,-0E0,-0E0,4.4133725E0,5.7353623E3,-0E0,-0E0,3.2461834E4,4.6074304E2,-0E0,2.941104E3,-0E0,-3.4054187E-3,-0E0,5.77327E-3,-0E0],"split_indices":[82,19,30,0,66,0,26,0,5,0,22,0,28,0,102,0,45,2,0,0,10,34,0,0,52,0,158,6,0,0,37,33,0,0,19,38,0,0,37,82,0,52,0,0,0,0,0],"split_type":[0,0,0,0,0,0,0,0,0,0,0,0,0,0,0,0,0,0,0,0,0,0,0,0,0,0,0,0,0,0,0,0,0,0,0,0,0,0,0,0,0,0,0,0,0,0,0],"sum_hessian":[1.7E3,1.041E3,6.59E2,4.43E2,5.98E2,2.74E2,3.85E2,2.6E1,5.72E2,9.9E1,2.86E2,7.6E1,4.96E2,1.1E1,2.75E2,2.2E1,4.74E2,2.7E2,5E0,1.6E1,4.58E2,2.5E2,2E1,7E0,4.51E2,1.1E1,2.39E2,4.28E2,2.3E1,1.6E1,2.23E2,4.2E2,8E0,7E0,2.16E2,4.15E2,5E0,1.5E1,2.01E2,3.77E2,3.8E1,1.96E2,5E0,3.64E2,1.3E1,1.91E2,5E0],"tree_param":{"num_deleted":"0","num_feature":"200","num_nodes":"47","size_leaf_vector":"1"}},{"base_weights":[-0E0,1.264403E-2,-4.956132E-3,-0E0,7.190922E-2,-0E0,-6.150156E-2,1.0996207E-1,-0E0,-9.739678E-2,-0E0,-0E0,1.359496E-1,-1.3449004E-1,-0E0,1.5104985E-1,-0E0,-1.596448E-1,-0E0,-0E0,1.5992121E-1,-0E0,-1.9332832E-1,-0E0,1.6656081E-1,-0E0,-2.1612449E-1,-0E0,1.7803653E-1,-2.4312587E-1,-0E0,1.818532E-1,-0E0,-0E0,-2.6143664E-1,1.9328295E-1,-0E0,-0E0,-2.8849402E-1,-0E0,2.0778114E-1,-0E0,-3.4832942E-1,-0E0,4.1763354E-3,-7.224021E-3,-0E0],"categories":[],"categories_nodes":[],"categories_segments":[],"categories_sizes":[],"default_left":[0,0,0,0,0,0,0,0,0,0,0,0,0,0,0,0,0,0,0,0,0,0,0,0,0,0,0,0,0,0,0,0,0,0,0,0,0,0,0,0,0,0,0,0,0,0,0],"id":45,"left_children":[1,3,5,-1,7,-1,9,11,-1,13,-1,-1,15,17,-1,19,-1,21,-1,-1,23,-1,25,-1,27,-1,29,-1,31,33,-1,35,-1,-1,37,39,-1,-1,41,-1,43,-1,45,-1,-1,-1,-1],"loss_changes":[1.4190339E-1,2.4599884E0,2.1004887E0,0E0,2.5587604E0,0E0,2.7255497E0,1.274497E0,0E0,2.912283E0,0E0,0E0,1.0703764E0,1.9508829E0,0E0,6.491585E-1,0E0,3.4461317E0,0E0,0E0,5.229101E-1,0E0,2.585044E0,0E0,5.3652763E-1,0E0,2.819584E0,0E0,1.668663E-1,2.2860203E0,0E0,3.1688595E-1,0E0,0E0,2.0416603E0,5.562887E-1,0E0,0E0,2.2286644E0,0E0,5.0095177E-1,0E0,2.7905445E0,0E0,0E0,0E0,0E0],"parents":[2147483647,0,0,1,1,2,2,4,4,6,6,7,7,9,9,12,12,13,13,15,15,17,17,20,20,22,22,24,24,26,26,28,28,29,29,31,31,34,34,35,35,38,38,40,40,42,42],"right_children":[2,4,6,-1,8,-1,10,12,-1,14,-1,-1,16,18,-1,20,-1,22,-1,-1,24,-1,26,-1,28,-1,30,-1,32,34,-1,36,-1,-1,38,40,-1,-1,42,-1,44,-1,46,-1,-1,-1,-1],"split_conditions":[-3.1804886E1,-1.2506223E3,1.054835E4,-0E0,1.7715503E3,-0E0,2.2516496E4,0E0,-0E0,-1.8215566E3,-0E0,-0E0,4.0937556E3,6.6978723E2,-0E0,0E0,-0E0,-1.0940976E4,-0E0,-0E0,9.874794E2,-0E0,5.0650993E1,-0E0,-2.7544805E4,-0E0,9.7876906E-1,-0E0,2.8232458E3,-5.0752E4,-0E0,1.326491E2,-0E0,-0E0,5.882866E0,1.4318557E1,-0E0,-0E0,2.8104254E1,-0E0,3.5439968E3,-0E0,1.9683E4,-0E0,4.1763354E-3,-7.224021E-3,-0E0],"split_indices":[65,84,92,0,36,0,65,3,0,67,0,0,62,95,0,111,0,32,0,0,92,0,41,0,65,0,7,0,52,55,0,39,0,0,19,24,0,0,24,0,94,0,30,0,0,0,0],"split_type":[0,0,0,0,0,0,0,0,0,0,0,0,0,0,0,0,0,0,0,0,0,0,0,0,0,0,0,0,0,0,0,0,0,0,0,0,0,0,0,0,0,0,0,0,0,0,0],"sum_hessian":[1.629E3,7.53E2,8.76E2,2.54E2,4.99E2,3.15E2,5.61E2,4.25E2,7.4E1,5.11E2,5E1,7.8E1,3.47E2,4.29E2,8.2E1,3.28E2,1.9E1,3.81E2,4.8E1,1E1,3.18E2,2.9E1,3.52E2,6E0,3.12E2,1.5E1,3.37E2,2.2E1,2.9E2,3.14E2,2.3E1,2.83E2,7E0,9E0,3.05E2,2.59E2,2.4E1,3E1,2.75E2,2.2E1,2.37E2,6.8E1,2.07E2,8E0,2.29E2,1.99E2,8E0],"tree_param":{"num_deleted":"0","num_feature":"200","num_nodes":"47","size_leaf_vector":"1"}},{"base_weights":[-0E0,-0E0,-2.5436247E-2,-0E0,2.2685075E-2,-0E0,-7.533587E-2,4.3593064E-2,-0E0,-1.3613997E-1,-0E0,-0E0,8.068228E-2,-0E0,-1.762587E-1,-0E0,1.0740737E-1,-2.3111884E-1,-0E0,1.3493203E-1,-0E0,-2.955031E-1,-0E0,-0E0,1.4999254E-1,-3.2476896E-1,-0E0,1.7651758E-1,-0E0,-0E0,-3.4377062E-1,-0E0,1.8758164E-1,-0E0,-3.8797525E-1,1.9770348E-1,-0E0,-0E0,-4.3339127E-1,-0E0,2.0367874E-1,-4.569855E-1,-0E0,-0E0,3.996283E-3,-9.642133E-3,-0E0],"categories":[],"categories_nodes":[],"categories_segments":[],"categories_sizes":[],"default_left":[0,0,0,0,0,0,0,0,0,0,0,0,0,0,0,0,0,0,0,0,0,0,0,0,0,0,0,0,0,0,0,0,0,0,0,0,0,0,0,0,0,0,0,0,0,0,0],"id":46,"left_children":[1,3,5,-1,7,-1,9,11,-1,13,-1,-1,15,-1,17,-1,19,21,-1,23,-1,25,-1,-1,27,29,-1,31,-1,-1,33,-1,35,-1,37,39,-1,-1,41,-1,43,45,-1,-1,-1,-1,-1],"loss_changes":[5.2925783E-1,3.5457575E-1,2.5185668E0,0E0,8.502779E-1,0E0,4.940645E0,1.2298449E0,0E0,4.37671E0,0E0,0E0,1.6147299E0,0E0,5.8504457E0,0E0,1.3582187E0,6.1485386E0,0E0,1.0045505E0,0E0,3.6937256E0,0E0,0E0,1.8140998E0,2.788393E0,0E0,8.524418E-1,0E0,0E0,3.174572E0,0E0,7.716856E-1,0E0,5.238003E0,3.5551167E-1,0E0,0E0,3.346756E0,0E0,1.3707924E-1,3.3660278E0,0E0,0E0,0E0,0E0,0E0],"parents":[2147483647,0,0,1,1,2,2,4,4,6,6,7,7,9,9,12,12,14,14,16,16,17,17,19,19,21,21,24,24,25,25,27,27,30,30,32,32,34,34,35,35,38,38,40,40,41,41],"right_children":[2,4,6,-1,8,-1,10,12,-1,14,-1,-1,16,-1,18,-1,20,22,-1,24,-1,26,-1,-1,28,30,-1,32,-1,-1,34,-1,36,-1,38,40,-1,-1,42,-1,44,46,-1,-1,-1,-1,-1],"split_conditions":[1.7091192E6,-1.3302534E3,3.0087576E1,-0E0,2.234828E6,-0E0,5.8704253E3,1.4115519E1,-0E0,-2.1184309E4,-0E0,-0E0,-8.465445E3,-0E0,-4.2549785E3,-0E0,-3.413073E3,6.2312656E1,-0E0,-1.2812743E4,-0E0,9.9223286E-1,-0E0,-0E0,9.621309E3,-5.0752E4,-0E0,-1.236999E3,-0E0,-0E0,1.3815004E1,-0E0,1E0,-0E0,1.0077747E4,-3.6522812E3,-0E0,-0E0,2.7287512E4,-0E0,2.9859233E3,1.774594E2,-0E0,-0E0,3.996283E-3,-9.642133E-3,-0E0],"split_indices":[16,62,24,0,103,0,84,22,0,14,0,0,55,0,88,0,91,24,0,31,0,7,0,0,64,55,0,70,0,0,22,0,107,0,49,28,0,0,60,0,49,100,0,0,0,0,0],"split_type":[0,0,0,0,0,0,0,0,0,0,0,0,0,0,0,0,0,0,0,0,0,0,0,0,0,0,0,0,0,0,0,0,0,0,0,0,0,0,0,0,0,0,0,0,0,0,0],"sum_hessian":[1.716E3,8.98E2,8.18E2,2.09E2,6.89E2,2.81E2,5.37E2,6.34E2,5.5E1,4.31E2,1.06E2,2.6E2,3.74E2,3.3E1,3.98E2,2.3E1,3.51E2,3.41E2,5.7E1,2.97E2,5.4E1,2.79E2,6.2E1,1.2E1,2.85E2,2.66E2,1.3E1,2.64E2,2.1E1,5E0,2.61E2,6E0,2.58E2,3.5E1,2.26E2,2.52E2,6E0,1.7E1,2.09E2,6E0,2.46E2,2.04E2,5E0,5E0,2.41E2,1.84E2,2E1],"tree_param":{"num_deleted":"0","num_feature":"200","num_nodes":"47","size_leaf_vector":"1"}},{"base_weights":[-0E0,-2.6060285E-2,-0E0,-0E0,-5.2558612E-2,3.7242495E-2,-0E0,-0E0,-7.298879E-2,-0E0,6.290102E-2,-0E0,-1.06763326E-1,9.6298724E-2,-0E0,-1.2687127E-1,-0E0,1.181781E-1,-0E0,-1.4961855E-1,-0E0,1.4933904E-1,-0E0,-1.7081687E-1,-0E0,1.6618235E-1,-0E0,-0E0,-1.9066823E-1,-0E0,1.9237085E-1,-0E0,-2.046476E-1,2.0368274E-1,-0E0,-2.2253759E-1,-0E0,2.1774852E-1,-0E0,-2.3475127E-1,-0E0,-0E0,2.3138422E-1,-0E0,-4.8541487E-3,-0E0,4.6460377E-3],"categories":[],"categories_nodes":[],"categories_segments":[],"categories_sizes":[],"default_left":[0,0,0,0,0,0,0,0,0,0,0,0,0,0,0,0,0,0,0,0,0,0,0,0,0,0,0,0,0,0,0,0,0,0,0,0,0,0,0,0,0,0,0,0,0,0,0],"id":47,"left_children":[1,3,5,-1,7,9,-1,-1,11,-1,13,-1,15,17,-1,19,-1,21,-1,23,-1,25,-1,27,-1,29,-1,-1,31,-1,33,-1,35,37,-1,39,-1,41,-1,43,-1,-1,45,-1,-1,-1,-1],"loss_changes":[6.044434E-1,1.5640881E0,9.2237794E-1,0E0,1.859035E0,1.6454746E0,0E0,0E0,2.8230472E0,0E0,1.2065773E0,0E0,1.8255434E0,1.574781E0,0E0,2.6737318E0,0E0,1.966227E0,0E0,2.2476807E0,0E0,1.1080298E0,0E0,1.8535814E0,0E0,2.1979637E0,0E0,0E0,1.9718227E0,0E0,1.0784254E0,0E0,2.0898209E0,6.2859917E-1,0E0,1.8699951E0,0E0,8.428526E-1,0E0,1.1588326E0,0E0,0E0,6.924572E-1,0E0,0E0,0E0,0E0],"parents":[2147483647,0,0,1,1,2,2,4,4,5,5,8,8,10,10,12,12,13,13,15,15,17,17,19,19,21,21,23,23,25,25,28,28,30,30,32,32,33,33,35,35,37,37,39,39,42,42],"right_children":[2,4,6,-1,8,10,-1,-1,12,-1,14,-1,16,18,-1,20,-1,22,-1,24,-1,26,-1,28,-1,30,-1,-1,32,-1,34,-1,36,38,-1,40,-1,42,-1,44,-1,-1,46,-1,-1,-1,-1],"split_conditions":[6.2615723E1,-3.1121204E3,1.399786E2,-0E0,-9.8091614E-1,-2.012354E4,-0E0,-0E0,6.881176E4,-0E0,2.014E3,-0E0,4.21875E2,-4.565709E2,-0E0,9.7876906E-1,-0E0,2.2480784E3,-0E0,2.2137676E4,-0E0,9.632534E1,-0E0,5.314362E2,-0E0,9.034908E-2,-0E0,-0E0,-1.4503637E4,-0E0,1.1545064E5,-0E0,5.6396826E3,2.8778347E3,-0E0,2.2909928E4,-0E0,-7.5529297E2,-0E0,0E0,-0E0,-0E0,1.9510461E2,-0E0,-4.8541487E-3,-0E0,4.6460377E-3],"split_indices":[84,32,97,0,7,29,0,0,103,0,2,0,37,67,0,7,0,29,0,86,0,97,0,41,0,5,0,0,52,0,86,0,39,52,0,87,0,63,0,105,0,0,41,0,0,0,0],"split_type":[0,0,0,0,0,0,0,0,0,0,0,0,0,0,0,0,0,0,0,0,0,0,0,0,0,0,0,0,0,0,0,0,0,0,0,0,0,0,0,0,0,0,0,0,0,0,0],"sum_hessian":[1.702E3,8.9E2,8.12E2,1.05E2,7.85E2,6.65E2,1.47E2,2.9E1,7.56E2,1.6E1,6.49E2,1.55E2,6.01E2,4.07E2,2.42E2,5.39E2,6.2E1,3.83E2,2.4E1,5.07E2,3.2E1,3.28E2,5.5E1,4.66E2,4.1E1,3.05E2,2.3E1,4.1E1,4.25E2,1.8E1,2.87E2,9E0,4.16E2,2.82E2,5E0,3.94E2,2.2E1,2.6E2,2.2E1,3.88E2,6E0,1.4E1,2.46E2,3.2E1,3.56E2,7E0,2.39E2],"tree_param":{"num_deleted":"0","num_feature":"200","num_nodes":"47","size_leaf_vector":"1"}},{"base_weights":[-0E0],"categories":[],"categories_nodes":[],"categories_segments":[],"categories_sizes":[],"default_left":[0],"id":48,"left_children":[-1],"loss_changes":[0E0],"parents":[2147483647],"right_children":[-1],"split_conditions":[-0E0],"split_indices":[0],"split_type":[0],"sum_hessian":[1.658E3],"tree_param":{"num_deleted":"0","num_feature":"200","num_nodes":"1","size_leaf_vector":"1"}},{"base_weights":[-0E0,-0E0,2.0054653E-3,-0E0,-2.1078319E-3,5.6448676E-2,-0E0,-0E0,-2.1142114E-2,1.0125553E-1,-0E0,-4.258598E-2,-0E0,-0E0,1.2527138E-1,-6.0056012E-2,-0E0,-0E0,1.4671506E-1,-0E0,-7.563362E-2,-0E0,1.7283744E-1,-9.201798E-2,-0E0,1.9539393E-1,-0E0,-1.1361328E-1,-0E0,-0E0,2.1351323E-1,-1.3641067E-1,-0E0,-0E0,2.2628802E-1,-1.4799587E-1,-0E0,2.5137812E-1,-0E0,-0E0,-1.5364796E-1,2.6092857E-1,-0E0,-0E0,-3.080721E-3,-0E0,5.280912E-3],"categories":[],"categories_nodes":[],"categories_segments":[],"categories_sizes":[],"default_left":[0,0,0,0,0,0,0,0,0,0,0,0,0,0,0,0,0,0,0,0,0,0,0,0,0,0,0,0,0,0,0,0,0,0,0,0,0,0,0,0,0,0,0,0,0,0,0],"id":49,"left_children":[1,3,5,-1,7,9,-1,-1,11,13,-1,15,-1,-1,17,19,-1,-1,21,-1,23,-1,25,27,-1,29,-1,31,-1,-1,33,35,-1,-1,37,39,-1,41,-1,-1,43,45,-1,-1,-1,-1,-1],"loss_changes":[5.0113373E-3,1.9905102E-3,2.3498251E0,0E0,1.9424434E-1,4.412087E0,0E0,0E0,5.2015066E-1,3.0413852E0,0E0,6.073362E-1,0E0,0E0,2.3107624E0,6.785191E-1,0E0,0E0,3.3554735E0,0E0,7.158916E-1,0E0,2.6609516E0,9.866493E-1,0E0,2.1973858E0,0E0,1.3010137E0,0E0,0E0,1.6865768E0,7.5496197E-1,0E0,0E0,1.2357559E0,3.3038092E-1,0E0,1.4601936E0,0E0,0E0,3.6156464E-1,1.4394588E0,0E0,0E0,0E0,0E0,0E0],"parents":[2147483647,0,0,1,1,2,2,4,4,5,5,8,8,9,9,11,11,14,14,15,15,18,18,20,20,22,22,23,23,25,25,27,27,30,30,31,31,34,34,35,35,37,37,40,40,41,41],"right_children":[2,4,6,-1,8,10,-1,-1,12,14,-1,16,-1,-1,18,20,-1,-1,22,-1,24,-1,26,28,-1,30,-1,32,-1,-1,34,36,-1,-1,38,40,-1,42,-1,-1,44,46,-1,-1,-1,-1,-1],"split_conditions":[5.314362E2,-3.328011E3,1.9681932E1,-0E0,-6.3296515E2,3.6461918E12,-0E0,-0E0,1.0880155E4,-1.2812743E4,-0E0,1.8173315E3,-0E0,-0E0,0E0,2.1988246E0,-0E0,-0E0,-1.4532936E4,-0E0,1E0,-0E0,8.952772E-1,1E0,-0E0,3E0,-0E0,9.897936E-1,-0E0,-0E0,-4.023467E4,4.1179797E4,-0E0,-0E0,2.017E3,-1.9607369E3,-0E0,1E0,-0E0,-0E0,-2.7061719E4,-6.385595E2,-0E0,-0E0,-3.080721E-3,-0E0,5.280912E-3],"split_indices":[40,44,31,0,98,12,0,0,86,31,0,50,0,0,176,19,0,0,50,0,118,0,5,119,0,0,0,6,0,0,80,81,0,0,2,48,0,109,0,0,81,70,0,0,0,0,0],"split_type":[0,0,0,0,0,0,0,0,0,0,0,0,0,0,0,0,0,0,0,0,0,0,0,0,0,0,0,0,0,0,0,0,0,0,0,0,0,0,0,0,0,0,0,0,0,0,0],"sum_hessian":[1.731E3,4.85E2,1.246E3,3.7E1,4.48E2,7.39E2,5.07E2,9E0,4.39E2,6.6E2,7.9E1,3.95E2,4.4E1,3.5E1,6.25E2,3.67E2,2.8E1,6.2E1,5.63E2,1.7E1,3.5E2,4.5E1,5.18E2,3.21E2,2.9E1,4.75E2,4.3E1,2.87E2,3.4E1,2.9E1,4.46E2,2.69E2,1.8E1,1.6E1,4.3E2,2.63E2,6E0,3.68E2,6.2E1,5E0,2.58E2,3.63E2,5E0,5E0,2.53E2,1.4E1,3.49E2],"tree_param":{"num_deleted":"0","num_feature":"200","num_nodes":"47","size_leaf_vector":"1"}},{"base_weights":[-0E0],"categories":[],"categories_nodes":[],"categories_segments":[],"categories_sizes":[],"default_left":[0],"id":50,"left_children":[-1],"loss_changes":[0E0],"parents":[2147483647],"right_children":[-1],"split_conditions":[-0E0],"split_indices":[0],"split_type":[0],"sum_hessian":[1.669E3],"tree_param":{"num_deleted":"0","num_feature":"200","num_nodes":"1","size_leaf_vector":"1"}},{"base_weights":[-0E0,-0E0,5.171746E-3,4.8744667E-2,-0E0,-0E0,8.863981E-2,-0E0,1.2596297E-1,-0E0,1.5923254E-1,1.8233669E-1,-0E0,1.99682E-1,-0E0,-0E0,2.1486408E-1,2.3301937E-1,-0E0,-0E0,2.5207728E-1,-0E0,2.8052288E-1,5.905267E-3,-0E0],"categories":[],"categories_nodes":[],"categories_segments":[],"categories_sizes":[],"default_left":[0,0,0,0,0,0,0,0,0,0,0,0,0,0,0,0,0,0,0,0,0,0,0,0,0],"id":51,"left_children":[1,-1,3,5,-1,-1,7,-1,9,-1,11,13,-1,15,-1,-1,17,19,-1,-1,21,-1,23,-1,-1],"loss_changes":[3.0625671E-2,0E0,1.4877009E0,3.007432E0,0E0,0E0,3.2967467E0,0E0,3.5622697E0,0E0,2.911789E0,2.2512836E0,0E0,1.7348042E0,0E0,0E0,2.1885147E0,1.9604454E0,0E0,0E0,1.5709553E0,0E0,1.8618336E0,0E0,0E0],"parents":[2147483647,0,0,2,2,3,3,6,6,8,8,10,10,11,11,13,13,16,16,17,17,20,20,22,22],"right_children":[2,-1,4,6,-1,-1,8,-1,10,-1,12,14,-1,16,-1,-1,18,20,-1,-1,22,-1,24,-1,-1],"split_conditions":[-4.2875E1,-0E0,2.013E3,-8.465445E3,-0E0,-0E0,0E0,-0E0,-2.3526306E3,-0E0,2.1145222E9,1.6777408E4,-0E0,-5.7589137E4,-0E0,-0E0,4.770276E2,0E0,-0E0,-0E0,2.243558E1,-0E0,4.6574224E3,5.905267E-3,-0E0],"split_indices":[35,0,2,57,0,0,120,0,38,0,16,38,0,83,0,0,70,108,0,0,25,0,31,0,0],"split_type":[0,0,0,0,0,0,0,0,0,0,0,0,0,0,0,0,0,0,0,0,0,0,0,0,0],"sum_hessian":[1.697E3,5.52E2,1.145E3,6.39E2,5.06E2,6.3E1,5.76E2,8.3E1,4.93E2,4.4E1,4.49E2,4.3E2,1.9E1,4.15E2,1.5E1,1.9E1,3.96E2,3.77E2,1.9E1,2.4E1,3.53E2,4.8E1,3.05E2,2.76E2,2.9E1],"tree_param":{"num_deleted":"0","num_feature":"200","num_nodes":"25","size_leaf_vector":"1"}},{"base_weights":[-0E0],"categories":[],"categories_nodes":[],"categories_segments":[],"categories_sizes":[],"default_left":[0],"id":52,"left_children":[-1],"loss_changes":[0E0],"parents":[2147483647],"right_children":[-1],"split_conditions":[-0E0],"split_indices":[0],"split_type":[0],"sum_hessian":[1.678E3],"tree_param":{"num_deleted":"0","num_feature":"200","num_nodes":"1","size_leaf_vector":"1"}},{"base_weights":[-0E0,-7.922681E-3,-0E0,-0E0,-5.9820116E-2,-0E0,1.0336754E-2,-1.0116895E-1,-0E0,3.8083192E-2,-0E0,-1.4657359E-1,-0E0,-0E0,5.5394087E-2,-0E0,-1.8344554E-1,-0E0,7.8327015E-2,-0E0,-2.3279408E-1,-0E0,9.850414E-2,-2.548894E-1,-0E0,-0E0,1.1068125E-1,-0E0,-2.8491977E-1,1.2517497E-1,-0E0,-3.1049427E-1,-0E0,1.3709389E-1,-0E0,-0E0,-3.256883E-1,-0E0,1.4848539E-1,-0E0,-3.4499952E-1,-0E0,1.6100729E-1,-0E0,-6.930957E-3,3.2874825E-3,-0E0],"categories":[],"categories_nodes":[],"categories_segments":[],"categories_sizes":[],"default_left":[0,0,0,0,0,0,0,0,0,0,0,0,0,0,0,0,0,0,0,0,0,0,0,0,0,0,0,0,0,0,0,0,0,0,0,0,0,0,0,0,0,0,0,0,0,0,0],"id":53,"left_children":[1,3,5,-1,7,-1,9,11,-1,13,-1,15,-1,-1,17,-1,19,-1,21,-1,23,-1,25,27,-1,-1,29,-1,31,33,-1,35,-1,37,-1,-1,39,-1,41,-1,43,-1,45,-1,-1,-1,-1],"loss_changes":[5.3103402E-2,2.5162742E0,6.229426E-2,0E0,3.520694E0,0E0,7.4846154E-1,4.9099636E0,0E0,7.9104954E-1,0E0,3.6055517E0,0E0,0E0,1.0670637E0,0E0,4.416992E0,0E0,1.2027993E0,0E0,2.9377766E0,0E0,8.693962E-1,2.6381779E0,0E0,0E0,8.842583E-1,0E0,2.396782E0,9.5311403E-1,0E0,2.1763058E0,0E0,1.0284219E0,0E0,0E0,1.7765675E0,0E0,9.741559E-1,0E0,1.8414345E0,0E0,8.578768E-1,0E0,0E0,0E0,0E0],"parents":[2147483647,0,0,1,1,2,2,4,4,6,6,7,7,9,9,11,11,14,14,16,16,18,18,20,20,22,22,23,23,26,26,28,28,29,29,31,31,33,33,36,36,38,38,40,40,42,42],"right_children":[2,4,6,-1,8,-1,10,12,-1,14,-1,16,-1,-1,18,-1,20,-1,22,-1,24,-1,26,28,-1,-1,30,-1,32,34,-1,36,-1,38,-1,-1,40,-1,42,-1,44,-1,46,-1,-1,-1,-1],"split_conditions":[-9.212524E3,-2.2831914E4,1E1,-0E0,9.663583E3,-0E0,5.035303E8,1E0,-0E0,-6.1442566E1,-0E0,