{"learner":{"attributes":{"best_iteration":"39","best_score":"1.0361119360380917"},"feature_names":["Volume","day_of_month","year","day_sin","day_cos","day_of_year_norm","dayy_sin","dayy_cos","is_holiday","Log_Return","Log_Return_change1","Log_Return23","Log_Return123","Log_High_Return","Log_High_Return_change1","Log_High_Return_change3","Log_High_Return13","Log_High_Return23","Log_High_Return123","Close_Roll_Std_5","High_Roll_Std_5","High_Roll_Std_10","High_Roll_Std_20","High_Roll_Std_30","High_Roll_Std_60","High_Roll_Std_90","High_Roll_Std_250","High_Roll_Max_250","Log_Return_Lag_1","Log_Return_Lag_2","Log_Return_Lag_3","Log_Return_Lag_5","Log_Return_Lag_10","Log_Return_Lag_20","Log_Return_Lag_30","Log_Return_Lag_60","Log_Return_Lag_90","Log_Return_Lag_120","Log_Return_Lag_180","Log_Return_Lag_250","Log_Return_Roll_Max_5","Log_Return_Roll_Max_10","Log_Return_Roll_Mean_20","Log_Return_Roll_Max_20","Log_Return_Roll_Mean_30","Log_Return_Roll_Max_30","Log_Return_Roll_Mean_60","Log_Return_Roll_Max_60","Log_Return_Roll_Mean_90","Log_Return_Roll_Max_90","Log_Return_Roll_Mean_180","Log_Return_Roll_Max_180","Log_Return_Roll_Mean_250","Log_Return_Roll_Max_250","Log_Return_change1_Lag_1","Log_Return_change1_Lag_2","Log_Return_change1_Lag_3","Log_Return_change1_Lag_5","Log_Return_change1_Lag_10","Log_Return_change1_Lag_20","Log_Return_change1_Lag_30","Log_Return_change1_Lag_60","Log_Return_change1_Lag_90","Log_Return_change1_Lag_120","Log_Return_change1_Lag_180","Log_Return_change1_Lag_250","Log_Return_change1_Roll_Mean_5","Log_Return_change1_Roll_Min_5","Log_Return_change1_Roll_Mean_10","Log_Return_change1_Roll_Mean_20","Log_Return_change1_Roll_Mean_30","Log_Return_change1_Roll_Mean_60","Log_Return_change1_Roll_Mean_90","Log_Return_change1_Roll_Mean_180","Log_Return_change1_Roll_Mean_250","Log_Return_change2_Lag_1","Log_Return_change2_Lag_2","Log_Return_change2_Lag_3","Log_Return_change2_Lag_5","Log_Return_change2_Lag_10","Log_Return_change2_Lag_20","Log_Return_change2_Lag_30","Log_Return_change2_Lag_60","Log_Return_change2_Lag_90","Log_Return_change2_Lag_120","Log_Return_change2_Lag_180","Log_Return_change2_Lag_250","Log_Return_change2_Roll_Mean_5","Log_Return_change2_Roll_Min_5","Log_Return_change2_Roll_Max_5","Log_Return_change2_Roll_Mean_10","Log_Return_change2_Roll_Min_10","Log_Return_change2_Roll_Max_10","Log_Return_change2_Roll_Mean_20","Log_Return_change2_Roll_Max_20","Log_Return_change2_Roll_Mean_30","Log_Return_change2_Roll_Max_30","Log_Return_change2_Roll_Mean_60","Log_Return_change2_Roll_Mean_90","Log_Return_change2_Roll_Max_90","Log_Return_change2_Roll_Mean_180","Log_Return_change2_Roll_Max_180","Log_Return_change2_Roll_Mean_250","Log_Return_change2_Roll_Max_250","rsi_5_long","rsi_5_short","rsi_5_combined","rsi_7_long","rsi_7_short","rsi_7_combined","rsi_10_long","rsi_10_short","rsi_10_combined","macd_5_10_5_long","macd_5_10_5_short","macd_5_10_5_combined","stoch_3_2_2_long","stoch_3_2_2_short","stoch_3_2_2_combined","cci_6_long","cci_6_short","cci_6_combined","cci_10_long","cci_10_short","cci_10_combined","obv_combined","ad_combined","atr_10_long","atr_10_short","atr_10_combined","sma_2_long","sma_2_short","sma_2_combined","sma_3_long","sma_3_short","sma_3_combined","sma_5_long","sma_5_short","sma_5_combined","sma_8_long","sma_8_short","sma_8_combined","sma_13_long","sma_13_short","sma_13_combined","sma_21_long","sma_21_short","sma_21_combined","ema_3_long","ema_3_short","ema_3_combined","ema_5_long","ema_5_short","ema_5_combined","ema_8_long","ema_8_short","ema_8_combined","ema_13_long","ema_13_short","ema_13_combined","ema_21_long","ema_21_short","ema_21_combined","bb_3_1.5_1.5_long","bb_3_1.5_1.5_short","bb_3_1.5_1.5_combined","bb_3_2.0_2.0_long","bb_3_2.0_2.0_short","bb_3_2.0_2.0_combined","bb_5_1.5_1.5_long","bb_5_1.5_1.5_short","bb_5_1.5_1.5_combined","bb_5_2.0_2.0_long","bb_5_2.0_2.0_short","bb_5_2.0_2.0_combined","bb_8_2.0_2.0_long","bb_8_2.0_2.0_short","bb_8_2.0_2.0_combined","ht_dcperiod_combined","ht_phasor_short","ht_phasor_combined","typprice_long","typprice_short","typprice_combined","linearreg_3_combined","linearreg_5_combined","linearreg_8_combined","stddev_2_2_long","stddev_2_2_short","stddev_2_2_combined","stddev_3_2_long","stddev_3_2_short","stddev_3_2_combined","stddev_5_2_long","stddev_5_2_short","stddev_5_2_combined","Open","High","Low","Close"],"feature_types":["float","int","int","float","float","float","float","float","int","float","float","float","float","float","float","float","float","float","float","float","float","float","float","float","float","float","float","float","float","float","float","float","float","float","float","float","float","float","float","float","float","float","float","float","float","float","float","float","float","float","float","float","float","float","float","float","float","float","float","float","float","float","float","float","float","float","float","float","float","float","float","float","float","float","float","float","float","float","float","float","float","float","float","float","float","float","float","float","float","float","float","float","float","float","float","float","float","float","float","float","float","float","float","float","int","int","int","int","int","int","int","int","int","int","int","int","int","int","int","int","int","int","int","int","int","int","int","int","int","int","int","int","int","int","int","int","int","int","int","int","int","int","int","int","int","int","int","int","int","int","int","int","int","int","int","int","int","int","int","int","int","int","int","int","int","int","int","int","int","int","int","int","int","int","int","int","int","int","int","int","int","int","int","int","int","int","int","int","int","int","int","int","int","int","int","int","float","float","float","float"],"gradient_booster":{"model":{"gbtree_model_param":{"num_parallel_tree":"1","num_trees":"90"},"iteration_indptr":[0,1,2,3,4,5,6,7,8,9,10,11,12,13,14,15,16,17,18,19,20,21,22,23,24,25,26,27,28,29,30,31,32,33,34,35,36,37,38,39,40,41,42,43,44,45,46,47,48,49,50,51,52,53,54,55,56,57,58,59,60,61,62,63,64,65,66,67,68,69,70,71,72,73,74,75,76,77,78,79,80,81,82,83,84,85,86,87,88,89,90],"tree_info":[0,0,0,0,0,0,0,0,0,0,0,0,0,0,0,0,0,0,0,0,0,0,0,0,0,0,0,0,0,0,0,0,0,0,0,0,0,0,0,0,0,0,0,0,0,0,0,0,0,0,0,0,0,0,0,0,0,0,0,0,0,0,0,0,0,0,0,0,0,0,0,0,0,0,0,0,0,0,0,0,0,0,0,0,0,0,0,0,0,0],"trees":[{"base_weights":[-0E0,-2.0252136E-3,-0E0,-4.3526534E-2,-0E0,-8.359742E-2,-0E0,-0E0,-1.0905458E-1,-1.2454497E-1,-0E0,-1.5442437E-1,-0E0,-1.7114149E-1,-0E0,-1.9220242E-1,-0E0,-0E0,-2.1119352E-1,-2.2547972E-1,-0E0,-2.3870747E-1,-0E0,-2.5059605E-1,-0E0,-0E0,-2.592136E-1,-0E0,-1.9296456E-2],"categories":[],"categories_nodes":[],"categories_segments":[],"categories_sizes":[],"default_left":[0,0,0,0,0,0,0,0,0,0,0,0,0,0,0,0,0,0,0,0,0,0,0,0,0,0,0,0,0],"id":0,"left_children":[1,3,-1,5,-1,7,-1,-1,9,11,-1,13,-1,15,-1,17,-1,-1,19,21,-1,23,-1,25,-1,-1,27,-1,-1],"loss_changes":[5.9712715E-3,1.6685886E0,0E0,2.3849258E0,0E0,2.1590557E0,0E0,0E0,1.7834811E0,1.8915358E0,0E0,1.9358034E0,0E0,2.093196E0,0E0,2.4412117E0,0E0,0E0,1.7294846E0,1.7292957E0,0E0,1.3956718E0,0E0,1.2828274E0,0E0,0E0,1.2325878E0,0E0,0E0],"parents":[2147483647,0,0,1,1,3,3,5,5,8,8,9,9,11,11,13,13,15,15,18,18,19,19,21,21,23,23,26,26],"right_children":[2,4,-1,6,-1,8,-1,-1,10,12,-1,14,-1,16,-1,18,-1,-1,20,22,-1,24,-1,26,-1,-1,28,-1,-1],"split_conditions":[-1.4129556E3,4.9488748E2,-0E0,2.7259677E2,-0E0,4E0,-0E0,-0E0,4.0353348E4,-7.8706777E3,-0E0,3.1E1,-0E0,1.1697614E4,-0E0,1.6575306E3,-0E0,-0E0,3.1169451E4,2.8778347E3,-0E0,9.933901E-1,-0E0,3.176531E3,-0E0,-0E0,-1.4875489E5,-0E0,-1.9296456E-2],"split_indices":[67,54,0,63,0,1,0,0,36,91,0,1,0,65,0,89,0,0,64,52,0,6,0,49,0,0,77,0,0],"split_type":[0,0,0,0,0,0,0,0,0,0,0,0,0,0,0,0,0,0,0,0,0,0,0,0,0,0,0,0,0],"sum_hessian":[1.872E3,1.449E3,4.23E2,8.77E2,5.72E2,5.74E2,3.03E2,5.8E1,5.16E2,5.09E2,7E0,4.08E2,1.01E2,3.97E2,1.1E1,3.7E2,2.7E1,1E1,3.6E2,3.49E2,1.1E1,3.41E2,8E0,3.31E2,1E1,3E0,3.28E2,5E0,3.23E2],"tree_param":{"num_deleted":"0","num_feature":"200","num_nodes":"29","size_leaf_vector":"1"}},{"base_weights":[-0E0,-0E0,-3.3369004E-3,1.9241959E-2,-0E0,-0E0,-4.0190626E-2,4.436226E-2,-0E0,-0E0,-6.507575E-2,-0E0,6.1713606E-2,-0E0,-9.928155E-2,7.94292E-2,-0E0,-1.2498689E-1,-0E0,8.979409E-2,-0E0,-1.3976003E-1,-0E0,-0E0,1.0188251E-1,-1.5360028E-1,-0E0,-0E0,1.100921E-1,-1.7261939E-1,-0E0,-0E0,1.2060076E-1,-1.8496825E-1,-0E0,-0E0,1.264464E-1,-2.0152079E-1,-0E0,-0E0,1.3562354E-1,-0E0,-2.1369818E-1,-0E0,1.4063941E-1,-2.2467895E-1,-0E0,-0E0,1.4955649E-1,-0E0,-2.3336494E-1,-0E0,1.1111944E-2,-0E0,-1.7647358E-2],"categories":[],"categories_nodes":[],"categories_segments":[],"categories_sizes":[],"default_left":[0,0,0,0,0,0,0,0,0,0,0,0,0,0,0,0,0,0,0,0,0,0,0,0,0,0,0,0,0,0,0,0,0,0,0,0,0,0,0,0,0,0,0,0,0,0,0,0,0,0,0,0,0,0,0],"id":1,"left_children":[1,3,5,7,-1,-1,9,11,-1,-1,13,-1,15,-1,17,19,-1,21,-1,23,-1,25,-1,-1,27,29,-1,-1,31,33,-1,-1,35,37,-1,-1,39,41,-1,-1,43,-1,45,-1,47,49,-1,-1,51,-1,53,-1,-1,-1,-1],"loss_changes":[1.0242757E-2,3.1059724E-1,1.05565E0,1.2143712E0,0E0,0E0,1.5846107E0,1.3309954E0,0E0,0E0,2.6906989E0,0E0,1.5469496E0,0E0,2.7645736E0,1.095058E0,0E0,1.6973486E0,0E0,1.1232362E0,0E0,1.3771114E0,0E0,0E0,1.0736918E0,1.4800596E0,0E0,0E0,9.573355E-1,1.4998322E0,0E0,0E0,7.7914906E-1,1.7136917E0,0E0,0E0,7.74909E-1,1.4283886E0,0E0,0E0,6.3043785E-1,0E0,1.5209312E0,0E0,8.361988E-1,1.3201447E0,0E0,0E0,6.8265057E-1,0E0,1.0309277E0,0E0,0E0,0E0,0E0],"parents":[2147483647,0,0,1,1,2,2,3,3,6,6,7,7,10,10,12,12,14,14,15,15,17,17,19,19,21,21,24,24,25,25,28,28,29,29,32,32,33,33,36,36,37,37,40,40,42,42,44,44,45,45,48,48,50,50],"right_children":[2,4,6,8,-1,-1,10,12,-1,-1,14,-1,16,-1,18,20,-1,22,-1,24,-1,26,-1,-1,28,30,-1,-1,32,34,-1,-1,36,38,-1,-1,40,42,-1,-1,44,-1,46,-1,48,50,-1,-1,52,-1,54,-1,-1,-1,-1],"split_conditions":[5.0001895E3,6.8843843E3,-1.4060403E2,1E0,-0E0,-0E0,7.834E2,-7.045184E6,-0E0,-0E0,0E0,-0E0,-2.6287607E2,-0E0,5.6733444E1,3.7930356E3,-0E0,4.8137555E4,-0E0,-1.7771537E4,-0E0,1E0,-0E0,-0E0,-1.4921707E4,-1.5918538E3,-0E0,-0E0,0E0,9.664613E-1,-0E0,-0E0,-1.3313545E0,1E0,-0E0,-0E0,6.8077745E0,-8.463751E4,-0E0,-0E0,-1.2167E4,-0E0,9.116487E4,-0E0,-7.1891113E3,-4.631292E5,-0E0,-0E0,-3.528751E4,-0E0,-4.6863964E7,-0E0,1.1111944E-2,-0E0,-1.7647358E-2],"split_indices":[41,15,39,106,0,0,197,16,0,0,120,0,67,0,22,87,0,60,0,86,0,106,0,0,90,67,0,0,105,5,0,0,40,177,0,0,22,85,0,0,39,0,78,0,37,83,0,0,36,0,16,0,0,0,0],"split_type":[0,0,0,0,0,0,0,0,0,0,0,0,0,0,0,0,0,0,0,0,0,0,0,0,0,0,0,0,0,0,0,0,0,0,0,0,0,0,0,0,0,0,0,0,0,0,0,0,0,0,0,0,0,0,0],"sum_hessian":[1.88E3,9.67E2,9.13E2,8.32E2,1.35E2,2.6E2,6.53E2,7.68E2,6.4E1,3.4E1,6.19E2,2.5E1,7.43E2,8.4E1,5.35E2,6.91E2,5.2E1,5.12E2,2.3E1,6.75E2,1.6E1,4.95E2,1.7E1,4.4E1,6.31E2,4.67E2,2.8E1,3E0,6.28E2,4.18E2,4.9E1,4E1,5.88E2,4.07E2,1.1E1,5E0,5.83E2,3.84E2,2.3E1,3.5E1,5.48E2,1.2E1,3.72E2,7E0,5.41E2,3.66E2,6E0,2.6E1,5.15E2,3E0,3.63E2,4E0,5.11E2,1.8E1,3.45E2],"tree_param":{"num_deleted":"0","num_feature":"200","num_nodes":"55","size_leaf_vector":"1"}},{"base_weights":[-0E0],"categories":[],"categories_nodes":[],"categories_segments":[],"categories_sizes":[],"default_left":[0],"id":2,"left_children":[-1],"loss_changes":[0E0],"parents":[2147483647],"right_children":[-1],"split_conditions":[-0E0],"split_indices":[0],"split_type":[0],"sum_hessian":[1.887E3],"tree_param":{"num_deleted":"0","num_feature":"200","num_nodes":"1","size_leaf_vector":"1"}},{"base_weights":[-0E0,7.2898116E-4,-0E0,-0E0,2.5203606E-2,4.617632E-2,-0E0,-0E0,6.387991E-2,-0E0,7.83495E-2,8.847644E-2,-0E0,9.903825E-2,-0E0,1.131253E-1,-0E0,1.2541676E-1,-0E0,1.3606437E-1,-0E0,1.471561E-1,-0E0,-0E0,1.5844911E-1,1.6733027E-1,-0E0,1.2678841E-2,-0E0],"categories":[],"categories_nodes":[],"categories_segments":[],"categories_sizes":[],"default_left":[0,0,0,0,0,0,0,0,0,0,0,0,0,0,0,0,0,0,0,0,0,0,0,0,0,0,0,0,0],"id":3,"left_children":[1,3,-1,-1,5,7,-1,-1,9,-1,11,13,-1,15,-1,17,-1,19,-1,21,-1,23,-1,-1,25,27,-1,-1,-1],"loss_changes":[6.7111076E-4,6.5353024E-1,0E0,0E0,1.1814089E0,1.5345048E0,0E0,0E0,1.5707471E0,0E0,9.762149E-1,1.1144795E0,0E0,1.6818719E0,0E0,1.35145E0,0E0,1.2261143E0,0E0,1.2445736E0,0E0,1.3199615E0,0E0,0E0,1.0367594E0,1.0692492E0,0E0,0E0,0E0],"parents":[2147483647,0,0,1,1,4,4,5,5,8,8,10,10,11,11,13,13,15,15,17,17,19,19,21,21,24,24,25,25],"right_children":[2,4,-1,-1,6,8,-1,-1,10,-1,12,14,-1,16,-1,18,-1,20,-1,22,-1,24,-1,-1,26,28,-1,-1,-1],"split_conditions":[1.8002488E4,-8.3966464E-1,-0E0,-0E0,2.7426692E3,-1.0360128E4,-0E0,-0E0,-4.7416733E3,-0E0,3.723875E3,6.0285195E3,-0E0,2.0195963E1,-0E0,-2.6287607E2,-0E0,1.7833242E4,-0E0,1.9024926E4,-0E0,7.648322E0,-0E0,-0E0,1E0,4.058948E1,-0E0,1.2678841E-2,-0E0],"split_indices":[89,7,0,0,64,36,0,0,28,0,37,28,0,21,0,67,0,81,0,83,0,22,0,0,116,23,0,0,0],"split_type":[0,0,0,0,0,0,0,0,0,0,0,0,0,0,0,0,0,0,0,0,0,0,0,0,0,0,0,0,0],"sum_hessian":[1.895E3,1.256E3,6.39E2,2.33E2,1.023E3,8.54E2,1.69E2,3.5E1,8.19E2,2.1E1,7.98E2,7.49E2,4.9E1,7.1E2,3.9E1,6.74E2,3.6E1,6.33E2,4.1E1,6.03E2,3E1,5.72E2,3.1E1,2.7E1,5.45E2,5.25E2,2E1,5.07E2,1.8E1],"tree_param":{"num_deleted":"0","num_feature":"200","num_nodes":"29","size_leaf_vector":"1"}},{"base_weights":[-0E0,-2.302376E-2,-0E0,-0E0,-5.1917456E-2,-0E0,-7.648356E-2,-9.356782E-2,-0E0,-0E0,-1.2329709E-1,-0E0,-1.4027722E-1,-0E0,-1.5444341E-1,-0E0,-1.7476569E-1,-0E0,-1.8618739E-1,-0E0,-1.9854842E-1,-2.0916434E-1,-0E0,-2.1739647E-1,-0E0,-2.2568494E-1,-0E0,-1.6770823E-2,-0E0],"categories":[],"categories_nodes":[],"categories_segments":[],"categories_sizes":[],"default_left":[0,0,0,0,0,0,0,0,0,0,0,0,0,0,0,0,0,0,0,0,0,0,0,0,0,0,0,0,0],"id":4,"left_children":[1,3,-1,-1,5,-1,7,9,-1,-1,11,-1,13,-1,15,-1,17,-1,19,-1,21,23,-1,25,-1,27,-1,-1,-1],"loss_changes":[7.8288376E-1,2.3030472E0,0E0,0E0,2.8976376E0,0E0,2.6739993E0,3.9887905E0,0E0,0E0,2.857275E0,0E0,2.5261593E0,0E0,2.2776184E0,0E0,2.047781E0,0E0,2.1601753E0,0E0,1.8603954E0,1.8807068E0,0E0,1.4826183E0,0E0,1.339962E0,0E0,0E0,0E0],"parents":[2147483647,0,0,1,1,4,4,6,6,7,7,10,10,12,12,14,14,16,16,18,18,20,20,21,21,23,23,25,25],"right_children":[2,4,-1,-1,6,-1,8,10,-1,-1,12,-1,14,-1,16,-1,18,-1,20,-1,22,24,-1,26,-1,28,-1,-1,-1],"split_conditions":[4.228448E3,2.8032065E3,-0E0,-0E0,-3.2221812E6,-0E0,2.7267459E4,1.1592928E4,-0E0,-0E0,-7.0528546E2,-0E0,-1.5625E4,-0E0,4.6127086E0,-0E0,-5.020159E4,-0E0,1.3575938E4,-0E0,-8.615932E2,3.2768E4,-0E0,3.7677504E4,-0E0,4.8137555E4,-0E0,-1.6770823E-2,-0E0],"split_indices":[79,43,0,0,16,0,62,94,0,0,97,0,37,0,20,0,75,0,96,0,88,34,0,82,0,64,0,0,0],"split_type":[0,0,0,0,0,0,0,0,0,0,0,0,0,0,0,0,0,0,0,0,0,0,0,0,0,0,0,0,0],"sum_hessian":[1.899E3,1.47E3,4.29E2,3.32E2,1.138E3,1.22E2,1.016E3,9.82E2,3.4E1,1.57E2,8.25E2,4.4E1,7.81E2,3.2E1,7.49E2,9.1E1,6.58E2,2E1,6.38E2,2.3E1,6.15E2,5.96E2,1.9E1,5.91E2,5E0,5.77E2,1.4E1,5.65E2,1.2E1],"tree_param":{"num_deleted":"0","num_feature":"200","num_nodes":"29","size_leaf_vector":"1"}},{"base_weights":[-0E0,-0E0,2.0763753E-3,-1.7098287E-2,-0E0,2.2300208E-2,-0E0,-5.4372896E-2,-0E0,3.935973E-2,-0E0,-0E0,-7.494887E-2,-0E0,6.319435E-2,-0E0,-9.37644E-2,-0E0,7.816383E-2,-0E0,-1.1775129E-1,-0E0,9.045643E-2,-1.3217269E-1,-0E0,1.01402536E-1,-0E0,-1.482732E-1,-0E0,-0E0,1.1118071E-1,-0E0,-1.6238683E-1,1.2059209E-1,-0E0,-0E0,-1.7262718E-1,1.3312922E-1,-0E0,-0E0,-1.8246923E-1,1.4864714E-1,-0E0,-0E0,-1.9363496E-1,-0E0,1.5875293E-1,-2.0294976E-1,-0E0,1.7669669E-1,-0E0,-0E0,-1.517231E-2,1.323519E-2,-0E0],"categories":[],"categories_nodes":[],"categories_segments":[],"categories_sizes":[],"default_left":[0,0,0,0,0,0,0,0,0,0,0,0,0,0,0,0,0,0,0,0,0,0,0,0,0,0,0,0,0,0,0,0,0,0,0,0,0,0,0,0,0,0,0,0,0,0,0,0,0,0,0,0,0,0,0],"id":5,"left_children":[1,3,5,7,-1,9,-1,11,-1,13,-1,-1,15,-1,17,-1,19,-1,21,-1,23,-1,25,27,-1,29,-1,31,-1,-1,33,-1,35,37,-1,-1,39,41,-1,-1,43,45,-1,-1,47,-1,49,51,-1,53,-1,-1,-1,-1,-1],"loss_changes":[6.2681558E-3,1.0462629E-1,6.267334E-1,8.2924044E-1,0E0,1.1685162E0,0E0,6.888596E-1,0E0,1.472688E0,0E0,0E0,7.0602214E-1,0E0,1.4233222E0,0E0,5.951588E-1,0E0,1.2827868E0,0E0,7.076502E-1,0E0,1.3704052E0,6.528344E-1,0E0,1.3500266E0,0E0,7.226052E-1,0E0,0E0,1.2008953E0,0E0,5.620084E-1,1.1556005E0,0E0,0E0,5.199375E-1,2.308134E0,0E0,0E0,5.055313E-1,1.1481972E0,0E0,0E0,4.849596E-1,0E0,1.717927E0,4.321742E-1,0E0,1.2292519E0,0E0,0E0,0E0,0E0,0E0],"parents":[2147483647,0,0,1,1,2,2,3,3,5,5,7,7,9,9,12,12,14,14,16,16,18,18,20,20,22,22,23,23,25,25,27,27,30,30,32,32,33,33,36,36,37,37,40,40,41,41,44,44,46,46,47,47,49,49],"right_children":[2,4,6,8,-1,10,-1,12,-1,14,-1,-1,16,-1,18,-1,20,-1,22,-1,24,-1,26,28,-1,30,-1,32,-1,-1,34,-1,36,38,-1,-1,40,42,-1,-1,44,46,-1,-1,48,-1,50,52,-1,54,-1,-1,-1,-1,-1],"split_conditions":[-2.2995662E3,2.460375E3,1.7589552E2,1E0,-0E0,4.913E3,-0E0,4.306193E0,-0E0,4.659238E1,-0E0,-0E0,-7.880628E3,-0E0,0E0,-0E0,1.7259673E5,-0E0,3.6821334E0,-0E0,4.2147563E3,-0E0,2.4389E4,-2.527449E3,-0E0,-3.528751E4,-0E0,-2.1865566E14,-0E0,-0E0,1.0077833E4,-0E0,-3.9561003E3,8.236024E11,-0E0,-0E0,4.943145E2,1.2326352E4,-0E0,-0E0,6.468E2,1.2326449E4,-0E0,-0E0,1.6091774E2,-0E0,9.590789E-1,-9.95927E4,-0E0,1.441353E2,-0E0,-0E0,-1.517231E-2,1.323519E-2,-0E0],"split_indices":[63,35,97,151,0,37,0,19,0,26,0,0,35,0,146,0,103,0,19,0,50,0,31,63,0,33,0,18,0,0,38,0,69,12,0,0,89,33,0,0,196,53,0,0,26,0,6,83,0,97,0,0,0,0,0],"split_type":[0,0,0,0,0,0,0,0,0,0,0,0,0,0,0,0,0,0,0,0,0,0,0,0,0,0,0,0,0,0,0,0,0,0,0,0,0,0,0,0,0,0,0,0,0,0,0,0,0,0,0,0,0,0,0],"sum_hessian":[1.847E3,4E2,1.447E3,3.51E2,4.9E1,1.266E3,1.81E2,3.09E2,4.2E1,1.156E3,1.1E2,2.7E1,2.82E2,3.43E2,8.13E2,2.4E1,2.58E2,5.1E1,7.62E2,5.4E1,2.04E2,3.8E1,7.24E2,2.01E2,3E0,7.08E2,1.6E1,1.88E2,1.3E1,1.1E1,6.97E2,5E0,1.83E2,6.74E2,2.3E1,3E0,1.8E2,6.17E2,5.7E1,4E0,1.76E2,5.98E2,1.9E1,7E0,1.69E2,2.9E1,5.69E2,1.65E2,4E0,5.13E2,5.6E1,3E0,1.62E2,5.09E2,4E0],"tree_param":{"num_deleted":"0","num_feature":"200","num_nodes":"55","size_leaf_vector":"1"}},{"base_weights":[-0E0,-0E0,-9.622297E-3,-0E0,-3.5763755E-2,-0E0,-6.260629E-2,-8.372343E-2,-0E0,-0E0,-1.0323096E-1,-0E0,-1.2013666E-1,-0E0,-1.3413692E-1,-1.5120816E-1,-0E0,-0E0,-1.7475496E-1,-1.8793027E-1,-0E0,-0E0,-2.0137998E-1,-0E0,-2.1871275E-1,-0E0,-2.290022E-1,-0E0,-1.7278315E-2],"categories":[],"categories_nodes":[],"categories_segments":[],"categories_sizes":[],"default_left":[0,0,0,0,0,0,0,0,0,0,0,0,0,0,0,0,0,0,0,0,0,0,0,0,0,0,0,0,0],"id":6,"left_children":[1,-1,3,-1,5,-1,7,9,-1,-1,11,-1,13,-1,15,17,-1,-1,19,21,-1,-1,23,-1,25,-1,27,-1,-1],"loss_changes":[1.2581666E-1,0E0,1.0558665E0,0E0,2.0201106E0,0E0,1.76016E0,2.1553802E0,0E0,0E0,2.0313182E0,0E0,2.0766144E0,0E0,1.9187012E0,2.6105986E0,0E0,0E0,2.2178955E0,2.2184486E0,0E0,0E0,2.0466766E0,0E0,1.8269176E0,0E0,1.7710724E0,0E0,0E0],"parents":[2147483647,0,0,2,2,4,4,6,6,7,7,10,10,12,12,14,14,15,15,18,18,19,19,22,22,24,24,26,26],"right_children":[2,-1,4,-1,6,-1,8,10,-1,-1,12,-1,14,-1,16,18,-1,-1,20,22,-1,-1,24,-1,26,-1,28,-1,-1],"split_conditions":[4.031258E3,-0E0,4.748082E3,-0E0,-3.7220663E2,-0E0,1E0,0E0,-0E0,-0E0,-1.5625E4,-0E0,-3.528751E4,-0E0,9.750985E-1,-9.317E3,-0E0,-0E0,4.541352E1,1.0077747E4,-0E0,-0E0,-9.708824E-1,-0E0,-6.72723E3,-0E0,5.0650993E1,-0E0,-1.7278315E-2],"split_indices":[16,0,89,0,97,0,154,161,0,0,31,0,34,0,7,65,0,0,21,53,0,0,6,0,66,0,41,0,0],"split_type":[0,0,0,0,0,0,0,0,0,0,0,0,0,0,0,0,0,0,0,0,0,0,0,0,0,0,0,0,0],"sum_hessian":[1.897E3,5.45E2,1.352E3,4.35E2,9.17E2,1.07E2,8.1E2,7.01E2,1.09E2,4E1,6.61E2,3.4E1,6.27E2,1E1,6.17E2,5.68E2,4.9E1,5.9E1,5.09E2,5.02E2,7E0,1.1E1,4.91E2,3.3E1,4.58E2,6E0,4.52E2,1.1E1,4.41E2],"tree_param":{"num_deleted":"0","num_feature":"200","num_nodes":"29","size_leaf_vector":"1"}},{"base_weights":[-0E0],"categories":[],"categories_nodes":[],"categories_segments":[],"categories_sizes":[],"default_left":[0],"id":7,"left_children":[-1],"loss_changes":[0E0],"parents":[2147483647],"right_children":[-1],"split_conditions":[-0E0],"split_indices":[0],"split_type":[0],"sum_hessian":[1.869E3],"tree_param":{"num_deleted":"0","num_feature":"200","num_nodes":"1","size_leaf_vector":"1"}},{"base_weights":[-0E0],"categories":[],"categories_nodes":[],"categories_segments":[],"categories_sizes":[],"default_left":[0],"id":8,"left_children":[-1],"loss_changes":[0E0],"parents":[2147483647],"right_children":[-1],"split_conditions":[-0E0],"split_indices":[0],"split_type":[0],"sum_hessian":[1.836E3],"tree_param":{"num_deleted":"0","num_feature":"200","num_nodes":"1","size_leaf_vector":"1"}},{"base_weights":[-0E0],"categories":[],"categories_nodes":[],"categories_segments":[],"categories_sizes":[],"default_left":[0],"id":9,"left_children":[-1],"loss_changes":[0E0],"parents":[2147483647],"right_children":[-1],"split_conditions":[-0E0],"split_indices":[0],"split_type":[0],"sum_hessian":[1.825E3],"tree_param":{"num_deleted":"0","num_feature":"200","num_nodes":"1","size_leaf_vector":"1"}},{"base_weights":[-0E0],"categories":[],"categories_nodes":[],"categories_segments":[],"categories_sizes":[],"default_left":[0],"id":10,"left_children":[-1],"loss_changes":[0E0],"parents":[2147483647],"right_children":[-1],"split_conditions":[-0E0],"split_indices":[0],"split_type":[0],"sum_hessian":[1.904E3],"tree_param":{"num_deleted":"0","num_feature":"200","num_nodes":"1","size_leaf_vector":"1"}},{"base_weights":[-0E0,1.9762164E-2,-0E0,5.323508E-2,-0E0,7.328462E-2,-0E0,9.3852594E-2,-0E0,-0E0,1.1585883E-1,1.3062635E-1,-0E0,1.4374582E-1,-0E0,1.5448283E-1,-0E0,1.6405818E-1,-0E0,-0E0,1.7380704E-1,-0E0,1.839658E-1,1.9072485E-1,-0E0,-0E0,2.013548E-1,1.5017284E-2,-0E0],"categories":[],"categories_nodes":[],"categories_segments":[],"categories_sizes":[],"default_left":[0,0,0,0,0,0,0,0,0,0,0,0,0,0,0,0,0,0,0,0,0,0,0,0,0,0,0,0,0],"id":11,"left_children":[1,3,-1,5,-1,7,-1,9,-1,-1,11,13,-1,15,-1,17,-1,19,-1,-1,21,-1,23,25,-1,-1,27,-1,-1],"loss_changes":[4.7016647E-1,1.9752083E0,0E0,1.8075159E0,0E0,2.281804E0,0E0,2.8062696E0,0E0,0E0,2.3452835E0,1.8247519E0,0E0,1.6880693E0,0E0,1.6734171E0,0E0,1.7023067E0,0E0,0E0,1.3548641E0,0E0,1.3458652E0,1.2213326E0,0E0,0E0,1.2026825E0,0E0,0E0],"parents":[2147483647,0,0,1,1,3,3,5,5,7,7,10,10,11,11,13,13,15,15,17,17,20,20,22,22,23,23,26,26],"right_children":[2,4,-1,6,-1,8,-1,10,-1,-1,12,14,-1,16,-1,18,-1,20,-1,-1,22,-1,24,26,-1,-1,28,-1,-1],"split_conditions":[3.27375E2,3.795205E5,-0E0,2.048389E3,-0E0,1E0,-0E0,-3.869857E3,-0E0,-0E0,1.6777408E4,3.8802872E5,-0E0,1.2326352E4,-0E0,1.9678088E4,-0E0,-1.2812743E4,-0E0,-0E0,0E0,-0E0,2.3204648E4,0E0,-0E0,-0E0,2.3204648E4,1.5017284E-2,-0E0],"split_indices":[65,101,0,13,0,104,0,35,0,0,38,103,0,29,0,63,0,29,0,0,114,0,59,112,0,0,57,0,0],"split_type":[0,0,0,0,0,0,0,0,0,0,0,0,0,0,0,0,0,0,0,0,0,0,0,0,0,0,0,0,0],"sum_hessian":[1.85E3,1.197E3,6.53E2,8.56E2,3.41E2,7.85E2,7.1E1,7.35E2,5E1,4.6E1,6.89E2,6.78E2,1.1E1,6.47E2,3.1E1,6.3E2,1.7E1,6.2E2,1E1,1.2E1,6.08E2,2.6E1,5.82E2,5.78E2,4E0,3E1,5.48E2,5.37E2,1.1E1],"tree_param":{"num_deleted":"0","num_feature":"200","num_nodes":"29","size_leaf_vector":"1"}},{"base_weights":[-0E0,-0E0,-1.4681706E-2,-0E0,4.4701695E-3,-4.393923E-2,-0E0,2.126537E-2,-0E0,-8.225357E-2,-0E0,3.3536352E-2,-0E0,-0E0,-1.1389878E-1,4.601062E-2,-0E0,-0E0,-1.4151865E-1,-0E0,5.9589975E-2,-0E0,-1.6856472E-1,-0E0,6.966784E-2,-1.9016887E-1,-0E0,8.0774605E-2,-0E0,-2.1751647E-1,-0E0,9.036312E-2,-0E0,-2.4551097E-1,-0E0,-0E0,9.991228E-2,-0E0,-2.9151365E-1,1.07494354E-1,-0E0,-3.151631E-1,-0E0,1.1478045E-1,-0E0,-3.4060895E-1,-0E0,1.2117661E-1,-0E0,-0E0,-3.5072577E-1,-0E0,9.191568E-3,-0E0,-2.6204566E-2],"categories":[],"categories_nodes":[],"categories_segments":[],"categories_sizes":[],"default_left":[0,0,0,0,0,0,0,0,0,0,0,0,0,0,0,0,0,0,0,0,0,0,0,0,0,0,0,0,0,0,0,0,0,0,0,0,0,0,0,0,0,0,0,0,0,0,0,0,0,0,0,0,0,0,0],"id":12,"left_children":[1,3,5,-1,7,9,-1,11,-1,13,-1,15,-1,-1,17,19,-1,-1,21,-1,23,-1,25,-1,27,29,-1,31,-1,33,-1,35,-1,37,-1,-1,39,-1,41,43,-1,45,-1,47,-1,49,-1,51,-1,-1,53,-1,-1,-1,-1],"loss_changes":[2.745877E-1,1.2606475E-2,1.651972E0,0E0,2.627381E-1,2.8762293E0,0E0,3.8583466E-1,0E0,2.6550694E0,0E0,5.304217E-1,0E0,0E0,3.3746E0,5.479404E-1,0E0,0E0,3.6268473E0,0E0,5.507715E-1,0E0,3.4375772E0,0E0,7.10181E-1,2.4894447E0,0E0,7.1381354E-1,0E0,2.9932919E0,0E0,6.7676306E-1,0E0,3.2088528E0,0E0,0E0,5.8774567E-1,0E0,3.4957752E0,5.528941E-1,0E0,2.5017128E0,0E0,5.455861E-1,0E0,1.349453E0,0E0,5.4838324E-1,0E0,0E0,1.3416405E0,0E0,0E0,0E0,0E0],"parents":[2147483647,0,0,1,1,2,2,4,4,5,5,7,7,9,9,11,11,14,14,15,15,18,18,20,20,22,22,24,24,25,25,27,27,29,29,31,31,33,33,36,36,38,38,39,39,41,41,43,43,45,45,47,47,50,50],"right_children":[2,4,6,-1,8,10,-1,12,-1,14,-1,16,-1,-1,18,20,-1,-1,22,-1,24,-1,26,-1,28,30,-1,32,-1,34,-1,36,-1,38,-1,-1,40,-1,42,44,-1,46,-1,48,-1,50,-1,52,-1,-1,54,-1,-1,-1,-1],"split_conditions":[8E3,-7.1891113E3,2.9415704E2,-0E0,-1.057497E3,2.875008E2,-0E0,1.4247744E4,-0E0,2.018995E4,-0E0,1E0,-0E0,-0E0,-6.3296515E2,8.565675E0,-0E0,-0E0,-9.640935E-1,-0E0,-8.489694E3,-0E0,9.691992E-1,-0E0,1.4690068E4,1.4115213E4,-0E0,4.7861156E4,-0E0,1E0,-0E0,-2.6905898E4,-0E0,2.613765E1,-0E0,-0E0,1.0489589E2,-0E0,1.1545064E5,4.6574224E3,-0E0,1.4351489E4,-0E0,4.6574224E3,-0E0,2.1146576E4,-0E0,1.3696725E3,-0E0,-0E0,-5.0752E4,-0E0,9.191568E-3,-0E0,-2.6204566E-2],"split_indices":[45,37,68,0,91,37,0,64,0,96,0,109,0,0,98,22,0,0,7,0,36,0,5,0,80,86,0,15,0,119,0,86,0,24,0,0,26,0,78,31,0,84,0,30,0,96,0,96,0,0,65,0,0,0,0],"split_type":[0,0,0,0,0,0,0,0,0,0,0,0,0,0,0,0,0,0,0,0,0,0,0,0,0,0,0,0,0,0,0,0,0,0,0,0,0,0,0,0,0,0,0,0,0,0,0,0,0,0,0,0,0,0,0],"sum_hessian":[1.914E3,6.47E2,1.267E3,2.3E1,6.24E2,9.91E2,2.76E2,6.02E2,2.2E1,7.03E2,2.88E2,5.81E2,2.1E1,1.35E2,5.68E2,5.56E2,2.5E1,3.4E1,5.34E2,7.3E1,4.83E2,3.2E1,5.02E2,1.8E1,4.65E2,4.88E2,1.4E1,4.53E2,1.2E1,4.24E2,6.4E1,4.48E2,5E0,3.81E2,4.3E1,1.5E1,4.33E2,7.5E1,3.06E2,4.24E2,9E0,2.96E2,1E1,4.13E2,1.1E1,2.74E2,2.2E1,4.07E2,6E0,5E0,2.69E2,8E0,3.99E2,1E1,2.59E2],"tree_param":{"num_deleted":"0","num_feature":"200","num_nodes":"55","size_leaf_vector":"1"}},{"base_weights":[-0E0],"categories":[],"categories_nodes":[],"categories_segments":[],"categories_sizes":[],"default_left":[0],"id":13,"left_children":[-1],"loss_changes":[0E0],"parents":[2147483647],"right_children":[-1],"split_conditions":[-0E0],"split_indices":[0],"split_type":[0],"sum_hessian":[1.844E3],"tree_param":{"num_deleted":"0","num_feature":"200","num_nodes":"1","size_leaf_vector":"1"}},{"base_weights":[-0E0,-0E0,-6.446054E-3,-3.8800187E-2,-0E0,-0E0,-6.0812548E-2,-7.454945E-2,-0E0,-0E0,-8.535924E-2,-0E0,-9.607923E-2,-1.05640724E-1,-0E0,-0E0,-1.15633614E-1,-0E0,-1.23590335E-1,-0E0,-1.3042496E-1,-0E0,-1.4148423E-1,-0E0,-1.5933259E-1,-0E0,-1.6682E-1,-1.2571149E-2,-0E0],"categories":[],"categories_nodes":[],"categories_segments":[],"categories_sizes":[],"default_left":[0,0,0,0,0,0,0,0,0,0,0,0,0,0,0,0,0,0,0,0,0,0,0,0,0,0,0,0,0],"id":14,"left_children":[1,-1,3,5,-1,-1,7,9,-1,-1,11,-1,13,15,-1,-1,17,-1,19,-1,21,-1,23,-1,25,-1,27,-1,-1],"loss_changes":[3.755761E-2,0E0,1.0747904E0,9.7666633E-1,0E0,0E0,9.614439E-1,9.196348E-1,0E0,0E0,7.92094E-1,0E0,7.048383E-1,7.890396E-1,0E0,0E0,7.6838064E-1,0E0,6.96332E-1,0E0,7.4431324E-1,0E0,8.9958E-1,0E0,7.6167107E-1,0E0,7.100506E-1,0E0,0E0],"parents":[2147483647,0,0,2,2,3,3,6,6,7,7,10,10,12,12,13,13,16,16,18,18,20,20,22,22,24,24,26,26],"right_children":[2,-1,4,6,-1,-1,8,10,-1,-1,12,-1,14,16,-1,-1,18,-1,20,-1,22,-1,24,-1,26,-1,28,-1,-1],"split_conditions":[8.725014E0,-0E0,6.8524136E3,0E0,-0E0,-0E0,3.1169451E4,-1.272639E5,-0E0,-0E0,-9.129361E3,-0E0,1.1089549E4,0E0,-0E0,-0E0,2E0,-0E0,-8.693549E4,-0E0,6.23E2,-0E0,1.4411635E3,-0E0,-9.95927E4,-0E0,1.554043E2,-1.2571149E-2,-0E0],"split_indices":[93,0,78,164,0,0,62,31,0,0,39,0,39,146,0,0,1,0,62,0,196,0,89,0,85,0,26,0,0],"split_type":[0,0,0,0,0,0,0,0,0,0,0,0,0,0,0,0,0,0,0,0,0,0,0,0,0,0,0,0,0],"sum_hessian":[1.92E3,1.023E3,8.97E2,7.32E2,1.65E2,1.74E2,5.58E2,5.42E2,1.6E1,4E0,5.38E2,2.9E1,5.09E2,4.83E2,2.6E1,2.2E1,4.61E2,8E0,4.53E2,6E0,4.47E2,3.1E1,4.16E2,5.4E1,3.62E2,5E0,3.57E2,3.48E2,9E0],"tree_param":{"num_deleted":"0","num_feature":"200","num_nodes":"29","size_leaf_vector":"1"}},{"base_weights":[-0E0],"categories":[],"categories_nodes":[],"categories_segments":[],"categories_sizes":[],"default_left":[0],"id":15,"left_children":[-1],"loss_changes":[0E0],"parents":[2147483647],"right_children":[-1],"split_conditions":[-0E0],"split_indices":[0],"split_type":[0],"sum_hessian":[1.898E3],"tree_param":{"num_deleted":"0","num_feature":"200","num_nodes":"1","size_leaf_vector":"1"}},{"base_weights":[-0E0,-0E0,2.6656158E-2,5.967563E-2,-0E0,-0E0,1.04390904E-1,1.23314634E-1,-0E0,-0E0,1.3769788E-1,1.4673798E-1,-0E0,-0E0,1.5392847E-1,-0E0,1.5974136E-1,-0E0,1.6665171E-1,1.7880931E-1,-0E0,1.8720286E-1,-0E0,1.9522442E-1,-0E0,1.9974768E-1,-0E0,1.5244012E-2,-0E0],"categories":[],"categories_nodes":[],"categories_segments":[],"categories_sizes":[],"default_left":[0,0,0,0,0,0,0,0,0,0,0,0,0,0,0,0,0,0,0,0,0,0,0,0,0,0,0,0,0],"id":16,"left_children":[1,-1,3,5,-1,-1,7,9,-1,-1,11,13,-1,-1,15,-1,17,-1,19,21,-1,23,-1,25,-1,27,-1,-1,-1],"loss_changes":[9.676838E-1,0E0,2.0517647E0,3.277959E0,0E0,0E0,2.2620034E0,2.0183573E0,0E0,0E0,1.2407007E0,1.0681734E0,0E0,0E0,8.385649E-1,0E0,8.2436085E-1,0E0,8.25449E-1,8.815613E-1,0E0,8.8944817E-1,0E0,6.4413834E-1,0E0,9.728985E-1,0E0,0E0,0E0],"parents":[2147483647,0,0,2,2,3,3,6,6,7,7,10,10,11,11,14,14,16,16,18,18,19,19,21,21,23,23,25,25],"right_children":[2,-1,4,6,-1,-1,8,10,-1,-1,12,14,-1,-1,16,-1,18,-1,20,22,-1,24,-1,26,-1,28,-1,-1,-1],"split_conditions":[-2.653514E3,-0E0,2.1953148E1,4.8108345E1,-0E0,-0E0,1E0,-9.994446E-1,-0E0,-0E0,9.116487E4,-1.4875489E5,-0E0,-0E0,-4.9954272E3,-0E0,-4.0158984E4,-0E0,1.7090862E3,1.529099E2,-0E0,1.1390625E4,-0E0,-1.2318574E3,-0E0,5.8324747E0,-0E0,1.5244012E-2,-0E0],"split_indices":[82,0,31,26,0,0,109,6,0,0,77,75,0,0,69,0,59,0,52,26,0,37,0,91,0,31,0,0,0],"split_type":[0,0,0,0,0,0,0,0,0,0,0,0,0,0,0,0,0,0,0,0,0,0,0,0,0,0,0,0,0],"sum_hessian":[1.846E3,4.91E2,1.355E3,8.41E2,5.14E2,2.7E2,5.71E2,5.56E2,1.5E1,5E0,5.51E2,5.42E2,9E0,5E0,5.37E2,6E0,5.31E2,1.4E1,5.17E2,4.74E2,4.3E1,4.57E2,1.7E1,4.43E2,1.4E1,4.39E2,4E0,4.11E2,2.8E1],"tree_param":{"num_deleted":"0","num_feature":"200","num_nodes":"29","size_leaf_vector":"1"}},{"base_weights":[-0E0],"categories":[],"categories_nodes":[],"categories_segments":[],"categories_sizes":[],"default_left":[0],"id":17,"left_children":[-1],"loss_changes":[0E0],"parents":[2147483647],"right_children":[-1],"split_conditions":[-0E0],"split_indices":[0],"split_type":[0],"sum_hessian":[1.889E3],"tree_param":{"num_deleted":"0","num_feature":"200","num_nodes":"1","size_leaf_vector":"1"}},{"base_weights":[-0E0],"categories":[],"categories_nodes":[],"categories_segments":[],"categories_sizes":[],"default_left":[0],"id":18,"left_children":[-1],"loss_changes":[0E0],"parents":[2147483647],"right_children":[-1],"split_conditions":[-0E0],"split_indices":[0],"split_type":[0],"sum_hessian":[1.85E3],"tree_param":{"num_deleted":"0","num_feature":"200","num_nodes":"1","size_leaf_vector":"1"}},{"base_weights":[-0E0,1.4984079E-2,-0E0,-0E0,3.7327714E-2,-0E0,-4.0453314E-3,-0E0,6.774171E-2,-0E0,-3.034234E-2,-0E0,9.6533574E-2,-0E0,-6.75221E-2,-0E0,1.1892904E-1,-1.089977E-1,-0E0,1.4238544E-1,-0E0,-0E0,-1.3876134E-1,-0E0,1.5671913E-1,-0E0,-1.61426E-1,-0E0,1.6876234E-1,-0E0,-1.8961316E-1,1.9451423E-1,-0E0,-2.0564605E-1,-0E0,2.0478332E-1,-0E0,-0E0,-2.2432455E-1,-0E0,2.2031985E-1,-2.3753726E-1,-0E0,2.375488E-1,-0E0,-0E0,-2.477786E-1,-0E0,2.51972E-1,-0E0,-2.558767E-1,-0E0,1.9038104E-2,-1.9193504E-2,-0E0],"categories":[],"categories_nodes":[],"categories_segments":[],"categories_sizes":[],"default_left":[0,0,0,0,0,0,0,0,0,0,0,0,0,0,0,0,0,0,0,0,0,0,0,0,0,0,0,0,0,0,0,0,0,0,0,0,0,0,0,0,0,0,0,0,0,0,0,0,0,0,0,0,0,0,0],"id":19,"left_children":[1,3,5,-1,7,-1,9,-1,11,-1,13,-1,15,-1,17,-1,19,21,-1,23,-1,-1,25,-1,27,-1,29,-1,31,-1,33,35,-1,37,-1,39,-1,-1,41,-1,43,45,-1,47,-1,-1,49,-1,51,-1,53,-1,-1,-1,-1],"loss_changes":[2.7389032E-1,1.3060088E0,8.491293E-3,0E0,2.1182282E0,0E0,4.07534E-1,0E0,2.4604206E0,0E0,9.19276E-1,0E0,2.312059E0,0E0,1.6333798E0,0E0,2.697688E0,1.6693642E0,0E0,1.4775763E0,0E0,0E0,1.3782673E0,0E0,1.6479912E0,0E0,1.565433E0,0E0,1.5547333E0,0E0,1.2094979E0,1.5498343E0,0E0,1.0656567E0,0E0,1.6236782E0,0E0,0E0,9.6964073E-1,0E0,1.5113449E0,4.625368E-1,0E0,1.3628368E0,0E0,0E0,4.2261028E-1,0E0,1.4862118E0,0E0,5.227823E-1,0E0,0E0,0E0,0E0],"parents":[2147483647,0,0,1,1,2,2,4,4,6,6,8,8,10,10,12,12,14,14,16,16,17,17,19,19,22,22,24,24,26,26,28,28,30,30,31,31,33,33,35,35,38,38,40,40,41,41,43,43,46,46,48,48,50,50],"right_children":[2,4,6,-1,8,-1,10,-1,12,-1,14,-1,16,-1,18,-1,20,22,-1,24,-1,-1,26,-1,28,-1,30,-1,32,-1,34,36,-1,38,-1,40,-1,-1,42,-1,44,46,-1,48,-1,-1,50,-1,52,-1,54,-1,-1,-1,-1],"split_conditions":[6.891977E1,-1.4344789E4,-6.684574E11,-0E0,1.367622E3,-0E0,-2.863437E2,-0E0,-6.6739624E3,-0E0,7.288493E0,-0E0,1.0718268E1,-0E0,8.9645624E-1,-0E0,1.2700654E12,-9.9532205E-1,-0E0,0E0,-0E0,-0E0,-4.6962814E1,-0E0,-6.6436915E6,-0E0,2.056806E1,-0E0,2.017E3,-0E0,1.384894E15,2.0329798E5,-0E0,1.3861222E1,-0E0,3.6821334E0,-0E0,-0E0,1.578594E2,-0E0,9.657866E-1,9.1125E1,-0E0,2.4572578E1,-0E0,-0E0,0E0,-0E0,0E0,-0E0,-3.8538271E3,-0E0,1.9038104E-2,-1.9193504E-2,-0E0],"split_indices":[33,55,12,0,41,0,68,0,84,0,19,0,22,0,6,0,18,7,0,117,0,0,74,0,17,0,24,0,2,0,18,41,0,23,0,19,0,0,26,0,7,33,0,25,0,0,108,0,111,0,91,0,0,0,0],"split_type":[0,0,0,0,0,0,0,0,0,0,0,0,0,0,0,0,0,0,0,0,0,0,0,0,0,0,0,0,0,0,0,0,0,0,0,0,0,0,0,0,0,0,0,0,0,0,0,0,0,0,0,0,0,0,0],"sum_hessian":[1.831E3,1.213E3,6.18E2,8.6E1,1.127E3,1.06E2,5.12E2,3.28E2,7.99E2,6.7E1,4.45E2,1.45E2,6.54E2,1.59E2,2.86E2,6.2E1,5.92E2,2.43E2,4.3E1,5.44E2,4.8E1,9E0,2.34E2,3.6E1,5.08E2,1E1,2.24E2,1.3E1,4.95E2,2E1,2.04E2,4.12E2,8.3E1,2.01E2,3E0,4.08E2,4E0,1.2E1,1.89E2,2.3E1,3.85E2,1.85E2,4E0,3.57E2,2.8E1,8E0,1.77E2,1.9E1,3.38E2,5E0,1.72E2,1.1E1,3.27E2,1.65E2,7E0],"tree_param":{"num_deleted":"0","num_feature":"200","num_nodes":"55","size_leaf_vector":"1"}},{"base_weights":[-0E0,-1.6154146E-3,-0E0,-0E0,-5.3255327E-2,-0E0,1.9668394E-3,-7.633737E-2,-0E0,-0E0,2.4360472E-2,-0E0,-9.690236E-2,-0E0,4.9564578E-2,-0E0,-1.1845549E-1,7.178751E-2,-0E0,-1.3529743E-1,-0E0,-0E0,9.488855E-2,-1.581071E-1,-0E0,-0E0,1.2030743E-1,-1.7852794E-1,-0E0,1.4413545E-1,-0E0,-1.958532E-1,-0E0,-0E0,1.7554829E-1,-0E0,-2.1554145E-1,-0E0,1.9564815E-1,-0E0,-2.3004502E-1,-0E0,2.209351E-1,-0E0,-2.4806337E-1,2.4008279E-1,-0E0,-0E0,-2.713539E-1,-0E0,2.585054E-1,-2.036902E-2,-0E0,-0E0,1.9520111E-2],"categories":[],"categories_nodes":[],"categories_segments":[],"categories_sizes":[],"default_left":[0,0,0,0,0,0,0,0,0,0,0,0,0,0,0,0,0,0,0,0,0,0,0,0,0,0,0,0,0,0,0,0,0,0,0,0,0,0,0,0,0,0,0,0,0,0,0,0,0,0,0,0,0,0,0],"id":20,"left_children":[1,3,5,-1,7,-1,9,11,-1,-1,13,-1,15,-1,17,-1,19,21,-1,23,-1,-1,25,27,-1,-1,29,31,-1,33,-1,35,-1,-1,37,-1,39,-1,41,-1,43,-1,45,-1,47,49,-1,-1,51,-1,53,-1,-1,-1,-1],"loss_changes":[3.3399253E-3,2.4126978E0,2.0188643E-3,0E0,2.1461027E0,0E0,2.6079965E-1,2.3759785E0,0E0,0E0,7.3428166E-1,0E0,2.3070679E0,0E0,1.0688055E0,0E0,2.2117662E0,1.246412E0,0E0,2.2388334E0,0E0,0E0,1.6649368E0,2.2683249E0,0E0,0E0,1.5851293E0,2.5583687E0,0E0,1.8777838E0,0E0,2.4709415E0,0E0,0E0,1.8137369E0,0E0,2.549862E0,0E0,1.9920549E0,0E0,2.6017952E0,0E0,1.9264135E0,0E0,2.2682877E0,1.5902157E0,0E0,0E0,1.8799992E0,0E0,1.3828697E0,0E0,0E0,0E0,0E0],"parents":[2147483647,0,0,1,1,2,2,4,4,6,6,7,7,10,10,12,12,14,14,16,16,17,17,19,19,22,22,23,23,26,26,27,27,29,29,31,31,34,34,36,36,38,38,40,40,42,42,44,44,45,45,48,48,50,50],"right_children":[2,4,6,-1,8,-1,10,12,-1,-1,14,-1,16,-1,18,-1,20,22,-1,24,-1,-1,26,28,-1,-1,30,32,-1,34,-1,36,-1,-1,38,-1,40,-1,42,-1,44,-1,46,-1,48,50,-1,-1,52,-1,54,-1,-1,-1,-1],"split_conditions":[1.0382785E2,1.6002915E4,-4.330786E3,-0E0,3.2750197E4,-0E0,-1.7569336E2,6E0,-0E0,-0E0,1.8119816E4,-0E0,7.04192E4,-0E0,8.159003E10,-0E0,2.0376043E4,3.5351305E0,-0E0,1E0,-0E0,-0E0,3E0,3.027951E4,-0E0,-0E0,9.701047E-1,1.9465162E4,-0E0,1.9683E4,-0E0,2.0537518E2,-0E0,-0E0,-3.528751E4,-0E0,-8.463751E4,-0E0,0E0,-0E0,-1.7373783E4,-0E0,4.173262E3,-0E0,4.7685226E1,-9.95927E4,-0E0,-0E0,-5.9181464E2,-0E0,-5.522767E3,-2.036902E-2,-0E0,-0E0,1.9520111E-2],"split_indices":[35,49,28,0,78,0,70,0,0,0,99,0,101,0,11,0,64,20,0,153,0,0,1,81,0,0,7,36,0,53,0,41,0,0,36,0,77,0,108,0,36,0,34,0,26,77,0,0,88,0,66,0,0,0,0],"split_type":[0,0,0,0,0,0,0,0,0,0,0,0,0,0,0,0,0,0,0,0,0,0,0,0,0,0,0,0,0,0,0,0,0,0,0,0,0,0,0,0,0,0,0,0,0,0,0,0,0,0,0,0,0,0,0],"sum_hessian":[1.846E3,1.273E3,5.73E2,4.28E2,8.45E2,5.8E1,5.15E2,7.76E2,6.9E1,7.9E1,4.36E2,4.4E1,7.32E2,3.7E1,3.99E2,8E1,6.52E2,3.94E2,5E0,6.19E2,3.3E1,3.3E1,3.61E2,5.41E2,7.8E1,2.4E1,3.37E2,4.94E2,4.7E1,3.09E2,2.8E1,4.76E2,1.8E1,4.2E1,2.67E2,3.1E1,4.45E2,6E0,2.61E2,7E0,4.38E2,1.7E1,2.44E2,2E1,4.18E2,2.39E2,5E0,3.9E1,3.79E2,1E1,2.29E2,3.71E2,8E0,3E0,2.26E2],"tree_param":{"num_deleted":"0","num_feature":"200","num_nodes":"55","size_leaf_vector":"1"}},{"base_weights":[-0E0],"categories":[],"categories_nodes":[],"categories_segments":[],"categories_sizes":[],"default_left":[0],"id":21,"left_children":[-1],"loss_changes":[0E0],"parents":[2147483647],"right_children":[-1],"split_conditions":[-0E0],"split_indices":[0],"split_type":[0],"sum_hessian":[1.878E3],"tree_param":{"num_deleted":"0","num_feature":"200","num_nodes":"1","size_leaf_vector":"1"}},{"base_weights":[-0E0,-3.602806E-3,-0E0,-0E0,-2.8014094E-2,-0E0,-4.9343605E-2,-6.532727E-2,-0E0,-0E0,-7.791791E-2,-0E0,-1.1202407E-1,-0E0,-1.2467529E-1,-1.3808575E-1,-0E0,-0E0,-1.5641126E-1,-0E0,-1.6318168E-1,-1.7003416E-1,-0E0,-0E0,-1.7566127E-1,-0E0,-1.8078429E-1,-0E0,-1.53150195E-2],"categories":[],"categories_nodes":[],"categories_segments":[],"categories_sizes":[],"default_left":[0,0,0,0,0,0,0,0,0,0,0,0,0,0,0,0,0,0,0,0,0,0,0,0,0,0,0,0,0],"id":22,"left_children":[1,3,-1,-1,5,-1,7,9,-1,-1,11,-1,13,-1,15,17,-1,-1,19,-1,21,23,-1,-1,25,-1,27,-1,-1],"loss_changes":[1.5444875E-2,7.457055E-1,0E0,0E0,1.405518E0,0E0,1.4176409E0,1.2901275E0,0E0,0E0,1.8756104E0,0E0,1.4241691E0,0E0,1.5098438E0,1.7134161E0,0E0,0E0,8.482866E-1,0E0,8.4768295E-1,6.9583035E-1,0E0,0E0,7.1798515E-1,0E0,8.507252E-1,0E0,0E0],"parents":[2147483647,0,0,1,1,4,4,6,6,7,7,10,10,12,12,14,14,15,15,18,18,20,20,21,21,24,24,26,26],"right_children":[2,4,-1,-1,6,-1,8,10,-1,-1,12,-1,14,-1,16,18,-1,-1,20,-1,22,24,-1,-1,26,-1,28,-1,-1],"split_conditions":[2.1775264E2,8.043E2,-0E0,-0E0,-9.724051E3,-0E0,3.027951E4,-1.0360128E4,-0E0,-0E0,2.5745823E1,-0E0,-3.528751E4,-0E0,2.7287512E4,0E0,-0E0,-0E0,-2.1865566E14,-0E0,6.4481074E4,-3.528751E4,-0E0,-0E0,2.4945867E0,-0E0,6.7498417E0,-0E0,-1.53150195E-2],"split_indices":[61,197,0,0,60,0,79,32,0,0,24,0,31,0,60,123,0,0,18,0,62,28,0,0,20,0,19,0,0],"split_type":[0,0,0,0,0,0,0,0,0,0,0,0,0,0,0,0,0,0,0,0,0,0,0,0,0,0,0,0,0],"sum_hessian":[1.888E3,1.183E3,7.05E2,2.2E2,9.63E2,8E1,8.83E2,8.33E2,5E1,3.7E1,7.96E2,2.65E2,5.31E2,1.2E1,5.19E2,5.01E2,1.8E1,4.2E1,4.59E2,6E0,4.53E2,4.46E2,7E0,6E0,4.4E2,3E0,4.37E2,1.05E2,3.32E2],"tree_param":{"num_deleted":"0","num_feature":"200","num_nodes":"29","size_leaf_vector":"1"}},{"base_weights":[-0E0],"categories":[],"categories_nodes":[],"categories_segments":[],"categories_sizes":[],"default_left":[0],"id":23,"left_children":[-1],"loss_changes":[0E0],"parents":[2147483647],"right_children":[-1],"split_conditions":[-0E0],"split_indices":[0],"split_type":[0],"sum_hessian":[1.872E3],"tree_param":{"num_deleted":"0","num_feature":"200","num_nodes":"1","size_leaf_vector":"1"}},{"base_weights":[-0E0],"categories":[],"categories_nodes":[],"categories_segments":[],"categories_sizes":[],"default_left":[0],"id":24,"left_children":[-1],"loss_changes":[0E0],"parents":[2147483647],"right_children":[-1],"split_conditions":[-0E0],"split_indices":[0],"split_type":[0],"sum_hessian":[1.893E3],"tree_param":{"num_deleted":"0","num_feature":"200","num_nodes":"1","size_leaf_vector":"1"}},{"base_weights":[-0E0],"categories":[],"categories_nodes":[],"categories_segments":[],"categories_sizes":[],"default_left":[0],"id":25,"left_children":[-1],"loss_changes":[0E0],"parents":[2147483647],"right_children":[-1],"split_conditions":[-0E0],"split_indices":[0],"split_type":[0],"sum_hessian":[1.858E3],"tree_param":{"num_deleted":"0","num_feature":"200","num_nodes":"1","size_leaf_vector":"1"}},{"base_weights":[-0E0],"categories":[],"categories_nodes":[],"categories_segments":[],"categories_sizes":[],"default_left":[0],"id":26,"left_children":[-1],"loss_changes":[0E0],"parents":[2147483647],"right_children":[-1],"split_conditions":[-0E0],"split_indices":[0],"split_type":[0],"sum_hessian":[1.896E3],"tree_param":{"num_deleted":"0","num_feature":"200","num_nodes":"1","size_leaf_vector":"1"}},{"base_weights":[-0E0,-0E0,4.7381483E-3,4.782283E-2,-0E0,6.855749E-2,-0E0,-0E0,9.476013E-2,-0E0,1.07857004E-1,1.512361E-1,-0E0,-0E0,1.6457096E-1,-0E0,1.822773E-1,-0E0,1.9622192E-1,-0E0,2.0575309E-1,2.1369724E-1,-0E0,-0E0,2.2074975E-1,-0E0,2.3036051E-1,-0E0,1.7166797E-2],"categories":[],"categories_nodes":[],"categories_segments":[],"categories_sizes":[],"default_left":[0,0,0,0,0,0,0,0,0,0,0,0,0,0,0,0,0,0,0,0,0,0,0,0,0,0,0,0,0],"id":27,"left_children":[1,-1,3,5,-1,7,-1,-1,9,-1,11,13,-1,-1,15,-1,17,-1,19,-1,21,23,-1,-1,25,-1,27,-1,-1],"loss_changes":[3.439075E-2,0E0,2.7669344E0,2.48575E0,0E0,3.197443E0,0E0,0E0,1.5883617E0,0E0,1.2919025E0,1.8487225E0,0E0,0E0,1.6008139E0,0E0,1.5447931E0,0E0,1.4161606E0,0E0,1.0794468E0,1.0213833E0,0E0,0E0,8.131733E-1,0E0,7.140484E-1,0E0,0E0],"parents":[2147483647,0,0,2,2,3,3,5,5,8,8,10,10,11,11,14,14,16,16,18,18,20,20,21,21,24,24,26,26],"right_children":[2,-1,4,6,-1,8,-1,-1,10,-1,12,14,-1,-1,16,-1,18,-1,20,-1,22,24,-1,-1,26,-1,28,-1,-1],"split_conditions":[-6.6739624E3,-0E0,6.14125E2,1.9815557E4,-0E0,-2.4897012E3,-0E0,-0E0,0E0,-0E0,2.014E3,-7.785422E4,-0E0,-0E0,1.3560274E1,-0E0,4.3805614E-2,-0E0,-1.1494855E5,-0E0,1.078351E4,-6.734977E5,-0E0,-0E0,3.071155E3,-0E0,0E0,-0E0,1.7166797E-2],"split_indices":[84,0,33,85,0,61,0,0,158,0,2,33,0,0,24,0,5,0,60,0,64,88,0,0,94,0,111,0,0],"split_type":[0,0,0,0,0,0,0,0,0,0,0,0,0,0,0,0,0,0,0,0,0,0,0,0,0,0,0,0,0],"sum_hessian":[1.869E3,3.44E2,1.525E3,1.218E3,3.07E2,1.118E3,1E2,1.8E2,9.38E2,7.9E1,8.59E2,4.9E2,3.69E2,9E0,4.81E2,4.2E1,4.39E2,2.1E1,4.18E2,5E0,4.13E2,4.06E2,7E0,5E0,4.01E2,1.8E1,3.83E2,1.4E1,3.69E2],"tree_param":{"num_deleted":"0","num_feature":"200","num_nodes":"29","size_leaf_vector":"1"}},{"base_weights":[-0E0,-1.4230895E-2,-0E0,-6.2267598E-2,-0E0,-0E0,-1.1164767E-1,-0E0,-1.4869425E-1,-1.71813E-1,-0E0,-0E0,-1.9119996E-1,-0E0,-2.0505133E-1,-2.1416864E-1,-0E0,-0E0,-2.2199719E-1,-2.3047435E-1,-0E0,-2.4073036E-1,-0E0,-2.4922685E-1,-0E0,-0E0,-2.5591937E-1,-0E0,-1.8808402E-2],"categories":[],"categories_nodes":[],"categories_segments":[],"categories_sizes":[],"default_left":[0,0,0,0,0,0,0,0,0,0,0,0,0,0,0,0,0,0,0,0,0,0,0,0,0,0,0,0,0],"id":28,"left_children":[1,3,-1,5,-1,-1,7,-1,9,11,-1,-1,13,-1,15,17,-1,-1,19,21,-1,23,-1,25,-1,-1,27,-1,-1],"loss_changes":[3.1833425E-1,2.7868745E0,0E0,4.7837486E0,0E0,0E0,4.711043E0,0E0,3.5141697E0,2.2332115E0,0E0,0E0,1.9557495E0,0E0,1.4328213E0,1.4209499E0,0E0,0E0,1.3773537E0,1.4207973E0,0E0,1.3054543E0,0E0,1.1562405E0,0E0,0E0,1.035183E0,0E0,0E0],"parents":[2147483647,0,0,1,1,3,3,6,6,8,8,9,9,12,12,14,14,15,15,18,18,19,19,21,21,23,23,26,26],"right_children":[2,4,-1,6,-1,-1,8,-1,10,12,-1,-1,14,-1,16,18,-1,-1,20,22,-1,24,-1,26,-1,-1,28,-1,-1],"split_conditions":[9.7030615E2,2.7622847E1,-0E0,-6.8041284E3,-0E0,-0E0,-1.7991829E1,-0E0,5.7353623E3,4.228448E3,-0E0,-0E0,7.049603E2,-0E0,9.4486E4,-4.6656E4,-0E0,-0E0,4.4658363E4,-2.1498909E2,-0E0,2.3630405E3,-0E0,-1.9965348E4,-0E0,-0E0,5.501E2,-0E0,-1.8808402E-2],"split_indices":[35,85,0,64,0,0,74,0,37,94,0,0,43,0,0,29,0,0,86,67,0,64,0,50,0,0,199,0,0],"split_type":[0,0,0,0,0,0,0,0,0,0,0,0,0,0,0,0,0,0,0,0,0,0,0,0,0,0,0,0,0],"sum_hessian":[1.897E3,1.565E3,3.32E2,7.94E2,7.71E2,1.68E2,6.26E2,6.3E1,5.63E2,5.39E2,2.4E1,4.4E1,4.95E2,1.9E1,4.76E2,4.67E2,9E0,4E0,4.63E2,4.55E2,8E0,4.41E2,1.4E1,4.32E2,9E0,5E0,4.27E2,3E0,4.24E2],"tree_param":{"num_deleted":"0","num_feature":"200","num_nodes":"29","size_leaf_vector":"1"}},{"base_weights":[-0E0],"categories":[],"categories_nodes":[],"categories_segments":[],"categories_sizes":[],"default_left":[0],"id":29,"left_children":[-1],"loss_changes":[0E0],"parents":[2147483647],"right_children":[-1],"split_conditions":[-0E0],"split_indices":[0],"split_type":[0],"sum_hessian":[1.882E3],"tree_param":{"num_deleted":"0","num_feature":"200","num_nodes":"1","size_leaf_vector":"1"}},{"base_weights":[-0E0],"categories":[],"categories_nodes":[],"categories_segments":[],"categories_sizes":[],"default_left":[0],"id":30,"left_children":[-1],"loss_changes":[0E0],"parents":[2147483647],"right_children":[-1],"split_conditions":[-0E0],"split_indices":[0],"split_type":[0],"sum_hessian":[1.882E3],"tree_param":{"num_deleted":"0","num_feature":"200","num_nodes":"1","size_leaf_vector":"1"}},{"base_weights":[-0E0,-0E0,1.3552611E-2,-0E0,-1.5634963E-2,3.253224E-2,-0E0,-0E0,-5.196914E-2,-0E0,6.361695E-2,-7.793212E-2,-0E0,8.213307E-2,-0E0,-0E0,-9.926374E-2,-0E0,9.48358E-2,-1.1840886E-1,-0E0,-0E0,1.0817588E-1,-0E0,-1.3447618E-1,-0E0,1.2148033E-1,-0E0,-1.5674053E-1,-0E0,1.36014E-1,-0E0,-1.7659974E-1,-0E0,1.4484519E-1,-1.8820113E-1,-0E0,1.5230456E-1,-0E0,-0E0,-2.04176E-1,1.5884736E-1,-0E0,-2.1634896E-1,-0E0,-0E0,1.6660549E-1,-2.2908342E-1,-0E0,-0E0,1.729491E-1,-0E0,-1.7786294E-2,-0E0,1.2841044E-2],"categories":[],"categories_nodes":[],"categories_segments":[],"categories_sizes":[],"default_left":[0,0,0,0,0,0,0,0,0,0,0,0,0,0,0,0,0,0,0,0,0,0,0,0,0,0,0,0,0,0,0,0,0,0,0,0,0,0,0,0,0,0,0,0,0,0,0,0,0,0,0,0,0,0,0],"id":31,"left_children":[1,3,5,-1,7,9,-1,-1,11,-1,13,15,-1,17,-1,-1,19,-1,21,23,-1,-1,25,-1,27,-1,29,-1,31,-1,33,-1,35,-1,37,39,-1,41,-1,-1,43,45,-1,47,-1,-1,49,51,-1,-1,53,-1,-1,-1,-1],"loss_changes":[1.6601829E-1,1.8233153E-1,7.482646E-1,0E0,1.4972324E0,1.0440291E0,0E0,0E0,1.9880404E0,0E0,1.2046673E0,1.8786011E0,0E0,1.0180585E0,0E0,0E0,2.0793276E0,0E0,9.3132305E-1,2.0290413E0,0E0,0E0,1.0249529E0,0E0,2.2331562E0,0E0,1.1678619E0,0E0,1.9245272E0,0E0,7.486429E-1,0E0,1.5555716E0,0E0,7.117071E-1,1.6357393E0,0E0,6.935892E-1,0E0,0E0,1.6198788E0,6.967144E-1,0E0,1.8895473E0,0E0,0E0,5.7872486E-1,1.8516979E0,0E0,0E0,6.039982E-1,0E0,0E0,0E0,0E0],"parents":[2147483647,0,0,1,1,2,2,4,4,5,5,8,8,10,10,11,11,13,13,16,16,18,18,19,19,22,22,24,24,26,26,28,28,30,30,32,32,34,34,35,35,37,37,40,40,41,41,43,43,46,46,47,47,50,50],"right_children":[2,4,6,-1,8,10,-1,-1,12,-1,14,16,-1,18,-1,-1,20,-1,22,24,-1,-1,26,-1,28,-1,30,-1,32,-1,34,-1,36,-1,38,40,-1,42,-1,-1,44,46,-1,48,-1,-1,50,52,-1,-1,54,-1,-1,-1,-1],"split_conditions":[-9.212524E3,-3.628746E2,3.4053814E8,-0E0,-8.5358766E11,-3.5103954E-2,-0E0,-0E0,1.5569472E4,-0E0,1.0515176E3,-2.3269037E4,-0E0,5.48E2,-0E0,-0E0,2.4389E4,-0E0,-8.0016586E4,-1.4875489E5,-0E0,-0E0,2.5154763E3,-0E0,9.80021E3,-0E0,-2.6905898E4,-0E0,-3.662858E4,-0E0,3.8472192E2,-0E0,4.541352E1,-0E0,1.6462E3,3.5790732E2,-0E0,-1.1017274E2,-0E0,-0E0,7.0263E4,-1.9683E4,-0E0,1E0,-0E0,-0E0,-3.8850552E2,-7.438925E4,-0E0,-0E0,-8.463751E4,-0E0,-1.7786294E-2,-0E0,1.2841044E-2],"split_indices":[88,68,17,0,12,69,0,0,66,0,69,85,0,198,0,0,31,0,17,83,0,0,47,0,47,0,86,0,15,0,89,0,21,0,196,41,0,88,0,0,0,38,0,175,0,0,70,86,0,0,81,0,0,0,0],"split_type":[0,0,0,0,0,0,0,0,0,0,0,0,0,0,0,0,0,0,0,0,0,0,0,0,0,0,0,0,0,0,0,0,0,0,0,0,0,0,0,0,0,0,0,0,0,0,0,0,0,0,0,0,0,0,0],"sum_hessian":[1.867E3,9.7E2,8.97E2,2.31E2,7.39E2,8.57E2,4E1,1.24E2,6.15E2,3.8E2,4.77E2,5.97E2,1.8E1,4.62E2,1.5E1,4.1E1,5.56E2,4E0,4.58E2,5.37E2,1.9E1,2.8E1,4.3E2,1E1,5.27E2,2.1E1,4.09E2,5E1,4.77E2,2.1E1,3.88E2,4.1E1,4.36E2,1.1E1,3.77E2,4.27E2,9E0,3.71E2,6E0,2.6E1,4.01E2,3.68E2,3E0,3.91E2,1E1,9E0,3.59E2,3.84E2,7E0,7E0,3.52E2,2.5E1,3.59E2,3E0,3.49E2],"tree_param":{"num_deleted":"0","num_feature":"200","num_nodes":"55","size_leaf_vector":"1"}},{"base_weights":[-0E0,-6.888445E-3,-0E0,-4.0800042E-2,-0E0,-7.699955E-2,-0E0,-0E0,-1.0520422E-1,-1.2785795E-1,-0E0,-1.4315674E-1,-0E0,-1.604887E-1,-0E0,-0E0,-1.7050622E-1,-0E0,-1.7715454E-1,-1.8563175E-1,-0E0,-0E0,-1.9379684E-1,-2.0021495E-1,-0E0,-0E0,-2.0845245E-1,-0E0,-1.5471842E-2],"categories":[],"categories_nodes":[],"categories_segments":[],"categories_sizes":[],"default_left":[0,0,0,0,0,0,0,0,0,0,0,0,0,0,0,0,0,0,0,0,0,0,0,0,0,0,0,0,0],"id":32,"left_children":[1,3,-1,5,-1,7,-1,-1,9,11,-1,13,-1,15,-1,-1,17,-1,19,21,-1,-1,23,25,-1,-1,27,-1,-1],"loss_changes":[6.42899E-2,1.5402241E0,0E0,3.5114331E0,0E0,3.172585E0,0E0,0E0,2.2046757E0,2.1490068E0,0E0,2.319252E0,0E0,1.693469E0,0E0,0E0,1.1044407E0,0E0,1.223423E0,1.1808605E0,0E0,0E0,1.197319E0,1.055191E0,0E0,0E0,1.1209507E0,0E0,0E0],"parents":[2147483647,0,0,1,1,3,3,5,5,8,8,9,9,11,11,13,13,16,16,18,18,19,19,22,22,23,23,26,26],"right_children":[2,4,-1,6,-1,8,-1,-1,10,12,-1,14,-1,16,-1,-1,18,-1,20,22,-1,-1,24,26,-1,-1,28,-1,-1],"split_conditions":[6.523456E-1,8.3354706E2,-0E0,2.3526306E3,-0E0,4.1172605E0,-0E0,-0E0,1E0,6.8145496E2,-0E0,2.6810254E3,-0E0,-3.528751E4,-0E0,-0E0,1.2349448E1,-0E0,1E0,4.3897177E2,-0E0,-0E0,9.782384E3,-1.7822285E6,-0E0,-0E0,-3.528751E4,-0E0,-1.5471842E-2],"split_indices":[7,63,0,35,0,19,0,0,148,37,0,90,0,34,0,0,25,0,154,43,0,0,93,17,0,0,31,0,0],"split_type":[0,0,0,0,0,0,0,0,0,0,0,0,0,0,0,0,0,0,0,0,0,0,0,0,0,0,0,0,0],"sum_hessian":[1.827E3,1.348E3,4.79E2,9.57E2,3.91E2,8.56E2,1.01E2,1.14E2,7.42E2,6.35E2,1.07E2,6.1E2,2.5E1,5.74E2,3.6E1,8E0,5.66E2,7E0,5.59E2,5.44E2,1.5E1,1.4E1,5.3E2,5.26E2,4E0,1.7E1,5.09E2,7E0,5.02E2],"tree_param":{"num_deleted":"0","num_feature":"200","num_nodes":"29","size_leaf_vector":"1"}},{"base_weights":[-0E0],"categories":[],"categories_nodes":[],"categories_segments":[],"categories_sizes":[],"default_left":[0],"id":33,"left_children":[-1],"loss_changes":[0E0],"parents":[2147483647],"right_children":[-1],"split_conditions":[-0E0],"split_indices":[0],"split_type":[0],"sum_hessian":[1.877E3],"tree_param":{"num_deleted":"0","num_feature":"200","num_nodes":"1","size_leaf_vector":"1"}},{"base_weights":[-0E0,6.527069E-4,-0E0,-0E0,2.1512013E-2,-0E0,4.371836E-2,7.227251E-2,-0E0,1.16944E-1,-0E0,1.3173251E-1,-0E0,-0E0,1.5055472E-1,1.678833E-1,-0E0,-0E0,1.777656E-1,-0E0,1.9816579E-1,-0E0,2.0960814E-1,2.1585204E-1,-0E0,-0E0,2.2161025E-1,1.6444333E-2,-0E0],"categories":[],"categories_nodes":[],"categories_segments":[],"categories_sizes":[],"default_left":[0,0,0,0,0,0,0,0,0,0,0,0,0,0,0,0,0,0,0,0,0,0,0,0,0,0,0,0,0],"id":34,"left_children":[1,3,-1,-1,5,-1,7,9,-1,11,-1,13,-1,-1,15,17,-1,-1,19,-1,21,-1,23,25,-1,-1,27,-1,-1],"loss_changes":[6.679574E-4,6.124417E-1,0E0,0E0,1.3705823E0,0E0,1.2854686E0,4.4150333E0,0E0,1.9622183E0,0E0,2.2508621E0,0E0,0E0,2.5581055E0,1.3726835E0,0E0,0E0,1.3280115E0,0E0,1.5112019E0,0E0,9.423332E-1,9.128609E-1,0E0,0E0,5.802498E-1,0E0,0E0],"parents":[2147483647,0,0,1,1,4,4,6,6,7,7,9,9,11,11,14,14,15,15,18,18,20,20,22,22,23,23,26,26],"right_children":[2,4,-1,-1,6,-1,8,10,-1,12,-1,14,-1,-1,16,18,-1,-1,20,-1,22,-1,24,26,-1,-1,28,-1,-1],"split_conditions":[7.5936676E2,-8.419807E3,-0E0,-0E0,-3.3574363E3,-0E0,1.9681932E1,6.1682423E1,-0E0,1.9683E4,-0E0,1.8119816E4,-0E0,-0E0,1.00507745E3,-5.1197654E-1,-0E0,-0E0,3.6821334E0,-0E0,0E0,-0E0,9.116487E4,-8.463751E4,-0E0,-0E0,1E0,1.6444333E-2,-0E0],"split_indices":[90,84,0,0,86,0,31,25,0,34,0,103,0,0,93,40,0,0,19,0,112,0,78,81,0,0,145,0,0],"split_type":[0,0,0,0,0,0,0,0,0,0,0,0,0,0,0,0,0,0,0,0,0,0,0,0,0,0,0,0,0],"sum_hessian":[1.876E3,1.561E3,3.15E2,2.43E2,1.318E3,2.87E2,1.031E3,6.19E2,4.12E2,5.55E2,6.4E1,5.49E2,6E0,3.1E1,5.18E2,5.06E2,1.2E1,1.2E1,4.94E2,6.4E1,4.3E2,1.2E1,4.18E2,4.14E2,4E0,3E0,4.11E2,3.97E2,1.4E1],"tree_param":{"num_deleted":"0","num_feature":"200","num_nodes":"29","size_leaf_vector":"1"}},{"base_weights":[-0E0,-4.9483697E-3,-0E0,-4.5221396E-2,-0E0,-0E0,-8.86909E-2,-1.2287083E-1,-0E0,-0E0,-1.4546391E-1,-0E0,-1.6344666E-1,-0E0,-1.7727897E-1,-0E0,-1.8836483E-1,-0E0,-1.9926192E-1,-0E0,-2.1050805E-1,-2.2133002E-1,-0E0,-0E0,-2.3319462E-1,-0E0,-2.420164E-1,-0E0,-1.8553408E-2],"categories":[],"categories_nodes":[],"categories_segments":[],"categories_sizes":[],"default_left":[0,0,0,0,0,0,0,0,0,0,0,0,0,0,0,0,0,0,0,0,0,0,0,0,0,0,0,0,0],"id":35,"left_children":[1,3,-1,5,-1,-1,7,9,-1,-1,11,-1,13,-1,15,-1,17,-1,19,-1,21,23,-1,-1,25,-1,27,-1,-1],"loss_changes":[2.2695882E-2,1.629395E0,0E0,3.5464292E0,0E0,0E0,3.8277955E0,2.9052114E0,0E0,0E0,2.2507906E0,0E0,2.2191925E0,0E0,1.7960892E0,0E0,1.8884602E0,0E0,1.7551785E0,0E0,1.7645321E0,1.6198139E0,0E0,0E0,1.6518154E0,0E0,1.7148457E0,0E0,0E0],"parents":[2147483647,0,0,1,1,3,3,6,6,7,7,10,10,12,12,14,14,16,16,18,18,20,20,21,21,24,24,26,26],"right_children":[2,4,-1,6,-1,-1,8,10,-1,-1,12,-1,14,-1,16,-1,18,-1,20,-1,22,24,-1,-1,26,-1,28,-1,-1],"split_conditions":[-5.600405E3,2.0285654E4,-0E0,-2.2831914E4,-0E0,-0E0,3.5816113E3,1.4091997E4,-0E0,-0E0,-8E3,-0E0,-3.528751E4,-0E0,-7.9870547E3,-0E0,-6.4957164E4,-0E0,8.518542E1,-0E0,4.8137555E4,-3.4137277E4,-0E0,-0E0,-1.1494855E5,-0E0,0E0,-0E0,-1.8553408E-2],"split_indices":[67,78,0,15,0,0,32,96,0,0,13,0,34,0,66,0,65,0,41,0,62,62,0,0,61,0,161,0,0],"split_type":[0,0,0,0,0,0,0,0,0,0,0,0,0,0,0,0,0,0,0,0,0,0,0,0,0,0,0,0,0],"sum_hessian":[1.906E3,9.2E2,9.86E2,8.01E2,1.19E2,1.47E2,6.54E2,5.91E2,6.3E1,3.4E1,5.57E2,3.3E1,5.24E2,9E0,5.15E2,9E0,5.06E2,7E0,4.99E2,1.3E1,4.86E2,4.75E2,1.1E1,1.8E1,4.57E2,5E0,4.52E2,2.9E1,4.23E2],"tree_param":{"num_deleted":"0","num_feature":"200","num_nodes":"29","size_leaf_vector":"1"}},{"base_weights":[-0E0,9.191247E-3,-0E0,-0E0,3.5981987E-2,-0E0,5.638326E-2,7.322059E-2,-0E0,-0E0,8.573181E-2,-0E0,9.771384E-2,-0E0,1.10374145E-1,1.2038323E-1,-0E0,-0E0,1.2733684E-1,1.3539302E-1,-0E0,-0E0,1.4173962E-1,-0E0,1.4897265E-1,1.6008388E-1,-0E0,-0E0,1.2488891E-2],"categories":[],"categories_nodes":[],"categories_segments":[],"categories_sizes":[],"default_left":[0,0,0,0,0,0,0,0,0,0,0,0,0,0,0,0,0,0,0,0,0,0,0,0,0,0,0,0,0],"id":36,"left_children":[1,3,-1,-1,5,-1,7,9,-1,-1,11,-1,13,-1,15,17,-1,-1,19,21,-1,-1,23,-1,25,27,-1,-1,-1],"loss_changes":[1.09896936E-1,1.3477819E0,0E0,0E0,1.7718716E0,0E0,2.013105E0,1.7462478E0,0E0,0E0,1.7654486E0,0E0,1.8794489E0,0E0,1.9436016E0,1.4301052E0,0E0,0E0,1.4068623E0,1.3182583E0,0E0,0E0,1.263073E0,0E0,1.3750801E0,2.6257153E0,0E0,0E0,0E0],"parents":[2147483647,0,0,1,1,4,4,6,6,7,7,10,10,12,12,14,14,15,15,18,18,19,19,22,22,24,24,25,25],"right_children":[2,4,-1,-1,6,-1,8,10,-1,-1,12,-1,14,-1,16,18,-1,-1,20,22,-1,-1,24,-1,26,28,-1,-1,-1],"split_conditions":[1.7699976E3,-4.612234E3,-0E0,-0E0,-1.4685168E4,-0E0,2.1558112E13,6.401172E-2,-0E0,-0E0,0E0,-0E0,4.6844397E0,-0E0,1.702191E5,-6.778865E3,-0E0,-0E0,1E0,-3.008016E4,-0E0,-0E0,-9.9639505E-1,-0E0,1.5588059E4,-2.9409587E3,-0E0,-0E0,1.2488891E-2],"split_indices":[85,65,0,0,84,0,18,40,0,0,111,0,21,0,78,95,0,0,109,36,0,0,6,0,65,66,0,0,0],"split_type":[0,0,0,0,0,0,0,0,0,0,0,0,0,0,0,0,0,0,0,0,0,0,0,0,0,0,0,0,0],"sum_hessian":[1.862E3,1.294E3,5.68E2,1.75E2,1.119E3,1.1E2,1.009E3,9.71E2,3.8E1,2.7E1,9.44E2,3.4E1,9.1E2,4.4E1,8.66E2,8.61E2,5E0,4E0,8.57E2,8.34E2,2.3E1,8E0,8.26E2,2.2E1,8.04E2,7.49E2,5.5E1,2.6E1,7.23E2],"tree_param":{"num_deleted":"0","num_feature":"200","num_nodes":"29","size_leaf_vector":"1"}},{"base_weights":[-0E0],"categories":[],"categories_nodes":[],"categories_segments":[],"categories_sizes":[],"default_left":[0],"id":37,"left_children":[-1],"loss_changes":[0E0],"parents":[2147483647],"right_children":[-1],"split_conditions":[-0E0],"split_indices":[0],"split_type":[0],"sum_hessian":[1.896E3],"tree_param":{"num_deleted":"0","num_feature":"200","num_nodes":"1","size_leaf_vector":"1"}},{"base_weights":[-0E0,-0E0,2.024108E-3,-0E0,-2.5954347E-2,-0E0,4.41164E-2,-5.727434E-2,-0E0,-0E0,6.332215E-2,-0E0,-7.9400025E-2,-0E0,7.9559445E-2,-9.695812E-2,-0E0,-0E0,9.596928E-2,-0E0,-1.3625531E-1,1.0980958E-1,-0E0,-1.7049074E-1,-0E0,-0E0,1.1775491E-1,-1.939773E-1,-0E0,-0E0,1.2780029E-1,-2.2280094E-1,-0E0,1.3680875E-1,-0E0,-2.4060711E-1,-0E0,-0E0,1.4596671E-1,-0E0,-2.559861E-1,1.519507E-1,-0E0,-2.6539075E-1,-0E0,1.570464E-1,-0E0,-0E0,-2.80911E-1,-0E0,1.6220279E-1,-2.078848E-2,-0E0,-0E0,1.2073985E-2],"categories":[],"categories_nodes":[],"categories_segments":[],"categories_sizes":[],"default_left":[0,0,0,0,0,0,0,0,0,0,0,0,0,0,0,0,0,0,0,0,0,0,0,0,0,0,0,0,0,0,0,0,0,0,0,0,0,0,0,0,0,0,0,0,0,0,0,0,0,0,0,0,0,0,0],"id":38,"left_children":[1,3,5,-1,7,-1,9,11,-1,-1,13,-1,15,-1,17,19,-1,-1,21,-1,23,25,-1,27,-1,-1,29,31,-1,-1,33,35,-1,37,-1,39,-1,-1,41,-1,43,45,-1,47,-1,49,-1,-1,51,-1,53,-1,-1,-1,-1],"loss_changes":[4.4078883E-3,4.5057535E-1,1.4628332E0,0E0,1.4253862E0,0E0,1.4593487E0,1.6158903E0,0E0,0E0,1.3388627E0,0E0,1.6210823E0,0E0,1.6094737E0,2.181055E0,0E0,0E0,1.6358318E0,0E0,2.527155E0,1.0846124E0,0E0,2.553629E0,0E0,0E0,1.1370602E0,2.3623505E0,0E0,0E0,1.0460768E0,1.9286728E0,0E0,1.04389E0,0E0,1.4777393E0,0E0,0E0,8.737564E-1,0E0,1.1463394E0,7.6715565E-1,0E0,9.0174866E-1,0E0,7.1444416E-1,0E0,0E0,8.409157E-1,0E0,7.197113E-1,0E0,0E0,0E0,0E0],"parents":[2147483647,0,0,1,1,2,2,4,4,6,6,7,7,10,10,12,12,14,14,15,15,18,18,20,20,21,21,23,23,26,26,27,27,30,30,31,31,33,33,35,35,38,38,40,40,41,41,43,43,45,45,48,48,50,50],"right_children":[2,4,6,-1,8,-1,10,12,-1,-1,14,-1,16,-1,18,20,-1,-1,22,-1,24,26,-1,28,-1,-1,30,32,-1,-1,34,36,-1,38,-1,40,-1,-1,42,-1,44,46,-1,48,-1,50,-1,-1,52,-1,54,-1,-1,-1,-1],"split_conditions":[-7.2905934E-1,2.0807666E-1,4.6E1,-0E0,-9.82375E2,-0E0,-1.0940976E4,-3.008016E4,-0E0,-0E0,3E0,-0E0,6.796833E1,-0E0,-9.7650886E-1,1.722062E4,-0E0,-0E0,3.4893035E4,-0E0,6.188124E3,-6.4957164E4,-0E0,4.0328906E4,-0E0,-0E0,-9.9262893E-1,1E0,-0E0,-0E0,1E0,2.6103915E2,-0E0,4E0,-0E0,-1.4503637E4,-0E0,-0E0,1.1354847E5,-0E0,9.9383986E-1,2.0592408E5,-0E0,2.2269165E3,-0E0,5.314362E2,-0E0,-0E0,3.876278E3,-0E0,-5.0752E4,-2.078848E-2,-0E0,-0E0,1.2073985E-2],"split_indices":[30,5,0,0,67,0,31,34,0,0,1,0,22,0,7,94,0,0,61,0,64,57,0,62,0,0,6,116,0,0,107,74,0,1,0,52,0,0,65,0,5,81,0,89,0,43,0,0,95,0,61,0,0,0,0],"split_type":[0,0,0,0,0,0,0,0,0,0,0,0,0,0,0,0,0,0,0,0,0,0,0,0,0,0,0,0,0,0,0,0,0,0,0,0,0,0,0,0,0,0,0,0,0,0,0,0,0,0,0,0,0,0,0],"sum_hessian":[1.879E3,8.1E2,1.069E3,1.48E2,6.62E2,3.22E2,7.47E2,5.65E2,9.7E1,2.4E1,7.23E2,1.8E1,5.47E2,5.6E1,6.67E2,5.37E2,1E1,3.6E1,6.31E2,1.51E2,3.86E2,6.16E2,1.5E1,3.31E2,5.5E1,3E0,6.13E2,3.22E2,9E0,2.4E1,5.89E2,2.9E2,3.2E1,5.69E2,2E1,2.81E2,9E0,2.1E1,5.48E2,1.1E1,2.7E2,5.43E2,5E0,2.67E2,3E0,5.39E2,4E0,1.8E1,2.49E2,7E0,5.32E2,2.45E2,4E0,1E1,5.22E2],"tree_param":{"num_deleted":"0","num_feature":"200","num_nodes":"55","size_leaf_vector":"1"}},{"base_weights":[-0E0,-0E0,-6.9050947E-3,2.8791612E-3,-0E0,-3.5342537E-2,-0E0,3.6011644E-2,-0E0,-0E0,-6.343884E-2,5.9050657E-2,-0E0,-9.0993986E-2,-0E0,7.6751634E-2,-0E0,-0E0,-1.1724372E-1,9.279611E-2,-0E0,-0E0,-1.4618564E-1,1.0750111E-1,-0E0,-1.6460153E-1,-0E0,-0E0,1.1903353E-1,-0E0,-1.808024E-1,-0E0,1.3034256E-1,-0E0,-1.9420244E-1,1.4168133E-1,-0E0,-0E0,-2.059689E-1,-0E0,1.5442479E-1,-0E0,-2.1619487E-1,-0E0,1.6392758E-1,-2.2626247E-1,-0E0,-0E0,1.7115477E-1,-2.4251552E-1,-0E0,1.266629E-2,-0E0,-0E0,-1.8245544E-2],"categories":[],"categories_nodes":[],"categories_segments":[],"categories_sizes":[],"default_left":[0,0,0,0,0,0,0,0,0,0,0,0,0,0,0,0,0,0,0,0,0,0,0,0,0,0,0,0,0,0,0,0,0,0,0,0,0,0,0,0,0,0,0,0,0,0,0,0,0,0,0,0,0,0,0],"id":39,"left_children":[1,3,5,7,-1,9,-1,11,-1,-1,13,15,-1,17,-1,19,-1,-1,21,23,-1,-1,25,27,-1,29,-1,-1,31,-1,33,-1,35,-1,37,39,-1,-1,41,-1,43,-1,45,-1,47,49,-1,-1,51,53,-1,-1,-1,-1,-1],"loss_changes":[4.648253E-2,4.740626E-3,8.302303E-1,6.603798E-1,0E0,1.6501753E0,0E0,1.0709716E0,0E0,0E0,2.3820894E0,1.1084547E0,0E0,2.6497016E0,0E0,1.0982988E0,0E0,0E0,2.9315114E0,1.163718E0,0E0,0E0,2.2676334E0,1.0268831E0,0E0,1.4254503E0,0E0,0E0,1.135859E0,0E0,1.5768385E0,0E0,1.2394605E0,0E0,1.5858154E0,1.2179184E0,0E0,0E0,1.5781784E0,0E0,1.1264391E0,0E0,1.5987453E0,0E0,8.0230904E-1,1.5839806E0,0E0,0E0,5.8558464E-1,1.620676E0,0E0,0E0,0E0,0E0,0E0],"parents":[2147483647,0,0,1,1,2,2,3,3,5,5,7,7,10,10,11,11,13,13,15,15,18,18,19,19,22,22,23,23,25,25,28,28,30,30,32,32,34,34,35,35,38,38,40,40,42,42,44,44,45,45,48,48,49,49],"right_children":[2,4,6,8,-1,10,-1,12,-1,-1,14,16,-1,18,-1,20,-1,-1,22,24,-1,-1,26,28,-1,30,-1,-1,32,-1,34,-1,36,-1,38,40,-1,-1,42,-1,44,-1,46,-1,48,50,-1,-1,52,54,-1,-1,-1,-1,-1],"split_conditions":[-7.9648466E0,1.6927689E1,-4.193231E3,6.43493E3,-0E0,-2.7061719E4,-0E0,1.1390625E4,-0E0,-0E0,4.082E3,2.202967E3,-0E0,6E0,-0E0,2.5713254E3,-0E0,-0E0,2.744E3,-2.291749E2,-0E0,-0E0,1.4706125E4,-2.2248314E4,-0E0,2.5536934E1,-0E0,-0E0,-8.463751E4,-0E0,-3.4268805E4,-0E0,3.241784E3,-0E0,-9.890132E-1,2E0,-0E0,-0E0,2.7E1,-0E0,-4.6656E4,-0E0,8.118301E4,-0E0,4.21875E2,9.852403E-1,-0E0,-0E0,1.6565852E2,-4.095751E0,-0E0,1.266629E-2,-0E0,-0E0,-1.8245544E-2],"split_indices":[65,98,88,64,0,76,0,33,0,0,0,66,0,0,0,38,0,0,43,67,0,0,36,83,0,25,0,0,76,0,56,0,39,0,7,1,0,0,41,0,33,0,35,0,43,7,0,0,26,65,0,0,0,0,0],"split_type":[0,0,0,0,0,0,0,0,0,0,0,0,0,0,0,0,0,0,0,0,0,0,0,0,0,0,0,0,0,0,0,0,0,0,0,0,0,0,0,0,0,0,0,0,0,0,0,0,0,0,0,0,0,0,0],"sum_hessian":[1.833E3,8.65E2,9.68E2,5.65E2,3E2,6.95E2,2.73E2,5.06E2,5.9E1,7.4E1,6.21E2,4.91E2,1.5E1,5.86E2,3.5E1,4.76E2,1.5E1,4.3E1,5.43E2,4.51E2,2.5E1,5.9E1,4.84E2,4.35E2,1.6E1,4.64E2,2E1,9E0,4.26E2,3.7E1,4.27E2,5E0,4.21E2,1.6E1,4.11E2,4.17E2,4E0,9E0,4.02E2,1.6E1,4.01E2,4E0,3.98E2,4E0,3.97E2,3.94E2,4E0,6E0,3.91E2,3.69E2,2.5E1,3.88E2,3E0,7E0,3.62E2],"tree_param":{"num_deleted":"0","num_feature":"200","num_nodes":"55","size_leaf_vector":"1"}},{"base_weights":[-0E0,-0E0,7.754649E-3,-0E0,3.1910535E-2,5.107369E-2,-0E0,-0E0,6.55815E-2,-0E0,7.7871814E-2,9.045328E-2,-0E0,9.995069E-2,-0E0,1.09108835E-1,-0E0,1.1466164E-1,-0E0,1.2786141E-1,-0E0,1.3471743E-1,-0E0,1.452571E-1,-0E0,1.5228777E-1,-0E0,-0E0,1.12881875E-2],"categories":[],"categories_nodes":[],"categories_segments":[],"categories_sizes":[],"default_left":[0,0,0,0,0,0,0,0,0,0,0,0,0,0,0,0,0,0,0,0,0,0,0,0,0,0,0,0,0],"id":40,"left_children":[1,-1,3,-1,5,7,-1,-1,9,-1,11,13,-1,15,-1,17,-1,19,-1,21,-1,23,-1,25,-1,27,-1,-1,-1],"loss_changes":[9.175807E-2,0E0,1.2064283E0,0E0,1.5082662E0,1.532666E0,0E0,0E0,1.451283E0,0E0,1.5231299E0,1.3467069E0,0E0,1.3025808E0,0E0,1.0004244E0,0E0,9.365072E-1,0E0,9.836807E-1,0E0,1.1663532E0,0E0,1.1378698E0,0E0,8.375492E-1,0E0,0E0,0E0],"parents":[2147483647,0,0,2,2,4,4,5,5,8,8,10,10,11,11,13,13,15,15,17,17,19,19,21,21,23,23,25,25],"right_children":[2,-1,4,-1,6,8,-1,-1,10,-1,12,14,-1,16,-1,18,-1,20,-1,22,-1,24,-1,26,-1,28,-1,-1,-1],"split_conditions":[-2.527449E3,-0E0,-7.296607E3,-0E0,9.525712E3,-1.12591455E4,-0E0,-0E0,5.991201E2,-0E0,1E0,2.0834998E3,-0E0,1.0360302E4,-0E0,-1.1017274E2,-0E0,2.018E3,-0E0,1.9678088E4,-0E0,4.330786E3,-0E0,1.489606E2,-0E0,1.1244557E3,-0E0,-0E0,1.12881875E-2],"split_indices":[63,0,83,0,83,65,0,0,89,0,104,93,0,33,0,88,0,2,0,63,0,37,0,26,0,94,0,0,0],"split_type":[0,0,0,0,0,0,0,0,0,0,0,0,0,0,0,0,0,0,0,0,0,0,0,0,0,0,0,0,0],"sum_hessian":[1.914E3,3.95E2,1.519E3,2.51E2,1.268E3,1.069E3,1.99E2,6.7E1,1.002E3,5.4E1,9.48E2,8.87E2,6.1E1,8.6E2,2.7E1,8.3E2,3E1,8.27E2,3E0,7.21E2,1.06E2,7.03E2,1.8E1,6.59E2,4.4E1,6.48E2,1.1E1,4E0,6.44E2],"tree_param":{"num_deleted":"0","num_feature":"200","num_nodes":"29","size_leaf_vector":"1"}},{"base_weights":[-0E0],"categories":[],"categories_nodes":[],"categories_segments":[],"categories_sizes":[],"default_left":[0],"id":41,"left_children":[-1],"loss_changes":[0E0],"parents":[2147483647],"right_children":[-1],"split_conditions":[-0E0],"split_indices":[0],"split_type":[0],"sum_hessian":[1.897E3],"tree_param":{"num_deleted":"0","num_feature":"200","num_nodes":"1","size_leaf_vector":"1"}},{"base_weights":[-0E0,-0E0,-1.9742267E-3,1.637995E-2,-0E0,-3.153419E-2,-0E0,4.0597335E-2,-0E0,-0E0,-5.0820943E-2,-0E0,7.752264E-2,-0E0,-7.0535734E-2,9.0325825E-2,-0E0,-8.9802556E-2,-0E0,-0E0,1.0202735E-1,-0E0,-1.1060212E-1,-0E0,1.0897262E-1,-0E0,-1.2899739E-1,-0E0,1.17546596E-1,-1.5048137E-1,-0E0,1.2474492E-1,-0E0,-0E0,-1.6530178E-1,1.3342908E-1,-0E0,-0E0,-1.7483824E-1,-0E0,1.3952816E-1,-0E0,-1.8285005E-1,-0E0,1.4506155E-1,-1.9360727E-1,-0E0,-0E0,1.5054418E-1,-0E0,-2.0067489E-1,1.1177958E-2,-0E0,-0E0,-1.5416435E-2],"categories":[],"categories_nodes":[],"categories_segments":[],"categories_sizes":[],"default_left":[0,0,0,0,0,0,0,0,0,0,0,0,0,0,0,0,0,0,0,0,0,0,0,0,0,0,0,0,0,0,0,0,0,0,0,0,0,0,0,0,0,0,0,0,0,0,0,0,0,0,0,0,0,0,0],"id":42,"left_children":[1,3,5,7,-1,9,-1,11,-1,-1,13,-1,15,-1,17,19,-1,21,-1,-1,23,-1,25,-1,27,-1,29,-1,31,33,-1,35,-1,-1,37,39,-1,-1,41,-1,43,-1,45,-1,47,49,-1,-1,51,-1,53,-1,-1,-1,-1],"loss_changes":[4.0374105E-3,2.0817035E-1,7.2175753E-1,1.0343294E0,0E0,1.0430875E0,0E0,2.1943524E0,0E0,0E0,1.3549951E0,0E0,7.231209E-1,0E0,1.3751326E0,9.0822697E-1,0E0,1.6648483E0,0E0,0E0,6.4224625E-1,0E0,1.9878778E0,0E0,5.8851814E-1,0E0,2.2167578E0,0E0,7.017269E-1,1.131875E0,0E0,6.8817806E-1,0E0,0E0,1.1206703E0,5.0483704E-1,0E0,0E0,9.157238E-1,0E0,5.1547813E-1,0E0,9.274187E-1,0E0,5.3478813E-1,9.1421986E-1,0E0,0E0,4.583311E-1,0E0,8.724909E-1,0E0,0E0,0E0,0E0],"parents":[2147483647,0,0,1,1,2,2,3,3,5,5,7,7,10,10,12,12,14,14,15,15,17,17,20,20,22,22,24,24,26,26,28,28,29,29,31,31,34,34,35,35,38,38,40,40,42,42,44,44,45,45,48,48,50,50],"right_children":[2,4,6,8,-1,10,-1,12,-1,-1,14,-1,16,-1,18,20,-1,22,-1,-1,24,-1,26,-1,28,-1,30,-1,32,34,-1,36,-1,-1,38,40,-1,-1,42,-1,44,-1,46,-1,48,50,-1,-1,52,-1,54,-1,-1,-1,-1],"split_conditions":[-1.198167E7,2.9859993E3,1.4025098E3,8.57588E1,-0E0,-2.701524E4,-0E0,1.520875E3,-0E0,-0E0,3.164646E0,-0E0,1.5533061E4,-0E0,1E0,6.385E2,-0E0,0E0,-0E0,-0E0,-5.875682E8,-0E0,5.0650993E1,-0E0,0E0,-0E0,2.5624498E4,-0E0,1.7238E3,-1.2801518E2,-0E0,2.3204648E4,-0E0,-0E0,2.611511E0,3.8087997E0,-0E0,-0E0,-5.5487896E1,-0E0,-3.6180484E2,-0E0,1E0,-0E0,0E0,-1.464048E4,-0E0,-0E0,1.6777408E4,-0E0,-1.1423049E4,1.1177958E-2,-0E0,-0E0,-1.5416435E-2],"split_indices":[12,33,77,25,0,85,0,41,0,0,20,0,83,0,119,199,0,123,0,0,16,0,41,0,170,0,85,0,198,97,0,57,0,0,19,19,0,0,73,0,73,0,116,0,174,52,0,0,38,0,85,0,0,0,0],"split_type":[0,0,0,0,0,0,0,0,0,0,0,0,0,0,0,0,0,0,0,0,0,0,0,0,0,0,0,0,0,0,0,0,0,0,0,0,0,0,0,0,0,0,0,0,0,0,0,0,0,0,0,0,0,0,0],"sum_hessian":[1.893E3,8.64E2,1.029E3,7.69E2,9.5E1,7.23E2,3.06E2,7.47E2,2.2E1,4.5E1,6.78E2,1.82E2,5.65E2,5.7E1,6.21E2,5.03E2,6.2E1,5.51E2,7E1,2.3E1,4.8E2,5.4E1,4.97E2,6E0,4.74E2,1.4E1,4.83E2,2.5E1,4.49E2,4.51E2,3.2E1,4.43E2,6E0,3.7E1,4.14E2,4.25E2,1.8E1,8E0,4.06E2,1.1E1,4.14E2,8E0,3.98E2,7E0,4.07E2,3.79E2,1.9E1,6E0,4.01E2,4E0,3.75E2,3.95E2,6E0,2.8E1,3.47E2],"tree_param":{"num_deleted":"0","num_feature":"200","num_nodes":"55","size_leaf_vector":"1"}},{"base_weights":[-0E0,-0E0,1.5463335E-2,-0E0,-6.1965236E-3,5.4970115E-2,-0E0,-0E0,-2.6530579E-2,-0E0,7.927657E-2,-4.46492E-2,-0E0,-0E0,9.353454E-2,-0E0,-6.310193E-2,-0E0,1.0942167E-1,-8.578717E-2,-0E0,1.3360985E-1,-0E0,-0E0,-9.888914E-2,-0E0,1.4468165E-1,-1.1013589E-1,-0E0,-0E0,1.4981622E-1,-0E0,-1.215872E-1,1.6380996E-1,-0E0,-0E0,-1.3713808E-1,-0E0,1.7917766E-1,-1.504874E-1,-0E0,-0E0,1.9305523E-1,-1.5718357E-1,-0E0,1.9886145E-1,-0E0,-0E0,-1.626478E-1,2.0500124E-1,-0E0,-1.1996509E-2,-0E0,1.5133655E-2,-0E0],"categories":[],"categories_nodes":[],"categories_segments":[],"categories_sizes":[],"default_left":[0,0,0,0,0,0,0,0,0,0,0,0,0,0,0,0,0,0,0,0,0,0,0,0,0,0,0,0,0,0,0,0,0,0,0,0,0,0,0,0,0,0,0,0,0,0,0,0,0,0,0,0,0,0,0],"id":43,"left_children":[1,3,5,-1,7,9,-1,-1,11,-1,13,15,-1,-1,17,-1,19,-1,21,23,-1,25,-1,-1,27,-1,29,31,-1,-1,33,-1,35,37,-1,-1,39,-1,41,43,-1,-1,45,47,-1,49,-1,-1,51,53,-1,-1,-1,-1,-1],"loss_changes":[2.524761E-1,3.0060107E-2,2.243092E0,0E0,4.365212E-1,1.651619E0,0E0,0E0,7.970878E-1,0E0,1.4159284E0,9.019753E-1,0E0,0E0,1.4995594E0,0E0,1.4690235E0,0E0,2.0037646E0,1.0874305E0,0E0,1.0624819E0,0E0,0E0,1.038136E0,0E0,6.41901E-1,1.082705E0,0E0,0E0,5.4973793E-1,0E0,1.1476879E0,7.468786E-1,0E0,0E0,1.3596058E0,0E0,1.3453455E0,7.5179386E-1,0E0,0E0,7.0028687E-1,6.087513E-1,0E0,7.168236E-1,0E0,0E0,4.6453476E-1,6.090288E-1,0E0,0E0,0E0,0E0,0E0],"parents":[2147483647,0,0,1,1,2,2,4,4,5,5,8,8,10,10,11,11,14,14,16,16,18,18,19,19,21,21,24,24,26,26,27,27,30,30,32,32,33,33,36,36,38,38,39,39,42,42,43,43,45,45,48,48,49,49],"right_children":[2,4,6,-1,8,10,-1,-1,12,-1,14,16,-1,-1,18,-1,20,-1,22,24,-1,26,-1,-1,28,-1,30,32,-1,-1,34,-1,36,38,-1,-1,40,-1,42,44,-1,-1,46,48,-1,50,-1,-1,52,54,-1,-1,-1,-1,-1],"split_conditions":[-2.5015605E2,-1.9683E4,7.034761E1,-0E0,-1.2046901E6,-3.0075644E2,-0E0,-0E0,3E1,-0E0,0E0,2.9859233E3,-0E0,-0E0,-6.2258735E6,-0E0,1E0,-0E0,8.454022E3,-2.2187982E4,-0E0,-2.8427113E4,-0E0,-0E0,1.5402463E3,-0E0,-8.291402E3,2E0,-0E0,-0E0,2.018E3,-0E0,0E0,0E0,-0E0,-0E0,2.569601E10,-0E0,4.7276265E3,4.0353348E4,-0E0,-0E0,8.118301E4,2.3822258E0,-0E0,1.276368E12,-0E0,-0E0,1.1545064E5,7.3012866E3,-0E0,-1.1996509E-2,-0E0,1.5133655E-2,-0E0],"split_indices":[84,39,98,0,16,32,0,0,1,0,111,45,0,0,16,0,139,0,83,38,0,86,0,0,98,0,62,1,0,0,2,0,161,173,0,0,11,0,96,39,0,0,39,20,0,12,0,0,75,62,0,0,0,0,0],"split_type":[0,0,0,0,0,0,0,0,0,0,0,0,0,0,0,0,0,0,0,0,0,0,0,0,0,0,0,0,0,0,0,0,0,0,0,0,0,0,0,0,0,0,0,0,0,0,0,0,0,0,0,0,0,0,0],"sum_hessian":[1.855E3,8.06E2,1.049E3,3E1,7.76E2,8.19E2,2.3E2,1.2E2,6.56E2,1.66E2,6.53E2,6.27E2,2.9E1,2.4E1,6.29E2,9E1,5.37E2,4.6E1,5.83E2,4.87E2,5E1,5.01E2,8.2E1,1.1E1,4.76E2,2.4E1,4.77E2,4.68E2,8E0,4E0,4.73E2,1.2E1,4.56E2,4.15E2,5.8E1,3.8E1,4.18E2,4.6E1,3.69E2,4.06E2,1.2E1,1.6E1,3.53E2,4.02E2,4E0,3.5E2,3E0,4E0,3.98E2,3.46E2,4E0,3.95E2,3E0,3.42E2,4E0],"tree_param":{"num_deleted":"0","num_feature":"200","num_nodes":"55","size_leaf_vector":"1"}},{"base_weights":[-0E0],"categories":[],"categories_nodes":[],"categories_segments":[],"categories_sizes":[],"default_left":[0],"id":44,"left_children":[-1],"loss_changes":[0E0],"parents":[2147483647],"right_children":[-1],"split_conditions":[-0E0],"split_indices":[0],"split_type":[0],"sum_hessian":[1.874E3],"tree_param":{"num_deleted":"0","num_feature":"200","num_nodes":"1","size_leaf_vector":"1"}},{"base_weights":[-0E0],"categories":[],"categories_nodes":[],"categories_segments":[],"categories_sizes":[],"default_left":[0],"id":45,"left_children":[-1],"loss_changes":[0E0],"parents":[2147483647],"right_children":[-1],"split_conditions":[-0E0],"split_indices":[0],"split_type":[0],"sum_hessian":[1.871E3],"tree_param":{"num_deleted":"0","num_feature":"200","num_nodes":"1","size_leaf_vector":"1"}},{"base_weights":[-0E0],"categories":[],"categories_nodes":[],"categories_segments":[],"categories_sizes":[],"default_left":[0],"id":46,"left_children":[-1],"loss_changes":[0E0],"parents":[2147483647],"right_children":[-1],"split_conditions":[-0E0],"split_indices":[0],"split_type":[0],"sum_hessian":[1.85E3],"tree_param":{"num_deleted":"0","num_feature":"200","num_nodes":"1","size_leaf_vector":"1"}},{"base_weights":[-0E0],"categories":[],"categories_nodes":[],"categories_segments":[],"categories_sizes":[],"default_left":[0],"id":47,"left_children":[-1],"loss_changes":[0E0],"parents":[2147483647],"right_children":[-1],"split_conditions":[-0E0],"split_indices":[0],"split_type":[0],"sum_hessian":[1.906E3],"tree_param":{"num_deleted":"0","num_feature":"200","num_nodes":"1","size_leaf_vector":"1"}},{"base_weights":[-0E0],"categories":[],"categories_nodes":[],"categories_segments":[],"categories_sizes":[],"default_left":[0],"id":48,"left_children":[-1],"loss_changes":[0E0],"parents":[2147483647],"right_children":[-1],"split_conditions":[-0E0],"split_indices":[0],"split_type":[0],"sum_hessian":[1.862E3],"tree_param":{"num_deleted":"0","num_feature":"200","num_nodes":"1","size_leaf_vector":"1"}},{"base_weights":[-0E0],"categories":[],"categories_nodes":[],"categories_segments":[],"categories_sizes":[],"default_left":[0],"id":49,"left_children":[-1],"loss_changes":[0E0],"parents":[2147483647],"right_children":[-1],"split_conditions":[-0E0],"split_indices":[0],"split_type":[0],"sum_hessian":[1.888E3],"tree_param":{"num_deleted":"0","num_feature":"200","num_nodes":"1","size_leaf_vector":"1"}},{"base_weights":[-0E0,-4.482341E-3,-0E0,-0E0,-5.9364393E-2,6.3142306E-3,-0E0,-0E0,-1.1182428E-1,2.5633128E-2,-0E0,-0E0,-1.4185993E-1,-0E0,4.7143187E-2,-1.6264585E-1,-0E0,-0E0,6.834944E-2,-1.8500079E-1,-0E0,8.3418965E-2,-0E0,-0E0,-2.0318678E-1,-0E0,1.06648415E-1,-0E0,-2.2381148E-1,-0E0,1.16918445E-1,-0E0,-2.4377948E-1,1.308965E-1,-0E0,-2.5881514E-1,-0E0,1.4290763E-1,-0E0,-0E0,-2.7722225E-1,-0E0,1.5874186E-1,-2.9054478E-1,-0E0,-0E0,1.6961133E-1,-0E0,-3.0154997E-1,1.778476E-1,-0E0,-0E0,-2.2390055E-2,1.3076016E-2,-0E0],"categories":[],"categories_nodes":[],"categories_segments":[],"categories_sizes":[],"default_left":[0,0,0,0,0,0,0,0,0,0,0,0,0,0,0,0,0,0,0,0,0,0,0,0,0,0,0,0,0,0,0,0,0,0,0,0,0,0,0,0,0,0,0,0,0,0,0,0,0,0,0,0,0,0,0],"id":50,"left_children":[1,3,5,-1,7,9,-1,-1,11,13,-1,-1,15,-1,17,19,-1,-1,21,23,-1,25,-1,-1,27,-1,29,-1,31,-1,33,-1,35,37,-1,39,-1,41,-1,-1,43,-1,45,47,-1,-1,49,-1,51,53,-1,-1,-1,-1,-1],"loss_changes":[1.6894411E-2,1.8117014E0,3.7233274E-2,0E0,3.4093406E0,4.3051165E-1,0E0,0E0,2.6684442E0,1.0366039E0,0E0,0E0,2.1427984E0,0E0,1.5877134E0,2.267766E0,0E0,0E0,1.3328407E0,2.0864563E0,0E0,1.954464E0,0E0,0E0,1.8702726E0,0E0,1.1647692E0,0E0,1.9636307E0,0E0,1.2263346E0,0E0,1.7161674E0,1.1728497E0,0E0,1.6326485E0,0E0,1.2671633E0,0E0,0E0,1.3648415E0,0E0,1.4151745E0,1.2259979E0,0E0,0E0,1.0345564E0,0E0,1.0929489E0,4.757843E-1,0E0,0E0,0E0,0E0,0E0],"parents":[2147483647,0,0,1,1,2,2,4,4,5,5,8,8,9,9,12,12,14,14,15,15,18,18,19,19,21,21,24,24,26,26,28,28,30,30,32,32,33,33,35,35,37,37,40,40,42,42,43,43,46,46,48,48,49,49],"right_children":[2,4,6,-1,8,10,-1,-1,12,14,-1,-1,16,-1,18,20,-1,-1,22,24,-1,26,-1,-1,28,-1,30,-1,32,-1,34,-1,36,38,-1,40,-1,42,-1,-1,44,-1,46,48,-1,-1,50,-1,52,54,-1,-1,-1,-1,-1],"split_conditions":[-5.896993E1,7.272689E4,1.8158262E3,-0E0,-6.8148334E2,1E0,-0E0,-0E0,7.939767E-2,-1.2812743E4,-0E0,-0E0,2.4389E4,-0E0,1E0,1E0,-0E0,-0E0,1.4922895E9,-4.960348E4,-0E0,-2.8032065E3,-0E0,-0E0,5.0001895E3,-0E0,5.674446E3,-0E0,-1.5625E4,-0E0,4.913E3,-0E0,1.1574262E2,5.042599E2,-0E0,1.8119816E4,-0E0,0E0,-0E0,-0E0,9.116487E4,-0E0,-3.2013072E4,-7.785422E4,-0E0,-0E0,6.4223508E4,-0E0,1.042246E1,1.1545064E5,-0E0,-0E0,-2.2390055E-2,1.3076016E-2,-0E0],"split_indices":[61,99,29,0,38,127,0,0,5,29,0,0,31,0,0,127,0,0,16,85,0,38,0,0,45,0,96,0,28,0,37,0,25,70,0,96,0,159,0,0,83,0,64,34,0,0,79,0,22,86,0,0,0,0,0],"split_type":[0,0,0,0,0,0,0,0,0,0,0,0,0,0,0,0,0,0,0,0,0,0,0,0,0,0,0,0,0,0,0,0,0,0,0,0,0,0,0,0,0,0,0,0,0,0,0,0,0,0,0,0,0,0,0],"sum_hessian":[1.908E3,8.34E2,1.074E3,3.22E2,5.12E2,9.27E2,1.47E2,1E2,4.12E2,7.05E2,2.22E2,2.6E1,3.86E2,3.5E1,6.7E2,3.73E2,1.3E1,1.5E1,6.55E2,3.53E2,2E1,6.29E2,2.6E1,1.1E1,3.42E2,7.5E1,5.54E2,2.4E1,3.18E2,9E0,5.45E2,1.8E1,3E2,5.05E2,4E1,2.91E2,9E0,4.8E2,2.5E1,1.7E1,2.74E2,4.2E1,4.38E2,2.65E2,9E0,6E0,4.32E2,6E0,2.59E2,4.25E2,7E0,5E0,2.54E2,4.21E2,4E0],"tree_param":{"num_deleted":"0","num_feature":"200","num_nodes":"55","size_leaf_vector":"1"}},{"base_weights":[-0E0],"categories":[],"categories_nodes":[],"categories_segments":[],"categories_sizes":[],"default_left":[0],"id":51,"left_children":[-1],"loss_changes":[0E0],"parents":[2147483647],"right_children":[-1],"split_conditions":[-0E0],"split_indices":[0],"split_type":[0],"sum_hessian":[1.88E3],"tree_param":{"num_deleted":"0","num_feature":"200","num_nodes":"1","size_leaf_vector":"1"}},{"base_weights":[-0E0,-1.33414185E-2,-0E0,-4.855621E-2,-0E0,-0E0,-7.8845076E-2,-0E0,-1.1221466E-1,-0E0,-1.6162223E-1,-0E0,-1.9215468E-1,-2.1433146E-1,-0E0,-0E0,-2.3474397E-1,-0E0,-2.5429973E-1,-2.7778155E-1,-0E0,-2.9582304E-1,-0E0,-3.1420192E-1,-0E0,-3.3540022E-1,-0E0,-2.4906352E-2,-0E0],"categories":[],"categories_nodes":[],"categories_segments":[],"categories_sizes":[],"default_left":[0,0,0,0,0,0,0,0,0,0,0,0,0,0,0,0,0,0,0,0,0,0,0,0,0,0,0,0,0],"id":52,"left_children":[1,3,-1,5,-1,-1,7,-1,9,-1,11,-1,13,15,-1,-1,17,-1,19,21,-1,23,-1,25,-1,27,-1,-1,-1],"loss_changes":[1.8758348E-1,1.6487824E0,0E0,2.7755556E0,0E0,0E0,2.9292345E0,0E0,5.621029E0,0E0,3.5965586E0,0E0,2.8971252E0,2.5446377E0,0E0,0E0,3.1416283E0,0E0,3.430132E0,3.3337326E0,0E0,3.2247772E0,0E0,3.1282616E0,0E0,2.0391884E0,0E0,0E0,0E0],"parents":[2147483647,0,0,1,1,3,3,6,6,8,8,10,10,12,12,13,13,16,16,18,18,19,19,21,21,23,23,25,25],"right_children":[2,4,-1,6,-1,-1,8,-1,10,-1,12,-1,14,16,-1,-1,18,-1,20,22,-1,24,-1,26,-1,28,-1,-1,-1],"split_conditions":[-7.6710366E3,2.376931E3,-0E0,-1.0940976E4,-0E0,-0E0,7E0,-0E0,1.5058179E-1,-0E0,5.4517534E3,-0E0,9.637235E-1,-9.8091614E-1,-0E0,-0E0,-2.2425652E4,-0E0,1E0,3.6080823E2,-0E0,3.8459575E5,-0E0,1E0,-0E0,6.4481074E4,-0E0,-2.4906352E-2,-0E0],"split_indices":[88,60,0,32,0,0,1,0,5,0,45,0,5,7,0,0,34,0,160,73,0,89,0,118,0,57,0,0,0],"split_type":[0,0,0,0,0,0,0,0,0,0,0,0,0,0,0,0,0,0,0,0,0,0,0,0,0,0,0,0,0],"sum_hessian":[1.86E3,1.047E3,8.13E2,7.72E2,2.75E2,3.7E1,7.35E2,1.43E2,5.92E2,9.5E1,4.97E2,5E1,4.47E2,4.21E2,2.6E1,2.5E1,3.96E2,1.1E1,3.85E2,3.66E2,1.9E1,3.6E2,6E0,3.51E2,9E0,3.35E2,1.6E1,3.31E2,4E0],"tree_param":{"num_deleted":"0","num_feature":"200","num_nodes":"29","size_leaf_vector":"1"}},{"base_weights":[-0E0],"categories":[],"categories_nodes":[],"categories_segments":[],"categories_sizes":[],"default_left":[0],"id":53,"left_children":[-1],"loss_changes":[0E0],"parents":[2147483647],"right_children":[-1],"split_conditions":[-0E0],"split_indices":[0],"split_type":[0],"sum_hessian":[1.876E3],"tree_param":{"num_deleted":"0","num_feature":"200","num_nodes":"1","size_leaf_vector":"1"}},{"base_weights":[-0E0],"categories":[],"categories_nodes":[],"categories_segments":[],"categories_sizes":[],"default_left":[0],"id":54,"left_children":[-1],"loss_changes":[0E0],"parents":[2147483647],"right_children":[-1],"split_conditions":[-0E0],"split_indices":[0],"split_type":[0],"sum_hessian":[1.871E3],"tree_param":{"num_deleted":"0","num_feature":"200","num_nodes":"1","size_leaf_vector":"1"}},{"base_weights":[-0E0,1.3737629E-2,-0E0,-0E0,3.288102E-2,5.3893276E-2,-0E0,-0E0,6.3245945E-2,8.3141714E-2,-0E0,-0E0,9.521029E-2,1.0424341E-1,-0E0,-0E0,1.243244E-1,1.352728E-1,-0E0,1.4208002E-1,-0E0,-0E0,1.5039828E-1,-0E0,1.5533046E-1,1.6089162E-1,-0E0,1.1906133E-2,-0E0],"categories":[],"categories_nodes":[],"categories_segments":[],"categories_sizes":[],"default_left":[0,0,0,0,0,0,0,0,0,0,0,0,0,0,0,0,0,0,0,0,0,0,0,0,0,0,0,0,0],"id":55,"left_children":[1,3,-1,-1,5,7,-1,-1,9,11,-1,-1,13,15,-1,-1,17,19,-1,21,-1,-1,23,-1,25,27,-1,-1,-1],"loss_changes":[2.2531168E-1,9.8978263E-1,0E0,0E0,1.6803241E0,1.0641444E0,0E0,0E0,1.3691692E0,1.2241611E0,0E0,0E0,8.6773396E-1,1.1713395E0,0E0,0E0,1.2505264E0,8.943958E-1,0E0,8.642378E-1,0E0,0E0,6.527376E-1,0E0,6.342735E-1,6.393366E-1,0E0,0E0,0E0],"parents":[2147483647,0,0,1,1,4,4,5,5,8,8,9,9,12,12,13,13,16,16,17,17,19,19,22,22,24,24,25,25],"right_children":[2,4,-1,-1,6,8,-1,-1,10,12,-1,-1,14,16,-1,-1,18,20,-1,22,-1,-1,24,-1,26,28,-1,-1,-1],"split_conditions":[2.4832257E2,-1.0149839E6,-0E0,-0E0,2.3276514E3,-7.785422E4,-0E0,-0E0,1E0,-2.701524E4,-0E0,-0E0,6.981669E3,1.4510507E1,-0E0,-0E0,1E0,3.241784E3,-0E0,-4.960348E4,-0E0,-0E0,5.592E2,-0E0,6.4481074E4,4.0353348E4,-0E0,1.1906133E-2,-0E0],"split_indices":[65,17,0,0,87,33,0,0,129,84,0,0,14,23,0,0,142,39,0,83,0,0,196,0,58,31,0,0,0],"split_type":[0,0,0,0,0,0,0,0,0,0,0,0,0,0,0,0,0,0,0,0,0,0,0,0,0,0,0,0,0],"sum_hessian":[1.879E3,1.187E3,6.92E2,7E1,1.117E3,9.9E2,1.27E2,7E0,9.83E2,7.64E2,2.19E2,4.8E1,7.16E2,6.76E2,4E1,1.27E2,5.49E2,5.31E2,1.8E1,5.25E2,6E0,1.9E1,5.06E2,5E0,5.01E2,4.91E2,1E1,4.87E2,4E0],"tree_param":{"num_deleted":"0","num_feature":"200","num_nodes":"29","size_leaf_vector":"1"}},{"base_weights":[-0E0],"categories":[],"categories_nodes":[],"categories_segments":[],"categories_sizes":[],"default_left":[0],"id":56,"left_children":[-1],"loss_changes":[0E0],"parents":[2147483647],"right_children":[-1],"split_conditions":[-0E0],"split_indices":[0],"split_type":[0],"sum_hessian":[1.894E3],"tree_param":{"num_deleted":"0","num_feature":"200","num_nodes":"1","size_leaf_vector":"1"}},{"base_weights":[-0E0,1.6783273E-3,-0E0,2.488056E-2,-0E0,-0E0,4.4824086E-2,6.2046345E-2,-0E0,8.508165E-2,-0E0,-0E0,9.544047E-2,-0E0,1.024853E-1,1.0929276E-1,-0E0,-0E0,1.1883619E-1,-0E0,1.258251E-1,1.334765E-1,-0E0,-0E0,1.3927718E-1,-0E0,1.4544967E-1,-0E0,1.0849751E-2],"categories":[],"categories_nodes":[],"categories_segments":[],"categories_sizes":[],"default_left":[0,0,0,0,0,0,0,0,0,0,0,0,0,0,0,0,0,0,0,0,0,0,0,0,0,0,0,0,0],"id":57,"left_children":[1,3,-1,5,-1,-1,7,9,-1,11,-1,-1,13,-1,15,17,-1,-1,19,-1,21,23,-1,-1,25,-1,27,-1,-1],"loss_changes":[3.3600796E-3,6.521304E-1,0E0,1.0500748E0,0E0,0E0,1.2890712E0,2.0934215E0,0E0,1.2232914E0,0E0,0E0,9.136009E-1,0E0,9.3196917E-1,9.7832394E-1,0E0,0E0,1.0269489E0,0E0,9.171772E-1,9.063177E-1,0E0,0E0,9.378176E-1,0E0,7.8924274E-1,0E0,0E0],"parents":[2147483647,0,0,1,1,3,3,6,6,7,7,9,9,12,12,14,14,15,15,18,18,20,20,21,21,24,24,26,26],"right_children":[2,4,-1,6,-1,-1,8,10,-1,12,-1,-1,14,-1,16,18,-1,-1,20,-1,22,24,-1,-1,26,-1,28,-1,-1],"split_conditions":[7.950294E1,1.5324E3,-0E0,0E0,-0E0,-0E0,6.539151E3,1.7589552E2,-0E0,7.115919E2,-0E0,-0E0,-9.994446E-1,-0E0,3.496225E4,0E0,-0E0,-0E0,-9.997203E-1,-0E0,1.1390625E4,-3.008016E4,-0E0,-0E0,-3.528751E4,-0E0,-8.489694E3,-0E0,1.0849751E-2],"split_indices":[33,198,0,3,0,0,14,97,0,92,0,0,6,0,55,109,0,0,7,0,38,34,0,0,33,0,35,0,0],"split_type":[0,0,0,0,0,0,0,0,0,0,0,0,0,0,0,0,0,0,0,0,0,0,0,0,0,0,0,0,0],"sum_hessian":[1.825E3,1.186E3,6.39E2,1.052E3,1.34E2,2.1E2,8.42E2,7.71E2,7.1E1,6.96E2,7.5E1,1E1,6.86E2,5E0,6.81E2,6.76E2,5E0,3.6E1,6.4E2,5E0,6.35E2,6.15E2,2E1,4E0,6.11E2,7E0,6.04E2,8E0,5.96E2],"tree_param":{"num_deleted":"0","num_feature":"200","num_nodes":"29","size_leaf_vector":"1"}},{"base_weights":[-0E0],"categories":[],"categories_nodes":[],"categories_segments":[],"categories_sizes":[],"default_left":[0],"id":58,"left_children":[-1],"loss_changes":[0E0],"parents":[2147483647],"right_children":[-1],"split_conditions":[-0E0],"split_indices":[0],"split_type":[0],"sum_hessian":[1.878E3],"tree_param":{"num_deleted":"0","num_feature":"200","num_nodes":"1","size_leaf_vector":"1"}},{"base_weights":[-0E0,-9.722372E-3,-0E0,-5.7572786E-2,-0E0,-0E0,2.2870135E-3,-0E0,-9.344738E-2,3.317387E-2,-0E0,-1.21880054E-1,-0E0,-0E0,6.4013734E-2,-1.4700127E-1,-0E0,-0E0,9.4524786E-2,-1.761664E-1,-0E0,-0E0,1.197248E-1,-2.0132096E-1,-0E0,-0E0,1.4313583E-1,-0E0,-2.2129785E-1,-0E0,1.615081E-1,-0E0,-2.4295598E-1,1.73406E-1,-0E0,-0E0,-2.630337E-1,1.8277913E-1,-0E0,-2.7719223E-1,-0E0,-0E0,1.9719316E-1,-0E0,-2.8883803E-1,-0E0,2.0432876E-1,-3.0045018E-1,-0E0,2.1224724E-1,-0E0,-2.2383519E-2,-0E0,-0E0,1.5701223E-2],"categories":[],"categories_nodes":[],"categories_segments":[],"categories_sizes":[],"default_left":[0,0,0,0,0,0,0,0,0,0,0,0,0,0,0,0,0,0,0,0,0,0,0,0,0,0,0,0,0,0,0,0,0,0,0,0,0,0,0,0,0,0,0,0,0,0,0,0,0,0,0,0,0,0,0],"id":59,"left_children":[1,3,5,7,-1,-1,9,-1,11,13,-1,15,-1,-1,17,19,-1,-1,21,23,-1,-1,25,27,-1,-1,29,-1,31,-1,33,-1,35,37,-1,-1,39,41,-1,43,-1,-1,45,-1,47,-1,49,51,-1,53,-1,-1,-1,-1,-1],"loss_changes":[8.260294E-2,2.3399854E0,4.147096E-3,2.7983327E0,0E0,0E0,6.0649973E-1,0E0,2.4126139E0,1.4172455E0,0E0,2.0880551E0,0E0,0E0,2.0632217E0,1.8815775E0,0E0,0E0,1.8701E0,2.050559E0,0E0,0E0,1.9446115E0,2.0605679E0,0E0,0E0,1.7945738E0,0E0,1.6916752E0,0E0,1.2412958E0,0E0,1.4735966E0,1.0477924E0,0E0,0E0,1.3188419E0,1.0711946E0,0E0,1.3991528E0,0E0,0E0,8.370733E-1,0E0,1.4103966E0,0E0,6.475611E-1,9.8869705E-1,0E0,5.9668446E-1,0E0,0E0,0E0,0E0,0E0],"parents":[2147483647,0,0,1,1,2,2,3,3,6,6,8,8,9,9,11,11,14,14,15,15,18,18,19,19,22,22,23,23,26,26,28,28,30,30,32,32,33,33,36,36,37,37,39,39,42,42,44,44,46,46,47,47,49,49],"right_children":[2,4,6,8,-1,-1,10,-1,12,14,-1,16,-1,-1,18,20,-1,-1,22,24,-1,-1,26,28,-1,-1,30,-1,32,-1,34,-1,36,38,-1,-1,40,42,-1,44,-1,-1,46,-1,48,-1,50,52,-1,54,-1,-1,-1,-1,-1],"split_conditions":[-1.25E-1,9.7030615E2,-4.5520703E3,2.0430939E3,-0E0,-0E0,2.015E3,-0E0,1.8809061E1,-1.498845E12,-0E0,6.43493E3,-0E0,-0E0,-2.4497258E3,1E0,-0E0,-0E0,0E0,5.0001895E3,-0E0,-0E0,-6.4999146E1,0E0,-0E0,-0E0,5.314362E2,-0E0,1.367622E3,-0E0,4.0353348E4,-0E0,6.384566E0,2.4389E4,-0E0,-0E0,9.9223286E-1,5.756433E0,-0E0,-4.6656E4,-0E0,-0E0,5.485E2,-0E0,1.4635314E1,-0E0,1E0,3.2768E4,-0E0,-6.7946256E5,-0E0,-2.2383519E-2,-0E0,-0E0,1.5701223E-2],"split_indices":[30,37,83,89,0,0,2,0,74,18,0,64,0,0,56,119,0,0,176,29,0,0,73,105,0,0,43,0,43,0,30,0,21,33,0,0,7,21,0,34,0,0,196,0,74,0,107,34,0,91,0,0,0,0,0],"split_type":[0,0,0,0,0,0,0,0,0,0,0,0,0,0,0,0,0,0,0,0,0,0,0,0,0,0,0,0,0,0,0,0,0,0,0,0,0,0,0,0,0,0,0,0,0,0,0,0,0,0,0,0,0,0,0],"sum_hessian":[1.872E3,8.67E2,1.005E3,7.24E2,1.43E2,2.19E2,7.86E2,1.33E2,5.91E2,5.48E2,2.38E2,5.07E2,8.4E1,6E1,4.88E2,4.43E2,6.4E1,3.7E1,4.51E2,3.67E2,7.6E1,4.2E1,4.09E2,3.3E2,3.7E1,3E1,3.79E2,1.6E1,3.14E2,1.4E1,3.65E2,2.6E1,2.88E2,3.57E2,8E0,2.2E1,2.66E2,3.52E2,5E0,2.56E2,1E1,2.3E1,3.29E2,4E0,2.52E2,3E0,3.26E2,2.48E2,4E0,3.16E2,1E1,2.41E2,7E0,5E0,3.11E2],"tree_param":{"num_deleted":"0","num_feature":"200","num_nodes":"55","size_leaf_vector":"1"}},{"base_weights":[-0E0],"categories":[],"categories_nodes":[],"categories_segments":[],"categories_sizes":[],"default_left":[0],"id":60,"left_children":[-1],"loss_changes":[0E0],"parents":[2147483647],"right_children":[-1],"split_conditions":[-0E0],"split_indices":[0],"split_type":[0],"sum_hessian":[1.86E3],"tree_param":{"num_deleted":"0","num_feature":"200","num_nodes":"1","size_leaf_vector":"1"}},{"base_weights":[-0E0,-0E0,2.387775E-3,-0E0,-7.933346E-3,2.6398316E-2,-0E0,-2.3967985E-2,-0E0,-0E0,4.054157E-2,-3.8225498E-2,-0E0,-0E0,5.5061765E-2,-0E0,-5.0905067E-2,-0E0,6.554256E-2,-0E0,-6.300715E-2,-0E0,7.462062E-2,-0E0,-7.530252E-2,-0E0,8.359924E-2,-0E0,-8.6236715E-2,-0E0,9.258861E-2,-9.508119E-2,-0E0,1.00387216E-1,-0E0,-0E0,-1.0745511E-1,1.0958653E-1,-0E0,-1.1581835E-1,-0E0,1.1637596E-1,-0E0,-0E0,-1.2447113E-1,1.2177944E-1,-0E0,-0E0,-1.3306096E-1,-0E0,1.2947653E-1,-1.0250026E-2,-0E0,9.623502E-3,-0E0],"categories":[],"categories_nodes":[],"categories_segments":[],"categories_sizes":[],"default_left":[0,0,0,0,0,0,0,0,0,0,0,0,0,0,0,0,0,0,0,0,0,0,0,0,0,0,0,0,0,0,0,0,0,0,0,0,0,0,0,0,0,0,0,0,0,0,0,0,0,0,0,0,0,0,0],"id":61,"left_children":[1,3,5,-1,7,9,-1,11,-1,-1,13,15,-1,-1,17,-1,19,-1,21,-1,23,-1,25,-1,27,-1,29,-1,31,-1,33,35,-1,37,-1,-1,39,41,-1,43,-1,45,-1,-1,47,49,-1,-1,51,-1,53,-1,-1,-1,-1],"loss_changes":[5.820508E-3,5.248262E-2,5.2929175E-1,0E0,3.8748717E-1,6.5959907E-1,0E0,5.519998E-1,0E0,0E0,8.4532034E-1,7.335386E-1,0E0,0E0,7.989874E-1,0E0,8.226857E-1,0E0,7.740896E-1,0E0,8.930917E-1,0E0,8.379283E-1,0E0,7.967701E-1,0E0,8.715372E-1,0E0,7.421236E-1,0E0,8.839989E-1,8.1481075E-1,0E0,6.4922523E-1,0E0,0E0,8.7008333E-1,7.81013E-1,0E0,9.2464304E-1,0E0,6.6631603E-1,0E0,0E0,8.7122583E-1,5.7984734E-1,0E0,0E0,9.5598984E-1,0E0,4.9160957E-1,0E0,0E0,0E0,0E0],"parents":[2147483647,0,0,1,1,2,2,4,4,5,5,7,7,10,10,11,11,14,14,16,16,18,18,20,20,22,22,24,24,26,26,28,28,30,30,31,31,33,33,36,36,37,37,39,39,41,41,44,44,45,45,48,48,50,50],"right_children":[2,4,6,-1,8,10,-1,12,-1,-1,14,16,-1,-1,18,-1,20,-1,22,-1,24,-1,26,-1,28,-1,30,-1,32,-1,34,36,-1,38,-1,-1,40,42,-1,44,-1,46,-1,-1,48,50,-1,-1,52,-1,54,-1,-1,-1,-1],"split_conditions":[-3.2209275E0,-1.0303309E3,4.898014E11,-0E0,2.0285654E4,1.3824422E1,-0E0,1.0880155E4,-0E0,-0E0,3.048625E3,5.716E2,-0E0,-0E0,-2.012354E4,-0E0,-5.020159E4,-0E0,6.8077745E0,-0E0,-1.6728698E13,-0E0,-2.0964348E4,-0E0,-9.5280625E3,-0E0,4.943145E2,-0E0,5.5261906E4,-0E0,6.1438803E13,1.4911125E1,-0E0,1E0,-0E0,-0E0,5.0749542E1,7.9404336E4,-0E0,2.1953148E1,-0E0,6.4481074E4,-0E0,-0E0,-2.2187982E4,1.59452E3,-0E0,-0E0,-5.462914E2,-0E0,3.2750197E4,-1.0250026E-2,-0E0,9.623502E-3,-0E0],"split_indices":[95,28,12,0,79,40,0,86,0,0,47,197,0,0,31,0,77,0,22,0,18,0,42,0,32,0,89,0,81,0,18,24,0,145,0,0,22,59,0,41,0,58,0,0,38,92,0,0,88,0,81,0,0,0,0],"split_type":[0,0,0,0,0,0,0,0,0,0,0,0,0,0,0,0,0,0,0,0,0,0,0,0,0,0,0,0,0,0,0,0,0,0,0,0,0,0,0,0,0,0,0,0,0,0,0,0,0,0,0,0,0,0,0],"sum_hessian":[1.904E3,8.9E2,1.014E3,6.3E1,8.27E2,7.61E2,2.53E2,7.59E2,6.8E1,4.1E1,7.2E2,6.72E2,8.7E1,5.4E1,6.66E2,1.3E1,6.59E2,1.2E1,6.54E2,2.4E1,6.35E2,1.2E1,6.42E2,3.5E1,6E2,1.2E1,6.3E2,3.7E1,5.63E2,1.6E1,6.14E2,5.44E2,1.9E1,6.09E2,5E0,4.9E1,4.95E2,5.64E2,4.5E1,4.9E2,5E0,5.57E2,7E0,7E0,4.83E2,5.53E2,4E0,1.2E1,4.71E2,3E1,5.23E2,4.57E2,1.4E1,5.17E2,6E0],"tree_param":{"num_deleted":"0","num_feature":"200","num_nodes":"55","size_leaf_vector":"1"}},{"base_weights":[-0E0],"categories":[],"categories_nodes":[],"categories_segments":[],"categories_sizes":[],"default_left":[0],"id":62,"left_children":[-1],"loss_changes":[0E0],"parents":[2147483647],"right_children":[-1],"split_conditions":[-0E0],"split_indices":[0],"split_type":[0],"sum_hessian":[1.852E3],"tree_param":{"num_deleted":"0","num_feature":"200","num_nodes":"1","size_leaf_vector":"1"}},{"base_weights":[-0E0,-0E0,4.730381E-3,2.9382013E-2,-0E0,-0E0,5.0911486E-2,-0E0,6.575576E-2,-0E0,8.116596E-2,-0E0,9.7398736E-2,-0E0,1.12162985E-1,-0E0,1.2692499E-1,-0E0,1.428522E-1,1.5089887E-1,-0E0,1.58597E-1,-0E0,-0E0,1.6699119E-1,1.7336197E-1,-0E0,-0E0,1.2753108E-2],"categories":[],"categories_nodes":[],"categories_segments":[],"categories_sizes":[],"default_left":[0,0,0,0,0,0,0,0,0,0,0,0,0,0,0,0,0,0,0,0,0,0,0,0,0,0,0,0,0],"id":63,"left_children":[1,-1,3,5,-1,-1,7,-1,9,-1,11,-1,13,-1,15,-1,17,-1,19,21,-1,23,-1,-1,25,27,-1,-1,-1],"loss_changes":[2.7945537E-2,0E0,9.025899E-1,1.3060278E0,0E0,0E0,1.3819492E0,0E0,1.4863193E0,0E0,1.506115E0,0E0,1.8416433E0,0E0,1.8397112E0,0E0,1.602355E0,0E0,1.2411375E0,1.2989779E0,0E0,1.2059183E0,0E0,0E0,8.555088E-1,6.270771E-1,0E0,0E0,0E0],"parents":[2147483647,0,0,2,2,3,3,6,6,8,8,10,10,12,12,14,14,16,16,18,18,19,19,21,21,24,24,25,25],"right_children":[2,-1,4,6,-1,-1,8,-1,10,-1,12,-1,14,-1,16,-1,18,-1,20,22,-1,24,-1,-1,26,28,-1,-1,-1],"split_conditions":[-4.6655052E1,-0E0,1.8564341E3,2.497175E1,-0E0,-0E0,-4.960348E4,-0E0,3E0,-0E0,-1.7715503E3,-0E0,-5.605958E2,-0E0,-2.5154424E3,-0E0,1.0130048E-1,-0E0,1.7173365E4,3.1455262E5,-0E0,7.886673E0,-0E0,-0E0,-1.0707292E3,-2.1249005E5,-0E0,-0E0,1.2753108E-2],"split_indices":[35,0,87,25,0,0,83,0,1,0,13,0,70,0,28,0,5,0,13,75,0,22,0,0,91,84,0,0,0],"split_type":[0,0,0,0,0,0,0,0,0,0,0,0,0,0,0,0,0,0,0,0,0,0,0,0,0,0,0,0,0],"sum_hessian":[1.847E3,6.05E2,1.242E3,1.071E3,1.71E2,2.15E2,8.56E2,2.6E1,8.3E2,6.2E1,7.68E2,7.8E1,6.9E2,2.5E1,6.65E2,3.3E1,6.32E2,5.6E1,5.76E2,5.7E2,6E0,5.67E2,3E0,1.3E1,5.54E2,5.42E2,1.2E1,4E0,5.38E2],"tree_param":{"num_deleted":"0","num_feature":"200","num_nodes":"29","size_leaf_vector":"1"}},{"base_weights":[-0E0],"categories":[],"categories_nodes":[],"categories_segments":[],"categories_sizes":[],"default_left":[0],"id":64,"left_children":[-1],"loss_changes":[0E0],"parents":[2147483647],"right_children":[-1],"split_conditions":[-0E0],"split_indices":[0],"split_type":[0],"sum_hessian":[1.904E3],"tree_param":{"num_deleted":"0","num_feature":"200","num_nodes":"1","size_leaf_vector":"1"}},{"base_weights":[-0E0],"categories":[],"categories_nodes":[],"categories_segments":[],"categories_sizes":[],"default_left":[0],"id":65,"left_children":[-1],"loss_changes":[0E0],"parents":[2147483647],"right_children":[-1],"split_conditions":[-0E0],"split_indices":[0],"split_type":[0],"sum_hessian":[1.866E3],"tree_param":{"num_deleted":"0","num_feature":"200","num_nodes":"1","size_leaf_vector":"1"}},{"base_weights":[-0E0,-0E0,1.1965858E-3,3.9402984E-2,-0E0,-0E0,6.713775E-2,-0E0,8.628944E-2,1.13476455E-1,-0E0,1.2966283E-1,-0E0,-0E0,1.405653E-1,-0E0,1.5420312E-1,1.6446902E-1,-0E0,-0E0,1.7555663E-1,1.8615872E-1,-0E0,1.9525762E-1,-0E0,2.0488492E-1,-0E0,-0E0,1.512406E-2],"categories":[],"categories_nodes":[],"categories_segments":[],"categories_sizes":[],"default_left":[0,0,0,0,0,0,0,0,0,0,0,0,0,0,0,0,0,0,0,0,0,0,0,0,0,0,0,0,0],"id":66,"left_children":[1,-1,3,5,-1,-1,7,-1,9,11,-1,13,-1,-1,15,-1,17,19,-1,-1,21,23,-1,25,-1,27,-1,-1,-1],"loss_changes":[1.1352574E-3,0E0,1.0171785E0,1.3475639E0,0E0,0E0,1.3635969E0,0E0,1.7931523E0,1.2003083E0,0E0,1.0397954E0,0E0,0E0,1.1513557E0,0E0,1.0911484E0,1.1170855E0,0E0,0E0,1.072052E0,1.0305557E0,0E0,1.0844107E0,0E0,6.23847E-1,0E0,0E0,0E0],"parents":[2147483647,0,0,2,2,3,3,6,6,8,8,9,9,11,11,14,14,16,16,17,17,20,20,21,21,23,23,25,25],"right_children":[2,-1,4,6,-1,-1,8,-1,10,12,-1,14,-1,-1,16,-1,18,20,-1,-1,22,24,-1,26,-1,28,-1,-1,-1],"split_conditions":[1.3539323E2,-0E0,8.3625257E12,0E0,-0E0,-0E0,-8.489694E3,-0E0,-3.5818167E3,4.913E3,-0E0,-5.1197654E-1,-0E0,-0E0,3.5587546E3,-0E0,2.3374462E5,-1.170277E3,-0E0,-0E0,2.999238E2,4.0328906E4,-0E0,1.7688014E3,-0E0,3.2850378E2,-0E0,-0E0,1.512406E-2],"split_indices":[10,0,12,3,0,0,29,0,91,37,0,40,0,0,92,0,45,68,0,0,72,65,0,69,0,43,0,0,0],"split_type":[0,0,0,0,0,0,0,0,0,0,0,0,0,0,0,0,0,0,0,0,0,0,0,0,0,0,0,0,0],"sum_hessian":[1.873E3,1.087E3,7.86E2,6.49E2,1.37E2,1.31E2,5.18E2,2.4E1,4.94E2,4.22E2,7.2E1,3.93E2,2.9E1,7E0,3.86E2,1.8E1,3.68E2,3.63E2,5E0,9E0,3.54E2,3.45E2,9E0,3.4E2,5E0,3.34E2,6E0,3E0,3.31E2],"tree_param":{"num_deleted":"0","num_feature":"200","num_nodes":"29","size_leaf_vector":"1"}},{"base_weights":[-0E0,-0E0,-7.7870823E-3,-0E0,-2.8754182E-2,-5.4809853E-2,-0E0,-0E0,-8.7088734E-2,-0E0,-1.1600748E-1,-0E0,-1.3300775E-1,-0E0,-1.5275592E-1,-0E0,-1.678547E-1,-1.816106E-1,-0E0,-0E0,-1.9661196E-1,-0E0,-2.1113835E-1,-2.2363028E-1,-0E0,-2.3438978E-1,-0E0,-0E0,-1.7578417E-2],"categories":[],"categories_nodes":[],"categories_segments":[],"categories_sizes":[],"default_left":[0,0,0,0,0,0,0,0,0,0,0,0,0,0,0,0,0,0,0,0,0,0,0,0,0,0,0,0,0],"id":67,"left_children":[1,-1,3,-1,5,7,-1,-1,9,-1,11,-1,13,-1,15,-1,17,19,-1,-1,21,-1,23,25,-1,27,-1,-1,-1],"loss_changes":[6.869622E-2,0E0,8.282847E-1,0E0,1.911506E0,2.56038E0,0E0,0E0,2.596476E0,0E0,2.3287034E0,0E0,2.187005E0,0E0,2.0539255E0,0E0,2.0511665E0,1.809536E0,0E0,0E0,1.8825302E0,0E0,1.8703651E0,1.8529015E0,0E0,1.7243633E0,0E0,0E0,0E0],"parents":[2147483647,0,0,2,2,4,4,5,5,8,8,10,10,12,12,14,14,16,16,17,17,20,20,22,22,23,23,25,25],"right_children":[2,-1,4,-1,6,8,-1,-1,10,-1,12,-1,14,-1,16,-1,18,20,-1,-1,22,-1,24,26,-1,28,-1,-1,-1],"split_conditions":[2.2430608E5,-0E0,-6.3296515E2,-0E0,1E0,-4.6162017E3,-0E0,-0E0,-9.1269366E2,-0E0,-3.4268805E4,-0E0,6.5101657E0,-0E0,-3.559546E4,-0E0,4.9235305E4,-8E3,-0E0,-0E0,-3.829852E4,-0E0,9.664613E-1,1.9635103E5,-0E0,5.682E2,-0E0,-0E0,-1.7578417E-2],"split_indices":[16,0,98,0,133,85,0,0,32,0,60,0,21,0,77,0,81,13,0,0,84,0,5,63,0,196,0,0,0],"split_type":[0,0,0,0,0,0,0,0,0,0,0,0,0,0,0,0,0,0,0,0,0,0,0,0,0,0,0,0,0],"sum_hessian":[1.834E3,7.08E2,1.126E3,4.8E1,1.078E3,9.28E2,1.5E2,2.27E2,7.01E2,1.16E2,5.85E2,1E1,5.75E2,4.7E1,5.28E2,1.9E1,5.09E2,4.96E2,1.3E1,2.7E1,4.69E2,2.1E1,4.48E2,4.36E2,1.2E1,4.3E2,6E0,6E0,4.24E2],"tree_param":{"num_deleted":"0","num_feature":"200","num_nodes":"29","size_leaf_vector":"1"}},{"base_weights":[-0E0],"categories":[],"categories_nodes":[],"categories_segments":[],"categories_sizes":[],"default_left":[0],"id":68,"left_children":[-1],"loss_changes":[0E0],"parents":[2147483647],"right_children":[-1],"split_conditions":[-0E0],"split_indices":[0],"split_type":[0],"sum_hessian":[1.911E3],"tree_param":{"num_deleted":"0","num_feature":"200","num_nodes":"1","size_leaf_vector":"1"}},{"base_weights":[-0E0],"categories":[],"categories_nodes":[],"categories_segments":[],"categories_sizes":[],"default_left":[0],"id":69,"left_children":[-1],"loss_changes":[0E0],"parents":[2147483647],"right_children":[-1],"split_conditions":[-0E0],"split_indices":[0],"split_type":[0],"sum_hessian":[1.872E3],"tree_param":{"num_deleted":"0","num_feature":"200","num_nodes":"1","size_leaf_vector":"1"}},{"base_weights":[-0E0],"categories":[],"categories_nodes":[],"categories_segments":[],"categories_sizes":[],"default_left":[0],"id":70,"left_children":[-1],"loss_changes":[0E0],"parents":[2147483647],"right_children":[-1],"split_conditions":[-0E0],"split_indices":[0],"split_type":[0],"sum_hessian":[1.858E3],"tree_param":{"num_deleted":"0","num_feature":"200","num_nodes":"1","size_leaf_vector":"1"}},{"base_weights":[-0E0],"categories":[],"categories_nodes":[],"categories_segments":[],"categories_sizes":[],"default_left":[0],"id":71,"left_children":[-1],"loss_changes":[0E0],"parents":[2147483647],"right_children":[-1],"split_conditions":[-0E0],"split_indices":[0],"split_type":[0],"sum_hessian":[1.929E3],"tree_param":{"num_deleted":"0","num_feature":"200","num_nodes":"1","size_leaf_vector":"1"}},{"base_weights":[-0E0],"categories":[],"categories_nodes":[],"categories_segments":[],"categories_sizes":[],"default_left":[0],"id":72,"left_children":[-1],"loss_changes":[0E0],"parents":[2147483647],"right_children":[-1],"split_conditions":[-0E0],"split_indices":[0],"split_type":[0],"sum_hessian":[1.901E3],"tree_param":{"num_deleted":"0","num_feature":"200","num_nodes":"1","size_leaf_vector":"1"}},{"base_weights":[-0E0],"categories":[],"categories_nodes":[],"categories_segments":[],"categories_sizes":[],"default_left":[0],"id":73,"left_children":[-1],"loss_changes":[0E0],"parents":[2147483647],"right_children":[-1],"split_conditions":[-0E0],"split_indices":[0],"split_type":[0],"sum_hessian":[1.859E3],"tree_param":{"num_deleted":"0","num_feature":"200","num_nodes":"1","size_leaf_vector":"1"}},{"base_weights":[-0E0,-0E0,1.5126573E-3,-2.0569379E-2,-0E0,3.2818537E-2,-0E0,-5.228942E-2,-0E0,-0E0,6.6967376E-2,-7.272465E-2,-0E0,-0E0,8.735907E-2,-0E0,-9.458508E-2,-0E0,1.05796784E-1,-1.1219995E-1,-0E0,1.2150621E-1,-0E0,-0E0,-1.28905E-1,-0E0,1.3853717E-1,-1.4853244E-1,-0E0,-0E0,1.4983776E-1,-1.6181286E-1,-0E0,1.5886231E-1,-0E0,-0E0,-1.7246313E-1,1.6671698E-1,-0E0,-0E0,-1.8063428E-1,1.8808363E-1,-0E0,-1.8992995E-1,-0E0,-0E0,1.9777268E-1,-0E0,-2.0023283E-1,2.072263E-1,-0E0,-1.55839985E-2,-0E0,-0E0,1.5284648E-2],"categories":[],"categories_nodes":[],"categories_segments":[],"categories_sizes":[],"default_left":[0,0,0,0,0,0,0,0,0,0,0,0,0,0,0,0,0,0,0,0,0,0,0,0,0,0,0,0,0,0,0,0,0,0,0,0,0,0,0,0,0,0,0,0,0,0,0,0,0,0,0,0,0,0,0],"id":74,"left_children":[1,3,5,7,-1,9,-1,11,-1,-1,13,15,-1,-1,17,-1,19,-1,21,23,-1,25,-1,-1,27,-1,29,31,-1,-1,33,35,-1,37,-1,-1,39,41,-1,-1,43,45,-1,47,-1,-1,49,-1,51,53,-1,-1,-1,-1,-1],"loss_changes":[2.3976846E-3,3.5239032E-1,8.989676E-1,1.3096608E0,0E0,2.0041294E0,0E0,1.4736084E0,0E0,0E0,1.7641215E0,1.6674368E0,0E0,0E0,1.7649751E0,0E0,1.4394321E0,0E0,1.6836815E0,1.3990407E0,0E0,1.7827482E0,0E0,0E0,1.7541132E0,0E0,1.2770252E0,1.2054129E0,0E0,0E0,1.3113174E0,1.0844984E0,0E0,1.1821775E0,0E0,0E0,9.703922E-1,1.1818495E0,0E0,0E0,1.0114441E0,9.8303795E-1,0E0,8.815241E-1,0E0,0E0,5.6248E-1,0E0,1.1186056E0,4.7813988E-1,0E0,0E0,0E0,0E0,0E0],"parents":[2147483647,0,0,1,1,2,2,3,3,5,5,7,7,10,10,11,11,14,14,16,16,18,18,19,19,21,21,24,24,26,26,27,27,30,30,31,31,33,33,36,36,37,37,40,40,41,41,43,43,46,46,48,48,49,49],"right_children":[2,4,6,8,-1,10,-1,12,-1,-1,14,16,-1,-1,18,-1,20,-1,22,24,-1,26,-1,-1,28,-1,30,32,-1,-1,34,36,-1,38,-1,-1,40,42,-1,-1,44,46,-1,48,-1,-1,50,-1,52,54,-1,-1,-1,-1,-1],"split_conditions":[-3.5944603E1,5.3671585E1,1E0,1E0,-0E0,-4.969038E3,-0E0,7.0263E4,-0E0,-0E0,-2.0610184E4,-1.1390617E4,-0E0,-0E0,-4.6162017E3,-0E0,9.778786E-1,-0E0,1.1390625E4,-1.7733911E2,-0E0,1.5127392E1,-0E0,-0E0,6.4348306E3,-0E0,3.832991E-2,1.1848243E3,-0E0,-0E0,1.7956E3,1.5745546E2,-0E0,6.405027E11,-0E0,-0E0,-2.1249005E5,2.197E3,-0E0,-0E0,-7.61158E2,-1.9961777E4,-0E0,3.6117816E0,-0E0,-0E0,1E0,-0E0,1E0,-3.2295271E4,-0E0,-1.55839985E-2,-0E0,-0E0,1.5284648E-2],"split_indices":[61,23,127,192,0,84,0,0,0,0,57,64,0,0,82,0,7,0,38,97,0,24,0,0,38,0,5,95,0,0,197,41,0,11,0,0,82,37,0,0,88,65,0,20,0,0,145,0,139,14,0,0,0,0,0],"split_type":[0,0,0,0,0,0,0,0,0,0,0,0,0,0,0,0,0,0,0,0,0,0,0,0,0,0,0,0,0,0,0,0,0,0,0,0,0,0,0,0,0,0,0,0,0,0,0,0,0,0,0,0,0,0,0],"sum_hessian":[1.917E3,8.76E2,1.041E3,8.26E2,5E1,8.3E2,2.11E2,6.01E2,2.25E2,1.89E2,6.41E2,5.86E2,1.5E1,3.6E1,6.05E2,5.6E1,5.3E2,3.7E1,5.68E2,4.89E2,4.1E1,5.43E2,2.5E1,3.6E1,4.53E2,3.4E1,5.09E2,4.19E2,3.4E1,1.8E1,4.91E2,3.98E2,2.1E1,4.88E2,3E0,1.2E1,3.86E2,4.85E2,3E0,5E0,3.81E2,4.13E2,7.2E1,3.72E2,9E0,1.5E1,3.98E2,1.6E1,3.56E2,3.75E2,2.3E1,3.27E2,2.9E1,8E0,3.67E2],"tree_param":{"num_deleted":"0","num_feature":"200","num_nodes":"55","size_leaf_vector":"1"}},{"base_weights":[-0E0],"categories":[],"categories_nodes":[],"categories_segments":[],"categories_sizes":[],"default_left":[0],"id":75,"left_children":[-1],"loss_changes":[0E0],"parents":[2147483647],"right_children":[-1],"split_conditions":[-0E0],"split_indices":[0],"split_type":[0],"sum_hessian":[1.842E3],"tree_param":{"num_deleted":"0","num_feature":"200","num_nodes":"1","size_leaf_vector":"1"}},{"base_weights":[-0E0],"categories":[],"categories_nodes":[],"categories_segments":[],"categories_sizes":[],"default_left":[0],"id":76,"left_children":[-1],"loss_changes":[0E0],"parents":[2147483647],"right_children":[-1],"split_conditions":[-0E0],"split_indices":[0],"split_type":[0],"sum_hessian":[1.899E3],"tree_param":{"num_deleted":"0","num_feature":"200","num_nodes":"1","size_leaf_vector":"1"}},{"base_weights":[-0E0],"categories":[],"categories_nodes":[],