{"learner":{"attributes":{"best_iteration":"57","best_score":"1.0383724018565719"},"feature_names":["Volume","day_of_month","year","day_sin","day_cos","day_of_year_norm","dayy_sin","dayy_cos","is_holiday","Log_Return","Log_Return_change1","Log_Return23","Log_Return123","Log_High_Return","Log_High_Return_change1","Log_High_Return_change3","Log_High_Return13","Log_High_Return23","Log_High_Return123","Close_Roll_Std_5","High_Roll_Std_5","High_Roll_Std_10","High_Roll_Std_20","High_Roll_Std_30","High_Roll_Std_60","High_Roll_Std_90","High_Roll_Std_250","High_Roll_Max_250","Log_Return_Lag_1","Log_Return_Lag_2","Log_Return_Lag_3","Log_Return_Lag_5","Log_Return_Lag_10","Log_Return_Lag_20","Log_Return_Lag_30","Log_Return_Lag_60","Log_Return_Lag_90","Log_Return_Lag_120","Log_Return_Lag_180","Log_Return_Lag_250","Log_Return_Roll_Max_5","Log_Return_Roll_Max_10","Log_Return_Roll_Mean_20","Log_Return_Roll_Max_20","Log_Return_Roll_Mean_30","Log_Return_Roll_Max_30","Log_Return_Roll_Mean_60","Log_Return_Roll_Max_60","Log_Return_Roll_Mean_90","Log_Return_Roll_Max_90","Log_Return_Roll_Mean_180","Log_Return_Roll_Max_180","Log_Return_Roll_Mean_250","Log_Return_Roll_Max_250","Log_Return_change1_Lag_1","Log_Return_change1_Lag_2","Log_Return_change1_Lag_3","Log_Return_change1_Lag_5","Log_Return_change1_Lag_10","Log_Return_change1_Lag_20","Log_Return_change1_Lag_30","Log_Return_change1_Lag_60","Log_Return_change1_Lag_90","Log_Return_change1_Lag_120","Log_Return_change1_Lag_180","Log_Return_change1_Lag_250","Log_Return_change1_Roll_Mean_5","Log_Return_change1_Roll_Min_5","Log_Return_change1_Roll_Mean_10","Log_Return_change1_Roll_Mean_20","Log_Return_change1_Roll_Mean_30","Log_Return_change1_Roll_Mean_60","Log_Return_change1_Roll_Mean_90","Log_Return_change1_Roll_Mean_180","Log_Return_change1_Roll_Mean_250","Log_Return_change2_Lag_1","Log_Return_change2_Lag_2","Log_Return_change2_Lag_3","Log_Return_change2_Lag_5","Log_Return_change2_Lag_10","Log_Return_change2_Lag_20","Log_Return_change2_Lag_30","Log_Return_change2_Lag_60","Log_Return_change2_Lag_90","Log_Return_change2_Lag_120","Log_Return_change2_Lag_180","Log_Return_change2_Lag_250","Log_Return_change2_Roll_Mean_5","Log_Return_change2_Roll_Min_5","Log_Return_change2_Roll_Max_5","Log_Return_change2_Roll_Mean_10","Log_Return_change2_Roll_Min_10","Log_Return_change2_Roll_Max_10","Log_Return_change2_Roll_Mean_20","Log_Return_change2_Roll_Max_20","Log_Return_change2_Roll_Mean_30","Log_Return_change2_Roll_Max_30","Log_Return_change2_Roll_Mean_60","Log_Return_change2_Roll_Mean_90","Log_Return_change2_Roll_Max_90","Log_Return_change2_Roll_Mean_180","Log_Return_change2_Roll_Max_180","Log_Return_change2_Roll_Mean_250","Log_Return_change2_Roll_Max_250","rsi_5_long","rsi_5_short","rsi_5_combined","rsi_7_long","rsi_7_short","rsi_7_combined","rsi_10_long","rsi_10_short","rsi_10_combined","macd_5_10_5_long","macd_5_10_5_short","macd_5_10_5_combined","stoch_3_2_2_long","stoch_3_2_2_short","stoch_3_2_2_combined","cci_6_long","cci_6_short","cci_6_combined","cci_10_long","cci_10_short","cci_10_combined","obv_combined","ad_combined","atr_10_long","atr_10_short","atr_10_combined","sma_2_long","sma_2_short","sma_2_combined","sma_3_long","sma_3_short","sma_3_combined","sma_5_long","sma_5_short","sma_5_combined","sma_8_long","sma_8_short","sma_8_combined","sma_13_long","sma_13_short","sma_13_combined","sma_21_long","sma_21_short","sma_21_combined","ema_3_long","ema_3_short","ema_3_combined","ema_5_long","ema_5_short","ema_5_combined","ema_8_long","ema_8_short","ema_8_combined","ema_13_long","ema_13_short","ema_13_combined","ema_21_long","ema_21_short","ema_21_combined","bb_3_1.5_1.5_long","bb_3_1.5_1.5_short","bb_3_1.5_1.5_combined","bb_3_2.0_2.0_long","bb_3_2.0_2.0_short","bb_3_2.0_2.0_combined","bb_5_1.5_1.5_long","bb_5_1.5_1.5_short","bb_5_1.5_1.5_combined","bb_5_2.0_2.0_long","bb_5_2.0_2.0_short","bb_5_2.0_2.0_combined","bb_8_2.0_2.0_long","bb_8_2.0_2.0_short","bb_8_2.0_2.0_combined","ht_dcperiod_combined","ht_phasor_short","ht_phasor_combined","typprice_long","typprice_short","typprice_combined","linearreg_3_combined","linearreg_5_combined","linearreg_8_combined","stddev_2_2_long","stddev_2_2_short","stddev_2_2_combined","stddev_3_2_long","stddev_3_2_short","stddev_3_2_combined","stddev_5_2_long","stddev_5_2_short","stddev_5_2_combined","Open","High","Low","Close"],"feature_types":["float","int","int","float","float","float","float","float","int","float","float","float","float","float","float","float","float","float","float","float","float","float","float","float","float","float","float","float","float","float","float","float","float","float","float","float","float","float","float","float","float","float","float","float","float","float","float","float","float","float","float","float","float","float","float","float","float","float","float","float","float","float","float","float","float","float","float","float","float","float","float","float","float","float","float","float","float","float","float","float","float","float","float","float","float","float","float","float","float","float","float","float","float","float","float","float","float","float","float","float","float","float","float","float","int","int","int","int","int","int","int","int","int","int","int","int","int","int","int","int","int","int","int","int","int","int","int","int","int","int","int","int","int","int","int","int","int","int","int","int","int","int","int","int","int","int","int","int","int","int","int","int","int","int","int","int","int","int","int","int","int","int","int","int","int","int","int","int","int","int","int","int","int","int","int","int","int","int","int","int","int","int","int","int","int","int","int","int","int","int","int","int","int","int","int","int","float","float","float","float"],"gradient_booster":{"model":{"gbtree_model_param":{"num_parallel_tree":"1","num_trees":"108"},"iteration_indptr":[0,1,2,3,4,5,6,7,8,9,10,11,12,13,14,15,16,17,18,19,20,21,22,23,24,25,26,27,28,29,30,31,32,33,34,35,36,37,38,39,40,41,42,43,44,45,46,47,48,49,50,51,52,53,54,55,56,57,58,59,60,61,62,63,64,65,66,67,68,69,70,71,72,73,74,75,76,77,78,79,80,81,82,83,84,85,86,87,88,89,90,91,92,93,94,95,96,97,98,99,100,101,102,103,104,105,106,107,108],"tree_info":[0,0,0,0,0,0,0,0,0,0,0,0,0,0,0,0,0,0,0,0,0,0,0,0,0,0,0,0,0,0,0,0,0,0,0,0,0,0,0,0,0,0,0,0,0,0,0,0,0,0,0,0,0,0,0,0,0,0,0,0,0,0,0,0,0,0,0,0,0,0,0,0,0,0,0,0,0,0,0,0,0,0,0,0,0,0,0,0,0,0,0,0,0,0,0,0,0,0,0,0,0,0,0,0,0,0,0,0],"trees":[{"base_weights":[-0E0,-2.5454175E-2,-0E0,-7.829964E-2,-0E0,1.939386E-2,-0E0,-1.0708027E-1,-0E0,4.8440862E-2,-0E0,-1.3732491E-1,-0E0,6.7622714E-2,-0E0,-0E0,-1.5966387E-1,-0E0,8.206471E-2,-1.8464236E-1,-0E0,-0E0,9.7161405E-2,-0E0,-2.0747977E-1,-0E0,1.1433316E-1,-0E0,-2.3265307E-1,-0E0,1.2829599E-1,-0E0,-2.5643384E-1,1.5020525E-1,-0E0,-2.6423055E-1,-0E0,1.6034816E-1,-0E0,-0E0,-2.8391957E-1,-0E0,1.7737488E-1,-0E0,-2.9557317E-1,-0E0,1.8748248E-1,-0E0,-3.077783E-1,1.976552E-1,-0E0,-3.1555724E-1,-0E0,-0E0,2.0845377E-1,-0E0,-2.4109522E-2,-0E0,1.6782705E-2],"categories":[],"categories_nodes":[],"categories_segments":[],"categories_sizes":[],"default_left":[0,0,0,0,0,0,0,0,0,0,0,0,0,0,0,0,0,0,0,0,0,0,0,0,0,0,0,0,0,0,0,0,0,0,0,0,0,0,0,0,0,0,0,0,0,0,0,0,0,0,0,0,0,0,0,0,0,0,0],"id":0,"left_children":[1,3,5,7,-1,9,-1,11,-1,13,-1,15,-1,17,-1,-1,19,-1,21,23,-1,-1,25,-1,27,-1,29,-1,31,-1,33,-1,35,37,-1,39,-1,41,-1,-1,43,-1,45,-1,47,-1,49,-1,51,53,-1,55,-1,-1,57,-1,-1,-1,-1],"loss_changes":[5.74199E-1,4.049834E0,5.860827E-1,3.278757E0,0E0,1.6037476E0,0E0,3.963233E0,0E0,1.7438371E0,0E0,3.3842783E0,0E0,1.5633004E0,0E0,0E0,3.4061584E0,0E0,1.4910145E0,2.5328026E0,0E0,0E0,1.8778329E0,0E0,3.3968182E0,0E0,1.9520292E0,0E0,2.7842255E0,0E0,1.8668795E0,0E0,1.3405628E0,1.6681175E0,0E0,1.697422E0,0E0,1.4166479E0,0E0,0E0,2.0232925E0,0E0,1.4266396E0,0E0,1.596962E0,0E0,1.4088593E0,0E0,1.343544E0,1.3931885E0,0E0,1.1436882E0,0E0,0E0,1.3734646E0,0E0,0E0,0E0,0E0],"parents":[2147483647,0,0,1,1,2,2,3,3,5,5,7,7,9,9,11,11,13,13,16,16,18,18,19,19,22,22,24,24,26,26,28,28,30,30,32,32,33,33,35,35,37,37,40,40,42,42,44,44,46,46,48,48,49,49,51,51,54,54],"right_children":[2,4,6,8,-1,10,-1,12,-1,14,-1,16,-1,18,-1,-1,20,-1,22,24,-1,-1,26,-1,28,-1,30,-1,32,-1,34,-1,36,38,-1,40,-1,42,-1,-1,44,-1,46,-1,48,-1,50,-1,52,54,-1,56,-1,-1,58,-1,-1,-1,-1],"split_conditions":[-1.2506223E3,1.4428923E3,1.1944303E4,7.049748E2,-0E0,2.014E3,-0E0,9.657866E-1,-0E0,3.7677504E4,-0E0,-2.458067E4,-0E0,-1.0360128E4,-0E0,-0E0,-5.9258417E2,-0E0,-5.2923755E2,-3.8322452E6,-0E0,-0E0,-2.685633E3,-0E0,0E0,-0E0,3.8472192E2,-0E0,1.5058179E-1,-0E0,6.9357275E3,-0E0,9.989315E-1,2.0592408E5,-0E0,-1.0311557E2,-0E0,1.9228632E3,-0E0,-0E0,-3.528751E4,-0E0,-1.0940976E4,-0E0,-1.0021559E2,-0E0,9.9630326E-1,-0E0,5.2995255E6,5.525E2,-0E0,-4.023467E4,-0E0,-0E0,-1.498845E12,-0E0,-2.4109522E-2,-0E0,1.6782705E-2],"split_indices":[84,35,59,37,0,2,0,7,0,84,0,58,0,33,0,0,67,0,84,16,0,0,13,0,105,0,89,0,5,0,83,0,6,86,0,71,0,92,0,0,31,0,28,0,102,0,7,0,94,198,0,79,0,0,18,0,0,0,0],"split_type":[0,0,0,0,0,0,0,0,0,0,0,0,0,0,0,0,0,0,0,0,0,0,0,0,0,0,0,0,0,0,0,0,0,0,0,0,0,0,0,0,0,0,0,0,0,0,0,0,0,0,0,0,0,0,0,0,0,0,0],"sum_hessian":[2.561E3,8.85E2,1.676E3,7.53E2,1.32E2,1.557E3,1.19E2,6.88E2,6.5E1,9.32E2,6.25E2,6.28E2,6E1,8.59E2,7.3E1,3.1E1,5.97E2,4.4E1,8.15E2,5.46E2,5.1E1,7.6E1,7.39E2,5.5E1,4.91E2,6.2E1,6.77E2,3.8E1,4.53E2,2.1E1,6.56E2,3.8E1,4.15E2,5.61E2,9.5E1,4.1E2,5E0,5.57E2,4E0,3.4E1,3.76E2,5.7E1,5E2,6E0,3.7E2,1.2E1,4.88E2,1.2E1,3.58E2,4.75E2,1.3E1,3.54E2,4E0,1.6E1,4.59E2,4E0,3.5E2,3.6E1,4.23E2],"tree_param":{"num_deleted":"0","num_feature":"200","num_nodes":"59","size_leaf_vector":"1"}},{"base_weights":[-0E0,-0E0,-2.949622E-2,9.927332E-3,-0E0,-5.4522112E-2,-0E0,-0E0,3.8187683E-2,-0E0,-8.2458265E-2,-0E0,5.2707326E-2,-0E0,-1.08107984E-1,-0E0,7.3823065E-2,-1.3427019E-1,-0E0,-0E0,9.1884844E-2,-1.5312643E-1,-0E0,-0E0,1.1053062E-1,-0E0,-1.6831325E-1,1.23754814E-1,-0E0,-1.9041088E-1,-0E0,1.4374164E-1,-0E0,-2.0552987E-1,-0E0,1.5630855E-1,-0E0,-2.1672103E-1,-0E0,-0E0,1.663399E-1,-0E0,-2.3407812E-1,-0E0,1.7538574E-1,-0E0,-2.4550916E-1,-0E0,1.8358201E-1,-0E0,-2.5877726E-1,-0E0,1.9070356E-1,-0E0,-2.6925242E-1,-0E0,1.4935593E-2,-0E0,-2.0831281E-2],"categories":[],"categories_nodes":[],"categories_segments":[],"categories_sizes":[],"default_left":[0,0,0,0,0,0,0,0,0,0,0,0,0,0,0,0,0,0,0,0,0,0,0,0,0,0,0,0,0,0,0,0,0,0,0,0,0,0,0,0,0,0,0,0,0,0,0,0,0,0,0,0,0,0,0,0,0,0,0],"id":1,"left_children":[1,3,5,7,-1,9,-1,-1,11,-1,13,-1,15,-1,17,-1,19,21,-1,-1,23,25,-1,-1,27,-1,29,31,-1,33,-1,35,-1,37,-1,39,-1,41,-1,-1,43,-1,45,-1,47,-1,49,-1,51,-1,53,-1,55,-1,57,-1,-1,-1,-1],"loss_changes":[1.4922928E0,7.915945E-2,2.6017323E0,7.4219227E-1,0E0,3.821971E0,0E0,0E0,6.8220717E-1,0E0,4.0661626E0,0E0,1.151746E0,0E0,3.580494E0,0E0,1.2725143E0,3.4821777E0,0E0,0E0,1.5481634E0,2.5768604E0,0E0,0E0,1.174295E0,0E0,2.460682E0,1.0611849E0,0E0,3.4270515E0,0E0,1.1141353E0,0E0,2.513733E0,0E0,8.647852E-1,0E0,2.9743366E0,0E0,0E0,8.6729527E-1,0E0,2.6987648E0,0E0,7.065153E-1,0E0,2.8241234E0,0E0,4.54463E-1,0E0,2.6017113E0,0E0,9.3833065E-1,0E0,2.5153885E0,0E0,0E0,0E0,0E0],"parents":[2147483647,0,0,1,1,2,2,3,3,5,5,8,8,10,10,12,12,14,14,16,16,17,17,20,20,21,21,24,24,26,26,27,27,29,29,31,31,33,33,35,35,37,37,40,40,42,42,44,44,46,46,48,48,50,50,52,52,54,54],"right_children":[2,4,6,8,-1,10,-1,-1,12,-1,14,-1,16,-1,18,-1,20,22,-1,-1,24,26,-1,-1,28,-1,30,32,-1,34,-1,36,-1,38,-1,40,-1,42,-1,-1,44,-1,46,-1,48,-1,50,-1,52,-1,54,-1,56,-1,58,-1,-1,-1,-1],"split_conditions":[7.880628E3,4.898014E11,-4.580645E3,1.3299564E1,-0E0,-2.4466191E4,-0E0,-0E0,4.4790158E2,-0E0,-2.0161174E4,-0E0,-4.41099E3,-0E0,8.9406115E-1,-0E0,0E0,-8.079181E3,-0E0,-0E0,-1.1880466E2,-9.8091614E-1,-0E0,-0E0,5.0568857E2,-0E0,1.0360331E4,2.018E3,-0E0,2.0329798E5,-0E0,1.0880155E4,-0E0,3.2461834E4,-0E0,-2.7544805E4,-0E0,0E0,-0E0,-0E0,5.525E2,-0E0,-3.528751E4,-0E0,-3.0820537E4,-0E0,-9.9039733E-1,-0E0,-2.2999424E3,-0E0,-3.4224504E4,-0E0,-2.6425186E3,-0E0,-2.336375E3,-0E0,1.4935593E-2,-0E0,-2.0831281E-2],"split_indices":[45,12,88,23,0,15,0,0,89,0,81,0,63,0,7,0,195,91,0,0,100,7,0,0,69,0,58,2,0,41,0,77,0,39,0,65,0,161,0,0,198,0,31,0,83,0,6,0,28,0,48,0,48,0,97,0,0,0,0],"split_type":[0,0,0,0,0,0,0,0,0,0,0,0,0,0,0,0,0,0,0,0,0,0,0,0,0,0,0,0,0,0,0,0,0,0,0,0,0,0,0,0,0,0,0,0,0,0,0,0,0,0,0,0,0,0,0,0,0,0,0],"sum_hessian":[2.549E3,8.35E2,1.714E3,8.02E2,3.3E1,1.376E3,3.38E2,2.4E2,5.62E2,2.13E2,1.163E3,2.2E1,5.4E2,1.39E2,1.024E3,5.4E1,4.86E2,8.62E2,1.62E2,2.2E1,4.64E2,8.11E2,5.1E1,1.7E1,4.47E2,4.9E1,7.62E2,4.33E2,1.4E1,6.63E2,9.9E1,3.72E2,6.1E1,6.5E2,1.3E1,3.6E2,1.2E1,6.38E2,1.2E1,1.1E1,3.49E2,3.7E1,6.01E2,7E0,3.42E2,1E1,5.91E2,9E0,3.33E2,1.7E1,5.74E2,1.2E1,3.21E2,8E0,5.66E2,5E0,3.16E2,5E0,5.61E2],"tree_param":{"num_deleted":"0","num_feature":"200","num_nodes":"59","size_leaf_vector":"1"}},{"base_weights":[-0E0,-0E0,1.080662E-2,-0E0,-2.4986532E-2,-0E0,6.809139E-2,-5.4296613E-2,-0E0,1.0420646E-1,-0E0,-0E0,-7.904058E-2,-0E0,1.270696E-1,-1.07701644E-1,-0E0,-0E0,1.4975983E-1,-0E0,-1.22076325E-1,-0E0,1.7041552E-1,-1.4624567E-1,-0E0,1.8973772E-1,-0E0,-1.7054407E-1,-0E0,-0E0,2.1055233E-1,-1.9224651E-1,-0E0,-0E0,2.2628605E-1,-0E0,-2.0401762E-1,-0E0,2.4387859E-1,-2.210237E-1,-0E0,-0E0,2.5473964E-1,-0E0,-2.4236876E-1,2.6920822E-1,-0E0,-2.519599E-1,-0E0,2.8536513E-1,-0E0,-0E0,-2.6749125E-1,-0E0,2.9436538E-1,-0E0,-2.0526513E-2,2.2464953E-2,-0E0],"categories":[],"categories_nodes":[],"categories_segments":[],"categories_sizes":[],"default_left":[0,0,0,0,0,0,0,0,0,0,0,0,0,0,0,0,0,0,0,0,0,0,0,0,0,0,0,0,0,0,0,0,0,0,0,0,0,0,0,0,0,0,0,0,0,0,0,0,0,0,0,0,0,0,0,0,0,0,0],"id":2,"left_children":[1,3,5,-1,7,-1,9,11,-1,13,-1,-1,15,-1,17,19,-1,-1,21,-1,23,-1,25,27,-1,29,-1,31,-1,-1,33,35,-1,-1,37,-1,39,-1,41,43,-1,-1,45,-1,47,49,-1,51,-1,53,-1,-1,55,-1,57,-1,-1,-1,-1],"loss_changes":[9.391993E-2,7.7243316E-1,2.3366203E0,0E0,2.1763544E0,0E0,2.8276608E0,2.6690476E0,0E0,2.1406264E0,0E0,0E0,2.3885384E0,0E0,1.981142E0,2.071169E0,0E0,0E0,1.9817924E0,0E0,2.2252693E0,0E0,2.2545176E0,2.7408457E0,0E0,1.9100294E0,0E0,2.7418308E0,0E0,0E0,1.3830233E0,1.8284302E0,0E0,0E0,2.3150883E0,0E0,1.98946E0,0E0,1.4908676E0,1.554472E0,0E0,0E0,1.5503063E0,0E0,1.4247055E0,1.2055683E0,0E0,1.4783669E0,0E0,9.8397255E-1,0E0,0E0,1.0860958E0,0E0,6.594105E-1,0E0,0E0,0E0,0E0],"parents":[2147483647,0,0,1,1,2,2,4,4,6,6,7,7,9,9,12,12,14,14,15,15,18,18,20,20,22,22,23,23,25,25,27,27,30,30,31,31,34,34,36,36,38,38,39,39,42,42,44,44,45,45,47,47,49,49,52,52,54,54],"right_children":[2,4,6,-1,8,-1,10,12,-1,14,-1,-1,16,-1,18,20,-1,-1,22,-1,24,-1,26,28,-1,30,-1,32,-1,-1,34,36,-1,-1,38,-1,40,-1,42,44,-1,-1,46,-1,48,50,-1,52,-1,54,-1,-1,56,-1,58,-1,-1,-1,-1],"split_conditions":[1.326491E2,7.077969E3,1.6199268E1,-0E0,3.042619E3,-0E0,1.2212464E4,-7.880628E3,-0E0,-4.799355E13,-0E0,-0E0,-4.580645E3,-0E0,0E0,-3.4224504E4,-0E0,-0E0,0E0,-0E0,1.0880155E4,-0E0,4.2210306E2,1E0,-0E0,-5.000297E3,-0E0,1.4247744E4,-0E0,-0E0,4.2035613E4,-3.008016E4,-0E0,-0E0,1.2171162E4,-0E0,9.861463E-1,-0E0,-4.6656E4,2.8395493E1,-0E0,-0E0,6.4223508E4,-0E0,5.6396826E3,9.261E3,-0E0,0E0,-0E0,-7.994142E-3,-0E0,-0E0,-2.1249005E5,-0E0,6.4223508E4,-0E0,-2.0526513E-2,2.2464953E-2,-0E0],"split_indices":[35,45,22,0,63,0,14,35,0,18,0,0,88,0,156,48,0,0,117,0,86,0,72,119,0,38,0,64,0,0,101,34,0,0,96,0,6,0,34,25,0,0,85,0,39,28,0,117,0,40,0,0,80,0,75,0,0,0,0],"split_type":[0,0,0,0,0,0,0,0,0,0,0,0,0,0,0,0,0,0,0,0,0,0,0,0,0,0,0,0,0,0,0,0,0,0,0,0,0,0,0,0,0,0,0,0,0,0,0,0,0,0,0,0,0,0,0,0,0,0,0],"sum_hessian":[2.566E3,1.763E3,8.03E2,5.27E2,1.236E3,2.8E2,5.23E2,9.99E2,2.37E2,4.83E2,4E1,1.01E2,8.98E2,2.6E1,4.57E2,6.89E2,2.09E2,4E1,4.17E2,1.4E1,6.75E2,2.7E1,3.9E2,5.74E2,1.01E2,3.77E2,1.3E1,5.16E2,5.8E1,2.8E1,3.49E2,4.8E2,3.6E1,2E1,3.29E2,1E1,4.7E2,7E0,3.22E2,4.41E2,2.9E1,4E0,3.18E2,4.8E1,3.93E2,3.06E2,1.2E1,3.86E2,7E0,2.87E2,1.9E1,2.3E1,3.63E2,6E0,2.81E2,4E0,3.59E2,2.77E2,4E0],"tree_param":{"num_deleted":"0","num_feature":"200","num_nodes":"59","size_leaf_vector":"1"}},{"base_weights":[-0E0,3.7719165E-3,-9.702414E-4,2.4403524E-2,-0E0,-4.1714683E-2,-0E0,-0E0,4.254756E-2,-6.2111996E-2,-0E0,-0E0,6.639695E-2,-0E0,-8.335506E-2,8.25409E-2,-0E0,-0E0,-1.0172387E-1,-0E0,1.0959172E-1,-1.2026762E-1,-0E0,-0E0,1.22536436E-1,-0E0,-1.3598278E-1,-0E0,1.37306E-1,-0E0,-1.5320717E-1,1.4945284E-1,-0E0,-0E0,-1.7398125E-1,-0E0,1.6139816E-1,-1.9138172E-1,-0E0,-0E0,1.7219263E-1,-0E0,-2.1323253E-1,1.831699E-1,-0E0,-0E0,-2.3026626E-1,-0E0,1.8956019E-1,-0E0,-2.4712807E-1,-0E0,2.0118827E-1,-0E0,-2.5980613E-1,-0E0,1.5491968E-2,-0E0,-2.022839E-2],"categories":[],"categories_nodes":[],"categories_segments":[],"categories_sizes":[],"default_left":[0,0,0,0,0,0,0,0,0,0,0,0,0,0,0,0,0,0,0,0,0,0,0,0,0,0,0,0,0,0,0,0,0,0,0,0,0,0,0,0,0,0,0,0,0,0,0,0,0,0,0,0,0,0,0,0,0,0,0],"id":3,"left_children":[1,3,5,7,-1,9,-1,-1,11,13,-1,-1,15,-1,17,19,-1,-1,21,-1,23,25,-1,-1,27,-1,29,-1,31,-1,33,35,-1,-1,37,-1,39,41,-1,-1,43,-1,45,47,-1,-1,49,-1,51,-1,53,-1,55,-1,57,-1,-1,-1,-1],"loss_changes":[2.0516157E-2,7.2877014E-1,1.2608123E0,1.3142122E0,0E0,1.3352618E0,0E0,0E0,1.6374385E0,1.7816131E0,0E0,0E0,1.8747997E0,0E0,1.7700462E0,1.9466152E0,0E0,0E0,2.0700903E0,0E0,1.5213389E0,1.7520084E0,0E0,0E0,1.6136389E0,0E0,1.8644114E0,0E0,1.4774055E0,0E0,2.2769995E0,1.4179792E0,0E0,0E0,2.0117254E0,0E0,1.428546E0,2.9827385E0,0E0,0E0,1.5011215E0,0E0,2.750389E0,9.544296E-1,0E0,0E0,2.4022236E0,0E0,7.8801346E-1,0E0,2.0804482E0,0E0,8.4560204E-1,0E0,1.8539524E0,0E0,0E0,0E0,0E0],"parents":[2147483647,0,0,1,1,2,2,3,3,5,5,8,8,9,9,12,12,14,14,15,15,18,18,20,20,21,21,24,24,26,26,28,28,30,30,31,31,34,34,36,36,37,37,40,40,42,42,43,43,46,46,48,48,50,50,52,52,54,54],"right_children":[2,4,6,8,-1,10,-1,-1,12,14,-1,-1,16,-1,18,20,-1,-1,22,-1,24,26,-1,-1,28,-1,30,-1,32,-1,34,36,-1,-1,38,-1,40,42,-1,-1,44,-1,46,48,-1,-1,50,-1,52,-1,54,-1,56,-1,58,-1,-1,-1,-1],"split_conditions":[9.581492E0,1.2008878E2,2.1775264E2,-7.049748E2,-0E0,9.750985E-1,-0E0,-0E0,-7.074868E-1,-3.5253035E4,-0E0,-0E0,1.506979E5,-0E0,6E0,-8.776087E-1,-0E0,-0E0,1.3695E4,-0E0,0E0,0E0,-0E0,-0E0,-7.812365E3,-0E0,-5.2958276E2,-0E0,7.689645E2,-0E0,-3.2013072E4,-8.952705E1,-0E0,-0E0,1E0,-0E0,-1.2812743E4,0E0,-0E0,-0E0,9.976336E-1,-0E0,-3.008016E4,1.3696725E3,-0E0,-0E0,-2.2425652E4,-0E0,2E0,-0E0,1.9611947E3,-0E0,-1.7165826E3,-0E0,-4.1283008E2,-0E0,1.5491968E-2,-0E0,-2.022839E-2],"split_indices":[19,98,61,13,0,7,0,0,7,85,0,0,92,0,0,6,0,0,0,0,111,123,0,0,57,0,97,0,93,0,61,100,0,0,175,0,37,162,0,0,7,0,34,96,0,0,30,0,0,0,89,0,93,0,97,0,0,0,0],"split_type":[0,0,0,0,0,0,0,0,0,0,0,0,0,0,0,0,0,0,0,0,0,0,0,0,0,0,0,0,0,0,0,0,0,0,0,0,0,0,0,0,0,0,0,0,0,0,0,0,0,0,0,0,0,0,0,0,0,0,0],"sum_hessian":[2.594E3,1.359E3,1.235E3,1.255E3,1.04E2,7.24E2,5.11E2,1.17E2,1.138E3,6.72E2,5.2E1,3E2,8.38E2,4.3E1,6.29E2,8.17E2,2.1E1,3.6E1,5.93E2,1.92E2,6.25E2,5.67E2,2.6E1,2.4E1,6.01E2,2.9E1,5.38E2,3.7E1,5.64E2,3.5E1,5.03E2,5.42E2,2.2E1,3.8E1,4.65E2,2.3E1,5.19E2,4.39E2,2.6E1,1.5E1,5.04E2,2E1,4.19E2,4.9E2,1.4E1,8E0,4.11E2,6E0,4.84E2,1.5E1,3.96E2,3.5E1,4.49E2,7E0,3.89E2,6E0,4.43E2,5E0,3.84E2],"tree_param":{"num_deleted":"0","num_feature":"200","num_nodes":"59","size_leaf_vector":"1"}},{"base_weights":[-0E0],"categories":[],"categories_nodes":[],"categories_segments":[],"categories_sizes":[],"default_left":[0],"id":4,"left_children":[-1],"loss_changes":[0E0],"parents":[2147483647],"right_children":[-1],"split_conditions":[-0E0],"split_indices":[0],"split_type":[0],"sum_hessian":[2.53E3],"tree_param":{"num_deleted":"0","num_feature":"200","num_nodes":"1","size_leaf_vector":"1"}},{"base_weights":[-0E0,-3.4889535E-3,-0E0,-2.9328534E-2,-0E0,1.2906718E-2,-0E0,-5.820941E-2,-0E0,2.7604565E-2,-0E0,-7.644049E-2,-0E0,-0E0,4.412361E-2,-0E0,-9.2857756E-2,-0E0,6.2471557E-2,-0E0,-1.09306894E-1,-0E0,7.84398E-2,-0E0,-1.2487163E-1,8.9430995E-2,-0E0,-1.3816576E-1,-0E0,-0E0,1.02393456E-1,-1.5069096E-1,-0E0,1.17976286E-1,-0E0,-1.7608975E-1,-0E0,1.2800337E-1,-0E0,-0E0,-2.0539868E-1,-0E0,1.4179745E-1,-0E0,-2.2109301E-1,-0E0,1.5548852E-1,-0E0,-2.3497939E-1,-0E0,1.6336457E-1,-0E0,-2.484635E-1,-0E0,1.69608E-1,-1.9605802E-2,-0E0,-0E0,1.3082052E-2],"categories":[],"categories_nodes":[],"categories_segments":[],"categories_sizes":[],"default_left":[0,0,0,0,0,0,0,0,0,0,0,0,0,0,0,0,0,0,0,0,0,0,0,0,0,0,0,0,0,0,0,0,0,0,0,0,0,0,0,0,0,0,0,0,0,0,0,0,0,0,0,0,0,0,0,0,0,0,0],"id":5,"left_children":[1,3,5,7,-1,9,-1,11,-1,13,-1,15,-1,-1,17,-1,19,-1,21,-1,23,-1,25,-1,27,29,-1,31,-1,-1,33,35,-1,37,-1,39,-1,41,-1,-1,43,-1,45,-1,47,-1,49,-1,51,-1,53,-1,55,-1,57,-1,-1,-1,-1],"loss_changes":[1.2406828E-2,7.1720546E-1,1.8277957E-1,1.3583672E0,0E0,5.877866E-1,0E0,1.3841698E0,0E0,9.626079E-1,0E0,1.5222611E0,0E0,0E0,1.3391283E0,0E0,1.6274772E0,0E0,1.67905E0,0E0,1.7394385E0,0E0,1.3368568E0,0E0,1.7605658E0,1.3161583E0,0E0,1.7593966E0,0E0,0E0,1.5483093E0,1.3039408E0,0E0,1.4881821E0,0E0,1.7590637E0,0E0,1.6275921E0,0E0,0E0,1.8821917E0,0E0,1.5484791E0,0E0,1.6278954E0,0E0,1.1742382E0,0E0,1.6231422E0,0E0,8.645048E-1,0E0,1.6636753E0,0E0,7.8901005E-1,0E0,0E0,0E0,0E0],"parents":[2147483647,0,0,1,1,2,2,3,3,5,5,7,7,9,9,11,11,14,14,16,16,18,18,20,20,22,22,24,24,25,25,27,27,30,30,31,31,33,33,35,35,37,37,40,40,42,42,44,44,46,46,48,48,50,50,52,52,54,54],"right_children":[2,4,6,8,-1,10,-1,12,-1,14,-1,16,-1,-1,18,-1,20,-1,22,-1,24,-1,26,-1,28,30,-1,32,-1,-1,34,36,-1,38,-1,40,-1,42,-1,-1,44,-1,46,-1,48,-1,50,-1,52,-1,54,-1,56,-1,58,-1,-1,-1,-1],"split_conditions":[-4.9125767E0,1.2596864E3,2.9428183E1,-7.9753667E3,-0E0,1.1339974E4,-0E0,1.077592E3,-0E0,9.628356E0,-0E0,5.0650993E1,-0E0,-0E0,-1.3373978E4,-0E0,1.3575938E4,-0E0,-5.020159E4,-0E0,6.416E2,-0E0,2.1145222E9,-0E0,3.438821E3,7.87388E2,-0E0,6.796833E1,-0E0,-0E0,5.0795913E3,2.016E3,-0E0,1.1545064E5,-0E0,2.558382E1,-0E0,0E0,-0E0,-0E0,3.4558556E0,-0E0,2.1953148E1,-0E0,7.145652E3,-0E0,-8.463751E4,-0E0,-2.1865566E14,-0E0,-1.5625E4,-0E0,-9.909887E2,-0E0,4.1505623E0,-1.9605802E-2,-0E0,-0E0,1.3082052E-2],"split_indices":[30,35,98,91,0,64,0,70,0,22,0,41,0,0,15,0,96,0,77,0,197,0,16,0,95,89,0,22,0,0,76,2,0,79,0,24,0,176,0,0,20,0,40,0,92,0,78,0,18,0,31,0,67,0,21,0,0,0,0],"split_type":[0,0,0,0,0,0,0,0,0,0,0,0,0,0,0,0,0,0,0,0,0,0,0,0,0,0,0,0,0,0,0,0,0,0,0,0,0,0,0,0,0,0,0,0,0,0,0,0,0,0,0,0,0,0,0,0,0,0,0],"sum_hessian":[2.524E3,1.018E3,1.506E3,8.47E2,1.71E2,1.096E3,4.1E2,6.15E2,2.32E2,1.01E3,8.6E1,5.93E2,2.2E1,1.21E2,8.89E2,1.5E1,5.78E2,1.03E2,7.86E2,2.5E1,5.53E2,1.5E1,7.71E2,1.8E1,5.35E2,7.6E2,1.1E1,5.29E2,6E0,5.5E1,7.05E2,5.22E2,7E0,6.42E2,6.3E1,4.24E2,9.8E1,6.36E2,6E0,7.1E1,3.53E2,3.7E1,5.99E2,1E1,3.43E2,3.7E1,5.62E2,1E1,3.33E2,9E0,5.53E2,9E0,3.24E2,1E1,5.43E2,3.15E2,9E0,7E0,5.36E2],"tree_param":{"num_deleted":"0","num_feature":"200","num_nodes":"59","size_leaf_vector":"1"}},{"base_weights":[-0E0],"categories":[],"categories_nodes":[],"categories_segments":[],"categories_sizes":[],"default_left":[0],"id":6,"left_children":[-1],"loss_changes":[0E0],"parents":[2147483647],"right_children":[-1],"split_conditions":[-0E0],"split_indices":[0],"split_type":[0],"sum_hessian":[2.542E3],"tree_param":{"num_deleted":"0","num_feature":"200","num_nodes":"1","size_leaf_vector":"1"}},{"base_weights":[-0E0,-0E0,-1.0975911E-3,-0E0,1.0783803E-2,-4.095314E-2,-0E0,-0E0,3.1229021E-2,-0E0,-7.8146726E-2,-0E0,4.93047E-2,-0E0,-1.0977695E-1,-0E0,6.1196793E-2,-0E0,-1.3894695E-1,-0E0,6.997052E-2,-0E0,-1.6908579E-1,-0E0,7.866814E-2,-0E0,-1.9567464E-1,8.572184E-2,-0E0,-2.2217955E-1,-0E0,9.1277346E-2,-0E0,-2.4664165E-1,-0E0,9.609112E-2,-0E0,-2.622703E-1,-0E0,-0E0,1.0285758E-1,-0E0,-2.7412298E-1,-0E0,1.09351695E-1,-2.8623885E-1,-0E0,1.1607991E-1,-0E0,-0E0,-2.986597E-1,1.2095568E-1,-0E0,-3.1116858E-1,-0E0,-0E0,9.389337E-3,-2.409421E-2,-0E0],"categories":[],"categories_nodes":[],"categories_segments":[],"categories_sizes":[],"default_left":[0,0,0,0,0,0,0,0,0,0,0,0,0,0,0,0,0,0,0,0,0,0,0,0,0,0,0,0,0,0,0,0,0,0,0,0,0,0,0,0,0,0,0,0,0,0,0,0,0,0,0,0,0,0,0,0,0,0,0],"id":7,"left_children":[1,3,5,-1,7,9,-1,-1,11,-1,13,-1,15,-1,17,-1,19,-1,21,-1,23,-1,25,-1,27,-1,29,31,-1,33,-1,35,-1,37,-1,39,-1,41,-1,-1,43,-1,45,-1,47,49,-1,51,-1,-1,53,55,-1,57,-1,-1,-1,-1,-1],"loss_changes":[1.9603292E-3,7.4568406E-2,1.6101689E0,0E0,5.264068E-1,2.7923317E0,0E0,0E0,8.41129E-1,0E0,2.5275726E0,0E0,7.158886E-1,0E0,2.764063E0,0E0,5.113635E-1,0E0,3.4903498E0,0E0,5.9347343E-1,0E0,3.7840319E0,0E0,5.3051853E-1,0E0,3.082346E0,4.659567E-1,0E0,3.0162754E0,0E0,3.872323E-1,0E0,2.1907806E0,0E0,3.6004066E-1,0E0,1.8838539E0,0E0,0E0,5.8041096E-1,0E0,1.878931E0,0E0,6.008687E-1,1.8598499E0,0E0,4.5759058E-1,0E0,0E0,1.9633179E0,4.538784E-1,0E0,1.8583794E0,0E0,0E0,0E0,0E0,0E0],"parents":[2147483647,0,0,1,1,2,2,4,4,5,5,8,8,10,10,12,12,14,14,16,16,18,18,20,20,22,22,24,24,26,26,27,27,29,29,31,31,33,33,35,35,37,37,40,40,42,42,44,44,45,45,47,47,50,50,51,51,53,53],"right_children":[2,4,6,-1,8,10,-1,-1,12,-1,14,-1,16,-1,18,-1,20,-1,22,-1,24,-1,26,-1,28,-1,30,32,-1,34,-1,36,-1,38,-1,40,-1,42,-1,-1,44,-1,46,-1,48,50,-1,52,-1,-1,54,56,-1,58,-1,-1,-1,-1,-1],"split_conditions":[7.688734E4,-4.2875E1,-7.6710366E3,-0E0,-8.627631E1,-5.2820225E1,-0E0,-0E0,6.8077745E0,-0E0,-4.6932964E3,-0E0,-1.2812743E4,-0E0,-3.628746E2,-0E0,0E0,-0E0,1.2665547E4,-0E0,1E0,-0E0,0E0,-0E0,4.4698645E4,-0E0,1E0,1.2812944E4,-0E0,-9.892645E3,-0E0,1.38416E5,-0E0,1E0,-0E0,-1.2276067E4,-0E0,-1.1494855E5,-0E0,-0E0,0E0,-0E0,6.4481074E4,-0E0,1E0,-3.528751E4,-0E0,1.6565852E2,-0E0,-0E0,7.9404336E4,5.48E2,-0E0,5.6353573E1,-0E0,-0E0,9.389337E-3,-2.409421E-2,-0E0],"split_indices":[16,35,88,0,73,100,0,0,22,0,64,0,34,0,68,0,176,0,94,0,40,0,105,0,80,0,119,13,0,91,0,0,0,118,0,54,0,61,0,0,111,0,61,0,107,34,0,26,0,0,62,198,0,21,0,0,0,0,0],"split_type":[0,0,0,0,0,0,0,0,0,0,0,0,0,0,0,0,0,0,0,0,0,0,0,0,0,0,0,0,0,0,0,0,0,0,0,0,0,0,0,0,0,0,0,0,0,0,0,0,0,0,0,0,0,0,0,0,0,0,0],"sum_hessian":[2.565E3,9.39E2,1.626E3,2.99E2,6.4E2,9.6E2,6.66E2,2.5E1,6.15E2,2.4E2,7.2E2,2.3E1,5.92E2,1.46E2,5.74E2,1.7E1,5.75E2,7.3E1,5.01E2,3.1E1,5.44E2,4.1E1,4.6E2,1.8E1,5.26E2,1.8E1,4.42E2,5.15E2,1.1E1,4.05E2,3.7E1,5.1E2,5E0,3.78E2,2.7E1,5.02E2,8E0,3.66E2,1.2E1,3E1,4.72E2,6E0,3.6E2,6E0,4.66E2,3.53E2,7E0,4.58E2,8E0,8E0,3.45E2,4.53E2,5E0,3.38E2,7E0,4E0,4.49E2,3.33E2,5E0],"tree_param":{"num_deleted":"0","num_feature":"200","num_nodes":"59","size_leaf_vector":"1"}},{"base_weights":[-0E0,-0E0,8.425088E-3,-0E0,4.372638E-2,-0E0,6.921201E-2,-0E0,9.335942E-2,1.1645933E-1,-0E0,1.271096E-1,-0E0,-0E0,1.3684344E-1,1.7007132E-1,-0E0,1.7904606E-1,-0E0,1.859007E-1,-0E0,1.9392665E-1,-0E0,2.0279746E-1,-0E0,-0E0,2.137023E-1,2.2024922E-1,-0E0,-0E0,1.6850626E-2],"categories":[],"categories_nodes":[],"categories_segments":[],"categories_sizes":[],"default_left":[0,0,0,0,0,0,0,0,0,0,0,0,0,0,0,0,0,0,0,0,0,0,0,0,0,0,0,0,0,0,0],"id":8,"left_children":[1,-1,3,-1,5,-1,7,-1,9,11,-1,13,-1,-1,15,17,-1,19,-1,21,-1,23,-1,25,-1,-1,27,29,-1,-1,-1],"loss_changes":[1.5106593E-1,0E0,2.1265535E0,0E0,2.1880236E0,0E0,2.9449086E0,0E0,2.561151E0,1.8264446E0,0E0,1.7637968E0,0E0,0E0,1.8901358E0,1.4173985E0,0E0,1.07448E0,0E0,1.0939484E0,0E0,1.1646404E0,0E0,1.0436954E0,0E0,0E0,9.8215866E-1,8.401737E-1,0E0,0E0,0E0],"parents":[2147483647,0,0,2,2,4,4,6,6,8,8,9,9,11,11,14,14,15,15,17,17,19,19,21,21,23,23,26,26,27,27],"right_children":[2,-1,4,-1,6,-1,8,-1,10,12,-1,14,-1,-1,16,18,-1,20,-1,22,-1,24,-1,26,-1,-1,28,30,-1,-1,-1],"split_conditions":[-7.8706777E3,-0E0,-7.2905934E-1,-0E0,4.525065E1,-0E0,0E0,-0E0,1E0,1.1354847E5,-0E0,-2.0328236E5,-0E0,-0E0,2.015E3,2.4389E4,-0E0,4.8137555E4,-0E0,1E0,-0E0,1E0,-0E0,-1.9174794E3,-0E0,-0E0,1.578594E2,-7.778074E3,-0E0,-0E0,1.6850626E-2],"split_indices":[83,0,30,0,26,0,176,0,180,60,0,55,0,0,2,33,0,59,0,119,0,109,0,68,0,0,26,62,0,0,0],"split_type":[0,0,0,0,0,0,0,0,0,0,0,0,0,0,0,0,0,0,0,0,0,0,0,0,0,0,0,0,0,0,0],"sum_hessian":[2.573E3,4.46E2,2.127E3,9.37E2,1.19E3,2.59E2,9.31E2,8.2E1,8.49E2,7.34E2,1.15E2,7.29E2,5E0,6E0,7.23E2,5.33E2,1.9E2,5.25E2,8E0,5.18E2,7E0,5.05E2,1.3E1,4.9E2,1.5E1,2.6E1,4.64E2,4.57E2,7E0,4E0,4.53E2],"tree_param":{"num_deleted":"0","num_feature":"200","num_nodes":"31","size_leaf_vector":"1"}},{"base_weights":[-0E0],"categories":[],"categories_nodes":[],"categories_segments":[],"categories_sizes":[],"default_left":[0],"id":9,"left_children":[-1],"loss_changes":[0E0],"parents":[2147483647],"right_children":[-1],"split_conditions":[-0E0],"split_indices":[0],"split_type":[0],"sum_hessian":[2.54E3],"tree_param":{"num_deleted":"0","num_feature":"200","num_nodes":"1","size_leaf_vector":"1"}},{"base_weights":[-0E0,-0E0,1.9593883E-2,6.0716953E-2,-0E0,-0E0,8.4590994E-2,1.0710516E-1,-0E0,1.5728752E-1,-0E0,1.8739589E-1,-0E0,-0E0,2.012432E-1,-0E0,2.2599295E-1,-0E0,2.4309477E-1,2.5327367E-1,-0E0,2.6797011E-1,-0E0,-0E0,2.7752423E-1,2.8472054E-1,-0E0,2.979312E-1,-0E0,2.270484E-2,-0E0],"categories":[],"categories_nodes":[],"categories_segments":[],"categories_sizes":[],"default_left":[0,0,0,0,0,0,0,0,0,0,0,0,0,0,0,0,0,0,0,0,0,0,0,0,0,0,0,0,0,0,0],"id":10,"left_children":[1,-1,3,5,-1,-1,7,9,-1,11,-1,13,-1,-1,15,-1,17,-1,19,21,-1,23,-1,-1,25,27,-1,29,-1,-1,-1],"loss_changes":[7.9556936E-1,0E0,2.9323633E0,3.10016E0,0E0,0E0,3.5218048E0,3.113902E0,0E0,3.540862E0,0E0,2.0794277E0,0E0,0E0,2.786602E0,0E0,2.6671028E0,0E0,1.8413296E0,1.5703945E0,0E0,1.1813126E0,0E0,0E0,1.1250076E0,1.1862984E0,0E0,8.5038567E-1,0E0,0E0,0E0],"parents":[2147483647,0,0,2,2,3,3,6,6,7,7,9,9,11,11,14,14,16,16,18,18,19,19,21,21,24,24,25,25,27,27],"right_children":[2,-1,4,6,-1,-1,8,10,-1,12,-1,14,-1,-1,16,-1,18,-1,20,22,-1,24,-1,-1,26,28,-1,30,-1,-1,-1],"split_conditions":[-6.6739624E3,-0E0,-1.2061329E0,-1.2276067E4,-0E0,-0E0,6.4348306E3,2.014E3,-0E0,9.3993753E-1,-0E0,-1.5625E4,-0E0,-0E0,-3.869857E3,-0E0,-2.1484445E4,-0E0,-1.1017274E2,7.880628E3,-0E0,2E0,-0E0,-0E0,5.6181566E4,1E0,-0E0,1.1354847E5,-0E0,2.270484E-2,-0E0],"split_indices":[84,0,65,55,0,0,34,2,0,7,0,31,0,0,35,0,59,0,88,33,0,1,0,0,37,145,0,60,0,0,0],"split_type":[0,0,0,0,0,0,0,0,0,0,0,0,0,0,0,0,0,0,0,0,0,0,0,0,0,0,0,0,0,0,0],"sum_hessian":[2.561E3,4.9E2,2.071E3,1.01E3,1.061E3,5.7E1,9.53E2,9.01E2,5.2E1,5.43E2,3.58E2,4.83E2,6E1,1.3E1,4.7E2,4.3E1,4.27E2,1.3E1,4.14E2,4.1E2,4E0,3.88E2,2.2E1,1.1E1,3.77E2,3.72E2,5E0,3.53E2,1.9E1,3.49E2,4E0],"tree_param":{"num_deleted":"0","num_feature":"200","num_nodes":"31","size_leaf_vector":"1"}},{"base_weights":[-0E0,-2.3444984E-3,-0E0,-2.4229215E-2,-0E0,1.8355537E-3,-0E0,-4.7637302E-2,-0E0,-0E0,2.8180838E-2,-0E0,-7.70782E-2,4.8559397E-2,-0E0,-0E0,-1.0299152E-1,6.785096E-2,-0E0,-1.2763059E-1,-0E0,8.173085E-2,-0E0,-0E0,-1.45647E-1,-0E0,9.3261175E-2,-0E0,-1.6750447E-1,-0E0,1.0793865E-1,-0E0,-1.8449293E-1,1.1864725E-1,-0E0,-0E0,-2.0317811E-1,-0E0,1.295523E-1,-0E0,-2.175973E-1,-0E0,1.3568239E-1,-2.2894146E-1,-0E0,1.4144629E-1,-0E0,-2.3805846E-1,-0E0,1.4768134E-1,-0E0,-0E0,-2.4636658E-1,-0E0,1.5287022E-1,-1.9375248E-2,-0E0,-0E0,1.1959257E-2],"categories":[],"categories_nodes":[],"categories_segments":[],"categories_sizes":[],"default_left":[0,0,0,0,0,0,0,0,0,0,0,0,0,0,0,0,0,0,0,0,0,0,0,0,0,0,0,0,0,0,0,0,0,0,0,0,0,0,0,0,0,0,0,0,0,0,0,0,0,0,0,0,0,0,0,0,0,0,0],"id":11,"left_children":[1,3,5,7,-1,9,-1,11,-1,-1,13,-1,15,17,-1,-1,19,21,-1,23,-1,25,-1,-1,27,-1,29,-1,31,-1,33,-1,35,37,-1,-1,39,-1,41,-1,43,-1,45,47,-1,49,-1,51,-1,53,-1,-1,55,-1,57,-1,-1,-1,-1],"loss_changes":[9.76333E-3,9.1791594E-1,2.2413167E-3,2.329297E0,0E0,4.124893E-1,0E0,2.530947E0,0E0,0E0,7.9074734E-1,0E0,3.9519315E0,1.056004E0,0E0,0E0,4.3054304E0,9.6643305E-1,0E0,3.5663347E0,0E0,8.9673305E-1,0E0,0E0,3.7186031E0,0E0,9.344077E-1,0E0,3.729166E0,0E0,8.846879E-1,0E0,2.7735596E0,7.399969E-1,0E0,0E0,2.338789E0,0E0,5.370221E-1,0E0,1.9699936E0,0E0,5.264826E-1,2.044178E0,0E0,5.235839E-1,0E0,2.002903E0,0E0,3.109808E-1,0E0,0E0,1.6287918E0,0E0,6.332922E-1,0E0,0E0,0E0,0E0],"parents":[2147483647,0,0,1,1,2,2,3,3,5,5,7,7,10,10,12,12,13,13,16,16,17,17,19,19,21,21,24,24,26,26,28,28,30,30,32,32,33,33,36,36,38,38,40,40,42,42,43,43,45,45,47,47,49,49,52,52,54,54],"right_children":[2,4,6,8,-1,10,-1,12,-1,-1,14,-1,16,18,-1,-1,20,22,-1,24,-1,26,-1,-1,28,-1,30,-1,32,-1,34,-1,36,38,-1,-1,40,-1,42,-1,44,-1,46,48,-1,50,-1,52,-1,54,-1,-1,56,-1,58,-1,-1,-1,-1],"split_conditions":[1.4888112E2,2.3526306E3,4.096312E1,9.5754296E-1,-0E0,0E0,-0E0,1.8487223E4,-0E0,-0E0,5.731294E3,-0E0,-3.3025023E4,4.0353348E4,-0E0,-0E0,3.0044495E3,1.4208719E5,-0E0,1.1765076E2,-0E0,1.8119816E4,-0E0,-0E0,-1.1287576E2,-0E0,-9.578713E3,-0E0,-2.2425652E4,-0E0,9.9724954E-1,-0E0,4.096E3,0E0,-0E0,-0E0,1.0621152E4,-0E0,-3.528751E4,-0E0,9.7338326E1,-0E0,1.1390625E4,4.0353348E4,-0E0,9.99251E-1,-0E0,-1.717361E4,-0E0,-3.9048483E2,-0E0,-0E0,5.088405E3,-0E0,-1.0940976E4,-1.9375248E-2,-0E0,-0E0,1.1959257E-2],"split_indices":[37,35,102,7,0,3,0,96,0,0,90,0,81,37,0,0,90,15,0,41,0,103,0,0,102,0,62,0,30,0,6,0,45,117,0,0,94,0,30,0,37,0,33,36,0,7,0,13,0,100,0,0,39,0,13,0,0,0,0],"split_type":[0,0,0,0,0,0,0,0,0,0,0,0,0,0,0,0,0,0,0,0,0,0,0,0,0,0,0,0,0,0,0,0,0,0,0,0,0,0,0,0,0,0,0,0,0,0,0,0,0,0,0,0,0,0,0,0,0,0,0],"sum_hessian":[2.571E3,1.775E3,7.96E2,1.579E3,1.96E2,6.64E2,1.32E2,1.434E3,1.45E2,1.43E2,5.21E2,4.61E2,9.73E2,5.1E2,1.1E1,5.6E1,9.17E2,4.9E2,2E1,8.61E2,5.6E1,4.82E2,8E0,3.2E1,8.29E2,9E0,4.73E2,7E1,7.59E2,4E1,4.33E2,2.4E1,7.35E2,4.21E2,1.2E1,6.2E1,6.73E2,2.4E1,3.97E2,3.7E1,6.36E2,6E0,3.91E2,6.12E2,2.4E1,3.86E2,5E0,6.02E2,1E1,3.78E2,8E0,7E0,5.95E2,1.2E1,3.66E2,5.62E2,3.3E1,7E0,3.59E2],"tree_param":{"num_deleted":"0","num_feature":"200","num_nodes":"59","size_leaf_vector":"1"}},{"base_weights":[-0E0],"categories":[],"categories_nodes":[],"categories_segments":[],"categories_sizes":[],"default_left":[0],"id":12,"left_children":[-1],"loss_changes":[0E0],"parents":[2147483647],"right_children":[-1],"split_conditions":[-0E0],"split_indices":[0],"split_type":[0],"sum_hessian":[2.564E3],"tree_param":{"num_deleted":"0","num_feature":"200","num_nodes":"1","size_leaf_vector":"1"}},{"base_weights":[-0E0],"categories":[],"categories_nodes":[],"categories_segments":[],"categories_sizes":[],"default_left":[0],"id":13,"left_children":[-1],"loss_changes":[0E0],"parents":[2147483647],"right_children":[-1],"split_conditions":[-0E0],"split_indices":[0],"split_type":[0],"sum_hessian":[2.571E3],"tree_param":{"num_deleted":"0","num_feature":"200","num_nodes":"1","size_leaf_vector":"1"}},{"base_weights":[-0E0],"categories":[],"categories_nodes":[],"categories_segments":[],"categories_sizes":[],"default_left":[0],"id":14,"left_children":[-1],"loss_changes":[0E0],"parents":[2147483647],"right_children":[-1],"split_conditions":[-0E0],"split_indices":[0],"split_type":[0],"sum_hessian":[2.529E3],"tree_param":{"num_deleted":"0","num_feature":"200","num_nodes":"1","size_leaf_vector":"1"}},{"base_weights":[-0E0,-4.160836E-3,-0E0,-0E0,-3.287772E-2,-0E0,9.730808E-3,-0E0,-4.9722675E-2,-0E0,4.946573E-2,-6.844017E-2,-0E0,6.589508E-2,-0E0,-0E0,-8.9277804E-2,-0E0,7.7303275E-2,-0E0,-1.0343284E-1,-0E0,8.624296E-2,-0E0,-1.17324516E-1,9.338969E-2,-0E0,-1.32546E-1,-0E0,-0E0,9.9817745E-2,-1.4957014E-1,-0E0,1.08046725E-1,-0E0,-1.6277564E-1,-0E0,1.1405556E-1,-0E0,-0E0,-1.7561468E-1,-0E0,1.2122171E-1,-1.8647972E-1,-0E0,1.3244204E-1,-0E0,-0E0,-1.9793895E-1,1.36737E-1,-0E0,-2.0591554E-1,-0E0,1.4193867E-1,-0E0,-1.6009634E-2,-0E0,1.0936789E-2,-0E0],"categories":[],"categories_nodes":[],"categories_segments":[],"categories_sizes":[],"default_left":[0,0,0,0,0,0,0,0,0,0,0,0,0,0,0,0,0,0,0,0,0,0,0,0,0,0,0,0,0,0,0,0,0,0,0,0,0,0,0,0,0,0,0,0,0,0,0,0,0,0,0,0,0,0,0,0,0,0,0],"id":15,"left_children":[1,3,5,-1,7,-1,9,-1,11,-1,13,15,-1,17,-1,-1,19,-1,21,-1,23,-1,25,-1,27,29,-1,31,-1,-1,33,35,-1,37,-1,39,-1,41,-1,-1,43,-1,45,47,-1,49,-1,-1,51,53,-1,55,-1,57,-1,-1,-1,-1,-1],"loss_changes":[2.3600923E-2,1.0943396E0,7.122722E-2,0E0,1.4019367E0,0E0,1.4439307E0,0E0,1.9591382E0,0E0,1.0390136E0,2.2020855E0,0E0,8.952122E-1,0E0,0E0,1.837204E0,0E0,7.769933E-1,0E0,1.8498793E0,0E0,6.7715025E-1,0E0,1.9336901E0,6.2851E-1,0E0,2.5576696E0,0E0,0E0,6.111722E-1,1.9713392E0,0E0,6.502538E-1,0E0,1.8962746E0,0E0,5.131216E-1,0E0,0E0,1.9020805E0,0E0,9.942174E-1,2.0647278E0,0E0,4.7231483E-1,0E0,0E0,1.5266953E0,4.7871494E-1,0E0,1.7372284E0,0E0,4.873724E-1,0E0,0E0,0E0,0E0,0E0],"parents":[2147483647,0,0,1,1,2,2,4,4,6,6,8,8,10,10,11,11,13,13,16,16,18,18,20,20,22,22,24,24,25,25,27,27,30,30,31,31,33,33,35,35,37,37,40,40,42,42,43,43,45,45,48,48,49,49,51,51,53,53],"right_children":[2,4,6,-1,8,-1,10,-1,12,-1,14,16,-1,18,-1,-1,20,-1,22,-1,24,-1,26,-1,28,30,-1,32,-1,-1,34,36,-1,38,-1,40,-1,42,-1,-1,44,-1,46,48,-1,50,-1,-1,52,54,-1,56,-1,58,-1,-1,-1,-1,-1],"split_conditions":[-8.912848E3,-1.7954308E5,4.8108345E1,-0E0,-9.405772E3,-0E0,-1.3569738E3,-0E0,1E0,-0E0,3.040757E8,-7.0313335E3,-0E0,-1.3373828E7,-0E0,-0E0,0E0,-0E0,-4.80557E3,-0E0,1.2171162E4,-0E0,1.8912154E4,-0E0,9.750985E-1,-4.6656E4,-0E0,5.277963E1,-0E0,-0E0,1.1390625E4,4.9235305E4,-0E0,4.3748403E3,-0E0,7.939767E-2,-0E0,-1.0940976E4,-0E0,-0E0,5.9286646E3,-0E0,2.1258209E4,-3.528751E4,-0E0,4.173262E3,-0E0,-0E0,9.782384E3,1.0311625E4,-0E0,2.2908209E4,-0E0,1E0,-0E0,-1.6009634E-2,-0E0,1.0936789E-2,-0E0],"split_indices":[88,16,26,0,93,0,56,0,175,0,17,65,0,16,0,0,161,0,55,0,94,0,15,0,7,34,0,22,0,0,38,82,0,76,0,5,0,36,0,0,46,0,80,34,0,31,0,0,93,14,0,66,0,110,0,0,0,0,0],"split_type":[0,0,0,0,0,0,0,0,0,0,0,0,0,0,0,0,0,0,0,0,0,0,0,0,0,0,0,0,0,0,0,0,0,0,0,0,0,0,0,0,0,0,0,0,0,0,0,0,0,0,0,0,0,0,0,0,0,0,0],"sum_hessian":[2.562E3,1.362E3,1.2E3,3.29E2,1.033E3,4.49E2,7.51E2,1.5E1,1.018E3,1.33E2,6.18E2,9.55E2,6.3E1,5.87E2,3.1E1,1.18E2,8.37E2,1.1E1,5.76E2,4.2E1,7.95E2,9E0,5.67E2,4.3E1,7.52E2,5.61E2,6E0,6.99E2,5.3E1,7E0,5.54E2,6.63E2,3.6E1,5.25E2,2.9E1,6.34E2,2.9E1,5.21E2,4E0,2.8E1,6.06E2,2.5E1,4.96E2,5.92E2,1.4E1,4.72E2,2.4E1,1.4E1,5.78E2,4.68E2,4E0,5.7E2,8E0,4.58E2,1E1,5.65E2,5E0,4.54E2,4E0],"tree_param":{"num_deleted":"0","num_feature":"200","num_nodes":"59","size_leaf_vector":"1"}},{"base_weights":[-0E0,1.1264474E-2,-0E0,-0E0,4.5684937E-2,-0E0,-1.277757E-2,-0E0,6.507494E-2,-4.9536284E-2,-0E0,-0E0,8.496929E-2,-0E0,-9.366321E-2,1.0346056E-1,-0E0,-1.2310185E-1,-0E0,-0E0,1.16524905E-1,-1.467823E-1,-0E0,1.3117696E-1,-0E0,-1.6167623E-1,-0E0,1.4586163E-1,-0E0,-0E0,-1.7299293E-1,-0E0,1.5647592E-1,-0E0,-1.948051E-1,1.8108663E-1,-0E0,-2.1044295E-1,-0E0,1.9277875E-1,-0E0,-0E0,-2.2319494E-1,2.0429362E-1,-0E0,-2.3431489E-1,-0E0,-0E0,2.1084459E-1,-2.5216725E-1,-0E0,-0E0,2.1723902E-1,-0E0,-2.631332E-1,-0E0,1.66402E-2,-2.0357851E-2,-0E0],"categories":[],"categories_nodes":[],"categories_segments":[],"categories_sizes":[],"default_left":[0,0,0,0,0,0,0,0,0,0,0,0,0,0,0,0,0,0,0,0,0,0,0,0,0,0,0,0,0,0,0,0,0,0,0,0,0,0,0,0,0,0,0,0,0,0,0,0,0,0,0,0,0,0,0,0,0,0,0],"id":16,"left_children":[1,3,5,-1,7,-1,9,-1,11,13,-1,-1,15,-1,17,19,-1,21,-1,-1,23,25,-1,27,-1,29,-1,31,-1,-1,33,-1,35,-1,37,39,-1,41,-1,43,-1,-1,45,47,-1,49,-1,-1,51,53,-1,-1,55,-1,57,-1,-1,-1,-1],"loss_changes":[1.8173279E-1,2.2710967E0,1.587317E-1,0E0,1.8760393E0,0E0,1.6993817E0,0E0,2.2932997E0,2.4688554E0,0E0,0E0,2.4894266E0,0E0,2.6927853E0,2.1069431E0,0E0,2.4864736E0,0E0,0E0,2.31036E0,1.8702259E0,0E0,1.5390406E0,0E0,1.4388685E0,0E0,1.6361628E0,0E0,0E0,1.5759268E0,0E0,1.7326126E0,0E0,1.6503639E0,1.9001923E0,0E0,1.3554115E0,0E0,2.2098923E0,0E0,0E0,1.3923569E0,1.2913532E0,0E0,1.2552948E0,0E0,0E0,1.279068E0,1.5043106E0,0E0,0E0,1.0437336E0,0E0,8.5432625E-1,0E0,0E0,0E0,0E0],"parents":[2147483647,0,0,1,1,2,2,4,4,6,6,8,8,9,9,12,12,14,14,15,15,17,17,20,20,21,21,23,23,25,25,27,27,30,30,32,32,34,34,35,35,37,37,39,39,42,42,43,43,45,45,48,48,49,49,52,52,54,54],"right_children":[2,4,6,-1,8,-1,10,-1,12,14,-1,-1,16,-1,18,20,-1,22,-1,-1,24,26,-1,28,-1,30,-1,32,-1,-1,34,-1,36,-1,38,40,-1,42,-1,44,-1,-1,46,48,-1,50,-1,-1,52,54,-1,-1,56,-1,58,-1,-1,-1,-1],"split_conditions":[4.9125767E0,-6.6739624E3,-4.4561904E3,-0E0,-1.6811299E4,-0E0,3.890248E2,-0E0,0E0,4.748082E3,-0E0,-0E0,1E0,-0E0,9.84495E-1,-9.9639505E-1,-0E0,2.8681508E4,-0E0,-0E0,3.7412645E4,9.983769E-1,-0E0,2.018E3,-0E0,-3.4224504E4,-0E0,0E0,-0E0,-0E0,1.0611927E3,-0E0,2.5284504E3,-0E0,1.20540115E2,1.7933436E9,-0E0,-9.919631E-1,-0E0,1.2812944E4,-0E0,-0E0,6.4481074E4,-3.3664941E3,-0E0,-7.0226904E3,-0E0,-0E0,-9.997203E-1,-9.987235E-1,-0E0,-0E0,5.48E2,-0E0,2.3639783E4,-0E0,1.66402E-2,-2.0357851E-2,-0E0],"split_indices":[33,84,60,0,80,0,32,0,155,89,0,0,104,0,7,6,0,79,0,0,85,6,0,2,0,48,0,111,0,0,41,0,65,0,74,16,0,7,0,13,0,0,62,95,0,91,0,0,7,6,0,0,198,0,39,0,0,0,0],"split_type":[0,0,0,0,0,0,0,0,0,0,0,0,0,0,0,0,0,0,0,0,0,0,0,0,0,0,0,0,0,0,0,0,0,0,0,0,0,0,0,0,0,0,0,0,0,0,0,0,0,0,0,0,0,0,0,0,0,0,0],"sum_hessian":[2.567E3,1.431E3,1.136E3,2.57E2,1.174E3,1.65E2,9.71E2,1.53E2,1.021E3,7.56E2,2.15E2,1.05E2,9.16E2,2.64E2,4.92E2,8.5E2,6.6E1,4.62E2,3E1,2.5E1,8.25E2,4.4E2,2.2E1,7.85E2,4E1,4.34E2,6E0,7.07E2,7.8E1,7E0,4.27E2,2.6E1,6.81E2,4.9E1,3.78E2,5.61E2,1.2E2,3.61E2,1.7E1,5.46E2,1.5E1,1.3E1,3.48E2,5.39E2,7E0,3.41E2,7E0,4E0,5.35E2,3.14E2,2.7E1,4E0,5.31E2,4E0,3.1E2,4E0,5.27E2,3.01E2,9E0],"tree_param":{"num_deleted":"0","num_feature":"200","num_nodes":"59","size_leaf_vector":"1"}},{"base_weights":[-0E0],"categories":[],"categories_nodes":[],"categories_segments":[],"categories_sizes":[],"default_left":[0],"id":17,"left_children":[-1],"loss_changes":[0E0],"parents":[2147483647],"right_children":[-1],"split_conditions":[-0E0],"split_indices":[0],"split_type":[0],"sum_hessian":[2.541E3],"tree_param":{"num_deleted":"0","num_feature":"200","num_nodes":"1","size_leaf_vector":"1"}},{"base_weights":[-0E0],"categories":[],"categories_nodes":[],"categories_segments":[],"categories_sizes":[],"default_left":[0],"id":18,"left_children":[-1],"loss_changes":[0E0],"parents":[2147483647],"right_children":[-1],"split_conditions":[-0E0],"split_indices":[0],"split_type":[0],"sum_hessian":[2.57E3],"tree_param":{"num_deleted":"0","num_feature":"200","num_nodes":"1","size_leaf_vector":"1"}},{"base_weights":[-0E0,3.3129985E-3,-0E0,-0E0,4.2252038E-2,-2.7482128E-2,-0E0,-0E0,6.576153E-2,-0E0,-5.682924E-2,-0E0,8.195111E-2,-0E0,-8.7099515E-2,1.00103006E-1,-0E0,-0E0,-1.2007729E-1,-0E0,1.15307465E-1,-0E0,-1.4521787E-1,-0E0,1.3533157E-1,-0E0,-1.6489601E-1,-0E0,1.6620307E-1,-0E0,-1.9073172E-1,1.8096806E-1,-0E0,-2.0662269E-1,-0E0,-0E0,1.899843E-1,-2.2481312E-1,-0E0,-0E0,1.9881414E-1,-2.4520838E-1,-0E0,2.0392706E-1,-0E0,-0E0,-2.679244E-1,2.096467E-1,-0E0,-0E0,-2.8947264E-1,2.1458088E-1,-0E0,-0E0,-3.024863E-1,-0E0,1.6779838E-2,-0E0,-2.3747962E-2],"categories":[],"categories_nodes":[],"categories_segments":[],"categories_sizes":[],"default_left":[0,0,0,0,0,0,0,0,0,0,0,0,0,0,0,0,0,0,0,0,0,0,0,0,0,0,0,0,0,0,0,0,0,0,0,0,0,0,0,0,0,0,0,0,0,0,0,0,0,0,0,0,0,0,0,0,0,0,0],"id":19,"left_children":[1,3,5,-1,7,9,-1,-1,11,-1,13,-1,15,-1,17,19,-1,-1,21,-1,23,-1,25,-1,27,-1,29,-1,31,-1,33,35,-1,37,-1,-1,39,41,-1,-1,43,45,-1,47,-1,-1,49,51,-1,-1,53,55,-1,-1,57,-1,-1,-1,-1],"loss_changes":[1.2317504E-2,1.5680182E0,5.454735E-1,0E0,1.5992059E0,1.4608138E0,0E0,0E0,1.52988E0,0E0,2.4334261E0,0E0,1.8463206E0,0E0,3.104446E0,1.929987E0,0E0,0E0,2.372069E0,0E0,2.2874107E0,0E0,2.2985315E0,0E0,2.3542395E0,0E0,2.6359148E0,0E0,1.9775047E0,0E0,2.3215227E0,1.2177687E0,0E0,2.3985538E0,0E0,0E0,9.595947E-1,2.6297379E0,0E0,0E0,7.339821E-1,2.4374485E0,0E0,6.7318153E-1,0E0,0E0,1.9438057E0,6.138191E-1,0E0,0E0,1.9862785E0,9.0281487E-1,0E0,0E0,1.7162838E0,0E0,0E0,0E0,0E0],"parents":[2147483647,0,0,1,1,2,2,4,4,5,5,8,8,10,10,12,12,14,14,15,15,18,18,20,20,22,22,24,24,26,26,28,28,30,30,31,31,33,33,36,36,37,37,40,40,41,41,43,43,46,46,47,47,50,50,51,51,54,54],"right_children":[2,4,6,-1,8,10,-1,-1,12,-1,14,-1,16,-1,18,20,-1,-1,22,-1,24,-1,26,-1,28,-1,30,-1,32,-1,34,36,-1,38,-1,-1,40,42,-1,-1,44,46,-1,48,-1,-1,50,52,-1,-1,54,56,-1,-1,58,-1,-1,-1,-1],"split_conditions":[-4.690535E7,-6.1461196E3,-8.346696E3,-0E0,0E0,-2.863437E2,-0E0,-0E0,0E0,-0E0,-2.2425652E4,-0E0,2.2379023E4,-0E0,-1.2575107E4,-6.57136E4,-0E0,-0E0,1E1,-0E0,0E0,-0E0,3.6117816E0,-0E0,4.525065E1,-0E0,1.0621152E4,-0E0,4.0328906E4,-0E0,4.0353348E4,3.7412574E0,-0E0,1E0,-0E0,-0E0,0E0,2.2516496E4,-0E0,-0E0,1.6678574E2,-9.29219E1,-0E0,-1.0408131E3,-0E0,-0E0,1.1522506E1,4.8137555E4,-0E0,-0E0,2.1902807E-2,-2.9035783E4,-0E0,-0E0,-7.663989E3,-0E0,1.6779838E-2,-0E0,-2.3747962E-2],"split_indices":[12,84,88,0,155,68,0,0,176,0,30,0,85,0,85,78,0,0,0,0,111,0,20,0,26,0,92,0,65,0,36,19,0,113,0,0,158,65,0,0,26,100,0,88,0,0,22,57,0,0,5,75,0,0,64,0,0,0,0],"split_type":[0,0,0,0,0,0,0,0,0,0,0,0,0,0,0,0,0,0,0,0,0,0,0,0,0,0,0,0,0,0,0,0,0,0,0,0,0,0,0,0,0,0,0,0,0,0,0,0,0,0,0,0,0,0,0,0,0,0,0],"sum_hessian":[2.621E3,1.121E3,1.5E3,2.37E2,8.84E2,7.21E2,7.79E2,1.5E2,7.34E2,1.01E2,6.2E2,3.4E1,7E2,3.6E1,5.84E2,6.53E2,4.7E1,6.2E1,5.22E2,1.6E1,6.37E2,5.3E1,4.69E2,5E1,5.87E2,2.1E1,4.48E2,1.13E2,4.74E2,4.1E1,4.07E2,4.6E2,1.4E1,4.01E2,6E0,9E0,4.51E2,3.86E2,1.5E1,1.5E1,4.36E2,3.68E2,1.8E1,4.32E2,4E0,2.6E1,3.42E2,4.24E2,8E0,2.6E1,3.16E2,4.18E2,6E0,5E0,3.11E2,1.8E1,4E2,1.2E1,2.99E2],"tree_param":{"num_deleted":"0","num_feature":"200","num_nodes":"59","size_leaf_vector":"1"}},{"base_weights":[-0E0,-0E0,4.0427744E-3,-1.8391347E-2,-0E0,2.3192646E-2,-0E0,-3.9876185E-2,-0E0,4.4478785E-2,-0E0,-6.3782066E-2,-0E0,-0E0,7.367923E-2,-0E0,-8.274123E-2,-0E0,1.0059117E-1,-1.05203435E-1,-0E0,1.1624027E-1,-0E0,-0E0,-1.2407795E-1,-0E0,1.3493308E-1,-1.4292812E-1,-0E0,1.461733E-1,-0E0,-0E0,-1.5598693E-1,1.5617992E-1,-0E0,-1.6539314E-1,-0E0,-0E0,1.6634734E-1,-0E0,-1.8284942E-1,-0E0,1.9460201E-1,-0E0,-1.9110672E-1,2.0636633E-1,-0E0,-1.9900212E-1,-0E0,-0E0,2.1224509E-1,-0E0,-2.087702E-1,2.1926127E-1,-0E0,-0E0,-1.6243411E-2,-0E0,1.6637439E-2],"categories":[],"categories_nodes":[],"categories_segments":[],"categories_sizes":[],"default_left":[0,0,0,0,0,0,0,0,0,0,0,0,0,0,0,0,0,0,0,0,0,0,0,0,0,0,0,0,0,0,0,0,0,0,0,0,0,0,0,0,0,0,0,0,0,0,0,0,0,0,0,0,0,0,0,0,0,0,0],"id":20,"left_children":[1,3,5,7,-1,9,-1,11,-1,13,-1,15,-1,-1,17,-1,19,-1,21,23,-1,25,-1,-1,27,-1,29,31,-1,33,-1,-1,35,37,-1,39,-1,-1,41,-1,43,-1,45,-1,47,49,-1,51,-1,-1,53,-1,55,57,-1,-1,-1,-1,-1],"loss_changes":[2.8148104E-2,2.5612527E-1,7.949586E-1,8.0324715E-1,0E0,1.7907565E0,0E0,1.4393911E0,0E0,2.2514136E0,0E0,1.5282955E0,0E0,0E0,2.5134554E0,0E0,1.6642699E0,0E0,1.6096663E0,1.6557226E0,0E0,2.2858057E0,0E0,0E0,1.7686481E0,0E0,1.2087336E0,1.1821966E0,0E0,1.328536E0,0E0,0E0,8.9643E-1,1.303379E0,0E0,1.3509369E0,0E0,0E0,1.4428616E0,0E0,9.02997E-1,0E0,1.4662285E0,0E0,8.9654636E-1,5.459957E-1,0E0,8.761978E-1,0E0,0E0,7.191925E-1,0E0,6.4627266E-1,3.7738037E-1,0E0,0E0,0E0,0E0,0E0],"parents":[2147483647,0,0,1,1,2,2,3,3,5,5,7,7,9,9,11,11,14,14,16,16,18,18,19,19,21,21,24,24,26,26,27,27,29,29,32,32,33,33,35,35,38,38,40,40,42,42,44,44,45,45,47,47,50,50,52,52,53,53],"right_children":[2,4,6,8,-1,10,-1,12,-1,14,-1,16,-1,-1,18,-1,20,-1,22,24,-1,26,-1,-1,28,-1,30,32,-1,34,-1,-1,36,38,-1,40,-1,-1,42,-1,44,-1,46,-1,48,50,-1,52,-1,-1,54,-1,56,58,-1,-1,-1,-1,-1],"split_conditions":[-1.2506223E3,2.460375E3,5.6103623E3,4.21875E2,-0E0,2.685633E3,-0E0,9.657866E-1,-0E0,-3.27665E1,-0E0,-1.0940976E4,-0E0,-0E0,-1.6488849E3,-0E0,1E0,-0E0,1.953125E3,-1.8363857E4,-0E0,-1.4686737E4,-0E0,-0E0,-5.9258417E2,-0E0,9.8430586E-1,-1.0940976E4,-0E0,1E0,-0E0,-0E0,4.8137555E4,3.559206E-2,-0E0,0E0,-0E0,-0E0,1.2979872E1,-0E0,-4.0158984E4,-0E0,4.823293E4,-0E0,7.9404336E4,-1.0732098E3,-0E0,-1.7822285E6,-0E0,-0E0,2.0376043E4,-0E0,-1.4875489E5,-1.1733227E5,-0E0,-0E0,-1.6243411E-2,-0E0,1.6637439E-2],"split_indices":[84,35,59,37,0,37,0,7,0,34,0,34,0,0,14,0,151,0,36,65,0,82,0,0,67,0,6,32,0,107,0,0,54,5,0,105,0,0,23,0,58,0,86,0,62,84,0,17,0,0,64,0,84,77,0,0,0,0,0],"split_type":[0,0,0,0,0,0,0,0,0,0,0,0,0,0,0,0,0,0,0,0,0,0,0,0,0,0,0,0,0,0,0,0,0,0,0,0,0,0,0,0,0,0,0,0,0,0,0,0,0,0,0,0,0,0,0,0,0,0,0],"sum_hessian":[2.585E3,8.64E2,1.721E3,7.56E2,1.08E2,1.529E3,1.92E2,6.65E2,9.1E1,1.32E3,2.09E2,6.13E2,5.2E1,4.25E2,8.95E2,2.6E1,5.87E2,1.67E2,7.28E2,5.13E2,7.4E1,6.64E2,6.4E1,3.7E1,4.76E2,4.6E1,6.18E2,4.45E2,3.1E1,5.83E2,3.5E1,2.3E1,4.22E2,5.65E2,1.8E1,4.08E2,1.4E1,2E1,5.45E2,3.4E1,3.74E2,1.09E2,4.36E2,7E0,3.67E2,4.22E2,1.4E1,3.61E2,6E0,1.1E1,4.11E2,1.3E1,3.48E2,4E2,1.1E1,1.3E1,3.35E2,4E0,3.96E2],"tree_param":{"num_deleted":"0","num_feature":"200","num_nodes":"59","size_leaf_vector":"1"}},{"base_weights":[-0E0,-0E0,-1.1811767E-3,-0E0,-3.0445896E-2,-5.4804597E-2,-0E0,-0E0,-8.640143E-2,-0E0,-1.1445699E-1,-0E0,-1.4123292E-1,-1.6161674E-1,-0E0,-1.872708E-1,-0E0,-2.0673913E-1,-0E0,-0E0,-2.2372267E-1,-0E0,-2.394024E-1,-0E0,-2.5050738E-1,-0E0,-2.659961E-1,-2.7868944E-1,-0E0,-2.1950284E-2,-0E0],"categories":[],"categories_nodes":[],"categories_segments":[],"categories_sizes":[],"default_left":[0,0,0,0,0,0,0,0,0,0,0,0,0,0,0,0,0,0,0,0,0,0,0,0,0,0,0,0,0,0,0],"id":21,"left_children":[1,-1,3,-1,5,7,-1,-1,9,-1,11,-1,13,15,-1,17,-1,19,-1,-1,21,-1,23,-1,25,-1,27,29,-1,-1,-1],"loss_changes":[2.352586E-3,0E0,1.3864316E0,0E0,2.3873487E0,3.2652428E0,0E0,0E0,3.8611178E0,0E0,4.5008926E0,0E0,3.1476927E0,3.9720058E0,0E0,3.9860268E0,0E0,3.1829262E0,0E0,0E0,2.8749752E0,0E0,2.8403816E0,0E0,2.8156967E0,0E0,2.72538E0,2.5909615E0,0E0,0E0,0E0],"parents":[2147483647,0,0,2,2,4,4,5,5,8,8,10,10,12,12,13,13,15,15,17,17,20,20,22,22,24,24,26,26,27,27],"right_children":[2,-1,4,-1,6,8,-1,-1,10,-1,12,-1,14,16,-1,18,-1,20,-1,-1,22,-1,24,-1,26,-1,28,30,-1,-1,-1],"split_conditions":[8E3,-0E0,-2.4420856E2,-0E0,1E0,-1.4887598E2,-0E0,-0E0,-2.744E3,-0E0,0E0,-0E0,5.177706E3,-2.1005576E3,-0E0,1.5683841E2,-0E0,-6.5194332E4,-0E0,-0E0,-4.960348E4,-0E0,-6.4957164E4,-0E0,1.5745546E2,-0E0,9.4486E4,1.9248938E4,-0E0,-2.1950284E-2,-0E0],"split_indices":[45,0,98,0,133,39,0,0,32,0,162,0,38,88,0,26,0,82,0,0,85,0,60,0,41,0,0,39,0,0,0],"split_type":[0,0,0,0,0,0,0,0,0,0,0,0,0,0,0,0,0,0,0,0,0,0,0,0,0,0,0,0,0,0,0],"sum_hessian":[2.526E3,8.41E2,1.685E3,1.88E2,1.497E3,1.256E3,2.41E2,3.14E2,9.42E2,1.11E2,8.31E2,6E1,7.71E2,7.09E2,6.2E1,6.41E2,6.8E1,6.19E2,2.2E1,2.7E1,5.92E2,2.5E1,5.67E2,4E0,5.63E2,2.4E1,5.39E2,5.26E2,1.3E1,5.04E2,2.2E1],"tree_param":{"num_deleted":"0","num_feature":"200","num_nodes":"31","size_leaf_vector":"1"}},{"base_weights":[-0E0],"categories":[],"categories_nodes":[],"categories_segments":[],"categories_sizes":[],"default_left":[0],"id":22,"left_children":[-1],"loss_changes":[0E0],"parents":[2147483647],"right_children":[-1],"split_conditions":[-0E0],"split_indices":[0],"split_type":[0],"sum_hessian":[2.544E3],"tree_param":{"num_deleted":"0","num_feature":"200","num_nodes":"1","size_leaf_vector":"1"}},{"base_weights":[-0E0],"categories":[],"categories_nodes":[],"categories_segments":[],"categories_sizes":[],"default_left":[0],"id":23,"left_children":[-1],"loss_changes":[0E0],"parents":[2147483647],"right_children":[-1],"split_conditions":[-0E0],"split_indices":[0],"split_type":[0],"sum_hessian":[2.551E3],"tree_param":{"num_deleted":"0","num_feature":"200","num_nodes":"1","size_leaf_vector":"1"}},{"base_weights":[-0E0,-0E0,1.9888008E-2,-9.099433E-3,-0E0,4.1748956E-2,-0E0,-3.7330862E-2,-0E0,-0E0,6.0107242E-2,-5.591584E-2,-0E0,-0E0,7.748404E-2,-0E0,-7.50489E-2,9.468885E-2,-0E0,-0E0,-9.3269385E-2,-0E0,1.07547894E-1,-0E0,-1.0868082E-1,1.17719725E-1,-0E0,-1.257755E-1,-0E0,1.3275987E-1,-0E0,-0E0,-1.404669E-1,-0E0,1.5276942E-1,-0E0,-1.5882467E-1,1.5939836E-1,-0E0,-1.7698157E-1,-0E0,-0E0,1.6635264E-1,-1.8722816E-1,-0E0,1.7712037E-1,-0E0,-0E0,-1.9761616E-1,-0E0,1.8603836E-1,-2.0720828E-1,-0E0,-0E0,1.917089E-1,-0E0,-1.6040891E-2,1.4884214E-2,-0E0],"categories":[],"categories_nodes":[],"categories_segments":[],"categories_sizes":[],"default_left":[0,0,0,0,0,0,0,0,0,0,0,0,0,0,0,0,0,0,0,0,0,0,0,0,0,0,0,0,0,0,0,0,0,0,0,0,0,0,0,0,0,0,0,0,0,0,0,0,0,0,0,0,0,0,0,0,0,0,0],"id":24,"left_children":[1,3,5,7,-1,9,-1,11,-1,-1,13,15,-1,-1,17,-1,19,21,-1,-1,23,-1,25,-1,27,29,-1,31,-1,33,-1,-1,35,-1,37,-1,39,41,-1,43,-1,-1,45,47,-1,49,-1,-1,51,-1,53,55,-1,-1,57,-1,-1,-1,-1],"loss_changes":[8.1607354E-1,3.7775345E-2,2.1874661E0,5.11615E-1,0E0,2.3190491E0,0E0,5.5812514E-1,0E0,0E0,2.6878042E0,8.0311835E-1,0E0,0E0,2.8404636E0,0E0,8.315711E-1,2.4764204E0,0E0,0E0,8.393526E-1,0E0,1.9888697E0,0E0,9.147446E-1,2.330639E0,0E0,9.1443205E-1,0E0,2.0795116E0,0E0,0E0,1.1030807E0,0E0,1.3425369E0,0E0,9.480047E-1,1.2696877E0,0E0,7.4881935E-1,0E0,0E0,1.3855095E0,7.0206547E-1,0E0,1.5492783E0,0E0,0E0,4.568758E-1,0E0,1.3804073E0,4.4368744E-1,0E0,0E0,1.3304482E0,0E0,0E0,0E0,0E0],"parents":[2147483647,0,0,1,1,2,2,3,3,5,5,7,7,10,10,11,11,14,14,16,16,17,17,20,20,22,22,24,24,25,25,27,27,29,29,32,32,34,34,36,36,37,37,39,39,42,42,43,43,45,45,48,48,50,50,51,51,54,54],"right_children":[2,4,6,8,-1,10,-1,12,-1,-1,14,16,-1,-1,18,-1,20,22,-1,-1,24,-1,26,-1,28,30,-1,32,-1,34,-1,-1,36,-1,38,-1,40,42,-1,44,-1,-1,46,48,-1,50,-1,-1,52,-1,54,56,-1,-1,58,-1,-1,-1,-1],"split_conditions":[-6.6739624E3,1.2167E4,1.2250262E3,1E0,-0E0,-8.419807E3,-0E0,-9.82375E2,-0E0,-0E0,9.062129E2,-2.012354E4,-0E0,-0E0,2.1165521E4,-0E0,2.1055046E3,-7.6858944E5,-0E0,-0E0,1.1765076E2,-0E0,7.188975E3,-0E0,1.3512426E4,2.924162E3,-0E0,-3.528751E4,-0E0,3.5439968E3,-0E0,-0E0,-1.9488037E4,-0E0,5.5261906E4,-0E0,1E0,1E0,-0E0,4.0353348E4,-0E0,-0E0,9.418207E-1,3E0,-0E0,0E0,-0E0,-0E0,5.177706E3,-0E0,-8.693549E4,-2.012354E4,-0E0,-0E0,1.1390625E4,-0E0,-1.6040891E-2,1.4884214E-2,-0E0],"split_indices":[84,35,33,151,0,86,0,67,0,0,89,35,0,0,84,0,89,17,0,0,41,0,35,0,65,36,0,32,0,92,0,0,50,0,83,0,104,0,0,33,0,0,5,0,0,112,0,0,37,0,56,34,0,0,38,0,0,0,0],"split_type":[0,0,0,0,0,0,0,0,0,0,0,0,0,0,0,0,0,0,0,0,0,0,0,0,0,0,0,0,0,0,0,0,0,0,0,0,0,0,0,0,0,0,0,0,0,0,0,0,0,0,0,0,0,0,0,0,0,0,0],"sum_hessian":[2.546E3,4.84E2,2.062E3,4.55E2,2.9E1,1.722E3,3.4E2,3.93E2,6.2E1,2.5E2,1.472E3,3.53E2,4E1,1.39E2,1.333E3,1.5E1,3.38E2,1.209E3,1.24E2,2.4E1,3.14E2,5.8E1,1.151E3,1.2E1,3.02E2,1.104E3,4.7E1,2.83E2,1.9E1,1E3,1.04E2,1E1,2.73E2,1.56E2,8.44E2,1.6E1,2.57E2,8.28E2,1.6E1,2.37E2,2E1,2.2E1,8.06E2,2.33E2,4E0,7.55E2,5.1E1,6E0,2.27E2,2.6E1,7.29E2,2.17E2,1E1,5E0,7.24E2,5E0,2.12E2,7.05E2,1.9E1],"tree_param":{"num_deleted":"0","num_feature":"200","num_nodes":"59","size_leaf_vector":"1"}},{"base_weights":[-0E0],"categories":[],"categories_nodes":[],"categories_segments":[],"categories_sizes":[],"default_left":[0],"id":25,"left_children":[-1],"loss_changes":[0E0],"parents":[2147483647],"right_children":[-1],"split_conditions":[-0E0],"split_indices":[0],"split_type":[0],"sum_hessian":[2.559E3],"tree_param":{"num_deleted":"0","num_feature":"200","num_nodes":"1","size_leaf_vector":"1"}},{"base_weights":[-0E0],"categories":[],"categories_nodes":[],"categories_segments":[],"categories_sizes":[],"default_left":[0],"id":26,"left_children":[-1],"loss_changes":[0E0],"parents":[2147483647],"right_children":[-1],"split_conditions":[-0E0],"split_indices":[0],"split_type":[0],"sum_hessian":[2.547E3],"tree_param":{"num_deleted":"0","num_feature":"200","num_nodes":"1","size_leaf_vector":"1"}},{"base_weights":[-0E0,2.6268364E-4,-0E0,-0E0,2.7771626E-2,-8.762491E-3,-0E0,-0E0,4.680177E-2,-3.0518606E-2,-0E0,6.1048996E-2,-0E0,-4.888293E-2,-0E0,-0E0,7.39408E-2,-7.035732E-2,-0E0,8.3345905E-2,-0E0,-8.6384445E-2,-0E0,-0E0,9.401672E-2,-1.02388434E-1,-0E0,1.0231802E-1,-0E0,-0E0,-1.320724E-1,-0E0,1.10953644E-1,-0E0,-1.4783025E-1,-0E0,1.1640462E-1,-0E0,-1.621416E-1,1.2119523E-1,-0E0,-0E0,-1.7516279E-1,-0E0,1.2915517E-1,-0E0,-1.8499956E-1,1.3255088E-1,-0E0,-1.9362466E-1,-0E0,-0E0,1.3646665E-1,-2.0000131E-1,-0E0,1.0567343E-2,-0E0,-1.5403346E-2,-0E0],"categories":[],"categories_nodes":[],"categories_segments":[],"categories_sizes":[],"default_left":[0,0,0,0,0,0,0,0,0,0,0,0,0,0,0,0,0,0,0,0,0,0,0,0,0,0,0,0,0,0,0,0,0,0,0,0,0,0,0,0,0,0,0,0,0,0,0,0,0,0,0,0,0,0,0,0,0,0,0],"id":27,"left_children":[1,3,5,-1,7,9,-1,-1,11,13,-1,15,-1,17,-1,-1,19,21,-1,23,-1,25,-1,-1,27,29,-1,31,-1,-1,33,-1,35,-1,37,-1,39,-1,41,43,-1,-1,45,-1,47,-1,49,51,-1,53,-1,-1,55,57,-1,-1,-1,-1,-1],"loss_changes":[9.2203176E-5,8.569553E-1,8.109834E-2,0E0,1.3710892E0,8.411835E-1,0E0,0E0,1.4176912E0,1.1786644E0,0E0,1.4235394E0,0E0,1.9691966E0,0E0,0E0,1.2743921E0,1.587945E0,0E0,1.4366827E0,0E0,1.5673361E0,0E0,0E0,1.3403997E0,1.8314924E0,0E0,1.3706636E0,0E0,0E0,1.7219315E0,0E0,8.9358425E-1,0E0,1.7147884E0,0E0,8.6825466E-1,0E0,1.4429197E0,6.4487934E-1,0E0,0E0,1.4038973E0,0E0,5.4659176E-1,0E0,1.3137941E0,5.267496E-1,0E0,9.550133E-1,0E0,0E0,4.935732E-1,9.02956E-1,0E0,0E0,0E0,0E0,0E0],"parents":[2147483647,0,0,1,1,2,2,4,4,5,5,8,8,9,9,11,11,13,13,16,16,17,17,19,19,21,21,24,24,25,25,27,27,30,30,32,32,34,34,36,36,38,38,39,39,42,42,44,44,46,46,47,47,49,49,52,52,53,53],"right_children":[2,4,6,-1,8,10,-1,-1,12,14,-1,16,-1,18,-1,-1,20,22,-1,24,-1,26,-1,-1,28,30,-1,32,-1,-1,34,-1,36,-1,38,-1,40,-1,42,44,-1,-1,46,-1,48,-1,50,52,-1,54,-1,-1,56,58,-1,-1,-1,-1,-1],"split_conditions":[1.3413723E5,-7.254454E3,1.4428923E3,-0E0,-9.938402E3,9.7876906E-1,-0E0,-0E0,1.8058338E4,1.162E3,-0E0,0E0,-0E0,2.4057254E4,-0E0,-0E0,1.9683E4,-7.61158E2,-0E0,0E0,-0E0,2.810615E3,-0E0,-0E0,1.578594E2,8.489694E3,-0E0,4.9303214E2,-0E0,-0E0,3.6117816E0,-0E0,-5.17776E3,-0E0,1.66375E2,-0E0,4.3475747E3,-0E0,-4.0230137E4,-9.7650886E-1,-0E0,-0E0,0E0,-0E0,6.4481074E4,-0E0,1.4744242E15,3.7874708E0,-0E0,2.1732701E2,-0E0,-0E0,1.1390625E4,7.9404336E4,-0E0,1.0567343E-2,-0E0,-1.5403346E-2,-0E0],"split_indices":[12,84,35,0,62,7,0,0,64,0,0,111,0,85,0,0,34,88,0,177,0,90,0,0,26,47,0,43,0,0,20,0,63,0,41,0,93,0,85,7,0,0,111,0,58,0,12,21,0,100,0,0,31,62,0,0,0,0,0],"split_type":[0,0,0,0,0,0,0,0,0,0,0,0,0,0,0,0,0,0,0,0,0,0,0,0,0,0,0,0,0,0,0,0,0,0,0,0,0,0,0,0,0,0,0,0,0,0,0,0,0,0,0,0,0,0,0,0,0,0,0],"sum_hessian":[2.562E3,1.335E3,1.227E3,2.25E2,1.11E3,1.055E3,1.72E2,9.4E1,1.016E3,9.89E2,6.6E1,9.77E2,3.9E1,8.78E2,1.11E2,5.1E1,9.26E2,8.21E2,5.7E1,9.12E2,1.4E1,7.57E2,6.4E1,3.3E1,8.79E2,6.88E2,6.9E1,8.7E2,9E0,1.7E2,5.18E2,1.9E1,8.51E2,2.6E1,4.92E2,1.2E1,8.39E2,1.8E1,4.74E2,8.33E2,6E0,2.1E1,4.53E2,6.1E1,7.72E2,6E0,4.47E2,7.64E2,8E0,4.43E2,4E0,1.5E1,7.49E2,4.39E2,4E0,7.23E2,2.6E1,4.35E2,4E0],"tree_param":{"num_deleted":"0","num_feature":"200","num_nodes":"59","size_leaf_vector":"1"}},{"base_weights":[-0E0,-2.7902757E-3,-0E0,-0E0,-3.7194528E-2,-0E0,-5.8855392E-2,-0E0,-7.793358E-2,-0E0,-9.341006E-2,-0E0,-1.0877927E-1,-0E0,-1.22580275E-1,-0E0,-1.3344063E-1,-0E0,-1.4638668E-1,-1.5736677E-1,-0E0,-1.6907555E-1,-0E0,-1.8097104E-1,-0E0,-0E0,-1.9823922E-1,-0E0,-2.1148072E-1,-0E0,-1.6830187E-2],"categories":[],"categories_nodes":[],"categories_segments":[],"categories_sizes":[],"default_left":[0,0,0,0,0,0,0,0,0,0,0,0,0,0,0,0,0,0,0,0,0,0,0,0,0,0,0,0,0,0,0],"id":28,"left_children":[1,3,-1,-1,5,-1,7,-1,9,-1,11,-1,13,-1,15,-1,17,-1,19,21,-1,23,-1,25,-1,-1,27,-1,29,-1,-1],"loss_changes":[1.3252915E-2,1.4438142E0,0E0,0E0,1.5989255E0,0E0,1.8771768E0,0E0,1.9618983E0,0E0,2.3017898E0,0E0,2.0309E0,0E0,1.7927408E0,0E0,1.8346786E0,0E0,2.014902E0,2.203598E0,0E0,2.287054E0,0E0,2.5418053E0,0E0,0E0,2.1817074E0,0E0,2.0960827E0,0E0,0E0],"parents":[2147483647,0,0,1,1,4,4,6,6,8,8,10,10,12,12,14,14,16,16,18,18,19,19,21,21,23,23,26,26,28,28],"right_children":[2,4,-1,-1,6,-1,8,-1,10,-1,12,-1,14,-1,16,-1,18,-1,20,22,-1,24,-1,26,-1,-1,28,-1,30,-1,-1],"split_conditions":[-4.580645E3,-3.59366E1,-0E0,-0E0,6.967844E3,-0E0,0E0,-0E0,-6.949563E1,-0E0,-4.6656E4,-0E0,-2.2425652E4,-0E0,-2.0694896E4,-0E0,4.096E3,-0E0,2.0592408E5,9.116487E4,-0E0,4.0328906E4,-0E0,1.1914186E1,-0E0,-0E0,-9.8334295E-1,-0E0,-4.960348E4,-0E0,-1.6830187E-2],"split_indices":[88,9,0,0,45,0,106,0,74,0,29,0,30,0,50,0,43,0,78,82,0,62,0,22,0,0,7,0,86,0,0],"split_type":[0,0,0,0,0,0,0,0,0,0,0,0,0,0,0,0,0,0,0,0,0,0,0,0,0,0,0,0,0,0,0],"sum_hessian":[2.54E3,1.701E3,8.39E2,6.49E2,1.052E3,1.71E2,8.81E2,7E1,8.11E2,2.2E1,7.89E2,1.3E1,7.76E2,3E1,7.46E2,1.6E1,7.3E2,3.8E1,6.92E2,6.8E2,1.2E1,6.66E2,1.4E1,6.51E2,1.5E1,4.4E1,6.07E2,2.5E1,5.82E2,2.7E1,5.55E2],"tree_param":{"num_deleted":"0","num_feature":"200","num_nodes":"31","size_leaf_vector":"1"}},{"base_weights":[-0E0],"categories":[],"categories_nodes":[],"categories_segments":[],"categories_sizes":[],"default_left":[0],"id":29,"left_children":[-1],"loss_changes":[0E0],"parents":[2147483647],"right_children":[-1],"split_conditions":[-0E0],"split_indices":[0],"split_type":[0],"sum_hessian":[2.577E3],"tree_param":{"num_deleted":"0","num_feature":"200","num_nodes":"1","size_leaf_vector":"1"}},{"base_weights":[-0E0],"categories":[],"categories_nodes":[],"categories_segments":[],"categories_sizes":[],"default_left":[0],"id":30,"left_children":[-1],"loss_changes":[0E0],"parents":[2147483647],"right_children":[-1],"split_conditions":[-0E0],"split_indices":[0],"split_type":[0],"sum_hessian":[2.591E3],"tree_param":{"num_deleted":"0","num_feature":"200","num_nodes":"1","size_leaf_vector":"1"}},{"base_weights":[-0E0],"categories":[],"categories_nodes":[],"categories_segments":[],"categories_sizes":[],"default_left":[0],"id":31,"left_children":[-1],"loss_changes":[0E0],"parents":[2147483647],"right_children":[-1],"split_conditions":[-0E0],"split_indices":[0],"split_type":[0],"sum_hessian":[2.579E3],"tree_param":{"num_deleted":"0","num_feature":"200","num_nodes":"1","size_leaf_vector":"1"}},{"base_weights":[-0E0,-0E0,1.5107598E-2,-2.118847E-2,-0E0,-0E0,3.331692E-2,-5.5332806E-2,-0E0,4.8549686E-2,-0E0,-7.895302E-2,-0E0,6.2442187E-2,-0E0,-0E0,-9.7227864E-2,7.431906E-2,-0E0,-0E0,-1.1270904E-1,-0E0,8.303093E-2,-0E0,-1.256701E-1,9.440194E-2,-0E0,-0E0,-1.3479589E-1,-0E0,1.17079735E-1,-0E0,-1.4549558E-1,1.23857595E-1,-0E0,-0E0,-1.536125E-1,-0E0,1.2964231E-1,-0E0,-1.6541815E-1,-0E0,1.3319488E-1,-1.7232476E-1,-0E0,-0E0,1.368733E-1,-1.7752384E-1,-0E0,-0E0,1.420341E-1,-1.8271437E-1,-0E0,1.512653E-1,-0E0,-1.4039247E-2,-0E0,-0E0,1.1916513E-2],"categories":[],"categories_nodes":[],"categories_segments":[],"categories_sizes":[],"default_left":[0,0,0,0,0,0,0,0,0,0,0,0,0,0,0,0,0,0,0,0,0,0,0,0,0,0,0,0,0,0,0,0,0,0,0,0,0,0,0,0,0,0,0,0,0,0,0,0,0,0,0,0,0,0,0,0,0,0,0],"id":32,"left_children":[1,3,5,7,-1,-1,9,11,-1,13,-1,15,-1,17,-1,-1,19,21,-1,-1,23,-1,25,-1,27,29,-1,-1,31,-1,33,-1,35,37,-1,-1,39,-1,41,-1,43,-1,45,47,-1,-1,49,51,-1,-1,53,55,-1,57,-1,-1,-1,-1,-1],"loss_changes":[2.8877452E-1,3.4938544E-1,9.0696466E-1,1.197474E0,0E0,0E0,1.0840818E0,1.2658918E0,0E0,1.1833954E0,0E0,1.3488159E0,0E0,1.1334352E0,0E0,0E0,1.303731E0,9.960494E-1,0E0,0E0,1.0449734E0,0E0,1.1287527E0,0E0,8.708224E-1,1.4925327E0,0E0,0E0,9.430876E-1,0E0,7.944708E-1,0E0,8.367014E-1,7.434721E-1,0E0,0E0,6.413059E-1,0E0,4.7081947E-1,0E0,6.8714046E-1,0E0,4.4129658E-1,5.164194E-1,0E0,0E0,5.369053E-1,4.8607063E-1,0E0,0E0,8.168402E-1,4.6714115E-1,0E0,9.6679306E-1,0E0,0E0,0E0,0E0,0E0],"parents":[2147483647,0,0,1,1,2,2,3,3,6,6,7,7,9,9,11,11,13,13,16,16,17,17,20,20,22,22,24,24,25,25,28,28,30,30,32,32,33,33,36,36,38,38,40,40,42,42,43,43,46,46,47,47,50,50,51,51,53,53],"right_children":[2,4,6,8,-1,-1,10,12,-1,14,-1,16,-1,18,-1,-1,20,22,-1,-1,24,-1,26,-1,28,30,-1,-1,32,-1,34,-1,36,38,-1,-1,40,-1,42,-1,44,-1,46,48,-1,-1,50,52,-1,-1,54,56,-1,58,-1,-1,-1,-1,-1],"split_conditions":[-9.694812E3,2.1775264E2,-1.3569738E3,6.2518024E2,-0E0,-0E0,-3.0024432E2,2.810615E3,-0E0,1.28475065E1,-0E0,6.37E2,-0E0,1E0,-0E0,-0E0,2.1953148E1,2.7139475E3,-0E0,-0E0,3.5816113E3,-0E0,4.913E3,-0E0,-2.5934271E4,-8.776087E-1,-0E0,-0E0,9.064665E0,-0E0,8.652346E3,-0E0,-2.0328236E5,-5.252715E3,-0E0,-0E0,1.5112937E4,-0E0,-1.5059016E3,-0E0,1.1354847E5,-0E0,-6.256773E3,2.6103915E2,-0E0,-0E0,-1.5625E4,3.1E1,-0E0,-0E0,1.5227E3,4.0353348E4,-0E0,-2.384676E4,-0E0,-1.4039247E-2,-0E0,-0E0,1.1916513E-2],"split_indices":[88,61,56,58,0,0,67,90,0,20,0,197,0,175,0,0,41,96,0,0,45,0,38,0,13,6,0,0,22,0,77,0,61,44,0,0,96,0,66,0,56,0,55,74,0,0,36,1,0,0,198,36,0,65,0,0,0,0,0],"split_type":[0,0,0,0,0,0,0,0,0,0,0,0,0,0,0,0,0,0,0,0,0,0,0,0,0,0,0,0,0,0,0,0,0,0,0,0,0,0,0,0,0,0,0,0,0,0,0,0,0,0,0,0,0,0,0,0,0,0,0],"sum_hessian":[2.562E3,1.298E3,1.264E3,7.77E2,5.21E2,1.88E2,1.076E3,5.04E2,2.73E2,9.66E2,1.1E2,4.5E2,5.4E1,8.87E2,7.9E1,1.1E1,4.39E2,8.31E2,5.6E1,1E1,4.29E2,2.1E1,8.1E2,1.8E1,4.11E2,7.53E2,5.7E1,6E0,4.05E2,1.55E2,5.98E2,1.3E1,3.92E2,5.86E2,1.2E1,5E0,3.87E2,7E0,5.79E2,3E1,3.57E2,4E0,5.75E2,3.52E2,5E0,7E0,5.68E2,3.48E2,4E0,1.4E1,5.54E2,3.43E2,5E0,5.24E2,3E1,3.38E2,5E0,1.4E1,5.1E2],"tree_param":{"num_deleted":"0","num_feature":"200","num_nodes":"59","size_leaf_vector":"1"}},{"base_weights":[-0E0],"categories":[],"categories_nodes":[],"categories_segments":[],"categories_sizes":[],"default_left":[0],"id":33,"left_children":[-1],"loss_changes":[0E0],"parents":[2147483647],"right_children":[-1],"split_conditions":[-0E0],"split_indices":[0],"split_type":[0],"sum_hessian":[2.562E3],"tree_param":{"num_deleted":"0","num_feature":"200","num_nodes":"1","size_leaf_vector":"1"}},{"base_weights":[-0E0],"categories":[],"categories_nodes":[],"categories_segments":[],"categories_sizes":[],"default_left":[0],"id":34,"left_children":[-1],"loss_changes":[0E0],"parents":[2147483647],"right_children":[-1],"split_conditions":[-0E0],"split_indices":[0],"split_type":[0],"sum_hessian":[2.543E3],"tree_param":{"num_deleted":"0","num_feature":"200","num_nodes":"1","size_leaf_vector":"1"}},{"base_weights":[-0E0,-0E0,6.857718E-3,2.1739623E-2,-0E0,-0E0,3.7549168E-2,-0E0,5.1459763E-2,6.480179E-2,-0E0,7.306349E-2,-0E0,9.9041924E-2,-0E0,-0E0,1.12657465E-1,1.2375222E-1,-0E0,-0E0,1.2988473E-1,-0E0,1.4749728E-1,-0E0,1.5496624E-1,1.616549E-1,-0E0,-0E0,1.6895673E-1,1.3002192E-2,-0E0],"categories":[],"categories_nodes":[],"categories_segments":[],"categories_sizes":[],"default_left":[0,0,0,0,0,0,0,0,0,0,0,0,0,0,0,0,0,0,0,0,0,0,0,0,0,0,0,0,0,0,0],"id":35,"left_children":[1,-1,3,5,-1,-1,7,-1,9,11,-1,13,-1,15,-1,-1,17,19,-1,-1,21,-1,23,-1,25,27,-1,-1,29,-1,-1],"loss_changes":[9.242121E-2,0E0,8.2313335E-1,1.4153948E0,0E0,0E0,1.5676622E0,0E0,1.8847337E0,1.4832501E0,0E0,1.6424661E0,0E0,1.6786852E0,0E0,0E0,1.6980295E0,1.1634579E0,0E0,0E0,1.1318283E0,0E0,1.3219795E0,0E0,1.2456532E0,1.2130699E0,0E0,0E0,9.065361E-1,0E0,0E0],"parents":[2147483647,0,0,2,2,3,3,6,6,8,8,9,9,11,11,13,13,16,16,17,17,20,20,22,22,24,24,25,25,28,28],"right_children":[2,-1,4,6,-1,-1,8,-1,10,12,-1,14,-1,16,-1,-1,18,20,-1,-1,22,-1,24,-1,26,28,-1,-1,30,-1,-1],"split_conditions":[-4.3794106E3,-0E0,1.4205772E14,-8.419807E3,-0E0,-0E0,0E0,-0E0,4.6574224E3,2.0796875E4,-0E0,2.015E3,-0E0,4E0,-0E0,-0E0,1E0,-7.785422E4,-0E0,-0E0,3.5439968E3,-0E0,5.541E2,-0E0,8.118301E4,2.611511E0,-0E0,-0E0,1.65342E5,1.3002192E-2,-0E0],"split_indices":[84,0,18,86,0,0,137,0,34,13,0,2,0,1,0,0,107,33,0,0,92,0,196,0,37,19,0,0,0,0,0],"split_type":[0,0,0,0,0,0,0,0,0,0,0,0,0,0,0,0,0,0,0,0,0,0,0,0,0,0,0,0,0,0,0],"sum_hessian":[2.552E3,5.88E2,1.964E3,1.936E3,2.8E1,2.84E2,1.652E3,1.81E2,1.471E3,1.376E3,9.5E1,1.36E3,1.6E1,9.07E2,4.53E2,7.4E1,8.33E2,8.01E2,3.2E1,5E0,7.96E2,1.27E2,6.69E2,8E0,6.61E2,6.55E2,6E0,1.3E1,6.42E2,6.36E2,6E0],"tree_param":{"num_deleted":"0","num_feature":"200","num_nodes":"31","size_leaf_vector":"1"}},{"base_weights":[-0E0,1.3451092E-3,-0E0,-0E0,2.0798992E-2,-0E0,-5.484569E-3,-0E0,3.639884E-2,-0E0,-2.838457E-2,-0E0,7.272434E-2,-4.570668E-2,-0E0,-0E0,8.901487E-2,-0E0,-6.0945407E-2,-0E0,1.0044642E-1,-0E0,-7.487735E-2,-0E0,1.1124861E-1,-8.9711E-2,-0E0,-0E0,1.226419E-1,-1.045009E-1,-0E0,1.3202108E-1,-0E0,-1.1972028E-1,-0E0,1.4040439E-1,-0E0,-0E0,-1.3264437E-1,1.5180409E-1,-0E0,-0E0,-1.4848289E-1,1.670256E-1,-0E0,-0E0,-1.6010718E-1,1.7906268E-1,-0E0,-0E0,-1.706646E-1,-0E0,1.8943433E-1,-0E0,-1.8604684E-1,-0E0,1.5228402E-2,-1.4931428E-2,-0E0],"categories":[],"categories_nodes":[],"categories_segments":[],"categories_sizes":[],"default_left":[0,0,0,0,0,0,0,0,0,0,0,0,0,0,0,0,0,0,0,0,0,0,0,0,0,0,0,0,0,0,0,0,0,0,0,0,0,0,0,0,0,0,0,0,0,0,0,0,0,0,0,0,0,0,0,0,0,0,0],"id":36,"left_children":[1,3,5,-1,7,-1,9,-1,11,-1,13,-1,15,17,-1,-1,19,-1,21,-1,23,-1,25,-1,27,29,-1,-1,31,33,-1,35,-1,37,-1,39,-1,-1,41,43,-1,-1,45,47,-1,-1,49,51,-1,-1,53,-1,55,-1,57,-1,-1,-1,-1],"loss_changes":[3.7294144E-3,7.3438054E-1,1.456575E-2,0E0,1.2985228E0,0E0,3.3286583E-1,0E0,2.0581152E0,0E0,4.6152177E-1,0E0,1.6041431E0,5.959068E-1,0E0,0E0,1.3862033E0,0E0,6.764606E-1,0E0,1.420186E0,0E0,8.0975103E-1,0E0,1.4402399E0,9.444668E-1,0E0,0E0,1.3353443E0,1.0838969E0,0E0,1.261302E0,0E0,1.0314865E0,0E0,1.4279919E0,0E0,0E0,9.9891376E-1,2.2167177E0,0E0,0E0,8.487811E-1,2.1285877E0,0E0,0E0,9.1675234E-1,1.7884426E0,0E0,0E0,8.803644E-1,0E0,1.4329262E0,0E0,1.1002359E0,0E0,0E0,0E0,0E0],"parents":[2147483647,0,0,1,1,2,2,4,4,6,6,8,8,10,10,12,12,13,13,16,16,18,18,20,20,22,22,24,24,25,25,28,28,29,29,31,31,33,33,35,35,38,38,39,39,42,42,43,43,46,46,47,47,50,50,52,52,54,54],"right_children":[2,4,6,-1,8,-1,10,-1,12,-1,14,-1,16,18,-1,-1,20,-1,22,-1,24,-1,26,-1,28,30,-1,-1,32,34,-1,36,-1,38,-1,40,-1,-1,42,44,-1,-1,46,48,-1,-1,50,52,-1,-1,54,-1,56,-1,58,-1,-1,-1,-1],"split_conditions":[7.034761E1,-2.923625E3,-1.4287576E4,-0E0,-5.61544E3,-0E0,1.0677618E-1,-0E0,5.933279E1,-0E0,9.6825075E-1,-0E0,0E0,-2.1249005E5,-0E0,-0E0,-9.95927E4,-0E0,-2.1058875E2,-0E0,6.127019E3,-0E0,1.0244E4,-0E0,-1.9683E4,4.0353348E4,-0E0,-0E0,2.3639783E4,4.541352E1,-0E0,1E0,-0E0,-1.6240314E8,-0E0,4.492125E3,-0E0,-0E0,3E0,1.5056939E5,-0E0,-0E0,0E0,1.032368E10,-0E0,-0E0,-1.1494855E5,-7.785422E4,-0E0,-0E0,-1.2487432E4,-0E0,0E0,-0E0,-6.534001E2,-0E0,1.5228402E-2,-1.4931428E-2,-0E0],"split_indices":[98,56,46,0,83,0,5,0,26,0,6,0,176,83,0,0,78,0,73,0,94,0,0,0,38,37,0,0,38,21,0,116,0,11,0,13,0,0,1,43,0,0,146,17,0,0,61,33,0,0,65,0,143,0,88,0,0,0,0],"split_type":[0,0,0,0,0,0,0,0,0,0,0,0,0,0,0,0,0,0,0,0,0,0,0,0,0,0,0,0,0,0,0,0,0,0,0,0,0,0,0,0,0,0,0,0,0,0,0,0,0,0,0,0,0,0,0,0,0,0,0],"sum_hessian":[2.581E3,2.06E3,5.21E2,3.55E2,1.705E3,3.8E1,4.83E2,1.69E2,1.536E3,5.3E1,4.3E2,7.63E2,7.73E2,3.86E2,4.4E1,5.5E1,7.18E2,9E0,3.77E2,1.7E1,7.01E2,7E0,3.7E2,1.5E1,6.86E2,3.58E2,1.2E1,2.6E1,6.6E2,3.5E2,8E0,6.46E2,1.4E1,3.42E2,8E0,6.35E2,1.1E1,5E0,3.37E2,6.05E2,3E1,2.3E1,3.14E2,5.79E2,2.6E1,1.1E1,3.03E2,5.7E2,9E0,5E0,2.98E2,1.1E1,5.59E2,2.2E1,2.76E2,4.1E1,5.18E2,2.67E2,9E0],"tree_param":{"num_deleted":"0","num_feature":"200","num_nodes":"59","size_leaf_vector":"1"}},{"base_weights":[-0E0],"categories":[],"categories_nodes":[],"categories_segments":[],"categories_sizes":[],"default_left":[0],"id":37,"left_children":[-1],"loss_changes":[0E0],"parents":[2147483647],"right_children":[-1],"split_conditions":[-0E0],"split_indices":[0],"split_type":[0],"sum_hessian":[2.525E3],"tree_param":{"num_deleted":"0","num_feature":"200","num_nodes":"1","size_leaf_vector":"1"}},{"base_weights":[-0E0],"categories":[],"categories_nodes":[],"categories_segments":[],"categories_sizes":[],"default_left":[0],"id":38,"left_children":[-1],"loss_changes":[0E0],"parents":[2147483647],"right_children":[-1],"split_conditions":[-0E0],"split_indices":[0],"split_type":[0],"sum_hessian":[2.539E3],"tree_param":{"num_deleted":"0","num_feature":"200","num_nodes":"1","size_leaf_vector":"1"}},{"base_weights":[-0E0],"categories":[],"categories_nodes":[],"categories_segments":[],"categories_sizes":[],"default_left":[0],"id":39,"left_children":[-1],"loss_changes":[0E0],"parents":[2147483647],"right_children":[-1],"split_conditions":[-0E0],"split_indices":[0],"split_type":[0],"sum_hessian":[2.545E3],"tree_param":{"num_deleted":"0","num_feature":"200","num_nodes":"1","size_leaf_vector":"1"}},{"base_weights":[-0E0,-2.610915E-3,-0E0,-0E0,-3.6126565E-2,-5.753068E-2,-0E0,-0E0,-7.621505E-2,-0E0,-9.95592E-2,-1.22006975E-1,-0E0,-0E0,-1.4103682E-1,-0E0,-1.6422895E-1,-0E0,-1.7709108E-1,-0E0,-1.9134173E-1,-2.1128173E-1,-0E0,-0E0,-2.3097144E-1,-2.4267371E-1,-0E0,-2.5286603E-1,-0E0,-0E0,-1.9458467E-2],"categories":[],"categories_nodes":[],"categories_segments":[],"categories_sizes":[],"default_left":[0,0,0,0,0,0,0,0,0,0,0,0,0,0,0,0,0,0,0,0,0,0,0,0,0,0,0,0,0,0,0],"id":40,"left_children":[1,3,-1,-1,5,7,-1,-1,9,-1,11,13,-1,-1,15,-1,17,-1,19,-1,21,23,-1,-1,25,27,-1,29,-1,-1,-1],"loss_changes":[1.4405602E-2,1.8783255E0,0E0,0E0,2.559669E0,2.867916E0,0E0,0E0,2.9706144E0,0E0,3.3923903E0,4.1836357E0,0E0,0E0,3.8778763E0,0E0,3.0062733E0,0E0,2.8623486E0,0E0,2.6625233E0,2.865055E0,0E0,0E0,2.6188126E0,2.2356796E0,0E0,1.9084358E0,0E0,0E0,0E0],"parents":[2147483647,0,0,1,1,4,4,5,5,8,8,10,10,11,11,14,14,16,16,18,18,20,20,21,21,24,24,25,25,27,27],"right_children":[2,4,-1,-1,6,8,-1,-1,10,-1,12,14,-1,-1,16,-1,18,-1,20,-1,22,24,-1,-1,26,28,-1,30,-1,-1,-1],"split_conditions":[9.7030615E2,1.5438294E4,-0E0,-0E0,9.750985E-1,-1.43201045E4,-0E0,-0E0,4.1568477E4,-0E0,2.2758256E4,-5.0752E4,-0E0,-0E0,-1.2818776E4,-0E0,-3.4268805E4,-0E0,-6.5194332E4,-0E0,-6.9445825E2,1.0985125E1,-0E0,-0E0,4.6124152E2,7.9404336E4,-0E0,1E0,-0E0,-0E0,-1.9458467E-2],"split_indices":[35,49,0,0,7,52,0,0,99,0,78,56,0,0,58,0,60,0,85,0,67,22,0,0,102,62,0,0,0,0,0],"split_type":[0,0,0,0,0,0,0,0,0,0,0,0,0,0,0,0,0,0,0,0,0,0,0,0,0,0,0,0,0,0,0],"sum_hessian":[2.582E3,2.112E3,4.7E2,6.63E2,1.449E3,1.344E3,1.05E2,8.5E1,1.259E3,2.22E2,1.037E3,9.18E2,1.19E2,2.1E1,8.97E2,9.2E1,8.05E2,1.7E1,7.88E2,3.5E1,7.53E2,6.77E2,7.6E1,5.7E1,6.2E2,6.06E2,1.4E1,5.93E2,1.3E1,5E0,5.88E2],"tree_param":{"num_deleted":"0","num_feature":"200","num_nodes":"31","size_leaf_vector":"1"}},{"base_weights":[-0E0],"categories":[],"categories_nodes":[],"categories_segments":[],"categories_sizes":[],"default_left":[0],"id":41,"left_children":[-1],"loss_changes":[0E0],"parents":[2147483647],"right_children":[-1],"split_conditions":[-0E0],"split_indices":[0],"split_type":[0],"sum_hessian":[2.552E3],"tree_param":{"num_deleted":"0","num_feature":"200","num_nodes":"1","size_leaf_vector":"1"}},{"base_weights":[-0E0],"categories":[],"categories_nodes":[],"categories_segments":[],"categories_sizes":[],"default_left":[0],"id":42,"left_children":[-1],"loss_changes":[0E0],"parents":[2147483647],"right_children":[-1],"split_conditions":[-0E0],"split_indices":[0],"split_type":[0],"sum_hessian":[2.559E3],"tree_param":{"num_deleted":"0","num_feature":"200","num_nodes":"1","size_leaf_vector":"1"}},{"base_weights":[-0E0,-0E0,8.255092E-3,3.9140195E-2,-0E0,5.983762E-2,-0E0,1.0475163E-1,-0E0,-0E0,1.3511571E-1,1.6524826E-1,-0E0,-0E0,1.8912166E-1,2.0454876E-1,-0E0,-0E0,2.1720338E-1,-0E0,2.3255779E-1,-0E0,2.5212893E-1,-0E0,2.6224327E-1,-0E0,2.750275E-1,2.8048447E-1,-0E0,-0E0,2.1509642E-2],"categories":[],"categories_nodes":[],"categories_segments":[],"categories_sizes":[],"default_left":[0,0,0,0,0,0,0,0,0,0,0,0,0,0,0,0,0,0,0,0,0,0,0,0,0,0,0,0,0,0,0],"id":43,"left_children":[1,-1,3,5,-1,7,-1,9,-1,-1,11,13,-1,-1,15,17,-1,-1,19,-1,21,-1,23,-1,25,-1,27,29,-1,-1,-1],"loss_changes":[9.310358E-2,0E0,8.9688516E-1,1.2665603E0,0E0,1.663255E0,0E0,1.5064254E0,0E0,0E0,1.4886022E0,1.2123523E0,0E0,0E0,1.2126236E0,1.0026731E0,0E0,0E0,1.0812683E0,0E0,8.594179E-1,0E0,7.301779E-1,0E0,5.4331493E-1,0E0,2.2861767E-1,1.3589478E-1,0E0,0E0,0E0],"parents":[2147483647,0,0,2,2,3,3,5,5,7,7,10,10,11,11,14,14,15,15,18,18,20,20,22,22,24,24,26,26,27,27],"right_children":[2,-1,4,6,-1,8,-1,10,-1,-1,12,14,-1,-1,16,18,-1,-1,20,-1,22,-1,24,-1,26,-1,28,30,-1,-1,-1],"split_conditions":[-3.2768375E1,-0E0,-3.4292823E-1,1.3144317E4,-0E0,2.014E3,-0E0,-7.8706777E3,-0E0,-0E0,1E0,2.5713599E3,-0E0,-0E0,1.1354847E5,-4.7437734E4,-0E0,-0E0,0E0,-0E0,0E0,-0E0,1E0,-0E0,-6.1765495E6,-0E0,2.3639783E4,5.756433E0,-0E0,-0E0,2.1509642E-2],"split_indices":[56,0,13,33,0,2,0,83,0,0,180,45,0,0,65,13,0,0,109,0,114,0,0,0,11,0,37,21,0,0,0],"split_type":[0,0,0,0,0,0,0,0,0,0,0,0,0,0,0,0,0,0,0,0,0,0,0,0,0,0,0,0,0,0,0],"sum_hessian":[2.535E3,1.17E3,1.365E3,6.45E2,7.2E2,6.29E2,1.6E1,3.56E2,2.73E2,6E1,2.96E2,2.52E2,4.4E1,2.6E1,2.26E2,2.22E2,4E0,4E0,2.18E2,8E0,2.1E2,1.8E1,1.92E2,4E0,1.88E2,1E1,1.78E2,1.74E2,4E0,7E0,1.67E2],"tree_param":{"num_deleted":"0","num_feature":"200","num_nodes":"31","size_leaf_vector":"1"}},{"base_weights":[-0E0],"categories":[],"categories_nodes":[],"categories_segments":[],"categories_sizes":[],"default_left":[0],"id":44,"left_children":[-1],"loss_changes":[0E0],"parents":[2147483647],"right_children":[-1],"split_conditions":[-0E0],"split_indices":[0],"split_type":[0],"sum_hessian":[2.571E3],"tree_param":{"num_deleted":"0","num_feature":"200","num_nodes":"1","size_leaf_vector":"1"}},{"base_weights":[-0E0],"categories":[],"categories_nodes":[],"categories_segments":[],"categories_sizes":[],"default_left":[0],"id":45,"left_children":[-1],"loss_changes":[0E0],"parents":[2147483647],"right_children":[-1],"split_conditions":[-0E0],"split_indices":[0],"split_type":[0],"sum_hessian":[2.603E3],"tree_param":{"num_deleted":"0","num_feature":"200","num_nodes":"1","size_leaf_vector":"1"}},{"base_weights":[-0E0],"categories":[],"categories_nodes":[],"categories_segments":[],"categories_sizes":[],"default_left":[0],"id":46,"left_children":[-1],"loss_changes":[0E0],"parents":[2147483647],"right_children":[-1],"split_conditions":[-0E0],"split_indices":[0],"split_type":[0],"sum_hessian":[2.566E3],"tree_param":{"num_deleted":"0","num_feature":"200","num_nodes":"1","size_leaf_vector":"1"}},{"base_weights":[-0E0],"categories":[],"categories_nodes":[],"categories_segments":[],"categories_sizes":[],"default_left":[0],"id":47,"left_children":[-1],"loss_changes":[0E0],"parents":[2147483647],"right_children":[-1],"split_conditions":[-0E0],"split_indices":[0],"split_type":[0],"sum_hessian":[2.532E3],"tree_param":{"num_deleted":"0","num_feature":"200","num_nodes":"1","size_leaf_vector":"1"}},{"base_weights":[-0E0],"categories":[],"categories_nodes":[],"categories_segments":[],"categories_sizes":[],"default_left":[0],"id":48,"left_children":[-1],"loss_changes":[0E0],"parents":[2147483647],"right_children":[-1],"split_conditions":[-0E0],"split_indices":[0],"split_type":[0],"sum_hessian":[2.579E3],"tree_param":{"num_deleted":"0","num_feature":"200","num_nodes":"1","size_leaf_vector":"1"}},{"base_weights":[-0E0],"categories":[],"categories_nodes":[],"categories_segments":[],"categories_sizes":[],"default_left":[0],"id":49,"left_children":[-1],"loss_changes":[0E0],"parents":[2147483647],"right_children":[-1],"split_conditions":[-0E0],"split_indices":[0],"split_type":[0],"sum_hessian":[2.553E3],"tree_param":{"num_deleted":"0","num_feature":"200","num_nodes":"1","size_leaf_vector":"1"}},{"base_weights":[-0E0],"categories":[],"categories_nodes":[],"categories_segments":[],"categories_sizes":[],"default_left":[0],"id":50,"left_children":[-1],"loss_changes":[0E0],"parents":[2147483647],"right_children":[-1],"split_conditions":[-0E0],"split_indices":[0],"split_type":[0],"sum_hessian":[2.551E3],"tree_param":{"num_deleted":"0","num_feature":"200","num_nodes":"1","size_leaf_vector":"1"}},{"base_weights":[-0E0],"categories":[],"categories_nodes":[],"categories_segments":[],"categories_sizes":[],"default_left":[0],"id":51,"left_children":[-1],"loss_changes":[0E0],"parents":[2147483647],"right_children":[-1],"split_conditions":[-0E0],"split_indices":[0],"split_type":[0],"sum_hessian":[2.555E3],"tree_param":{"num_deleted":"0","num_feature":"200","num_nodes":"1","size_leaf_vector":"1"}},{"base_weights":[-0E0],"categories":[],"categories_nodes":[],"categories_segments":[],"categories_sizes":[],"default_left":[0],"id":52,"left_children":[-1],"loss_changes":[0E0],"parents":[2147483647],"right_children":[-1],"split_conditions":[-0E0],"split_indices":[0],"split_type":[0],"sum_hessian":[2.588E3],"tree_param":{"num_deleted":"0","num_feature":"200","num_nodes":"1","size_leaf_vector":"1"}},{"base_weights":[-0E0],"categories":[],"categories_nodes":[],"categories_segments":[],"categories_sizes":[],"default_left":[0],"id":53,"left_children":[-1],"loss_changes":[0E0],"parents":[2147483647],"right_children":[-1],"split_conditions":[-0E0],"split_indices":[0],"split_type":[0],"sum_hessian":[2.532E3],"tree_param":{"num_deleted":"0","num_feature":"200","num_nodes":"1","size_leaf_vector":"1"}},{"base_weights":[-0E0],"categories":[],"categories_nodes":[],"categories_segments":[],"categories_sizes":[],"default_left":[0],"id":54,"left_children":[-1],"loss_changes":[0E0],"parents":[2147483647],"right_children":[-1],"split_conditions":[-0E0],"split_indices":[0],"split_type":[0],"sum_hessian":[2.543E3],"tree_param":{"num_deleted":"0","num_feature":"200","num_nodes":"1","size_leaf_vector":"1"}},{"base_weights":[-0E0],"categories":[],"categories_nodes":[],"categories_segments":[],"categories_sizes":[],"default_left":[0],"id":55,"left_children":[-1],"loss_changes":[0E0],"parents":[2147483647],"right_children":[-1],"split_conditions":[-0E0],"split_indices":[0],"split_type":[0],"sum_hessian":[2.563E3],"tree_param":{"num_deleted":"0","num_feature":"200","num_nodes":"1","size_leaf_vector":"1"}},{"base_weights":[-0E0],"categories":[],"categories_nodes":[],"categories_segments":[],"categories_sizes":[],"default_left":[0],"id":56,"left_children":[-1],"loss_changes":[0E0],"parents":[2147483647],"right_children":[-1],"split_conditions":[-0E0],"split_indices":[0],"split_type":[0],"sum_hessian":[2.543E3],"tree_param":{"num_deleted":"0","num_feature":"200","num_nodes":"1","size_leaf_vector":"1"}},{"base_weights":[-0E0,1.1349222E-2,-0E0,-0E0,2.9066706E-2,-0E0,5.6496534E-2,-0E0,6.9104336E-2,9.028755E-2,-0E0,1.0471817E-1,-0E0,1.1832094E-1,-0E0,-0E0,1.3964204E-1,-0E0,1.5618093E-1,1.6782092E-1,-0E0,-0E0,1.748298E-1,-0E0,1.8030469E-1,-0E0,1.8818259E-1,1.915478E-1,-0E0,-0E0,1.4671045E-2],"categories":[],"categories_nodes":[],"categories_segments":[],"categories_sizes":[],"default_left":[0,0,0,0,0,0,0,0,0,0,0,0,0,0,0,0,0,0,0,0,0,0,0,0,0,0,0,0,0,0,0],"id":57,"left_children":[1,3,-1,-1,5,-1,7,-1,9,11,-1,13,-1,15,-1,-1,17,-1,19,21,-1,-1,23,-1,25,-1,27,29,-1,-1,-1],"loss_changes":[2.886807E-1,1.1621578E0,0E0,0E0,2.3864956E0,0E0,1.7796254E0,0E0,1.6318679E0,1.9211364E0,0E0,2.2570705E0,0E0,2.6562967E0,0E0,0E0,2.9237375E0,0E0,1.3339653E0,1.2583256E0,0E0,0E0,1.1167088E0,0E0,1.0353184E0,0E0,6.381378E-1,6.410179E-1,0E0,0E0,0E0],"parents":[2147483647,0,0,1,1,4,4,6,6,8,8,9,9,11,11,13,13,16,16,18,18,19,19,22,22,24,24,26,26,27,27],"right_children":[2,4,-1,-1,6,-1,8,-1,10,12,-1,14,-1,16,-1,-1,18,-1,20,22,-1,-1,24,-1,26,-1,28,30,-1,-1,-1],"split_conditions":[1.276368E12,-3.7216877E3,-0E0,-0E0,4.748967E1,-0E0,-8.463751E4,-0E0,1E0,3.167147E4,-0E0,1.2167E4,-0E0,0E0,-0E0,-0E0,-9.9262893E-1,-0E0,1.3675766E4,1.9164955E-2,-0E0,-0E0,-1.1494855E5,-0E0,-4.960348E4,-0E0,9.799994E3,3.1443582E0,-0E0,-0E0,1.4671045E-2],"split_indices":[12,82,0,0,26,0,78,0,187,85,0,38,0,156,0,0,6,0,60,5,0,0,63,0,83,0,10,19,0,0,0],"split_type":[0,0,0,0,0,0,0,0,0,0,0,0,0,0,0,0,0,0,0,0,0,0,0,0,0,0,0,0,0,0,0],"sum_hessian":[2.562E3,2.24E3,3.22E2,5.24E2,1.716E3,5.15E2,1.201E3,2.6E1,1.175E3,8.88E2,2.87E2,8.35E2,5.3E1,8.15E2,2E1,9.4E1,7.21E2,2.5E1,6.96E2,6.5E2,4.6E1,1E1,6.4E2,4E0,6.36E2,2.3E1,6.13E2,6.09E2,4E0,1.2E1,5.97E2],"tree_param":{"num_deleted":"0","num_feature":"200","num_nodes":"31","size_leaf_vector":"1"}},{"base_weights":[-0E0,-0E0,-1.1191119E-3,-0E0,7.3425914E-4,-0E0,-2.5285749E-2,2.3099665E-2,-0E0,-5.1401626E-2,-0E0,-0E0,5.8541026E-2,-7.686157E-2,-0E0,-0E0,8.469579E-2,-9.408369E-2,-0E0,1.06555775E-1,-0E0,-0E0,-1.0855636E-1,1.2193948E-1,-0E0,-1.237689E-1,-0E0,-0E0,1.36534E-1,-1.3512696E-1,-0E0,-0E0,1.4831601E-1,-1.4433599E-1,-0E0,1.5617484E-1,-0E0,-0E0,-1.5148917E-1,-0E0,1.7741168E-1,-0E0,-1.6010913E-1,1.8457723E-1,-0E0,-1.6966012E-1,-0E0,-0E0,1.9066082E-1,-0E0,-1.7745613E-1,1.9792418E-1,-0E0,-1.8428014E-1,-0E0,-0E0,1.5167313E-2,-1.4342839E-2,-0E0],"categories":[],"categories_nodes":[],"categories_segments":[],"categories_sizes":[],"default_left":[0,0,0,0,0,0,0,0,0,0,0,0,0,0,0,0,0,0,0,0,0,0,0,0,0,0,0,0,0,0,0,0,0,0,0,0,0,0,0,0,0,0,0,0,0,0,0,0,0,0,0,0,0,0,0,0,0,0,0],"id":58,"left_children":[1,3,5,-1,7,-1,9,11,-1,13,-1,-1,15,17,-1,-1,19,21,-1,23,-1,-1,25,27,-1,29,-1,-1,31,33,-1,-1,35,37,-1,39,-1,-1,41,-1,43,-1,45,47,-1,49,-1,-1,51,-1,53,55,-1,57,-1,-1,-1,-1,-1],"loss_changes":[2.0392085E-3,3.629606E-4,8.4399045E-1,0E0,2.7882743E-1,0E0,1.7623466E0,1.1198205E0,0E0,2.6094568E0,0E0,0E0,1.2997983E0,1.9894814E0,0E0,0E0,1.5274916E0,1.8929672E0,0E0,1.234066E0,0E0,0E0,2.0245829E0,1.2547936E0,0E0,1.9346533E0,0E0,0E0,9.889784E-1,1.465702E0,0E0,0E0,7.405081E-1,1.245903E0,0E0,6.5870476E-1,0E0,0E0,1.3075304E0,0E0,4.7765827E-1,0E0,1.3211784E0,4.965744E-1,0E0,1.1314964E0,0E0,0E0,3.9071083E-1,0E0,1.3272705E0,3.6255646E-1,0E0,1.2266273E0,0E0,0E0,0E0,0E0,0E0],"parents":[2147483647,0,0,1,1,2,2,4,4,6,6,7,7,9,9,12,12,13,13,16,16,17,17,19,19,22,22,23,23,25,25,28,28,29,29,32,32,33,33,35,35,38,38,40,40,42,42,43,43,45,45,48,48,50,50,51,51,53,53],"right_children":[2,4,6,-1,8,-1,10,12,-1,14,-1,-1,16,18,-1,-1,20,22,-1,24,-1,-1,26,28,-1,30,-1,-1,32,34,-1,-1,36,38,-1,40,-1,-1,42,-1,44,-1,46,48,-1,50,-1,-1,52,-1,54,56,-1,58,-1,-1,-1,-1,-1],"split_conditions":[-2.9790297E1,-6.1461196E3,7.570997E4,-0E0,2.016E3,-0E0,2.9415704E2,0E0,-0E0,1E0,-0E0,-0E0,8.56147E2,7.514167E4,-0E0,-0E0,1.4205772E14,5.4649253E0,-0E0,2.3639783E4,-0E0,-0E0,1.8398139E4,-6.4957164E4,-0E0,6.4481074E4,-0E0,-0E0,6.925E2,4.0328906E4,-0E0,-0E0,3.9483817E2,2.4945867E0,-0E0,5.5863385E0,-0E0,-0E0,-3.3331036E2,-0E0,4.8137555E4,-0E0,1.3695E4,3.2850378E2,-0E0,-7.438925E4,-0E0,-0E0,-1.4757007E3,-0E0,4.0353348E4,1.7965513E3,-0E0,3.5205957E4,-0E0,-0E0,1.5167313E-2,-1.4342839E-2,-0E0],"split_indices":[9,84,103,0,2,0,68,159,0,180,0,0,89,89,0,0,18,21,0,38,0,0,60,57,0,63,0,0,27,62,0,0,102,20,0,20,0,0,100,0,55,0,0,43,0,82,0,0,67,0,32,89,0,77,0,0,0,0,0],"split_type":[0,0,0,0,0,0,0,0,0,0,0,0,0,0,0,0,0,0,0,0,0,0,0,0,0,0,0,0,0,0,0,0,0,0,0,0,0,0,0,0,0,0,0,0,0,0,0,0,0,0,0,0,0,0,0,0,0,0,0],"sum_hessian":[2.494E3,8.67E2,1.627E3,1.95E2,6.72E2,3.05E2,1.322E3,5.22E2,1.5E2,9.86E2,3.36E2,1.15E2,4.07E2,8.82E2,1.04E2,3.2E1,3.75E2,8.13E2,6.9E1,3.71E2,4E0,4.2E1,7.71E2,3.66E2,5E0,7.25E2,4.6E1,7E0,3.59E2,7.14E2,1.1E1,1E1,3.49E2,6.96E2,1.8E1,3.45E2,4E0,1E1,6.86E2,5.7E1,2.88E2,2.1E1,6.65E2,2.8E2,8E0,6.38E2,2.7E1,4E0,2.76E2,1.9E1,6.19E2,2.66E2,1E1,6.13E2,6E0,4E0,2.62E2,5.99E2,1.4E1],"tree_param":{"num_deleted":"0","num_feature":"200","num_nodes":"59","size_leaf_vector":"1"}},{"base_weights":[-0E0],"categories":[],"categories_nodes":[],"categories_segments":[],"categories_sizes":[],"default_left":[0],"id":59,"left_children":[-1],"loss_changes":[0E0],"parents":[2147483647],"right_children":[-1],"split_conditions":[-0E0],"split_indices":[0],"split_type":[0],"sum_hessian":[2.516E3],"tree_param":{"num_deleted":"0","num_feature":"200","num_nodes":"1","size_leaf_vector":"1"}},{"base_weights":[-0E0,-0E0,1.1141387E-2,-0E0,3.7875492E-2,6.1198767E-2,-0E0,-0E0,8.415077E-2,1.287454E-1,-0E0,-0E0,1.5214026E-1,1.6526677E-1,-0E0,-0E0,1.7677072E-1,1.8597479E-1,-0E0,-0E0,1.9543599E-1,-0E0,2.0688842E-1,2.1375735E-1,-0E0,2.2079119E-1,-0E0,-0E0,2.2702035E-1,-0E0,1.7429668E-2],"categories":[],"categories_nodes":[],"categories_segments":[],"categories_sizes":[],"default_left":[0,0,0,0,0,0,0,0,0,0,0,0,0,0,0,0,0,0,0,0,0,0,0,0,0,0,0,0,0,0,0],"id":60,"left_children":[1,-1,3,-1,5,7,-1,-1,9,11,-1,-1,13,15,-1,-1,17,19,-1,-1,21,-1,23,25,-1,27,-1,-1,29,-1,-1],"loss_changes":[1.7033508E-1,0E0,1.0464896E0,0E0,1.8476673E0,1.7878325E0,0E0,0E0,2.2456794E0,1.9575648E0,0E0,0E0,1.4661417E0,1.1408052E0,0E0,0E0,1.1077557E0,9.886322E-1,0E0,0E0,1.0177307E0,0E0,7.690306E-1,6.986723E-1,0E0,5.1722527E-1,0E0,0E0,5.2985E-1,0E0,0E0],"parents":[2147483647,0,0,2,2,4,4,5,5,8,8,9,9,12,12,13,13,16,16,17,17,20,20,22,22,23,23,25,25,28,28],"right_children":[2,-1,4,-1,6,8,-1,-1,10,12,-1,-1,14,16,-1,-1,18,20,-1,-1,22,-1,24,26,-1,28,-1,-1,30,-1,-1],"split_conditions":[-2.1457474E1,-0E0,1.506979E5,-0E0,1.6974496E4,1.3423398E4,-0E0,-0E0,1.3473035E3,0E0,-0E0,-0E0,1.7677E3,0E0,-0E0,-0E0,3.1455262E5,2E0,-0E0,-0E0,3.4558556E0,-0E0,1.1354847E5,4.6753742E14,-0E0,2E0,-0E0,-0E0,2.7378507E-2,-0E0,1.7429668E-2],"split_indices":[61,0,101,0,33,94,0,0,81,123,0,0,199,112,0,0,82,1,0,0,20,0,62,18,0,0,0,0,5,0,0],"split_type":[0,0,0,0,0,0,0,0,0,0,0,0,0,0,0,0,0,0,0,0,0,0,0,0,0,0,0,0,0,0,0],"sum_hessian":[2.573E3,1.202E3,1.371E3,5.24E2,8.47E2,8.17E2,3E1,1.33E2,6.84E2,4.27E2,2.57E2,3.7E1,3.9E2,3.84E2,6E0,1.2E1,3.72E2,3.68E2,4E0,9E0,3.59E2,1.5E1,3.44E2,3.39E2,5E0,3.32E2,7E0,8E0,3.24E2,7E0,3.17E2],"tree_param":{"num_deleted":"0","num_feature":"200","num_nodes":"31","size_leaf_vector":"1"}},{"base_weights":[-0E0],"categories":[],"categories_nodes":[],"categories_segments":[],"categories_sizes":[],"default_left":[0],"id":61,"left_children":[-1],"loss_changes":[0E0],"parents":[2147483647],"right_children":[-1],"split_conditions":[-0E0],"split_indices":[0],"split_type":[0],"sum_hessian":[2.553E3],"tree_param":{"num_deleted":"0","num_feature":"200","num_nodes":"1","size_leaf_vector":"1"}},{"base_weights":[-0E0,-0E0,7.873652E-5,-0E0,2.3424925E-2,4.126503E-2,-0E0,9.001069E-2,-0E0,-0E0,1.10374965E-1,-0E0,1.320348E-1,1.4720513E-1,-0E0,1.613313E-1,-0E0,-0E0,1.749418E-1,1.8593304E-1,-0E0,-0E0,1.9763148E-1,-0E0,2.0981361E-1,-0E0,2.1903908E-1,-0E0,2.2710754E-1,-0E0,1.7828712E-2],"categories":[],"categories_nodes":[],"categories_segments":[],"categories_sizes":[],"default_left":[0,0,0,0,0,0,0,0,0,0,0,0,0,0,0,0,0,0,0,0,0,0,0,0,0,0,0,0,0,0,0],"id":62,"left_children":[1,-1,3,-1,5,7,-1,9,-1,-1,11,-1,13,15,-1,17,-1,-1,19,21,-1,-1,23,-1,25,-1,27,-1,29,-1,-1],"loss_changes":[1.305122E-5,0E0,8.018012E-1,0E0,1.4139166E0,1.9018757E0,0E0,1.781538E0,0E0,0E0,2.0194569E0,0E0,1.4474492E0,1.493412E0,0E0,1.4811115E0,0E0,0E0,1.3573837E0,1.426383E0,0E0,0E0,8.6549187E-1,0E0,9.092951E-1,0E0,5.9739876E-1,0E0,6.525612E-1,0E0,0E0],"parents":[2147483647,0,0,2,2,4,4,5,5,7,7,10,10,12,12,13,13,15,15,18,18,19,19,22,22,24,24,26,26,28,28],"right_children":[2,-1,4,-1,6,8,-1,10,-1,-1,12,-1,14,16,-1,18,-1,-1,20,22,-1,-1,24,-1,26,-1,28,-1,30,-1,-1],"split_conditions":[0E0,-0E0,5.314362E2,-0E0,1.1433326E4,2.1597363E-1,-0E0,-1.7373783E4,-0E0,-0E0,2.5713599E3,-0E0,2.0769875E4,7.547385E3,-0E0,2.0358303E1,-0E0,-0E0,2.4061172E3,7.5356494E2,-0E0,-0E0,4.3685947E1,-0E0,-4.0143277E4,-0E0,3.2456438E3,-0E0,-1.0149839E6,-0E0,1.7828712E-2],"split_indices":[132,0,40,0,10,13,0,29,0,0,45,0,60,44,0,25,0,0,9,41,0,0,26,0,61,0,92,0,17,0,0],"split_type":[0,0,0,0,0,0,0,0,0,0,0,0,0,0,0,0,0,0,0,0,0,0,0,0,0,0,0,0,0,0,0],"sum_hessian":[2.556E3,4.52E2,2.104E3,6.44E2,1.46E3,1.3E3,1.6E2,5.07E2,7.93E2,2.4E1,4.83E2,3E1,4.53E2,4.31E2,2.2E1,4.16E2,1.5E1,1.4E1,4.02E2,3.95E2,7E0,9E0,3.86E2,2.4E1,3.62E2,1.1E1,3.51E2,1.3E1,3.38E2,2E1,3.18E2],"tree_param":{"num_deleted":"0","num_feature":"200","num_nodes":"31","size_leaf_vector":"1"}},{"base_weights":[-0E0],"categories":[],"categories_nodes":[],"categories_segments":[],"categories_sizes":[],"default_left":[0],"id":63,"left_children":[-1],"loss_changes":[0E0],"parents":[2147483647],"right_children":[-1],"split_conditions":[-0E0],"split_indices":[0],"split_type":[0],"sum_hessian":[2.559E3],"tree_param":{"num_deleted":"0","num_feature":"200","num_nodes":"1","size_leaf_vector":"1"}},{"base_weights":[-0E0,-4.5822496E-3,-0E0,-2.8210117E-2,-0E0,2.9624838E-3,-0E0,-5.7857335E-2,-0E0,1.4337258E-2,-0E0,-0E0,-9.588497E-2,-0E0,2.9033309E-2,-0E0,-1.364487E-1,5.107423E-2,-0E0,-1.5420161E-1,-0E0,6.4234234E-2,-0E0,-0E0,-1.7144075E-1,7.659204E-2,-0E0,-1.8896545E-1,-0E0,-0E0,8.7818556E-2,-2.0373668E-1,-0E0,1.0301856E-1,-0E0,-2.1944094E-1,-0E0,-0E0,1.0982884E-1,-2.3226018E-1,-0E0,1.16374634E-1,-0E0,-0E0,-2.464508E-1,-0E0,1.2466179E-1,-0E0,-2.5852224E-1,1.3623168E-1,-0E0,-0E0,-2.7178645E-1,1.6038421E-1,-0E0,-2.1102756E-2,-0E0,1.3366865E-2,-0E0],"categories":[],"categories_nodes":[],"categories_segments":[],"categories_sizes":[],"default_left":[0,0,0,0,0,0,0,0,0,0,0,0,0,0,0,0,0,0,0,0,0,0,0,0,0,0,0,0,0,0,0,0,0,0,0,0,0,0,0,0,0,0,0,0,0,0,0,0,0,0,0,0,0,0,0,0,0,0,0],"id":64,"left_children":[1,3,5,7,-1,9,-1,11,-1,13,-1,-1,15,-1,17,-1,19,21,-1,23,-1,25,-1,-1,27,29,-1,31,-1,-1,33,35,-1,37,-1,39,-1,-1,41,43,-1,45,-1,-1,47,-1,49,-1,51,53,-1,-1,55,57,-1,-1,-1,-1,-1],"loss_changes":[2.2534534E-2,7.0899516E-1,1.1762238E-2,1.9505506E0,0E0,2.5016376E-1,0E0,2.2111654E0,0E0,6.1322874E-1,0E0,0E0,4.3642263E0,0E0,1.0766495E0,0E0,2.2089577E0,1.0528823E0,0E0,2.0604944E0,0E0,1.2204034E0,0E0,0E0,2.2640457E0,1.1905451E0,0E0,2.316164E0,0E0,0E0,1.6973534E0,2.0322418E0,0E0,9.112129E-1,0E0,1.936224E0,0E0,0E0,9.1727257E-1,1.3829784E0,0E0,9.1475105E-1,0E0,0E0,1.1513252E0,0E0,8.7510586E-1,0E0,1.1866589E0,1.235714E0,0E0,0E0,1.3826675E0,1.3665495E0,0E0,0E0,0E0,0E0,0E0],"parents":[2147483647,0,0,1,1,2,2,3,3,5,5,7,7,9,9,12,12,14,14,16,16,17,17,19,19,21,21,24,24,25,25,27,27,30,30,31,31,33,33,35,35,38,38,39,39,41,41,44,44,46,46,48,48,49,49,52,52,53,53],"right_children":[2,4,6,8,-1,10,-1,12,-1,14,-1,-1,16,-1,18,-1,20,22,-1,24,-1,26,-1,-1,28,30,-1,32,-1,-1,34,36,-1,38,-1,40,-1,-1,42,44,-1,46,-1,-1,48,-1,50,-1,52,54,-1,-1,56,58,-1,-1,-1,-1,-1],"split_conditions":[-9.1E1,1E0,1.6986139E3,2.3526306E3,-0E0,3.4784992E4,-0E0,2.613765E1,-0E0,0E0,-0E0,-0E0,-8.489694E3,-0E0,1E0,-0E0,9.9223286E-1,1.1545064E5,-0E0,-9.129361E3,-0E0,1.7320147E5,-0E0,-0E0,1E0,-9.9683666E-1,-0E0,1.5569472E4,-0E0,-0E0,-3.2837878E2,1E0,-0E0,1.9164955E-2,-0E0,7.0263E4,-0E0,-0E0,1.65342E5,0E0,-0E0,2E0,-0E0,-0E0,1.3861222E1,-0E0,1E0,-0E0,-1.4479546E4,-6.447541E3,-0E0,-0E0,3.2768E4,1.188655E3,-0E0,-2.1102756E-2,-0E0,1.3366865E-2,-0E0],"split_indices":[56,121,66,35,0,85,0,24,0,3,0,0,34,0,189,0,7,77,0,39,0,15,0,0,116,7,0,66,0,0,67,122,0,5,0,0,0,0,0,105,0,0,0,0,23,0,113,0,52,91,0,0,34,52,0,0,0,0,0],"split_type":[0,0,0,0,0,0,0,0,0,0,0,0,0,0,0,0,0,0,0,0,0,0,0,0,0,0,0,0,0,0,0,0,0,0,0,0,0,0,0,0,0,0,0,0,0,0,0,0,0,0,0,0,0,0,0,0,0,0,0],"sum_hessian":[2.546E3,1.072E3,1.474E3,9.18E2,1.54E2,1.339E3,1.35E2,8E2,1.18E2,1.273E3,6.6E1,2.69E2,5.31E2,2.36E2,1.037E3,3.5E1,4.96E2,7.47E2,2.9E2,4.81E2,1.5E1,7.27E2,2E1,2.2E1,4.59E2,7.19E2,8E0,4.41E2,1.8E1,1.8E1,7.01E2,4.35E2,6E0,6.69E2,3.2E1,4.17E2,1.8E1,5E0,6.64E2,4.08E2,9E0,6.59E2,5E0,2.3E1,3.85E2,2.6E1,6.33E2,1.8E1,3.67E2,5.77E2,5.6E1,1.9E1,3.48E2,4.64E2,1.13E2,3.4E2,8E0,4.16E2,4.8E1],"tree_param":{"num_deleted":"0","num_feature":"200","num_nodes":"59","size_leaf_vector":"1"}},{"base_weights":[-0E0],"categories":[],"categories_nodes":[],"categories_segments":[],"categories_sizes":[],"default_left":[0],"id":65,"left_children":[-1],"loss_changes":[0E0],"parents":[2147483647],"right_children":[-1],"split_conditions":[-0E0],"split_indices":[0],"split_type":[0],"sum_hessian":[2.536E3],"tree_param":{"num_deleted":"0","num_feature":"200","num_nodes":"1","size_leaf_vector":"1"}},{"base_weights":[-0E0],"categories":[],"categories_nodes":[],"categories_segments":[],"categories_sizes":[],"default_left":[0],"id":66,"left_children":[-1],"loss_changes":[0E0],"parents":[2147483647],"right_children":[-1],"split_conditions":[-0E0],"split_indices":[0],"split_type":[0],"sum_hessian":[2.546E3],"tree_param":{"num_deleted":"0","num_feature":"200","num_nodes":"1","size_leaf_vector":"1"}},{"base_weights":[-0E0],"categories":[],"categories_nodes":[],"categories_segments":[],"categories_sizes":[],"default_left":[0],"id":67,"left_children":[-1],"loss_changes":[0E0],"parents":[2147483647],"right_children":[-1],"split_conditions":[-0E0],"split_indices":[0],"split_type":[0],"sum_hessian":[2.514E3],"tree_param":{"num_deleted":"0","num_feature":"200","num_nodes":"1","size_leaf_vector":"1"}},{"base_weights":[-0E0],"categories":[],"categories_nodes":[],"categories_segments":[],"categories_sizes":[],"default_left":[0],"id":68,"left_children":[-1],"loss_changes":[0E0],"parents":[2147483647],"right_children":[-1],"split_conditions":[-0E0],"split_indices":[0],"split_type":[0],"sum_hessian":[2.575E3],"tree_param":{"num_deleted":"0","num_feature":"200","num_nodes":"1","size_leaf_vector":"1"}},{"base_weights":[-0E0],"categories":[],"categories_nodes":[],"categories_segments":[],"categories_sizes":[],"default_left":[0],"id":69,"left_children":[-1],"loss_changes":[0E0],"parents":[2147483647],"right_children":[-1],"split_conditions":[-0E0],"split_indices":[0],"split_type":[0],"sum_hessian":[2.55E3],"tree_param":{"num_deleted":"0","num_feature":"200","num_nodes":"1","size_leaf_vector":"1"}},{"base_weights":[-0E0],"categories":[],"categories_nodes":[],"categories_segments":[],"categories_sizes":[],"default_left":[0],"id":70,"left_children":[-1],"loss_changes":[0E0],"parents":[2147483647],"right_children":[-1],"split_conditions":[-0E0],"split_indices":[0],"split_type":[0],"sum_hessian":[2.543E3],"tree_param":{"num_deleted":"0","num_feature":"200","num_nodes":"1","size_leaf_vector":"1"}},{"base_weights":[-0E0],"categories":[],"categories_nodes":[],"categories_segments":[],"categories_sizes":[],"default_left":[0],"id":71,"left_children":[-1],"loss_changes":[0E0],"parents":[2147483647],"right_children":[-1],"split_conditions":[-0E0],"split_indices":[0],"split_type":[0],"sum_hessian":[2.555E3],"tree_param":{"num_deleted":"0","num_feature":"200","num_nodes":"1","size_leaf_vector":"1"}},{"base_weights":[-0E0,-9.081318E-4,-0E0,-0E0,-2.859594E-2,-0E0,-5.4557078E-2,-7.101317E-2,-0E0,-0E0,-9.0474315E-2,-1.0817646E-1,-0E0,-0E0,-1.2101626E-1,-1.3572152E-1,-0E0,-0E0,-1.5980531E-1,-0E0,-1.7538427E-1,-1.8677771E-1,-0E0,-1.9897951E-1,-0E0,-2.1520577E-1,-0E0,-2.2550261E-1,-0E0,-1.7996853E-2,-0E0],"categories":[],"categories_nodes":[],"categories_segments":[],"categories_sizes":[],"default_left":[0,0,0,0,0,0,0,0,0,0,0,0,0,0,0,0,0,0,0,0,0,0,0,0,0,0,0,0,0,0,0],"id":72,"left_children":[1,3,-1,-1,5,-1,7,9,-1,-1,11,13,-1,-1,15,17,-1,-1,19,-1,21,23,-1,25,-1,27,-1,29,-1,-1,-1],"loss_changes":[1.7691749E-3,1.375469E0,0E0,0E0,2.725016E0,0E0,2.2377715E0,3.099821E0,0E0,0E0,2.2649431E0,2.6944857E0,0E0,0E0,2.6068468E0,2.7403145E0,0E0,0E0,2.8380833E0,0E0,2.7505302E0,2.8639965E0,0E0,3.1193485E0,0E0,2.3058758E0,0E0,1.7266426E0,0E0,0E0,0E0],"parents":[2147483647,0,0,1,1,4,4,6,6,7,7,10,10,11,11,14,14,15,15,18,18,20,20,21,21,23,23,25,25,27,27],"right_children":[2,4,-1,-1,6,-1,8,10,-1,-1,12,14,-1,-1,16,18,-1,-1,20,-1,22,24,-1,26,-1,28,-1,30,-1,-1,-1],"split_conditions":[1.2596864E3,2.8032065E3,-0E0,-0E0,-3.9887766E4,-0E0,3.3079653E3,0E0,-0E0,-0E0,1E0,5.0650993E1,-0E0,-0E0,9.750985E-1,1.0621152E4,-0E0,-0E0,-9.8091614E-1,-0E0,3.438821E3,7.9404336E4,-0E0,1.3695E4,-0E0,1.8059206E2,-0E0,1E0,-0E0,-1.7996853E-2,-0E0],"split_indices":[35,43,0,0,88,0,29,123,0,0,136,41,0,0,7,94,0,0,7,0,95,62,0,0,0,102,0,175,0,0,0],"split_type":[0,0,0,0,0,0,0,0,0,0,0,0,0,0,0,0,0,0,0,0,0,0,0,0,0,0,0,0,0,0,0],"sum_hessian":[2.569E3,2.144E3,4.25E2,4.61E2,1.683E3,3.06E2,1.377E3,1.256E3,1.21E2,1.04E2,1.152E3,9.99E2,1.53E2,1.7E1,9.82E2,9.22E2,6E1,1.5E2,7.72E2,3.9E1,7.33E2,7.25E2,8E0,7.11E2,1.4E1,6.75E2,3.6E1,6.6E2,1.5E1,6.09E2,5.1E1],"tree_param":{"num_deleted":"0","num_feature":"200","num_nodes":"31","size_leaf_vector":"1"}},{"base_weights":[-0E0],"categories":[],"categories_nodes":[],"categories_segments":[],"categories_sizes":[],"default_left":[0],"id":73,"left_children":[-1],"loss_changes":[0E0],"parents":[2147483647],"right_children":[-1],"split_conditions":[-0E0],"split_indices":[0],"split_type":[0],"sum_hessian":[2.54E3],"tree_param":{"num_deleted":"0","num_feature":"200","num_nodes":"1","size_leaf_vector":"1"}},{"base_weights":[-0E0],"categories":[],"categories_nodes":[],"categories_segments":[],"categories_sizes":[],"default_left":[0],"id":74,"left_children":[-1],"loss_changes":[0E0],"parents":[2147483647],"right_children":[-1],"split_conditions":[-0E0],"split_indices":[0],"split_type":[0],"sum_hessian":[2.541E3],"tree_param":{"num_deleted":"0","num_feature":"200","num_nodes":"1","size_leaf_vector":"1"}},{"base_weights":[-0E0],"categories":[],"categories_nodes":[],"categories_segments":[],"categories_sizes":[],"default_left":[0],"id":75,"left_children":[-1],"loss_changes":[0E0],"parents":[2147483647],"right_children":[-1],"split_conditions":[-0E0],"split_indices":[0],"split_type":[0],"sum_hessian":[2.543E3],"tree_param":{"num_deleted":"0","num_feature":"200","num_nodes":"1","size_leaf_vector":"1"}},{"base_weights":[-0E0,-0E0,3.433367E-3,-0E0,2.909484E-2,-0E0,5.009441E-2,-0E0,7.402144E-2,-0E0,8.983862E-2,1.0899279E-1,-0E0,-0E0,1.1958252E-1,1.3094054E-1,-0E0,1.3996433E-1,-0E0,1.4607364E-1,-0E0,1.6236475E-1,-0E0,1.7644866E-1,-0E0,1.8731454E-1,-0E0,-0E0,1.9734971E-1,1.5658742E-2,-0E0],"categories":[],"categories_nodes":[],"categories_segments":[],"categories_sizes":[],"default_left":[0,0,0,0,0,0,0,0,0,0,0,0,0,0,0,0,0,0,0,0,0,0,0,0,0,0,0,0,0,0,0],"id":76,"left_children":[1,-1,3,-1,5,-1,7,-1,9,-1,11,13,-1,-1,15,17,-1,19,-1,21,-1,23,-1,25,-1,27,-1,-1,29,-1,-1],"loss_changes":[2.0313403E-2,0E0,1.2581074E0,0E0,2.0095253E0,0E0,2.345882E0,0E0,2.3259768E0,0E0,2.306703E0,1.6486025E0,0E0,0E0,1.1021385E0,1.5621443E0,0E0,1.2151804E0,0E0,1.2941561E0,0E0,1.8167171E0,0E0,1.803648E0,0E0,1.8110123E0,0E0,0E0,1.6545448E0,0E0,0E0],"parents":[2147483647,0,0,2,2,4,4,6,6,8,8,10,10,11,11,14,14,15,15,17,17,19,19,21,21,23,23,25,25,28,28],"right_children":[2,-1,4,-1,6,-1,8,-1,10,-1,12,14,-1,-1,16,18,-1,20,-1,22,-1,24,-1,26,-1,28,-1,-1,30,-1,-1],"split_conditions":[-4.6655052E1,-0E0,-5.6397983E3,-0E0,-4.41099E3,-0E0,2.5381083E1,-0E0,-1.2139826E4,-0E0,1.4815347E12,-1.6986008E4,-0E0,-0E0,4.197459E1,1.3144317E4,-0E0,5.084055E3,-0E0,5.6103623E3,-0E0,1.2978218E4,-0E0,1.20910995E2,-0E0,3.3119617E1,-0E0,-0E0,2.7731746E4,1.5658742E-2,-0E0],"split_indices":[35,0,57,0,63,0,25,0,61,0,12,50,0,0,102,29,0,48,0,58,0,63,0,97,0,26,0,0,85,0,0],"split_type":[0,0,0,0,0,0,0,0,0,0,0,0,0,0,0,0,0,0,0,0,0,0,0,0,0,0,0,0,0,0,0],"sum_hessian":[2.555E3,8.33E2,