{"learner":{"attributes":{"best_iteration":"30","best_score":"1.0388594739181027"},"feature_names":["Volume","day_of_month","year","day_sin","day_cos","day_of_year_norm","dayy_sin","dayy_cos","is_holiday","Log_Return","Log_Return_change1","Log_Return23","Log_Return123","Log_High_Return","Log_High_Return_change1","Log_High_Return_change3","Log_High_Return13","Log_High_Return23","Log_High_Return123","Close_Roll_Std_5","High_Roll_Std_5","High_Roll_Std_10","High_Roll_Std_20","High_Roll_Std_30","High_Roll_Std_60","High_Roll_Std_90","High_Roll_Std_250","High_Roll_Max_250","Log_Return_Lag_1","Log_Return_Lag_2","Log_Return_Lag_3","Log_Return_Lag_5","Log_Return_Lag_10","Log_Return_Lag_20","Log_Return_Lag_30","Log_Return_Lag_60","Log_Return_Lag_90","Log_Return_Lag_120","Log_Return_Lag_180","Log_Return_Lag_250","Log_Return_Roll_Max_5","Log_Return_Roll_Max_10","Log_Return_Roll_Mean_20","Log_Return_Roll_Max_20","Log_Return_Roll_Mean_30","Log_Return_Roll_Max_30","Log_Return_Roll_Mean_60","Log_Return_Roll_Max_60","Log_Return_Roll_Mean_90","Log_Return_Roll_Max_90","Log_Return_Roll_Mean_180","Log_Return_Roll_Max_180","Log_Return_Roll_Mean_250","Log_Return_Roll_Max_250","Log_Return_change1_Lag_1","Log_Return_change1_Lag_2","Log_Return_change1_Lag_3","Log_Return_change1_Lag_5","Log_Return_change1_Lag_10","Log_Return_change1_Lag_20","Log_Return_change1_Lag_30","Log_Return_change1_Lag_60","Log_Return_change1_Lag_90","Log_Return_change1_Lag_120","Log_Return_change1_Lag_180","Log_Return_change1_Lag_250","Log_Return_change1_Roll_Mean_5","Log_Return_change1_Roll_Min_5","Log_Return_change1_Roll_Mean_10","Log_Return_change1_Roll_Mean_20","Log_Return_change1_Roll_Mean_30","Log_Return_change1_Roll_Mean_60","Log_Return_change1_Roll_Mean_90","Log_Return_change1_Roll_Mean_180","Log_Return_change1_Roll_Mean_250","Log_Return_change2_Lag_1","Log_Return_change2_Lag_2","Log_Return_change2_Lag_3","Log_Return_change2_Lag_5","Log_Return_change2_Lag_10","Log_Return_change2_Lag_20","Log_Return_change2_Lag_30","Log_Return_change2_Lag_60","Log_Return_change2_Lag_90","Log_Return_change2_Lag_120","Log_Return_change2_Lag_180","Log_Return_change2_Lag_250","Log_Return_change2_Roll_Mean_5","Log_Return_change2_Roll_Min_5","Log_Return_change2_Roll_Max_5","Log_Return_change2_Roll_Mean_10","Log_Return_change2_Roll_Min_10","Log_Return_change2_Roll_Max_10","Log_Return_change2_Roll_Mean_20","Log_Return_change2_Roll_Max_20","Log_Return_change2_Roll_Mean_30","Log_Return_change2_Roll_Max_30","Log_Return_change2_Roll_Mean_60","Log_Return_change2_Roll_Mean_90","Log_Return_change2_Roll_Max_90","Log_Return_change2_Roll_Mean_180","Log_Return_change2_Roll_Max_180","Log_Return_change2_Roll_Mean_250","Log_Return_change2_Roll_Max_250","rsi_5_long","rsi_5_short","rsi_5_combined","rsi_7_long","rsi_7_short","rsi_7_combined","rsi_10_long","rsi_10_short","rsi_10_combined","macd_5_10_5_long","macd_5_10_5_short","macd_5_10_5_combined","stoch_3_2_2_long","stoch_3_2_2_short","stoch_3_2_2_combined","cci_6_long","cci_6_short","cci_6_combined","cci_10_long","cci_10_short","cci_10_combined","obv_combined","ad_combined","atr_10_long","atr_10_short","atr_10_combined","sma_2_long","sma_2_short","sma_2_combined","sma_3_long","sma_3_short","sma_3_combined","sma_5_long","sma_5_short","sma_5_combined","sma_8_long","sma_8_short","sma_8_combined","sma_13_long","sma_13_short","sma_13_combined","sma_21_long","sma_21_short","sma_21_combined","ema_3_long","ema_3_short","ema_3_combined","ema_5_long","ema_5_short","ema_5_combined","ema_8_long","ema_8_short","ema_8_combined","ema_13_long","ema_13_short","ema_13_combined","ema_21_long","ema_21_short","ema_21_combined","bb_3_1.5_1.5_long","bb_3_1.5_1.5_short","bb_3_1.5_1.5_combined","bb_3_2.0_2.0_long","bb_3_2.0_2.0_short","bb_3_2.0_2.0_combined","bb_5_1.5_1.5_long","bb_5_1.5_1.5_short","bb_5_1.5_1.5_combined","bb_5_2.0_2.0_long","bb_5_2.0_2.0_short","bb_5_2.0_2.0_combined","bb_8_2.0_2.0_long","bb_8_2.0_2.0_short","bb_8_2.0_2.0_combined","ht_dcperiod_combined","ht_phasor_short","ht_phasor_combined","typprice_long","typprice_short","typprice_combined","linearreg_3_combined","linearreg_5_combined","linearreg_8_combined","stddev_2_2_long","stddev_2_2_short","stddev_2_2_combined","stddev_3_2_long","stddev_3_2_short","stddev_3_2_combined","stddev_5_2_long","stddev_5_2_short","stddev_5_2_combined","Open","High","Low","Close"],"feature_types":["float","int","int","float","float","float","float","float","int","float","float","float","float","float","float","float","float","float","float","float","float","float","float","float","float","float","float","float","float","float","float","float","float","float","float","float","float","float","float","float","float","float","float","float","float","float","float","float","float","float","float","float","float","float","float","float","float","float","float","float","float","float","float","float","float","float","float","float","float","float","float","float","float","float","float","float","float","float","float","float","float","float","float","float","float","float","float","float","float","float","float","float","float","float","float","float","float","float","float","float","float","float","float","float","int","int","int","int","int","int","int","int","int","int","int","int","int","int","int","int","int","int","int","int","int","int","int","int","int","int","int","int","int","int","int","int","int","int","int","int","int","int","int","int","int","int","int","int","int","int","int","int","int","int","int","int","int","int","int","int","int","int","int","int","int","int","int","int","int","int","int","int","int","int","int","int","int","int","int","int","int","int","int","int","int","int","int","int","int","int","int","int","int","int","int","int","float","float","float","float"],"gradient_booster":{"model":{"gbtree_model_param":{"num_parallel_tree":"1","num_trees":"81"},"iteration_indptr":[0,1,2,3,4,5,6,7,8,9,10,11,12,13,14,15,16,17,18,19,20,21,22,23,24,25,26,27,28,29,30,31,32,33,34,35,36,37,38,39,40,41,42,43,44,45,46,47,48,49,50,51,52,53,54,55,56,57,58,59,60,61,62,63,64,65,66,67,68,69,70,71,72,73,74,75,76,77,78,79,80,81],"tree_info":[0,0,0,0,0,0,0,0,0,0,0,0,0,0,0,0,0,0,0,0,0,0,0,0,0,0,0,0,0,0,0,0,0,0,0,0,0,0,0,0,0,0,0,0,0,0,0,0,0,0,0,0,0,0,0,0,0,0,0,0,0,0,0,0,0,0,0,0,0,0,0,0,0,0,0,0,0,0,0,0,0],"trees":[{"base_weights":[-0E0,-1.5653335E-2,-0E0,-5.2659098E-2,-0E0,1.5941083E-2,-0E0,-1.06801115E-1,-0E0,-0E0,3.0804962E-2,-0E0,-1.2950829E-1,-0E0,4.492931E-2,-0E0,-1.6351211E-1,-0E0,5.428555E-2,-0E0,-7.6020984E-3,-0E0,2.6231925E-3],"categories":[],"categories_nodes":[],"categories_segments":[],"categories_sizes":[],"default_left":[0,0,0,0,0,0,0,0,0,0,0,0,0,0,0,0,0,0,0,0,0,0,0],"id":0,"left_children":[1,3,5,7,-1,9,-1,11,-1,-1,13,-1,15,-1,17,-1,19,-1,21,-1,-1,-1,-1],"loss_changes":[3.1038037E-1,2.4978714E0,2.7208924E-1,4.4430695E0,0E0,6.092152E-1,0E0,2.7906404E0,0E0,0E0,9.1674036E-1,0E0,2.6235037E0,0E0,7.0306456E-1,0E0,3.1274624E0,0E0,8.3417535E-1,0E0,0E0,0E0,0E0],"parents":[2147483647,0,0,1,1,2,2,3,3,5,5,7,7,10,10,12,12,14,14,16,16,18,18],"right_children":[2,4,6,8,-1,10,-1,12,-1,-1,14,-1,16,-1,18,-1,20,-1,22,-1,-1,-1,-1],"split_conditions":[-8.539547E3,1.124872E3,1.9844027E1,3.626017E2,-0E0,7.408542E1,-0E0,4.574377E3,-0E0,-0E0,-8.3919147E2,-0E0,-2.5795565E1,-0E0,4.943145E2,-0E0,-3.528751E4,-0E0,-6.848009E1,-0E0,-7.6020984E-3,-0E0,2.6231925E-3],"split_indices":[88,35,21,58,0,40,0,45,0,0,87,0,73,0,89,0,31,0,73,0,0,0,0],"split_type":[0,0,0,0,0,0,0,0,0,0,0,0,0,0,0,0,0,0,0,0,0,0,0],"sum_hessian":[2.344E3,1.249E3,1.095E3,9.95E2,2.54E2,1.053E3,4.2E1,6.18E2,3.77E2,1.42E2,9.11E2,3.7E1,5.81E2,3.8E1,8.73E2,1.25E2,4.56E2,4.2E1,8.31E2,1.1E1,4.45E2,2.8E1,8.03E2],"tree_param":{"num_deleted":"0","num_feature":"200","num_nodes":"23","size_leaf_vector":"1"}},{"base_weights":[-0E0,-0E0,2.4612332E-2,-2.6906485E-2,-0E0,5.3031195E-2,-0E0,-6.3113086E-2,-0E0,7.271138E-2,-0E0,-0E0,-1.18321E-1,-0E0,1.0686711E-1,-0E0,-1.5505253E-1,-0E0,1.3036834E-1,-0E0,-7.537321E-3,-0E0,5.935581E-3],"categories":[],"categories_nodes":[],"categories_segments":[],"categories_sizes":[],"default_left":[0,0,0,0,0,0,0,0,0,0,0,0,0,0,0,0,0,0,0,0,0,0,0],"id":1,"left_children":[1,3,5,7,-1,9,-1,11,-1,13,-1,-1,15,-1,17,-1,19,-1,21,-1,-1,-1,-1],"loss_changes":[1.1077777E0,3.2992226E-1,2.7161722E0,1.2981148E0,0E0,2.8255444E0,0E0,2.0640001E0,0E0,3.5915623E0,0E0,0E0,2.1672955E0,0E0,3.2999125E0,0E0,1.7138953E0,0E0,2.5992346E0,0E0,0E0,0E0,0E0],"parents":[2147483647,0,0,1,1,2,2,3,3,5,5,7,7,9,9,12,12,14,14,16,16,18,18],"right_children":[2,4,6,8,-1,10,-1,12,-1,14,-1,-1,16,-1,18,-1,20,-1,22,-1,-1,-1,-1],"split_conditions":[-4.5423726E3,2.460375E3,1.1289686E3,1E0,-0E0,6.539151E3,-0E0,3.701579E1,-0E0,1.5435871E1,-0E0,-0E0,-7.1891113E3,-0E0,-1.7887547E4,-0E0,4.985447E0,-0E0,5.991201E2,-0E0,-7.537321E-3,-0E0,5.935581E-3],"split_indices":[84,35,59,154,0,14,0,25,0,23,0,0,35,0,17,0,19,0,89,0,0,0,0],"split_type":[0,0,0,0,0,0,0,0,0,0,0,0,0,0,0,0,0,0,0,0,0,0,0],"sum_hessian":[2.322E3,5.11E2,1.811E3,4.38E2,7.3E1,1.342E3,4.69E2,3.91E2,4.7E1,1.24E3,1.02E2,1.45E2,2.46E2,3.61E2,8.79E2,2E1,2.26E2,1E2,7.79E2,1.8E1,2.08E2,2.1E1,7.58E2],"tree_param":{"num_deleted":"0","num_feature":"200","num_nodes":"23","size_leaf_vector":"1"}},{"base_weights":[-0E0,9.9111935E-3,-0E0,-0E0,3.825915E-2,7.92415E-2,-0E0,-0E0,1.0888342E-1,1.355664E-1,-0E0,6.339121E-3,-0E0],"categories":[],"categories_nodes":[],"categories_segments":[],"categories_sizes":[],"default_left":[0,0,0,0,0,0,0,0,0,0,0,0,0],"id":2,"left_children":[1,3,-1,-1,5,7,-1,-1,9,11,-1,-1,-1],"loss_changes":[1.9938292E-1,2.3090954E0,0E0,0E0,4.6041126E0,4.6922607E0,0E0,0E0,4.234207E0,2.3703842E0,0E0,0E0,0E0],"parents":[2147483647,0,0,1,1,4,4,5,5,8,8,9,9],"right_children":[2,4,-1,-1,6,8,-1,-1,10,12,-1,-1,-1],"split_conditions":[1.1138284E12,-8.079181E3,-0E0,-0E0,2.015E3,0E0,-0E0,-0E0,1.2378125E4,7.3079895E1,-0E0,6.339121E-3,-0E0],"split_indices":[12,84,0,0,2,137,0,0,85,98,0,0,0],"split_type":[0,0,0,0,0,0,0,0,0,0,0,0,0],"sum_hessian":[2.319E3,2.012E3,3.07E2,3.16E2,1.696E3,1.115E3,5.81E2,1.37E2,9.78E2,8.55E2,1.23E2,7.58E2,9.7E1],"tree_param":{"num_deleted":"0","num_feature":"200","num_nodes":"13","size_leaf_vector":"1"}},{"base_weights":[-0E0,-3.0698194E-4,2.233434E-2,-3.8701035E-2,-0E0,5.5365834E-2,-0E0,-6.422031E-2,-0E0,7.973016E-2,-0E0,-9.156004E-2,-0E0,1.0654957E-1,-0E0,-0E0,-1.0913942E-1,1.2843072E-1,-0E0,-5.2382434E-3,-0E0,5.9249937E-3,-0E0],"categories":[],"categories_nodes":[],"categories_segments":[],"categories_sizes":[],"default_left":[0,0,0,0,0,0,0,0,0,0,0,0,0,0,0,0,0,0,0,0,0,0,0],"id":3,"left_children":[1,3,5,7,-1,9,-1,11,-1,13,-1,15,-1,17,-1,-1,19,21,-1,-1,-1,-1,-1],"loss_changes":[8.8732076E-1,7.6039207E-1,3.0907326E0,1.2345327E0,0E0,3.6230698E0,0E0,1.397882E0,0E0,3.4193263E0,0E0,1.1658692E0,0E0,4.001425E0,0E0,0E0,1.2219114E0,3.4243746E0,0E0,0E0,0E0,0E0,0E0],"parents":[2147483647,0,0,1,1,2,2,3,3,5,5,7,7,9,9,11,11,13,13,16,16,17,17],"right_children":[2,4,6,8,-1,10,-1,12,-1,14,-1,16,-1,18,-1,-1,20,22,-1,-1,-1,-1,-1],"split_conditions":[-1.4156046E3,5.2179233E3,1.5962824E8,9.852403E-1,-0E0,1.1714254E2,-0E0,-1.3569738E3,-0E0,4.907652E3,-0E0,0E0,-0E0,5.304126E1,-0E0,-0E0,1.2709116E4,1.557213E5,-0E0,-5.2382434E-3,-0E0,5.9249937E-3,-0E0],"split_indices":[63,59,11,7,0,98,0,67,0,83,0,106,0,102,0,0,65,45,0,0,0,0,0],"split_type":[0,0,0,0,0,0,0,0,0,0,0,0,0,0,0,0,0,0,0,0,0,0,0],"sum_hessian":[2.328E3,5.67E2,1.761E3,4.9E2,7.7E1,1.28E3,4.81E2,4.66E2,2.4E1,1.178E3,1.02E2,3.87E2,7.9E1,9.53E2,2.25E2,2.2E1,3.65E2,8.93E2,6E1,3.39E2,2.6E1,8.72E2,2.1E1],"tree_param":{"num_deleted":"0","num_feature":"200","num_nodes":"23","size_leaf_vector":"1"}},{"base_weights":[-0E0,-2.1973893E-2,8.692747E-3,-0E0,-5.7958268E-2,3.104288E-2,-0E0,-0E0,-8.660511E-2,-0E0,5.5107065E-2,-1.2860224E-1,-0E0,-0E0,7.2433956E-2,-0E0,-1.7713158E-1,8.663049E-2,-0E0,-0E0,-8.477094E-3,4.118545E-3,-0E0],"categories":[],"categories_nodes":[],"categories_segments":[],"categories_sizes":[],"default_left":[0,0,0,0,0,0,0,0,0,0,0,0,0,0,0,0,0,0,0,0,0,0,0],"id":4,"left_children":[1,3,5,-1,7,9,-1,-1,11,-1,13,15,-1,-1,17,-1,19,21,-1,-1,-1,-1,-1],"loss_changes":[6.7990696E-1,2.766357E0,8.7581336E-1,0E0,3.2142086E0,1.4498591E0,0E0,0E0,5.3107824E0,0E0,1.6281123E0,7.149619E0,0E0,0E0,1.4754834E0,0E0,4.8454285E0,1.756043E0,0E0,0E0,0E0,0E0,0E0],"parents":[2147483647,0,0,1,1,2,2,4,4,5,5,8,8,10,10,11,11,14,14,16,16,17,17],"right_children":[2,4,6,-1,8,10,-1,-1,12,-1,14,16,-1,-1,18,-1,20,22,-1,-1,-1,-1,-1],"split_conditions":[-4.80557E3,-1.2046901E6,8.507797E7,-0E0,-3.7220663E2,1.2878807E1,-0E0,-0E0,7.8544336E3,-0E0,-3.3025023E4,5.088513E3,-0E0,-0E0,1E0,-0E0,6.844627E-2,2.6281113E1,-0E0,-0E0,-8.477094E-3,4.118545E-3,-0E0],"split_indices":[67,16,17,0,97,23,0,0,79,0,80,43,0,0,104,0,5,21,0,0,0,0,0],"split_type":[0,0,0,0,0,0,0,0,0,0,0,0,0,0,0,0,0,0,0,0,0,0,0],"sum_hessian":[2.318E3,1.215E3,1.103E3,2.32E2,9.83E2,9.79E2,1.24E2,1.24E2,8.59E2,2.03E2,7.76E2,7.01E2,1.58E2,2.4E1,7.52E2,1.12E2,5.89E2,7.17E2,3.5E1,4.4E1,5.45E2,7.08E2,9E0],"tree_param":{"num_deleted":"0","num_feature":"200","num_nodes":"23","size_leaf_vector":"1"}},{"base_weights":[-0E0],"categories":[],"categories_nodes":[],"categories_segments":[],"categories_sizes":[],"default_left":[0],"id":5,"left_children":[-1],"loss_changes":[0E0],"parents":[2147483647],"right_children":[-1],"split_conditions":[-0E0],"split_indices":[0],"split_type":[0],"sum_hessian":[2.273E3],"tree_param":{"num_deleted":"0","num_feature":"200","num_nodes":"1","size_leaf_vector":"1"}},{"base_weights":[-0E0,-2.3847876E-2,-0E0,-6.506006E-2,-0E0,2.485859E-2,-0E0,-0E0,-9.892627E-2,-0E0,6.055025E-2,-0E0,-1.3191143E-1,-0E0,8.103812E-2,-1.5434377E-1,-0E0,9.810951E-2,-0E0,-0E0,-7.351938E-3,4.731636E-3,-0E0],"categories":[],"categories_nodes":[],"categories_segments":[],"categories_sizes":[],"default_left":[0,0,0,0,0,0,0,0,0,0,0,0,0,0,0,0,0,0,0,0,0,0,0],"id":6,"left_children":[1,3,5,7,-1,9,-1,-1,11,-1,13,-1,15,-1,17,19,-1,21,-1,-1,-1,-1,-1],"loss_changes":[1.061643E0,4.338237E0,2.3773728E-1,5.2156262E0,0E0,1.0297858E0,0E0,0E0,4.257148E0,0E0,7.533257E-1,0E0,3.7971134E0,0E0,7.774658E-1,4.0492935E0,0E0,7.282784E-1,0E0,0E0,0E0,0E0,0E0],"parents":[2147483647,0,0,1,1,2,2,3,3,5,5,8,8,10,10,12,12,14,14,15,15,17,17],"right_children":[2,4,6,8,-1,10,-1,-1,12,-1,14,-1,16,-1,18,20,-1,22,-1,-1,-1,-1,-1],"split_conditions":[9.7030615E2,-4.221893E3,4.2546416E8,1.8E1,-0E0,4.710946E0,-0E0,-0E0,-4.7088173E1,-0E0,-5.177435E3,-0E0,1E0,-0E0,3.7412645E4,4.8615723E0,-0E0,3.869902E3,-0E0,-0E0,-7.351938E-3,4.731636E-3,-0E0],"split_indices":[35,88,16,0,0,19,0,0,100,0,64,0,119,0,85,19,0,30,0,0,0,0,0],"split_type":[0,0,0,0,0,0,0,0,0,0,0,0,0,0,0,0,0,0,0,0,0,0,0],"sum_hessian":[2.263E3,1.849E3,4.14E2,1.258E3,5.91E2,3.67E2,4.7E1,1.91E2,1.067E3,3.9E1,3.28E2,2.3E2,8.37E2,3.8E1,2.9E2,7.66E2,7.1E1,2.73E2,1.7E1,7.2E1,6.94E2,2.49E2,2.4E1],"tree_param":{"num_deleted":"0","num_feature":"200","num_nodes":"23","size_leaf_vector":"1"}},{"base_weights":[-0E0,-0E0,-3.2382563E-2,-0E0,1.1683224E-2,-0E0,-7.325967E-2,-0E0,3.2513067E-2,-1.1670699E-1,-0E0,4.81698E-2,-0E0,-1.43341E-1,-0E0,5.888489E-2,-0E0,-0E0,-1.6606742E-1,2.9100126E-3,-0E0,-0E0,-7.773467E-3],"categories":[],"categories_nodes":[],"categories_segments":[],"categories_sizes":[],"default_left":[0,0,0,0,0,0,0,0,0,0,0,0,0,0,0,0,0,0,0,0,0,0,0],"id":7,"left_children":[1,3,5,-1,7,-1,9,-1,11,13,-1,15,-1,17,-1,19,-1,-1,21,-1,-1,-1,-1],"loss_changes":[1.2633057E0,1.03153996E-1,3.9196906E0,0E0,6.132631E-1,0E0,6.295283E0,0E0,7.865058E-1,4.603981E0,0E0,6.4937866E-1,0E0,4.759268E0,0E0,7.4694705E-1,0E0,0E0,4.236265E0,0E0,0E0,0E0,0E0],"parents":[2147483647,0,0,1,1,2,2,4,4,6,6,8,8,9,9,11,11,13,13,15,15,18,18],"right_children":[2,4,6,-1,8,-1,10,-1,12,14,-1,16,-1,18,-1,20,-1,-1,22,-1,-1,-1,-1],"split_conditions":[8.677485E3,-3.27665E1,-3.4446622E2,-0E0,-4.41099E3,-0E0,2.3526306E3,-0E0,1.0586966E2,9.778786E-1,-0E0,6.4348306E3,-0E0,-9.95927E4,-0E0,1E0,-0E0,-0E0,-9.7742647E-1,2.9100126E-3,-0E0,-0E0,-7.773467E-3],"split_indices":[89,34,68,0,63,0,35,0,72,7,0,35,0,77,0,145,0,0,7,0,0,0,0],"split_type":[0,0,0,0,0,0,0,0,0,0,0,0,0,0,0,0,0,0,0,0,0,0,0],"sum_hessian":[2.296E3,1.109E3,1.187E3,3.71E2,7.38E2,2.39E2,9.48E2,7.8E1,6.6E2,8.25E2,1.23E2,6.3E2,3E1,7.65E2,6E1,6.03E2,2.7E1,2.7E1,7.38E2,5.62E2,4.1E1,5.3E1,6.85E2],"tree_param":{"num_deleted":"0","num_feature":"200","num_nodes":"23","size_leaf_vector":"1"}},{"base_weights":[-0E0,-0E0,-2.7476244E-3,-5.184186E-2,-0E0,-8.455696E-2,-0E0,-1.1893018E-1,-0E0,-1.4811003E-1,-0E0,-0E0,-6.6500898E-3],"categories":[],"categories_nodes":[],"categories_segments":[],"categories_sizes":[],"default_left":[0,0,0,0,0,0,0,0,0,0,0,0,0],"id":8,"left_children":[1,-1,3,5,-1,7,-1,9,-1,11,-1,-1,-1],"loss_changes":[1.2937624E-2,0E0,2.5878847E0,2.88113E0,0E0,3.9200997E0,0E0,3.3369493E0,0E0,2.1406918E0,0E0,0E0,0E0],"parents":[2147483647,0,0,2,2,3,3,5,5,7,7,9,9],"right_children":[2,-1,4,6,-1,8,-1,10,-1,12,-1,-1,-1],"split_conditions":[-1.4457101E4,-0E0,3.274884E-1,1.2712659E0,-0E0,9.76E2,-0E0,4.6059214E3,-0E0,-7.438925E4,-0E0,-0E0,-6.6500898E-3],"split_indices":[16,0,74,73,0,0,0,56,0,82,0,0,0],"split_type":[0,0,0,0,0,0,0,0,0,0,0,0,0],"sum_hessian":[2.229E3,5.33E2,1.696E3,9.5E2,7.46E2,7.49E2,2.01E2,6.47E2,1.02E2,5.63E2,8.4E1,1.1E1,5.52E2],"tree_param":{"num_deleted":"0","num_feature":"200","num_nodes":"13","size_leaf_vector":"1"}},{"base_weights":[-0E0,7.352236E-3,-0E0,-0E0,3.4130517E-2,-0E0,-1.10069495E-2,-0E0,5.4036472E-2,-0E0,-4.8845697E-2,7.418398E-2,-0E0,-0E0,-8.752039E-2,-0E0,8.541252E-2,-1.09615035E-1,-0E0,-0E0,5.265822E-3,-0E0,-5.2825925E-3],"categories":[],"categories_nodes":[],"categories_segments":[],"categories_sizes":[],"default_left":[0,0,0,0,0,0,0,0,0,0,0,0,0,0,0,0,0,0,0,0,0,0,0],"id":9,"left_children":[1,3,5,-1,7,-1,9,-1,11,-1,13,15,-1,-1,17,-1,19,21,-1,-1,-1,-1,-1],"loss_changes":[8.377068E-2,1.394151E0,7.423278E-2,0E0,1.8675112E0,0E0,9.868246E-1,0E0,2.117764E0,0E0,1.9011447E0,1.5382438E0,0E0,0E0,1.2278228E0,0E0,2.7213626E0,1.3922634E0,0E0,0E0,0E0,0E0,0E0],"parents":[2147483647,0,0,1,1,2,2,4,4,6,6,8,8,10,10,11,11,14,14,16,16,17,17],"right_children":[2,4,6,-1,8,-1,10,-1,12,-1,14,16,-1,-1,18,-1,20,22,-1,-1,-1,-1,-1],"split_conditions":[7.950294E1,-7.254454E3,-1.66375E2,-0E0,0E0,-0E0,-6.4E1,-0E0,6.845769E11,-0E0,-2.610524E3,0E0,-0E0,-0E0,9.2274404E-1,-0E0,-1.7270717E2,-2.2607632E2,-0E0,-0E0,5.265822E-3,-0E0,-5.2825925E-3],"split_indices":[33,84,34,0,155,0,39,0,12,0,44,111,0,0,7,0,61,72,0,0,0,0,0],"split_type":[0,0,0,0,0,0,0,0,0,0,0,0,0,0,0,0,0,0,0,0,0,0,0],"sum_hessian":[2.335E3,1.532E3,8.03E2,2.81E2,1.251E3,2.08E2,5.95E2,1.23E2,1.128E3,1.68E2,4.27E2,9.75E2,1.53E2,5.8E1,3.69E2,3.3E1,9.42E2,3.31E2,3.8E1,3.66E2,5.76E2,1E1,3.21E2],"tree_param":{"num_deleted":"0","num_feature":"200","num_nodes":"23","size_leaf_vector":"1"}},{"base_weights":[-0E0,5.6924815E-3,-0E0,4.3868E-2,-0E0,-0E0,-2.9183036E-2,5.9757482E-2,-0E0,-6.6319495E-2,-0E0,-0E0,7.343238E-2,-0E0,-9.462118E-2,-0E0,8.688012E-2,-0E0,-1.274964E-1,-0E0,4.2959014E-3,-0E0,-6.6998154E-3],"categories":[],"categories_nodes":[],"categories_segments":[],"categories_sizes":[],"default_left":[0,0,0,0,0,0,0,0,0,0,0,0,0,0,0,0,0,0,0,0,0,0,0],"id":10,"left_children":[1,3,5,7,-1,-1,9,11,-1,13,-1,-1,15,-1,17,-1,19,-1,21,-1,-1,-1,-1],"loss_changes":[4.9861204E-2,2.0375748E0,5.5929494E-1,1.6075025E0,0E0,0E0,1.423094E0,1.6041949E0,0E0,1.838103E0,0E0,0E0,1.6053114E0,0E0,1.766784E0,0E0,1.5501165E0,0E0,2.7293096E0,0E0,0E0,0E0,0E0],"parents":[2147483647,0,0,1,1,2,2,3,3,6,6,7,7,9,9,12,12,14,14,16,16,18,18],"right_children":[2,4,6,8,-1,-1,10,12,-1,14,-1,-1,16,-1,18,-1,20,-1,22,-1,-1,-1,-1],"split_conditions":[1.8276363E4,1.262457E3,-2.868254E2,6.4321533E2,-0E0,-0E0,3.1443878E2,-5.2670464E3,-0E0,-3.6360226E1,-0E0,-0E0,9.42685E0,-0E0,-8.488827E-1,-0E0,-8.75019E-1,-0E0,-2.0346555E4,-0E0,4.2959014E-3,-0E0,-6.6998154E-3],"split_indices":[89,81,69,93,0,0,32,54,0,74,0,0,23,0,7,0,7,0,48,0,0,0,0],"split_type":[0,0,0,0,0,0,0,0,0,0,0,0,0,0,0,0,0,0,0,0,0,0,0],"sum_hessian":[2.287E3,1.521E3,7.66E2,1.067E3,4.54E2,1.27E2,6.39E2,1.017E3,5E1,4.33E2,2.06E2,5.2E1,9.65E2,2.4E1,4.09E2,6.8E1,8.97E2,8.3E1,3.26E2,1.39E2,7.58E2,3E1,2.96E2],"tree_param":{"num_deleted":"0","num_feature":"200","num_nodes":"23","size_leaf_vector":"1"}},{"base_weights":[-0E0,-9.932939E-3,-0E0,-0E0,-4.1767724E-2,-0E0,3.431747E-2,-6.83105E-2,-0E0,-0E0,5.6970067E-2,-0E0,-9.606031E-2,-0E0,7.574659E-2,-1.14761546E-1,-0E0,-0E0,9.563277E-2,-0E0,-6.7705885E-3,4.758067E-3,-0E0],"categories":[],"categories_nodes":[],"categories_segments":[],"categories_sizes":[],"default_left":[0,0,0,0,0,0,0,0,0,0,0,0,0,0,0,0,0,0,0,0,0,0,0],"id":11,"left_children":[1,3,5,-1,7,-1,9,11,-1,-1,13,-1,15,-1,17,19,-1,-1,21,-1,-1,-1,-1],"loss_changes":[1.5398571E-1,2.333243E0,5.755596E-1,0E0,2.3364422E0,0E0,8.3860683E-1,2.8326359E0,0E0,0E0,1.0054688E0,0E0,2.4942336E0,0E0,1.1811771E0,3.4864798E0,0E0,0E0,1.3959041E0,0E0,0E0,0E0,0E0],"parents":[2147483647,0,0,1,1,2,2,4,4,6,6,7,7,10,10,12,12,14,14,15,15,18,18],"right_children":[2,4,6,-1,8,-1,10,12,-1,-1,14,-1,16,-1,18,20,-1,-1,22,-1,-1,-1,-1],"split_conditions":[-4.580645E3,7.93E2,4.5942627E1,-0E0,3.8156194E3,-0E0,-1.3569738E3,7E0,-0E0,-0E0,-1.0520487E4,-0E0,2.4029592E4,-0E0,5.991201E2,3.0709688E1,-0E0,-0E0,3.827102E1,-0E0,-6.7705885E-3,4.758067E-3,-0E0],"split_indices":[88,196,26,0,84,0,56,1,0,0,15,0,86,0,89,24,0,0,23,0,0,0,0],"split_type":[0,0,0,0,0,0,0,0,0,0,0,0,0,0,0,0,0,0,0,0,0,0,0],"sum_hessian":[2.315E3,1.543E3,7.72E2,1.35E2,1.408E3,3.01E2,4.71E2,1.016E3,3.92E2,5.3E1,4.18E2,2.04E2,8.12E2,1.4E1,4.04E2,7.53E2,5.9E1,2.8E1,3.76E2,2.67E2,4.86E2,3.56E2,2E1],"tree_param":{"num_deleted":"0","num_feature":"200","num_nodes":"23","size_leaf_vector":"1"}},{"base_weights":[-0E0],"categories":[],"categories_nodes":[],"categories_segments":[],"categories_sizes":[],"default_left":[0],"id":12,"left_children":[-1],"loss_changes":[0E0],"parents":[2147483647],"right_children":[-1],"split_conditions":[-0E0],"split_indices":[0],"split_type":[0],"sum_hessian":[2.299E3],"tree_param":{"num_deleted":"0","num_feature":"200","num_nodes":"1","size_leaf_vector":"1"}},{"base_weights":[-0E0,-0E0,2.7817668E-2,-0E0,5.601251E-2,7.513662E-2,-0E0,-0E0,9.216918E-2,-0E0,1.03162326E-1,-0E0,4.9219495E-3],"categories":[],"categories_nodes":[],"categories_segments":[],"categories_sizes":[],"default_left":[0,0,0,0,0,0,0,0,0,0,0,0,0],"id":13,"left_children":[1,-1,3,-1,5,7,-1,-1,9,-1,11,-1,-1],"loss_changes":[1.4468315E0,0E0,2.0787277E0,0E0,2.400645E0,1.920939E0,0E0,0E0,1.7493763E0,0E0,2.3602161E0,0E0,0E0],"parents":[2147483647,0,0,2,2,4,4,5,5,8,8,10,10],"right_children":[2,-1,4,-1,6,8,-1,-1,10,-1,12,-1,-1],"split_conditions":[-6.3984097E3,-0E0,-6.156214E2,-0E0,1.827889E4,1.6589619E1,-0E0,-0E0,-6.57136E4,-0E0,0E0,-0E0,4.9219495E-3],"split_indices":[84,0,82,0,85,24,0,0,78,0,176,0,0],"split_type":[0,0,0,0,0,0,0,0,0,0,0,0,0],"sum_hessian":[2.294E3,4.42E2,1.852E3,7.46E2,1.106E3,1.032E3,7.4E1,1.26E2,9.06E2,2.2E1,8.84E2,6.6E1,8.18E2],"tree_param":{"num_deleted":"0","num_feature":"200","num_nodes":"13","size_leaf_vector":"1"}},{"base_weights":[-0E0,-0E0,3.8586505E-4,-9.169407E-3,-0E0,3.5890244E-2,-0E0,-3.189037E-2,-0E0,-0E0,7.429526E-2,-0E0,-5.605202E-2,9.1230854E-2,-0E0,-0E0,-7.211703E-2,-0E0,1.14832625E-1,-3.5426407E-3,-0E0,5.497387E-3,-0E0],"categories":[],"categories_nodes":[],"categories_segments":[],"categories_sizes":[],"default_left":[0,0,0,0,0,0,0,0,0,0,0,0,0,0,0,0,0,0,0,0,0,0,0],"id":14,"left_children":[1,3,5,7,-1,9,-1,11,-1,-1,13,-1,15,17,-1,-1,19,-1,21,-1,-1,-1,-1],"loss_changes":[2.4101413E-4,5.2272957E-2,1.729329E0,5.149254E-1,0E0,3.45748E0,0E0,1.0813807E0,0E0,0E0,2.33467E0,0E0,9.1919017E-1,2.7864494E0,0E0,0E0,8.915291E-1,0E0,2.769435E0,0E0,0E0,0E0,0E0],"parents":[2147483647,0,0,1,1,2,2,3,3,5,5,7,7,10,10,12,12,13,13,16,16,18,18],"right_children":[2,4,6,8,-1,10,-1,12,-1,-1,14,-1,16,18,-1,-1,20,-1,22,-1,-1,-1,-1],"split_conditions":[-1.8251267E3,5.057662E3,6.942046E2,7.786756E2,-0E0,-5.476112E-1,-0E0,-1.8363857E4,-0E0,-0E0,1.1390625E4,-0E0,-3.0820537E4,-3.4417388E3,-0E0,-0E0,7.762449E3,-0E0,1E0,-3.5426407E-3,-0E0,5.497387E-3,-0E0],"split_indices":[84,59,90,37,0,7,0,65,0,0,38,0,83,65,0,0,38,0,160,0,0,0,0],"split_type":[0,0,0,0,0,0,0,0,0,0,0,0,0,0,0,0,0,0,0,0,0,0,0],"sum_hessian":[2.305E3,7.04E2,1.601E3,6.04E2,1E2,1.325E3,2.76E2,5.4E2,6.4E1,4.03E2,9.22E2,3.3E1,5.07E2,8.86E2,3.6E1,3.1E1,4.76E2,1.22E2,7.64E2,4.49E2,2.7E1,7.15E2,4.9E1],"tree_param":{"num_deleted":"0","num_feature":"200","num_nodes":"23","size_leaf_vector":"1"}},{"base_weights":[-0E0,-1.4990981E-2,1.5735522E-2,-5.4355294E-2,-0E0,3.9485566E-2,-0E0,-9.1257215E-2,-0E0,-0E0,5.304782E-2,-0E0,-1.2334526E-1,-0E0,6.566433E-2,-0E0,-1.5874974E-1,-0E0,7.873833E-2,-0E0,-7.933809E-3,3.6464557E-3,-0E0],"categories":[],"categories_nodes":[],"categories_segments":[],"categories_sizes":[],"default_left":[0,0,0,0,0,0,0,0,0,0,0,0,0,0,0,0,0,0,0,0,0,0,0],"id":15,"left_children":[1,3,5,7,-1,9,-1,11,-1,-1,13,-1,15,-1,17,-1,19,-1,21,-1,-1,-1,-1],"loss_changes":[5.494555E-1,2.7025902E0,1.2914003E0,4.43459E0,0E0,1.0082262E0,0E0,4.1406093E0,0E0,0E0,1.1816025E0,0E0,5.7479353E0,0E0,1.4187715E0,0E0,4.35577E0,0E0,1.291748E0,0E0,0E0,0E0,0E0],"parents":[2147483647,0,0,1,1,2,2,3,3,5,5,7,7,10,10,12,12,14,14,16,16,18,18],"right_children":[2,4,6,8,-1,10,-1,12,-1,-1,14,-1,16,-1,18,-1,20,-1,22,-1,-1,-1,-1],"split_conditions":[-8.539547E3,1.2596864E3,1.2502916E1,1.5811123E4,-0E0,8.377324E0,-0E0,7.1891113E3,-0E0,-0E0,-3.521224E4,-0E0,-3.7220663E2,-0E0,-6.057534E1,-0E0,6.4115E0,-0E0,-8.887529E2,-0E0,-7.933809E-3,3.6464557E-3,-0E0],"split_indices":[88,35,20,56,0,22,0,45,0,0,86,0,97,0,73,0,20,0,91,0,0,0,0],"split_type":[0,0,0,0,0,0,0,0,0,0,0,0,0,0,0,0,0,0,0,0,0,0,0],"sum_hessian":[2.299E3,1.231E3,1.068E3,9.92E2,2.39E2,9.83E2,8.5E1,8.73E2,1.19E2,8.8E1,8.95E2,1.31E2,7.42E2,4.3E1,8.52E2,7.3E1,6.69E2,3.6E1,8.16E2,1.04E2,5.65E2,8.05E2,1.1E1],"tree_param":{"num_deleted":"0","num_feature":"200","num_nodes":"23","size_leaf_vector":"1"}},{"base_weights":[-0E0,-1.40102925E-2,-0E0,-0E0,-5.0952554E-2,-8.7626554E-2,-0E0,-0E0,-1.1255822E-1,-0E0,-1.342845E-1,-6.340432E-3,-0E0],"categories":[],"categories_nodes":[],"categories_segments":[],"categories_sizes":[],"default_left":[0,0,0,0,0,0,0,0,0,0,0,0,0],"id":16,"left_children":[1,3,-1,-1,5,7,-1,-1,9,-1,11,-1,-1],"loss_changes":[3.8192198E-1,2.8781304E0,0E0,0E0,3.3873003E0,3.4085612E0,0E0,0E0,3.769823E0,0E0,3.760353E0,0E0,0E0],"parents":[2147483647,0,0,1,1,4,4,5,5,8,8,10,10],"right_children":[2,4,-1,-1,6,8,-1,-1,10,-1,12,-1,-1],"split_conditions":[9.7030615E2,7.688734E4,-0E0,-0E0,-4.580645E3,0E0,-0E0,-0E0,-3.4268805E4,-0E0,9.9223286E-1,-6.340432E-3,-0E0],"split_indices":[35,16,0,0,88,105,0,0,60,0,7,0,0],"split_type":[0,0,0,0,0,0,0,0,0,0,0,0,0],"sum_hessian":[2.334E3,1.928E3,4.06E2,6.9E2,1.238E3,8.48E2,3.9E2,7.2E1,7.76E2,2.7E1,7.49E2,7.23E2,2.6E1],"tree_param":{"num_deleted":"0","num_feature":"200","num_nodes":"13","size_leaf_vector":"1"}},{"base_weights":[-0E0],"categories":[],"categories_nodes":[],"categories_segments":[],"categories_sizes":[],"default_left":[0],"id":17,"left_children":[-1],"loss_changes":[0E0],"parents":[2147483647],"right_children":[-1],"split_conditions":[-0E0],"split_indices":[0],"split_type":[0],"sum_hessian":[2.301E3],"tree_param":{"num_deleted":"0","num_feature":"200","num_nodes":"1","size_leaf_vector":"1"}},{"base_weights":[-0E0,1.4575543E-3,-8.349392E-3,-0E0,3.351129E-2,-0E0,-7.139295E-2,7.270303E-2,-0E0,-1.4347108E-1,-0E0,9.353362E-2,-0E0,-0E0,-1.7908683E-1,1.1168747E-1,-0E0,-0E0,-2.1189192E-1,5.373497E-3,-0E0,-9.790349E-3,-0E0],"categories":[],"categories_nodes":[],"categories_segments":[],"categories_sizes":[],"default_left":[0,0,0,0,0,0,0,0,0,0,0,0,0,0,0,0,0,0,0,0,0,0,0],"id":18,"left_children":[1,3,5,-1,7,-1,9,11,-1,13,-1,15,-1,-1,17,19,-1,-1,21,-1,-1,-1,-1],"loss_changes":[8.132367E-2,1.1267915E0,4.32875E0,0E0,2.3999562E0,0E0,7.6489854E0,1.7260315E0,0E0,4.4517136E0,0E0,1.8388419E0,0E0,0E0,3.14468E0,1.8706503E0,0E0,0E0,3.9932556E0,0E0,0E0,0E0,0E0],"parents":[2147483647,0,0,1,1,2,2,4,4,6,6,7,7,9,9,11,11,14,14,15,15,18,18],"right_children":[2,4,6,-1,8,-1,10,12,-1,14,-1,16,-1,-1,18,20,-1,-1,22,-1,-1,-1,-1],"split_conditions":[9.581492E0,-4.5520703E3,-3.4446622E2,-0E0,3.27375E2,-0E0,2.9415704E2,5.4248667E3,-0E0,-3.9544984E4,-0E0,1E0,-0E0,-0E0,6.0285195E3,-2.6287607E2,-0E0,-0E0,1.884859E14,5.373497E-3,-0E0,-9.790349E-3,-0E0],"split_indices":[19,83,68,0,65,0,68,64,0,15,0,145,0,0,45,67,0,0,12,0,0,0,0],"split_type":[0,0,0,0,0,0,0,0,0,0,0,0,0,0,0,0,0,0,0,0,0,0,0],"sum_hessian":[2.335E3,1.224E3,1.111E3,2.36E2,9.88E2,2.64E2,8.47E2,6.5E2,3.38E2,5.68E2,2.79E2,5.83E2,6.7E1,7.1E1,4.97E2,5.51E2,3.2E1,7.7E1,4.2E2,5.08E2,4.3E1,4E2,2E1],"tree_param":{"num_deleted":"0","num_feature":"200","num_nodes":"23","size_leaf_vector":"1"}},{"base_weights":[-0E0,-0E0,1.5346033E-2,-0E0,-2.4652783E-2,-0E0,4.087087E-2,-0E0,-4.522073E-2,6.734629E-2,-0E0,-0E0,-6.2157582E-2,-0E0,9.700863E-2,-7.8687005E-2,-0E0,-0E0,1.2893789E-1,-0E0,-3.9006511E-3,-0E0,6.1254483E-3],"categories":[],"categories_nodes":[],"categories_segments":[],"categories_sizes":[],"default_left":[0,0,0,0,0,0,0,0,0,0,0,0,0,0,0,0,0,0,0,0,0,0,0],"id":19,"left_children":[1,3,5,-1,7,-1,9,-1,11,13,-1,-1,15,-1,17,19,-1,-1,21,-1,-1,-1,-1],"loss_changes":[1.01434775E-1,5.279727E-1,5.963358E-1,0E0,7.3112106E-1,0E0,1.0879533E0,0E0,1.0502348E0,1.5241947E0,0E0,0E0,1.2553225E0,0E0,2.1217873E0,1.213222E0,0E0,0E0,1.497901E0,0E0,0E0,0E0,0E0],"parents":[2147483647,0,0,1,1,2,2,4,4,6,6,8,8,9,9,12,12,14,14,15,15,18,18],"right_children":[2,4,6,-1,8,-1,10,-1,12,14,-1,-1,16,-1,18,20,-1,-1,22,-1,-1,-1,-1],"split_conditions":[9.7030615E2,1.247E3,-6.6436915E6,-0E0,7.50585E0,-0E0,1.4809825E4,-0E0,-3.528751E4,4.650408E1,-0E0,-0E0,4.541352E1,-0E0,-1.0756228E13,-7.1891113E3,-0E0,-0E0,-4.0158984E4,-0E0,-3.9006511E-3,-0E0,6.1254483E-3],"split_indices":[35,197,17,0,19,0,14,0,34,26,0,0,21,0,18,31,0,0,59,0,0,0,0],"split_type":[0,0,0,0,0,0,0,0,0,0,0,0,0,0,0,0,0,0,0,0,0,0,0],"sum_hessian":[2.316E3,1.903E3,4.13E2,1.052E3,8.51E2,1.3E1,4E2,2.53E2,5.98E2,3.76E2,2.4E1,1.8E1,5.8E2,4.2E1,3.34E2,5.58E2,2.2E1,2.5E1,3.09E2,4.4E1,5.14E2,1.4E1,2.95E2],"tree_param":{"num_deleted":"0","num_feature":"200","num_nodes":"23","size_leaf_vector":"1"}},{"base_weights":[-0E0,-1.0931358E-2,-0E0,-0E0,-4.4644937E-2,-0E0,1.2859159E-2,-0E0,-7.6586E-2,2.4316866E-2,-0E0,-0E0,-1.0785791E-1,-0E0,3.381464E-2,-1.2889254E-1,-0E0,4.2098604E-2,-0E0,-6.533947E-3,-0E0,-0E0,2.1383676E-3],"categories":[],"categories_nodes":[],"categories_segments":[],"categories_sizes":[],"default_left":[0,0,0,0,0,0,0,0,0,0,0,0,0,0,0,0,0,0,0,0,0,0,0],"id":20,"left_children":[1,3,5,-1,7,-1,9,-1,11,13,-1,-1,15,-1,17,19,-1,21,-1,-1,-1,-1,-1],"loss_changes":[1.5554842E-1,2.2197518E0,1.5522476E-1,0E0,2.6673124E0,0E0,3.584578E-1,0E0,3.958322E0,4.4190407E-1,0E0,0E0,2.8729076E0,0E0,5.060577E-1,4.028651E0,0E0,7.195939E-1,0E0,0E0,0E0,0E0,0E0],"parents":[2147483647,0,0,1,1,2,2,4,4,6,6,8,8,9,9,12,12,14,14,15,15,17,17],"right_children":[2,4,6,-1,8,-1,10,-1,12,14,-1,-1,16,-1,18,20,-1,22,-1,-1,-1,-1,-1],"split_conditions":[-7.6710366E3,-6.539152E3,-1.7887547E4,-0E0,-3.9887766E4,-0E0,1.7589552E2,-0E0,5.177706E3,-1.1564547E4,-0E0,-0E0,1E0,-0E0,1.5231974E1,5.4517534E3,-0E0,2.1597363E-1,-0E0,-6.533947E-3,-0E0,-0E0,2.1383676E-3],"split_indices":[88,32,17,0,88,0,97,0,45,59,0,0,175,0,20,29,0,40,0,0,0,0,0],"split_type":[0,0,0,0,0,0,0,0,0,0,0,0,0,0,0,0,0,0,0,0,0,0,0],"sum_hessian":[2.302E3,1.284E3,1.018E3,1.1E2,1.174E3,9.7E1,9.21E2,3.32E2,8.42E2,8.51E2,7E1,8.6E1,7.56E2,3.3E1,8.18E2,6.97E2,5.9E1,8.07E2,1.1E1,6.13E2,8.4E1,1.7E1,7.9E2],"tree_param":{"num_deleted":"0","num_feature":"200","num_nodes":"23","size_leaf_vector":"1"}},{"base_weights":[-0E0,-0E0,1.1762796E-2,-2.2914696E-2,-0E0,4.582757E-2,-0E0,-5.450319E-2,-0E0,-0E0,8.4405534E-2,-7.900394E-2,-0E0,1.0786485E-1,-0E0,-0E0,-9.828828E-2,-0E0,1.2833048E-1,-0E0,-4.8420574E-3,-0E0,5.886613E-3],"categories":[],"categories_nodes":[],"categories_segments":[],"categories_sizes":[],"default_left":[0,0,0,0,0,0,0,0,0,0,0,0,0,0,0,0,0,0,0,0,0,0,0],"id":21,"left_children":[1,3,5,7,-1,9,-1,11,-1,-1,13,15,-1,17,-1,-1,19,-1,21,-1,-1,-1,-1],"loss_changes":[2.0003462E-1,4.3094617E-1,1.6706245E0,1.6298158E0,0E0,3.3138287E0,0E0,1.9446092E0,0E0,0E0,2.9333577E0,2.0394468E0,0E0,2.5657291E0,0E0,0E0,2.3422318E0,0E0,2.4081964E0,0E0,0E0,0E0,0E0],"parents":[2147483647,0,0,1,1,2,2,3,3,5,5,7,7,10,10,11,11,13,13,16,16,18,18],"right_children":[2,4,6,8,-1,10,-1,12,-1,-1,14,16,-1,18,-1,-1,20,-1,22,-1,-1,-1,-1],"split_conditions":[-5.595776E2,2.460375E3,2.014E3,1.5746614E2,-0E0,-2.5997593E3,-0E0,9.657866E-1,-0E0,-0E0,1.0360302E4,6.258E2,-0E0,-2.7061719E4,-0E0,-0E0,-1.2487286E4,-0E0,-7.994142E-3,-0E0,-4.8420574E-3,-0E0,5.886613E-3],"split_indices":[84,35,2,37,0,61,0,7,0,0,33,196,0,80,0,0,13,0,40,0,0,0,0],"split_type":[0,0,0,0,0,0,0,0,0,0,0,0,0,0,0,0,0,0,0,0,0,0,0],"sum_hessian":[2.344E3,9.16E2,1.428E3,8.03E2,1.13E2,8.73E2,5.55E2,6.76E2,1.27E2,1.63E2,7.1E2,6.24E2,5.2E1,6.8E2,3E1,1.6E1,6.08E2,4.9E1,6.31E2,2E1,5.88E2,9E0,6.22E2],"tree_param":{"num_deleted":"0","num_feature":"200","num_nodes":"23","size_leaf_vector":"1"}},{"base_weights":[-0E0],"categories":[],"categories_nodes":[],"categories_segments":[],"categories_sizes":[],"default_left":[0],"id":22,"left_children":[-1],"loss_changes":[0E0],"parents":[2147483647],"right_children":[-1],"split_conditions":[-0E0],"split_indices":[0],"split_type":[0],"sum_hessian":[2.305E3],"tree_param":{"num_deleted":"0","num_feature":"200","num_nodes":"1","size_leaf_vector":"1"}},{"base_weights":[-0E0,-1.1415161E-2,-0E0,-6.462548E-2,-0E0,-0E0,1.0534872E-2,-0E0,-8.9449935E-2,3.6683105E-2,-0E0,-0E0,-1.3416289E-1,-0E0,5.7670314E-2,-1.6234817E-1,-0E0,7.27824E-2,-0E0,-7.4816816E-3,-0E0,-0E0,3.7679744E-3],"categories":[],"categories_nodes":[],"categories_segments":[],"categories_sizes":[],"default_left":[0,0,0,0,0,0,0,0,0,0,0,0,0,0,0,0,0,0,0,0,0,0,0],"id":23,"left_children":[1,3,5,7,-1,-1,9,-1,11,13,-1,-1,15,-1,17,19,-1,21,-1,-1,-1,-1,-1],"loss_changes":[1.3170274E-1,3.3168757E0,1.0040898E-1,2.9822154E0,0E0,0E0,9.3671006E-1,0E0,3.2299862E0,1.386504E0,0E0,0E0,2.8513708E0,0E0,1.388931E0,2.784419E0,0E0,1.6184566E0,0E0,0E0,0E0,0E0,0E0],"parents":[2147483647,0,0,1,1,2,2,3,3,6,6,8,8,9,9,12,12,14,14,15,15,17,17],"right_children":[2,4,6,8,-1,-1,10,-1,12,14,-1,-1,16,-1,18,20,-1,22,-1,-1,-1,-1,-1],"split_conditions":[-8.259364E1,1.2596864E3,-6.891977E1,-2.012354E4,-0E0,-0E0,1.6015929E3,-0E0,2.5745823E1,-1.325382E4,-0E0,-0E0,1E0,-0E0,4.8137555E4,9.746749E-1,-0E0,-2.0484185E3,-0E0,-7.4816816E-3,-0E0,-0E0,3.7679744E-3],"split_indices":[56,35,35,34,0,0,36,0,24,54,0,0,119,0,59,5,0,38,0,0,0,0,0],"split_type":[0,0,0,0,0,0,0,0,0,0,0,0,0,0,0,0,0,0,0,0,0,0,0],"sum_hessian":[2.286E3,9.93E2,1.293E3,8.08E2,1.85E2,4.06E2,8.87E2,2.2E1,7.86E2,7.53E2,1.34E2,2.67E2,5.19E2,4.2E1,7.11E2,4.57E2,6.2E1,7.02E2,9E0,4.45E2,1.2E1,7.2E1,6.3E2],"tree_param":{"num_deleted":"0","num_feature":"200","num_nodes":"23","size_leaf_vector":"1"}},{"base_weights":[-0E0],"categories":[],"categories_nodes":[],"categories_segments":[],"categories_sizes":[],"default_left":[0],"id":24,"left_children":[-1],"loss_changes":[0E0],"parents":[2147483647],"right_children":[-1],"split_conditions":[-0E0],"split_indices":[0],"split_type":[0],"sum_hessian":[2.241E3],"tree_param":{"num_deleted":"0","num_feature":"200","num_nodes":"1","size_leaf_vector":"1"}},{"base_weights":[-0E0,4.1010458E-2,-0E0,6.4131424E-2,-0E0,-1.5781537E-2,-0E0,7.9010464E-2,-0E0,-3.8533542E-2,-0E0,-0E0,8.780301E-2,-6.280643E-2,-0E0,-0E0,9.645407E-2,-7.949891E-2,-0E0,-0E0,4.399214E-3,-0E0,-4.308352E-3],"categories":[],"categories_nodes":[],"categories_segments":[],"categories_sizes":[],"default_left":[0,0,0,0,0,0,0,0,0,0,0,0,0,0,0,0,0,0,0,0,0,0,0],"id":25,"left_children":[1,3,5,7,-1,9,-1,11,-1,13,-1,-1,15,17,-1,-1,19,21,-1,-1,-1,-1,-1],"loss_changes":[1.163374E0,1.4676898E0,2.5023234E-1,1.2126598E0,0E0,1.0396719E0,0E0,8.1828284E-1,0E0,2.0067148E0,0E0,0E0,8.7090015E-1,1.605988E0,0E0,0E0,9.215665E-1,1.8141837E0,0E0,0E0,0E0,0E0,0E0],"parents":[2147483647,0,0,1,1,2,2,3,3,5,5,7,7,9,9,12,12,13,13,16,16,17,17],"right_children":[2,4,6,8,-1,10,-1,12,-1,14,-1,-1,16,18,-1,-1,20,22,-1,-1,-1,-1,-1],"split_conditions":[4.031258E3,4.913E3,1.3715738E1,4.390405E2,-0E0,1.7715503E3,-0E0,-1.123813E4,-0E0,2.117736E3,-0E0,-0E0,-1.9965348E4,9.657866E-1,-0E0,-0E0,0E0,2.8032065E3,-0E0,-0E0,4.399214E-3,-0E0,-4.308352E-3],"split_indices":[16,37,69,70,0,35,0,14,0,66,0,0,50,7,0,0,176,43,0,0,0,0,0],"split_type":[0,0,0,0,0,0,0,0,0,0,0,0,0,0,0,0,0,0,0,0,0,0,0],"sum_hessian":[2.271E3,6.74E2,1.597E3,6.22E2,5.2E1,9.87E2,6.1E2,5.98E2,2.4E1,8.51E2,1.36E2,1.1E1,5.87E2,8.18E2,3.3E1,1E1,5.77E2,7.58E2,6E1,3E1,5.47E2,1.63E2,5.95E2],"tree_param":{"num_deleted":"0","num_feature":"200","num_nodes":"23","size_leaf_vector":"1"}},{"base_weights":[-0E0,-0E0,9.764116E-3,-2.928455E-2,-0E0,-0E0,3.2555845E-2,-5.4880068E-2,-0E0,5.6077972E-2,-0E0,-8.8136375E-2,-0E0,8.093023E-2,-0E0,-0E0,-1.09234676E-1,-0E0,9.571308E-2,-5.248556E-3,-0E0,-0E0,4.6871677E-3],"categories":[],"categories_nodes":[],"categories_segments":[],"categories_sizes":[],"default_left":[0,0,0,0,0,0,0,0,0,0,0,0,0,0,0,0,0,0,0,0,0,0,0],"id":26,"left_children":[1,3,5,7,-1,-1,9,11,-1,13,-1,15,-1,17,-1,-1,19,-1,21,-1,-1,-1,-1],"loss_changes":[1.4660306E-1,5.9921134E-1,1.3411754E0,1.3214864E0,0E0,0E0,2.2189865E0,2.1864066E0,0E0,2.8542E0,0E0,2.0346398E0,0E0,1.9745116E0,0E0,0E0,1.6627507E0,0E0,2.294794E0,0E0,0E0,0E0,0E0],"parents":[2147483647,0,0,1,1,2,2,3,3,6,6,7,7,9,9,11,11,13,13,16,16,18,18],"right_children":[2,4,6,8,-1,-1,10,12,-1,14,-1,16,-1,18,-1,-1,20,-1,22,-1,-1,-1,-1],"split_conditions":[-1.2506223E3,1E0,-2.924162E3,9.4139683E-1,-0E0,-0E0,3.0192065E3,3.7570933E3,-0E0,3.521606E3,-0E0,-3.008016E4,-0E0,6.784464E2,-0E0,-0E0,-5.9258417E2,-0E0,-1.2151587E4,-5.248556E-3,-0E0,-0E0,4.6871677E-3],"split_indices":[84,156,29,7,0,0,65,61,0,62,0,34,0,89,0,0,67,0,78,0,0,0,0],"split_type":[0,0,0,0,0,0,0,0,0,0,0,0,0,0,0,0,0,0,0,0,0,0,0],"sum_hessian":[2.293E3,7.73E2,1.52E3,6.81E2,9.2E1,1.34E2,1.386E3,6.2E2,6.1E1,1.161E3,2.25E2,5.11E2,1.09E2,9.84E2,1.77E2,1.4E1,4.97E2,7E1,9.14E2,4.62E2,3.5E1,9.7E1,8.17E2],"tree_param":{"num_deleted":"0","num_feature":"200","num_nodes":"23","size_leaf_vector":"1"}},{"base_weights":[-0E0,-0E0,1.8567923E-2,-1.07625425E-2,-0E0,4.748277E-2,-0E0,-3.9722573E-2,-0E0,6.386533E-2,-0E0,-0E0,-7.411298E-2,7.729982E-2,-0E0,-0E0,-1.0567254E-1,-0E0,9.309859E-2,-5.4635494E-3,-0E0,4.235056E-3,-0E0],"categories":[],"categories_nodes":[],"categories_segments":[],"categories_sizes":[],"default_left":[0,0,0,0,0,0,0,0,0,0,0,0,0,0,0,0,0,0,0,0,0,0,0],"id":27,"left_children":[1,3,5,7,-1,9,-1,11,-1,13,-1,-1,15,17,-1,-1,19,-1,21,-1,-1,-1,-1],"loss_changes":[5.1326257E-1,8.047097E-2,2.164586E0,9.163084E-1,0E0,1.795429E0,0E0,1.5393236E0,0E0,1.8707752E0,0E0,0E0,2.2512734E0,2.407538E0,0E0,0E0,2.3474226E0,0E0,1.583663E0,0E0,0E0,0E0,0E0],"parents":[2147483647,0,0,1,1,2,2,3,3,5,5,7,7,9,9,12,12,13,13,16,16,18,18],"right_children":[2,4,6,8,-1,10,-1,12,-1,14,-1,-1,16,18,-1,-1,20,-1,22,-1,-1,-1,-1],"split_conditions":[-1.0264056E3,1.4428923E3,5.085969E2,7.049748E2,-0E0,3.4429343E3,-0E0,5.1930656E1,-0E0,1.0360302E4,-0E0,-0E0,-1.0360128E4,-1.4344789E4,-0E0,-0E0,-6.7565204E2,-0E0,1.1390625E4,-5.4635494E-3,-0E0,4.235056E-3,-0E0],"split_indices":[84,35,90,37,0,36,0,26,0,33,0,0,35,59,0,0,67,0,38,0,0,0,0],"split_type":[0,0,0,0,0,0,0,0,0,0,0,0,0,0,0,0,0,0,0,0,0,0,0],"sum_hessian":[2.281E3,8.1E2,1.471E3,6.77E2,1.33E2,1.17E3,3.01E2,6.14E2,6.3E1,1.079E3,9.1E1,1.7E2,4.44E2,1.044E3,3.5E1,3.3E1,4.11E2,5.2E1,9.92E2,3.87E2,2.4E1,9.58E2,3.4E1],"tree_param":{"num_deleted":"0","num_feature":"200","num_nodes":"23","size_leaf_vector":"1"}},{"base_weights":[-0E0,-0E0,-1.0936031E-2,-0E0,1.4389518E-2,-4.3256216E-2,-0E0,3.878497E-2,-0E0,-0E0,-8.829728E-2,6.264121E-2,-0E0,-0E0,-1.19298026E-1,-0E0,9.0341E-2,-0E0,-1.6503115E-1,-0E0,4.806712E-3,-8.278097E-3,-0E0],"categories":[],"categories_nodes":[],"categories_segments":[],"categories_sizes":[],"default_left":[0,0,0,0,0,0,0,0,0,0,0,0,0,0,0,0,0,0,0,0,0,0,0],"id":28,"left_children":[1,3,5,-1,7,9,-1,11,-1,-1,13,15,-1,-1,17,-1,19,-1,21,-1,-1,-1,-1],"loss_changes":[1.426454E-1,1.5192267E-1,1.4004874E0,0E0,8.5401475E-1,3.257269E0,0E0,1.5003475E0,0E0,0E0,2.1835294E0,2.2495792E0,0E0,0E0,2.7858977E0,0E0,2.3357162E0,0E0,3.614563E0,0E0,0E0,0E0,0E0],"parents":[2147483647,0,0,1,1,2,2,4,4,5,5,7,7,10,10,11,11,14,14,16,16,18,18],"right_children":[2,4,6,-1,8,10,-1,12,-1,-1,14,16,-1,-1,18,-1,20,-1,22,-1,-1,-1,-1],"split_conditions":[-5.489205E0,-1.9172739E2,-4.580645E3,-0E0,9.3993753E-1,-1.7991829E1,-0E0,6.7860995E13,-0E0,-0E0,1.0452536E4,2.1953148E1,-0E0,-0E0,2.771153E1,-0E0,0E0,-0E0,8.998976E3,-0E0,4.806712E-3,-8.278097E-3,-0E0],"split_indices":[65,61,88,0,7,74,0,12,0,0,92,40,0,0,24,0,171,0,37,0,0,0,0],"split_type":[0,0,0,0,0,0,0,0,0,0,0,0,0,0,0,0,0,0,0,0,0,0,0],"sum_hessian":[2.323E3,1.148E3,1.175E3,4.32E2,7.16E2,8.07E2,3.68E2,6.51E2,6.5E1,2.09E2,5.98E2,6.21E2,3E1,1.25E2,4.73E2,5.6E1,5.65E2,1.32E2,3.41E2,6.3E1,5.02E2,3.13E2,2.8E1],"tree_param":{"num_deleted":"0","num_feature":"200","num_nodes":"23","size_leaf_vector":"1"}},{"base_weights":[-0E0,2.1340527E-2,-0E0,-0E0,4.5621354E-2,6.916579E-2,-0E0,-0E0,8.808631E-2,1.0676196E-1,-0E0,-0E0,4.8399623E-3],"categories":[],"categories_nodes":[],"categories_segments":[],"categories_sizes":[],"default_left":[0,0,0,0,0,0,0,0,0,0,0,0,0],"id":29,"left_children":[1,3,-1,-1,5,7,-1,-1,9,11,-1,-1,-1],"loss_changes":[7.340063E-1,1.9315656E0,0E0,0E0,2.911122E0,2.8398595E0,0E0,0E0,3.02396E0,2.0856934E0,0E0,0E0,0E0],"parents":[2147483647,0,0,1,1,4,4,5,5,8,8,9,9],"right_children":[2,4,-1,-1,6,8,-1,-1,10,12,-1,-1,-1],"split_conditions":[2.9428183E1,4.476948E1,-0E0,-0E0,1.0934618E4,-5.817946E5,-0E0,-0E0,1.1339974E4,-3.4268805E4,-0E0,-0E0,4.8399623E-3],"split_indices":[98,26,0,0,60,17,0,0,64,59,0,0,0],"split_type":[0,0,0,0,0,0,0,0,0,0,0,0,0],"sum_hessian":[2.234E3,1.594E3,6.4E2,3.31E2,1.263E3,1.148E3,1.15E2,8.1E1,1.067E3,9.86E2,8.1E1,2.6E1,9.6E2],"tree_param":{"num_deleted":"0","num_feature":"200","num_nodes":"13","size_leaf_vector":"1"}},{"base_weights":[-0E0,-0E0,-3.028903E-3,-0E0,1.6283676E-2,-0E0,-3.60131E-2,-0E0,4.9024038E-2,-0E0,-6.529714E-2,8.214024E-2,-0E0,-0E0,-8.5658364E-2,-0E0,1.05549775E-1,-0E0,-1.0424989E-1,4.9797534E-3,-0E0,-0E0,-5.456086E-3],"categories":[],"categories_nodes":[],"categories_segments":[],"categories_sizes":[],"default_left":[0,0,0,0,0,0,0,0,0,0,0,0,0,0,0,0,0,0,0,0,0,0,0],"id":30,"left_children":[1,3,5,-1,7,-1,9,-1,11,-1,13,15,-1,-1,17,-1,19,-1,21,-1,-1,-1,-1],"loss_changes":[8.859755E-3,3.1307733E-1,1.0931783E0,0E0,1.8300425E0,0E0,1.8387307E0,0E0,3.171639E0,0E0,1.9365149E0,1.7230749E0,0E0,0E0,2.0426097E0,0E0,1.9355273E0,0E0,2.287548E0,0E0,0E0,0E0,0E0],"parents":[2147483647,0,0,1,1,2,2,4,4,6,6,8,8,10,10,11,11,14,14,16,16,18,18],"right_children":[2,4,6,-1,8,-1,10,-1,12,-1,14,16,-1,-1,18,-1,20,-1,22,-1,-1,-1,-1],"split_conditions":[1.9681932E1,-4.0196975E3,-6.653961E3,-0E0,4.6137535E1,-0E0,4.9687014E0,-0E0,1.5833E3,-0E0,-1.2812743E4,-2.0290548E3,-0E0,-0E0,-1.1494855E5,-0E0,2.210088E4,-0E0,2.2216076E1,4.9797534E-3,-0E0,-0E0,-5.456086E-3],"split_indices":[31,31,60,0,26,0,20,0,198,0,32,63,0,0,67,0,14,0,24,0,0,0,0],"split_type":[0,0,0,0,0,0,0,0,0,0,0,0,0,0,0,0,0,0,0,0,0,0,0],"sum_hessian":[2.296E3,1.348E3,9.48E2,1.85E2,1.163E3,1.16E2,8.32E2,2.89E2,8.74E2,1.6E2,6.72E2,7.7E2,1.04E2,2.5E1,6.47E2,1.56E2,6.14E2,2.8E1,6.19E2,5.95E2,1.9E1,1.13E2,5.06E2],"tree_param":{"num_deleted":"0","num_feature":"200","num_nodes":"23","size_leaf_vector":"1"}},{"base_weights":[-0E0,-0E0,6.9921105E-3,-0E0,-9.6856505E-3,2.8409528E-2,-0E0,-3.7138354E-2,-0E0,-0E0,4.9528018E-2,-0E0,-6.6856444E-2,7.419753E-2,-0E0,-0E0,-9.4039105E-2,-0E0,8.6716175E-2,-5.0802995E-3,-0E0,-0E0,4.3726848E-3],"categories":[],"categories_nodes":[],"categories_segments":[],"categories_sizes":[],"default_left":[0,0,0,0,0,0,0,0,0,0,0,0,0,0,0,0,0,0,0,0,0,0,0],"id":31,"left_children":[1,3,5,-1,7,9,-1,11,-1,-1,13,-1,15,17,-1,-1,19,-1,21,-1,-1,-1,-1],"loss_changes":[8.950316E-2,4.2095203E-2,1.2387593E0,0E0,5.2990985E-1,2.156798E0,0E0,1.1610178E0,0E0,0E0,2.376512E0,0E0,1.3419844E0,1.8665657E0,0E0,0E0,1.9659889E0,0E0,1.6637096E0,0E0,0E0,0E0,0E0],"parents":[2147483647,0,0,1,1,2,2,4,4,5,5,7,7,10,10,12,12,13,13,16,16,18,18],"right_children":[2,4,6,-1,8,10,-1,12,-1,-1,14,-1,16,18,-1,-1,20,-1,22,-1,-1,-1,-1],"split_conditions":[0E0,-4.319021E2,1.7589552E2,-0E0,9.4139683E-1,0E0,-0E0,-5.6397983E3,-0E0,-0E0,1E0,-0E0,-4.7416733E3,-1.7471982E4,-0E0,-0E0,1E0,-0E0,2.5533398E3,-5.0802995E-3,-0E0,-0E0,4.3726848E-3],"split_indices":[191,98,97,0,7,137,0,9,0,0,127,0,32,50,0,0,157,0,89,0,0,0,0],"split_type":[0,0,0,0,0,0,0,0,0,0,0,0,0,0,0,0,0,0,0,0,0,0,0],"sum_hessian":[2.303E3,4.9E2,1.813E3,5.9E1,4.31E2,1.628E3,1.85E2,3.97E2,3.4E1,2.25E2,1.403E3,2.7E1,3.7E2,1.047E3,3.56E2,4E1,3.3E2,3.7E1,1.01E3,3.13E2,1.7E1,1.96E2,8.14E2],"tree_param":{"num_deleted":"0","num_feature":"200","num_nodes":"23","size_leaf_vector":"1"}},{"base_weights":[-0E0,-0E0,-1.3489062E-2,3.6781587E-2,-0E0,-6.1851267E-2,-0E0,6.3884586E-2,-0E0,-9.723279E-2,-0E0,9.717173E-2,-0E0,-0E0,-1.24156885E-1,-0E0,1.174769E-1,-0E0,-1.5505037E-1,-0E0,5.660021E-3,-7.654228E-3,-0E0],"categories":[],"categories_nodes":[],"categories_segments":[],"categories_sizes":[],"default_left":[0,0,0,0,0,0,0,0,0,0,0,0,0,0,0,0,0,0,0,0,0,0,0],"id":32,"left_children":[1,3,5,7,-1,9,-1,11,-1,13,-1,15,-1,-1,17,-1,19,-1,21,-1,-1,-1,-1],"loss_changes":[1.3095641E-1,1.0251075E0,2.1977484E0,1.9367284E0,0E0,3.0008216E0,0E0,2.087171E0,0E0,2.8206496E0,0E0,1.9579406E0,0E0,0E0,2.9979296E0,0E0,2.1827145E0,0E0,3.4781408E0,0E0,0E0,0E0,0E0],"parents":[2147483647,0,0,1,1,2,2,3,3,5,5,7,7,9,9,11,11,14,14,16,16,18,18],"right_children":[2,4,6,8,-1,10,-1,12,-1,14,-1,16,-1,-1,18,-1,20,-1,22,-1,-1,-1,-1],"split_conditions":[2.9428183E1,1.1955E3,5.7717285E1,1.1824977E4,-0E0,3.7963982E3,-0E0,3.7521994E2,-0E0,-7.757974E1,-0E0,-1.0149839E6,-0E0,-0E0,2.066697E1,-0E0,0E0,-0E0,3.1559558E3,-0E0,5.660021E-3,-7.654228E-3,-0E0],"split_indices":[98,198,24,64,0,35,0,65,0,100,0,17,0,0,24,0,112,0,90,0,0,0,0],"split_type":[0,0,0,0,0,0,0,0,0,0,0,0,0,0,0,0,0,0,0,0,0,0,0],"sum_hessian":[2.316E3,1.614E3,7.02E2,7.4E2,8.74E2,5.91E2,1.11E2,7.08E2,3.2E1,5.46E2,4.5E1,5.17E2,1.91E2,3.5E1,5.11E2,2.7E1,4.9E2,6.5E1,4.46E2,2.2E1,4.68E2,4.05E2,4.1E1],"tree_param":{"num_deleted":"0","num_feature":"200","num_nodes":"23","size_leaf_vector":"1"}},{"base_weights":[-0E0,2.232672E-3,-0E0,-0E0,3.536004E-2,-2.180427E-2,-0E0,-0E0,6.8378136E-2,-0E0,-4.6875298E-2,-0E0,9.759159E-2,-0E0,-8.140563E-2,1.2700118E-1,-0E0,-0E0,-1.0870729E-1,-0E0,5.7790373E-3,-0E0,-5.3645493E-3],"categories":[],"categories_nodes":[],"categories_segments":[],"categories_sizes":[],"default_left":[0,0,0,0,0,0,0,0,0,0,0,0,0,0,0,0,0,0,0,0,0,0,0],"id":33,"left_children":[1,3,5,-1,7,9,-1,-1,11,-1,13,-1,15,-1,17,19,-1,-1,21,-1,-1,-1,-1],"loss_changes":[4.833881E-3,9.2881364E-1,4.4153756E-1,0E0,1.3560702E0,1.4607024E0,0E0,0E0,1.9077473E0,0E0,2.2178197E0,0E0,1.8626294E0,0E0,2.7424622E0,1.1729794E0,0E0,0E0,2.3444905E0,0E0,0E0,0E0,0E0],"parents":[2147483647,0,0,1,1,2,2,4,4,5,5,8,8,10,10,12,12,14,14,15,15,18,18],"right_children":[2,4,6,-1,8,10,-1,-1,12,-1,14,-1,16,-1,18,20,-1,-1,22,-1,-1,-1,-1],"split_conditions":[7.2E1,-2.5963264E3,1.1764636E2,-0E0,4.7899796E1,-7.6454585E3,-0E0,-0E0,0E0,-0E0,-6.4E1,-0E0,1.276368E12,-0E0,-1.3151067E4,8.008792E-3,-0E0,-0E0,3.164646E0,-0E0,5.7790373E-3,-0E0,-5.3645493E-3],"split_indices":[0,82,35,0,26,38,0,0,137,0,39,0,12,0,52,40,0,0,20,0,0,0,0],"split_type":[0,0,0,0,0,0,0,0,0,0,0,0,0,0,0,0,0,0,0,0,0,0,0],"sum_hessian":[2.297E3,9.52E2,1.345E3,2.23E2,7.29E2,9.11E2,4.34E2,2.57E2,4.72E2,6.3E1,8.48E2,4.9E1,4.23E2,2.44E2,6.04E2,3.58E2,6.5E1,4.1E1,5.63E2,9E0,3.49E2,3.9E1,5.24E2],"tree_param":{"num_deleted":"0","num_feature":"200","num_nodes":"23","size_leaf_vector":"1"}},{"base_weights":[-0E0],"categories":[],"categories_nodes":[],"categories_segments":[],"categories_sizes":[],"default_left":[0],"id":34,"left_children":[-1],"loss_changes":[0E0],"parents":[2147483647],"right_children":[-1],"split_conditions":[-0E0],"split_indices":[0],"split_type":[0],"sum_hessian":[2.295E3],"tree_param":{"num_deleted":"0","num_feature":"200","num_nodes":"1","size_leaf_vector":"1"}},{"base_weights":[-0E0,-2.410066E-3,-0E0,-3.1865016E-2,-0E0,2.0361152E-2,-0E0,-8.799768E-2,-0E0,4.8944477E-2,-0E0,-0E0,-1.0905839E-1,8.060475E-2,-0E0,-1.265689E-1,-0E0,1.059563E-1,-0E0,-0E0,-5.902648E-3,-0E0,4.989629E-3],"categories":[],"categories_nodes":[],"categories_segments":[],"categories_sizes":[],"default_left":[0,0,0,0,0,0,0,0,0,0,0,0,0,0,0,0,0,0,0,0,0,0,0],"id":35,"left_children":[1,3,5,7,-1,9,-1,11,-1,13,-1,-1,15,17,-1,19,-1,21,-1,-1,-1,-1,-1],"loss_changes":[5.771939E-3,8.945848E-1,3.7175882E-1,3.7358828E0,0E0,1.6709837E0,0E0,2.3063645E0,0E0,2.1785667E0,0E0,0E0,1.991888E0,2.4105449E0,0E0,1.9858599E0,0E0,1.8331137E0,0E0,0E0,0E0,0E0,0E0],"parents":[2147483647,0,0,1,1,2,2,3,3,5,5,7,7,9,9,12,12,13,13,15,15,17,17],"right_children":[2,4,6,8,-1,10,-1,12,-1,14,-1,-1,16,18,-1,20,-1,22,-1,-1,-1,-1,-1],"split_conditions":[-8.259364E1,9.137361E3,2.015E3,3.297086E0,-0E0,2.1145222E9,-0E0,-1.5625E4,-0E0,1E0,-0E0,-0E0,-8.8547906E2,5.0001895E3,-0E0,-9.8091614E-1,-0E0,-1.717361E4,-0E0,-0E0,-5.902648E-3,-0E0,4.989629E-3],"split_indices":[56,61,2,73,0,16,0,34,0,187,0,0,88,28,0,7,0,39,0,0,0,0,0],"split_type":[0,0,0,0,0,0,0,0,0,0,0,0,0,0,0,0,0,0,0,0,0,0,0],"sum_hessian":[2.258E3,9.76E2,1.282E3,8.69E2,1.07E2,8.79E2,4.03E2,5.81E2,2.88E2,8.35E2,4.4E1,1.5E1,5.66E2,6.32E2,2.03E2,5.4E2,2.6E1,5.73E2,5.9E1,2.7E1,5.13E2,1.5E1,5.58E2],"tree_param":{"num_deleted":"0","num_feature":"200","num_nodes":"23","size_leaf_vector":"1"}},{"base_weights":[-0E0,5.0992734E-4,-0E0,3.656353E-2,-0E0,-0E0,-4.9997387E-3,-0E0,6.292338E-2,-0E0,-2.6458971E-2,-0E0,8.768775E-2,-4.4168968E-2,-0E0,-0E0,1.0103455E-1,-0E0,-5.823993E-2,-0E0,4.855271E-3,-0E0,-3.1023712E-3],"categories":[],"categories_nodes":[],"categories_segments":[],"categories_sizes":[],"default_left":[0,0,0,0,0,0,0,0,0,0,0,0,0,0,0,0,0,0,0,0,0,0,0],"id":36,"left_children":[1,3,5,7,-1,-1,9,-1,11,-1,13,-1,15,17,-1,-1,19,-1,21,-1,-1,-1,-1],"loss_changes":[3.249595E-4,1.2934113E0,2.1590732E-2,2.08248E0,0E0,0E0,4.6966705E-1,0E0,2.5268886E0,0E0,7.353097E-1,0E0,1.7602267E0,8.720608E-1,0E0,0E0,2.0503898E0,0E0,8.953228E-1,0E0,0E0,0E0,0E0],"parents":[2147483647,0,0,1,1,2,2,3,3,6,6,8,8,10,10,12,12,13,13,16,16,18,18],"right_children":[2,4,6,8,-1,-1,10,-1,12,-1,14,-1,16,18,-1,-1,20,-1,22,-1,-1,-1,-1],"split_conditions":[2.013E3,7.034761E1,-5.314422E2,0E0,-0E0,-0E0,-2.5212737E3,-0E0,-4.0665117E4,-0E0,1.7715503E3,-0E0,-9.95927E4,-5.84148E4,-0E0,-0E0,-2.1036914E4,-0E0,-1.5972756E5,-0E0,4.855271E-3,-0E0,-3.1023712E-3],"split_indices":[2,98,39,137,0,0,64,0,17,0,35,0,85,15,0,0,84,0,16,0,0,0,0],"split_type":[0,0,0,0,0,0,0,0,0,0,0,0,0,0,0,0,0,0,0,0,0,0,0],"sum_hessian":[2.292E3,1.232E3,1.06E3,9.5E2,2.82E2,2.14E2,8.46E2,1.15E2,8.35E2,1.62E2,6.84E2,8.5E1,7.5E2,6.11E2,7.3E1,1.7E1,7.33E2,1E1,6.01E2,5.3E1,6.8E2,9.2E1,5.09E2],"tree_param":{"num_deleted":"0","num_feature":"200","num_nodes":"23","size_leaf_vector":"1"}},{"base_weights":[-0E0,9.756458E-3,-2.9989317E-2,-0E0,4.681044E-2,-8.3378345E-2,-0E0,-0E0,6.759867E-2,-0E0,-1.05038166E-1,-0E0,8.068272E-2,-0E0,-1.285271E-1,9.545352E-2,-0E0,-0E0,-1.6110481E-1,-0E0,4.732378E-3,-0E0,-7.939499E-3],"categories":[],"categories_nodes":[],"categories_segments":[],"categories_sizes":[],"default_left":[0,0,0,0,0,0,0,0,0,0,0,0,0,0,0,0,0,0,0,0,0,0,0],"id":37,"left_children":[1,3,5,-1,7,9,-1,-1,11,-1,13,-1,15,-1,17,19,-1,-1,21,-1,-1,-1,-1],"loss_changes":[1.1302232E0,1.9405478E0,4.696528E0,0E0,1.8144059E0,3.143866E0,0E0,0E0,1.2977235E0,0E0,3.7596312E0,0E0,1.390758E0,0E0,3.8579464E0,1.361177E0,0E0,0E0,3.9162388E0,0E0,0E0,0E0,0E0],"parents":[2147483647,0,0,1,1,2,2,4,4,5,5,8,8,10,10,12,12,14,14,15,15,18,18],"right_children":[2,4,6,-1,8,10,-1,-1,12,-1,14,-1,16,-1,18,20,-1,-1,22,-1,-1,-1,-1],"split_conditions":[1.7091192E6,-1.4922017E3,4.21875E2,-0E0,-6.39201E1,-3.008016E4,-0E0,-0E0,-1.7584238E4,-0E0,-1.0940976E4,-0E0,1.3778E3,-0E0,4.574326E3,-8.776087E-1,-0E0,-0E0,-1.0138348E4,-0E0,4.732378E-3,-0E0,-7.939499E-3],"split_indices":[16,62,37,0,100,34,0,0,80,0,32,0,198,0,43,6,0,0,52,0,0,0,0],"split_type":[0,0,0,0,0,0,0,0,0,0,0,0,0,0,0,0,0,0,0,0,0,0,0],"sum_hessian":[2.294E3,1.182E3,1.112E3,2.62E2,9.2E2,8.04E2,3.08E2,9.1E1,8.29E2,1.9E1,7.85E2,5.3E1,7.76E2,3.9E1,7.46E2,7.02E2,7.4E1,1.29E2,6.17E2,1.21E2,5.81E2,8.7E1,5.3E2],"tree_param":{"num_deleted":"0","num_feature":"200","num_nodes":"23","size_leaf_vector":"1"}},{"base_weights":[-0E0,-6.761574E-3,-0E0,-0E0,-5.166112E-2,-0E0,-7.4074484E-2,-0E0,-9.6117884E-2,-1.20131604E-1,-0E0,-5.786879E-3,-0E0],"categories":[],"categories_nodes":[],"categories_segments":[],"categories_sizes":[],"default_left":[0,0,0,0,0,0,0,0,0,0,0,0,0],"id":38,"left_children":[1,3,-1,-1,5,-1,7,-1,9,11,-1,-1,-1],"loss_changes":[7.039426E-2,2.8032317E0,0E0,0E0,2.282643E0,0E0,2.7494226E0,0E0,3.0005527E0,3.0114136E0,0E0,0E0,0E0],"parents":[2147483647,0,0,1,1,4,4,6,6,8,8,9,9],"right_children":[2,4,-1,-1,6,-1,8,-1,10,12,-1,-1,-1],"split_conditions":[-4.580645E3,-1.1844568E2,-0E0,-0E0,-2.5907035E4,-0E0,7.939767E-2,-0E0,3.4429343E3,2.1258209E4,-0E0,-5.786879E-3,-0E0],"split_indices":[88,68,0,0,15,0,5,0,38,79,0,0,0],"split_type":[0,0,0,0,0,0,0,0,0,0,0,0,0],"sum_hessian":[2.283E3,1.522E3,7.61E2,4.63E2,1.059E3,1.37E2,9.22E2,8.4E1,8.38E2,7.38E2,1E2,6.86E2,5.2E1],"tree_param":{"num_deleted":"0","num_feature":"200","num_nodes":"13","size_leaf_vector":"1"}},{"base_weights":[-0E0,-0E0,9.286016E-3,-0E0,3.072506E-2,-0E0,6.016485E-2,8.2634196E-2,-0E0,9.425139E-2,-0E0,4.3621776E-3,-0E0],"categories":[],"categories_nodes":[],"categories_segments":[],"categories_sizes":[],"default_left":[0,0,0,0,0,0,0,0,0,0,0,0,0],"id":39,"left_children":[1,-1,3,-1,5,-1,7,9,-1,11,-1,-1,-1],"loss_changes":[1.6226085E-1,0E0,1.206317E0,0E0,2.2393565E0,0E0,2.078217E0,1.5690331E0,0E0,1.6195893E0,0E0,0E0,0E0],"parents":[2147483647,0,0,2,2,4,4,6,6,7,7,9,9],"right_children":[2,-1,4,-1,6,-1,8,10,-1,12,-1,-1,-1],"split_conditions":[-6.6739624E3,-0E0,-3.8782444E3,-0E0,4.8108345E1,-0E0,6.845769E11,1.9683E4,-0E0,1.0360302E4,-0E0,4.3621776E-3,-0E0],"split_indices":[84,0,82,0,26,0,12,31,0,33,0,0,0],"split_type":[0,0,0,0,0,0,0,0,0,0,0,0,0],"sum_hessian":[2.298E3,4.34E2,1.864E3,4.32E2,1.432E3,4.53E2,9.79E2,8.15E2,1.64E2,7.99E2,1.6E1,7.72E2,2.7E1],"tree_param":{"num_deleted":"0","num_feature":"200","num_nodes":"13","size_leaf_vector":"1"}},{"base_weights":[-0E0,-1.7791358E-3,-0E0,-4.44597E-2,-0E0,-7.236721E-2,-0E0,-9.477746E-2,-0E0,-1.2163892E-1,-0E0,-0E0,-5.872481E-3],"categories":[],"categories_nodes":[],"categories_segments":[],"categories_sizes":[],"default_left":[0,0,0,0,0,0,0,0,0,0,0,0,0],"id":40,"left_children":[1,3,-1,5,-1,7,-1,9,-1,11,-1,-1,-1],"loss_changes":[4.56351E-3,1.7976007E0,0E0,2.543089E0,0E0,2.5689583E0,0E0,2.4031353E0,0E0,2.2248697E0,0E0,0E0,0E0],"parents":[2147483647,0,0,1,1,3,3,5,5,7,7,9,9],"right_children":[2,4,-1,6,-1,8,-1,10,-1,12,-1,-1,-1],"split_conditions":[2.1775264E2,1.9611693E2,-0E0,9.5754296E-1,-0E0,2.810615E3,-0E0,7.786756E2,-0E0,1.0612118E3,-0E0,-0E0,-5.872481E-3],"split_indices":[61,58,0,7,0,90,0,37,0,43,0,0,0],"split_type":[0,0,0,0,0,0,0,0,0,0,0,0,0],"sum_hessian":[2.29E3,1.424E3,8.66E2,8.94E2,5.3E2,8.12E2,8.2E1,7.52E2,6E1,6.12E2,1.4E2,6.3E1,5.49E2],"tree_param":{"num_deleted":"0","num_feature":"200","num_nodes":"13","size_leaf_vector":"1"}},{"base_weights":[-0E0],"categories":[],"categories_nodes":[],"categories_segments":[],"categories_sizes":[],"default_left":[0],"id":41,"left_children":[-1],"loss_changes":[0E0],"parents":[2147483647],"right_children":[-1],"split_conditions":[-0E0],"split_indices":[0],"split_type":[0],"sum_hessian":[2.243E3],"tree_param":{"num_deleted":"0","num_feature":"200","num_nodes":"1","size_leaf_vector":"1"}},{"base_weights":[-0E0,1.8301094E-2,-0E0,6.611921E-2,-0E0,-2.3310686E-2,-0E0,-0E0,1.07757285E-1,-0E0,-4.8736565E-2,-0E0,1.4389417E-1,-7.6826185E-2,-0E0,-0E0,1.6808622E-1,-9.130688E-2,-0E0,-0E0,7.3313303E-3,-0E0,-4.142938E-3],"categories":[],"categories_nodes":[],"categories_segments":[],"categories_sizes":[],"default_left":[0,0,0,0,0,0,0,0,0,0,0,0,0,0,0,0,0,0,0,0,0,0,0],"id":42,"left_children":[1,3,5,7,-1,9,-1,-1,11,-1,13,-1,15,17,-1,-1,19,21,-1,-1,-1,-1,-1],"loss_changes":[3.4923813E-1,3.4310992E0,5.60624E-1,3.6942973E0,0E0,1.272405E0,0E0,0E0,4.735822E0,0E0,2.1375384E0,0E0,3.0664816E0,1.3210552E0,0E0,0E0,1.5695124E0,1.0510817E0,0E0,0E0,0E0,0E0,0E0],"parents":[2147483647,0,0,1,1,2,2,3,3,5,5,8,8,10,10,12,12,13,13,16,16,17,17],"right_children":[2,4,6,8,-1,10,-1,-1,12,-1,14,-1,16,18,-1,-1,20,22,-1,-1,-1,-1,-1],"split_conditions":[1.1955E3,7.3079895E1,5.166246E10,-6.072676E-1,-0E0,-2.5005281E2,-0E0,-0E0,-3.1121204E3,-0E0,2.460375E3,-0E0,0E0,9.7876906E-1,-0E0,-0E0,-1.6679705E4,-1.1733227E5,-0E0,-0E0,7.3313303E-3,-0E0,-4.142938E-3],"split_indices":[198,98,18,7,0,39,0,0,29,0,35,0,158,7,0,0,83,85,0,0,0,0,0],"split_type":[0,0,0,0,0,0,0,0,0,0,0,0,0,0,0,0,0,0,0,0,0,0,0],"sum_hessian":[2.274E3,1.025E3,1.249E3,8.47E2,1.78E2,1.014E3,2.35E2,2.21E2,6.26E2,2.6E2,7.54E2,5.4E1,5.72E2,6.55E2,9.9E1,4.9E1,5.23E2,6.17E2,3.8E1,1E1,5.13E2,9E0,6.08E2],"tree_param":{"num_deleted":"0","num_feature":"200","num_nodes":"23","size_leaf_vector":"1"}},{"base_weights":[-0E0],"categories":[],"categories_nodes":[],"categories_segments":[],"categories_sizes":[],"default_left":[0],"id":43,"left_children":[-1],"loss_changes":[0E0],"parents":[2147483647],"right_children":[-1],"split_conditions":[-0E0],"split_indices":[0],"split_type":[0],"sum_hessian":[2.257E3],"tree_param":{"num_deleted":"0","num_feature":"200","num_nodes":"1","size_leaf_vector":"1"}},{"base_weights":[-0E0,-4.675749E-3,-0E0,-5.230579E-2,-0E0,-0E0,2.4990447E-2,-0E0,-7.7079736E-2,6.0836084E-2,-0E0,-9.582159E-2,-0E0,1.1138481E-1,-0E0,-1.1547292E-1,-0E0,1.5436241E-1,-0E0,-5.474875E-3,-0E0,-0E0,7.523489E-3],"categories":[],"categories_nodes":[],"categories_segments":[],"categories_sizes":[],"default_left":[0,0,0,0,0,0,0,0,0,0,0,0,0,0,0,0,0,0,0,0,0,0,0],"id":44,"left_children":[1,3,5,7,-1,-1,9,-1,11,13,-1,15,-1,17,-1,19,-1,21,-1,-1,-1,-1,-1],"loss_changes":[9.744602E-3,1.0674311E0,8.1732464E-1,1.2026118E0,0E0,0E0,2.9344811E0,0E0,1.1424406E0,3.7631001E0,0E0,1.2409313E0,0E0,3.5344906E0,0E0,1.120482E0,0E0,3.8168955E0,0E0,0E0,0E0,0E0,0E0],"parents":[2147483647,0,0,1,1,2,2,3,3,6,6,8,8,9,9,11,11,13,13,15,15,17,17],"right_children":[2,4,6,8,-1,-1,10,-1,12,14,-1,16,-1,18,-1,20,-1,22,-1,-1,-1,-1,-1],"split_conditions":[-6.3984097E3,1E0,5.513705E2,1.717361E4,-0E0,-0E0,5.306453E2,-0E0,5.8046665E3,1.9681932E1,-0E0,1.3512426E4,-0E0,7.422809E-1,-0E0,7.880628E3,-0E0,-8.028397E2,-0E0,-5.474875E-3,-0E0,-0E0,7.523489E-3],"split_indices":[84,154,40,51,0,0,90,0,63,31,0,65,0,6,0,33,0,70,0,0,0,0,0],"split_type":[0,0,0,0,0,0,0,0,0,0,0,0,0,0,0,0,0,0,0,0,0,0,0],"sum_hessian":[2.279E3,4.28E2,1.851E3,3.76E2,5.2E1,5.6E2,1.291E3,1E1,3.66E2,9.96E2,2.95E2,3.55E2,1.1E1,5.88E2,4.08E2,3.32E2,2.3E1,4.46E2,1.42E2,3.09E2,2.3E1,1.9E1,4.27E2],"tree_param":{"num_deleted":"0","num_feature":"200","num_nodes":"23","size_leaf_vector":"1"}},{"base_weights":[-0E0,-0E0,-6.807064E-3,-0E0,1.9949388E-3,-0E0,-4.2727917E-2,2.2530364E-2,-0E0,-8.039013E-2,-0E0,-0E0,4.990254E-2,-1.0984126E-1,-0E0,7.097386E-2,-0E0,-0E0,-1.4160126E-1,3.6684775E-3,-0E0,-0E0,-7.1693454E-3],"categories":[],"categories_nodes":[],"categories_segments":[],"categories_sizes":[],"default_left":[0,0,0,0,0,0,0,0,0,0,0,0,0,0,0,0,0,0,0,0,0,0,0],"id":45,"left_children":[1,3,5,-1,7,-1,9,11,-1,13,-1,-1,15,17,-1,19,-1,-1,21,-1,-1,-1,-1],"loss_changes":[5.549768E-2,3.6403837E-3,1.4246125E0,0E0,4.332758E-1,0E0,2.8544636E0,1.2308619E0,0E0,3.2751222E0,0E0,0E0,1.52445E0,4.114468E0,0E0,1.5345118E0,0E0,0E0,4.4164267E0,0E0,0E0,0E0,0E0],"parents":[2147483647,0,0,1,1,2,2,4,4,6,6,7,7,9,9,12,12,13,13,15,15,18,18],"right_children":[2,4,6,-1,8,-1,10,12,-1,14,-1,-1,16,18,-1,20,-1,-1,22,-1,-1,-1,-1],"split_conditions":[-4.5525222E5,-7.254454E3,1.0046121E1,-0E0,1.3145596E4,-0E0,1.2596864E3,4.5817425E1,-0E0,9.7876906E-1,-0E0,-0E0,1.4247744E4,-9.726578E-1,-0E0,1.0360302E4,-0E0,-0E0,-1.0940976E4,3.6684775E-3,-0E0,-0E0,-7.1693454E-3],"split_indices":[12,84,21,0,60,0,35,26,0,7,0,0,64,7,0,33,0,0,30,0,0,0,0],"split_type":[0,0,0,0,0,0,0,0,0,0,0,0,0,0,0,0,0,0,0,0,0,0,0],"sum_hessian":[2.267E3,1.087E3,1.18E3,1.9E2,8.97E2,3.87E2,7.93E2,8.43E2,5.4E1,6.53E2,1.4E2,1.91E2,6.52E2,6.13E2,4E1,6.16E2,3.6E1,4.6E1,5.67E2,5.77E2,3.9E1,5.3E1,5.14E2],"tree_param":{"num_deleted":"0","num_feature":"200","num_nodes":"23","size_leaf_vector":"1"}},{"base_weights":[-0E0],"categories":[],"categories_nodes":[],"categories_segments":[],"categories_sizes":[],"default_left":[0],"id":46,"left_children":[-1],"loss_changes":[0E0],"parents":[2147483647],"right_children":[-1],"split_conditions":[-0E0],"split_indices":[0],"split_type":[0],"sum_hessian":[2.297E3],"tree_param":{"num_deleted":"0","num_feature":"200","num_nodes":"1","size_leaf_vector":"1"}},{"base_weights":[-0E0],"categories":[],"categories_nodes":[],"categories_segments":[],"categories_sizes":[],"default_left":[0],"id":47,"left_children":[-1],"loss_changes":[0E0],"parents":[2147483647],"right_children":[-1],"split_conditions":[-0E0],"split_indices":[0],"split_type":[0],"sum_hessian":[2.321E3],"tree_param":{"num_deleted":"0","num_feature":"200","num_nodes":"1","size_leaf_vector":"1"}},{"base_weights":[-0E0],"categories":[],"categories_nodes":[],"categories_segments":[],"categories_sizes":[],"default_left":[0],"id":48,"left_children":[-1],"loss_changes":[0E0],"parents":[2147483647],"right_children":[-1],"split_conditions":[-0E0],"split_indices":[0],"split_type":[0],"sum_hessian":[2.282E3],"tree_param":{"num_deleted":"0","num_feature":"200","num_nodes":"1","size_leaf_vector":"1"}},{"base_weights":[-0E0],"categories":[],"categories_nodes":[],"categories_segments":[],"categories_sizes":[],"default_left":[0],"id":49,"left_children":[-1],"loss_changes":[0E0],"parents":[2147483647],"right_children":[-1],"split_conditions":[-0E0],"split_indices":[0],"split_type":[0],"sum_hessian":[2.3E3],"tree_param":{"num_deleted":"0","num_feature":"200","num_nodes":"1","size_leaf_vector":"1"}},{"base_weights":[-0E0,1.1698924E-2,-0E0,-0E0,3.4223888E-2,-1.5504285E-2,-0E0,5.489273E-2,-0E0,-0E0,-4.7380365E-2,7.30029E-2,-0E0,-9.5685184E-2,-0E0,-0E0,8.8227406E-2,-0E0,-1.3112248E-1,-0E0,4.1107005E-3,-0E0,-6.765981E-3],"categories":[],"categories_nodes":[],"categories_segments":[],"categories_sizes":[],"default_left":[0,0,0,0,0,0,0,0,0,0,0,0,0,0,0,0,0,0,0,0,0,0,0],"id":50,"left_children":[1,3,5,-1,7,9,-1,11,-1,-1,13,15,-1,17,-1,-1,19,-1,21,-1,-1,-1,-1],"loss_changes":[1.6762102E-1,1.0349494E0,1.9368115E-1,0E0,1.4241052E0,1.4579349E0,0E0,1.8911805E0,0E0,0E0,3.472983E0,1.6527328E0,0E0,3.9657311E0,0E0,0E0,1.490879E0,0E0,3.9874191E0,0E0,0E0,0E0,0E0],"parents":[2147483647,0,0,1,1,2,2,4,4,5,5,7,7,10,10,11,11,13,13,16,16,18,18],"right_children":[2,4,6,-1,8,10,-1,12,-1,-1,14,16,-1,18,-1,-1,20,-1,22,-1,-1,-1,-1],"split_conditions":[2.0429219E6,-7.296607E3,3.223353E3,-0E0,4.580107E3,-3.7220663E2,-0E0,1.5811123E4,-0E0,-0E0,-4.221893E3,0E0,-0E0,-8.489694E3,-0E0,-0E0,0E0,-0E0,0E0,-0E0,4.1107005E-3,-0E0,-6.765981E-3],"split_indices":[16,83,79,0,62,97,0,59,0,0,88,176,0,34,0,0,111,0,114,0,0,0,0],"split_type":[0,0,0,0,0,0,0,0,0,0,0,0,0,0,0,0,0,0,0,0,0,0,0],"sum_hessian":[2.286E3,1.207E3,1.079E3,1.98E2,1.009E3,7.88E2,2.91E2,8.54E2,1.55E2,7E1,7.18E2,8.3E2,2.4E1,5.42E2,1.76E2,5.5E1,7.75E2,3.1E1,5.11E2,2.5E1,7.5E2,4.5E1,4.66E2],"tree_param":{"num_deleted":"0","num_feature":"200","num_nodes":"23","size_leaf_vector":"1"}},{"base_weights":[-0E0,1.1077014E-2,-0E0,-0E0,3.4048617E-2,-0E0,5.9003633E-2,-0E0,7.439306E-2,8.95783E-2,-0E0,-0E0,4.472788E-3],"categories":[],"categories_nodes":[],"categories_segments":[],"categories_sizes":[],"default_left":[0,0,0,0,0,0,0,0,0,0,0,0,0],"id":51,"left_children":[1,3,-1,-1,5,-1,7,-1,9,11,-1,-1,-1],"loss_changes":[1.9505896E-1,1.3662044E0,0E0,0E0,2.3021457E0,0E0,1.9516168E0,0E0,2.1187286E0,2.3301845E0,0E0,0E0,0E0],"parents":[2147483647,0,0,1,1,4,4,6,6,8,8,9,9],"right_children":[2,4,-1,-1,6,-1,8,-1,10,12,-1,-1,-1],"split_conditions":[3.339553E1,-4.2491714E3,-0E0,-0E0,1.3299564E1,-0E0,0E0,-0E0,1.5786119E2,-4.612234E3,-0E0,-0E0,4.472788E-3],"split_indices":[97,63,0,0,23,0,111,0,98,65,0,0,0],"split_type":[0,0,0,0,0,0,0,0,0,0,0,0,0],"sum_hessian":[2.304E3,1.572E3,7.32E2,2.43E2,1.329E3,2.37E2,1.092E3,5.9E1,1.033E3,9.71E2,6.2E1,1.2E2,8.51E2],"tree_param":{"num_deleted":"0","num_feature":"200","num_nodes":"13","size_leaf_vector":"1"}},{"base_weights":[-0E0],"categories":[],"categories_nodes":[],"categories_segments":[],"categories_sizes":[],"default_left":[0],"id":52,"left_children":[-1],"loss_changes":[0E0],"parents":[2147483647],"right_children":[-1],"split_conditions":[-0E0],"split_indices":[0],"split_type":[0],"sum_hessian":[2.326E3],"tree_param":{"num_deleted":"0","num_feature":"200","num_nodes":"1","size_leaf_vector":"1"}},{"base_weights":[-0E0,-7.951215E-3,-0E0,-5.078637E-2,-0E0,-0E0,2.1040753E-2,-8.313332E-2,-0E0,5.5371843E-2,-0E0,-0E0,-1.112825E-1,7.6382756E-2,-0E0,-1.4804508E-1,-0E0,-0E0,9.134728E-2,-0E0,-7.1506794E-3,-0E0,4.3802173E-3],"categories":[],"categories_nodes":[],"categories_segments":[],"categories_sizes":[],"default_left":[0,0,0,0,0,0,0,0,0,0,0,0,0,0,0,0,0,0,0,0,0,0,0],"id":53,"left_children":[1,3,5,7,-1,-1,9,11,-1,13,-1,-1,15,17,-1,19,-1,-1,21,-1,-1,-1,-1],"loss_changes":[6.832506E-2,2.2806532E0,4.470162E-1,3.053602E0,0E0,0E0,1.7075508E0,3.6464996E0,0E0,1.7586293E0,0E0,0E0,4.314353E0,1.2829783E0,0E0,2.9951944E0,0E0,0E0,1.1686821E0,0E0,0E0,0E0,0E0],"parents":[2147483647,0,0,1,1,2,2,3,3,6,6,7,7,9,9,12,12,13,13,15,15,18,18],"right_children":[2,4,6,8,-1,-1,10,12,-1,14,-1,-1,16,18,-1,20,-1,-1,22,-1,-1,-1,-1],"split_conditions":[-1.25E-1,1E0,-4.703587E3,1.2596864E3,-0E0,-0E0,2.015E3,7.939767E-2,-0E0,-1.4034395E3,-0E0,-0E0,-9.5881464E2,-3.005557E5,-0E0,-9.389995E3,-0E0,-0E0,0E0,-0E0,-7.1506794E-3,-0E0,4.3802173E-3],"split_indices":[30,119,83,35,0,0,2,5,0,91,0,0,67,17,0,14,0,0,158,0,0,0,0],"split_type":[0,0,0,0,0,0,0,0,0,0,0,0,0,0,0,0,0,0,0,0,0,0,0],"sum_hessian":[2.334E3,1.063E3,1.271E3,8.93E2,1.7E2,2.79E2,9.92E2,7.64E2,1.29E2,6.85E2,3.07E2,5.1E1,7.13E2,6.53E2,3.2E1,5.92E2,1.21E2,4.8E1,6.05E2,6.8E1,5.24E2,6.1E1,5.44E2],"tree_param":{"num_deleted":"0","num_feature":"200","num_nodes":"23","size_leaf_vector":"1"}},{"base_weights":[-0E0],"categories":[],"categories_nodes":[],"categories_segments":[],"categories_sizes":[],"default_left":[0],"id":54,"left_children":[-1],"loss_changes":[0E0],"parents":[2147483647],"right_children":[-1],"split_conditions":[-0E0],"split_indices":[0],"split_type":[0],"sum_hessian":[2.287E3],"tree_param":{"num_deleted":"0","num_feature":"200","num_nodes":"1","size_leaf_vector":"1"}},{"base_weights":[-0E0],"categories":[],"categories_nodes":[],"categories_segments":[],"categories_sizes":[],"default_left":[0],"id":55,"left_children":[-1],"loss_changes":[0E0],"parents":[2147483647],"right_children":[-1],"split_conditions":[-0E0],"split_indices":[0],"split_type":[0],"sum_hessian":[2.283E3],"tree_param":{"num_deleted":"0","num_feature":"200","num_nodes":"1","size_leaf_vector":"1"}},{"base_weights":[-0E0],"categories":[],"categories_nodes":[],"categories_segments":[],"categories_sizes":[],"default_left":[0],"id":56,"left_children":[-1],"loss_changes":[0E0],"parents":[2147483647],"right_children":[-1],"split_conditions":[-0E0],"split_indices":[0],"split_type":[0],"sum_hessian":[2.335E3],"tree_param":{"num_deleted":"0","num_feature":"200","num_nodes":"1","size_leaf_vector":"1"}},{"base_weights":[-0E0,-0E0,-1.3408522E-2,-3.322164E-2,-0E0,-0E0,-6.9767445E-2,-0E0,-9.217246E-2,-0E0,-1.16473705E-1,-5.8289743E-3,-0E0],"categories":[],"categories_nodes":[],"categories_segments":[],"categories_sizes":[],"default_left":[0,0,0,0,0,0,0,0,0,0,0,0,0],"id":57,"left_children":[1,-1,3,5,-1,-1,7,-1,9,-1,11,-1,-1],"loss_changes":[3.4819984E-1,0E0,1.3776419E0,3.3203866E0,0E0,0E0,3.005371E0,0E0,3.7471237E0,0E0,3.6665812E0,0E0,0E0],"parents":[2147483647,0,0,2,2,3,3,6,6,8,8,10,10],"right_children":[2,-1,4,6,-1,-1,8,-1,10,-1,12,-1,-1],"split_conditions":[7.986E2,-0E0,9.7030615E2,1.1390625E4,-0E0,-0E0,-2.9035783E4,-0E0,-5.905186E3,-0E0,1E0,-5.8289743E-3,-0E0],"split_indices":[197,0,35,45,0,0,77,0,87,0,154,0,0],"split_type":[0,0,0,0,0,0,0,0,0,0,0,0,0],"sum_hessian":[2.267E3,3.48E2,1.919E3,1.546E3,3.73E2,5.27E2,1.019E3,8.9E1,9.3E2,7.8E1,8.52E2,7.53E2,9.9E1],"tree_param":{"num_deleted":"0","num_feature":"200","num_nodes":"13","size_leaf_vector":"1"}},{"base_weights":[-0E0],"categories":[],"categories_nodes":[],"categories_segments":[],"categories_sizes":[],"default_left":[0],"id":58,"left_children":[-1],"loss_changes":[0E0],"parents":[2147483647],"right_children":[-1],"split_conditions":[-0E0],"split_indices":[0],"split_type":[0],"sum_hessian":[2.306E3],"tree_param":{"num_deleted":"0","num_feature":"200","num_nodes":"1","size_leaf_vector":"1"}},{"base_weights":[-0E0,-0E0,-2.5323138E-2,-0E0,3.375347E-2,-5.1712237E-2,-0E0,5.9412584E-2,-0E0,-7.570004E-2,-0E0,-0E0,7.3140346E-2,-0E0,-9.29974E-2,9.117184E-2,-0E0,-0E0,-1.2311751E-1,-0E0,4.437623E-3,-0E0,-6.3159256E-3],"categories":[],"categories_nodes":[],"categories_segments":[],"categories_sizes":[],"default_left":[0,0,0,0,0,0,0,0,0,0,0,0,0,0,0,0,0,0,0,0,0,0,0],"id":59,"left_children":[1,3,5,-1,7,9,-1,11,-1,13,-1,-1,15,-1,17,19,-1,-1,21,-1,-1,-1,-1],"loss_changes":[7.2508675E-1,1.1275842E0,1.8654201E0,0E0,2.0800643E0,2.639829E0,0E0,1.5358675E0,0E0,2.377934E0,0E0,0E0,1.9289336E0,0E0,1.9066544E0,2.1514363E0,0E0,0E0,3.1059465E0,0E0,0E0,0E0,0E0],"parents":[2147483647,0,0,1,1,2,2,4,4,5,5,7,7,9,9,12,12,14,14,15,15,18,18],"right_children":[2,4,6,-1,8,10,-1,12,-1,14,-1,-1,16,-1,18,20,-1,-1,22,-1,-1,-1,-1],"split_conditions":[1.3413723E5,-7.254454E3,1.4428923E3,-0E0,1.827889E4,9.750985E-1,-0E0,-6.57136E4,-0E0,-9.896398E-1,-0E0,-0E0,2.018E3,-0E0,6.3623857E0,0E0,-0E0,-0E0,8.242498E3,-0E0,4.437623E-3,-0E0,-6.3159256E-3],"split_indices":[12,84,35,0,85,7,0,78,0,7,0,0,2,0,20,111,0,0,47,0,0,0,0],"split_type":[0,0,0,0,0,0,0,0,0,0,0,0,0,0,0,0,0,0,0,0,0,0,0],"sum_hessian":[2.284E3,1.171E3,1.113E3,1.99E2,9.72E2,9.51E2,1.62E2,8.91E2,8.1E1,8.95E2,5.6E1,2.2E1,8.69E2,3.3E1,8.62E2,7.85E2,8.4E1,2.52E2,6.1E2,4.4E1,7.41E2,9.2E1,5.18E2],"tree_param":{"num_deleted":"0","num_feature":"200","num_nodes":"23","size_leaf_vector":"1"}},{"base_weights":[-0E0],"categories":[],"categories_nodes":[],"categories_segments":[],"categories_sizes":[],"default_left":[0],"id":60,"left_children":[-1],"loss_changes":[0E0],"parents":[2147483647],"right_children":[-1],"split_conditions":[-0E0],"split_indices":[0],"split_type":[0],"sum_hessian":[2.282E3],"tree_param":{"num_deleted":"0","num_feature":"200","num_nodes":"1","size_leaf_vector":"1"}},{"base_weights":[-0E0],"categories":[],"categories_nodes":[],"categories_segments":[],"categories_sizes":[],"default_left":[0],"id":61,"left_children":[-1],"loss_changes":[0E0],"parents":[2147483647],"right_children":[-1],"split_conditions":[-0E0],"split_indices":[0],"split_type":[0],"sum_hessian":[2.251E3],"tree_param":{"num_deleted":"0","num_feature":"200","num_nodes":"1","size_leaf_vector":"1"}},{"base_weights":[-0E0,-0E0,6.191188E-3,3.1130252E-2,-0E0,-0E0,5.444974E-2,-0E0,8.583184E-2,-0E0,1.0487055E-1,5.1752217E-3,-0E0],"categories":[],"categories_nodes":[],"categories_segments":[],"categories_sizes":[],"default_left":[0,0,0,0,0,0,0,0,0,0,0,0,0],"id":62,"left_children":[1,-1,3,5,-1,-1,7,-1,9,-1,11,-1,-1],"loss_changes":[6.821809E-2,0E0,1.3938707E0,2.0799851E0,0E0,0E0,3.3809388E0,0E0,2.9609537E0,0E0,1.9113932E0,0E0,0E0],"parents":[2147483647,0,0,2,2,3,3,6,6,8,8,10,10],"right_children":[2,-1,4,6,-1,-1,8,-1,10,-1,12,-1,-1],"split_conditions":[-1.4156046E3,-0E0,1.2250262E3,4.476948E1,-0E0,-0E0,-5.4104355E3,-0E0,-1.2812743E4,-0E0,2.017E3,5.1752217E-3,-0E0],"split_indices":[63,0,33,26,0,0,83,0,31,0,2,0,0],"split_type":[0,0,0,0,0,0,0,0,0,0,0,0,0],"sum_hessian":[2.332E3,5.7E2,1.762E3,1.491E3,2.71E2,3.14E2,1.177E3,2.55E2,9.22E2,4.1E1,8.81E2,7.28E2,1.53E2],"tree_param":{"num_deleted":"0","num_feature":"200","num_nodes":"13","size_leaf_vector":"1"}},{"base_weights":[-0E0],"categories":[],"categories_nodes":[],"categories_segments":[],"categories_sizes":[],"default_left":[0],"id":63,"left_children":[-1],"loss_changes":[0E0],"parents":[2147483647],"right_children":[-1],"split_conditions":[-0E0],"split_indices":[0],"split_type":[0],"sum_hessian":[2.299E3],"tree_param":{"num_deleted":"0","num_feature":"200","num_nodes":"1","size_leaf_vector":"1"}},{"base_weights":[-0E0,-0E0,4.192653E-3,3.5255354E-2,-0E0,-0E0,8.911617E-2,-0E0,1.2683518E-1,-0E0,1.5428966E-1,-0E0,7.783717E-3],"categories":[],"categories_nodes":[],"categories_segments":[],"categories_sizes":[],"default_left":[0,0,0,0,0,0,0,0,0,0,0,0,0],"id":64,"left_children":[1,-1,3,5,-1,-1,7,-1,9,-1,11,-1,-1],"loss_changes":[3.2884147E-2,0E0,1.5390862E0,3.9691033E0,0E0,0E0,3.4310522E0,0E0,3.4951763E0,0E0,3.266282E0,0E0,0E0],"parents":[2147483647,0,0,2,2,3,3,6,6,8,8,10,10],"right_children":[2,-1,4,6,-1,-1,8,-1,10,-1,12,-1,-1],"split_conditions":[-6.3984097E3,-0E0,9.1125E1,1.6267063E1,-0E0,-0E0,-6.5851965E2,-0E0,9.9653687E2,-0E0,4.8108345E1,-0E0,7.783717E-3],"split_indices":[84,0,33,22,0,0,34,0,89,0,26,0,0],"split_type":[0,0,0,0,0,0,0,0,0,0,0,0,0],"sum_hessian":[2.294E3,4.41E2,1.853E3,1.247E3,6.06E2,5.67E2,6.8E2,1.4E2,5.4E2,3.4E1,5.06E2,8.4E1,4.22E2],"tree_param":{"num_deleted":"0","num_feature":"200","num_nodes":"13","size_leaf_vector":"1"}},{"base_weights":[-0E0,-0E0,7.371836E-3,-2.0482073E-2,-0E0,3.9278198E-2,-0E0,-0E0,-5.717255E-2,6.124848E-2,-0E0,-0E0,-9.08272E-2,8.121068E-2,-0E0,-0E0,-1.0885653E-1,-0E0,9.91993E-2,-5.160525E-3,-0E0,-0E0,4.9859434E-3],"categories":[],"categories_nodes":[],"categories_segments":[],"categories_sizes":[],"default_left":[0,0,0,0,0,0,0,0,0,0,0,0,0,0,0,0,0,0,0,0,0,0,0],"id":65,"left_children":[1,3,5,7,-1,9,-1,-1,11,13,-1,-1,15,17,-1,-1,19,-1,21,-1,-1,-1,-1],"loss_changes":[7.2479606E-2,2.9647964E-1,1.3217579E0,1.5298073E0,0E0,1.8496509E0,0E0,0E0,1.8507118E0,1.621501E0,0E0,0E0,1.2965705E0,1.8824348E0,0E0,0E0,1.4231982E0,0E0,1.7046428E0,0E0,0E0,0E0,0E0],"parents":[2147483647,0,0,1,1,2,2,3,3,5,5,8,8,9,9,12,12,13,13,16,16,18,18],"right_children":[2,4,6,8,-1,10,-1,-1,12,14,-1,-1,16,18,-1,-1,20,-1,22,-1,-1,-1,-1],"split_conditions":[-8.259364E1,2.2704681E1,2.015E3,-2.9753265E2,-0E0,1.9137441E4,-0E0,-0E0,2.2999744E3,-4.026841E3,-0E0,-0E0,3.164646E0,-9.0019644E5,-0E0,-0E0,1.38416E5,-0E0,-9.772558E3,-5.160525E-3,-0E0,-0E0,4.9859434E-3],"split_indices":[56,70,2,68,0,14,0,0,43,91,0,0,20,11,0,0,0,0,83,0,0,0,0],"split_type":[0,0,0,0,0,0,0,0,0,0,0,0,0,0,0,0,0,0,0,0,0,0,0],"sum_hessian":[2.308E3,9.92E2,1.316E3,6.89E2,3.03E2,8.86E2,4.3E2,1.48E2,5.41E2,8.47E2,3.9E1,1.13E2,4.28E2,7.2E2,1.27E2,2.6E1,4.02E2,5.2E1,6.68E2,3.89E2,1.3E1,1.1E2,5.58E2],"tree_param":{"num_deleted":"0","num_feature":"200","num_nodes":"23","size_leaf_vector":"1"}},{"base_weights":[-0E0],"categories":[],"categories_nodes":[],"categories_segments":[],"categories_sizes":[],"default_left":[0],"id":66,"left_children":[-1],"loss_changes":[0E0],"parents":[2147483647],"right_children":[-1],"split_conditions":[-0E0],"split_indices":[0],"split_type":[0],"sum_hessian":[2.276E3],"tree_param":{"num_deleted":"0","num_feature":"200","num_nodes":"1","size_leaf_vector":"1"}},{"base_weights":[-0E0,-0E0,-4.3194257E-3,-0E0,1.8251387E-2,-4.1040715E-2,-0E0,-0E0,4.592374E-2,-0E0,-7.726057E-2,-0E0,7.056373E-2,-0E0,-9.615902E-2,-0E0,8.687885E-2,-0E0,-1.10602714E-1,5.3429296E-3,-0E0,-0E0,-5.670551E-3],"categories":[],"categories_nodes":[],"categories_segments":[],"categories_sizes":[],"default_left":[0,0,0,0,0,0,0,0,0,0,0,0,0,0,0,0,0,0,0,0,0,0,0],"id":67,"left_children":[1,3,5,-1,7,9,-1,-1,11,-1,13,-1,15,-1,17,-1,19,-1,21,-1,-1,-1,-1],"loss_changes":[2.5424859E-2,2.2775596E-1,1.747713E0,0E0,1.0054116E0,3.3825734E0,0E0,0E0,1.2401185E0,0E0,2.3221607E0,0E0,1.1098661E0,0E0,2.1093388E0,0E0,1.9925117E0,0E0,1.877512E0,0E0,0E0,0E0,0E0],"parents":[2147483647,0,0,1,1,2,2,4,4,5,5,8,8,10,10,12,12,14,14,16,16,18,18],"right_children":[2,4,6,-1,8,10,-1,-1,12,-1,14,-1,16,-1,18,-1,20,-1,22,-1,-1,-1,-1],"split_conditions":[-2.7441435E0,-3.930273E1,1E0,-0E0,1.7E1,2.460375E3,-0E0,-0E0,-4.6209307E3,-0E0,6E0,-0E0,-1.0149839E6,-0E0,-1.0172687E3,-0E0,2.015E3,-0E0,2.3773733E1,5.3429296E-3,-0E0,-0E0,-5.670551E-3],"split_indices":[13,30,133,0,0,43,0,0,57,0,0,0,17,0,97,0,2,0,24,0,0,0,0],"split_type":[0,0,0,0,0,0,0,0,0,0,0,0,0,0,0,0,0,0,0,0,0,0,0],"sum_hessian":[2.327E3,9.82E2,1.345E3,3.16E2,6.66E2,1.035E3,3.1E2,9.9E1,5.67E2,1.89E2,8.46E2,8.8E1,4.79E2,5.5E1,7.91E2,2.2E1,4.57E2,2.5E1,7.66E2,3.13E2,1.44E2,1.8E2,5.86E2],"tree_param":{"num_deleted":"0","num_feature":"200","num_nodes":"23","size_leaf_vector":"1"}},{"base_weights":[-0E0],"categories":[],"categories_nodes":[],"categories_segments":[],"categories_sizes":[],"default_left":[0],"id":68,"left_children":[-1],"loss_changes":[0E0],"parents":[2147483647],"right_children":[-1],"split_conditions":[-0E0],"split_indices":[0],"split_type":[0],"sum_hessian":[2.343E3],"tree_param":{"num_deleted":"0","num_feature":"200","num_nodes":"1","size_leaf_vector":"1"}},{"base_weights":[-0E0,1.4392474E-3,-1.0085365E-2,2.2711687E-2,-0E0,-4.910958E-2,-0E0,-0E0,5.139713E-2,-0E0,-8.7902986E-2,-0E0,7.27534E-2,-0E0,-1.09044924E-1,9.006151E-2,-0E0,-0E0,-1.2888278E-1,-0E0,4.273997E-3,-0E0,-6.727121E-3],"categories":[],"categories_nodes":[],"categories_segments":[],"categories_sizes":[],"default_left":[0,0,0,0,0,0,0,0,0,0,0,0,0,0,0,0,0,0,0,0,0,0,0],"id":69,"left_children":[1,3,5,7,-1,9,-1,-1,11,-1,13,-1,15,-1,17,19,-1,-1,21,-1,-1,-1,-1],"loss_changes":[1.229826E-1,5.1546335E-1,1.8900174E0,1.6186268E0,0E0,3.0096164E0,0E0,0E0,1.890166E0,0E0,2.3605084E0,0E0,1.8192787E0,0E0,2.6806202E0,1.7352214E0,0E0,0E0,2.492321E0,0E0,0E0,0E0,0E0],"parents":[2147483647,0,0,1,1,2,2,3,3,5,5,8,8,10,10,12,12,14,14,15,15,18,18],"right_children":[2,4,6,8,-1,10,-1,-1,12,-1,14,-1,16,-1,18,20,-1,-1,22,-1,-1,-1,-1],"split_conditions":[-5.489205E0,2.0285654E4,-4.193231E3,1.4510507E1,-0E0,-4.155923E1,-0E0,-0E0,-2.701524E4,-0E0,4.3805614E-2,-0E0,7.403E3,-0E0,-5.0752E4,-6.4957164E4,-0E0,-0E0,6.4979143E0,-0E0,4.273997E-3,-0E0,-6.727121E-3],"split_indices":[65,81,88,23,0,100,0,0,83,0,5,0,0,0,56,59,0,0,20,0,0,0,0],"split_type":[0,0,0,0,0,0,0,0,0,0,0,0,0,0,0,0,0,0,0,0,0,0,0],"sum_hessian":[2.25E3,1.081E3,1.169E3,9.86E2,9.5E1,8.16E2,3.53E2,1.95E2,7.91E2,1.84E2,6.32E2,4.8E1,7.43E2,2.9E1,6.03E2,7.03E2,4E1,1.5E1,5.88E2,1.8E1,6.85E2,1.36E2,4.52E2],"tree_param":{"num_deleted":"0","num_feature":"200","num_nodes":"23","size_leaf_vector":"1"}},{"base_weights":[-0E0],"categories":[],"categories_nodes":[],"categories_segments":[],"categories_sizes":[],"default_left":[0],"id":70,"left_children":[-1],"loss_changes":[0E0],"parents":[2147483647],"right_children":[-1],"split_conditions":[-0E0],"split_indices":[0],"split_type":[0],"sum_hessian":[2.334E3],"tree_param":{"num_deleted":"0","num_feature":"200","num_nodes":"1","size_leaf_vector":"1"}},{"base_weights":[-0E0],"categories":[],"categories_nodes":[],"categories_segments":[],"categories_sizes":[],"default_left":[0],"id":71,"left_children":[-1],"loss_changes":[0E0],"parents":[2147483647],"right_children":[-1],"split_conditions":[-0E0],"split_indices":[0],"split_type":[0],"sum_hessian":[2.304E3],"tree_param":{"num_deleted":"0","num_feature":"200","num_nodes":"1","size_leaf_vector":"1"}},{"base_weights":[-0E0,-0E0,-1.0587865E-2,-4.3123484E-2,-0E0,-0E0,-6.402779E-2,-0E0,-8.596533E-2,-1.0336798E-1,-0E0,-0E0,-4.9472726E-3],"categories":[],"categories_nodes":[],"categories_segments":[],"categories_sizes":[],"default_left":[0,0,0,0,0,0,0,0,0,0,0,0,0],"id":72,"left_children":[1,-1,3,5,-1,-1,7,-1,9,11,-1,-1,-1],"loss_changes":[1.728312E-1,0E0,1.4724241E0,1.6209431E0,0E0,0E0,2.0229957E0,0E0,2.1979523E0,1.8899078E0,0E0,0E0,0E0],"parents":[2147483647,0,0,2,2,3,3,6,6,8,8,9,9],"right_children":[2,-1,4,6,-1,-1,8,-1,10,12,-1,-1,-1],"split_conditions":[7.688734E4,-0E0,4.0900362E-1,-1.7584238E4,-0E0,-0E0,0E0,-0E0,6.397871E1,-2.2107393E4,-0E0,-0E0,-4.9472726E-3],"split_indices":[16,0,74,81,0,0,162,0,23,85,0,0,0],"split_type":[0,0,0,0,0,0,0,0,0,0,0,0,0],"sum_hessian":[2.336E3,8.12E2,1.524E3,8.67E2,6.57E2,8.8E1,7.79E2,8.1E1,6.98E2,6.83E2,1.5E1,5.2E1,6.31E2],"tree_param":{"num_deleted":"0","num_feature":"200","num_nodes":"13","size_leaf_vector":"1"}},{"base_weights":[-0E0],"categories":[],"categories_nodes":[],"categories_segments":[],"categories_sizes":[],"default_left":[0],"id":73,"left_children":[-1],"loss_changes":[0E0],"parents":[2147483647],"right_children":[-1],"split_conditions":[-0E0],"split_indices":[0],"split_type":[0],"sum_hessian":[2.321E3],"tree_param":{"num_deleted":"0","num_feature":"200","num_nodes":"1","size_leaf_vector":"1"}},{"base_weights":[-0E0],"categories":[],"categories_nodes":[],"categories_segments":[],"categories_sizes":[],"default_left":[0],"id":74,"left_children":[-1],"loss_changes":[0E0],"parents":[2147483647],"right_children":[-1],"split_conditions":[-0E0],"split_indices":[0],"split_type":[0],"sum_hessian":[2.301E3],"tree_param":{"num_deleted":"0","num_feature":"200","num_nodes":"1","size_leaf_vector":"1"}},{"base_weights":[-0E0],"categories":[],"categories_nodes":[],"categories_segments":[],"categories_sizes":[],"default_left":[0],"id":75,"left_children":[-1],"loss_changes":[0E0],"parents":[2147483647],"right_children":[-1],"split_conditions":[-0E0],"split_indices":[0],"split_type":[0],"sum_hessian":[2.279E3],"tree_param":{"num_deleted":"0","num_feature":"200","num_nodes":"1","size_leaf_vector":"1"}},{"base_weights":[-0E0,-0E0,3.689513E-3,-0E0,-2.4368934E-2,-0E0,5.8121074E-2,-0E0,-4.989429E-2,8.040551E-2,-0E0,-8.8606745E-2,-0E0,-0E0,1.0089224E-1,-0E0,-1.2730949E-1,-0E0,1.177578E-1,-0E0,-6.3664857E-3,-0E0,5.8291447E-3],"categories":[],"categories_nodes":[],"categories_segments":[],"categories_sizes":[],"default_left":[0,0,0,0,0,0,0,0,0,0,0,0,0,0,0,0,0,0,0,0,0,0,0],"id":76,"left_children":[1,3,5,-1,7,-1,9,-1,11,13,-1,15,-1,-1,17,-1,19,-1,21,-1,-1,-1,-1],"loss_changes":[1.0328075E-2,6.673152E-1,1.7216691E0,0E0,1.7293174E0,0E0,1.2853662E0,0E0,2.9320998E0,1.5095456E0,0E0,2.1222677E0,0E0,0E0,1.4874372E0,0E0,2.5960026E0,0E0,1.7661128E0,0E0,0E0,0E0,0E0],"parents":[2147483647,0,0,1,1,2,2,4,4,6,6,8,8,9,9,11,11,14,14,16,16,18,18],"right_children":[2,4,6,-1,8,-1,10,-1,12,14,-1,16,-1,-1,18,-1,20,-1,22,-1,-1,-1,-1],"split_conditions":[1.326491E2,1.5438294E4,1.7140269E5,-0E0,-2.1467012E3,-0E0,1.078351E4,-0E0,1.2196152E3,0E0,-0E0,6.9919105E0,-0E0,-0E0,-3.528751E4,-0E0,-1.6176795E4,-0E0,-1.1445679E3,-0E0,-6.3664857E-3,-0E0,5.8291447E-3],"split_indices":[35,49,101,0,32,0,64,0,63,146,0,20,0,0,36,0,55,0,61,0,0,0,0],"split_type":[0,0,0,0,0,0,0,0,0,0,0,0,0,0,0,0,0,0,0,0,0,0,0],"sum_hessian":[2.331E3,1.59E3,7.41E2,4.84E2,1.106E3,2.46E2,4.95E2,1.61E2,9.45E2,4.49E2,4.6E1,6.61E2,2.84E2,2.2E1,4.27E2,2.19E2,4.42E2,1.1E1,4.16E2,4E1,4.02E2,4.6E1,3.7E2],"tree_param":{"num_deleted":"0","num_feature":"200","num_nodes":"23","size_leaf_vector":"1"}},{"base_weights":[-0E0,-9.740122E-3,-0E0,-4.364341E-2,-0E0,3.4817448E-4,-0E0,-7.090496E-2,-0E0,-0E0,1.6817346E-2,-0E0,-1.147843E-1,3.6326554E-2,-0E0,-0E0,-1.3598493E-1,-0E0,5.681963E-2,-7.352443E-3,-0E0,-0E0,2.908812E-3],"categories":[],"categories_nodes":[],"categories_segments":[],"categories_sizes":[],"default_left":[0,0,0,0,0,0,0,0,0,0,0,0,0,0,0,0,0,0,0,0,0,0,0],"id":77,"left_children":[1,3,5,7,-1,9,-1,11,-1,-1,13,-1,15,17,-1,-1,19,-1,21,-1,-1,-1,-1],"loss_changes":[9.75946E-2,1.5209066E0,1.1452407E-4,1.9848158E0,0E0,1.9863081E-1,0E0,3.3100917E0,0E0,0E0,6.9162714E-1,0E0,2.3643394E0,8.876092E-1,0E0,0E0,1.8553867E0,0E0,8.540343E-1,0E0,0E0,0E0,0E0],"parents":[2147483647,0,0,1,1,2,2,3,3,5,5,7,7,10,10,12,12,13,13,16,16,18,18],"right_children":[2,4,6,8,-1,10,-1,12,-1,-1,14,-1,16,18,-1,-1,20,-1,22,-1,-1,-1,-1],"split_conditions":[-7.2905934E-1,1E0,2.1904531E3,-9.82375E2,-0E0,4.7899796E1,-0E0,-1.2577927E3,-0E0,-0E0,3.3405603E5,-0E0,-1.0940976E4,-9.927811E3,-0E0,-0E0,2.015E3,-0E0,-5.7589137E4,-7.352443E-3,-0E0,-0E0,2.908812E-3],"split_indices":[30,119,85,67,0,26,0,65,0,0,92,0,32,15,0,0,2,0,83,0,0,0,0],"split_type":[0,0,0,0,0,0,0,0,0,0,0,0,0,0,0,0,0,0,0,0,0,0,0],"sum_hessian":[2.307E3,1.011E3,1.296E3,8.32E2,1.79E2,9.27E2,3.69E2,6.99E2,1.33E2,2.42E2,6.85E2,1.92E2,5.07E2,6.57E2,2.8E1,2.3E1,4.84E2,1.24E2,5.33E2,3.31E2,1.53E2,2.4E1,5.09E2],"tree_param":{"num_deleted":"0","num_feature":"200","num_nodes":"23","size_leaf_vector":"1"}},{"base_weights":[-0E0,-0E0,-5.8878534E-3,-4.8881944E-2,-0E0,-8.545315E-2,-0E0,-1.1155027E-1,-0E0,-0E0,-1.3252792E-1,-0E0,-5.995574E-3],"categories":[],"categories_nodes":[],"categories_segments":[],"categories_sizes":[],"default_left":[0,0,0,0,0,0,0,0,0,0,0,0,0],"id":78,"left_children":[1,-1,3,5,-1,7,-1,9,-1,-1,11,-1,-1],"loss_changes":[5.3862516E-2,0E0,2.905989E0,4.1066704E0,0E0,4.0793304E0,0E0,3.3567953E0,0E0,0E0,2.4112911E0,0E0,0E0],"parents":[2147483647,0,0,2,2,3,3,5,5,7,7,10,10],"right_children":[2,-1,4,6,-1,8,-1,10,-1,-1,12,-1,-1],"split_conditions":[8.242498E3,-0E0,9.7030615E2,7.4504653E3,-0E0,9.657866E-1,-0E0,-1.2297122E2,-0E0,-0E0,3.0076465E2,-0E0,-5.995574E-3],"split_indices":[45,0,35,79,0,7,0,102,0,0,41,0,0],"split_type":[0,0,0,0,0,0,0,0,0,0,0,0,0],"sum_hessian":[2.303E3,7.67E2,1.536E3,1.221E3,3.15E2,9.5E2,2.71E2,8.78E2,7.2E1,7E1,8.08E2,2.9E1,7.79E2],"tree_param":{"num_deleted":"0","num_feature":"200","num_nodes":"13","size_leaf_vector":"1"}},{"base_weights":[-0E0],"categories":[],"categories_nodes":[],"categories_segments":[],"categories_sizes":[],"default_left":[0],"id":79,"left_children":[-1],"loss_changes":[0E0],"parents":[2147483647],"right_children":[-1],"split_conditions":[-0E0],"split_indices":[0],"split_type":[0],"sum_hessian":[2.292E3],"tree_param":{"num_deleted":"0","num_feature":"200","num_nodes":"1","size_leaf_vector":"1"}},{"base_weights":[-0E0,-0E0,-2.1323677E-2,-0E0,5.4866597E-3,-5.5432227E-2,-0E0,-0E0,3.9149303E-2,-8.063017E-2,-0E0,-0E0,6.3051686E-2,-0E0,-1.0877469E-1,9.258033E-2,-0E0,-1.4850281E-1,-0E0,-0E0,4.678246E-3,-6.915971E-3,-0E0],"categories":[],"categories_nodes":[],"categories_segments":[],"categories_sizes":[],"default_left":[0,0,0,0,0,0,0,0,0,0,0,0,0,0,0,0,0,0,0,0,0,0,0],"id":80,"left_children":[1,3,5,-1,7,9,-1,-1,11,13,-1,-1,15,-1,17,19,-1,21,-1,-1,-1,-1,-1],"loss_changes":[5.764311E-1,2.5760096E-2,2.802712E0,0E0,9.0107405E-1,3.3673036E0,0E0,0E0,1.4056785E0,4.253933E0,0E0,0E0,1.8220761E0,0E0,4.099799E0,1.709918E0,0E0,3.2811956E0,0E0,0E0,0E0,0E0,0E0],"parents":[2147483647,0,0,1,1,2,2,4,4,5,5,8,8,9,9,12,12,14,14,15,15,17,17],"right_children":[2,4,6,-1,8,10,-1,-1,12,14,-1,-1,16,-1,18,20,-1,22,-1,-1,-1,-1,-1],"split_conditions":[-1.198167E7,-8.079181E3,1.4428923E3,-0E0,5.0319786E1,9.7876906E-1,-0E0,-0E0,-6.57136E4,0E0,-0E0,-0E0,2.016E3,-0E0,1E0,-1.7822285E6,-0E0,4.1179797E4,-0E0,-0E0,4.678246E-3,-6.915971E-3,-0E0],"split_indices":[12,84,35,0,26,7,0,0,78,123,0,0,2,0,150,17,0,76,0,0,0,0,0],"split_type":[0,0,0,0,0,0,0,0,0,0,0,0,0,0,0,0,0,0,0,0,0,0,0],"sum_hessian":[2.259E3,1.009E3,1.25E3,1.71E2,8.38E2,1.082E3,1.68E2,2.51E2,5.87E2,1.02E3,6.2E1,1.8E1,5.69E2,1.08E2,9.12E2,4.67E2,1.02E2,6.67E2,2.45E2,3.1E1,4.36E2,6.33E2,3.4E1],"tree_param":{"num_deleted":"0","num_feature":"200","num_nodes":"23","size_leaf_vector":"1"}}]},"name":"gbtree"},"learner_model_param":{"base_score":"2.6271285E-2","boost_from_average":"1","num_class":"0","num_feature":"200","num_target":"1"},"objective":{"name":"reg:squarederror","reg_loss_param":{"scale_pos_weight":"1"}}},"version":[3,0,4]}