{"learner":{"attributes":{"best_iteration":"5","best_score":"1.0385176232367126"},"feature_names":["Volume","day_of_month","year","day_sin","day_cos","day_of_year_norm","dayy_sin","dayy_cos","is_holiday","Log_Return","Log_Return_change1","Log_Return23","Log_Return123","Log_High_Return","Log_High_Return_change1","Log_High_Return_change3","Log_High_Return13","Log_High_Return23","Log_High_Return123","Close_Roll_Std_5","High_Roll_Std_5","High_Roll_Std_10","High_Roll_Std_20","High_Roll_Std_30","High_Roll_Std_60","High_Roll_Std_90","High_Roll_Std_250","High_Roll_Max_250","Log_Return_Lag_1","Log_Return_Lag_2","Log_Return_Lag_3","Log_Return_Lag_5","Log_Return_Lag_10","Log_Return_Lag_20","Log_Return_Lag_30","Log_Return_Lag_60","Log_Return_Lag_90","Log_Return_Lag_120","Log_Return_Lag_180","Log_Return_Lag_250","Log_Return_Roll_Max_5","Log_Return_Roll_Max_10","Log_Return_Roll_Mean_20","Log_Return_Roll_Max_20","Log_Return_Roll_Mean_30","Log_Return_Roll_Max_30","Log_Return_Roll_Mean_60","Log_Return_Roll_Max_60","Log_Return_Roll_Mean_90","Log_Return_Roll_Max_90","Log_Return_Roll_Mean_180","Log_Return_Roll_Max_180","Log_Return_Roll_Mean_250","Log_Return_Roll_Max_250","Log_Return_change1_Lag_1","Log_Return_change1_Lag_2","Log_Return_change1_Lag_3","Log_Return_change1_Lag_5","Log_Return_change1_Lag_10","Log_Return_change1_Lag_20","Log_Return_change1_Lag_30","Log_Return_change1_Lag_60","Log_Return_change1_Lag_90","Log_Return_change1_Lag_120","Log_Return_change1_Lag_180","Log_Return_change1_Lag_250","Log_Return_change1_Roll_Mean_5","Log_Return_change1_Roll_Min_5","Log_Return_change1_Roll_Mean_10","Log_Return_change1_Roll_Mean_20","Log_Return_change1_Roll_Mean_30","Log_Return_change1_Roll_Mean_60","Log_Return_change1_Roll_Mean_90","Log_Return_change1_Roll_Mean_180","Log_Return_change1_Roll_Mean_250","Log_Return_change2_Lag_1","Log_Return_change2_Lag_2","Log_Return_change2_Lag_3","Log_Return_change2_Lag_5","Log_Return_change2_Lag_10","Log_Return_change2_Lag_20","Log_Return_change2_Lag_30","Log_Return_change2_Lag_60","Log_Return_change2_Lag_90","Log_Return_change2_Lag_120","Log_Return_change2_Lag_180","Log_Return_change2_Lag_250","Log_Return_change2_Roll_Mean_5","Log_Return_change2_Roll_Min_5","Log_Return_change2_Roll_Max_5","Log_Return_change2_Roll_Mean_10","Log_Return_change2_Roll_Min_10","Log_Return_change2_Roll_Max_10","Log_Return_change2_Roll_Mean_20","Log_Return_change2_Roll_Max_20","Log_Return_change2_Roll_Mean_30","Log_Return_change2_Roll_Max_30","Log_Return_change2_Roll_Mean_60","Log_Return_change2_Roll_Mean_90","Log_Return_change2_Roll_Max_90","Log_Return_change2_Roll_Mean_180","Log_Return_change2_Roll_Max_180","Log_Return_change2_Roll_Mean_250","Log_Return_change2_Roll_Max_250","rsi_5_long","rsi_5_short","rsi_5_combined","rsi_7_long","rsi_7_short","rsi_7_combined","rsi_10_long","rsi_10_short","rsi_10_combined","macd_5_10_5_long","macd_5_10_5_short","macd_5_10_5_combined","stoch_3_2_2_long","stoch_3_2_2_short","stoch_3_2_2_combined","cci_6_long","cci_6_short","cci_6_combined","cci_10_long","cci_10_short","cci_10_combined","obv_combined","ad_combined","atr_10_long","atr_10_short","atr_10_combined","sma_2_long","sma_2_short","sma_2_combined","sma_3_long","sma_3_short","sma_3_combined","sma_5_long","sma_5_short","sma_5_combined","sma_8_long","sma_8_short","sma_8_combined","sma_13_long","sma_13_short","sma_13_combined","sma_21_long","sma_21_short","sma_21_combined","ema_3_long","ema_3_short","ema_3_combined","ema_5_long","ema_5_short","ema_5_combined","ema_8_long","ema_8_short","ema_8_combined","ema_13_long","ema_13_short","ema_13_combined","ema_21_long","ema_21_short","ema_21_combined","bb_3_1.5_1.5_long","bb_3_1.5_1.5_short","bb_3_1.5_1.5_combined","bb_3_2.0_2.0_long","bb_3_2.0_2.0_short","bb_3_2.0_2.0_combined","bb_5_1.5_1.5_long","bb_5_1.5_1.5_short","bb_5_1.5_1.5_combined","bb_5_2.0_2.0_long","bb_5_2.0_2.0_short","bb_5_2.0_2.0_combined","bb_8_2.0_2.0_long","bb_8_2.0_2.0_short","bb_8_2.0_2.0_combined","ht_dcperiod_combined","ht_phasor_short","ht_phasor_combined","typprice_long","typprice_short","typprice_combined","linearreg_3_combined","linearreg_5_combined","linearreg_8_combined","stddev_2_2_long","stddev_2_2_short","stddev_2_2_combined","stddev_3_2_long","stddev_3_2_short","stddev_3_2_combined","stddev_5_2_long","stddev_5_2_short","stddev_5_2_combined","Open","High","Low","Close"],"feature_types":["float","int","int","float","float","float","float","float","int","float","float","float","float","float","float","float","float","float","float","float","float","float","float","float","float","float","float","float","float","float","float","float","float","float","float","float","float","float","float","float","float","float","float","float","float","float","float","float","float","float","float","float","float","float","float","float","float","float","float","float","float","float","float","float","float","float","float","float","float","float","float","float","float","float","float","float","float","float","float","float","float","float","float","float","float","float","float","float","float","float","float","float","float","float","float","float","float","float","float","float","float","float","float","float","int","int","int","int","int","int","int","int","int","int","int","int","int","int","int","int","int","int","int","int","int","int","int","int","int","int","int","int","int","int","int","int","int","int","int","int","int","int","int","int","int","int","int","int","int","int","int","int","int","int","int","int","int","int","int","int","int","int","int","int","int","int","int","int","int","int","int","int","int","int","int","int","int","int","int","int","int","int","int","int","int","int","int","int","int","int","int","int","int","int","int","int","float","float","float","float"],"gradient_booster":{"model":{"gbtree_model_param":{"num_parallel_tree":"1","num_trees":"56"},"iteration_indptr":[0,1,2,3,4,5,6,7,8,9,10,11,12,13,14,15,16,17,18,19,20,21,22,23,24,25,26,27,28,29,30,31,32,33,34,35,36,37,38,39,40,41,42,43,44,45,46,47,48,49,50,51,52,53,54,55,56],"tree_info":[0,0,0,0,0,0,0,0,0,0,0,0,0,0,0,0,0,0,0,0,0,0,0,0,0,0,0,0,0,0,0,0,0,0,0,0,0,0,0,0,0,0,0,0,0,0,0,0,0,0,0,0,0,0,0,0],"trees":[{"base_weights":[-0E0,-1.6651405E-2,-0E0,-5.9124682E-2,-0E0,-0E0,2.2801502E-2,-0E0,-9.284197E-2,-0E0,4.3347683E-2,-1.2464577E-1,-0E0,-0E0,5.8906876E-2,-0E0,-1.4177239E-1,7.29173E-2,-0E0,-0E0,-1.614251E-1,-0E0,8.397892E-2,-0E0,-1.7523351E-1,-0E0,1.0063948E-1,-1.9433957E-1,-0E0,1.1444511E-1,-0E0,-0E0,-2.0788135E-1,1.2757488E-1,-0E0,-0E0,-2.3649542E-1,-0E0,1.3881432E-1,-0E0,-2.4952151E-1,1.4880857E-1,-0E0,-0E0,-3.89654E-2,-0E0,2.288491E-2],"categories":[],"categories_nodes":[],"categories_segments":[],"categories_sizes":[],"default_left":[0,0,0,0,0,0,0,0,0,0,0,0,0,0,0,0,0,0,0,0,0,0,0,0,0,0,0,0,0,0,0,0,0,0,0,0,0,0,0,0,0,0,0,0,0,0,0],"id":0,"left_children":[1,3,5,7,-1,-1,9,-1,11,-1,13,15,-1,-1,17,-1,19,21,-1,-1,23,-1,25,-1,27,-1,29,31,-1,33,-1,-1,35,37,-1,-1,39,-1,41,-1,43,45,-1,-1,-1,-1,-1],"loss_changes":[5.409524E-1,4.905392E0,4.180064E-1,5.0609865E0,0E0,0E0,8.6724436E-1,0E0,5.7905283E0,0E0,8.488115E-1,4.082945E0,0E0,0E0,9.284911E-1,0E0,4.087715E0,9.220865E-1,0E0,0E0,3.5974808E0,0E0,1.231437E0,0E0,3.9989185E0,0E0,1.2148862E0,3.716816E0,0E0,1.2184515E0,0E0,0E0,3.8167648E0,8.8693666E-1,0E0,0E0,3.7351418E0,0E0,8.7484455E-1,0E0,2.70409E0,7.8705215E-1,0E0,0E0,0E0,0E0,0E0],"parents":[2147483647,0,0,1,1,2,2,3,3,6,6,8,8,10,10,11,11,14,14,16,16,17,17,20,20,22,22,24,24,26,26,27,27,29,29,32,32,33,33,36,36,38,38,40,40,41,41],"right_children":[2,4,6,8,-1,-1,10,-1,12,-1,14,16,-1,-1,18,-1,20,22,-1,-1,24,-1,26,-1,28,-1,30,32,-1,34,-1,-1,36,38,-1,-1,40,-1,42,-1,44,46,-1,-1,-1,-1,-1],"split_conditions":[-4.580645E3,9.7030615E2,7E0,1.2326449E4,-0E0,-0E0,-6.9497534E3,-0E0,2.0285654E4,-0E0,-4.41099E3,-1.7914916E7,-0E0,-0E0,1.4374065E3,-0E0,0E0,-9.9639505E-1,-0E0,-0E0,-1.1733227E5,-0E0,4.6844397E0,-0E0,1E0,-0E0,1.2777315E1,1.66375E2,-0E0,6.678363E3,-0E0,-0E0,2.2E1,1.5215103E1,-0E0,-0E0,3.164646E0,-0E0,3.827102E1,-0E0,0E0,2.7139475E3,-0E0,-0E0,-3.89654E-2,-0E0,2.288491E-2],"split_indices":[88,35,1,47,0,0,86,0,78,0,63,17,0,0,48,0,105,6,0,0,77,0,21,0,175,0,20,41,0,78,0,0,0,25,0,0,20,0,23,0,161,96,0,0,0,0,0],"split_type":[0,0,0,0,0,0,0,0,0,0,0,0,0,0,0,0,0,0,0,0,0,0,0,0,0,0,0,0,0,0,0,0,0,0,0,0,0,0,0,0,0,0,0,0,0,0,0],"sum_hessian":[2.931E3,1.951E3,9.8E2,1.558E3,3.93E2,1.76E2,8.04E2,3.39E2,1.219E3,1.2E2,6.84E2,1.049E3,1.7E2,6.9E1,6.15E2,3.5E1,1.014E3,5.76E2,3.9E1,7.5E1,9.39E2,1.1E1,5.65E2,2.5E1,9.14E2,5E1,5.15E2,8.49E2,6.5E1,4.91E2,2.4E1,2.1E1,8.28E2,4.7E2,2.1E1,1.2E2,7.08E2,2.7E1,4.43E2,1.2E1,6.96E2,4.25E2,1.8E1,4.2E1,6.54E2,5E0,4.2E2],"tree_param":{"num_deleted":"0","num_feature":"200","num_nodes":"47","size_leaf_vector":"1"}},{"base_weights":[-0E0,-1.5492084E-2,1.7259315E-3,-6.3385725E-2,-0E0,4.0518492E-2,-0E0,-1.0791705E-1,-0E0,7.2824195E-2,-0E0,-0E0,-1.6084434E-1,-0E0,1.0380546E-1,-0E0,-1.9447452E-1,1.3320328E-1,-0E0,-2.2348517E-1,-0E0,1.5136793E-1,-0E0,-2.4158482E-1,-0E0,1.6851422E-1,-0E0,-0E0,-2.618159E-1,1.9271E-1,-0E0,-2.8485173E-1,-0E0,-0E0,2.2103705E-1,-0E0,-3.2141277E-1,-0E0,2.3418362E-1,-0E0,-3.4156683E-1,2.4206035E-1,-0E0,-0E0,-5.2147724E-2,3.6573004E-2,-0E0],"categories":[],"categories_nodes":[],"categories_segments":[],"categories_sizes":[],"default_left":[0,0,0,0,0,0,0,0,0,0,0,0,0,0,0,0,0,0,0,0,0,0,0,0,0,0,0,0,0,0,0,0,0,0,0,0,0,0,0,0,0,0,0,0,0,0,0],"id":1,"left_children":[1,3,5,7,-1,9,-1,11,-1,13,-1,-1,15,-1,17,-1,19,21,-1,23,-1,25,-1,27,-1,29,-1,-1,31,33,-1,35,-1,-1,37,-1,39,-1,41,-1,43,45,-1,-1,-1,-1,-1],"loss_changes":[1.4333783E-1,1.8404105E0,2.631274E0,2.972855E0,0E0,2.4052098E0,0E0,2.8634253E0,0E0,3.3398962E0,0E0,0E0,2.6254E0,0E0,4.1255007E0,0E0,2.4975023E0,3.163083E0,0E0,1.7716169E0,0E0,2.814496E0,0E0,1.8124313E0,0E0,3.015932E0,0E0,0E0,1.8989296E0,3.3659973E0,0E0,2.4489517E0,0E0,0E0,2.2235298E0,0E0,1.765728E0,0E0,1.6773319E0,0E0,1.4478378E0,1.4942245E0,0E0,0E0,0E0,0E0,0E0],"parents":[2147483647,0,0,1,1,2,2,3,3,5,5,7,7,9,9,12,12,14,14,16,16,17,17,19,19,21,21,23,23,25,25,28,28,29,29,31,31,34,34,36,36,38,38,40,40,41,41],"right_children":[2,4,6,8,-1,10,-1,12,-1,14,-1,-1,16,-1,18,-1,20,22,-1,24,-1,26,-1,28,-1,30,-1,-1,32,34,-1,36,-1,-1,38,-1,40,-1,42,-1,44,46,-1,-1,-1,-1,-1],"split_conditions":[-6.1461196E3,2.460375E3,3.339553E1,1E0,-0E0,2.014E3,-0E0,2.5816639E1,-0E0,0E0,-0E0,-0E0,-8.489694E3,-0E0,4.9421234E2,-0E0,-7.7594696E2,1.1390625E4,-0E0,5.8046665E3,-0E0,2.7731746E4,-0E0,-5.798053E4,-0E0,1E3,-0E0,-0E0,3.496225E4,1.1248522E3,-0E0,0E0,-0E0,-0E0,3.832991E-2,-0E0,0E0,-0E0,1.65342E5,-0E0,5E0,2.9074086E4,-0E0,-0E0,-5.2147724E-2,3.6573004E-2,-0E0],"split_indices":[84,35,97,151,0,2,0,24,0,134,0,0,35,0,93,0,67,33,0,63,0,85,0,81,0,13,0,0,60,45,0,158,0,0,5,0,108,0,0,0,0,14,0,0,0,0,0],"split_type":[0,0,0,0,0,0,0,0,0,0,0,0,0,0,0,0,0,0,0,0,0,0,0,0,0,0,0,0,0,0,0,0,0,0,0,0,0,0,0,0,0,0,0,0,0,0,0],"sum_hessian":[2.923E3,5.68E2,2.355E3,4.92E2,7.6E1,1.607E3,7.48E2,4.25E2,6.7E1,9.51E2,6.56E2,1.23E2,3.02E2,1.73E2,7.78E2,2.6E1,2.76E2,7.05E2,7.3E1,2.59E2,1.7E1,6.84E2,2.1E1,2.52E2,7E0,6.51E2,3.3E1,1.1E1,2.41E2,5.79E2,7.2E1,2.27E2,1.4E1,7E1,5.09E2,2.5E1,2.02E2,1.5E1,4.94E2,8E0,1.94E2,4.91E2,3E0,3E0,1.91E2,4.88E2,3E0],"tree_param":{"num_deleted":"0","num_feature":"200","num_nodes":"47","size_leaf_vector":"1"}},{"base_weights":[-0E0,1.6998325E-2,-0E0,4.0318273E-2,-0E0,-0E0,-2.6889034E-2,-0E0,5.7564415E-2,-5.9939425E-2,-0E0,6.772656E-2,-0E0,-0E0,-9.727449E-2,-0E0,8.430015E-2,-0E0,-1.1282739E-1,9.6020296E-2,-0E0,-1.279328E-1,-0E0,-0E0,1.0762971E-1,-0E0,-1.6072026E-1,-0E0,1.1484364E-1,-0E0,-1.7768642E-1,-0E0,1.2256429E-1,-0E0,-1.9920824E-1,-0E0,1.3029456E-1,-0E0,-2.2133537E-1,-0E0,1.532284E-1,-0E0,-2.388145E-1,2.3809303E-2,-0E0,-0E0,-3.7148327E-2],"categories":[],"categories_nodes":[],"categories_segments":[],"categories_sizes":[],"default_left":[0,0,0,0,0,0,0,0,0,0,0,0,0,0,0,0,0,0,0,0,0,0,0,0,0,0,0,0,0,0,0,0,0,0,0,0,0,0,0,0,0,0,0,0,0,0,0],"id":2,"left_children":[1,3,5,7,-1,-1,9,-1,11,13,-1,15,-1,-1,17,-1,19,-1,21,23,-1,25,-1,-1,27,-1,29,-1,31,-1,33,-1,35,-1,37,-1,39,-1,41,-1,43,-1,45,-1,-1,-1,-1],"loss_changes":[4.5104012E-1,1.7288402E0,8.061674E-1,1.7700047E0,0E0,0E0,2.2476573E0,0E0,1.4534681E0,3.8252866E0,0E0,1.5823522E0,0E0,0E0,2.1846638E0,0E0,1.8377371E0,0E0,2.2784195E0,1.6138811E0,0E0,2.8390255E0,0E0,0E0,1.3273182E0,0E0,2.646903E0,0E0,1.4096575E0,0E0,2.5773163E0,0E0,1.3577337E0,0E0,3.3256187E0,0E0,1.762353E0,0E0,2.4772472E0,0E0,1.315073E0,0E0,2.4958115E0,0E0,0E0,0E0,0E0],"parents":[2147483647,0,0,1,1,2,2,3,3,6,6,8,8,9,9,11,11,14,14,16,16,18,18,19,19,21,21,24,24,26,26,28,28,30,30,32,32,34,34,36,36,38,38,40,40,42,42],"right_children":[2,4,6,8,-1,-1,10,-1,12,14,-1,16,-1,-1,18,-1,20,-1,22,24,-1,26,-1,-1,28,-1,30,-1,32,-1,34,-1,36,-1,38,-1,40,-1,42,-1,44,-1,46,-1,-1,-1,-1],"split_conditions":[2.0429219E6,7.3079895E1,-3.4446622E2,-6.39201E1,-0E0,-0E0,-4.3199536E3,-0E0,1.5683841E2,-6.766738E1,-0E0,1.0219202E1,-0E0,-0E0,-7.043153E2,-0E0,1E0,-0E0,4.541352E1,0E0,-0E0,1.1781858E4,-0E0,-0E0,-3.528751E4,-0E0,-3.528751E4,-0E0,6.401172E-2,-0E0,-5.020159E4,-0E0,-9.9639505E-1,-0E0,-2.7913162E1,-0E0,4.103653E1,-0E0,0E0,-0E0,2.825642E3,-0E0,-3.008016E4,2.3809303E-2,-0E0,-0E0,-3.7148327E-2],"split_indices":[16,98,68,100,0,0,88,0,26,100,0,22,0,0,98,0,107,0,21,176,0,92,0,0,37,0,34,0,40,0,75,0,6,0,74,0,26,0,105,0,66,0,31,0,0,0,0],"split_type":[0,0,0,0,0,0,0,0,0,0,0,0,0,0,0,0,0,0,0,0,0,0,0,0,0,0,0,0,0,0,0,0,0,0,0,0,0,0,0,0,0,0,0,0,0,0,0],"sum_hessian":[2.933E3,1.561E3,1.372E3,1.341E3,2.2E2,2.57E2,1.115E3,1.49E2,1.192E3,8.5E2,2.65E2,1.178E3,1.4E1,1.23E2,7.27E2,1.95E2,9.83E2,1.5E1,7.12E2,9.57E2,2.6E1,6.93E2,1.9E1,5.6E1,9.01E2,1.44E2,5.49E2,9E0,8.92E2,1.6E1,5.33E2,1.5E1,8.77E2,4.4E1,4.89E2,2.1E1,8.56E2,2.5E1,4.64E2,1.62E2,6.94E2,2.2E1,4.42E2,6.7E2,2.4E1,9E0,4.33E2],"tree_param":{"num_deleted":"0","num_feature":"200","num_nodes":"47","size_leaf_vector":"1"}},{"base_weights":[-0E0,3.9107604E-3,-0E0,-0E0,3.2675825E-2,-2.1200608E-2,-0E0,-0E0,5.82556E-2,-5.283919E-2,-0E0,7.570681E-2,-0E0,-7.2118856E-2,-0E0,9.290633E-2,-0E0,-0E0,-9.3595915E-2,-0E0,1.0421675E-1,-0E0,-1.2885655E-1,-0E0,1.1747977E-1,-1.629315E-1,-0E0,1.2949264E-1,-0E0,-0E0,-1.8807192E-1,1.3773032E-1,-0E0,-0E0,-2.083195E-1,-0E0,1.4397705E-1,-0E0,-2.4758351E-1,1.5092315E-1,-0E0,-2.6859495E-1,-0E0,-0E0,2.3168745E-2,-0E0,-4.191298E-2],"categories":[],"categories_nodes":[],"categories_segments":[],"categories_sizes":[],"default_left":[0,0,0,0,0,0,0,0,0,0,0,0,0,0,0,0,0,0,0,0,0,0,0,0,0,0,0,0,0,0,0,0,0,0,0,0,0,0,0,0,0,0,0,0,0,0,0],"id":3,"left_children":[1,3,5,-1,7,9,-1,-1,11,13,-1,15,-1,17,-1,19,-1,-1,21,-1,23,-1,25,-1,27,29,-1,31,-1,-1,33,35,-1,-1,37,-1,39,-1,41,43,-1,45,-1,-1,-1,-1,-1],"loss_changes":[2.3308128E-2,1.3284119E0,5.456515E-1,0E0,1.828191E0,2.617662E0,0E0,0E0,1.98419E0,1.9754019E0,0E0,1.6980109E0,0E0,2.7542205E0,0E0,1.3706245E0,0E0,0E0,2.916276E0,0E0,1.5249214E0,0E0,4.2162066E0,0E0,1.6112804E0,4.14569E0,0E0,1.0751448E0,0E0,0E0,3.308546E0,9.2637444E-1,0E0,0E0,3.8170128E0,0E0,1.2073336E0,0E0,3.7870712E0,1.0018406E0,0E0,2.2507076E0,0E0,0E0,0E0,0E0,0E0],"parents":[2147483647,0,0,1,1,2,2,4,4,5,5,8,8,9,9,11,11,13,13,15,15,18,18,20,20,22,22,24,24,25,25,27,27,30,30,31,31,34,34,36,36,38,38,39,39,41,41],"right_children":[2,4,6,-1,8,10,-1,-1,12,14,-1,16,-1,18,-1,20,-1,-1,22,-1,24,-1,26,-1,28,30,-1,32,-1,-1,34,36,-1,-1,38,-1,40,-1,42,44,-1,46,-1,-1,-1,-1,-1],"split_conditions":[1.3413723E5,-7.254454E3,1.4428923E3,-0E0,-2.7477212E3,9.7876906E-1,-0E0,-0E0,1.8058338E4,-1.1171252E3,-0E0,2.018E3,-0E0,-4.9499596E1,-0E0,-1.7822285E6,-0E0,-0E0,2.4520096E1,-0E0,0E0,-0E0,2.810615E3,-0E0,3.003534E3,-2.012354E4,-0E0,5.5261906E4,-0E0,-0E0,-3.3025023E4,-3.6180484E2,-0E0,-0E0,9.80021E3,-0E0,2.4389E4,-0E0,7.0263E4,2.7139475E3,-0E0,3.6117816E0,-0E0,-0E0,2.3168745E-2,-0E0,-4.191298E-2],"split_indices":[12,84,35,0,82,7,0,0,64,88,0,2,0,100,0,17,0,0,24,0,117,0,90,0,87,30,0,86,0,0,80,73,0,0,47,0,31,0,0,96,0,20,0,0,0,0,0],"split_type":[0,0,0,0,0,0,0,0,0,0,0,0,0,0,0,0,0,0,0,0,0,0,0,0,0,0,0,0,0,0,0,0,0,0,0,0,0,0,0,0,0,0,0,0,0,0,0],"sum_hessian":[2.95E3,1.524E3,1.426E3,2.58E2,1.266E3,1.214E3,2.12E2,3.29E2,9.37E2,1.133E3,8.1E1,9.01E2,3.6E1,9.88E2,1.45E2,7.95E2,1.06E2,8.7E1,9.01E2,3.7E1,7.58E2,2.5E2,6.51E2,5.1E1,7.07E2,5.66E2,8.5E1,6.78E2,2.9E1,2.4E1,5.42E2,6.56E2,2.2E1,2.4E1,5.18E2,1.1E1,6.45E2,8.9E1,4.29E2,6.4E2,5E0,4.17E2,1.2E1,1.4E1,6.26E2,2E1,3.97E2],"tree_param":{"num_deleted":"0","num_feature":"200","num_nodes":"47","size_leaf_vector":"1"}},{"base_weights":[-0E0,6.807468E-3,-0E0,-0E0,4.406625E-2,-2.2046885E-2,-0E0,6.5628305E-2,-0E0,-0E0,-4.631448E-2,-0E0,8.800944E-2,-0E0,-7.510241E-2,-0E0,1.0591152E-1,-0E0,-9.859229E-2,-0E0,1.2124558E-1,-1.16119236E-1,-0E0,-0E0,1.3489525E-1,-0E0,-1.362307E-1,-0E0,1.7328054E-1,-0E0,-1.5607756E-1,1.9033575E-1,-0E0,-1.7655411E-1,-0E0,1.9771862E-1,-0E0,-1.9548489E-1,-0E0,2.0641647E-1,-0E0,-0E0,-2.1427274E-1,-0E0,3.147432E-2,-3.4413267E-2,-0E0],"categories":[],"categories_nodes":[],"categories_segments":[],"categories_sizes":[],"default_left":[0,0,0,0,0,0,0,0,0,0,0,0,0,0,0,0,0,0,0,0,0,0,0,0,0,0,0,0,0,0,0,0,0,0,0,0,0,0,0,0,0,0,0,0,0,0,0],"id":4,"left_children":[1,3,5,-1,7,9,-1,11,-1,-1,13,-1,15,-1,17,-1,19,-1,21,-1,23,25,-1,-1,27,-1,29,-1,31,-1,33,35,-1,37,-1,39,-1,41,-1,43,-1,-1,45,-1,-1,-1,-1],"loss_changes":[6.520265E-2,2.1115937E0,5.098823E-1,0E0,2.2982535E0,1.3541498E0,0E0,3.061479E0,0E0,0E0,2.225238E0,0E0,2.3570867E0,0E0,2.1512527E0,0E0,2.1754875E0,0E0,2.1328406E0,0E0,2.2881155E0,2.3907433E0,0E0,0E0,2.6676054E0,0E0,2.439124E0,0E0,2.61059E0,0E0,2.7253332E0,1.3573399E0,0E0,3.0639648E0,0E0,1.3337116E0,0E0,3.045618E0,0E0,1.3271656E0,0E0,0E0,2.505392E0,0E0,0E0,0E0,0E0],"parents":[2147483647,0,0,1,1,2,2,4,4,5,5,7,7,10,10,12,12,14,14,16,16,18,18,20,20,21,21,24,24,26,26,28,28,30,30,31,31,33,33,35,35,37,37,39,39,42,42],"right_children":[2,4,6,-1,8,10,-1,12,-1,-1,14,-1,16,-1,18,-1,20,-1,22,-1,24,26,-1,-1,28,-1,30,-1,32,-1,34,36,-1,38,-1,40,-1,42,-1,44,-1,-1,46,-1,-1,-1,-1],"split_conditions":[-5.489205E0,-6.1461196E3,-4.2549785E3,-0E0,2.6460332E4,6.644594E3,-0E0,-1.2276067E4,-0E0,-0E0,-1.7747602E6,-0E0,-6.846832E3,-0E0,-2.0161174E4,-0E0,-2.384676E4,-0E0,3.2461834E4,-0E0,0E0,0E0,-0E0,-0E0,1.5435871E1,-0E0,-3.559546E4,-0E0,1.2167E4,-0E0,1E0,1.1354847E5,-0E0,9.746749E-1,-0E0,7.049748E2,-0E0,1.9510461E2,-0E0,-2.2248314E4,-0E0,-0E0,2.696E3,-0E0,3.147432E-2,-3.4413267E-2,-0E0],"split_indices":[65,84,88,0,81,45,0,55,0,0,16,0,62,0,81,0,65,0,39,0,112,161,0,0,23,0,77,0,37,0,175,58,0,5,0,39,0,41,0,83,0,0,0,0,0,0,0],"split_type":[0,0,0,0,0,0,0,0,0,0,0,0,0,0,0,0,0,0,0,0,0,0,0,0,0,0,0,0,0,0,0,0,0,0,0,0,0,0,0,0,0,0,0,0,0,0,0],"sum_hessian":[2.931E3,1.407E3,1.524E3,2.86E2,1.121E3,1.049E3,4.75E2,1.039E3,8.2E1,1.8E2,8.69E2,6.6E1,9.73E2,1.44E2,7.25E2,9.1E1,8.82E2,8.3E1,6.42E2,6.1E1,8.21E2,6.21E2,2.1E1,3.2E1,7.89E2,4.1E1,5.8E2,2.22E2,5.67E2,3.8E1,5.42E2,5.42E2,2.5E1,5.11E2,3.1E1,5.37E2,5E0,4.97E2,1.4E1,5.24E2,1.3E1,1.7E1,4.8E2,9E0,5.15E2,4.47E2,3.3E1],"tree_param":{"num_deleted":"0","num_feature":"200","num_nodes":"47","size_leaf_vector":"1"}},{"base_weights":[-0E0,-4.4725584E-5,-0E0,-3.9466254E-2,-0E0,-0E0,1.4157669E-2,-0E0,-8.500392E-2,-0E0,4.3188855E-2,-1.3049729E-1,-0E0,-0E0,6.30953E-2,-1.6992481E-1,-0E0,8.297127E-2,-0E0,-1.9507135E-1,-0E0,-0E0,9.445953E-2,-2.1559325E-1,-0E0,-0E0,1.1256537E-1,-2.3395066E-1,-0E0,1.2365725E-1,-0E0,-0E0,-2.552431E-1,-0E0,1.3266858E-1,-0E0,-2.6674554E-1,1.384315E-1,-0E0,-2.9212368E-1,-0E0,-0E0,1.4429244E-1,-0E0,-4.4937015E-2,2.2520224E-2,-0E0],"categories":[],"categories_nodes":[],"categories_segments":[],"categories_sizes":[],"default_left":[0,0,0,0,0,0,0,0,0,0,0,0,0,0,0,0,0,0,0,0,0,0,0,0,0,0,0,0,0,0,0,0,0,0,0,0,0,0,0,0,0,0,0,0,0,0,0],"id":5,"left_children":[1,3,5,7,-1,-1,9,-1,11,-1,13,15,-1,-1,17,19,-1,21,-1,23,-1,-1,25,27,-1,-1,29,31,-1,33,-1,-1,35,-1,37,-1,39,41,-1,43,-1,-1,45,-1,-1,-1,-1],"loss_changes":[3.0885835E-6,1.5513518E0,1.761864E-1,4.453174E0,0E0,0E0,1.1239119E0,0E0,4.6048775E0,0E0,1.1959993E0,5.0116673E0,0E0,0E0,1.7239366E0,3.747819E0,0E0,9.907665E-1,0E0,3.267086E0,0E0,0E0,1.4541254E0,3.362154E0,0E0,0E0,9.6534014E-1,3.1234913E0,0E0,1.0646057E0,0E0,0E0,1.474247E0,0E0,7.142992E-1,0E0,1.9172363E0,7.3032093E-1,0E0,2.5021973E0,0E0,0E0,7.709217E-1,0E0,0E0,0E0,0E0],"parents":[2147483647,0,0,1,1,2,2,3,3,6,6,8,8,10,10,11,11,14,14,15,15,17,17,19,19,22,22,23,23,26,26,27,27,29,29,32,32,34,34,36,36,37,37,39,39,42,42],"right_children":[2,4,6,8,-1,-1,10,-1,12,-1,14,16,-1,-1,18,20,-1,22,-1,24,-1,-1,26,28,-1,-1,30,32,-1,34,-1,-1,36,-1,38,-1,40,42,-1,44,-1,-1,46,-1,-1,-1,-1],"split_conditions":[-8.912848E3,6.2518024E2,4.8108345E1,-3.2221812E6,-0E0,-0E0,-2.383294E2,-0E0,4.265307E3,-0E0,-6.6384014E3,7.8545296E1,-0E0,-0E0,1.6342823E1,1.8242387E4,-0E0,-8.489694E3,-0E0,4.5384483E1,-0E0,-0E0,-1.8749645E1,9.746749E-1,-0E0,-0E0,6.539151E3,2.5713599E3,-0E0,-1.4930619E5,-0E0,-0E0,-9.8091614E-1,-0E0,-1.159538E3,-0E0,5.0001895E3,-5.0752E4,-0E0,-2.5934271E4,-0E0,-0E0,1.3225292E1,-0E0,-4.4937015E-2,2.2520224E-2,-0E0],"split_indices":[88,58,26,16,0,0,29,0,84,0,11,102,0,0,20,61,0,36,0,22,0,0,73,5,0,0,14,43,0,91,0,0,7,0,91,0,29,62,0,13,0,0,19,0,0,0,0],"split_type":[0,0,0,0,0,0,0,0,0,0,0,0,0,0,0,0,0,0,0,0,0,0,0,0,0,0,0,0,0,0,0,0,0,0,0,0,0,0,0,0,0,0,0,0,0,0,0],"sum_hessian":[2.965E3,1.544E3,1.421E3,9.96E2,5.48E2,5.42E2,8.79E2,1.65E2,8.31E2,1.82E2,6.97E2,6.23E2,2.08E2,7E1,6.27E2,5.41E2,8.2E1,6.13E2,1.4E1,5.09E2,3.2E1,2.9E1,5.84E2,4.87E2,2.2E1,5.8E1,5.26E2,4.75E2,1.2E1,4.99E2,2.7E1,2.8E1,4.47E2,5E0,4.94E2,1.7E1,4.3E2,4.91E2,3E0,3.81E2,4.9E1,4E0,4.87E2,7E0,3.74E2,4.64E2,2.3E1],"tree_param":{"num_deleted":"0","num_feature":"200","num_nodes":"47","size_leaf_vector":"1"}},{"base_weights":[-0E0,-0E0,4.4586356E-3,-3.2143727E-2,-0E0,2.8864583E-2,-0E0,-0E0,-6.1889715E-2,5.8887843E-2,-0E0,-0E0,-8.730149E-2,-0E0,8.062786E-2,-0E0,-1.0658498E-1,1.02016225E-1,-0E0,-0E0,-1.19324915E-1,1.2608176E-1,-0E0,-0E0,-1.3183475E-1,1.5854542E-1,-0E0,-0E0,-1.4862557E-1,-0E0,1.9011809E-1,-1.6234933E-1,-0E0,-0E0,2.0361358E-1,-0E0,-1.7399691E-1,-0E0,2.1792424E-1,-0E0,-1.8398756E-1,2.2829689E-1,-0E0,-0E0,-2.974438E-2,-0E0,3.5471383E-2],"categories":[],"categories_nodes":[],"categories_segments":[],"categories_sizes":[],"default_left":[0,0,0,0,0,0,0,0,0,0,0,0,0,0,0,0,0,0,0,0,0,0,0,0,0,0,0,0,0,0,0,0,0,0,0,0,0,0,0,0,0,0,0,0,0,0,0],"id":6,"left_children":[1,3,5,7,-1,9,-1,-1,11,13,-1,-1,15,-1,17,-1,19,21,-1,-1,23,25,-1,-1,27,29,-1,-1,31,-1,33,35,-1,-1,37,-1,39,-1,41,-1,43,45,-1,-1,-1,-1,-1],"loss_changes":[3.4987796E-2,8.6377126E-1,1.0422934E0,1.7983131E0,0E0,1.8529913E0,0E0,0E0,2.2538164E0,2.218402E0,0E0,0E0,1.8775935E0,0E0,2.5735502E0,0E0,1.4363222E0,2.6741595E0,0E0,0E0,1.5727301E0,2.4735813E0,0E0,0E0,1.6177549E0,3.5036707E0,0E0,0E0,1.942853E0,0E0,1.9510174E0,1.3807344E0,0E0,0E0,1.6215572E0,0E0,1.335535E0,0E0,1.6833687E0,0E0,1.5998707E0,1.7630177E0,0E0,0E0,0E0,0E0,0E0],"parents":[2147483647,0,0,1,1,2,2,3,3,5,5,8,8,9,9,12,12,14,14,16,16,17,17,20,20,21,21,24,24,25,25,28,28,30,30,31,31,34,34,36,36,38,38,40,40,41,41],"right_children":[2,4,6,8,-1,10,-1,-1,12,14,-1,-1,16,-1,18,-1,20,22,-1,-1,24,26,-1,-1,28,30,-1,-1,32,-1,34,36,-1,-1,38,-1,40,-1,42,-1,44,46,-1,-1,-1,-1,-1],"split_conditions":[-1.7270717E2,1.574608E2,2.874928E2,2.1081308E1,-0E0,2.015E3,-0E0,-0E0,-1.0940976E4,-1.2812743E4,-0E0,-0E0,7.939767E-2,-0E0,1.6761695E4,-0E0,1.1765076E2,6.272404E3,-0E0,-0E0,-2.2425652E4,-4.3794556E3,-0E0,-0E0,0E0,-7.415585E3,-0E0,-0E0,6.4481074E4,-0E0,-1.9965348E4,-1.5253082E4,-0E0,-0E0,0E0,-0E0,5.975E2,-0E0,4.1030637E4,-0E0,2.434456E4,-9.95927E4,-0E0,-0E0,-2.974438E-2,-0E0,3.5471383E-2],"split_indices":[61,32,29,24,0,2,0,0,32,29,0,0,5,0,64,0,41,58,0,0,30,91,0,0,123,57,0,0,62,0,50,39,0,0,117,0,197,0,85,0,99,85,0,0,0,0,0],"split_type":[0,0,0,0,0,0,0,0,0,0,0,0,0,0,0,0,0,0,0,0,0,0,0,0,0,0,0,0,0,0,0,0,0,0,0,0,0,0,0,0,0,0,0,0,0,0,0],"sum_hessian":[2.963E3,1.203E3,1.76E3,8.36E2,3.67E2,1.293E3,4.67E2,1.41E2,6.95E2,8.45E2,4.48E2,5E1,6.45E2,5.3E1,7.92E2,4.7E1,5.98E2,7.42E2,5E1,2E1,5.78E2,6.54E2,8.8E1,1.4E1,5.64E2,5.12E2,1.42E2,4.7E1,5.17E2,5.9E1,4.53E2,5.07E2,1E1,1.1E1,4.42E2,2E1,4.87E2,2.2E1,4.2E2,1.2E1,4.75E2,4.15E2,5E0,4.4E1,4.31E2,1.4E1,4.01E2],"tree_param":{"num_deleted":"0","num_feature":"200","num_nodes":"47","size_leaf_vector":"1"}},{"base_weights":[-0E0],"categories":[],"categories_nodes":[],"categories_segments":[],"categories_sizes":[],"default_left":[0],"id":7,"left_children":[-1],"loss_changes":[0E0],"parents":[2147483647],"right_children":[-1],"split_conditions":[-0E0],"split_indices":[0],"split_type":[0],"sum_hessian":[2.965E3],"tree_param":{"num_deleted":"0","num_feature":"200","num_nodes":"1","size_leaf_vector":"1"}},{"base_weights":[-0E0,-0E0,3.5072425E-3,-2.6332501E-2,-0E0,-0E0,2.7282836E-2,-6.1645757E-2,-0E0,-0E0,5.118493E-2,-8.9968845E-2,-0E0,7.3247194E-2,-0E0,-0E0,-1.14257194E-1,8.4483035E-2,-0E0,-1.3804701E-1,-0E0,1.0295165E-1,-0E0,-0E0,-1.6575724E-1,1.17297426E-1,-0E0,-0E0,-1.8612954E-1,1.3241E-1,-0E0,-0E0,-2.091165E-1,1.4554316E-1,-0E0,-0E0,-2.2312121E-1,-0E0,1.5324375E-1,-0E0,-2.3481919E-1,1.6626492E-1,-0E0,-3.547669E-2,-0E0,-0E0,2.5953176E-2],"categories":[],"categories_nodes":[],"categories_segments":[],"categories_sizes":[],"default_left":[0,0,0,0,0,0,0,0,0,0,0,0,0,0,0,0,0,0,0,0,0,0,0,0,0,0,0,0,0,0,0,0,0,0,0,0,0,0,0,0,0,0,0,0,0,0,0],"id":8,"left_children":[1,3,5,7,-1,-1,9,11,-1,-1,13,15,-1,17,-1,-1,19,21,-1,23,-1,25,-1,-1,27,29,-1,-1,31,33,-1,-1,35,37,-1,-1,39,-1,41,-1,43,45,-1,-1,-1,-1,-1],"loss_changes":[2.4318583E-2,5.6373477E-1,8.3764243E-1,2.2104108E0,0E0,0E0,1.8994104E0,2.649098E0,0E0,0E0,2.335522E0,3.049261E0,0E0,1.3695765E0,0E0,0E0,3.133194E0,1.1648421E0,0E0,3.121151E0,0E0,1.2430406E0,0E0,0E0,2.352746E0,1.4347048E0,0E0,0E0,2.9048843E0,1.1296597E0,0E0,0E0,2.3681202E0,1.1720009E0,0E0,0E0,1.7987423E0,0E0,1.2112942E0,0E0,1.2322598E0,1.2303944E0,0E0,0E0,0E0,0E0,0E0],"parents":[2147483647,0,0,1,1,2,2,3,3,6,6,7,7,10,10,11,11,13,13,16,16,17,17,19,19,21,21,24,24,25,25,28,28,29,29,32,32,33,33,36,36,38,38,40,40,41,41],"right_children":[2,4,6,8,-1,-1,10,12,-1,-1,14,16,-1,18,-1,-1,20,22,-1,24,-1,26,-1,-1,28,30,-1,-1,32,34,-1,-1,36,38,-1,-1,40,-1,42,-1,44,46,-1,-1,-1,-1,-1],"split_conditions":[-1.2506223E3,1.2596864E3,-2.1972475E0,6.360506E2,-0E0,-0E0,-3.1121204E3,9.657866E-1,-0E0,-0E0,4.913E3,-1.7373783E4,-0E0,2.4287926E4,-0E0,-0E0,-8.037552E2,2.017E3,-0E0,-3.2221812E6,-0E0,-5.547455E2,-0E0,-0E0,1.5058179E-1,2.924162E3,-0E0,-0E0,0E0,5.0568857E2,-0E0,-0E0,-4.0158984E4,-2.7E1,-0E0,-0E0,-1.2812743E4,-0E0,2.782202E4,-0E0,3.2461834E4,-2.7061719E4,-0E0,-3.547669E-2,-0E0,-0E0,2.5953176E-2],"split_indices":[84,35,34,37,0,0,29,7,0,0,37,34,0,82,0,0,88,2,0,16,0,67,0,0,5,36,0,0,105,69,0,0,58,40,0,0,32,0,84,0,39,80,0,0,0,0,0],"split_type":[0,0,0,0,0,0,0,0,0,0,0,0,0,0,0,0,0,0,0,0,0,0,0,0,0,0,0,0,0,0,0,0,0,0,0,0,0,0,0,0,0,0,0,0,0,0,0],"sum_hessian":[2.962E3,9.85E2,1.977E3,8.13E2,1.72E2,8.19E2,1.158E3,7.3E2,8.3E1,1.04E2,1.054E3,6.7E2,6E1,9.5E2,1.04E2,2.1E1,6.49E2,9.06E2,4.4E1,6.09E2,4E1,7.2E2,1.86E2,7.3E1,5.36E2,6.45E2,7.5E1,4.3E1,4.93E2,5.88E2,5.7E1,3.6E1,4.57E2,5.4E2,4.8E1,8E0,4.49E2,3E0,5.37E2,1.1E1,4.38E2,5E2,3.7E1,4.35E2,3E0,1.8E1,4.82E2],"tree_param":{"num_deleted":"0","num_feature":"200","num_nodes":"47","size_leaf_vector":"1"}},{"base_weights":[-0E0],"categories":[],"categories_nodes":[],"categories_segments":[],"categories_sizes":[],"default_left":[0],"id":9,"left_children":[-1],"loss_changes":[0E0],"parents":[2147483647],"right_children":[-1],"split_conditions":[-0E0],"split_indices":[0],"split_type":[0],"sum_hessian":[2.941E3],"tree_param":{"num_deleted":"0","num_feature":"200","num_nodes":"1","size_leaf_vector":"1"}},{"base_weights":[-0E0],"categories":[],"categories_nodes":[],"categories_segments":[],"categories_sizes":[],"default_left":[0],"id":10,"left_children":[-1],"loss_changes":[0E0],"parents":[2147483647],"right_children":[-1],"split_conditions":[-0E0],"split_indices":[0],"split_type":[0],"sum_hessian":[2.942E3],"tree_param":{"num_deleted":"0","num_feature":"200","num_nodes":"1","size_leaf_vector":"1"}},{"base_weights":[-0E0,1.6739674E-2,-0E0,4.7684867E-2,-0E0,-2.8227784E-3,-0E0,-0E0,8.066444E-2,-2.44209E-2,-0E0,-0E0,1.1210939E-1,-0E0,-4.1259106E-2,-0E0,1.252955E-1,-0E0,-5.5185016E-2,-0E0,1.363477E-1,-6.95542E-2,-0E0,-0E0,1.4506495E-1,-0E0,-8.289284E-2,1.53401E-1,-0E0,-9.1966674E-2,-0E0,-0E0,1.6263542E-1,-1.0059608E-1,-0E0,1.7634232E-1,-0E0,-0E0,-1.0987909E-1,-0E0,1.922636E-1,-1.17119335E-1,-0E0,-0E0,3.5841182E-2,-0E0,-1.8226204E-2],"categories":[],"categories_nodes":[],"categories_segments":[],"categories_sizes":[],"default_left":[0,0,0,0,0,0,0,0,0,0,0,0,0,0,0,0,0,0,0,0,0,0,0,0,0,0,0,0,0,0,0,0,0,0,0,0,0,0,0,0,0,0,0,0,0,0,0],"id":11,"left_children":[1,3,5,7,-1,9,-1,-1,11,13,-1,-1,15,-1,17,-1,19,-1,21,-1,23,25,-1,-1,27,-1,29,31,-1,33,-1,-1,35,37,-1,39,-1,-1,41,-1,43,45,-1,-1,-1,-1,-1],"loss_changes":[3.6260036E-1,2.300074E0,1.1386382E-2,3.447166E0,0E0,5.5517495E-1,0E0,0E0,3.9324036E0,7.935873E-1,0E0,0E0,2.1087532E0,0E0,9.5739007E-1,0E0,1.9407492E0,0E0,1.2382352E0,0E0,1.7542658E0,1.0960448E0,0E0,0E0,1.755825E0,0E0,9.8958015E-1,1.7068672E0,0E0,1.0577574E0,0E0,0E0,2.645506E0,1.1364899E0,0E0,3.1452236E0,0E0,0E0,8.197417E-1,0E0,3.4290066E0,9.5530987E-1,0E0,0E0,0E0,0E0,0E0],"parents":[2147483647,0,0,1,1,2,2,3,3,5,5,8,8,9,9,12,12,14,14,16,16,18,18,20,20,21,21,24,24,26,26,27,27,29,29,32,32,33,33,35,35,38,38,40,40,41,41],"right_children":[2,4,6,8,-1,10,-1,-1,12,14,-1,-1,16,-1,18,-1,20,-1,22,-1,24,26,-1,-1,28,-1,30,32,-1,34,-1,-1,36,38,-1,40,-1,-1,42,-1,44,46,-1,-1,-1,-1,-1],"split_conditions":[1.1955E3,1.4815347E12,2.3526306E3,0E0,-0E0,5.987971E2,-0E0,-0E0,-6.718537E3,0E0,-0E0,-0E0,2.1597363E-1,-0E0,0E0,-0E0,-5.252715E3,-0E0,2.4899225E5,-0E0,-3.528751E4,-4.330786E3,-0E0,-0E0,2.1682074E4,-0E0,7.9404336E4,-4.417723E3,-0E0,3.876278E3,-0E0,-0E0,9.261E3,1.3401493E1,-0E0,-2.1036914E4,-0E0,-0E0,1.1128447E5,-0E0,4.4859463E1,-7.785422E4,-0E0,-0E0,3.5841182E-2,-0E0,-1.8226204E-2],"split_indices":[198,12,35,131,0,63,0,0,83,167,0,0,40,0,117,0,44,0,89,0,33,29,0,0,42,0,62,62,0,95,0,0,33,24,0,84,0,0,41,0,26,37,0,0,0,0,0],"split_type":[0,0,0,0,0,0,0,0,0,0,0,0,0,0,0,0,0,0,0,0,0,0,0,0,0,0,0,0,0,0,0,0,0,0,0,0,0,0,0,0,0,0,0,0,0,0,0],"sum_hessian":[2.942E3,1.294E3,1.648E3,1.171E3,1.23E2,1.429E3,2.19E2,2.32E2,9.39E2,9.5E2,4.79E2,1.4E2,7.99E2,1.51E2,7.99E2,2.5E1,7.74E2,3.8E1,7.61E2,1.6E1,7.58E2,7.35E2,2.6E1,5E0,7.53E2,5.8E1,6.77E2,7.48E2,5E0,6.67E2,1E1,1.8E1,7.3E2,6.62E2,5E0,7.06E2,2.4E1,1.3E1,6.49E2,2.7E1,6.79E2,6.31E2,1.8E1,2E2,4.79E2,7E0,6.24E2],"tree_param":{"num_deleted":"0","num_feature":"200","num_nodes":"47","size_leaf_vector":"1"}},{"base_weights":[-0E0],"categories":[],"categories_nodes":[],"categories_segments":[],"categories_sizes":[],"default_left":[0],"id":12,"left_children":[-1],"loss_changes":[0E0],"parents":[2147483647],"right_children":[-1],"split_conditions":[-0E0],"split_indices":[0],"split_type":[0],"sum_hessian":[2.961E3],"tree_param":{"num_deleted":"0","num_feature":"200","num_nodes":"1","size_leaf_vector":"1"}},{"base_weights":[-0E0],"categories":[],"categories_nodes":[],"categories_segments":[],"categories_sizes":[],"default_left":[0],"id":13,"left_children":[-1],"loss_changes":[0E0],"parents":[2147483647],"right_children":[-1],"split_conditions":[-0E0],"split_indices":[0],"split_type":[0],"sum_hessian":[2.946E3],"tree_param":{"num_deleted":"0","num_feature":"200","num_nodes":"1","size_leaf_vector":"1"}},{"base_weights":[-0E0],"categories":[],"categories_nodes":[],"categories_segments":[],"categories_sizes":[],"default_left":[0],"id":14,"left_children":[-1],"loss_changes":[0E0],"parents":[2147483647],"right_children":[-1],"split_conditions":[-0E0],"split_indices":[0],"split_type":[0],"sum_hessian":[2.953E3],"tree_param":{"num_deleted":"0","num_feature":"200","num_nodes":"1","size_leaf_vector":"1"}},{"base_weights":[-0E0],"categories":[],"categories_nodes":[],"categories_segments":[],"categories_sizes":[],"default_left":[0],"id":15,"left_children":[-1],"loss_changes":[0E0],"parents":[2147483647],"right_children":[-1],"split_conditions":[-0E0],"split_indices":[0],"split_type":[0],"sum_hessian":[2.941E3],"tree_param":{"num_deleted":"0","num_feature":"200","num_nodes":"1","size_leaf_vector":"1"}},{"base_weights":[-0E0],"categories":[],"categories_nodes":[],"categories_segments":[],"categories_sizes":[],"default_left":[0],"id":16,"left_children":[-1],"loss_changes":[0E0],"parents":[2147483647],"right_children":[-1],"split_conditions":[-0E0],"split_indices":[0],"split_type":[0],"sum_hessian":[2.935E3],"tree_param":{"num_deleted":"0","num_feature":"200","num_nodes":"1","size_leaf_vector":"1"}},{"base_weights":[-0E0],"categories":[],"categories_nodes":[],"categories_segments":[],"categories_sizes":[],"default_left":[0],"id":17,"left_children":[-1],"loss_changes":[0E0],"parents":[2147483647],"right_children":[-1],"split_conditions":[-0E0],"split_indices":[0],"split_type":[0],"sum_hessian":[2.981E3],"tree_param":{"num_deleted":"0","num_feature":"200","num_nodes":"1","size_leaf_vector":"1"}},{"base_weights":[-0E0],"categories":[],"categories_nodes":[],"categories_segments":[],"categories_sizes":[],"default_left":[0],"id":18,"left_children":[-1],"loss_changes":[0E0],"parents":[2147483647],"right_children":[-1],"split_conditions":[-0E0],"split_indices":[0],"split_type":[0],"sum_hessian":[2.947E3],"tree_param":{"num_deleted":"0","num_feature":"200","num_nodes":"1","size_leaf_vector":"1"}},{"base_weights":[-0E0],"categories":[],"categories_nodes":[],"categories_segments":[],"categories_sizes":[],"default_left":[0],"id":19,"left_children":[-1],"loss_changes":[0E0],"parents":[2147483647],"right_children":[-1],"split_conditions":[-0E0],"split_indices":[0],"split_type":[0],"sum_hessian":[2.987E3],"tree_param":{"num_deleted":"0","num_feature":"200","num_nodes":"1","size_leaf_vector":"1"}},{"base_weights":[-0E0,-5.1795123E-3,-0E0,-0E0,-4.3305717E-2,-0E0,-8.8235386E-2,-1.1954004E-1,-0E0,-1.388134E-1,-0E0,-0E0,-1.6308956E-1,-0E0,-1.8159795E-1,-2.2191061E-1,-0E0,-0E0,-2.4061629E-1,-0E0,-2.5581157E-1,-2.7319273E-1,-0E0,-0E0,-4.1616302E-2],"categories":[],"categories_nodes":[],"categories_segments":[],"categories_sizes":[],"default_left":[0,0,0,0,0,0,0,0,0,0,0,0,0,0,0,0,0,0,0,0,0,0,0,0,0],"id":20,"left_children":[1,3,-1,-1,5,-1,7,9,-1,11,-1,-1,13,-1,15,17,-1,-1,19,-1,21,23,-1,-1,-1],"loss_changes":[6.701472E-2,2.0915537E0,0E0,0E0,4.4902344E0,0E0,4.497258E0,3.325079E0,0E0,4.4135876E0,0E0,0E0,3.540186E0,0E0,3.9207973E0,3.297144E0,0E0,0E0,2.4879704E0,0E0,2.4994774E0,2.065899E0,0E0,0E0,0E0],"parents":[2147483647,0,0,1,1,4,4,6,6,7,7,9,9,12,12,14,14,15,15,18,18,20,20,21,21],"right_children":[2,4,-1,-1,6,-1,8,10,-1,12,-1,-1,14,-1,16,18,-1,-1,20,-1,22,24,-1,-1,-1],"split_conditions":[1.4428923E3,9.581492E0,-0E0,-0E0,-4.155923E1,-0E0,9.657866E-1,1.3144215E4,-0E0,-1.43201045E4,-0E0,-0E0,0E0,-0E0,6.8524136E3,3.0076465E2,-0E0,-0E0,-2.012354E4,-0E0,-9.5881464E2,2E0,-0E0,-0E0,-4.1616302E-2],"split_indices":[35,19,0,0,100,0,7,39,0,52,0,0,161,0,78,41,0,0,30,0,67,1,0,0,0],"split_type":[0,0,0,0,0,0,0,0,0,0,0,0,0,0,0,0,0,0,0,0,0,0,0,0,0],"sum_hessian":[2.95E3,2.498E3,4.52E2,1.347E3,1.151E3,2.97E2,8.54E2,7.8E2,7.4E1,7.51E2,2.9E1,4.1E1,7.1E2,3E1,6.8E2,5.35E2,1.45E2,2.3E1,5.12E2,2.1E1,4.91E2,4.64E2,2.7E1,7E0,4.57E2],"tree_param":{"num_deleted":"0","num_feature":"200","num_nodes":"25","size_leaf_vector":"1"}},{"base_weights":[-0E0,7.803491E-4,-0E0,-0E0,1.9515304E-2,3.771626E-2,-0E0,-0E0,6.0427934E-2,-0E0,7.330498E-2,-0E0,9.3927234E-2,1.09577954E-1,-0E0,1.23540945E-1,-0E0,1.3280587E-1,-0E0,1.4231221E-1,-0E0,-0E0,1.5183517E-1,-0E0,2.4238348E-2],"categories":[],"categories_nodes":[],"categories_segments":[],"categories_sizes":[],"default_left":[0,0,0,0,0,0,0,0,0,0,0,0,0,0,0,0,0,0,0,0,0,0,0,0,0],"id":21,"left_children":[1,3,-1,-1,5,7,-1,-1,9,-1,11,-1,13,15,-1,17,-1,19,-1,21,-1,-1,23,-1,-1],"loss_changes":[1.3074044E-3,6.103331E-1,0E0,0E0,1.4097552E0,1.9405203E0,0E0,0E0,1.7556167E0,0E0,1.9755349E0,0E0,2.1769571E0,2.4619665E0,0E0,1.6721029E0,0E0,1.5095253E0,0E0,1.5923891E0,0E0,0E0,2.097168E0,0E0,0E0],"parents":[2147483647,0,0,1,1,4,4,5,5,8,8,10,10,12,12,13,13,15,15,17,17,19,19,22,22],"right_children":[2,4,-1,-1,6,8,-1,-1,10,-1,12,-1,14,16,-1,18,-1,20,-1,22,-1,-1,24,-1,-1],"split_conditions":[1.9639487E2,-2.7477212E3,-0E0,-0E0,1.901228E2,-7.572198E-1,-0E0,-0E0,-5.0752E4,-0E0,1.042246E1,-0E0,4.913E3,9.274004E2,-0E0,1.7748E3,-0E0,-3.0024432E2,-0E0,-1.2812743E4,-0E0,-0E0,-1.2439356E4,-0E0,2.4238348E-2],"split_indices":[50,82,0,0,52,7,0,0,57,0,22,0,38,72,0,196,0,67,0,31,0,0,14,0,0],"split_type":[0,0,0,0,0,0,0,0,0,0,0,0,0,0,0,0,0,0,0,0,0,0,0,0,0],"sum_hessian":[2.955E3,2.147E3,8.08E2,5.41E2,1.606E3,1.421E3,1.85E2,3.36E2,1.085E3,2.1E1,1.064E3,1.92E2,8.72E2,8.22E2,5E1,8.08E2,1.4E1,7.94E2,1.4E1,7.66E2,2.8E1,2.4E1,7.42E2,3.7E1,7.05E2],"tree_param":{"num_deleted":"0","num_feature":"200","num_nodes":"25","size_leaf_vector":"1"}},{"base_weights":[-0E0],"categories":[],"categories_nodes":[],"categories_segments":[],"categories_sizes":[],"default_left":[0],"id":22,"left_children":[-1],"loss_changes":[0E0],"parents":[2147483647],"right_children":[-1],"split_conditions":[-0E0],"split_indices":[0],"split_type":[0],"sum_hessian":[2.942E3],"tree_param":{"num_deleted":"0","num_feature":"200","num_nodes":"1","size_leaf_vector":"1"}},{"base_weights":[-0E0],"categories":[],"categories_nodes":[],"categories_segments":[],"categories_sizes":[],"default_left":[0],"id":23,"left_children":[-1],"loss_changes":[0E0],"parents":[2147483647],"right_children":[-1],"split_conditions":[-0E0],"split_indices":[0],"split_type":[0],"sum_hessian":[2.926E3],"tree_param":{"num_deleted":"0","num_feature":"200","num_nodes":"1","size_leaf_vector":"1"}},{"base_weights":[-0E0],"categories":[],"categories_nodes":[],"categories_segments":[],"categories_sizes":[],"default_left":[0],"id":24,"left_children":[-1],"loss_changes":[0E0],"parents":[2147483647],"right_children":[-1],"split_conditions":[-0E0],"split_indices":[0],"split_type":[0],"sum_hessian":[2.953E3],"tree_param":{"num_deleted":"0","num_feature":"200","num_nodes":"1","size_leaf_vector":"1"}},{"base_weights":[-0E0],"categories":[],"categories_nodes":[],"categories_segments":[],"categories_sizes":[],"default_left":[0],"id":25,"left_children":[-1],"loss_changes":[0E0],"parents":[2147483647],"right_children":[-1],"split_conditions":[-0E0],"split_indices":[0],"split_type":[0],"sum_hessian":[2.934E3],"tree_param":{"num_deleted":"0","num_feature":"200","num_nodes":"1","size_leaf_vector":"1"}},{"base_weights":[-0E0],"categories":[],"categories_nodes":[],"categories_segments":[],"categories_sizes":[],"default_left":[0],"id":26,"left_children":[-1],"loss_changes":[0E0],"parents":[2147483647],"right_children":[-1],"split_conditions":[-0E0],"split_indices":[0],"split_type":[0],"sum_hessian":[2.928E3],"tree_param":{"num_deleted":"0","num_feature":"200","num_nodes":"1","size_leaf_vector":"1"}},{"base_weights":[-0E0],"categories":[],"categories_nodes":[],"categories_segments":[],"categories_sizes":[],"default_left":[0],"id":27,"left_children":[-1],"loss_changes":[0E0],"parents":[2147483647],"right_children":[-1],"split_conditions":[-0E0],"split_indices":[0],"split_type":[0],"sum_hessian":[2.947E3],"tree_param":{"num_deleted":"0","num_feature":"200","num_nodes":"1","size_leaf_vector":"1"}},{"base_weights":[-0E0,6.311855E-3,-0E0,2.8902752E-2,-0E0,5.881295E-2,-0E0,-0E0,9.119273E-2,1.15379035E-1,-0E0,1.3056807E-1,-0E0,-0E0,1.4965892E-1,1.623291E-1,-0E0,-0E0,1.8574764E-1,-0E0,2.0450808E-1,2.2066522E-1,-0E0,3.39322E-2,-0E0],"categories":[],"categories_nodes":[],"categories_segments":[],"categories_sizes":[],"default_left":[0,0,0,0,0,0,0,0,0,0,0,0,0,0,0,0,0,0,0,0,0,0,0,0,0],"id":28,"left_children":[1,3,-1,5,-1,7,-1,-1,9,11,-1,13,-1,-1,15,17,-1,-1,19,-1,21,23,-1,-1,-1],"loss_changes":[1.0258675E-1,1.1128753E0,0E0,1.8284255E0,0E0,1.7794585E0,0E0,0E0,2.2588096E0,1.7828164E0,0E0,1.7739801E0,0E0,0E0,1.6141405E0,1.616785E0,0E0,0E0,1.8557796E0,0E0,1.803874E0,1.4213905E0,0E0,0E0,0E0],"parents":[2147483647,0,0,1,1,3,3,5,5,8,8,9,9,11,11,14,14,15,15,18,18,20,20,21,21],"right_children":[2,4,-1,6,-1,8,-1,-1,10,12,-1,14,-1,-1,16,18,-1,-1,20,-1,22,24,-1,-1,-1],"split_conditions":[1.4815347E12,1.2438E3,-0E0,1.9681932E1,-0E0,4.9304358E2,-0E0,-0E0,2.319116E5,3.7412645E4,-0E0,0E0,-0E0,-0E0,1E0,1.8119816E4,-0E0,-0E0,0E0,-0E0,2.7030285E4,1.9465162E4,-0E0,3.39322E-2,-0E0],"split_indices":[12,199,0,31,0,40,0,0,96,85,0,176,0,0,107,99,0,0,108,0,15,35,0,0,0],"split_type":[0,0,0,0,0,0,0,0,0,0,0,0,0,0,0,0,0,0,0,0,0,0,0,0,0],"sum_hessian":[2.931E3,2.575E3,3.56E2,1.455E3,1.12E3,8.8E2,5.75E2,3E2,5.8E2,5.32E2,4.8E1,5.2E2,1.2E1,4.5E1,4.75E2,4.65E2,1E1,6.3E1,4.02E2,2.6E1,3.76E2,3.6E2,1.6E1,3.55E2,5E0],"tree_param":{"num_deleted":"0","num_feature":"200","num_nodes":"25","size_leaf_vector":"1"}},{"base_weights":[-0E0],"categories":[],"categories_nodes":[],"categories_segments":[],"categories_sizes":[],"default_left":[0],"id":29,"left_children":[-1],"loss_changes":[0E0],"parents":[2147483647],"right_children":[-1],"split_conditions":[-0E0],"split_indices":[0],"split_type":[0],"sum_hessian":[2.967E3],"tree_param":{"num_deleted":"0","num_feature":"200","num_nodes":"1","size_leaf_vector":"1"}},{"base_weights":[-0E0],"categories":[],"categories_nodes":[],"categories_segments":[],"categories_sizes":[],"default_left":[0],"id":30,"left_children":[-1],"loss_changes":[0E0],"parents":[2147483647],"right_children":[-1],"split_conditions":[-0E0],"split_indices":[0],"split_type":[0],"sum_hessian":[2.936E3],"tree_param":{"num_deleted":"0","num_feature":"200","num_nodes":"1","size_leaf_vector":"1"}},{"base_weights":[-0E0],"categories":[],"categories_nodes":[],"categories_segments":[],"categories_sizes":[],"default_left":[0],"id":31,"left_children":[-1],"loss_changes":[0E0],"parents":[2147483647],"right_children":[-1],"split_conditions":[-0E0],"split_indices":[0],"split_type":[0],"sum_hessian":[2.936E3],"tree_param":{"num_deleted":"0","num_feature":"200","num_nodes":"1","size_leaf_vector":"1"}},{"base_weights":[-0E0],"categories":[],"categories_nodes":[],"categories_segments":[],"categories_sizes":[],"default_left":[0],"id":32,"left_children":[-1],"loss_changes":[0E0],"parents":[2147483647],"right_children":[-1],"split_conditions":[-0E0],"split_indices":[0],"split_type":[0],"sum_hessian":[2.984E3],"tree_param":{"num_deleted":"0","num_feature":"200","num_nodes":"1","size_leaf_vector":"1"}},{"base_weights":[-0E0],"categories":[],"categories_nodes":[],"categories_segments":[],"categories_sizes":[],"default_left":[0],"id":33,"left_children":[-1],"loss_changes":[0E0],"parents":[2147483647],"right_children":[-1],"split_conditions":[-0E0],"split_indices":[0],"split_type":[0],"sum_hessian":[2.989E3],"tree_param":{"num_deleted":"0","num_feature":"200","num_nodes":"1","size_leaf_vector":"1"}},{"base_weights":[-0E0],"categories":[],"categories_nodes":[],"categories_segments":[],"categories_sizes":[],"default_left":[0],"id":34,"left_children":[-1],"loss_changes":[0E0],"parents":[2147483647],"right_children":[-1],"split_conditions":[-0E0],"split_indices":[0],"split_type":[0],"sum_hessian":[2.953E3],"tree_param":{"num_deleted":"0","num_feature":"200","num_nodes":"1","size_leaf_vector":"1"}},{"base_weights":[-0E0],"categories":[],"categories_nodes":[],"categories_segments":[],"categories_sizes":[],"default_left":[0],"id":35,"left_children":[-1],"loss_changes":[0E0],"parents":[2147483647],"right_children":[-1],"split_conditions":[-0E0],"split_indices":[0],"split_type":[0],"sum_hessian":[2.958E3],"tree_param":{"num_deleted":"0","num_feature":"200","num_nodes":"1","size_leaf_vector":"1"}},{"base_weights":[-0E0],"categories":[],"categories_nodes":[],"categories_segments":[],"categories_sizes":[],"default_left":[0],"id":36,"left_children":[-1],"loss_changes":[0E0],"parents":[2147483647],"right_children":[-1],"split_conditions":[-0E0],"split_indices":[0],"split_type":[0],"sum_hessian":[2.962E3],"tree_param":{"num_deleted":"0","num_feature":"200","num_nodes":"1","size_leaf_vector":"1"}},{"base_weights":[-0E0,-0E0,2.7009717E-3,-2.0472283E-2,-0E0,-0E0,2.5865333E-2,-0E0,-7.397864E-2,5.9220858E-2,-0E0,-1.1422518E-1,-0E0,1.06474444E-1,-0E0,-1.4492962E-1,-0E0,1.407841E-1,-0E0,-1.7426373E-1,-0E0,1.5924726E-1,-0E0,-0E0,-2.035997E-1,-0E0,1.7841642E-1,-2.2399902E-1,-0E0,1.9273406E-1,-0E0,-0E0,-2.56207E-1,2.0595728E-1,-0E0,-2.760289E-1,-0E0,2.150147E-1,-0E0,-2.935266E-1,-0E0,2.265213E-1,-0E0,-0E0,-4.54132E-2,-0E0,3.4550674E-2],"categories":[],"categories_nodes":[],"categories_segments":[],"categories_sizes":[],"default_left":[0,0,0,0,0,0,0,0,0,0,0,0,0,0,0,0,0,0,0,0,0,0,0,0,0,0,0,0,0,0,0,0,0,0,0,0,0,0,0,0,0,0,0,0,0,0,0],"id":37,"left_children":[1,3,5,7,-1,-1,9,-1,11,13,-1,15,-1,17,-1,19,-1,21,-1,23,-1,25,-1,-1,27,-1,29,31,-1,33,-1,-1,35,37,-1,39,-1,41,-1,43,-1,45,-1,-1,-1,-1,-1],"loss_changes":[1.1665102E-2,4.14085E-1,8.319634E-1,1.7148494E0,0E0,0E0,2.2145715E0,0E0,2.6594582E0,1.9299953E0,0E0,2.2691522E0,0E0,2.5236459E0,0E0,2.5083284E0,0E0,1.7951655E0,0E0,2.3310928E0,0E0,1.738843E0,0E0,0E0,1.4497347E0,0E0,1.7325191E0,1.882246E0,0E0,1.5590506E0,0E0,0E0,1.7618599E0,1.0113783E0,0E0,1.7916069E0,0E0,1.0710096E0,0E0,1.6799507E0,0E0,1.01437E0,0E0,0E0,0E0,0E0,0E0],"parents":[2147483647,0,0,1,1,2,2,3,3,6,6,8,8,9,9,11,11,13,13,15,15,17,17,19,19,21,21,24,24,26,26,27,27,29,29,32,32,33,33,35,35,37,37,39,39,41,41],"right_children":[2,4,6,8,-1,-1,10,-1,12,14,-1,16,-1,18,-1,20,-1,22,-1,24,-1,26,-1,-1,28,-1,30,32,-1,34,-1,-1,36,38,-1,40,-1,42,-1,44,-1,46,-1,-1,-1,-1,-1],"split_conditions":[-1.25E-1,2.383294E2,-4.703587E3,2.5412597E5,-0E0,-0E0,2.015E3,-0E0,3.496225E4,0E0,-0E0,8.615125E3,-0E0,1E0,-0E0,6.12165E1,-0E0,2.6681498E9,-0E0,-1.0360128E4,-0E0,1.1248522E3,-0E0,-0E0,3.4893035E4,-0E0,1.349992E4,2.613765E1,-0E0,1.65342E5,-0E0,-0E0,4.0328906E4,3.2461834E4,-0E0,9.664613E-1,-0E0,1E0,-0E0,-1.272639E5,-0E0,7.079417E3,-0E0,-0E0,-4.54132E-2,-0E0,3.4550674E-2],"split_indices":[30,37,83,103,0,0,2,0,10,13,0,39,0,180,0,23,0,16,0,35,0,45,0,0,64,0,42,24,0,0,0,0,62,37,0,5,0,109,0,30,0,99,0,0,0,0,0],"split_type":[0,0,0,0,0,0,0,0,0,0,0,0,0,0,0,0,0,0,0,0,0,0,0,0,0,0,0,0,0,0,0,0,0,0,0,0,0,0,0,0,0,0,0,0,0,0,0],"sum_hessian":[2.927E3,1.328E3,1.599E3,9.88E2,3.4E2,3.38E2,1.261E3,5.99E2,3.89E2,8.72E2,3.89E2,3.67E2,2.2E1,4.4E2,4.32E2,3.36E2,3.1E1,3.79E2,6.1E1,3.15E2,2.1E1,3.67E2,1.2E1,2.8E1,2.87E2,2E1,3.47E2,2.66E2,2.1E1,3.44E2,3E0,3.4E1,2.32E2,3.38E2,6E0,2.23E2,9E0,3.32E2,6E0,2.18E2,5E0,3.2E2,1.2E1,4E0,2.14E2,5E0,3.15E2],"tree_param":{"num_deleted":"0","num_feature":"200","num_nodes":"47","size_leaf_vector":"1"}},{"base_weights":[-0E0],"categories":[],"categories_nodes":[],"categories_segments":[],"categories_sizes":[],"default_left":[0],"id":38,"left_children":[-1],"loss_changes":[0E0],"parents":[2147483647],"right_children":[-1],"split_conditions":[-0E0],"split_indices":[0],"split_type":[0],"sum_hessian":[2.956E3],"tree_param":{"num_deleted":"0","num_feature":"200","num_nodes":"1","size_leaf_vector":"1"}},{"base_weights":[-0E0],"categories":[],"categories_nodes":[],"categories_segments":[],"categories_sizes":[],"default_left":[0],"id":39,"left_children":[-1],"loss_changes":[0E0],"parents":[2147483647],"right_children":[-1],"split_conditions":[-0E0],"split_indices":[0],"split_type":[0],"sum_hessian":[2.93E3],"tree_param":{"num_deleted":"0","num_feature":"200","num_nodes":"1","size_leaf_vector":"1"}},{"base_weights":[-0E0],"categories":[],"categories_nodes":[],"categories_segments":[],"categories_sizes":[],"default_left":[0],"id":40,"left_children":[-1],"loss_changes":[0E0],"parents":[2147483647],"right_children":[-1],"split_conditions":[-0E0],"split_indices":[0],"split_type":[0],"sum_hessian":[2.938E3],"tree_param":{"num_deleted":"0","num_feature":"200","num_nodes":"1","size_leaf_vector":"1"}},{"base_weights":[-0E0],"categories":[],"categories_nodes":[],"categories_segments":[],"categories_sizes":[],"default_left":[0],"id":41,"left_children":[-1],"loss_changes":[0E0],"parents":[2147483647],"right_children":[-1],"split_conditions":[-0E0],"split_indices":[0],"split_type":[0],"sum_hessian":[2.955E3],"tree_param":{"num_deleted":"0","num_feature":"200","num_nodes":"1","size_leaf_vector":"1"}},{"base_weights":[-0E0],"categories":[],"categories_nodes":[],"categories_segments":[],"categories_sizes":[],"default_left":[0],"id":42,"left_children":[-1],"loss_changes":[0E0],"parents":[2147483647],"right_children":[-1],"split_conditions":[-0E0],"split_indices":[0],"split_type":[0],"sum_hessian":[2.959E3],"tree_param":{"num_deleted":"0","num_feature":"200","num_nodes":"1","size_leaf_vector":"1"}},{"base_weights":[-0E0],"categories":[],"categories_nodes":[],"categories_segments":[],"categories_sizes":[],"default_left":[0],"id":43,"left_children":[-1],"loss_changes":[0E0],"parents":[2147483647],"right_children":[-1],"split_conditions":[-0E0],"split_indices":[0],"split_type":[0],"sum_hessian":[2.923E3],"tree_param":{"num_deleted":"0","num_feature":"200","num_nodes":"1","size_leaf_vector":"1"}},{"base_weights":[-0E0],"categories":[],"categories_nodes":[],"categories_segments":[],"categories_sizes":[],"default_left":[0],"id":44,"left_children":[-1],"loss_changes":[0E0],"parents":[2147483647],"right_children":[-1],"split_conditions":[-0E0],"split_indices":[0],"split_type":[0],"sum_hessian":[2.928E3],"tree_param":{"num_deleted":"0","num_feature":"200","num_nodes":"1","size_leaf_vector":"1"}},{"base_weights":[-0E0,-6.4071817E-3,-0E0,-0E0,-2.5944764E-2,-0E0,2.4278855E-3,-0E0,-5.8763828E-2,2.8740095E-2,-0E0,-0E0,-7.903236E-2,4.9348745E-2,-0E0,-1.1465274E-1,-0E0,8.128953E-2,-0E0,-1.3376085E-1,-0E0,-0E0,1.0106141E-1,-0E0,-1.5447858E-1,-0E0,1.178653E-1,-1.6691855E-1,-0E0,1.294171E-1,-0E0,-1.7948098E-1,-0E0,1.3990581E-1,-0E0,-0E0,-1.9618237E-1,1.5395465E-1,-0E0,-2.0576957E-1,-0E0,-0E0,1.6567113E-1,-0E0,-3.143508E-2,2.5798365E-2,-0E0],"categories":[],"categories_nodes":[],"categories_segments":[],"categories_sizes":[],"default_left":[0,0,0,0,0,0,0,0,0,0,0,0,0,0,0,0,0,0,0,0,0,0,0,0,0,0,0,0,0,0,0,0,0,0,0,0,0,0,0,0,0,0,0,0,0,0,0],"id":45,"left_children":[1,3,5,-1,7,-1,9,-1,11,13,-1,-1,15,17,-1,19,-1,21,-1,23,-1,-1,25,-1,27,-1,29,31,-1,33,-1,35,-1,37,-1,-1,39,41,-1,43,-1,-1,45,-1,-1,-1,-1],"loss_changes":[9.97563E-2,1.1556325E0,2.5170061E-3,0E0,2.3117537E0,0E0,3.4357408E-1,0E0,2.3354352E0,5.939342E-1,0E0,0E0,2.4840922E0,8.9038736E-1,0E0,2.3664007E0,0E0,6.616595E-1,0E0,1.9662457E0,0E0,0E0,7.448175E-1,0E0,1.685236E0,0E0,5.985825E-1,1.7665844E0,0E0,4.7072744E-1,0E0,1.8795109E0,0E0,5.053134E-1,0E0,0E0,1.3415852E0,5.6808424E-1,0E0,1.3161163E0,0E0,0E0,5.142064E-1,0E0,0E0,0E0,0E0],"parents":[2147483647,0,0,1,1,2,2,4,4,6,6,8,8,9,9,12,12,13,13,15,15,17,17,19,19,22,22,24,24,26,26,27,27,29,29,31,31,33,33,36,36,37,37,39,39,42,42],"right_children":[2,4,6,-1,8,-1,10,-1,12,14,-1,-1,16,18,-1,20,-1,22,-1,24,-1,-1,26,-1,28,-1,30,32,-1,34,-1,36,-1,38,-1,-1,40,42,-1,44,-1,-1,46,-1,-1,-1,-1],"split_conditions":[2.9415704E2,-1.4457101E4,-1.125226E4,-0E0,2.8032065E3,-0E0,1.744E3,-0E0,0E0,2.0796875E4,-0E0,-0E0,1.5029749E3,3.959608E3,-0E0,1E0,-0E0,1.520875E3,-0E0,0E0,-0E0,-0E0,2E0,-0E0,7.361112E4,-0E0,1.1354847E5,1E0,-0E0,9.9630326E-1,-0E0,6E0,-0E0,1E0,-0E0,-0E0,-2.1498909E2,-4.0158984E4,-0E0,2.1902807E-2,-0E0,-0E0,1E0,-0E0,-3.143508E-2,2.5798365E-2,-0E0],"split_indices":[68,16,78,0,41,0,196,0,161,13,0,0,84,81,0,139,0,41,0,106,0,0,1,0,81,0,62,142,0,7,0,0,0,127,0,0,67,54,0,5,0,0,110,0,0,0,0],"split_type":[0,0,0,0,0,0,0,0,0,0,0,0,0,0,0,0,0,0,0,0,0,0,0,0,0,0,0,0,0,0,0,0,0,0,0,0,0,0,0,0,0,0,0,0,0,0,0],"sum_hessian":[2.96E3,2.43E3,5.3E2,5.65E2,1.865E3,1.03E2,4.27E2,8.32E2,1.033E3,4.19E2,8E0,8.8E1,9.45E2,3.86E2,3.3E1,6.38E2,3.07E2,2.77E2,1.09E2,6.01E2,3.7E1,3.3E1,2.44E2,6.8E1,5.33E2,1.1E1,2.33E2,5.17E2,1.6E1,2.29E2,4E0,5.02E2,1.5E1,2.2E2,9E0,3.3E1,4.69E2,2.03E2,1.7E1,4.58E2,1.1E1,7E0,1.96E2,6E0,4.52E2,1.91E2,5E0],"tree_param":{"num_deleted":"0","num_feature":"200","num_nodes":"47","size_leaf_vector":"1"}},{"base_weights":[-0E0],"categories":[],"categories_nodes":[],"categories_segments":[],"categories_sizes":[],"default_left":[0],"id":46,"left_children":[-1],"loss_changes":[0E0],"parents":[2147483647],"right_children":[-1],"split_conditions":[-0E0],"split_indices":[0],"split_type":[0],"sum_hessian":[2.948E3],"tree_param":{"num_deleted":"0","num_feature":"200","num_nodes":"1","size_leaf_vector":"1"}},{"base_weights":[-0E0],"categories":[],"categories_nodes":[],"categories_segments":[],"categories_sizes":[],"default_left":[0],"id":47,"left_children":[-1],"loss_changes":[0E0],"parents":[2147483647],"right_children":[-1],"split_conditions":[-0E0],"split_indices":[0],"split_type":[0],"sum_hessian":[2.934E3],"tree_param":{"num_deleted":"0","num_feature":"200","num_nodes":"1","size_leaf_vector":"1"}},{"base_weights":[-0E0],"categories":[],"categories_nodes":[],"categories_segments":[],"categories_sizes":[],"default_left":[0],"id":48,"left_children":[-1],"loss_changes":[0E0],"parents":[2147483647],"right_children":[-1],"split_conditions":[-0E0],"split_indices":[0],"split_type":[0],"sum_hessian":[2.963E3],"tree_param":{"num_deleted":"0","num_feature":"200","num_nodes":"1","size_leaf_vector":"1"}},{"base_weights":[-0E0],"categories":[],"categories_nodes":[],"categories_segments":[],"categories_sizes":[],"default_left":[0],"id":49,"left_children":[-1],"loss_changes":[0E0],"parents":[2147483647],"right_children":[-1],"split_conditions":[-0E0],"split_indices":[0],"split_type":[0],"sum_hessian":[2.956E3],"tree_param":{"num_deleted":"0","num_feature":"200","num_nodes":"1","size_leaf_vector":"1"}},{"base_weights":[-0E0],"categories":[],"categories_nodes":[],"categories_segments":[],"categories_sizes":[],"default_left":[0],"id":50,"left_children":[-1],"loss_changes":[0E0],"parents":[2147483647],"right_children":[-1],"split_conditions":[-0E0],"split_indices":[0],"split_type":[0],"sum_hessian":[2.971E3],"tree_param":{"num_deleted":"0","num_feature":"200","num_nodes":"1","size_leaf_vector":"1"}},{"base_weights":[-0E0],"categories":[],"categories_nodes":[],"categories_segments":[],"categories_sizes":[],"default_left":[0],"id":51,"left_children":[-1],"loss_changes":[0E0],"parents":[2147483647],"right_children":[-1],"split_conditions":[-0E0],"split_indices":[0],"split_type":[0],"sum_hessian":[2.938E3],"tree_param":{"num_deleted":"0","num_feature":"200","num_nodes":"1","size_leaf_vector":"1"}},{"base_weights":[-0E0],"categories":[],"categories_nodes":[],"categories_segments":[],"categories_sizes":[],"default_left":[0],"id":52,"left_children":[-1],"loss_changes":[0E0],"parents":[2147483647],"right_children":[-1],"split_conditions":[-0E0],"split_indices":[0],"split_type":[0],"sum_hessian":[2.985E3],"tree_param":{"num_deleted":"0","num_feature":"200","num_nodes":"1","size_leaf_vector":"1"}},{"base_weights":[-0E0],"categories":[],"categories_nodes":[],"categories_segments":[],"categories_sizes":[],"default_left":[0],"id":53,"left_children":[-1],"loss_changes":[0E0],"parents":[2147483647],"right_children":[-1],"split_conditions":[-0E0],"split_indices":[0],"split_type":[0],"sum_hessian":[2.966E3],"tree_param":{"num_deleted":"0","num_feature":"200","num_nodes":"1","size_leaf_vector":"1"}},{"base_weights":[-0E0],"categories":[],"categories_nodes":[],"categories_segments":[],"categories_sizes":[],"default_left":[0],"id":54,"left_children":[-1],"loss_changes":[0E0],"parents":[2147483647],"right_children":[-1],"split_conditions":[-0E0],"split_indices":[0],"split_type":[0],"sum_hessian":[2.94E3],"tree_param":{"num_deleted":"0","num_feature":"200","num_nodes":"1","size_leaf_vector":"1"}},{"base_weights":[-0E0],"categories":[],"categories_nodes":[],"categories_segments":[],"categories_sizes":[],"default_left":[0],"id":55,"left_children":[-1],"loss_changes":[0E0],"parents":[2147483647],"right_children":[-1],"split_conditions":[-0E0],"split_indices":[0],"split_type":[0],"sum_hessian":[2.944E3],"tree_param":{"num_deleted":"0","num_feature":"200","num_nodes":"1","size_leaf_vector":"1"}}]},"name":"gbtree"},"learner_model_param":{"base_score":"2.6271285E-2","boost_from_average":"1","num_class":"0","num_feature":"200","num_target":"1"},"objective":{"name":"reg:squarederror","reg_loss_param":{"scale_pos_weight":"1"}}},"version":[3,0,4]}