{"learner":{"attributes":{"best_iteration":"12","best_score":"1.0393161390478924"},"feature_names":["Volume","day_of_month","year","day_sin","day_cos","day_of_year_norm","dayy_sin","dayy_cos","is_holiday","Log_Return","Log_Return_change1","Log_Return23","Log_Return123","Log_High_Return","Log_High_Return_change1","Log_High_Return_change3","Log_High_Return13","Log_High_Return23","Log_High_Return123","Close_Roll_Std_5","High_Roll_Std_5","High_Roll_Std_10","High_Roll_Std_20","High_Roll_Std_30","High_Roll_Std_60","High_Roll_Std_90","High_Roll_Std_250","High_Roll_Max_250","Log_Return_Lag_1","Log_Return_Lag_2","Log_Return_Lag_3","Log_Return_Lag_5","Log_Return_Lag_10","Log_Return_Lag_20","Log_Return_Lag_30","Log_Return_Lag_60","Log_Return_Lag_90","Log_Return_Lag_120","Log_Return_Lag_180","Log_Return_Lag_250","Log_Return_Roll_Max_5","Log_Return_Roll_Max_10","Log_Return_Roll_Mean_20","Log_Return_Roll_Max_20","Log_Return_Roll_Mean_30","Log_Return_Roll_Max_30","Log_Return_Roll_Mean_60","Log_Return_Roll_Max_60","Log_Return_Roll_Mean_90","Log_Return_Roll_Max_90","Log_Return_Roll_Mean_180","Log_Return_Roll_Max_180","Log_Return_Roll_Mean_250","Log_Return_Roll_Max_250","Log_Return_change1_Lag_1","Log_Return_change1_Lag_2","Log_Return_change1_Lag_3","Log_Return_change1_Lag_5","Log_Return_change1_Lag_10","Log_Return_change1_Lag_20","Log_Return_change1_Lag_30","Log_Return_change1_Lag_60","Log_Return_change1_Lag_90","Log_Return_change1_Lag_120","Log_Return_change1_Lag_180","Log_Return_change1_Lag_250","Log_Return_change1_Roll_Mean_5","Log_Return_change1_Roll_Min_5","Log_Return_change1_Roll_Mean_10","Log_Return_change1_Roll_Mean_20","Log_Return_change1_Roll_Mean_30","Log_Return_change1_Roll_Mean_60","Log_Return_change1_Roll_Mean_90","Log_Return_change1_Roll_Mean_180","Log_Return_change1_Roll_Mean_250","Log_Return_change2_Lag_1","Log_Return_change2_Lag_2","Log_Return_change2_Lag_3","Log_Return_change2_Lag_5","Log_Return_change2_Lag_10","Log_Return_change2_Lag_20","Log_Return_change2_Lag_30","Log_Return_change2_Lag_60","Log_Return_change2_Lag_90","Log_Return_change2_Lag_120","Log_Return_change2_Lag_180","Log_Return_change2_Lag_250","Log_Return_change2_Roll_Mean_5","Log_Return_change2_Roll_Min_5","Log_Return_change2_Roll_Max_5","Log_Return_change2_Roll_Mean_10","Log_Return_change2_Roll_Min_10","Log_Return_change2_Roll_Max_10","Log_Return_change2_Roll_Mean_20","Log_Return_change2_Roll_Max_20","Log_Return_change2_Roll_Mean_30","Log_Return_change2_Roll_Max_30","Log_Return_change2_Roll_Mean_60","Log_Return_change2_Roll_Mean_90","Log_Return_change2_Roll_Max_90","Log_Return_change2_Roll_Mean_180","Log_Return_change2_Roll_Max_180","Log_Return_change2_Roll_Mean_250","Log_Return_change2_Roll_Max_250","rsi_5_long","rsi_5_short","rsi_5_combined","rsi_7_long","rsi_7_short","rsi_7_combined","rsi_10_long","rsi_10_short","rsi_10_combined","macd_5_10_5_long","macd_5_10_5_short","macd_5_10_5_combined","stoch_3_2_2_long","stoch_3_2_2_short","stoch_3_2_2_combined","cci_6_long","cci_6_short","cci_6_combined","cci_10_long","cci_10_short","cci_10_combined","obv_combined","ad_combined","atr_10_long","atr_10_short","atr_10_combined","sma_2_long","sma_2_short","sma_2_combined","sma_3_long","sma_3_short","sma_3_combined","sma_5_long","sma_5_short","sma_5_combined","sma_8_long","sma_8_short","sma_8_combined","sma_13_long","sma_13_short","sma_13_combined","sma_21_long","sma_21_short","sma_21_combined","ema_3_long","ema_3_short","ema_3_combined","ema_5_long","ema_5_short","ema_5_combined","ema_8_long","ema_8_short","ema_8_combined","ema_13_long","ema_13_short","ema_13_combined","ema_21_long","ema_21_short","ema_21_combined","bb_3_1.5_1.5_long","bb_3_1.5_1.5_short","bb_3_1.5_1.5_combined","bb_3_2.0_2.0_long","bb_3_2.0_2.0_short","bb_3_2.0_2.0_combined","bb_5_1.5_1.5_long","bb_5_1.5_1.5_short","bb_5_1.5_1.5_combined","bb_5_2.0_2.0_long","bb_5_2.0_2.0_short","bb_5_2.0_2.0_combined","bb_8_2.0_2.0_long","bb_8_2.0_2.0_short","bb_8_2.0_2.0_combined","ht_dcperiod_combined","ht_phasor_short","ht_phasor_combined","typprice_long","typprice_short","typprice_combined","linearreg_3_combined","linearreg_5_combined","linearreg_8_combined","stddev_2_2_long","stddev_2_2_short","stddev_2_2_combined","stddev_3_2_long","stddev_3_2_short","stddev_3_2_combined","stddev_5_2_long","stddev_5_2_short","stddev_5_2_combined","Open","High","Low","Close"],"feature_types":["float","int","int","float","float","float","float","float","int","float","float","float","float","float","float","float","float","float","float","float","float","float","float","float","float","float","float","float","float","float","float","float","float","float","float","float","float","float","float","float","float","float","float","float","float","float","float","float","float","float","float","float","float","float","float","float","float","float","float","float","float","float","float","float","float","float","float","float","float","float","float","float","float","float","float","float","float","float","float","float","float","float","float","float","float","float","float","float","float","float","float","float","float","float","float","float","float","float","float","float","float","float","float","float","int","int","int","int","int","int","int","int","int","int","int","int","int","int","int","int","int","int","int","int","int","int","int","int","int","int","int","int","int","int","int","int","int","int","int","int","int","int","int","int","int","int","int","int","int","int","int","int","int","int","int","int","int","int","int","int","int","int","int","int","int","int","int","int","int","int","int","int","int","int","int","int","int","int","int","int","int","int","int","int","int","int","int","int","int","int","int","int","int","int","int","int","float","float","float","float"],"gradient_booster":{"model":{"gbtree_model_param":{"num_parallel_tree":"1","num_trees":"63"},"iteration_indptr":[0,1,2,3,4,5,6,7,8,9,10,11,12,13,14,15,16,17,18,19,20,21,22,23,24,25,26,27,28,29,30,31,32,33,34,35,36,37,38,39,40,41,42,43,44,45,46,47,48,49,50,51,52,53,54,55,56,57,58,59,60,61,62,63],"tree_info":[0,0,0,0,0,0,0,0,0,0,0,0,0,0,0,0,0,0,0,0,0,0,0,0,0,0,0,0,0,0,0,0,0,0,0,0,0,0,0,0,0,0,0,0,0,0,0,0,0,0,0,0,0,0,0,0,0,0,0,0,0,0,0],"trees":[{"base_weights":[-0E0,-1.3369516E-2,7.3614216E-4,-0E0,-4.907155E-2,3.6558427E-2,-0E0,-0E0,-8.636294E-2,8.8846676E-2,-0E0,-1.1506765E-1,-0E0,-0E0,1.2124734E-1,-0E0,-1.4058518E-1,1.4276339E-1,-0E0,-0E0,-1.627966E-1,1.7515059E-1,-0E0,-0E0,-1.8222013E-1,-0E0,1.927492E-1,-0E0,-2.0284835E-1,2.101789E-1,-0E0,-0E0,-1.3988759E-2,1.4365261E-2,-0E0],"categories":[],"categories_nodes":[],"categories_segments":[],"categories_sizes":[],"default_left":[0,0,0,0,0,0,0,0,0,0,0,0,0,0,0,0,0,0,0,0,0,0,0,0,0,0,0,0,0,0,0,0,0,0,0],"id":0,"left_children":[1,3,5,-1,7,9,-1,-1,11,13,-1,15,-1,-1,17,-1,19,21,-1,-1,23,25,-1,-1,27,-1,29,-1,31,33,-1,-1,-1,-1,-1],"loss_changes":[1.8635775E-1,1.6228848E0,1.7780849E0,0E0,3.2857747E0,3.3599129E0,0E0,0E0,3.2473607E0,3.387714E0,0E0,2.7856865E0,0E0,0E0,2.9685698E0,0E0,2.8131962E0,3.4142742E0,0E0,0E0,2.4292202E0,2.6264868E0,0E0,0E0,2.5581684E0,0E0,2.3429604E0,0E0,2.7724705E0,2.7487545E0,0E0,0E0,0E0,0E0,0E0],"parents":[2147483647,0,0,1,1,2,2,4,4,5,5,8,8,9,9,11,11,14,14,16,16,17,17,20,20,21,21,24,24,26,26,28,28,29,29],"right_children":[2,4,6,-1,8,10,-1,-1,12,14,-1,16,-1,-1,18,-1,20,22,-1,-1,24,26,-1,-1,28,-1,30,-1,32,34,-1,-1,-1,-1,-1],"split_conditions":[-1.7270717E2,6.2183743E0,1.629749E12,-0E0,7.939767E-2,1.1991E3,-0E0,-0E0,3.2750197E4,-5.17776E3,-0E0,2.5624498E4,-0E0,-0E0,1.0360302E4,-0E0,-1.2487432E4,-2.4075374E3,-0E0,-0E0,-1.2812743E4,-7.994142E-3,-0E0,-0E0,2.6071898E1,-0E0,5.304126E1,-0E0,-2.6427314E4,1.6761695E4,-0E0,-0E0,-1.3988759E-2,1.4365261E-2,-0E0],"split_indices":[61,20,12,0,5,198,0,0,77,63,0,99,0,0,31,0,65,91,0,0,28,40,0,0,25,0,102,0,14,64,0,0,0,0,0],"split_type":[0,0,0,0,0,0,0,0,0,0,0,0,0,0,0,0,0,0,0,0,0,0,0,0,0,0,0,0,0,0,0,0,0,0,0],"sum_hessian":[2.554E3,1.038E3,1.516E3,2.87E2,7.51E2,1.331E3,1.85E2,6.8E1,6.83E2,6.51E2,6.8E2,6.3E2,5.3E1,7.1E1,5.8E2,6.7E1,5.63E2,5.64E2,1.6E1,3.7E1,5.26E2,4.86E2,7.8E1,3.3E1,4.93E2,1.4E1,4.72E2,3.3E1,4.6E2,4.5E2,2.2E1,1.4E1,4.46E2,4.41E2,9E0],"tree_param":{"num_deleted":"0","num_feature":"200","num_nodes":"35","size_leaf_vector":"1"}},{"base_weights":[-0E0],"categories":[],"categories_nodes":[],"categories_segments":[],"categories_sizes":[],"default_left":[0],"id":1,"left_children":[-1],"loss_changes":[0E0],"parents":[2147483647],"right_children":[-1],"split_conditions":[-0E0],"split_indices":[0],"split_type":[0],"sum_hessian":[2.538E3],"tree_param":{"num_deleted":"0","num_feature":"200","num_nodes":"1","size_leaf_vector":"1"}},{"base_weights":[-0E0,8.505187E-3,-0E0,4.138481E-2,-0E0,-0E0,-5.1345065E-2,-0E0,5.5317864E-2,-0E0,-1.0185127E-1,-0E0,6.961582E-2,-1.4335313E-1,-0E0,8.235526E-2,-0E0,-0E0,-1.8303604E-1,-0E0,9.0698786E-2,-2.068326E-1,-0E0,-0E0,9.945239E-2,-2.4327347E-1,-0E0,-0E0,1.0597817E-1,-0E0,-2.6284197E-1,7.195324E-3,-0E0,-0E0,-1.8729093E-2],"categories":[],"categories_nodes":[],"categories_segments":[],"categories_sizes":[],"default_left":[0,0,0,0,0,0,0,0,0,0,0,0,0,0,0,0,0,0,0,0,0,0,0,0,0,0,0,0,0,0,0,0,0,0,0],"id":2,"left_children":[1,3,5,7,-1,-1,9,-1,11,-1,13,-1,15,17,-1,19,-1,-1,21,-1,23,25,-1,-1,27,29,-1,-1,31,-1,33,-1,-1,-1,-1],"loss_changes":[1.0756691E-1,1.4184508E0,2.35423E0,1.0811585E0,0E0,0E0,4.378289E0,0E0,1.143908E0,0E0,5.186552E0,0E0,1.4103136E0,4.4970055E0,0E0,9.753995E-1,0E0,0E0,3.348156E0,0E0,9.1532755E-1,2.8432846E0,0E0,0E0,8.547616E-1,2.539751E0,0E0,0E0,8.5949373E-1,0E0,2.23917E0,0E0,0E0,0E0,0E0],"parents":[2147483647,0,0,1,1,2,2,3,3,6,6,8,8,10,10,12,12,13,13,15,15,18,18,20,20,21,21,24,24,25,25,28,28,30,30],"right_children":[2,4,6,8,-1,-1,10,-1,12,-1,14,-1,16,18,-1,20,-1,-1,22,-1,24,26,-1,-1,28,30,-1,-1,32,-1,34,-1,-1,-1,-1],"split_conditions":[1.0582887E1,1.9681932E1,-6.028633E3,-1.5216521E4,-0E0,-0E0,-3.4446622E2,-0E0,4E0,-0E0,1E0,-0E0,1.5248029E2,-1.7715503E3,-0E0,2.1597363E-1,-0E0,-0E0,-1.399497E3,-0E0,-1.2812743E4,1.4351489E4,-0E0,-0E0,-3.528751E4,-9.129361E3,-0E0,-0E0,8.848507E3,-0E0,7.8909204E3,7.195324E-3,-0E0,-0E0,-1.8729093E-2],"split_indices":[19,31,58,59,0,0,68,0,0,0,133,0,26,33,0,40,0,0,67,0,31,84,0,0,37,39,0,0,75,0,92,0,0,0,0],"split_type":[0,0,0,0,0,0,0,0,0,0,0,0,0,0,0,0,0,0,0,0,0,0,0,0,0,0,0,0,0,0,0,0,0,0,0],"sum_hessian":[2.557E3,1.487E3,1.07E3,8.91E2,5.96E2,1.77E2,8.93E2,3.9E1,8.52E2,2.44E2,6.49E2,7.8E1,7.74E2,5.8E2,6.9E1,7.61E2,1.3E1,9E1,4.9E2,1.5E1,7.46E2,4.62E2,2.8E1,3.3E1,7.13E2,3.82E2,8E1,9E0,7.04E2,1.8E1,3.64E2,6.81E2,2.3E1,5E1,3.14E2],"tree_param":{"num_deleted":"0","num_feature":"200","num_nodes":"35","size_leaf_vector":"1"}},{"base_weights":[-0E0,9.633737E-3,-5.8225407E-5,-0E0,2.5721867E-2,-0E0,-3.854615E-2,-0E0,5.225022E-2,-7.5399496E-2,-0E0,7.190198E-2,-0E0,-1.2491369E-1,-0E0,-0E0,8.792101E-2,-1.5579545E-1,-0E0,-0E0,1.002139E-1,-1.751958E-1,-0E0,-0E0,1.16824165E-1,-1.9544402E-1,-0E0,-0E0,1.336661E-1,-0E0,-2.0988168E-1,9.7557595E-3,-0E0,-0E0,-1.5578548E-2],"categories":[],"categories_nodes":[],"categories_segments":[],"categories_sizes":[],"default_left":[0,0,0,0,0,0,0,0,0,0,0,0,0,0,0,0,0,0,0,0,0,0,0,0,0,0,0,0,0,0,0,0,0,0,0],"id":3,"left_children":[1,3,5,-1,7,-1,9,-1,11,13,-1,15,-1,17,-1,-1,19,21,-1,-1,23,25,-1,-1,27,29,-1,-1,31,-1,33,-1,-1,-1,-1],"loss_changes":[1.1592287E-1,5.4106486E-1,1.4204257E0,0E0,1.0902718E0,0E0,2.9911957E0,0E0,1.3857011E0,3.4993134E0,0E0,1.2036324E0,0E0,3.4727335E0,0E0,0E0,1.1166668E0,2.4591265E0,0E0,0E0,1.3160963E0,2.0859175E0,0E0,0E0,1.5743623E0,2.0438137E0,0E0,0E0,1.6189804E0,0E0,2.3026962E0,0E0,0E0,0E0,0E0],"parents":[2147483647,0,0,1,1,2,2,4,4,6,6,8,8,9,9,11,11,13,13,16,16,17,17,20,20,21,21,24,24,25,25,28,28,30,30],"right_children":[2,4,6,-1,8,-1,10,-1,12,14,-1,16,-1,18,-1,-1,20,22,-1,-1,24,26,-1,-1,28,30,-1,-1,32,-1,34,-1,-1,-1,-1],"split_conditions":[8.677485E3,1.2979872E1,-4.3656344E4,-0E0,-3.27665E1,-0E0,1.124872E3,-0E0,9.6164444E1,2.1872378E3,-0E0,-3.7309292E3,-0E0,9.7876906E-1,-0E0,-0E0,4.5391545E0,3.027951E4,-0E0,-0E0,-4.41099E3,1E0,-0E0,-0E0,-3.7205E3,-4.0158984E4,-0E0,-0E0,9.621309E3,-0E0,2.7402876E1,9.7557595E-3,-0E0,-0E0,-1.5578548E-2],"split_indices":[89,23,88,0,34,0,35,0,72,77,0,14,0,7,0,0,21,78,0,0,63,180,0,0,56,58,0,0,64,0,25,0,0,0,0],"split_type":[0,0,0,0,0,0,0,0,0,0,0,0,0,0,0,0,0,0,0,0,0,0,0,0,0,0,0,0,0,0,0,0,0,0,0],"sum_hessian":[2.594E3,1.249E3,1.345E3,2.56E2,9.93E2,3.89E2,9.56E2,3.53E2,6.4E2,7.76E2,1.8E2,6.06E2,3.4E1,5.07E2,2.69E2,4.5E1,5.61E2,4.69E2,3.8E1,1.8E1,5.43E2,4.51E2,1.8E1,4.7E1,4.96E2,4.17E2,3.4E1,2.9E1,4.67E2,9E0,4.08E2,4.21E2,4.6E1,7.2E1,3.36E2],"tree_param":{"num_deleted":"0","num_feature":"200","num_nodes":"35","size_leaf_vector":"1"}},{"base_weights":[-0E0,-0E0,1.8189391E-2,-0E0,-2.238254E-3,6.493926E-2,-0E0,-0E0,-3.805011E-2,1.1138585E-1,-0E0,-0E0,-7.127473E-2,-0E0,1.3188852E-1,-1.0575494E-1,-0E0,1.4662834E-1,-0E0,-1.2353892E-1,-0E0,-0E0,1.557066E-1,-0E0,-1.360929E-1,-0E0,1.6551845E-1,-1.492376E-1,-0E0,-0E0,1.762011E-1,-0E0,-1.0114749E-2,-0E0,1.1699263E-2],"categories":[],"categories_nodes":[],"categories_segments":[],"categories_sizes":[],"default_left":[0,0,0,0,0,0,0,0,0,0,0,0,0,0,0,0,0,0,0,0,0,0,0,0,0,0,0,0,0,0,0,0,0,0,0],"id":4,"left_children":[1,3,5,-1,7,9,-1,-1,11,13,-1,-1,15,-1,17,19,-1,21,-1,23,-1,-1,25,-1,27,-1,29,31,-1,-1,33,-1,-1,-1,-1],"loss_changes":[5.918977E-1,3.050957E-3,5.3837433E0,0E0,6.122686E-1,3.9870262E0,0E0,0E0,1.3760744E0,3.2224274E0,0E0,0E0,1.6769931E0,0E0,2.2733107E0,1.154362E0,0E0,1.5370226E0,0E0,8.6328363E-1,0E0,0E0,1.9080601E0,0E0,9.509816E-1,0E0,1.5874214E0,6.6368675E-1,0E0,0E0,1.527895E0,0E0,0E0,0E0,0E0],"parents":[2147483647,0,0,1,1,2,2,4,4,5,5,8,8,9,9,12,12,14,14,15,15,17,17,19,19,22,22,24,24,26,26,27,27,30,30],"right_children":[2,4,6,-1,8,10,-1,-1,12,14,-1,-1,16,-1,18,20,-1,22,-1,24,-1,-1,26,-1,28,-1,30,32,-1,-1,34,-1,-1,-1,-1],"split_conditions":[-6.7083606E2,-8.080047E-1,7.3079895E1,-0E0,-4.2875E1,5.9781403E1,-0E0,-0E0,-7.1891113E3,-1.5216521E4,-0E0,-0E0,1.0880155E4,-0E0,2.4469643E4,1E0,-0E0,2.1597363E-1,-0E0,2.9859233E3,-0E0,-0E0,-1.9715201E4,-0E0,9.582478E-1,-0E0,-1.0149839E6,9.74221E0,-0E0,-0E0,4.21875E2,-0E0,-1.0114749E-2,-0E0,1.1699263E-2],"split_indices":[14,7,98,0,39,65,0,0,32,55,0,0,86,0,81,159,0,40,0,47,0,0,83,0,5,0,17,23,0,0,43,0,0,0,0],"split_type":[0,0,0,0,0,0,0,0,0,0,0,0,0,0,0,0,0,0,0,0,0,0,0,0,0,0,0,0,0,0,0,0,0,0,0],"sum_hessian":[2.538E3,7.49E2,1.789E3,1.4E2,6.09E2,1.417E3,3.72E2,1.84E2,4.25E2,8.03E2,6.14E2,3.3E1,3.92E2,4.5E1,7.58E2,3.28E2,6.4E1,7.19E2,3.9E1,3.16E2,1.2E1,1.8E1,7.01E2,9E0,3.07E2,1.1E1,6.9E2,2.98E2,9E0,3E1,6.6E2,1.1E1,2.87E2,1.3E1,6.47E2],"tree_param":{"num_deleted":"0","num_feature":"200","num_nodes":"35","size_leaf_vector":"1"}},{"base_weights":[-0E0,-1.6192148E-2,-0E0,-0E0,-5.7552185E-2,-0E0,1.4385786E-2,-0E0,-1.06448114E-1,3.5486348E-2,-0E0,-1.6674994E-1,-0E0,5.059223E-2,-0E0,-0E0,-1.9705085E-1,6.114283E-2,-0E0,-0E0,-2.1952608E-1,-0E0,7.2436824E-2,-2.4148907E-1,-0E0,8.359292E-2,-0E0,-0E0,-2.6680943E-1,9.8721944E-2,-0E0,-1.8093126E-2,-0E0,-0E0,6.8096067E-3],"categories":[],"categories_nodes":[],"categories_segments":[],"categories_sizes":[],"default_left":[0,0,0,0,0,0,0,0,0,0,0,0,0,0,0,0,0,0,0,0,0,0,0,0,0,0,0,0,0,0,0,0,0,0,0],"id":5,"left_children":[1,3,5,-1,7,-1,9,-1,11,13,-1,15,-1,17,-1,-1,19,21,-1,-1,23,-1,25,27,-1,29,-1,-1,31,33,-1,-1,-1,-1,-1],"loss_changes":[3.413657E-1,2.5833545E0,1.9267124E-1,0E0,5.6529994E0,0E0,6.7119545E-1,0E0,6.882164E0,7.102711E-1,0E0,4.5759E0,0E0,6.876217E-1,0E0,0E0,3.3371906E0,7.815547E-1,0E0,0E0,3.394514E0,0E0,8.558657E-1,4.6261024E0,0E0,9.8357725E-1,0E0,0E0,3.362234E0,7.6677656E-1,0E0,0E0,0E0,0E0,0E0],"parents":[2147483647,0,0,1,1,2,2,4,4,6,6,8,8,9,9,11,11,13,13,16,16,17,17,20,20,22,22,23,23,25,25,28,28,29,29],"right_children":[2,4,6,-1,8,-1,10,-1,12,14,-1,16,-1,18,-1,-1,20,22,-1,-1,24,-1,26,28,-1,30,-1,-1,32,34,-1,-1,-1,-1,-1],"split_conditions":[-9.694812E3,-1.1844568E2,-7.430009E-1,-0E0,-4.7416733E3,-0E0,1.3558115E2,-0E0,6.2518024E2,1.399786E2,-0E0,-8.1161335E6,-0E0,-8.887529E2,-0E0,-0E0,-9.8235166E-1,-6.539152E3,-0E0,-0E0,5.7332744E3,-0E0,1.5840449E4,1.9510461E2,-0E0,2.823146E2,-0E0,-0E0,9.116487E4,-3.4137277E4,-0E0,-1.8093126E-2,-0E0,-0E0,6.8096067E-3],"split_indices":[88,68,7,0,32,0,50,0,58,97,0,11,0,91,0,0,6,37,0,0,66,0,79,41,0,52,0,0,82,62,0,0,0,0,0],"split_type":[0,0,0,0,0,0,0,0,0,0,0,0,0,0,0,0,0,0,0,0,0,0,0,0,0,0,0,0,0,0,0,0,0,0,0],"sum_hessian":[2.564E3,1.302E3,1.262E3,4.19E2,8.83E2,3.31E2,9.31E2,1.26E2,7.57E2,6.86E2,2.45E2,5.56E2,2.01E2,6.15E2,7.1E1,4E1,5.16E2,6.05E2,1E1,3.1E1,4.85E2,2.5E1,5.8E2,4.59E2,2.6E1,5.58E2,2.2E1,1.8E1,4.41E2,5.01E2,5.7E1,4.27E2,1.4E1,1.1E1,4.9E2],"tree_param":{"num_deleted":"0","num_feature":"200","num_nodes":"35","size_leaf_vector":"1"}},{"base_weights":[-0E0,-0E0,2.1057571E-3,-3.1047745E-2,-0E0,3.0579122E-2,-0E0,-6.125731E-2,-0E0,-0E0,6.604791E-2,-0E0,-8.8043384E-2,9.9900775E-2,-0E0,-0E0,-1.12756E-1,1.2022629E-1,-0E0,-0E0,-1.3633873E-1,-0E0,1.3542518E-1,-0E0,-1.5095878E-1,-0E0,1.6239089E-1,-0E0,-1.5955108E-1,1.7877862E-1,-0E0,-1.0842468E-2,-0E0,-0E0,1.2074273E-2],"categories":[],"categories_nodes":[],"categories_segments":[],"categories_sizes":[],"default_left":[0,0,0,0,0,0,0,0,0,0,0,0,0,0,0,0,0,0,0,0,0,0,0,0,0,0,0,0,0,0,0,0,0,0,0],"id":6,"left_children":[1,3,5,7,-1,9,-1,11,-1,-1,13,-1,15,17,-1,-1,19,21,-1,-1,23,-1,25,-1,27,-1,29,-1,31,33,-1,-1,-1,-1,-1],"loss_changes":[6.7577404E-3,6.901971E-1,9.479617E-1,1.7301382E0,0E0,2.8012433E0,0E0,2.3004122E0,0E0,0E0,2.8509064E0,0E0,2.3609037E0,2.3837438E0,0E0,0E0,2.0265908E0,2.0317154E0,0E0,0E0,1.71632E0,0E0,2.5058928E0,0E0,1.0381899E0,0E0,2.548561E0,0E0,1.3199749E0,1.6126633E0,0E0,0E0,0E0,0E0,0E0],"parents":[2147483647,0,0,1,1,2,2,3,3,5,5,7,7,10,10,12,12,13,13,16,16,17,17,20,20,22,22,24,24,26,26,28,28,29,29],"right_children":[2,4,6,8,-1,10,-1,12,-1,-1,14,-1,16,18,-1,-1,20,22,-1,-1,24,-1,26,-1,28,-1,30,-1,32,34,-1,-1,-1,-1,-1],"split_conditions":[-1.7270717E2,1.574608E2,2.015E3,-1.16925E3,-0E0,-1.125226E4,-0E0,-2.1346254E4,-0E0,-0E0,5.314362E2,-0E0,7.939767E-2,1.6761695E4,-0E0,-0E0,4.574326E3,-3.272494E6,-0E0,-0E0,-2.2425652E4,-0E0,8.55699E3,-0E0,-2.2425652E4,-0E0,1.032368E10,-0E0,2.7287512E4,3.2850378E2,-0E0,-1.0842468E-2,-0E0,-0E0,1.2074273E-2],"split_indices":[61,32,2,88,0,78,0,64,0,0,29,0,5,64,0,0,45,17,0,0,30,0,96,0,28,0,17,0,60,43,0,0,0,0,0],"split_type":[0,0,0,0,0,0,0,0,0,0,0,0,0,0,0,0,0,0,0,0,0,0,0,0,0,0,0,0,0,0,0,0,0,0,0],"sum_hessian":[2.561E3,1.037E3,1.524E3,7.16E2,3.21E2,1.021E3,5.03E2,6.45E2,7.1E1,1.6E2,8.61E2,3.6E1,6.09E2,6.62E2,1.99E2,5.2E1,5.57E2,6.22E2,4E1,6.7E1,4.9E2,2.1E1,6.01E2,1.5E1,4.75E2,8.8E1,5.13E2,9E0,4.66E2,5.03E2,1E1,4.51E2,1.5E1,1.5E1,4.88E2],"tree_param":{"num_deleted":"0","num_feature":"200","num_nodes":"35","size_leaf_vector":"1"}},{"base_weights":[-0E0,-1.6433068E-3,-0E0,-0E0,-4.4490602E-2,-0E0,1.1585597E-2,-7.353899E-2,-0E0,-0E0,2.9672133E-2,-1.059723E-1,-0E0,-0E0,4.542708E-2,-0E0,-1.2462225E-1,-0E0,6.110378E-2,-0E0,-1.508853E-1,-0E0,7.263508E-2,-0E0,-1.7134996E-1,8.745447E-2,-0E0,-0E0,-1.8981884E-1,-0E0,9.617072E-2,-0E0,-1.3208659E-2,6.900294E-3,-0E0],"categories":[],"categories_nodes":[],"categories_segments":[],"categories_sizes":[],"default_left":[0,0,0,0,0,0,0,0,0,0,0,0,0,0,0,0,0,0,0,0,0,0,0,0,0,0,0,0,0,0,0,0,0,0,0],"id":7,"left_children":[1,3,5,-1,7,-1,9,11,-1,-1,13,15,-1,-1,17,-1,19,-1,21,-1,23,-1,25,-1,27,29,-1,-1,31,-1,33,-1,-1,-1,-1],"loss_changes":[3.632115E-3,1.7758608E0,1.3919243E-1,0E0,2.546894E0,0E0,6.0389507E-1,3.0742674E0,0E0,0E0,9.016174E-1,2.5545278E0,0E0,0E0,1.0958103E0,0E0,2.5663233E0,0E0,1.0317211E0,0E0,3.1278076E0,0E0,1.2985764E0,0E0,3.1950035E0,8.391762E-1,0E0,0E0,3.3228836E0,0E0,1.0867419E0,0E0,0E0,0E0,0E0],"parents":[2147483647,0,0,1,1,2,2,4,4,6,6,7,7,10,10,11,11,14,14,16,16,18,18,20,20,22,22,24,24,25,25,28,28,30,30],"right_children":[2,4,6,-1,8,-1,10,12,-1,-1,14,16,-1,-1,18,-1,20,-1,22,-1,24,-1,26,-1,28,30,-1,-1,32,-1,34,-1,-1,-1,-1],"split_conditions":[-8.912848E3,-1.1844568E2,-8.9882547E-1,-0E0,1.2665547E4,-0E0,-2.16E2,1.124872E3,-0E0,-0E0,0E0,-3.528751E4,-0E0,-0E0,5.674446E3,-0E0,7.288493E0,-0E0,-2.7544805E4,-0E0,-6.3296515E2,-0E0,1.2650988E1,-0E0,-1.1494855E5,-3.521224E4,-0E0,-0E0,-3.008016E4,-0E0,1.0880155E4,-0E0,-1.3208659E-2,6.900294E-3,-0E0],"split_indices":[88,68,7,0,79,0,29,35,0,0,146,31,0,0,96,0,19,0,62,0,98,0,20,0,61,86,0,0,33,0,79,0,0,0,0],"split_type":[0,0,0,0,0,0,0,0,0,0,0,0,0,0,0,0,0,0,0,0,0,0,0,0,0,0,0,0,0,0,0,0,0,0,0],"sum_hessian":[2.57E3,1.345E3,1.225E3,4.46E2,8.99E2,1.88E2,1.037E3,8E2,9.9E1,1.93E2,8.44E2,6.59E2,1.41E2,4.7E1,7.97E2,1.8E1,6.41E2,6.3E1,7.34E2,9.1E1,5.5E2,1.9E1,7.15E2,1.7E1,5.33E2,6.63E2,5.2E1,1E1,5.23E2,2.4E1,6.39E2,1.2E1,5.11E2,5.91E2,4.8E1],"tree_param":{"num_deleted":"0","num_feature":"200","num_nodes":"35","size_leaf_vector":"1"}},{"base_weights":[-0E0,-0E0,1.1485448E-2,-3.6282483E-2,-0E0,3.7010975E-2,-0E0,-6.894038E-2,-0E0,7.167437E-2,-0E0,-9.240966E-2,-0E0,-0E0,1.0113833E-1,-1.2042612E-1,-0E0,-0E0,1.320431E-1,-0E0,-1.3850045E-1,-0E0,1.5699118E-1,-0E0,-1.5589814E-1,-0E0,1.7729795E-1,-1.6817209E-1,-0E0,2.0268953E-1,-0E0,-0E0,-1.1535328E-2,-0E0,1.4027753E-2],"categories":[],"categories_nodes":[],"categories_segments":[],"categories_sizes":[],"default_left":[0,0,0,0,0,0,0,0,0,0,0,0,0,0,0,0,0,0,0,0,0,0,0,0,0,0,0,0,0,0,0,0,0,0,0],"id":8,"left_children":[1,3,5,7,-1,9,-1,11,-1,13,-1,15,-1,-1,17,19,-1,-1,21,-1,23,-1,25,-1,27,-1,29,31,-1,33,-1,-1,-1,-1,-1],"loss_changes":[2.0974569E-1,1.0807797E0,1.3956746E0,2.4885554E0,0E0,1.9598075E0,0E0,2.2375567E0,0E0,2.786958E0,0E0,2.720549E0,0E0,0E0,2.5921645E0,2.3681498E0,0E0,0E0,2.811901E0,0E0,2.5689526E0,0E0,2.6093454E0,0E0,1.8642216E0,0E0,3.0536137E0,1.9416552E0,0E0,1.7601776E0,0E0,0E0,0E0,0E0,0E0],"parents":[2147483647,0,0,1,1,2,2,3,3,5,5,7,7,9,9,11,11,14,14,15,15,18,18,20,20,22,22,24,24,26,26,27,27,29,29],"right_children":[2,4,6,8,-1,10,-1,12,-1,14,-1,16,-1,-1,18,20,-1,-1,22,-1,24,-1,26,-1,28,-1,30,32,-1,34,-1,-1,-1,-1,-1],"split_conditions":[-5.595776E2,2.9415704E2,1.1289686E3,6.360506E2,-0E0,2.014E3,-0E0,-5.9258417E2,-0E0,-2.0484185E3,-0E0,1.520875E3,-0E0,-0E0,-6.5851965E2,6.258E2,-0E0,-0E0,0E0,-0E0,-1.7373783E4,-0E0,5.592E2,-0E0,9.691992E-1,-0E0,2.0285654E4,1.66375E2,-0E0,-2.1036914E4,-0E0,-0E0,-1.1535328E-2,-0E0,1.4027753E-2],"split_indices":[84,68,59,37,0,2,0,67,0,38,0,35,0,0,34,196,0,0,117,0,34,0,196,0,5,0,81,41,0,83,0,0,0,0,0],"split_type":[0,0,0,0,0,0,0,0,0,0,0,0,0,0,0,0,0,0,0,0,0,0,0,0,0,0,0,0,0,0,0,0,0,0,0],"sum_hessian":[2.606E3,1.016E3,1.59E3,8.21E2,1.95E2,1.172E3,4.18E2,7.51E2,7E1,6.94E2,4.78E2,6.8E2,7.1E1,7.3E1,6.21E2,5.88E2,9.2E1,1.08E2,5.13E2,2E1,5.68E2,3.6E1,4.77E2,1.4E1,5.54E2,2E1,4.57E2,5.42E2,1.2E1,4.24E2,3.3E1,2E1,5.22E2,3.2E1,3.92E2],"tree_param":{"num_deleted":"0","num_feature":"200","num_nodes":"35","size_leaf_vector":"1"}},{"base_weights":[-0E0,-0E0,1.8861491E-2,-1.2282851E-2,-0E0,4.7883388E-2,-0E0,-3.7006564E-2,-0E0,-0E0,6.471303E-2,-0E0,-5.947328E-2,8.321396E-2,-0E0,-7.1062505E-2,-0E0,-0E0,1.0532998E-1,-8.0407105E-2,-0E0,1.2648039E-1,-0E0,-0E0,-8.894314E-2,1.3734248E-1,-0E0,-9.819372E-2,-0E0,-0E0,1.4684786E-1,-6.7248945E-3,-0E0,9.697278E-3,-0E0],"categories":[],"categories_nodes":[],"categories_segments":[],"categories_sizes":[],"default_left":[0,0,0,0,0,0,0,0,0,0,0,0,0,0,0,0,0,0,0,0,0,0,0,0,0,0,0,0,0,0,0,0,0,0,0],"id":9,"left_children":[1,3,5,7,-1,9,-1,11,-1,-1,13,-1,15,17,-1,19,-1,-1,21,23,-1,25,-1,-1,27,29,-1,31,-1,-1,33,-1,-1,-1,-1],"loss_changes":[7.371262E-1,5.416177E-2,3.463318E0,4.1009396E-1,0E0,2.9271517E0,0E0,6.569959E-1,0E0,0E0,2.8368502E0,0E0,4.290614E-1,3.382123E0,0E0,3.5695124E-1,0E0,0E0,3.7545319E0,3.2360435E-1,0E0,2.3466072E0,0E0,0E0,3.3390522E-1,1.9656372E0,0E0,2.6886177E-1,0E0,0E0,1.4771347E0,0E0,0E0,0E0,0E0],"parents":[2147483647,0,0,1,1,2,2,3,3,5,5,7,7,10,10,12,12,13,13,15,15,18,18,19,19,21,21,24,24,25,25,27,27,30,30],"right_children":[2,4,6,8,-1,10,-1,12,-1,-1,14,-1,16,18,-1,20,-1,-1,22,24,-1,26,-1,-1,28,30,-1,32,-1,-1,34,-1,-1,-1,-1],"split_conditions":[-6.6739624E3,2.0191545E2,1.4815347E12,9.852403E-1,-0E0,-1.064E4,-0E0,0E0,-0E0,-0E0,3.8995637E3,-0E0,6.4481074E4,1.0351007E1,-0E0,-1.0408131E3,-0E0,-0E0,9.5956195E2,6.1008587E0,-0E0,2.3526306E3,-0E0,-0E0,4.348837E3,-3.9887766E4,-0E0,-7.7594696E2,-0E0,-0E0,-8.4969444E1,-6.7248945E-3,-0E0,9.697278E-3,-0E0],"split_indices":[84,95,12,7,0,62,0,114,0,0,62,0,62,22,0,88,0,0,52,21,0,36,0,0,10,86,0,67,0,0,67,0,0,0,0],"split_type":[0,0,0,0,0,0,0,0,0,0,0,0,0,0,0,0,0,0,0,0,0,0,0,0,0,0,0,0,0,0,0,0,0,0,0],"sum_hessian":[2.541E3,4.69E2,2.072E3,3.59E2,1.1E2,1.832E3,2.4E2,3.39E2,2E1,1.3E2,1.702E3,2.2E1,3.17E2,1.439E3,2.63E2,3.07E2,1E1,2.36E2,1.203E3,2.95E2,1.2E1,1.069E3,1.34E2,1.3E1,2.82E2,1.031E3,3.8E1,2.66E2,1.6E1,3.8E1,9.93E2,2.52E2,1.4E1,9.79E2,1.4E1],"tree_param":{"num_deleted":"0","num_feature":"200","num_nodes":"35","size_leaf_vector":"1"}},{"base_weights":[-0E0,-2.0875134E-2,-0E0,-6.086029E-2,-0E0,1.3081443E-2,-0E0,-0E0,-1.1822815E-1,-0E0,5.95191E-2,-1.6191776E-1,-0E0,9.169193E-2,-0E0,-0E0,-2.1310519E-1,1.6897197E-1,-0E0,-2.3827569E-1,-0E0,-0E0,1.8696006E-1,-0E0,-2.8540167E-1,2.102713E-1,-0E0,-3.1188852E-1,-0E0,2.2825743E-1,-0E0,-2.1349452E-2,-0E0,1.5320994E-2,-0E0],"categories":[],"categories_nodes":[],"categories_segments":[],"categories_sizes":[],"default_left":[0,0,0,0,0,0,0,0,0,0,0,0,0,0,0,0,0,0,0,0,0,0,0,0,0,0,0,0,0,0,0,0,0,0,0],"id":10,"left_children":[1,3,5,7,-1,9,-1,-1,11,-1,13,15,-1,17,-1,-1,19,21,-1,23,-1,-1,25,-1,27,29,-1,31,-1,33,-1,-1,-1,-1,-1],"loss_changes":[5.0854504E-1,3.1213508E0,1.694129E-1,5.0084453E0,0E0,2.5158203E0,0E0,0E0,4.811166E0,0E0,2.8132138E0,6.9412994E0,0E0,4.1234183E0,0E0,0E0,4.306452E0,1.4585733E0,0E0,4.0560436E0,0E0,0E0,1.8742685E0,0E0,3.930914E0,1.4252939E0,0E0,4.2614555E0,0E0,1.1448679E0,0E0,0E0,0E0,0E0,0E0],"parents":[2147483647,0,0,1,1,2,2,3,3,5,5,8,8,10,10,11,11,13,13,16,16,17,17,19,19,22,22,24,24,25,25,27,27,29,29],"right_children":[2,4,6,8,-1,10,-1,-1,12,-1,14,16,-1,18,-1,-1,20,22,-1,24,-1,-1,26,-1,28,30,-1,32,-1,34,-1,-1,-1,-1,-1],"split_conditions":[-1.25E-1,1.2596864E3,2.015E3,2.6897324E1,-0E0,-4.703587E3,-0E0,-0E0,-3.8183447E3,-0E0,1E0,-5.676595E12,-0E0,0E0,-0E0,-0E0,1.077592E3,-1.1279429E6,-0E0,9.8889555E4,-0E0,-0E0,1E0,-0E0,2.7267459E4,6.4965164E4,-0E0,3.3713378E5,-0E0,-3.0024432E2,-0E0,-2.1349452E-2,-0E0,1.5320994E-2,-0E0],"split_indices":[30,35,2,24,0,83,0,0,88,0,180,18,0,13,0,0,70,11,0,103,0,0,104,0,65,41,0,89,0,67,0,0,0,0,0],"split_type":[0,0,0,0,0,0,0,0,0,0,0,0,0,0,0,0,0,0,0,0,0,0,0,0,0,0,0,0,0,0,0,0,0,0,0],"sum_hessian":[2.569E3,1.167E3,1.402E3,9.8E2,1.87E2,9.9E2,4.12E2,3.62E2,6.18E2,2.32E2,7.58E2,5.13E2,1.05E2,6.54E2,1.04E2,6.4E1,4.49E2,3.37E2,3.17E2,4.35E2,1.4E1,2E1,3.17E2,8.2E1,3.53E2,2.93E2,2.4E1,3.36E2,1.7E1,2.76E2,1.7E1,3.26E2,1E1,2.66E2,1E1],"tree_param":{"num_deleted":"0","num_feature":"200","num_nodes":"35","size_leaf_vector":"1"}},{"base_weights":[-0E0,5.681877E-3,-0E0,-0E0,3.903247E-2,-1.631627E-2,-0E0,7.5983405E-2,-0E0,-0E0,-4.0716484E-2,-0E0,1.03089914E-1,-5.7115573E-2,-0E0,1.2951209E-1,-0E0,-0E0,-7.341481E-2,1.5203309E-1,-0E0,-9.068314E-2,-0E0,1.7064376E-1,-0E0,-0E0,-1.05371594E-1,-0E0,1.8150412E-1,-0E0,-1.161898E-1,1.2370832E-2,-0E0,-8.028115E-3,-0E0],"categories":[],"categories_nodes":[],"categories_segments":[],"categories_sizes":[],"default_left":[0,0,0,0,0,0,0,0,0,0,0,0,0,0,0,0,0,0,0,0,0,0,0,0,0,0,0,0,0,0,0,0,0,0,0],"id":11,"left_children":[1,3,5,-1,7,9,-1,11,-1,-1,13,-1,15,17,-1,19,-1,-1,21,23,-1,25,-1,27,-1,-1,29,-1,31,-1,33,-1,-1,-1,-1],"loss_changes":[3.6932584E-2,1.3403419E0,3.2851633E-1,0E0,3.4493527E0,1.0756675E0,0E0,2.9420986E0,0E0,0E0,1.2708111E0,0E0,3.3017058E0,1.5020494E0,0E0,2.8673487E0,0E0,0E0,1.9247427E0,3.0096493E0,0E0,1.6149182E0,0E0,1.7975616E0,0E0,0E0,1.4498425E0,0E0,2.3354683E0,0E0,1.5221663E0,0E0,0E0,0E0,0E0],"parents":[2147483647,0,0,1,1,2,2,4,4,5,5,7,7,10,10,12,12,13,13,15,15,18,18,19,19,21,21,23,23,26,26,28,28,30,30],"right_children":[2,4,6,-1,8,10,-1,12,-1,-1,14,-1,16,18,-1,20,-1,-1,22,24,-1,26,-1,28,-1,-1,30,-1,32,-1,34,-1,-1,-1,-1],"split_conditions":[1.1955E3,-7.430009E-1,2.3526306E3,-0E0,2.7366144E1,7.221288E0,-0E0,3.0169429E3,-0E0,-0E0,1.3695E4,-0E0,3.9066013E1,-6.328135E4,-0E0,2.0715729E4,-0E0,-0E0,1.2098134E3,1.1260323E2,-0E0,-1.2812743E4,-0E0,3.8472192E2,-0E0,-0E0,-9.95927E4,-0E0,1E0,-0E0,4.541352E1,1.2370832E-2,-0E0,-8.028115E-3,-0E0],"split_indices":[198,7,35,0,21,19,0,92,0,0,0,0,23,15,0,15,0,0,70,26,0,35,0,89,0,0,83,0,116,0,21,0,0,0,0],"split_type":[0,0,0,0,0,0,0,0,0,0,0,0,0,0,0,0,0,0,0,0,0,0,0,0,0,0,0,0,0,0,0,0,0,0,0],"sum_hessian":[2.575E3,1.144E3,1.431E3,2.4E2,9.04E2,1.234E3,1.97E2,8.36E2,6.8E1,3.87E2,8.47E2,1.05E2,7.31E2,8.2E2,2.7E1,6.6E2,7.1E1,4.5E1,7.75E2,6.03E2,5.7E1,7.42E2,3.3E1,5.82E2,2.1E1,4.7E1,6.95E2,1.3E1,5.69E2,1.6E1,6.79E2,5.54E2,1.5E1,6.67E2,1.2E1],"tree_param":{"num_deleted":"0","num_feature":"200","num_nodes":"35","size_leaf_vector":"1"}},{"base_weights":[-0E0,-1.370398E-2,-0E0,-0E0,-5.4563455E-2,-0E0,1.612639E-2,-0E0,-8.9211226E-2,-0E0,4.749383E-2,-0E0,-1.0884962E-1,-0E0,7.9351075E-2,-0E0,-1.2666926E-1,1.05301544E-1,-0E0,-1.4188352E-1,-0E0,-0E0,1.2799539E-1,-1.6015807E-1,-0E0,1.5197174E-1,-0E0,-1.7518918E-1,-0E0,-0E0,1.733394E-1,-0E0,-1.18428E-2,1.2135412E-2,-0E0],"categories":[],"categories_nodes":[],"categories_segments":[],"categories_sizes":[],"default_left":[0,0,0,0,0,0,0,0,0,0,0,0,0,0,0,0,0,0,0,0,0,0,0,0,0,0,0,0,0,0,0,0,0,0,0],"id":12,"left_children":[1,3,5,-1,7,-1,9,-1,11,-1,13,-1,15,-1,17,-1,19,21,-1,23,-1,-1,25,27,-1,29,-1,31,-1,-1,33,-1,-1,-1,-1],"loss_changes":[3.9419022E-1,3.6726246E0,1.0376414E-1,0E0,4.1624227E0,0E0,7.5564384E-1,0E0,3.6071548E0,0E0,1.451442E0,0E0,3.2780943E0,0E0,1.5811837E0,0E0,3.2851887E0,1.5962105E0,0E0,3.6341991E0,0E0,0E0,1.7868094E0,3.6853943E0,0E0,1.4083991E0,0E0,2.701702E0,0E0,0E0,1.1298742E0,0E0,0E0,0E0,0E0],"parents":[2147483647,0,0,1,1,2,2,4,4,6,6,8,8,10,10,12,12,14,14,16,16,17,17,19,19,22,22,23,23,25,25,27,27,30,30],"right_children":[2,4,6,-1,8,-1,10,-1,12,-1,14,-1,16,-1,18,-1,20,22,-1,24,-1,-1,26,28,-1,30,-1,32,-1,-1,34,-1,-1,-1,-1],"split_conditions":[9.7030615E2,5.735245E3,5.152998E1,-0E0,-2.024608E4,-0E0,6.577E2,-0E0,-2.012354E4,-0E0,-6.6436915E6,-0E0,6.570842E-2,-0E0,1.3749219E3,-0E0,9.664613E-1,3.5351305E0,-0E0,-1.1171252E3,-0E0,-0E0,1.6761695E4,3.2768E4,-0E0,0E0,-0E0,-3.528751E4,-0E0,-0E0,1.5374419E2,-0E0,-1.18428E-2,1.2135412E-2,-0E0],"split_indices":[35,43,26,0,16,0,197,0,34,0,17,0,5,0,70,0,5,20,0,88,0,0,64,28,0,158,0,35,0,0,26,0,0,0,0],"split_type":[0,0,0,0,0,0,0,0,0,0,0,0,0,0,0,0,0,0,0,0,0,0,0,0,0,0,0,0,0,0,0,0,0,0,0],"sum_hessian":[2.573E3,2.099E3,4.74E2,7.33E2,1.366E3,7.5E1,3.99E2,3.32E2,1.034E3,1.8E1,3.81E2,3.5E1,9.99E2,1.4E1,3.67E2,5.7E1,9.42E2,3.51E2,1.6E1,9.14E2,2.8E1,1.6E1,3.35E2,8.59E2,5.5E1,3.15E2,2E1,8.38E2,2.1E1,2.6E1,2.89E2,2.3E1,8.15E2,2.68E2,2.1E1],"tree_param":{"num_deleted":"0","num_feature":"200","num_nodes":"35","size_leaf_vector":"1"}},{"base_weights":[-0E0],"categories":[],"categories_nodes":[],"categories_segments":[],"categories_sizes":[],"default_left":[0],"id":13,"left_children":[-1],"loss_changes":[0E0],"parents":[2147483647],"right_children":[-1],"split_conditions":[-0E0],"split_indices":[0],"split_type":[0],"sum_hessian":[2.561E3],"tree_param":{"num_deleted":"0","num_feature":"200","num_nodes":"1","size_leaf_vector":"1"}},{"base_weights":[-0E0,-0E0,9.2972897E-4,-3.911051E-2,-0E0,1.803714E-2,-0E0,-6.452782E-2,-0E0,-0E0,2.9822757E-2,-0E0,-8.4382646E-2,-0E0,4.02727E-2,-0E0,-1.02389514E-1,-0E0,4.985227E-2,-1.18848346E-1,-0E0,-0E0,5.917868E-2,-0E0,-1.4031477E-1,-0E0,6.6789605E-2,-0E0,-1.6461736E-1,-0E0,7.486115E-2,-0E0,-1.1828272E-2,5.4515926E-3,-0E0],"categories":[],"categories_nodes":[],"categories_segments":[],"categories_sizes":[],"default_left":[0,0,0,0,0,0,0,0,0,0,0,0,0,0,0,0,0,0,0,0,0,0,0,0,0,0,0,0,0,0,0,0,0,0,0],"id":14,"left_children":[1,3,5,7,-1,9,-1,11,-1,-1,13,-1,15,-1,17,-1,19,-1,21,23,-1,-1,25,-1,27,-1,29,-1,31,-1,33,-1,-1,-1,-1],"loss_changes":[1.0623427E-3,1.335369E0,3.743782E-1,1.541844E0,0E0,5.5664736E-1,0E0,1.4947314E0,0E0,0E0,7.043996E-1,0E0,1.8867726E0,0E0,8.0154157E-1,0E0,1.9478679E0,0E0,7.80416E-1,2.4250631E0,0E0,0E0,8.0078197E-1,0E0,2.6738987E0,0E0,8.5641956E-1,0E0,2.6616173E0,0E0,1.3020349E0,0E0,0E0,0E0,0E0],"parents":[2147483647,0,0,1,1,2,2,3,3,5,5,7,7,10,10,12,12,14,14,16,16,18,18,19,19,22,22,24,24,26,26,28,28,30,30],"right_children":[2,4,6,8,-1,10,-1,12,-1,-1,14,-1,16,-1,18,-1,20,-1,22,24,-1,-1,26,-1,28,-1,30,-1,32,-1,34,-1,-1,-1,-1],"split_conditions":[-8.912848E3,1.0382785E2,2.5163952E8,2.320775E8,-0E0,-1.9204216E1,-0E0,3.2900766E4,-0E0,-0E0,-9.5280625E3,-0E0,-9.95927E4,-0E0,3.7874708E0,-0E0,1.077592E3,-0E0,4.943145E2,-1.8783707E4,-0E0,-0E0,-8.952705E1,-0E0,1.1773358E1,-0E0,2.7441435E0,-0E0,-2.701524E4,-0E0,5.2901188E1,-0E0,-1.1828272E-2,5.4515926E-3,-0E0],"split_indices":[88,35,17,16,0,73,0,99,0,0,36,0,83,0,21,0,70,0,89,54,0,0,100,0,22,0,40,0,85,0,24,0,0,0,0],"split_type":[0,0,0,0,0,0,0,0,0,0,0,0,0,0,0,0,0,0,0,0,0,0,0,0,0,0,0,0,0,0,0,0,0,0,0],"sum_hessian":[2.566E3,1.337E3,1.229E3,8.73E2,4.64E2,1.154E3,7.5E1,6.91E2,1.82E2,1.06E2,1.048E3,7.7E1,6.14E2,3.9E1,1.009E3,1.7E1,5.97E2,2.8E1,9.81E2,5.81E2,1.6E1,6.2E1,9.19E2,4.1E1,5.4E2,1.8E1,9.01E2,4.9E1,4.91E2,3.1E1,8.7E2,3.2E1,4.59E2,8.36E2,3.4E1],"tree_param":{"num_deleted":"0","num_feature":"200","num_nodes":"35","size_leaf_vector":"1"}},{"base_weights":[-0E0,-0E0,5.0216317E-3,-2.1230306E-2,-0E0,-0E0,2.9916469E-2,-0E0,-5.0787643E-2,5.2003287E-2,-0E0,-7.816362E-2,-0E0,-0E0,7.14455E-2,-9.887579E-2,-0E0,8.521105E-2,-0E0,-1.1923277E-1,-0E0,-0E0,9.694615E-2,-1.5031427E-1,-0E0,-0E0,1.19477734E-1,-0E0,-1.7649342E-1,1.4471573E-1,-0E0,-0E0,-1.2735276E-2,-0E0,9.837648E-3],"categories":[],"categories_nodes":[],"categories_segments":[],"categories_sizes":[],"default_left":[0,0,0,0,0,0,0,0,0,0,0,0,0,0,0,0,0,0,0,0,0,0,0,0,0,0,0,0,0,0,0,0,0,0,0],"id":15,"left_children":[1,3,5,7,-1,-1,9,-1,11,13,-1,15,-1,-1,17,19,-1,21,-1,23,-1,-1,25,27,-1,-1,29,-1,31,33,-1,-1,-1,-1,-1],"loss_changes":[5.252656E-2,1.7983966E-1,1.3884155E0,7.848502E-1,0E0,0E0,2.7453792E0,0E0,1.0331333E0,3.1947284E0,0E0,9.3510354E-1,0E0,0E0,2.559155E0,1.118762E0,0E0,2.569273E0,0E0,1.4387465E0,0E0,0E0,2.322174E0,1.6428995E0,0E0,0E0,2.5298004E0,0E0,1.2545524E0,2.2020054E0,0E0,0E0,0E0,0E0,0E0],"parents":[2147483647,0,0,1,1,2,2,3,3,6,6,8,8,9,9,11,11,14,14,15,15,17,17,19,19,22,22,23,23,26,26,28,28,29,29],"right_children":[2,4,6,8,-1,-1,10,-1,12,14,-1,16,-1,-1,18,20,-1,22,-1,24,-1,-1,26,28,-1,-1,30,-1,32,34,-1,-1,-1,-1,-1],"split_conditions":[-6.6739624E3,2.460375E3,4.5817425E1,-1.0360128E4,-0E0,-0E0,2.210088E4,-0E0,1E0,-1.0149839E6,-0E0,-1.5557626E3,-0E0,-0E0,3.7412645E4,4.1389883E13,-0E0,-8.463751E4,-0E0,1.1321061E4,-0E0,-0E0,6.2664285E0,1.66375E2,-0E0,-0E0,1E0,-0E0,0E0,-3.528751E4,-0E0,-0E0,-1.2735276E-2,-0E0,9.837648E-3],"split_indices":[84,35,26,35,0,0,14,0,151,17,0,88,0,0,85,18,0,78,0,85,0,0,19,41,0,0,187,0,161,36,0,0,0,0,0],"split_type":[0,0,0,0,0,0,0,0,0,0,0,0,0,0,0,0,0,0,0,0,0,0,0,0,0,0,0,0,0,0,0,0,0,0,0],"sum_hessian":[2.547E3,4.64E2,2.083E3,3.99E2,6.5E1,4.73E2,1.61E3,2.5E1,3.74E2,1.548E3,6.2E1,3.27E2,4.7E1,1.02E2,1.446E3,3E2,2.7E1,1.369E3,7.7E1,2.85E2,1.5E1,3.8E1,1.331E3,2.43E2,4.2E1,2.92E2,1.039E3,1.4E1,2.29E2,8.29E2,2.1E2,2.1E1,2.08E2,1.6E1,8.13E2],"tree_param":{"num_deleted":"0","num_feature":"200","num_nodes":"35","size_leaf_vector":"1"}},{"base_weights":[-0E0],"categories":[],"categories_nodes":[],"categories_segments":[],"categories_sizes":[],"default_left":[0],"id":16,"left_children":[-1],"loss_changes":[0E0],"parents":[2147483647],"right_children":[-1],"split_conditions":[-0E0],"split_indices":[0],"split_type":[0],"sum_hessian":[2.522E3],"tree_param":{"num_deleted":"0","num_feature":"200","num_nodes":"1","size_leaf_vector":"1"}},{"base_weights":[-0E0],"categories":[],"categories_nodes":[],"categories_segments":[],"categories_sizes":[],"default_left":[0],"id":17,"left_children":[-1],"loss_changes":[0E0],"parents":[2147483647],"right_children":[-1],"split_conditions":[-0E0],"split_indices":[0],"split_type":[0],"sum_hessian":[2.592E3],"tree_param":{"num_deleted":"0","num_feature":"200","num_nodes":"1","size_leaf_vector":"1"}},{"base_weights":[-0E0,-5.1388214E-3,4.131129E-3,-2.3500241E-2,-0E0,-0E0,2.727039E-2,-4.4563517E-2,-0E0,5.025502E-2,-0E0,-6.580043E-2,-0E0,6.983154E-2,-0E0,-8.581645E-2,-0E0,8.768889E-2,-0E0,-1.0544535E-1,-0E0,1.2302352E-1,-0E0,-0E0,-1.3435908E-1,1.4384866E-1,-0E0,-0E0,-1.5735269E-1,1.5676825E-1,-0E0,-0E0,-1.110159E-2,1.0569962E-2,-0E0],"categories":[],"categories_nodes":[],"categories_segments":[],"categories_sizes":[],"default_left":[0,0,0,0,0,0,0,0,0,0,0,0,0,0,0,0,0,0,0,0,0,0,0,0,0,0,0,0,0,0,0,0,0,0,0],"id":18,"left_children":[1,3,5,7,-1,-1,9,11,-1,13,-1,15,-1,17,-1,19,-1,21,-1,23,-1,25,-1,-1,27,29,-1,-1,31,33,-1,-1,-1,-1,-1],"loss_changes":[5.3799465E-2,5.0951E-1,7.870462E-1,1.2463233E0,0E0,0E0,1.7217956E0,1.5182282E0,0E0,2.2116365E0,0E0,1.4907072E0,0E0,2.0525975E0,0E0,2.0771046E0,0E0,2.646729E0,0E0,2.4797525E0,0E0,2.7851229E0,0E0,0E0,2.7316923E0,2.049591E0,0E0,0E0,2.1052713E0,1.5830851E0,0E0,0E0,0E0,0E0,0E0],"parents":[2147483647,0,0,1,1,2,2,3,3,6,6,7,7,9,9,11,11,13,13,15,15,17,17,19,19,21,21,24,24,25,25,28,28,29,29],"right_children":[2,4,6,8,-1,-1,10,12,-1,14,-1,16,-1,18,-1,20,-1,22,-1,24,-1,26,-1,-1,28,30,-1,-1,32,34,-1,-1,-1,-1,-1],"split_conditions":[-8.259364E1,1E0,4.6137535E1,2.4790527E3,-0E0,-0E0,2.3711226E3,4.8432593E3,-0E0,1.6974496E4,-0E0,1.7715503E3,-0E0,1E0,-0E0,9.84495E-1,-0E0,1.0478823E1,-0E0,1.5567429E4,-0E0,3.4784992E4,-0E0,-0E0,-3.260104E4,1.4208719E5,-0E0,-0E0,-9.7742647E-1,3.2768E4,-0E0,-0E0,-1.110159E-2,1.0569962E-2,-0E0],"split_indices":[56,119,26,90,0,0,66,75,0,33,0,35,0,113,0,7,0,71,0,17,0,85,0,0,85,15,0,0,7,34,0,0,0,0,0],"split_type":[0,0,0,0,0,0,0,0,0,0,0,0,0,0,0,0,0,0,0,0,0,0,0,0,0,0,0,0,0,0,0,0,0,0,0],"sum_hessian":[2.541E3,1.117E3,1.424E3,9.76E2,1.41E2,3.33E2,1.091E3,8.99E2,7.7E1,1.003E3,8.8E1,7.63E2,1.36E2,9.73E2,3E1,6.51E2,1.12E2,8.84E2,8.9E1,6.18E2,3.3E1,6.24E2,2.6E2,1E2,5.18E2,5.91E2,3.3E1,3E1,4.88E2,5.81E2,1E1,2.5E1,4.63E2,5.71E2,1E1],"tree_param":{"num_deleted":"0","num_feature":"200","num_nodes":"35","size_leaf_vector":"1"}},{"base_weights":[-0E0],"categories":[],"categories_nodes":[],"categories_segments":[],"categories_sizes":[],"default_left":[0],"id":19,"left_children":[-1],"loss_changes":[0E0],"parents":[2147483647],"right_children":[-1],"split_conditions":[-0E0],"split_indices":[0],"split_type":[0],"sum_hessian":[2.577E3],"tree_param":{"num_deleted":"0","num_feature":"200","num_nodes":"1","size_leaf_vector":"1"}},{"base_weights":[-0E0,-1.2746014E-2,-0E0,-3.476402E-2,-0E0,-5.353316E-2,-0E0,-7.096644E-2,-0E0,-9.961687E-2,-0E0,-0E0,-1.16505794E-1,-0E0,-1.3466766E-1,-1.5269959E-1,-0E0,-0E0,-1.0813431E-2],"categories":[],"categories_nodes":[],"categories_segments":[],"categories_sizes":[],"default_left":[0,0,0,0,0,0,0,0,0,0,0,0,0,0,0,0,0,0,0],"id":20,"left_children":[1,3,-1,5,-1,7,-1,9,-1,11,-1,-1,13,-1,15,17,-1,-1,-1],"loss_changes":[3.470164E-1,1.7655067E0,0E0,2.4928164E0,0E0,2.8231087E0,0E0,3.6065078E0,0E0,3.6652536E0,0E0,0E0,3.417037E0,0E0,3.660984E0,3.3995438E0,0E0,0E0,0E0],"parents":[2147483647,0,0,1,1,3,3,5,5,7,7,9,9,12,12,14,14,15,15],"right_children":[2,4,-1,6,-1,8,-1,10,-1,12,-1,-1,14,-1,16,18,-1,-1,-1],"split_conditions":[1.4428923E3,-9.82375E2,-0E0,9.657866E-1,-0E0,2.2758256E4,-0E0,3.5790732E2,-0E0,-9.95927E4,-0E0,-0E0,6.723729E3,-0E0,1.5811123E4,1.6015929E3,-0E0,-0E0,-1.0813431E-2],"split_indices":[35,67,0,7,0,78,0,37,0,77,0,0,94,0,56,43,0,0,0],"split_type":[0,0,0,0,0,0,0,0,0,0,0,0,0,0,0,0,0,0,0],"sum_hessian":[2.531E3,2.136E3,3.95E2,1.748E3,3.88E2,1.607E3,1.41E2,1.475E3,1.32E2,1.112E3,3.63E2,2.9E1,1.083E3,8.4E1,9.99E2,9.34E2,6.5E1,6.8E1,8.66E2],"tree_param":{"num_deleted":"0","num_feature":"200","num_nodes":"19","size_leaf_vector":"1"}},{"base_weights":[-0E0],"categories":[],"categories_nodes":[],"categories_segments":[],"categories_sizes":[],"default_left":[0],"id":21,"left_children":[-1],"loss_changes":[0E0],"parents":[2147483647],"right_children":[-1],"split_conditions":[-0E0],"split_indices":[0],"split_type":[0],"sum_hessian":[2.588E3],"tree_param":{"num_deleted":"0","num_feature":"200","num_nodes":"1","size_leaf_vector":"1"}},{"base_weights":[-0E0,-0E0,6.482538E-3,-2.3250133E-2,-0E0,4.03431E-2,-0E0,-5.3302087E-2,-0E0,-0E0,6.689185E-2,-0E0,-8.4439315E-2,-0E0,8.431633E-2,-0E0,-1.17090195E-1,1.11447014E-1,-0E0,-1.4909224E-1,-0E0,1.3324125E-1,-0E0,-0E0,-1.7406689E-1,1.5203305E-1,-0E0,-0E0,-1.9349235E-1,1.7098902E-1,-0E0,-0E0,-1.3355307E-2,1.1796634E-2,-0E0],"categories":[],"categories_nodes":[],"categories_segments":[],"categories_sizes":[],"default_left":[0,0,0,0,0,0,0,0,0,0,0,0,0,0,0,0,0,0,0,0,0,0,0,0,0,0,0,0,0,0,0,0,0,0,0],"id":22,"left_children":[1,3,5,7,-1,9,-1,11,-1,-1,13,-1,15,-1,17,-1,19,21,-1,23,-1,25,-1,-1,27,29,-1,-1,31,33,-1,-1,-1,-1,-1],"loss_changes":[8.862714E-2,2.2703883E-1,2.2583227E0,7.758738E-1,0E0,2.4139388E0,0E0,1.3998965E0,0E0,0E0,2.0568762E0,0E0,1.9158764E0,0E0,3.0316424E0,0E0,2.1053505E0,2.773141E0,0E0,1.3325796E0,0E0,2.2628965E0,0E0,0E0,1.2662544E0,2.5399551E0,0E0,0E0,6.45133E-1,2.504778E0,0E0,0E0,0E0,0E0,0E0],"parents":[2147483647,0,0,1,1,2,2,3,3,5,5,7,7,10,10,12,12,14,14,16,16,17,17,19,19,21,21,24,24,25,25,28,28,29,29],"right_children":[2,4,6,8,-1,10,-1,12,-1,-1,14,-1,16,-1,18,-1,20,22,-1,24,-1,26,-1,-1,28,30,-1,-1,32,34,-1,-1,-1,-1,-1],"split_conditions":[-6.3984097E3,1E0,1.0382381E2,-1.3569738E3,-0E0,4.5942627E1,-0E0,-5.7794135E2,-0E0,-0E0,0E0,-0E0,0E0,-0E0,6.718867E2,-0E0,2.810615E3,9.590789E-1,-0E0,-3.723875E3,-0E0,1.1339974E4,-0E0,-0E0,1.5745546E2,-2.9786682E3,-0E0,-0E0,0E0,1E0,-0E0,-0E0,-1.3355307E-2,1.1796634E-2,-0E0],"split_indices":[84,153,33,67,0,26,0,71,0,0,156,0,144,0,93,0,90,6,0,39,0,64,0,0,41,91,0,0,114,107,0,0,0,0,0],"split_type":[0,0,0,0,0,0,0,0,0,0,0,0,0,0,0,0,0,0,0,0,0,0,0,0,0,0,0,0,0,0,0,0,0,0,0],"sum_hessian":[2.597E3,4.88E2,2.109E3,4.2E2,6.8E1,1.442E3,6.67E2,3.53E2,6.7E1,3.78E2,1.064E3,1.6E1,3.37E2,1.05E2,9.59E2,2.2E1,3.15E2,7.93E2,1.66E2,2.89E2,2.6E1,7.11E2,8.2E1,3.3E1,2.56E2,6.44E2,6.7E1,1.5E1,2.41E2,5.96E2,4.8E1,2.3E1,2.18E2,5.76E2,2E1],"tree_param":{"num_deleted":"0","num_feature":"200","num_nodes":"35","size_leaf_vector":"1"}},{"base_weights":[-0E0],"categories":[],"categories_nodes":[],"categories_segments":[],"categories_sizes":[],"default_left":[0],"id":23,"left_children":[-1],"loss_changes":[0E0],"parents":[2147483647],"right_children":[-1],"split_conditions":[-0E0],"split_indices":[0],"split_type":[0],"sum_hessian":[2.548E3],"tree_param":{"num_deleted":"0","num_feature":"200","num_nodes":"1","size_leaf_vector":"1"}},{"base_weights":[-0E0,-2.3776403E-2,-0E0,-0E0,-5.6574825E-2,2.3783868E-2,-0E0,-9.275598E-2,-0E0,5.255359E-2,-0E0,-0E0,-1.2286282E-1,7.796799E-2,-0E0,-0E0,-1.4892933E-1,-0E0,9.611816E-2,-0E0,-1.8142253E-1,-0E0,1.1761814E-1,-2.1111573E-1,-0E0,1.3440296E-1,-0E0,-0E0,-2.3936172E-1,1.5555248E-1,-0E0,-0E0,-1.706266E-2,-0E0,1.1297195E-2],"categories":[],"categories_nodes":[],"categories_segments":[],"categories_sizes":[],"default_left":[0,0,0,0,0,0,0,0,0,0,0,0,0,0,0,0,0,0,0,0,0,0,0,0,0,0,0,0,0,0,0,0,0,0,0],"id":24,"left_children":[1,3,5,-1,7,9,-1,11,-1,13,-1,-1,15,17,-1,-1,19,-1,21,-1,23,-1,25,27,-1,29,-1,-1,31,33,-1,-1,-1,-1,-1],"loss_changes":[4.9465266E-1,1.8514684E0,4.2142597E-1,0E0,2.7042348E0,1.4400814E0,0E0,2.3010426E0,0E0,1.3786036E0,0E0,0E0,2.6517553E0,1.2591362E0,0E0,0E0,3.3270712E0,0E0,1.4355512E0,0E0,3.7400284E0,0E0,1.3631201E0,2.3524227E0,0E0,1.6306171E0,0E0,0E0,2.2936897E0,1.8924818E0,0E0,0E0,0E0,0E0,0E0],"parents":[2147483647,0,0,1,1,2,2,4,4,5,5,7,7,9,9,12,12,13,13,16,16,18,18,20,20,22,22,23,23,25,25,28,28,29,29],"right_children":[2,4,6,-1,8,10,-1,12,-1,14,-1,-1,16,18,-1,-1,20,-1,22,-1,24,-1,26,28,-1,30,-1,-1,32,34,-1,-1,-1,-1,-1],"split_conditions":[-1.1577568E3,-1.0927037E3,-3.1804886E1,-0E0,-2.1397632E3,9.4139683E-1,-0E0,1.6851693E3,-0E0,1E0,-0E0,-0E0,-6.539152E3,-1.2276067E4,-0E0,-0E0,1.2009027E4,-0E0,-6.582027E3,-0E0,1.0077833E4,-0E0,1E0,-4.492125E3,-0E0,2.017E3,-0E0,-0E0,4.851996E1,-1.5253082E4,-0E0,-0E0,-1.706266E-2,-0E0,1.1297195E-2],"split_indices":[84,29,65,0,88,7,0,41,0,127,0,0,32,55,0,0,49,0,62,0,35,0,145,39,0,2,0,0,26,39,0,0,0,0,0],"split_type":[0,0,0,0,0,0,0,0,0,0,0,0,0,0,0,0,0,0,0,0,0,0,0,0,0,0,0,0,0,0,0,0,0,0,0],"sum_hessian":[2.589E3,8.75E2,1.714E3,1.42E2,7.33E2,7.45E2,9.69E2,5.87E2,1.46E2,6.74E2,7.1E1,1E2,4.87E2,5.33E2,1.41E2,3.6E1,4.51E2,4.6E1,4.87E2,4.6E1,4.05E2,5.8E1,4.29E2,3.83E2,2.2E1,4.04E2,2.5E1,4.4E1,3.39E2,3.69E2,3.5E1,3.9E1,3E2,2.8E1,3.41E2],"tree_param":{"num_deleted":"0","num_feature":"200","num_nodes":"35","size_leaf_vector":"1"}},{"base_weights":[-0E0,-1.4535078E-2,-0E0,-0E0,-4.7318634E-2,-0E0,-8.67188E-2,-0E0,-1.1645694E-1,-0E0,-1.4063896E-1,-0E0,-1.869168E-1,-2.090856E-1,-0E0,-0E0,-2.2479676E-1,-0E0,-1.5411978E-2],"categories":[],"categories_nodes":[],"categories_segments":[],"categories_sizes":[],"default_left":[0,0,0,0,0,0,0,0,0,0,0,0,0,0,0,0,0,0,0],"id":25,"left_children":[1,3,-1,-1,5,-1,7,-1,9,-1,11,-1,13,15,-1,-1,17,-1,-1],"loss_changes":[4.4641033E-1,2.6098971E0,0E0,0E0,3.245578E0,0E0,3.7748432E0,0E0,3.056738E0,0E0,3.9162235E0,0E0,3.6283493E0,2.7190094E0,0E0,0E0,2.7072144E0,0E0,0E0],"parents":[2147483647,0,0,1,1,4,4,6,6,8,8,10,10,12,12,13,13,16,16],"right_children":[2,4,-1,-1,6,-1,8,-1,10,-1,12,-1,14,16,-1,-1,18,-1,-1],"split_conditions":[9.7030615E2,7.1996565E0,-0E0,-0E0,-9.326681E9,-0E0,-6.5061973E3,-0E0,-4.7088173E1,-0E0,2.4520096E1,-0E0,4.823293E4,1.24979105E1,-0E0,-0E0,6E0,-0E0,-1.5411978E-2],"split_indices":[35,19,0,0,12,0,64,0,100,0,24,0,86,23,0,0,0,0,0],"split_type":[0,0,0,0,0,0,0,0,0,0,0,0,0,0,0,0,0,0,0],"sum_hessian":[2.588E3,2.113E3,4.75E2,7.48E2,1.365E3,5.27E2,8.38E2,9.5E1,7.43E2,7.9E1,6.64E2,1.76E2,4.88E2,4.73E2,1.5E1,1E1,4.63E2,2.1E1,4.42E2],"tree_param":{"num_deleted":"0","num_feature":"200","num_nodes":"19","size_leaf_vector":"1"}},{"base_weights":[-0E0],"categories":[],"categories_nodes":[],"categories_segments":[],"categories_sizes":[],"default_left":[0],"id":26,"left_children":[-1],"loss_changes":[0E0],"parents":[2147483647],"right_children":[-1],"split_conditions":[-0E0],"split_indices":[0],"split_type":[0],"sum_hessian":[2.554E3],"tree_param":{"num_deleted":"0","num_feature":"200","num_nodes":"1","size_leaf_vector":"1"}},{"base_weights":[-0E0],"categories":[],"categories_nodes":[],"categories_segments":[],"categories_sizes":[],"default_left":[0],"id":27,"left_children":[-1],"loss_changes":[0E0],"parents":[2147483647],"right_children":[-1],"split_conditions":[-0E0],"split_indices":[0],"split_type":[0],"sum_hessian":[2.581E3],"tree_param":{"num_deleted":"0","num_feature":"200","num_nodes":"1","size_leaf_vector":"1"}},{"base_weights":[-0E0,1.0446433E-2,-0E0,-0E0,3.4564648E-2,-0E0,5.8311302E-2,-0E0,7.541412E-2,8.661131E-2,-0E0,9.6772656E-2,-0E0,-0E0,1.1696629E-1,-0E0,1.2773417E-1,-0E0,9.091503E-3],"categories":[],"categories_nodes":[],"categories_segments":[],"categories_sizes":[],"default_left":[0,0,0,0,0,0,0,0,0,0,0,0,0,0,0,0,0,0,0],"id":28,"left_children":[1,3,-1,-1,5,-1,7,-1,9,11,-1,13,-1,-1,15,-1,17,-1,-1],"loss_changes":[2.4772048E-1,1.8884299E0,0E0,0E0,2.022304E0,0E0,1.8814478E0,0E0,1.5891428E0,1.5392375E0,0E0,1.9134197E0,0E0,0E0,1.6937408E0,0E0,1.857235E0,0E0,0E0],"parents":[2147483647,0,0,1,1,4,4,6,6,8,8,9,9,11,11,14,14,16,16],"right_children":[2,4,-1,-1,6,-1,8,-1,10,12,-1,14,-1,-1,16,-1,18,-1,-1],"split_conditions":[1.4815347E12,-1.6974917E3,-0E0,-0E0,5.314362E2,-0E0,-1.8608615E3,-0E0,3.167147E4,9.9630326E-1,-0E0,4.374921E4,-0E0,-0E0,-3.4268805E4,-0E0,1.9192806E1,-0E0,9.091503E-3],"split_indices":[12,61,0,0,40,0,36,0,85,7,0,101,0,0,59,0,24,0,0],"split_type":[0,0,0,0,0,0,0,0,0,0,0,0,0,0,0,0,0,0,0],"sum_hessian":[2.586E3,2.27E3,3.16E2,4.82E2,1.788E3,5.65E2,1.223E3,1.61E2,1.062E3,1.017E3,4.5E1,9.79E2,3.8E1,1.69E2,8.1E2,2.7E1,7.83E2,7.1E1,7.12E2],"tree_param":{"num_deleted":"0","num_feature":"200","num_nodes":"19","size_leaf_vector":"1"}},{"base_weights":[-0E0,-9.7459415E-3,-0E0,-0E0,-5.3545658E-2,3.95113E-3,-0E0,-9.873614E-2,-0E0,-0E0,2.0827333E-2,-0E0,-1.37359E-1,-0E0,3.5215273E-2,-0E0,-1.703948E-1,-0E0,5.013627E-2,-0E0,-1.9624387E-1,-0E0,6.084916E-2,-2.288686E-1,-0E0,-0E0,7.474383E-2,-0E0,-2.5395122E-1,-0E0,8.492537E-2,-0E0,-1.728282E-2,6.0915537E-3,-0E0],"categories":[],"categories_nodes":[],"categories_segments":[],"categories_sizes":[],"default_left":[0,0,0,0,0,0,0,0,0,0,0,0,0,0,0,0,0,0,0,0,0,0,0,0,0,0,0,0,0,0,0,0,0,0,0],"id":29,"left_children":[1,3,5,-1,7,9,-1,11,-1,-1,13,-1,15,-1,17,-1,19,-1,21,-1,23,-1,25,27,-1,-1,29,-1,31,-1,33,-1,-1,-1,-1],"loss_changes":[1.2727773E-1,2.5018873E0,1.7968753E-2,0E0,3.512595E0,3.5898414E-1,0E0,4.008951E0,0E0,0E0,6.0645866E-1,0E0,4.279378E0,0E0,7.9876304E-1,0E0,2.8231344E0,0E0,7.207968E-1,0E0,3.5943508E0,0E0,8.0990624E-1,3.401125E0,0E0,0E0,8.053565E-1,0E0,2.4135056E0,0E0,9.2856455E-1,0E0,0E0,0E0,0E0],"parents":[2147483647,0,0,1,1,2,2,4,4,5,5,7,7,10,10,12,12,14,14,16,16,18,18,20,20,22,22,23,23,26,26,28,28,30,30],"right_children":[2,4,6,-1,8,10,-1,12,-1,-1,14,-1,16,-1,18,-1,20,-1,22,-1,24,-1,26,28,-1,-1,30,-1,32,-1,34,-1,-1,-1,-1],"split_conditions":[-8.912848E3,-1.1844568E2,1.6211651E8,-0E0,3.2074912E8,1.3299564E1,-0E0,-7.0313335E3,-0E0,-0E0,1.0718268E1,-0E0,0E0,-0E0,-1.7887547E4,-0E0,5.088513E3,-0E0,4.943145E2,-0E0,1.9664135E4,-0E0,-2.4799963E2,0E0,-0E0,-0E0,-9.5280625E3,-0E0,-9.8334295E-1,-0E0,6.1284136E3,-0E0,-1.728282E-2,6.0915537E-3,-0E0],"split_indices":[88,68,17,0,17,23,0,65,0,0,22,0,152,0,17,0,45,0,89,0,86,0,93,105,0,0,36,0,7,0,13,0,0,0,0],"split_type":[0,0,0,0,0,0,0,0,0,0,0,0,0,0,0,0,0,0,0,0,0,0,0,0,0,0,0,0,0,0,0,0,0,0,0],"sum_hessian":[2.598E3,1.34E3,1.258E3,4.23E2,9.17E2,1.151E3,1.07E2,6.3E2,2.87E2,2.82E2,8.69E2,9.2E1,5.38E2,7.6E1,7.93E2,4.1E1,4.97E2,8.4E1,7.09E2,4.9E1,4.48E2,3.3E1,6.76E2,3.98E2,5E1,8.3E1,5.93E2,2.2E1,3.76E2,2.2E1,5.71E2,1.7E1,3.59E2,5.47E2,2.4E1],"tree_param":{"num_deleted":"0","num_feature":"200","num_nodes":"35","size_leaf_vector":"1"}},{"base_weights":[-0E0,-0E0,-6.9817547E-3,-0E0,2.80914E-3,-0E0,-3.1989124E-2,-0E0,2.3416666E-2,-5.7773482E-2,-0E0,3.6046542E-2,-0E0,-7.8770675E-2,-0E0,4.7930125E-2,-0E0,-0E0,-1.0957084E-1,5.679995E-2,-0E0,-0E0,-1.4266166E-1,-0E0,6.724449E-2,-0E0,-1.7118119E-1,-0E0,7.6628E-2,-0E0,-1.8850757E-1,-0E0,5.7239337E-3,-0E0,-1.2925664E-2],"categories":[],"categories_nodes":[],"categories_segments":[],"categories_sizes":[],"default_left":[0,0,0,0,0,0,0,0,0,0,0,0,0,0,0,0,0,0,0,0,0,0,0,0,0,0,0,0,0,0,0,0,0,0,0],"id":30,"left_children":[1,3,5,-1,7,-1,9,-1,11,13,-1,15,-1,17,-1,19,-1,-1,21,23,-1,-1,25,-1,27,-1,29,-1,31,-1,33,-1,-1,-1,-1],"loss_changes":[7.999037E-2,6.155188E-3,1.4488258E0,0E0,3.875531E-1,0E0,2.733523E0,0E0,5.002467E-1,3.1276011E0,0E0,5.740179E-1,0E0,4.2916737E0,0E0,4.8712504E-1,0E0,0E0,4.4781513E0,5.7712245E-1,0E0,0E0,5.8467884E0,0E0,4.9765444E-1,0E0,3.8274689E0,0E0,1.0595794E0,0E0,3.90942E0,0E0,0E0,0E0,0E0],"parents":[2147483647,0,0,1,1,2,2,4,4,6,6,8,8,9,9,11,11,13,13,15,15,18,18,19,19,22,22,24,24,26,26,28,28,30,30],"right_children":[2,4,6,-1,8,-1,10,-1,12,14,-1,16,-1,18,-1,20,-1,-1,22,24,-1,-1,26,-1,28,-1,30,-1,32,-1,34,-1,-1,-1,-1],"split_conditions":[7.688734E4,-7.6858944E5,-2.1261453E4,-0E0,-2.2248314E4,-0E0,1.4428923E3,-0E0,2.455808E3,9.750985E-1,-0E0,-1.6145334E3,-0E0,1.1592928E4,-0E0,2.9540357E4,-0E0,-0E0,-4.9499596E1,2.2269165E3,-0E0,-0E0,2.8032065E3,-0E0,-9.7650886E-1,-0E0,-1.7373783E4,-0E0,-1.4509906E2,-0E0,-3.528751E4,-0E0,5.7239337E-3,-0E0,-1.2925664E-2],"split_indices":[16,17,81,0,83,0,35,0,66,7,0,91,0,94,0,86,0,0,100,92,0,0,45,0,7,0,30,0,73,0,35,0,0,0,0],"split_type":[0,0,0,0,0,0,0,0,0,0,0,0,0,0,0,0,0,0,0,0,0,0,0,0,0,0,0,0,0,0,0,0,0,0,0],"sum_hessian":[2.556E3,9.15E2,1.641E3,1.35E2,7.8E2,1.47E2,1.494E3,6.2E1,7.18E2,1.277E3,2.17E2,6.88E2,3E1,1.191E3,8.6E1,6.39E2,4.9E1,2.18E2,9.73E2,6.06E2,3.3E1,1.79E2,7.94E2,4.6E1,5.6E2,4.3E1,7.51E2,4.4E1,5.16E2,2.4E1,7.27E2,1.4E1,5.02E2,1.1E1,7.16E2],"tree_param":{"num_deleted":"0","num_feature":"200","num_nodes":"35","size_leaf_vector":"1"}},{"base_weights":[-0E0],"categories":[],"categories_nodes":[],"categories_segments":[],"categories_sizes":[],"default_left":[0],"id":31,"left_children":[-1],"loss_changes":[0E0],"parents":[2147483647],"right_children":[-1],"split_conditions":[-0E0],"split_indices":[0],"split_type":[0],"sum_hessian":[2.546E3],"tree_param":{"num_deleted":"0","num_feature":"200","num_nodes":"1","size_leaf_vector":"1"}},{"base_weights":[-0E0],"categories":[],"categories_nodes":[],"categories_segments":[],"categories_sizes":[],"default_left":[0],"id":32,"left_children":[-1],"loss_changes":[0E0],"parents":[2147483647],"right_children":[-1],"split_conditions":[-0E0],"split_indices":[0],"split_type":[0],"sum_hessian":[2.592E3],"tree_param":{"num_deleted":"0","num_feature":"200","num_nodes":"1","size_leaf_vector":"1"}},{"base_weights":[-0E0],"categories":[],"categories_nodes":[],"categories_segments":[],"categories_sizes":[],"default_left":[0],"id":33,"left_children":[-1],"loss_changes":[0E0],"parents":[2147483647],"right_children":[-1],"split_conditions":[-0E0],"split_indices":[0],"split_type":[0],"sum_hessian":[2.606E3],"tree_param":{"num_deleted":"0","num_feature":"200","num_nodes":"1","size_leaf_vector":"1"}},{"base_weights":[-0E0],"categories":[],"categories_nodes":[],"categories_segments":[],"categories_sizes":[],"default_left":[0],"id":34,"left_children":[-1],"loss_changes":[0E0],"parents":[2147483647],"right_children":[-1],"split_conditions":[-0E0],"split_indices":[0],"split_type":[0],"sum_hessian":[2.57E3],"tree_param":{"num_deleted":"0","num_feature":"200","num_nodes":"1","size_leaf_vector":"1"}},{"base_weights":[-0E0],"categories":[],"categories_nodes":[],"categories_segments":[],"categories_sizes":[],"default_left":[0],"id":35,"left_children":[-1],"loss_changes":[0E0],"parents":[2147483647],"right_children":[-1],"split_conditions":[-0E0],"split_indices":[0],"split_type":[0],"sum_hessian":[2.559E3],"tree_param":{"num_deleted":"0","num_feature":"200","num_nodes":"1","size_leaf_vector":"1"}},{"base_weights":[-0E0],"categories":[],"categories_nodes":[],"categories_segments":[],"categories_sizes":[],"default_left":[0],"id":36,"left_children":[-1],"loss_changes":[0E0],"parents":[2147483647],"right_children":[-1],"split_conditions":[-0E0],"split_indices":[0],"split_type":[0],"sum_hessian":[2.578E3],"tree_param":{"num_deleted":"0","num_feature":"200","num_nodes":"1","size_leaf_vector":"1"}},{"base_weights":[-0E0],"categories":[],"categories_nodes":[],"categories_segments":[],"categories_sizes":[],"default_left":[0],"id":37,"left_children":[-1],"loss_changes":[0E0],"parents":[2147483647],"right_children":[-1],"split_conditions":[-0E0],"split_indices":[0],"split_type":[0],"sum_hessian":[2.533E3],"tree_param":{"num_deleted":"0","num_feature":"200","num_nodes":"1","size_leaf_vector":"1"}},{"base_weights":[-0E0],"categories":[],"categories_nodes":[],"categories_segments":[],"categories_sizes":[],"default_left":[0],"id":38,"left_children":[-1],"loss_changes":[0E0],"parents":[2147483647],"right_children":[-1],"split_conditions":[-0E0],"split_indices":[0],"split_type":[0],"sum_hessian":[2.573E3],"tree_param":{"num_deleted":"0","num_feature":"200","num_nodes":"1","size_leaf_vector":"1"}},{"base_weights":[-0E0],"categories":[],"categories_nodes":[],"categories_segments":[],"categories_sizes":[],"default_left":[0],"id":39,"left_children":[-1],"loss_changes":[0E0],"parents":[2147483647],"right_children":[-1],"split_conditions":[-0E0],"split_indices":[0],"split_type":[0],"sum_hessian":[2.55E3],"tree_param":{"num_deleted":"0","num_feature":"200","num_nodes":"1","size_leaf_vector":"1"}},{"base_weights":[-0E0],"categories":[],"categories_nodes":[],"categories_segments":[],"categories_sizes":[],"default_left":[0],"id":40,"left_children":[-1],"loss_changes":[0E0],"parents":[2147483647],"right_children":[-1],"split_conditions":[-0E0],"split_indices":[0],"split_type":[0],"sum_hessian":[2.557E3],"tree_param":{"num_deleted":"0","num_feature":"200","num_nodes":"1","size_leaf_vector":"1"}},{"base_weights":[-0E0],"categories":[],"categories_nodes":[],"categories_segments":[],"categories_sizes":[],"default_left":[0],"id":41,"left_children":[-1],"loss_changes":[0E0],"parents":[2147483647],"right_children":[-1],"split_conditions":[-0E0],"split_indices":[0],"split_type":[0],"sum_hessian":[2.613E3],"tree_param":{"num_deleted":"0","num_feature":"200","num_nodes":"1","size_leaf_vector":"1"}},{"base_weights":[-0E0],"categories":[],"categories_nodes":[],"categories_segments":[],"categories_sizes":[],"default_left":[0],"id":42,"left_children":[-1],"loss_changes":[0E0],"parents":[2147483647],"right_children":[-1],"split_conditions":[-0E0],"split_indices":[0],"split_type":[0],"sum_hessian":[2.595E3],"tree_param":{"num_deleted":"0","num_feature":"200","num_nodes":"1","size_leaf_vector":"1"}},{"base_weights":[-0E0],"categories":[],"categories_nodes":[],"categories_segments":[],"categories_sizes":[],"default_left":[0],"id":43,"left_children":[-1],"loss_changes":[0E0],"parents":[2147483647],"right_children":[-1],"split_conditions":[-0E0],"split_indices":[0],"split_type":[0],"sum_hessian":[2.535E3],"tree_param":{"num_deleted":"0","num_feature":"200","num_nodes":"1","size_leaf_vector":"1"}},{"base_weights":[-0E0,-0E0,-2.2332359E-3,-0E0,1.7225597E-2,-0E0,-6.290916E-2,3.4081854E-2,-0E0,-8.8409215E-2,-0E0,5.267294E-2,-0E0,-1.2387869E-1,-0E0,8.551012E-2,-0E0,-0E0,-1.5197457E-1,1.1172131E-1,-0E0,-0E0,-1.9273764E-1,-0E0,1.3621898E-1,-2.1976925E-1,-0E0,-0E0,1.5193564E-1,-0E0,-2.4351363E-1,-0E0,1.0420237E-2,-1.756678E-2,-0E0],"categories":[],"categories_nodes":[],"categories_segments":[],"categories_sizes":[],"default_left":[0,0,0,0,0,0,0,0,0,0,0,0,0,0,0,0,0,0,0,0,0,0,0,0,0,0,0,0,0,0,0,0,0,0,0],"id":44,"left_children":[1,3,5,-1,7,-1,9,11,-1,13,-1,15,-1,17,-1,19,-1,-1,21,23,-1,-1,25,-1,27,29,-1,-1,31,-1,33,-1,-1,-1,-1],"loss_changes":[6.0446593E-3,3.3232772E-1,3.0373209E0,0E0,8.431839E-1,0E0,2.5686588E0,1.1328216E0,0E0,3.2732697E0,0E0,2.0569198E0,0E0,4.0717134E0,0E0,2.1252055E0,0E0,0E0,3.945241E0,2.4904556E0,0E0,0E0,3.6729221E0,0E0,1.70718E0,3.7373753E0,0E0,0E0,1.0019331E0,0E0,3.5399017E0,0E0,0E0,0E0,0E0],"parents":[2147483647,0,0,1,1,2,2,4,4,6,6,7,7,9,9,11,11,13,13,15,15,18,18,19,19,22,22,24,24,25,25,28,28,30,30],"right_children":[2,4,6,-1,8,-1,10,12,-1,14,-1,16,-1,18,-1,20,-1,-1,22,24,-1,-1,26,-1,28,30,-1,-1,32,-1,34,-1,-1,-1,-1],"split_conditions":[2.0429219E6,-7.296607E3,-7.3777435E2,-0E0,1.4983185E3,-0E0,9.750985E-1,2.2729424E3,-0E0,7.049748E2,-0E0,-4.4242495E3,-0E0,-3.3331036E2,-0E0,1E0,-0E0,-0E0,7.529508E3,-8.8830255E2,-0E0,-0E0,1E0,-0E0,0E0,-1.5625E4,-0E0,-0E0,0E0,-0E0,1E0,-0E0,1.0420237E-2,-1.756678E-2,-0E0],"split_indices":[16,83,50,0,44,0,7,64,0,37,0,91,0,100,0,180,0,0,47,93,0,0,175,0,177,37,0,0,114,0,157,0,0,0,0],"split_type":[0,0,0,0,0,0,0,0,0,0,0,0,0,0,0,0,0,0,0,0,0,0,0,0,0,0,0,0,0,0,0,0,0,0,0],"sum_hessian":[2.547E3,1.335E3,1.212E3,2.15E2,1.12E3,4.43E2,7.69E2,1.012E3,1.08E2,7.18E2,5.1E1,8.32E2,1.8E2,5.79E2,1.39E2,5.97E2,2.35E2,1.8E1,5.61E2,5.2E2,7.7E1,1.06E2,4.55E2,3.6E1,4.84E2,4.26E2,2.9E1,2.1E1,4.63E2,1.6E1,4.1E2,3E1,4.33E2,3.63E2,4.7E1],"tree_param":{"num_deleted":"0","num_feature":"200","num_nodes":"35","size_leaf_vector":"1"}},{"base_weights":[-0E0],"categories":[],"categories_nodes":[],"categories_segments":[],"categories_sizes":[],"default_left":[0],"id":45,"left_children":[-1],"loss_changes":[0E0],"parents":[2147483647],"right_children":[-1],"split_conditions":[-0E0],"split_indices":[0],"split_type":[0],"sum_hessian":[2.584E3],"tree_param":{"num_deleted":"0","num_feature":"200","num_nodes":"1","size_leaf_vector":"1"}},{"base_weights":[-0E0],"categories":[],"categories_nodes":[],"categories_segments":[],"categories_sizes":[],"default_left":[0],"id":46,"left_children":[-1],"loss_changes":[0E0],"parents":[2147483647],"right_children":[-1],"split_conditions":[-0E0],"split_indices":[0],"split_type":[0],"sum_hessian":[2.574E3],"tree_param":{"num_deleted":"0","num_feature":"200","num_nodes":"1","size_leaf_vector":"1"}},{"base_weights":[-0E0],"categories":[],"categories_nodes":[],"categories_segments":[],"categories_sizes":[],"default_left":[0],"id":47,"left_children":[-1],"loss_changes":[0E0],"parents":[2147483647],"right_children":[-1],"split_conditions":[-0E0],"split_indices":[0],"split_type":[0],"sum_hessian":[2.549E3],"tree_param":{"num_deleted":"0","num_feature":"200","num_nodes":"1","size_leaf_vector":"1"}},{"base_weights":[-0E0,1.106246E-2,-0E0,4.1813865E-2,-0E0,-0E0,6.7702875E-2,1.2972192E-1,-0E0,1.5232809E-1,-0E0,1.6650465E-1,-0E0,-0E0,1.8601303E-1,-0E0,2.0172137E-1,-0E0,1.36606265E-2],"categories":[],"categories_nodes":[],"categories_segments":[],"categories_sizes":[],"default_left":[0,0,0,0,0,0,0,0,0,0,0,0,0,0,0,0,0,0,0],"id":48,"left_children":[1,3,-1,5,-1,-1,7,9,-1,11,-1,13,-1,-1,15,-1,17,-1,-1],"loss_changes":[1.8662648E-1,2.1509836E0,0E0,2.6356819E0,0E0,0E0,3.5079083E0,2.5406265E0,0E0,1.7311201E0,0E0,1.9524136E0,0E0,0E0,2.0595417E0,0E0,1.9341145E0,0E0,0E0],"parents":[2147483647,0,0,1,1,3,3,6,6,7,7,9,9,11,11,14,14,16,16],"right_children":[2,4,-1,6,-1,-1,8,10,-1,12,-1,14,-1,-1,16,-1,18,-1,-1],"split_conditions":[1.9681932E1,1.629749E12,-0E0,-2.527449E3,-0E0,-0E0,1.206E3,4.913E3,-0E0,1E0,-0E0,0E0,-0E0,-0E0,1.3702809E4,-0E0,-2.1455334E4,-0E0,1.36606265E-2],"split_indices":[31,12,0,63,0,0,197,37,0,107,0,176,0,0,99,0,62,0,0],"split_type":[0,0,0,0,0,0,0,0,0,0,0,0,0,0,0,0,0,0,0],"sum_hessian":[2.574E3,1.525E3,1.049E3,1.337E3,1.88E2,2.52E2,1.085E3,5.04E2,5.81E2,4.75E2,2.9E1,4.6E2,1.5E1,3.5E1,4.25E2,1.3E1,4.12E2,9E0,4.03E2],"tree_param":{"num_deleted":"0","num_feature":"200","num_nodes":"19","size_leaf_vector":"1"}},{"base_weights":[-0E0],"categories":[],"categories_nodes":[],"categories_segments":[],"categories_sizes":[],"default_left":[0],"id":49,"left_children":[-1],"loss_changes":[0E0],"parents":[2147483647],"right_children":[-1],"split_conditions":[-0E0],"split_indices":[0],"split_type":[0],"sum_hessian":[2.554E3],"tree_param":{"num_deleted":"0","num_feature":"200","num_nodes":"1","size_leaf_vector":"1"}},{"base_weights":[-0E0,-1.0667347E-4,-0E0,-0E0,-3.2692343E-2,-0E0,1.383089E-3,-5.313913E-2,-0E0,-0E0,4.153401E-2,-7.1955554E-2,-0E0,-0E0,5.7056222E-2,-1.12282455E-1,-0E0,7.265783E-2,-0E0,-1.3289486E-1,-0E0,-0E0,8.842454E-2,-1.4906032E-1,-0E0,9.972127E-2,-0E0,-1.617499E-1,-0E0,1.0676213E-1,-0E0,-0E0,-1.0944276E-2,-0E0,7.196795E-3],"categories":[],"categories_nodes":[],"categories_segments":[],"categories_sizes":[],"default_left":[0,0,0,0,0,0,0,0,0,0,0,0,0,0,0,0,0,0,0,0,0,0,0,0,0,0,0,0,0,0,0,0,0,0,0],"id":50,"left_children":[1,3,5,-1,7,-1,9,11,-1,-1,13,15,-1,-1,17,19,-1,21,-1,23,-1,-1,25,27,-1,29,-1,31,-1,33,-1,-1,-1,-1,-1],"loss_changes":[1.5316444E-5,1.0880122E0,1.4920895E-3,0E0,1.636908E0,0E0,1.1025553E0,1.9090176E0,0E0,0E0,8.784989E-1,2.8674207E0,0E0,0E0,1.0529709E0,2.7596917E0,0E0,1.0381298E0,0E0,2.3815336E0,0E0,0E0,9.283519E-1,1.7993946E0,0E0,6.286888E-1,0E0,1.3421993E0,0E0,5.765419E-1,0E0,0E0,0E0,0E0,0E0],"parents":[2147483647,0,0,1,1,2,2,4,4,6,6,7,7,10,10,11,11,14,14,15,15,17,17,19,19,22,22,23,23,25,25,27,27,29,29],"right_children":[2,4,6,-1,8,-1,10,12,-1,-1,14,16,-1,-1,18,20,-1,22,-1,24,-1,-1,26,28,-1,30,-1,32,-1,34,-1,-1,-1,-1,-1],"split_conditions":[-8.912848E3,-9.950165E4,4.8108345E1,-0E0,5.277963E1,-0E0,-1.3569738E3,1E0,-0E0,-0E0,-1.291255E4,6.015129E2,-0E0,-0E0,2.2982463E3,2.6103915E2,-0E0,9.281911E2,-0E0,6.4481074E4,-0E0,-0E0,7.8608055E4,1.5750545E2,-0E0,2.2936438E1,-0E0,-9.8334295E-1,-0E0,-5.256123E6,-0E0,-0E0,-1.0944276E-2,-0E0,7.196795E-3],"split_indices":[88,16,26,0,22,0,56,175,0,0,15,58,0,0,55,74,0,89,0,62,0,0,92,26,0,21,0,7,0,16,0,0,0,0,0],"split_type":[0,0,0,0,0,0,0,0,0,0,0,0,0,0,0,0,0,0,0,0,0,0,0,0,0,0,0,0,0,0,0,0,0,0,0],"sum_hessian":[2.591E3,1.346E3,1.245E3,3.28E2,1.018E3,4.65E2,7.8E2,9.65E2,5.3E1,1.4E2,6.4E2,8.95E2,7E1,3.1E1,6.09E2,5.95E2,3E2,5.75E2,3.4E1,5.81E2,1.4E1,5.4E1,5.21E2,5.69E2,1.2E1,5.03E2,1.8E1,5.52E2,1.7E1,4.94E2,9E0,2.2E1,5.3E2,1.2E1,4.82E2],"tree_param":{"num_deleted":"0","num_feature":"200","num_nodes":"35","size_leaf_vector":"1"}},{"base_weights":[-0E0],"categories":[],"categories_nodes":[],"categories_segments":[],"categories_sizes":[],"default_left":[0],"id":51,"left_children":[-1],"loss_changes":[0E0],"parents":[2147483647],"right_children":[-1],"split_conditions":[-0E0],"split_indices":[0],"split_type":[0],"sum_hessian":[2.562E3],"tree_param":{"num_deleted":"0","num_feature":"200","num_nodes":"1","size_leaf_vector":"1"}},{"base_weights":[-0E0],"categories":[],"categories_nodes":[],"categories_segments":[],"categories_sizes":[],"default_left":[0],"id":52,"left_children":[-1],"loss_changes":[0E0],"parents":[2147483647],"right_children":[-1],"split_conditions":[-0E0],"split_indices":[0],"split_type":[0],"sum_hessian":[2.569E3],"tree_param":{"num_deleted":"0","num_feature":"200","num_nodes":"1","size_leaf_vector":"1"}},{"base_weights":[-0E0],"categories":[],"categories_nodes":[],"categories_segments":[],"categories_sizes":[],"default_left":[0],"id":53,"left_children":[-1],"loss_changes":[0E0],"parents":[2147483647],"right_children":[-1],"split_conditions":[-0E0],"split_indices":[0],"split_type":[0],"sum_hessian":[2.596E3],"tree_param":{"num_deleted":"0","num_feature":"200","num_nodes":"1","size_leaf_vector":"1"}},{"base_weights":[-0E0],"categories":[],"categories_nodes":[],"categories_segments":[],"categories_sizes":[],"default_left":[0],"id":54,"left_children":[-1],"loss_changes":[0E0],"parents":[2147483647],"right_children":[-1],"split_conditions":[-0E0],"split_indices":[0],"split_type":[0],"sum_hessian":[2.549E3],"tree_param":{"num_deleted":"0","num_feature":"200","num_nodes":"1","size_leaf_vector":"1"}},{"base_weights":[-0E0,-0E0,2.7038925E-3,2.4292191E-2,-0E0,-0E0,4.636488E-2,-0E0,6.391915E-2,8.7299034E-2,-0E0,-0E0,1.1052867E-1,-0E0,1.2881294E-1,1.4348006E-1,-0E0,-0E0,9.865119E-3],"categories":[],"categories_nodes":[],"categories_segments":[],"categories_sizes":[],"default_left":[0,0,0,0,0,0,0,0,0,0,0,0,0,0,0,0,0,0,0],"id":55,"left_children":[1,-1,3,5,-1,-1,7,-1,9,11,-1,-1,13,-1,15,17,-1,-1,-1],"loss_changes":[1.5316618E-2,0E0,1.0350802E0,1.7485155E0,0E0,0E0,2.067106E0,0E0,2.3435626E0,3.150086E0,0E0,0E0,2.7652168E0,0E0,2.191492E0,1.7189255E0,0E0,0E0,0E0],"parents":[2147483647,0,0,2,2,3,3,6,6,8,8,9,9,12,12,14,14,15,15],"right_children":[2,-1,4,6,-1,-1,8,-1,10,12,-1,-1,14,-1,16,18,-1,-1,-1],"split_conditions":[-6.6739624E3,-0E0,1.2250262E3,1.5435871E1,-0E0,-0E0,-2.1036914E4,-0E0,5.579564E2,0E0,-0E0,-0E0,9.745329E2,-0E0,1.6759592E4,0E0,-0E0,-0E0,9.865119E-3],"split_indices":[84,0,33,23,0,0,83,0,90,156,0,0,89,0,65,112,0,0,0],"split_type":[0,0,0,0,0,0,0,0,0,0,0,0,0,0,0,0,0,0,0],"sum_hessian":[2.573E3,4.78E2,2.095E3,1.78E3,3.15E2,4.78E2,1.302E3,1.11E2,1.191E3,9.46E2,2.45E2,9.8E1,8.48E2,5.7E1,7.91E2,7.44E2,4.7E1,4E1,7.04E2],"tree_param":{"num_deleted":"0","num_feature":"200","num_nodes":"19","size_leaf_vector":"1"}},{"base_weights":[-0E0,6.854971E-3,-1.7621305E-3,-0E0,3.6380544E-2,-3.586214E-2,-0E0,6.32488E-2,-0E0,-5.995713E-2,-0E0,-0E0,7.560887E-2,-0E0,-9.411955E-2,-0E0,9.328158E-2,-0E0,-1.3677184E-1,-0E0,1.1041705E-1,-1.5852131E-1,-0E0,1.2942119E-1,-0E0,-0E0,-1.7993379E-1,-0E0,1.4820522E-1,-1.9531035E-1,-0E0,1.0128858E-2,-0E0,-1.3193415E-2,-0E0],"categories":[],"categories_nodes":[],"categories_segments":[],"categories_sizes":[],"default_left":[0,0,0,0,0,0,0,0,0,0,0,0,0,0,0,0,0,0,0,0,0,0,0,0,0,0,0,0,0,0,0,0,0,0,0],"id":56,"left_children":[1,3,5,-1,7,9,-1,11,-1,13,-1,-1,15,-1,17,-1,19,-1,21,-1,23,25,-1,27,-1,-1,29,-1,31,33,-1,-1,-1,-1,-1],"loss_changes":[5.8313712E-2,1.2074393E0,1.5646182E0,0E0,2.2270207E0,2.5470786E0,0E0,1.307955E0,0E0,2.9795384E0,0E0,0E0,1.3904204E0,0E0,6.055044E0,0E0,1.9330888E0,0E0,3.434451E0,0E0,1.4610901E0,2.937685E0,0E0,2.104354E0,0E0,0E0,2.2204647E0,0E0,1.2477951E0,2.1905231E0,0E0,0E0,0E0,0E0,0E0],"parents":[2147483647,0,0,1,1,2,2,4,4,5,5,7,7,9,9,12,12,14,14,16,16,18,18,20,20,21,21,23,23,26,26,28,28,29,29],"right_children":[2,4,6,-1,8,10,-1,12,-1,14,-1,-1,16,-1,18,-1,20,-1,22,-1,24,26,-1,28,-1,-1,30,-1,32,34,-1,-1,-1,-1,-1],"split_conditions":[-1.5059804E7,-8.079181E3,1.4428923E3,-0E0,1.827889E4,9.7876906E-1,-0E0,0E0,-0E0,-5.4874115E1,-0E0,-0E0,4.2926994E1,-0E0,-1.0771737E4,-0E0,-9.7742647E-1,-0E0,1.3609086E4,-0E0,9.007529E-1,3.164646E0,-0E0,0E0,-0E0,-0E0,1E0,-0E0,-1.2742714E3,3.1169451E4,-0E0,1.0128858E-2,-0E0,-1.3193415E-2,-0E0],"split_indices":[12,84,35,0,85,7,0,176,0,39,0,0,26,0,85,0,7,0,64,0,5,20,0,111,0,0,118,0,88,65,0,0,0,0,0],"split_type":[0,0,0,0,0,0,0,0,0,0,0,0,0,0,0,0,0,0,0,0,0,0,0,0,0,0,0,0,0,0,0,0,0,0,0],"sum_hessian":[2.569E3,1.147E3,1.422E3,1.94E2,9.53E2,1.22E3,2.02E2,8.72E2,8.1E1,1.145E3,7.5E1,3.3E1,8.39E2,3.44E2,8.01E2,1.28E2,7.11E2,9.8E1,7.03E2,4.5E1,6.66E2,6.6E2,4.3E1,5.72E2,9.4E1,5.7E1,6.03E2,4E1,5.32E2,5.7E2,3.3E1,5.07E2,2.5E1,5.53E2,1.7E1],"tree_param":{"num_deleted":"0","num_feature":"200","num_nodes":"35","size_leaf_vector":"1"}},{"base_weights":[-0E0,1.4142718E-2,-0E0,-0E0,4.3645985E-2,-2.0741403E-2,-0E0,6.873302E-2,-0E0,-0E0,-4.815223E-2,-0E0,8.369627E-2,-6.748396E-2,-0E0,-0E0,9.490164E-2,-0E0,-1.0738024E-1,-0E0,1.0930153E-1,-0E0,-1.3862589E-1,-0E0,1.1890199E-1,-0E0,-1.8002154E-1,1.3641387E-1,-0E0,-2.0405334E-1,-0E0,9.361869E-3,-0E0,-1.4925873E-2,-0E0],"categories":[],"categories_nodes":[],"categories_segments":[],"categories_sizes":[],"default_left":[0,0,0,0,0,0,0,0,0,0,0,0,0,0,0,0,0,0,0,0,0,0,0,0,0,0,0,0,0,0,0,0,0,0,0],"id":57,"left_children":[1,3,5,-1,7,9,-1,11,-1,-1,13,-1,15,17,-1,-1,19,-1,21,-1,23,-1,25,-1,27,-1,29,31,-1,33,-1,-1,-1,-1,-1],"loss_changes":[2.1801795E-1,1.488837E0,3.4717607E-1,0E0,2.0347338E0,1.3291988E0,0E0,1.5052061E0,0E0,0E0,1.4887145E0,0E0,1.2377572E0,2.0351732E0,0E0,0E0,1.2092032E0,0E0,2.947804E0,0E0,1.212985E0,0E0,2.4168615E0,0E0,1.0861568E0,0E0,2.634243E0,1.3171644E0,0E0,1.7014437E0,0E0,0E0,0E0,0E0,0E0],"parents":[2147483647,0,0,1,1,2,2,4,4,5,5,7,7,10,10,12,12,13,13,16,16,18,18,20,20,22,22,24,24,26,26,27,27,29,29],"right_children":[2,4,6,-1,8,10,-1,12,-1,-1,14,-1,16,18,-1,-1,20,-1,22,-1,24,-1,26,-1,28,-1,30,32,-1,34,-1,-1,-1,-1,-1],"split_conditions":[-4.690535E7,-7.4302803E3,1.25E-1,-0E0,1.1665861E4,-2.7006436E2,-0E0,8.84763E2,-0E0,-0E0,6.176809E14,-0E0,8.701816E0,1.7832713E4,-0E0,-0E0,-9.4911104E-1,-0E0,-2.2425652E4,-0E0,-6.5446094E3,-0E0,9.8889555E4,-0E0,9.272376E-1,-0E0,7.361112E4,1E0,-0E0,-9.909887E2,-0E0,9.361869E-3,-0E0,-1.4925873E-2,-0E0],"split_indices":[12,84,30,0,85,68,0,43,0,0,12,0,22,94,0,0,7,0,30,0,63,0,103,0,6,0,82,148,0,67,0,0,0,0,0],"split_type":[0,0,0,0,0,0,0,0,0,0,0,0,0,0,0,0,0,0,0,0,0,0,0,0,0,0,0,0,0,0,0,0,0,0,0],"sum_hessian":[2.548E3,1.09E3,1.458E3,1.94E2,8.96E2,8.07E2,6.51E2,7.92E2,1.04E2,8.4E1,7.23E2,4.3E1,7.49E2,6.95E2,2.8E1,2.9E1,7.2E2,2.44E2,4.51E2,7.6E1,6.44E2,2.7E1,4.24E2,1.4E1,6.3E2,9.8E1,3.26E2,5.37E2,9.3E1,3.17E2,9E0,5.19E2,1.8E1,2.69E2,4.8E1],"tree_param":{"num_deleted":"0","num_feature":"200","num_nodes":"35","size_leaf_vector":"1"}},{"base_weights":[-0E0],"categories":[],"categories_nodes":[],"categories_segments":[],"categories_sizes":[],"default_left":[0],"id":58,"left_children":[-1],"loss_changes":[0E0],"parents":[2147483647],"right_children":[-1],"split_conditions":[-0E0],"split_indices":[0],"split_type":[0],"sum_hessian":[2.49E3],"tree_param":{"num_deleted":"0","num_feature":"200","num_nodes":"1","size_leaf_vector":"1"}},{"base_weights":[-0E0],"categories":[],"categories_nodes":[],"categories_segments":[],"categories_sizes":[],"default_left":[0],"id":59,"left_children":[-1],"loss_changes":[0E0],"parents":[2147483647],"right_children":[-1],"split_conditions":[-0E0],"split_indices":[0],"split_type":[0],"sum_hessian":[2.54E3],"tree_param":{"num_deleted":"0","num_feature":"200","num_nodes":"1","size_leaf_vector":"1"}},{"base_weights":[-0E0],"categories":[],"categories_nodes":[],"categories_segments":[],"categories_sizes":[],"default_left":[0],"id":60,"left_children":[-1],"loss_changes":[0E0],"parents":[2147483647],"right_children":[-1],"split_conditions":[-0E0],"split_indices":[0],"split_type":[0],"sum_hessian":[2.563E3],"tree_param":{"num_deleted":"0","num_feature":"200","num_nodes":"1","size_leaf_vector":"1"}},{"base_weights":[-0E0],"categories":[],"categories_nodes":[],"categories_segments":[],"categories_sizes":[],"default_left":[0],"id":61,"left_children":[-1],"loss_changes":[0E0],"parents":[2147483647],"right_children":[-1],"split_conditions":[-0E0],"split_indices":[0],"split_type":[0],"sum_hessian":[2.578E3],"tree_param":{"num_deleted":"0","num_feature":"200","num_nodes":"1","size_leaf_vector":"1"}},{"base_weights":[-0E0],"categories":[],"categories_nodes":[],"categories_segments":[],"categories_sizes":[],"default_left":[0],"id":62,"left_children":[-1],"loss_changes":[0E0],"parents":[2147483647],"right_children":[-1],"split_conditions":[-0E0],"split_indices":[0],"split_type":[0],"sum_hessian":[2.591E3],"tree_param":{"num_deleted":"0","num_feature":"200","num_nodes":"1","size_leaf_vector":"1"}}]},"name":"gbtree"},"learner_model_param":{"base_score":"2.6271285E-2","boost_from_average":"1","num_class":"0","num_feature":"200","num_target":"1"},"objective":{"name":"reg:squarederror","reg_loss_param":{"scale_pos_weight":"1"}}},"version":[3,0,4]}