{"learner":{"attributes":{"best_iteration":"174","best_score":"1.0390613672543543"},"feature_names":["Volume","day_of_month","year","day_sin","day_cos","day_of_year_norm","dayy_sin","dayy_cos","is_holiday","Log_Return","Log_Return_change1","Log_Return23","Log_Return123","Log_High_Return","Log_High_Return_change1","Log_High_Return_change3","Log_High_Return13","Log_High_Return23","Log_High_Return123","Close_Roll_Std_5","High_Roll_Std_5","High_Roll_Std_10","High_Roll_Std_20","High_Roll_Std_30","High_Roll_Std_60","High_Roll_Std_90","High_Roll_Std_250","High_Roll_Max_250","Log_Return_Lag_1","Log_Return_Lag_2","Log_Return_Lag_3","Log_Return_Lag_5","Log_Return_Lag_10","Log_Return_Lag_20","Log_Return_Lag_30","Log_Return_Lag_60","Log_Return_Lag_90","Log_Return_Lag_120","Log_Return_Lag_180","Log_Return_Lag_250","Log_Return_Roll_Max_5","Log_Return_Roll_Max_10","Log_Return_Roll_Mean_20","Log_Return_Roll_Max_20","Log_Return_Roll_Mean_30","Log_Return_Roll_Max_30","Log_Return_Roll_Mean_60","Log_Return_Roll_Max_60","Log_Return_Roll_Mean_90","Log_Return_Roll_Max_90","Log_Return_Roll_Mean_180","Log_Return_Roll_Max_180","Log_Return_Roll_Mean_250","Log_Return_Roll_Max_250","Log_Return_change1_Lag_1","Log_Return_change1_Lag_2","Log_Return_change1_Lag_3","Log_Return_change1_Lag_5","Log_Return_change1_Lag_10","Log_Return_change1_Lag_20","Log_Return_change1_Lag_30","Log_Return_change1_Lag_60","Log_Return_change1_Lag_90","Log_Return_change1_Lag_120","Log_Return_change1_Lag_180","Log_Return_change1_Lag_250","Log_Return_change1_Roll_Mean_5","Log_Return_change1_Roll_Min_5","Log_Return_change1_Roll_Mean_10","Log_Return_change1_Roll_Mean_20","Log_Return_change1_Roll_Mean_30","Log_Return_change1_Roll_Mean_60","Log_Return_change1_Roll_Mean_90","Log_Return_change1_Roll_Mean_180","Log_Return_change1_Roll_Mean_250","Log_Return_change2_Lag_1","Log_Return_change2_Lag_2","Log_Return_change2_Lag_3","Log_Return_change2_Lag_5","Log_Return_change2_Lag_10","Log_Return_change2_Lag_20","Log_Return_change2_Lag_30","Log_Return_change2_Lag_60","Log_Return_change2_Lag_90","Log_Return_change2_Lag_120","Log_Return_change2_Lag_180","Log_Return_change2_Lag_250","Log_Return_change2_Roll_Mean_5","Log_Return_change2_Roll_Min_5","Log_Return_change2_Roll_Max_5","Log_Return_change2_Roll_Mean_10","Log_Return_change2_Roll_Min_10","Log_Return_change2_Roll_Max_10","Log_Return_change2_Roll_Mean_20","Log_Return_change2_Roll_Max_20","Log_Return_change2_Roll_Mean_30","Log_Return_change2_Roll_Max_30","Log_Return_change2_Roll_Mean_60","Log_Return_change2_Roll_Mean_90","Log_Return_change2_Roll_Max_90","Log_Return_change2_Roll_Mean_180","Log_Return_change2_Roll_Max_180","Log_Return_change2_Roll_Mean_250","Log_Return_change2_Roll_Max_250","rsi_5_long","rsi_5_short","rsi_5_combined","rsi_7_long","rsi_7_short","rsi_7_combined","rsi_10_long","rsi_10_short","rsi_10_combined","macd_5_10_5_long","macd_5_10_5_short","macd_5_10_5_combined","stoch_3_2_2_long","stoch_3_2_2_short","stoch_3_2_2_combined","cci_6_long","cci_6_short","cci_6_combined","cci_10_long","cci_10_short","cci_10_combined","obv_combined","ad_combined","atr_10_long","atr_10_short","atr_10_combined","sma_2_long","sma_2_short","sma_2_combined","sma_3_long","sma_3_short","sma_3_combined","sma_5_long","sma_5_short","sma_5_combined","sma_8_long","sma_8_short","sma_8_combined","sma_13_long","sma_13_short","sma_13_combined","sma_21_long","sma_21_short","sma_21_combined","ema_3_long","ema_3_short","ema_3_combined","ema_5_long","ema_5_short","ema_5_combined","ema_8_long","ema_8_short","ema_8_combined","ema_13_long","ema_13_short","ema_13_combined","ema_21_long","ema_21_short","ema_21_combined","bb_3_1.5_1.5_long","bb_3_1.5_1.5_short","bb_3_1.5_1.5_combined","bb_3_2.0_2.0_long","bb_3_2.0_2.0_short","bb_3_2.0_2.0_combined","bb_5_1.5_1.5_long","bb_5_1.5_1.5_short","bb_5_1.5_1.5_combined","bb_5_2.0_2.0_long","bb_5_2.0_2.0_short","bb_5_2.0_2.0_combined","bb_8_2.0_2.0_long","bb_8_2.0_2.0_short","bb_8_2.0_2.0_combined","ht_dcperiod_combined","ht_phasor_short","ht_phasor_combined","typprice_long","typprice_short","typprice_combined","linearreg_3_combined","linearreg_5_combined","linearreg_8_combined","stddev_2_2_long","stddev_2_2_short","stddev_2_2_combined","stddev_3_2_long","stddev_3_2_short","stddev_3_2_combined","stddev_5_2_long","stddev_5_2_short","stddev_5_2_combined","Open","High","Low","Close"],"feature_types":["float","int","int","float","float","float","float","float","int","float","float","float","float","float","float","float","float","float","float","float","float","float","float","float","float","float","float","float","float","float","float","float","float","float","float","float","float","float","float","float","float","float","float","float","float","float","float","float","float","float","float","float","float","float","float","float","float","float","float","float","float","float","float","float","float","float","float","float","float","float","float","float","float","float","float","float","float","float","float","float","float","float","float","float","float","float","float","float","float","float","float","float","float","float","float","float","float","float","float","float","float","float","float","float","int","int","int","int","int","int","int","int","int","int","int","int","int","int","int","int","int","int","int","int","int","int","int","int","int","int","int","int","int","int","int","int","int","int","int","int","int","int","int","int","int","int","int","int","int","int","int","int","int","int","int","int","int","int","int","int","int","int","int","int","int","int","int","int","int","int","int","int","int","int","int","int","int","int","int","int","int","int","int","int","int","int","int","int","int","int","int","int","int","int","int","int","float","float","float","float"],"gradient_booster":{"model":{"gbtree_model_param":{"num_parallel_tree":"1","num_trees":"225"},"iteration_indptr":[0,1,2,3,4,5,6,7,8,9,10,11,12,13,14,15,16,17,18,19,20,21,22,23,24,25,26,27,28,29,30,31,32,33,34,35,36,37,38,39,40,41,42,43,44,45,46,47,48,49,50,51,52,53,54,55,56,57,58,59,60,61,62,63,64,65,66,67,68,69,70,71,72,73,74,75,76,77,78,79,80,81,82,83,84,85,86,87,88,89,90,91,92,93,94,95,96,97,98,99,100,101,102,103,104,105,106,107,108,109,110,111,112,113,114,115,116,117,118,119,120,121,122,123,124,125,126,127,128,129,130,131,132,133,134,135,136,137,138,139,140,141,142,143,144,145,146,147,148,149,150,151,152,153,154,155,156,157,158,159,160,161,162,163,164,165,166,167,168,169,170,171,172,173,174,175,176,177,178,179,180,181,182,183,184,185,186,187,188,189,190,191,192,193,194,195,196,197,198,199,200,201,202,203,204,205,206,207,208,209,210,211,212,213,214,215,216,217,218,219,220,221,222,223,224,225],"tree_info":[0,0,0,0,0,0,0,0,0,0,0,0,0,0,0,0,0,0,0,0,0,0,0,0,0,0,0,0,0,0,0,0,0,0,0,0,0,0,0,0,0,0,0,0,0,0,0,0,0,0,0,0,0,0,0,0,0,0,0,0,0,0,0,0,0,0,0,0,0,0,0,0,0,0,0,0,0,0,0,0,0,0,0,0,0,0,0,0,0,0,0,0,0,0,0,0,0,0,0,0,0,0,0,0,0,0,0,0,0,0,0,0,0,0,0,0,0,0,0,0,0,0,0,0,0,0,0,0,0,0,0,0,0,0,0,0,0,0,0,0,0,0,0,0,0,0,0,0,0,0,0,0,0,0,0,0,0,0,0,0,0,0,0,0,0,0,0,0,0,0,0,0,0,0,0,0,0,0,0,0,0,0,0,0,0,0,0,0,0,0,0,0,0,0,0,0,0,0,0,0,0,0,0,0,0,0,0,0,0,0,0,0,0,0,0,0,0,0,0,0,0,0,0,0,0],"trees":[{"base_weights":[-0E0,1.0218504E-2,-0E0,4.7910452E-2,-0E0,6.914699E-2,-0E0,-0E0,9.2378184E-2,-0E0,1.1543376E-1,1.4016916E-1,-0E0,-0E0,1.5189123E-1,-0E0,1.6392541E-1,1.7491122E-1,-0E0,1.8275757E-1,-0E0,1.9741067E-1,-0E0,-0E0,4.653589E-3],"categories":[],"categories_nodes":[],"categories_segments":[],"categories_sizes":[],"default_left":[0,0,0,0,0,0,0,0,0,0,0,0,0,0,0,0,0,0,0,0,0,0,0,0,0],"id":0,"left_children":[1,3,-1,5,-1,7,-1,-1,9,-1,11,13,-1,-1,15,-1,17,19,-1,21,-1,23,-1,-1,-1],"loss_changes":[1.0158738E-1,1.7712228E0,0E0,1.7748154E0,0E0,1.7874472E0,0E0,0E0,2.371924E0,0E0,2.486135E0,1.4013691E0,0E0,0E0,1.4428072E0,0E0,1.4833193E0,1.1741552E0,0E0,1.1534195E0,0E0,1.0353031E0,0E0,0E0,0E0],"parents":[2147483647,0,0,1,1,3,3,5,5,8,8,10,10,11,11,14,14,16,16,17,17,19,19,21,21],"right_children":[2,4,-1,6,-1,8,-1,-1,10,-1,12,14,-1,-1,16,-1,18,20,-1,22,-1,24,-1,-1,-1],"split_conditions":[1.2496E3,2.7714926E1,-0E0,6.886962E1,-0E0,-4.703587E3,-0E0,-0E0,0E0,-0E0,4.3762764E3,-6.301792E2,-0E0,-0E0,2.7139475E3,-0E0,1.8303862E3,2.3204648E4,-0E0,1.2294E3,-0E0,-6.385595E2,-0E0,-0E0,4.653589E-3],"split_indices":[197,22,0,102,0,83,0,0,176,0,64,69,0,0,96,0,68,56,0,196,0,70,0,0,0],"split_type":[0,0,0,0,0,0,0,0,0,0,0,0,0,0,0,0,0,0,0,0,0,0,0,0,0],"sum_hessian":[1.691E3,9.58E2,7.33E2,8.01E2,1.57E2,7.48E2,5.3E1,1.26E2,6.22E2,5.1E1,5.71E2,5.09E2,6.2E1,1.7E1,4.92E2,1.8E1,4.74E2,4.63E2,1.1E1,4.58E2,5E0,4.2E2,3.8E1,5E0,4.15E2],"tree_param":{"num_deleted":"0","num_feature":"200","num_nodes":"25","size_leaf_vector":"1"}},{"base_weights":[-0E0,-2.3695522E-3,-0E0,-4.1750498E-2,-0E0,-0E0,-7.613569E-2,-0E0,-1.0665981E-1,-0E0,-1.2763023E-1,-0E0,-1.4787158E-1,-1.6679245E-1,-0E0,-1.8547328E-1,-0E0,-0E0,-2.0509653E-1,-0E0,-2.1963644E-1,-0E0,-2.3582058E-1,-0E0,-5.5269185E-3],"categories":[],"categories_nodes":[],"categories_segments":[],"categories_sizes":[],"default_left":[0,0,0,0,0,0,0,0,0,0,0,0,0,0,0,0,0,0,0,0,0,0,0,0,0],"id":1,"left_children":[1,3,-1,5,-1,-1,7,-1,9,-1,11,-1,13,15,-1,17,-1,-1,19,-1,21,-1,23,-1,-1],"loss_changes":[6.7371326E-3,1.6943461E0,0E0,2.697949E0,0E0,0E0,3.25601E0,0E0,3.0942712E0,0E0,3.111393E0,0E0,3.3567276E0,3.5566883E0,0E0,2.90374E0,0E0,0E0,3.0420303E0,0E0,2.5257282E0,0E0,1.4907494E0,0E0,0E0],"parents":[2147483647,0,0,1,1,3,3,6,6,8,8,10,10,12,12,13,13,15,15,18,18,20,20,22,22],"right_children":[2,4,-1,6,-1,-1,8,-1,10,-1,12,-1,14,16,-1,18,-1,-1,20,-1,22,-1,24,-1,-1],"split_conditions":[1.326491E2,7.786756E2,-0E0,2.8032065E3,-0E0,-0E0,0E0,-0E0,2.7E1,-0E0,3E0,-0E0,9.691992E-1,3.2713125E3,-0E0,6.570842E-2,-0E0,-0E0,4.884795E3,-0E0,-3.9887766E4,-0E0,5.622E2,-0E0,-5.5269185E-3],"split_indices":[35,37,0,43,0,0,120,0,41,0,0,0,5,68,0,5,0,0,94,0,86,0,197,0,0],"split_type":[0,0,0,0,0,0,0,0,0,0,0,0,0,0,0,0,0,0,0,0,0,0,0,0,0],"sum_hessian":[1.72E3,1.185E3,5.35E2,9.61E2,2.24E2,2.17E2,7.44E2,8.6E1,6.58E2,1.3E1,6.45E2,2.6E1,6.19E2,6.04E2,1.5E1,5.89E2,1.5E1,4.1E1,5.48E2,9E0,5.39E2,2.8E1,5.11E2,5E0,5.06E2],"tree_param":{"num_deleted":"0","num_feature":"200","num_nodes":"25","size_leaf_vector":"1"}},{"base_weights":[-0E0],"categories":[],"categories_nodes":[],"categories_segments":[],"categories_sizes":[],"default_left":[0],"id":2,"left_children":[-1],"loss_changes":[0E0],"parents":[2147483647],"right_children":[-1],"split_conditions":[-0E0],"split_indices":[0],"split_type":[0],"sum_hessian":[1.717E3],"tree_param":{"num_deleted":"0","num_feature":"200","num_nodes":"1","size_leaf_vector":"1"}},{"base_weights":[-0E0,-0E0,5.4686265E-3,3.3085503E-2,-0E0,5.653276E-2,-0E0,-0E0,8.8302076E-2,1.08146496E-1,-0E0,1.2059163E-1,-0E0,1.303668E-1,-0E0,-0E0,1.6022983E-1,-0E0,1.7033966E-1,-0E0,1.8063259E-1,-0E0,1.9537441E-1,-0E0,4.6081063E-3],"categories":[],"categories_nodes":[],"categories_segments":[],"categories_sizes":[],"default_left":[0,0,0,0,0,0,0,0,0,0,0,0,0,0,0,0,0,0,0,0,0,0,0,0,0],"id":3,"left_children":[1,-1,3,5,-1,7,-1,-1,9,11,-1,13,-1,15,-1,-1,17,-1,19,-1,21,-1,23,-1,-1],"loss_changes":[3.1069001E-2,0E0,8.8941497E-1,1.6359366E0,0E0,2.6591108E0,0E0,0E0,1.9292688E0,1.6081343E0,0E0,1.3235807E0,0E0,1.4995317E0,0E0,0E0,1.3327904E0,0E0,1.3461657E0,0E0,1.3147469E0,0E0,9.154186E-1,0E0,0E0],"parents":[2147483647,0,0,2,2,3,3,5,5,8,8,9,9,11,11,13,13,16,16,18,18,20,20,22,22],"right_children":[2,-1,4,6,-1,8,-1,-1,10,12,-1,14,-1,16,-1,-1,18,-1,20,-1,22,-1,24,-1,-1],"split_conditions":[-2.7441435E0,-0E0,1.0339584E3,4.770276E2,-0E0,1.3116468E1,-0E0,-0E0,1.462414E2,4.8069313E1,-0E0,1.6246261E4,-0E0,4.659238E1,-0E0,-0E0,-9.983151E-1,-0E0,2.7E1,-0E0,0E0,-0E0,-1.4875489E5,-0E0,4.6081063E-3],"split_indices":[30,0,44,70,0,23,0,0,98,22,0,14,0,26,0,0,7,0,41,0,108,0,86,0,0],"split_type":[0,0,0,0,0,0,0,0,0,0,0,0,0,0,0,0,0,0,0,0,0,0,0,0,0],"sum_hessian":[1.723E3,6.99E2,1.024E3,8.26E2,1.98E2,7.85E2,4.1E1,1.31E2,6.54E2,5.96E2,5.8E1,5.87E2,9E0,5.78E2,9E0,1.42E2,4.36E2,6E0,4.3E2,8E0,4.22E2,2.9E1,3.93E2,6E0,3.87E2],"tree_param":{"num_deleted":"0","num_feature":"200","num_nodes":"25","size_leaf_vector":"1"}},{"base_weights":[-0E0,-0E0,-6.931084E-4,-3.7210695E-2,-0E0,-0E0,-6.615381E-2,-1.0783422E-1,-0E0,-0E0,-1.3836236E-1,-0E0,-1.5923665E-1,-1.8074484E-1,-0E0,-0E0,-2.1115759E-1,-2.3051424E-1,-0E0,-2.500385E-1,-0E0,-2.6782525E-1,-0E0,-0E0,-6.6586207E-3],"categories":[],"categories_nodes":[],"categories_segments":[],"categories_sizes":[],"default_left":[0,0,0,0,0,0,0,0,0,0,0,0,0,0,0,0,0,0,0,0,0,0,0,0,0],"id":4,"left_children":[1,-1,3,5,-1,-1,7,9,-1,-1,11,-1,13,15,-1,-1,17,19,-1,21,-1,23,-1,-1,-1],"loss_changes":[5.010051E-4,0E0,1.1042904E0,1.8181269E0,0E0,0E0,2.669011E0,2.006247E0,0E0,0E0,2.2120042E0,0E0,2.1430674E0,2.4437532E0,0E0,0E0,2.2822742E0,2.4449291E0,0E0,2.1003075E0,0E0,2.2332935E0,0E0,0E0,0E0],"parents":[2147483647,0,0,2,2,3,3,6,6,7,7,10,10,12,12,13,13,16,16,17,17,19,19,21,21],"right_children":[2,-1,4,6,-1,-1,8,10,-1,-1,12,-1,14,16,-1,-1,18,20,-1,22,-1,24,-1,-1,-1],"split_conditions":[7.077969E3,-0E0,2.9415704E2,-1.3749865E6,-0E0,-0E0,2.530636E3,8.268391E0,-0E0,-0E0,-9.9039733E-1,-0E0,1E0,9.096706E3,-0E0,-0E0,3.7744543E2,1.1128447E5,-0E0,1.4526827E4,-0E0,-7.0779014E3,-0E0,-0E0,-6.6586207E-3],"split_indices":[43,0,68,16,0,0,84,21,0,0,6,0,141,92,0,0,98,41,0,39,0,39,0,0,0],"split_type":[0,0,0,0,0,0,0,0,0,0,0,0,0,0,0,0,0,0,0,0,0,0,0,0,0],"sum_hessian":[1.677E3,6.49E2,1.028E3,7.83E2,2.45E2,1.3E2,6.53E2,4.66E2,1.87E2,8.4E1,3.82E2,1E1,3.72E2,3.51E2,2.1E1,4.3E1,3.08E2,2.99E2,9E0,2.91E2,8E0,2.81E2,1E1,2.2E1,2.59E2],"tree_param":{"num_deleted":"0","num_feature":"200","num_nodes":"25","size_leaf_vector":"1"}},{"base_weights":[-0E0,-6.321477E-3,-0E0,-0E0,-5.9567556E-2,-9.3252376E-2,-0E0,-1.346444E-1,-0E0,-0E0,-1.765997E-1,-2.0774888E-1,-0E0,-0E0,-2.3227485E-1,-2.4564151E-1,-0E0,-0E0,-2.618378E-1,-0E0,-2.8301382E-1,-0E0,-3.0588832E-1,-0E0,-7.583328E-3],"categories":[],"categories_nodes":[],"categories_segments":[],"categories_sizes":[],"default_left":[0,0,0,0,0,0,0,0,0,0,0,0,0,0,0,0,0,0,0,0,0,0,0,0,0],"id":5,"left_children":[1,3,-1,-1,5,7,-1,9,-1,-1,11,13,-1,-1,15,17,-1,-1,19,-1,21,-1,23,-1,-1],"loss_changes":[5.014686E-2,1.996839E0,0E0,0E0,2.700103E0,3.8260436E0,0E0,2.6198254E0,0E0,0E0,2.4840155E0,2.6106396E0,0E0,0E0,1.5664978E0,1.6778793E0,0E0,0E0,1.9253902E0,0E0,2.4859314E0,0E0,2.2609997E0,0E0,0E0],"parents":[2147483647,0,0,1,1,4,4,5,5,7,7,10,10,11,11,14,14,15,15,18,18,20,20,22,22],"right_children":[2,4,-1,-1,6,8,-1,10,-1,-1,12,14,-1,-1,16,18,-1,-1,20,-1,22,-1,24,-1,-1],"split_conditions":[2.5947373E3,1.1122948E4,-0E0,-0E0,9.852403E-1,2.2480784E3,-0E0,1.8301102E6,-0E0,-0E0,2.016E3,-3.528751E4,-0E0,-0E0,-9.5881464E2,-4.6656E4,-0E0,-0E0,6.8145496E2,-0E0,2.6460332E4,-0E0,9.987244E0,-0E0,-7.583328E-3],"split_indices":[84,89,0,0,7,35,0,17,0,0,2,31,0,0,67,29,0,0,41,0,99,0,21,0,0],"split_type":[0,0,0,0,0,0,0,0,0,0,0,0,0,0,0,0,0,0,0,0,0,0,0,0,0],"sum_hessian":[1.671E3,1.24E3,4.31E2,6.78E2,5.62E2,5.31E2,3.1E1,4.58E2,7.3E1,1.14E2,3.44E2,3.02E2,4.2E1,1.5E1,2.87E2,2.81E2,6E0,1.1E1,2.7E2,1.7E1,2.53E2,1.2E1,2.41E2,2E1,2.21E2],"tree_param":{"num_deleted":"0","num_feature":"200","num_nodes":"25","size_leaf_vector":"1"}},{"base_weights":[-0E0,-0E0,2.2905067E-2,-0E0,5.924414E-2,8.841457E-2,-0E0,1.0934294E-1,-0E0,1.2520131E-1,-0E0,-0E0,1.3410155E-1,1.4346054E-1,-0E0,1.5702856E-1,-0E0,-0E0,1.6557336E-1,1.817801E-1,-0E0,1.962369E-1,-0E0,-0E0,4.7496744E-3],"categories":[],"categories_nodes":[],"categories_segments":[],"categories_sizes":[],"default_left":[0,0,0,0,0,0,0,0,0,0,0,0,0,0,0,0,0,0,0,0,0,0,0,0,0],"id":6,"left_children":[1,-1,3,-1,5,7,-1,9,-1,11,-1,-1,13,15,-1,17,-1,-1,19,21,-1,23,-1,-1,-1],"loss_changes":[7.1555567E-1,0E0,2.8992329E0,0E0,3.6152267E0,2.4768786E0,0E0,2.1576853E0,0E0,1.4410849E0,0E0,0E0,1.3251743E0,1.4681778E0,0E0,1.4159412E0,0E0,0E0,1.0191936E0,1.7174206E0,0E0,1.6198387E0,0E0,0E0,0E0],"parents":[2147483647,0,0,2,2,4,4,5,5,7,7,9,9,12,12,13,13,15,15,18,18,19,19,21,21],"right_children":[2,-1,4,-1,6,8,-1,10,-1,12,-1,-1,14,16,-1,18,-1,-1,20,22,-1,24,-1,-1,-1],"split_conditions":[-6.3984097E3,-0E0,-1.3855929E3,-0E0,1.4815347E12,2.3526306E3,-0E0,6.4348306E3,-0E0,4.9303214E2,-0E0,-0E0,1.5588059E4,-3.9569382E2,-0E0,-7.994142E-3,-0E0,-0E0,2.018E3,6.92262E1,-0E0,-1.5216521E4,-0E0,-0E0,4.7496744E-3],"split_indices":[84,0,61,0,12,36,0,35,0,43,0,0,65,67,0,40,0,0,2,97,0,59,0,0,0],"split_type":[0,0,0,0,0,0,0,0,0,0,0,0,0,0,0,0,0,0,0,0,0,0,0,0,0],"sum_hessian":[1.669E3,3.2E2,1.349E3,3.34E2,1.015E3,9.1E2,1.05E2,7.97E2,1.13E2,7.42E2,5.5E1,1.7E1,7.25E2,6.96E2,2.9E1,6.38E2,5.8E1,1.4E1,6.24E2,5.46E2,7.8E1,5.11E2,3.5E1,2.4E1,4.87E2],"tree_param":{"num_deleted":"0","num_feature":"200","num_nodes":"25","size_leaf_vector":"1"}},{"base_weights":[-0E0],"categories":[],"categories_nodes":[],"categories_segments":[],"categories_sizes":[],"default_left":[0],"id":7,"left_children":[-1],"loss_changes":[0E0],"parents":[2147483647],"right_children":[-1],"split_conditions":[-0E0],"split_indices":[0],"split_type":[0],"sum_hessian":[1.688E3],"tree_param":{"num_deleted":"0","num_feature":"200","num_nodes":"1","size_leaf_vector":"1"}},{"base_weights":[-0E0],"categories":[],"categories_nodes":[],"categories_segments":[],"categories_sizes":[],"default_left":[0],"id":8,"left_children":[-1],"loss_changes":[0E0],"parents":[2147483647],"right_children":[-1],"split_conditions":[-0E0],"split_indices":[0],"split_type":[0],"sum_hessian":[1.714E3],"tree_param":{"num_deleted":"0","num_feature":"200","num_nodes":"1","size_leaf_vector":"1"}},{"base_weights":[-0E0],"categories":[],"categories_nodes":[],"categories_segments":[],"categories_sizes":[],"default_left":[0],"id":9,"left_children":[-1],"loss_changes":[0E0],"parents":[2147483647],"right_children":[-1],"split_conditions":[-0E0],"split_indices":[0],"split_type":[0],"sum_hessian":[1.642E3],"tree_param":{"num_deleted":"0","num_feature":"200","num_nodes":"1","size_leaf_vector":"1"}},{"base_weights":[-0E0],"categories":[],"categories_nodes":[],"categories_segments":[],"categories_sizes":[],"default_left":[0],"id":10,"left_children":[-1],"loss_changes":[0E0],"parents":[2147483647],"right_children":[-1],"split_conditions":[-0E0],"split_indices":[0],"split_type":[0],"sum_hessian":[1.665E3],"tree_param":{"num_deleted":"0","num_feature":"200","num_nodes":"1","size_leaf_vector":"1"}},{"base_weights":[-0E0],"categories":[],"categories_nodes":[],"categories_segments":[],"categories_sizes":[],"default_left":[0],"id":11,"left_children":[-1],"loss_changes":[0E0],"parents":[2147483647],"right_children":[-1],"split_conditions":[-0E0],"split_indices":[0],"split_type":[0],"sum_hessian":[1.644E3],"tree_param":{"num_deleted":"0","num_feature":"200","num_nodes":"1","size_leaf_vector":"1"}},{"base_weights":[-0E0],"categories":[],"categories_nodes":[],"categories_segments":[],"categories_sizes":[],"default_left":[0],"id":12,"left_children":[-1],"loss_changes":[0E0],"parents":[2147483647],"right_children":[-1],"split_conditions":[-0E0],"split_indices":[0],"split_type":[0],"sum_hessian":[1.655E3],"tree_param":{"num_deleted":"0","num_feature":"200","num_nodes":"1","size_leaf_vector":"1"}},{"base_weights":[-0E0,-0E0,3.8900763E-2,-0E0,6.368839E-2,8.9122094E-2,-0E0,-0E0,1.1049276E-1,1.337028E-1,-0E0,-0E0,1.5223175E-1,1.7414743E-1,-0E0,-0E0,2.0165984E-1,2.155344E-1,-0E0,-0E0,2.2771111E-1,-0E0,2.4346405E-1,-0E0,5.818995E-3],"categories":[],"categories_nodes":[],"categories_segments":[],"categories_sizes":[],"default_left":[0,0,0,0,0,0,0,0,0,0,0,0,0,0,0,0,0,0,0,0,0,0,0,0,0],"id":13,"left_children":[1,-1,3,-1,5,7,-1,-1,9,11,-1,-1,13,15,-1,-1,17,19,-1,-1,21,-1,23,-1,-1],"loss_changes":[1.5070544E0,0E0,2.1633825E0,0E0,2.9767928E0,3.2404704E0,0E0,0E0,3.195941E0,3.2055588E0,0E0,0E0,3.5416298E0,3.466835E0,0E0,0E0,2.2476616E0,1.2049389E0,0E0,0E0,1.6359978E0,0E0,1.5638123E0,0E0,0E0],"parents":[2147483647,0,0,2,2,4,4,5,5,8,8,9,9,12,12,13,13,16,16,17,17,20,20,22,22],"right_children":[2,-1,4,-1,6,8,-1,-1,10,12,-1,-1,14,16,-1,-1,18,20,-1,-1,22,-1,24,-1,-1],"split_conditions":[-1.5695416E2,-0E0,0E0,-0E0,1.3145596E4,-1.2812743E4,-0E0,-0E0,1.5507868E4,-3.829852E4,-0E0,-0E0,1E0,1.7341965E1,-0E0,-0E0,2.0834998E3,1.825189E3,-0E0,-0E0,0E0,-0E0,-3.2013072E4,-0E0,5.818995E-3],"split_indices":[61,0,156,0,60,29,0,0,85,83,0,0,160,24,0,0,93,92,0,0,114,0,64,0,0],"split_type":[0,0,0,0,0,0,0,0,0,0,0,0,0,0,0,0,0,0,0,0,0,0,0,0,0],"sum_hessian":[1.684E3,7.03E2,9.81E2,9.1E1,8.9E2,8.22E2,6.8E1,2.7E1,7.95E2,7.17E2,7.8E1,2.9E1,6.88E2,6.39E2,4.9E1,8.1E1,5.58E2,5.35E2,2.3E1,3.4E1,5.01E2,3.7E1,4.64E2,2.1E1,4.43E2],"tree_param":{"num_deleted":"0","num_feature":"200","num_nodes":"25","size_leaf_vector":"1"}},{"base_weights":[-0E0],"categories":[],"categories_nodes":[],"categories_segments":[],"categories_sizes":[],"default_left":[0],"id":14,"left_children":[-1],"loss_changes":[0E0],"parents":[2147483647],"right_children":[-1],"split_conditions":[-0E0],"split_indices":[0],"split_type":[0],"sum_hessian":[1.69E3],"tree_param":{"num_deleted":"0","num_feature":"200","num_nodes":"1","size_leaf_vector":"1"}},{"base_weights":[-0E0,-0E0,3.7691202E-2,-7.335486E-3,-0E0,6.805482E-2,-0E0,-3.7230697E-2,-0E0,9.754107E-2,-0E0,-6.0320284E-2,-0E0,1.323214E-1,-0E0,-8.717523E-2,-0E0,-0E0,1.5243973E-1,-1.0262373E-1,-0E0,1.707679E-1,-0E0,-1.18253775E-1,-0E0,1.8774016E-1,-0E0,-0E0,-1.3181528E-1,-0E0,2.0072405E-1,-0E0,-1.4264573E-1,2.115315E-1,-0E0,-0E0,-1.5452513E-1,-0E0,2.2424014E-1,-0E0,-1.7270643E-1,2.3121814E-1,-0E0,-4.101059E-3,-0E0,5.422955E-3,-0E0],"categories":[],"categories_nodes":[],"categories_segments":[],"categories_sizes":[],"default_left":[0,0,0,0,0,0,0,0,0,0,0,0,0,0,0,0,0,0,0,0,0,0,0,0,0,0,0,0,0,0,0,0,0,0,0,0,0,0,0,0,0,0,0,0,0,0,0],"id":15,"left_children":[1,3,5,7,-1,9,-1,11,-1,13,-1,15,-1,17,-1,19,-1,-1,21,23,-1,25,-1,27,-1,29,-1,-1,31,-1,33,-1,35,37,-1,-1,39,-1,41,-1,43,45,-1,-1,-1,-1,-1],"loss_changes":[1.7969408E0,2.092608E-2,3.4036908E0,4.0307978E-1,0E0,2.8949866E0,0E0,6.6352737E-1,0E0,3.9486675E0,0E0,9.7872305E-1,0E0,2.569848E0,0E0,7.2349906E-1,0E0,0E0,2.7922688E0,7.466893E-1,0E0,3.0327206E0,0E0,7.533879E-1,0E0,2.3204994E0,0E0,0E0,5.1007223E-1,0E0,2.024641E0,0E0,6.178503E-1,1.3075657E0,0E0,0E0,8.4283113E-1,0E0,1.3818321E0,0E0,3.311081E-1,1.2083321E0,0E0,0E0,0E0,0E0,0E0],"parents":[2147483647,0,0,1,1,2,2,3,3,5,5,7,7,9,9,11,11,13,13,15,15,18,18,19,19,21,21,23,23,25,25,28,28,30,30,32,32,33,33,36,36,38,38,40,40,41,41],"right_children":[2,4,6,8,-1,10,-1,12,-1,14,-1,16,-1,18,-1,20,-1,-1,22,24,-1,26,-1,28,-1,30,-1,-1,32,-1,34,-1,36,38,-1,-1,40,-1,42,-1,44,46,-1,-1,-1,-1,-1],"split_conditions":[-1.3569738E3,3.2669387E3,1.4815347E12,8.043697E2,-0E0,1E0,-0E0,3.2461834E4,-0E0,2.4598628E3,-0E0,-7.7594696E2,-0E0,0E0,-0E0,2.2516496E4,-0E0,-0E0,-2.484999E3,8.0857765E1,-0E0,2.3309768E3,-0E0,6.360506E2,-0E0,-8.740602E3,-0E0,-0E0,-6.328135E4,-0E0,3.2916133E3,-0E0,-1.405641E3,-3.0466447E4,-0E0,-0E0,4.2240925E0,-0E0,3.2768E4,-0E0,2.6460332E4,6.876178E3,-0E0,-4.101059E-3,-0E0,5.422955E-3,-0E0],"split_indices":[63,90,12,32,0,127,0,35,0,65,0,67,0,158,0,65,0,0,91,74,0,93,0,43,0,84,0,0,15,0,66,0,69,86,0,0,19,0,29,0,81,10,0,0,0,0,0],"split_type":[0,0,0,0,0,0,0,0,0,0,0,0,0,0,0,0,0,0,0,0,0,0,0,0,0,0,0,0,0,0,0,0,0,0,0,0,0,0,0,0,0,0,0,0,0,0,0],"sum_hessian":[1.652E3,4.02E2,1.25E3,3.74E2,2.8E1,1.108E3,1.42E2,2.91E2,8.3E1,8.36E2,2.72E2,2.84E2,7E0,6.73E2,1.63E2,2.57E2,2.7E1,5.9E1,6.14E2,2.5E2,7E0,5.82E2,3.2E1,2.38E2,1.2E1,5.65E2,1.7E1,6E0,2.32E2,1.5E1,5.5E2,1.1E1,2.21E2,5.39E2,1.1E1,9E0,2.12E2,3.5E1,5.04E2,1.7E1,1.95E2,4.99E2,5E0,1.88E2,7E0,4.9E2,9E0],"tree_param":{"num_deleted":"0","num_feature":"200","num_nodes":"47","size_leaf_vector":"1"}},{"base_weights":[-0E0,2.4508866E-2,-0E0,5.1873326E-2,-0E0,-0E0,9.061364E-2,-0E0,1.1669172E-1,-0E0,1.314545E-1,-0E0,1.4590317E-1,-0E0,1.5805255E-1,1.6791183E-1,-0E0,1.9063368E-1,-0E0,-0E0,2.0245396E-1,2.2078665E-1,-0E0,5.3928327E-3,-0E0],"categories":[],"categories_nodes":[],"categories_segments":[],"categories_sizes":[],"default_left":[0,0,0,0,0,0,0,0,0,0,0,0,0,0,0,0,0,0,0,0,0,0,0,0,0],"id":16,"left_children":[1,3,-1,5,-1,-1,7,-1,9,-1,11,-1,13,-1,15,17,-1,19,-1,-1,21,23,-1,-1,-1],"loss_changes":[5.261353E-1,1.650468E0,0E0,3.2498784E0,0E0,0E0,3.0418105E0,0E0,1.8980312E0,0E0,2.0421486E0,0E0,1.5030537E0,0E0,1.3950071E0,2.1333551E0,0E0,1.4510136E0,0E0,0E0,1.3337822E0,1.4542923E0,0E0,0E0,0E0],"parents":[2147483647,0,0,1,1,3,3,6,6,8,8,10,10,12,12,14,14,15,15,17,17,20,20,21,21],"right_children":[2,4,-1,6,-1,-1,8,-1,10,-1,12,-1,14,-1,16,18,-1,20,-1,-1,22,24,-1,-1,-1],"split_conditions":[-2.0800513E-1,2.3711226E3,-0E0,-4.7088173E1,-0E0,-0E0,-3.7461417E2,-0E0,-3.2013072E4,-0E0,4.9303214E2,-0E0,-9.5280625E3,-0E0,1E0,8.38759E3,-0E0,-1.0149839E6,-0E0,-0E0,2.018E3,1E0,-0E0,5.3928327E-3,-0E0],"split_indices":[65,66,0,100,0,0,70,0,64,0,43,0,35,0,110,75,0,17,0,0,2,147,0,0,0],"split_type":[0,0,0,0,0,0,0,0,0,0,0,0,0,0,0,0,0,0,0,0,0,0,0,0,0],"sum_hessian":[1.736E3,8.61E2,8.75E2,7.94E2,6.7E1,1.48E2,6.46E2,3.9E1,6.07E2,2.2E1,5.85E2,1.7E1,5.68E2,2.6E1,5.42E2,5.28E2,1.4E1,4.65E2,6.3E1,1.9E1,4.46E2,4E2,4.6E1,3.71E2,2.9E1],"tree_param":{"num_deleted":"0","num_feature":"200","num_nodes":"25","size_leaf_vector":"1"}},{"base_weights":[-0E0],"categories":[],"categories_nodes":[],"categories_segments":[],"categories_sizes":[],"default_left":[0],"id":17,"left_children":[-1],"loss_changes":[0E0],"parents":[2147483647],"right_children":[-1],"split_conditions":[-0E0],"split_indices":[0],"split_type":[0],"sum_hessian":[1.709E3],"tree_param":{"num_deleted":"0","num_feature":"200","num_nodes":"1","size_leaf_vector":"1"}},{"base_weights":[-0E0,-1.7664088E-2,-0E0,-0E0,-6.9707245E-2,-1.1331792E-1,-0E0,-1.3398749E-1,-0E0,-0E0,-1.5980725E-1,-0E0,-1.7507794E-1,-0E0,-1.949691E-1,-0E0,-2.1023345E-1,-2.2206138E-1,-0E0,-0E0,-2.3747414E-1,-0E0,-2.5484237E-1,-6.241812E-3,-0E0],"categories":[],"categories_nodes":[],"categories_segments":[],"categories_sizes":[],"default_left":[0,0,0,0,0,0,0,0,0,0,0,0,0,0,0,0,0,0,0,0,0,0,0,0,0],"id":18,"left_children":[1,3,-1,-1,5,7,-1,9,-1,-1,11,-1,13,-1,15,-1,17,19,-1,-1,21,-1,23,-1,-1],"loss_changes":[3.8312718E-1,3.7757425E0,0E0,0E0,5.496152E0,3.502347E0,0E0,4.1549063E0,0E0,0E0,2.914957E0,0E0,3.2987175E0,0E0,3.3417683E0,0E0,2.8616962E0,2.803873E0,0E0,0E0,2.3999748E0,0E0,2.612999E0,0E0,0E0],"parents":[2147483647,0,0,1,1,4,4,5,5,7,7,10,10,12,12,14,14,16,16,17,17,20,20,22,22],"right_children":[2,4,-1,-1,6,8,-1,10,-1,-1,12,-1,14,-1,16,-1,18,20,-1,-1,22,-1,24,-1,-1],"split_conditions":[2.376315E3,7.077969E3,-0E0,-0E0,1E0,9.9275863E-1,-0E0,0E0,-0E0,-0E0,6.434E2,-0E0,-7.880628E3,-0E0,-9.95927E4,-0E0,8.118301E4,-7.880628E3,-0E0,-0E0,2.2165298E1,-0E0,4.82683E3,-6.241812E-3,-0E0],"split_indices":[84,45,0,0,154,7,0,123,0,0,196,0,35,0,83,0,35,32,0,0,25,0,39,0,0],"split_type":[0,0,0,0,0,0,0,0,0,0,0,0,0,0,0,0,0,0,0,0,0,0,0,0,0],"sum_hessian":[1.676E3,1.213E3,4.63E2,3.72E2,8.41E2,7.37E2,1.04E2,7.18E2,1.9E1,5.5E1,6.63E2,1.8E1,6.45E2,4.1E1,6.04E2,1.1E1,5.93E2,5.88E2,5E0,2.6E1,5.62E2,3.9E1,5.23E2,4.84E2,3.9E1],"tree_param":{"num_deleted":"0","num_feature":"200","num_nodes":"25","size_leaf_vector":"1"}},{"base_weights":[-0E0],"categories":[],"categories_nodes":[],"categories_segments":[],"categories_sizes":[],"default_left":[0],"id":19,"left_children":[-1],"loss_changes":[0E0],"parents":[2147483647],"right_children":[-1],"split_conditions":[-0E0],"split_indices":[0],"split_type":[0],"sum_hessian":[1.671E3],"tree_param":{"num_deleted":"0","num_feature":"200","num_nodes":"1","size_leaf_vector":"1"}},{"base_weights":[-0E0],"categories":[],"categories_nodes":[],"categories_segments":[],"categories_sizes":[],"default_left":[0],"id":20,"left_children":[-1],"loss_changes":[0E0],"parents":[2147483647],"right_children":[-1],"split_conditions":[-0E0],"split_indices":[0],"split_type":[0],"sum_hessian":[1.7E3],"tree_param":{"num_deleted":"0","num_feature":"200","num_nodes":"1","size_leaf_vector":"1"}},{"base_weights":[-0E0],"categories":[],"categories_nodes":[],"categories_segments":[],"categories_sizes":[],"default_left":[0],"id":21,"left_children":[-1],"loss_changes":[0E0],"parents":[2147483647],"right_children":[-1],"split_conditions":[-0E0],"split_indices":[0],"split_type":[0],"sum_hessian":[1.717E3],"tree_param":{"num_deleted":"0","num_feature":"200","num_nodes":"1","size_leaf_vector":"1"}},{"base_weights":[-0E0,-3.4469021E-3,-0E0,-0E0,-3.640761E-2,-5.6993857E-2,-0E0,-7.675649E-2,-0E0,-0E0,-1.01282485E-1,-0E0,-1.3856941E-1,-0E0,-1.6248088E-1,-0E0,-1.8213062E-1,-1.9468552E-1,-0E0,-0E0,-2.0912403E-1,-2.3084565E-1,-0E0,-0E0,-5.5012773E-3],"categories":[],"categories_nodes":[],"categories_segments":[],"categories_sizes":[],"default_left":[0,0,0,0,0,0,0,0,0,0,0,0,0,0,0,0,0,0,0,0,0,0,0,0,0],"id":22,"left_children":[1,3,-1,-1,5,7,-1,9,-1,-1,11,-1,13,-1,15,-1,17,19,-1,-1,21,23,-1,-1,-1],"loss_changes":[1.7131325E-2,1.3533083E0,0E0,0E0,1.7768153E0,2.1839757E0,0E0,2.5459251E0,0E0,0E0,4.6785617E0,0E0,4.179081E0,0E0,3.5958214E0,0E0,2.4067993E0,2.5792294E0,0E0,0E0,2.4415913E0,2.1674557E0,0E0,0E0,0E0],"parents":[2147483647,0,0,1,1,4,4,5,5,7,7,10,10,12,12,14,14,16,16,17,17,20,20,21,21],"right_children":[2,4,-1,-1,6,8,-1,10,-1,-1,12,-1,14,-1,16,-1,18,20,-1,-1,22,24,-1,-1,-1],"split_conditions":[1.2596864E3,6.2183743E0,-0E0,-0E0,9.7876906E-1,3.5205957E4,-0E0,8.489694E3,-0E0,-0E0,-2.1467012E3,-0E0,-9.95927E4,-0E0,-1.4479546E4,-0E0,-7.61158E2,-2.012354E4,-0E0,-0E0,1E0,-2.5934271E4,-0E0,-0E0,-5.5012773E-3],"split_indices":[35,20,0,0,7,77,0,47,0,0,32,0,77,0,52,0,88,37,0,0,180,13,0,0,0],"split_type":[0,0,0,0,0,0,0,0,0,0,0,0,0,0,0,0,0,0,0,0,0,0,0,0,0],"sum_hessian":[1.705E3,1.427E3,2.78E2,4.08E2,1.019E3,9.54E2,6.5E1,8.9E2,6.4E1,1.37E2,7.53E2,1.14E2,6.39E2,2E1,6.19E2,2.1E1,5.98E2,5.85E2,1.3E1,2.1E1,5.64E2,5.06E2,5.8E1,9E0,4.97E2],"tree_param":{"num_deleted":"0","num_feature":"200","num_nodes":"25","size_leaf_vector":"1"}},{"base_weights":[-0E0],"categories":[],"categories_nodes":[],"categories_segments":[],"categories_sizes":[],"default_left":[0],"id":23,"left_children":[-1],"loss_changes":[0E0],"parents":[2147483647],"right_children":[-1],"split_conditions":[-0E0],"split_indices":[0],"split_type":[0],"sum_hessian":[1.7E3],"tree_param":{"num_deleted":"0","num_feature":"200","num_nodes":"1","size_leaf_vector":"1"}},{"base_weights":[-0E0],"categories":[],"categories_nodes":[],"categories_segments":[],"categories_sizes":[],"default_left":[0],"id":24,"left_children":[-1],"loss_changes":[0E0],"parents":[2147483647],"right_children":[-1],"split_conditions":[-0E0],"split_indices":[0],"split_type":[0],"sum_hessian":[1.69E3],"tree_param":{"num_deleted":"0","num_feature":"200","num_nodes":"1","size_leaf_vector":"1"}},{"base_weights":[-0E0],"categories":[],"categories_nodes":[],"categories_segments":[],"categories_sizes":[],"default_left":[0],"id":25,"left_children":[-1],"loss_changes":[0E0],"parents":[2147483647],"right_children":[-1],"split_conditions":[-0E0],"split_indices":[0],"split_type":[0],"sum_hessian":[1.76E3],"tree_param":{"num_deleted":"0","num_feature":"200","num_nodes":"1","size_leaf_vector":"1"}},{"base_weights":[-0E0],"categories":[],"categories_nodes":[],"categories_segments":[],"categories_sizes":[],"default_left":[0],"id":26,"left_children":[-1],"loss_changes":[0E0],"parents":[2147483647],"right_children":[-1],"split_conditions":[-0E0],"split_indices":[0],"split_type":[0],"sum_hessian":[1.719E3],"tree_param":{"num_deleted":"0","num_feature":"200","num_nodes":"1","size_leaf_vector":"1"}},{"base_weights":[-0E0],"categories":[],"categories_nodes":[],"categories_segments":[],"categories_sizes":[],"default_left":[0],"id":27,"left_children":[-1],"loss_changes":[0E0],"parents":[2147483647],"right_children":[-1],"split_conditions":[-0E0],"split_indices":[0],"split_type":[0],"sum_hessian":[1.733E3],"tree_param":{"num_deleted":"0","num_feature":"200","num_nodes":"1","size_leaf_vector":"1"}},{"base_weights":[-0E0,-0E0,5.74367E-3,-0E0,2.4771845E-2,4.4141315E-2,-0E0,6.19435E-2,-0E0,7.72795E-2,-0E0,9.31825E-2,-0E0,-0E0,1.02248386E-1,-0E0,1.07369E-1,-0E0,1.1309351E-1,1.1952194E-1,-0E0,-0E0,1.2812126E-1,-0E0,3.0597255E-3],"categories":[],"categories_nodes":[],"categories_segments":[],"categories_sizes":[],"default_left":[0,0,0,0,0,0,0,0,0,0,0,0,0,0,0,0,0,0,0,0,0,0,0,0,0],"id":28,"left_children":[1,-1,3,-1,5,7,-1,9,-1,11,-1,13,-1,-1,15,-1,17,-1,19,21,-1,-1,23,-1,-1],"loss_changes":[3.6879E-2,0E0,5.251536E-1,0E0,1.1601937E0,1.1896442E0,0E0,1.2142262E0,0E0,1.4734955E0,0E0,1.0694094E0,0E0,0E0,6.2705326E-1,0E0,6.5804577E-1,0E0,7.013807E-1,7.6500607E-1,0E0,0E0,8.6757183E-1,0E0,0E0],"parents":[2147483647,0,0,2,2,4,4,5,5,7,7,9,9,11,11,14,14,16,16,18,18,19,19,22,22],"right_children":[2,-1,4,-1,6,8,-1,10,-1,12,-1,14,-1,-1,16,-1,18,-1,20,22,-1,-1,24,-1,-1],"split_conditions":[-4.6655052E1,-0E0,0E0,-0E0,5.226525E9,2.3142466E3,-0E0,4.330786E3,-0E0,3.869902E3,-0E0,-9.983151E-1,-0E0,-0E0,-5.1197654E-1,-0E0,-8.463751E4,-0E0,3.7412645E4,-1.7584238E4,-0E0,-0E0,-1.0369436E8,-0E0,3.0597255E-3],"split_indices":[30,0,3,0,17,76,0,38,0,28,0,7,0,0,40,0,78,0,85,80,0,0,16,0,0],"split_type":[0,0,0,0,0,0,0,0,0,0,0,0,0,0,0,0,0,0,0,0,0,0,0,0,0],"sum_hessian":[1.659E3,5.56E2,1.103E3,2.02E2,9.01E2,8.69E2,3.2E1,7.44E2,1.25E2,6.76E2,6.8E1,6.3E2,4.6E1,7E0,6.23E2,5E0,6.18E2,1.1E1,6.07E2,5.91E2,1.6E1,3.2E1,5.59E2,5E0,5.54E2],"tree_param":{"num_deleted":"0","num_feature":"200","num_nodes":"25","size_leaf_vector":"1"}},{"base_weights":[-0E0],"categories":[],"categories_nodes":[],"categories_segments":[],"categories_sizes":[],"default_left":[0],"id":29,"left_children":[-1],"loss_changes":[0E0],"parents":[2147483647],"right_children":[-1],"split_conditions":[-0E0],"split_indices":[0],"split_type":[0],"sum_hessian":[1.691E3],"tree_param":{"num_deleted":"0","num_feature":"200","num_nodes":"1","size_leaf_vector":"1"}},{"base_weights":[-0E0],"categories":[],"categories_nodes":[],"categories_segments":[],"categories_sizes":[],"default_left":[0],"id":30,"left_children":[-1],"loss_changes":[0E0],"parents":[2147483647],"right_children":[-1],"split_conditions":[-0E0],"split_indices":[0],"split_type":[0],"sum_hessian":[1.672E3],"tree_param":{"num_deleted":"0","num_feature":"200","num_nodes":"1","size_leaf_vector":"1"}},{"base_weights":[-0E0],"categories":[],"categories_nodes":[],"categories_segments":[],"categories_sizes":[],"default_left":[0],"id":31,"left_children":[-1],"loss_changes":[0E0],"parents":[2147483647],"right_children":[-1],"split_conditions":[-0E0],"split_indices":[0],"split_type":[0],"sum_hessian":[1.685E3],"tree_param":{"num_deleted":"0","num_feature":"200","num_nodes":"1","size_leaf_vector":"1"}},{"base_weights":[-0E0,-2.8058035E-2,-0E0,-0E0,-9.265358E-2,-0E0,-1.3313578E-1,-0E0,-1.7534454E-1,-0E0,-2.0546074E-1,-2.291402E-1,-0E0,-0E0,-2.4323149E-1,-2.6610407E-1,-0E0,-0E0,-2.837992E-1,-2.97266E-1,-0E0,-0E0,-3.1107128E-1,-7.3469603E-3,-0E0],"categories":[],"categories_nodes":[],"categories_segments":[],"categories_sizes":[],"default_left":[0,0,0,0,0,0,0,0,0,0,0,0,0,0,0,0,0,0,0,0,0,0,0,0,0],"id":32,"left_children":[1,3,-1,-1,5,-1,7,-1,9,-1,11,13,-1,-1,15,17,-1,-1,19,21,-1,-1,23,-1,-1],"loss_changes":[7.4465746E-1,4.654192E0,0E0,0E0,3.1604958E0,0E0,3.8893776E0,0E0,3.4192677E0,0E0,3.4483185E0,2.0346832E0,0E0,0E0,2.1508064E0,1.8603096E0,0E0,0E0,1.4920311E0,1.5845203E0,0E0,0E0,1.1624527E0,0E0,0E0],"parents":[2147483647,0,0,1,1,4,4,6,6,8,8,10,10,11,11,14,14,15,15,18,18,19,19,22,22],"right_children":[2,4,-1,-1,6,-1,8,-1,10,-1,12,14,-1,-1,16,18,-1,-1,20,22,-1,-1,24,-1,-1],"split_conditions":[-7.6710366E3,-1.1764636E2,-0E0,-0E0,2.9485262E4,-0E0,-5.1181914E4,-0E0,6.229529E3,-0E0,7.9404336E4,5.0650993E1,-0E0,-0E0,1.7087065E2,2.8127102E1,-0E0,-0E0,8.273355E3,-3.3836848E4,-0E0,-0E0,-9.694812E3,-7.3469603E-3,-0E0],"split_indices":[88,9,0,0,96,0,67,0,45,0,61,41,0,0,100,25,0,0,66,48,0,0,91,0,0],"split_type":[0,0,0,0,0,0,0,0,0,0,0,0,0,0,0,0,0,0,0,0,0,0,0,0,0],"sum_hessian":[1.693E3,9.31E2,7.62E2,3.17E2,6.14E2,1.46E2,4.68E2,7.8E1,3.9E2,2.9E1,3.61E2,3.53E2,8E0,7E0,3.46E2,3.17E2,2.9E1,1.7E1,3E2,2.89E2,1.1E1,1E1,2.79E2,2.69E2,1E1],"tree_param":{"num_deleted":"0","num_feature":"200","num_nodes":"25","size_leaf_vector":"1"}},{"base_weights":[-0E0],"categories":[],"categories_nodes":[],"categories_segments":[],"categories_sizes":[],"default_left":[0],"id":33,"left_children":[-1],"loss_changes":[0E0],"parents":[2147483647],"right_children":[-1],"split_conditions":[-0E0],"split_indices":[0],"split_type":[0],"sum_hessian":[1.682E3],"tree_param":{"num_deleted":"0","num_feature":"200","num_nodes":"1","size_leaf_vector":"1"}},{"base_weights":[-0E0],"categories":[],"categories_nodes":[],"categories_segments":[],"categories_sizes":[],"default_left":[0],"id":34,"left_children":[-1],"loss_changes":[0E0],"parents":[2147483647],"right_children":[-1],"split_conditions":[-0E0],"split_indices":[0],"split_type":[0],"sum_hessian":[1.708E3],"tree_param":{"num_deleted":"0","num_feature":"200","num_nodes":"1","size_leaf_vector":"1"}},{"base_weights":[-0E0],"categories":[],"categories_nodes":[],"categories_segments":[],"categories_sizes":[],"default_left":[0],"id":35,"left_children":[-1],"loss_changes":[0E0],"parents":[2147483647],"right_children":[-1],"split_conditions":[-0E0],"split_indices":[0],"split_type":[0],"sum_hessian":[1.687E3],"tree_param":{"num_deleted":"0","num_feature":"200","num_nodes":"1","size_leaf_vector":"1"}},{"base_weights":[-0E0],"categories":[],"categories_nodes":[],"categories_segments":[],"categories_sizes":[],"default_left":[0],"id":36,"left_children":[-1],"loss_changes":[0E0],"parents":[2147483647],"right_children":[-1],"split_conditions":[-0E0],"split_indices":[0],"split_type":[0],"sum_hessian":[1.715E3],"tree_param":{"num_deleted":"0","num_feature":"200","num_nodes":"1","size_leaf_vector":"1"}},{"base_weights":[-0E0,-2.3051691E-3,-0E0,-0E0,-4.062546E-2,-0E0,-5.7174336E-2,-0E0,-7.405708E-2,-9.565522E-2,-0E0,-1.1627822E-1,-0E0,-1.3207744E-1,-0E0,-0E0,-1.5246443E-1,-0E0,-1.6627891E-1,-0E0,-1.8305591E-1,-1.9990735E-1,-0E0,-0E0,-4.841792E-3],"categories":[],"categories_nodes":[],"categories_segments":[],"categories_sizes":[],"default_left":[0,0,0,0,0,0,0,0,0,0,0,0,0,0,0,0,0,0,0,0,0,0,0,0,0],"id":37,"left_children":[1,3,-1,-1,5,-1,7,-1,9,11,-1,13,-1,15,-1,-1,17,-1,19,-1,21,23,-1,-1,-1],"loss_changes":[5.4779644E-3,1.237118E0,0E0,0E0,1.1172037E0,0E0,1.3525867E0,0E0,1.6667883E0,1.8123522E0,0E0,1.842833E0,0E0,1.7722654E0,0E0,0E0,1.8811588E0,0E0,1.851737E0,0E0,1.8809729E0,1.869627E0,0E0,0E0,0E0],"parents":[2147483647,0,0,1,1,4,4,6,6,8,8,9,9,11,11,13,13,16,16,18,18,20,20,21,21],"right_children":[2,4,-1,-1,6,-1,8,-1,10,12,-1,14,-1,16,-1,-1,18,-1,20,-1,22,24,-1,-1,-1],"split_conditions":[2.1775264E2,4.0890996E4,-0E0,-0E0,3.832991E-2,-0E0,-9.8334295E-1,-0E0,5.8046665E3,1E0,-0E0,1.9465162E4,-0E0,0E0,-0E0,-0E0,-2.0694896E4,-0E0,-7.077969E3,-0E0,6.7860995E13,2.1953148E1,-0E0,-0E0,-4.841792E-3],"split_indices":[61,99,0,0,5,0,7,0,63,180,0,36,0,120,0,0,50,0,38,0,12,41,0,0,0],"split_type":[0,0,0,0,0,0,0,0,0,0,0,0,0,0,0,0,0,0,0,0,0,0,0,0,0],"sum_hessian":[1.617E3,1.016E3,6.01E2,2.78E2,7.38E2,3.1E1,7.07E2,4.5E1,6.62E2,5.73E2,8.9E1,5.17E2,5.6E1,5.03E2,1.4E1,5.3E1,4.5E2,6E0,4.44E2,2.5E1,4.19E2,3.96E2,2.3E1,7E0,3.89E2],"tree_param":{"num_deleted":"0","num_feature":"200","num_nodes":"25","size_leaf_vector":"1"}},{"base_weights":[-0E0,-0E0,3.001022E-2,5.8353264E-2,-0E0,7.785873E-2,-0E0,9.497727E-2,-0E0,-0E0,1.1010927E-1,-0E0,1.2164345E-1,1.3137121E-1,-0E0,1.4054473E-1,-0E0,-0E0,1.5260644E-1,1.592822E-1,-0E0,-0E0,1.6521484E-1,3.868402E-3,-0E0],"categories":[],"categories_nodes":[],"categories_segments":[],"categories_sizes":[],"default_left":[0,0,0,0,0,0,0,0,0,0,0,0,0,0,0,0,0,0,0,0,0,0,0,0,0],"id":38,"left_children":[1,-1,3,5,-1,7,-1,9,-1,-1,11,-1,13,15,-1,17,-1,-1,19,21,-1,-1,23,-1,-1],"loss_changes":[1.2508554E0,0E0,2.521635E0,2.610128E0,0E0,2.6100354E0,0E0,1.7843313E0,0E0,0E0,1.9173679E0,0E0,1.9216642E0,1.9742403E0,0E0,1.5724564E0,0E0,0E0,1.2686176E0,1.1468868E0,0E0,0E0,9.8322105E-1,0E0,0E0],"parents":[2147483647,0,0,2,2,3,3,5,5,7,7,10,10,12,12,13,13,15,15,18,18,19,19,22,22],"right_children":[2,-1,4,6,-1,8,-1,10,-1,-1,12,-1,14,16,-1,18,-1,-1,20,22,-1,-1,24,-1,-1],"split_conditions":[-2.210522E3,-0E0,7.3079895E1,3.167147E4,-0E0,3.583354E3,-0E0,2.0824558E1,-0E0,-0E0,-1.7054936E4,-0E0,4.8562734E9,4.0353348E4,-0E0,0E0,-0E0,-0E0,3.1E1,9.874794E2,-0E0,-0E0,2.4389E4,3.868402E-3,-0E0],"split_indices":[63,0,98,85,0,44,0,25,0,0,65,0,16,31,0,105,0,0,1,92,0,0,33,0,0],"split_type":[0,0,0,0,0,0,0,0,0,0,0,0,0,0,0,0,0,0,0,0,0,0,0,0,0],"sum_hessian":[1.72E3,3.46E2,1.374E3,1.093E3,2.81E2,1.038E3,5.5E1,9.82E2,5.6E1,1.08E2,8.74E2,3.1E1,8.43E2,8.32E2,1.1E1,8.25E2,7E0,6E1,7.65E2,7.51E2,1.4E1,1.2E1,7.39E2,7.31E2,8E0],"tree_param":{"num_deleted":"0","num_feature":"200","num_nodes":"25","size_leaf_vector":"1"}},{"base_weights":[-0E0],"categories":[],"categories_nodes":[],"categories_segments":[],"categories_sizes":[],"default_left":[0],"id":39,"left_children":[-1],"loss_changes":[0E0],"parents":[2147483647],"right_children":[-1],"split_conditions":[-0E0],"split_indices":[0],"split_type":[0],"sum_hessian":[1.688E3],"tree_param":{"num_deleted":"0","num_feature":"200","num_nodes":"1","size_leaf_vector":"1"}},{"base_weights":[-0E0,-0E0,5.582117E-3,2.6433023E-2,-0E0,-0E0,4.314146E-2,-0E0,5.977597E-2,-0E0,7.398588E-2,-0E0,8.144903E-2,8.763741E-2,-0E0,9.144365E-2,-0E0,9.531877E-2,-0E0,-0E0,9.888056E-2,-0E0,1.0457956E-1,-0E0,2.465251E-3],"categories":[],"categories_nodes":[],"categories_segments":[],"categories_sizes":[],"default_left":[0,0,0,0,0,0,0,0,0,0,0,0,0,0,0,0,0,0,0,0,0,0,0,0,0],"id":40,"left_children":[1,-1,3,5,-1,-1,7,-1,9,-1,11,-1,13,15,-1,17,-1,19,-1,-1,21,-1,23,-1,-1],"loss_changes":[3.601766E-2,0E0,6.661058E-1,8.7782377E-1,0E0,0E0,1.2496185E0,0E0,1.1493819E0,0E0,6.243005E-1,0E0,5.8782387E-1,4.188962E-1,0E0,4.2194414E-1,0E0,3.7121582E-1,0E0,0E0,3.328228E-1,0E0,4.1232252E-1,0E0,0E0],"parents":[2147483647,0,0,2,2,3,3,6,6,8,8,10,10,12,12,13,13,15,15,17,17,20,20,22,22],"right_children":[2,-1,4,6,-1,-1,8,-1,10,-1,12,-1,14,16,-1,18,-1,20,-1,-1,22,-1,24,-1,-1],"split_conditions":[-4.2875E1,-0E0,9.659681E2,-8.740602E3,-0E0,-0E0,6.165498E2,-0E0,0E0,-0E0,0E0,-0E0,-1.7287566E2,1E0,-0E0,7.9404336E4,-0E0,-6.828932E3,-0E0,-0E0,1.6976426E3,-0E0,-9.983151E-1,-0E0,2.465251E-3],"split_indices":[30,0,90,84,0,0,89,0,159,0,111,0,67,116,0,59,0,63,0,0,92,0,7,0,0],"split_type":[0,0,0,0,0,0,0,0,0,0,0,0,0,0,0,0,0,0,0,0,0,0,0,0,0],"sum_hessian":[1.695E3,5.54E2,1.141E3,9.9E2,1.51E2,1.56E2,8.34E2,5.7E1,7.77E2,6.5E1,7.12E2,3.3E1,6.79E2,6.61E2,1.8E1,6.56E2,5E0,6.49E2,7E0,9E0,6.4E2,3.9E1,6.01E2,7E0,5.94E2],"tree_param":{"num_deleted":"0","num_feature":"200","num_nodes":"25","size_leaf_vector":"1"}},{"base_weights":[-0E0],"categories":[],"categories_nodes":[],"categories_segments":[],"categories_sizes":[],"default_left":[0],"id":41,"left_children":[-1],"loss_changes":[0E0],"parents":[2147483647],"right_children":[-1],"split_conditions":[-0E0],"split_indices":[0],"split_type":[0],"sum_hessian":[1.728E3],"tree_param":{"num_deleted":"0","num_feature":"200","num_nodes":"1","size_leaf_vector":"1"}},{"base_weights":[-0E0],"categories":[],"categories_nodes":[],"categories_segments":[],"categories_sizes":[],"default_left":[0],"id":42,"left_children":[-1],"loss_changes":[0E0],"parents":[2147483647],"right_children":[-1],"split_conditions":[-0E0],"split_indices":[0],"split_type":[0],"sum_hessian":[1.684E3],"tree_param":{"num_deleted":"0","num_feature":"200","num_nodes":"1","size_leaf_vector":"1"}},{"base_weights":[-0E0],"categories":[],"categories_nodes":[],"categories_segments":[],"categories_sizes":[],"default_left":[0],"id":43,"left_children":[-1],"loss_changes":[0E0],"parents":[2147483647],"right_children":[-1],"split_conditions":[-0E0],"split_indices":[0],"split_type":[0],"sum_hessian":[1.686E3],"tree_param":{"num_deleted":"0","num_feature":"200","num_nodes":"1","size_leaf_vector":"1"}},{"base_weights":[-0E0,7.6654735E-3,-0E0,-0E0,3.938644E-2,-0E0,8.236363E-2,-0E0,1.0788452E-1,1.416871E-1,-0E0,-0E0,1.6054751E-1,-0E0,1.8153483E-1,-0E0,1.955617E-1,2.058564E-1,-0E0,2.2248766E-1,-0E0,2.285427E-1,-0E0,-0E0,5.4065813E-3],"categories":[],"categories_nodes":[],"categories_segments":[],"categories_sizes":[],"default_left":[0,0,0,0,0,0,0,0,0,0,0,0,0,0,0,0,0,0,0,0,0,0,0,0,0],"id":44,"left_children":[1,3,-1,-1,5,-1,7,-1,9,11,-1,-1,13,-1,15,-1,17,19,-1,21,-1,23,-1,-1,-1],"loss_changes":[7.262044E-2,9.0918124E-1,0E0,0E0,2.4297073E0,0E0,2.29039E0,0E0,2.3260474E0,2.0732927E0,0E0,0E0,2.1874094E0,0E0,1.2457695E0,0E0,1.1234388E0,6.3258076E-1,0E0,5.824299E-1,0E0,5.525608E-1,0E0,0E0,0E0],"parents":[2147483647,0,0,1,1,4,4,6,6,8,8,9,9,12,12,14,14,16,16,17,17,19,19,21,21],"right_children":[2,4,-1,-1,6,-1,8,-1,10,12,-1,-1,14,-1,16,-1,18,20,-1,22,-1,24,-1,-1,-1],"split_conditions":[1.0121668E3,6.2668903E1,-0E0,-0E0,0E0,-0E0,-9.95927E4,-0E0,1E0,6.127019E3,-0E0,-0E0,-4.0230137E4,-0E0,-1.4344789E4,-0E0,3.2461834E4,2.015E3,-0E0,1.702191E5,-0E0,-2.0161174E4,-0E0,-0E0,5.4065813E-3],"split_indices":[55,26,0,0,3,0,78,0,187,94,0,0,82,0,57,0,37,2,0,81,0,78,0,0,0],"split_type":[0,0,0,0,0,0,0,0,0,0,0,0,0,0,0,0,0,0,0,0,0,0,0,0,0],"sum_hessian":[1.702E3,1.221E3,4.81E2,6.03E2,6.18E2,1.3E2,4.88E2,1.3E1,4.75E2,3.85E2,9E1,8E0,3.77E2,1.9E1,3.58E2,1.9E1,3.39E2,3.31E2,8E0,2.94E2,3.7E1,2.89E2,5E0,1.3E1,2.76E2],"tree_param":{"num_deleted":"0","num_feature":"200","num_nodes":"25","size_leaf_vector":"1"}},{"base_weights":[-0E0],"categories":[],"categories_nodes":[],"categories_segments":[],"categories_sizes":[],"default_left":[0],"id":45,"left_children":[-1],"loss_changes":[0E0],"parents":[2147483647],"right_children":[-1],"split_conditions":[-0E0],"split_indices":[0],"split_type":[0],"sum_hessian":[1.632E3],"tree_param":{"num_deleted":"0","num_feature":"200","num_nodes":"1","size_leaf_vector":"1"}},{"base_weights":[-0E0,-5.1432825E-3,-0E0,-0E0,-5.43802E-2,-0E0,-9.684331E-2,-0E0,-1.1584542E-1,-1.3268508E-1,-0E0,-1.547841E-1,-0E0,-0E0,-1.6887176E-1,-0E0,-1.8517677E-1,-0E0,-1.9829562E-1,-0E0,-2.1015865E-1,-0E0,-2.2149985E-1,-0E0,-5.3970236E-3],"categories":[],"categories_nodes":[],"categories_segments":[],"categories_sizes":[],"default_left":[0,0,0,0,0,0,0,0,0,0,0,0,0,0,0,0,0,0,0,0,0,0,0,0,0],"id":46,"left_children":[1,3,-1,-1,5,-1,7,-1,9,11,-1,13,-1,-1,15,-1,17,-1,19,-1,21,-1,23,-1,-1],"loss_changes":[3.0868234E-2,2.1630623E0,0E0,0E0,3.7886295E0,0E0,2.0278416E0,0E0,2.2340164E0,2.47478E0,0E0,2.1924944E0,0E0,0E0,2.401309E0,0E0,2.028799E0,0E0,2.0743027E0,0E0,2.1284943E0,0E0,2.275507E0,0E0,0E0],"parents":[2147483647,0,0,1,1,4,4,6,6,8,8,9,9,11,11,14,14,16,16,18,18,20,20,22,22],"right_children":[2,4,-1,-1,6,-1,8,-1,10,12,-1,14,-1,-1,16,-1,18,-1,20,-1,22,-1,24,-1,-1],"split_conditions":[-4.580645E3,-4.2391365E1,-0E0,-0E0,-1.2575107E4,-0E0,7.188975E3,-0E0,9.4486E4,9.562943E-1,-0E0,-1.0077833E4,-0E0,-0E0,3.6975586E0,-0E0,-3.4268805E4,-0E0,-2.918888E8,-0E0,5.83E2,-0E0,1.66375E2,-0E0,-5.3970236E-3],"split_indices":[88,97,0,0,85,0,49,0,0,7,0,38,0,0,20,0,60,0,16,0,196,0,41,0,0],"split_type":[0,0,0,0,0,0,0,0,0,0,0,0,0,0,0,0,0,0,0,0,0,0,0,0,0],"sum_hessian":[1.718E3,1.152E3,5.66E2,4.25E2,7.27E2,1.04E2,6.23E2,4.1E1,5.82E2,5.67E2,1.5E1,5.16E2,5.1E1,8E0,5.08E2,1.8E1,4.9E2,1.3E1,4.77E2,7E0,4.7E2,5E0,4.65E2,2.1E1,4.44E2],"tree_param":{"num_deleted":"0","num_feature":"200","num_nodes":"25","size_leaf_vector":"1"}},{"base_weights":[-0E0,-2.5242728E-3,-0E0,-4.576644E-2,-0E0,1.1778914E-2,-0E0,-0E0,-7.478878E-2,-0E0,3.66407E-2,-1.0463973E-1,-0E0,-0E0,5.572842E-2,-1.2540439E-1,-0E0,7.616884E-2,-0E0,-1.51252E-1,-0E0,9.290461E-2,-0E0,-0E0,-1.6742027E-1,-0E0,1.0141164E-1,-1.8812834E-1,-0E0,-0E0,1.0935835E-1,-0E0,-1.9983053E-1,1.15695074E-1,-0E0,-2.1101823E-1,-0E0,-0E0,1.2388603E-1,-0E0,-2.2121957E-1,-0E0,1.2867142E-1,-0E0,-5.209948E-3,3.0030534E-3,-0E0],"categories":[],"categories_nodes":[],"categories_segments":[],"categories_sizes":[],"default_left":[0,0,0,0,0,0,0,0,0,0,0,0,0,0,0,0,0,0,0,0,0,0,0,0,0,0,0,0,0,0,0,0,0,0,0,0,0,0,0,0,0,0,0,0,0,0,0],"id":47,"left_children":[1,3,5,7,-1,9,-1,-1,11,-1,13,15,-1,-1,17,19,-1,21,-1,23,-1,25,-1,-1,27,-1,29,31,-1,-1,33,-1,35,37,-1,39,-1,-1,41,-1,43,-1,45,-1,-1,-1,-1],"loss_changes":[5.785052E-3,1.5900508E0,9.433027E-2,1.698056E0,0E0,7.9697335E-1,0E0,0E0,2.7490463E0,0E0,6.984605E-1,2.1487617E0,0E0,0E0,1.1654189E0,2.4437342E0,0E0,7.56819E-1,0E0,1.8347149E0,0E0,5.594888E-1,0E0,0E0,2.6031713E0,0E0,5.4349947E-1,1.5342197E0,0E0,0E0,4.432397E-1,0E0,1.4663467E0,4.6531725E-1,0E0,1.1046124E0,0E0,0E0,3.19067E-1,0E0,1.1074638E0,0E0,2.0048237E-1,0E0,0E0,0E0,0E0],"parents":[2147483647,0,0,1,1,2,2,3,3,5,5,8,8,10,10,11,11,14,14,15,15,17,17,19,19,21,21,24,24,26,26,27,27,30,30,32,32,33,33,35,35,38,38,40,40,42,42],"right_children":[2,4,6,8,-1,10,-1,-1,12,-1,14,16,-1,-1,18,20,-1,22,-1,24,-1,26,-1,-1,28,-1,30,32,-1,-1,34,-1,36,38,-1,40,-1,-1,42,-1,44,-1,46,-1,-1,-1,-1],"split_conditions":[6.2615723E1,1.0302936E3,1.399786E2,8.242498E3,-0E0,-2.012354E4,-0E0,-0E0,3.0044495E3,-0E0,1.56640005E1,9.778786E-1,-0E0,-0E0,2.4469643E4,4.5653516E2,-0E0,2.2480784E3,-0E0,-1.5625E4,-0E0,-3.4137277E4,-0E0,-0E0,1.801078E4,-0E0,3.279098E1,6.37E2,-0E0,-0E0,2.3639783E4,-0E0,4.1179797E4,-2.384676E4,-0E0,1.66375E2,-0E0,-0E0,9.881647E0,-0E0,-1.4875489E5,-0E0,9.116487E4,-0E0,-5.209948E-3,3.0030534E-3,-0E0],"split_indices":[84,35,97,47,0,29,0,0,90,0,23,7,0,0,81,37,0,29,0,35,0,62,0,0,65,0,26,197,0,0,38,0,82,65,0,41,0,0,22,0,82,0,86,0,0,0,0],"split_type":[0,0,0,0,0,0,0,0,0,0,0,0,0,0,0,0,0,0,0,0,0,0,0,0,0,0,0,0,0,0,0,0,0,0,0,0,0,0,0,0,0,0,0,0,0,0,0],"sum_hessian":[1.706E3,8.93E2,8.13E2,7.47E2,1.46E2,6.65E2,1.48E2,1.73E2,5.74E2,1.6E1,6.49E2,5.37E2,3.7E1,1.52E2,4.97E2,5.06E2,3.1E1,4.6E2,3.7E1,4.5E2,5.6E1,3.92E2,6.8E1,2E1,4.3E2,1.1E1,3.81E2,4.11E2,1.9E1,1E1,3.71E2,1E1,4.01E2,3.63E2,8E0,3.91E2,1E1,1.8E1,3.45E2,1.4E1,3.77E2,7E0,3.38E2,5E0,3.72E2,3.32E2,6E0],"tree_param":{"num_deleted":"0","num_feature":"200","num_nodes":"47","size_leaf_vector":"1"}},{"base_weights":[-0E0],"categories":[],"categories_nodes":[],"categories_segments":[],"categories_sizes":[],"default_left":[0],"id":48,"left_children":[-1],"loss_changes":[0E0],"parents":[2147483647],"right_children":[-1],"split_conditions":[-0E0],"split_indices":[0],"split_type":[0],"sum_hessian":[1.662E3],"tree_param":{"num_deleted":"0","num_feature":"200","num_nodes":"1","size_leaf_vector":"1"}},{"base_weights":[-0E0],"categories":[],"categories_nodes":[],"categories_segments":[],"categories_sizes":[],"default_left":[0],"id":49,"left_children":[-1],"loss_changes":[0E0],"parents":[2147483647],"right_children":[-1],"split_conditions":[-0E0],"split_indices":[0],"split_type":[0],"sum_hessian":[1.733E3],"tree_param":{"num_deleted":"0","num_feature":"200","num_nodes":"1","size_leaf_vector":"1"}},{"base_weights":[-0E0],"categories":[],"categories_nodes":[],"categories_segments":[],"categories_sizes":[],"default_left":[0],"id":50,"left_children":[-1],"loss_changes":[0E0],"parents":[2147483647],"right_children":[-1],"split_conditions":[-0E0],"split_indices":[0],"split_type":[0],"sum_hessian":[1.673E3],"tree_param":{"num_deleted":"0","num_feature":"200","num_nodes":"1","size_leaf_vector":"1"}},{"base_weights":[-0E0],"categories":[],"categories_nodes":[],"categories_segments":[],"categories_sizes":[],"default_left":[0],"id":51,"left_children":[-1],"loss_changes":[0E0],"parents":[2147483647],"right_children":[-1],"split_conditions":[-0E0],"split_indices":[0],"split_type":[0],"sum_hessian":[1.699E3],"tree_param":{"num_deleted":"0","num_feature":"200","num_nodes":"1","size_leaf_vector":"1"}},{"base_weights":[-0E0],"categories":[],"categories_nodes":[],"categories_segments":[],"categories_sizes":[],"default_left":[0],"id":52,"left_children":[-1],"loss_changes":[0E0],"parents":[2147483647],"right_children":[-1],"split_conditions":[-0E0],"split_indices":[0],"split_type":[0],"sum_hessian":[1.68E3],"tree_param":{"num_deleted":"0","num_feature":"200","num_nodes":"1","size_leaf_vector":"1"}},{"base_weights":[-0E0],"categories":[],"categories_nodes":[],"categories_segments":[],"categories_sizes":[],"default_left":[0],"id":53,"left_children":[-1],"loss_changes":[0E0],"parents":[2147483647],"right_children":[-1],"split_conditions":[-0E0],"split_indices":[0],"split_type":[0],"sum_hessian":[1.663E3],"tree_param":{"num_deleted":"0","num_feature":"200","num_nodes":"1","size_leaf_vector":"1"}},{"base_weights":[-0E0],"categories":[],"categories_nodes":[],"categories_segments":[],"categories_sizes":[],"default_left":[0],"id":54,"left_children":[-1],"loss_changes":[0E0],"parents":[2147483647],"right_children":[-1],"split_conditions":[-0E0],"split_indices":[0],"split_type":[0],"sum_hessian":[1.659E3],"tree_param":{"num_deleted":"0","num_feature":"200","num_nodes":"1","size_leaf_vector":"1"}},{"base_weights":[-0E0],"categories":[],"categories_nodes":[],"categories_segments":[],"categories_sizes":[],"default_left":[0],"id":55,"left_children":[-1],"loss_changes":[0E0],"parents":[2147483647],"right_children":[-1],"split_conditions":[-0E0],"split_indices":[0],"split_type":[0],"sum_hessian":[1.702E3],"tree_param":{"num_deleted":"0","num_feature":"200","num_nodes":"1","size_leaf_vector":"1"}},{"base_weights":[-0E0],"categories":[],"categories_nodes":[],"categories_segments":[],"categories_sizes":[],"default_left":[0],"id":56,"left_children":[-1],"loss_changes":[0E0],"parents":[2147483647],"right_children":[-1],"split_conditions":[-0E0],"split_indices":[0],"split_type":[0],"sum_hessian":[1.647E3],"tree_param":{"num_deleted":"0","num_feature":"200","num_nodes":"1","size_leaf_vector":"1"}},{"base_weights":[-0E0,-0E0,-1.8351737E-3,-3.899227E-2,-0E0,-0E0,-7.0134416E-2,-9.756051E-2,-0E0,-1.2373639E-1,-0E0,-1.6137634E-1,-0E0,-1.7932184E-1,-0E0,-1.995112E-1,-0E0,-2.1303783E-1,-0E0,-0E0,-2.4229456E-1,-0E0,-2.531435E-1,-6.0728807E-3,-0E0],"categories":[],"categories_nodes":[],"categories_segments":[],"categories_sizes":[],"default_left":[0,0,0,0,0,0,0,0,0,0,0,0,0,0,0,0,0,0,0,0,0,0,0,0,0],"id":57,"left_children":[1,-1,3,5,-1,-1,7,9,-1,11,-1,13,-1,15,-1,17,-1,19,-1,-1,21,-1,23,-1,-1],"loss_changes":[3.7076564E-3,0E0,1.3432018E0,2.3023415E0,0E0,0E0,2.7268264E0,3.5895476E0,0E0,4.328825E0,0E0,2.326932E0,0E0,2.1621857E0,0E0,2.2702732E0,0E0,1.4245281E0,0E0,0E0,1.2890606E0,0E0,1.3728714E0,0E0,0E0],"parents":[2147483647,0,0,2,2,3,3,6,6,7,7,9,9,11,11,13,13,15,15,17,17,20,20,22,22],"right_children":[2,-1,4,6,-1,-1,8,10,-1,12,-1,14,-1,16,-1,18,-1,20,-1,-1,22,-1,24,-1,-1],"split_conditions":[8.489694E3,-0E0,1.0302936E3,1.8487223E4,-0E0,-0E0,9.657866E-1,1.5569472E4,-0E0,1.1397467E4,-0E0,2.237953E3,-0E0,1E0,-0E0,6.796833E1,-0E0,2.5670073E1,-0E0,-0E0,-5.0752E4,-0E0,2.0572646E4,-6.0728807E-3,-0E0],"split_indices":[45,0,35,96,0,0,7,66,0,84,0,50,0,119,0,22,0,24,0,0,65,0,62,0,0],"split_type":[0,0,0,0,0,0,0,0,0,0,0,0,0,0,0,0,0,0,0,0,0,0,0,0,0],"sum_hessian":[1.661E3,5.75E2,1.086E3,8.71E2,2.15E2,1.44E2,7.27E2,6.55E2,7.2E1,6.36E2,1.9E1,5.34E2,1.02E2,5.02E2,3.2E1,4.57E2,4.5E1,4.49E2,8E0,8.1E1,3.68E2,1.2E1,3.56E2,3.38E2,1.8E1],"tree_param":{"num_deleted":"0","num_feature":"200","num_nodes":"25","size_leaf_vector":"1"}},{"base_weights":[-0E0],"categories":[],"categories_nodes":[],"categories_segments":[],"categories_sizes":[],"default_left":[0],"id":58,"left_children":[-1],"loss_changes":[0E0],"parents":[2147483647],"right_children":[-1],"split_conditions":[-0E0],"split_indices":[0],"split_type":[0],"sum_hessian":[1.711E3],"tree_param":{"num_deleted":"0","num_feature":"200","num_nodes":"1","size_leaf_vector":"1"}},{"base_weights":[-0E0],"categories":[],"categories_nodes":[],"categories_segments":[],"categories_sizes":[],"default_left":[0],"id":59,"left_children":[-1],"loss_changes":[0E0],"parents":[2147483647],"right_children":[-1],"split_conditions":[-0E0],"split_indices":[0],"split_type":[0],"sum_hessian":[1.681E3],"tree_param":{"num_deleted":"0","num_feature":"200","num_nodes":"1","size_leaf_vector":"1"}},{"base_weights":[-0E0,-0E0,2.212737E-3,4.5398753E-2,-0E0,-0E0,6.2240582E-2,8.0953516E-2,-0E0,-0E0,9.870283E-2,1.1236924E-1,-0E0,-0E0,1.267466E-1,-0E0,1.401201E-1,-0E0,1.487973E-1,-0E0,1.5647723E-1,-0E0,1.6965921E-1,-0E0,4.146502E-3],"categories":[],"categories_nodes":[],"categories_segments":[],"categories_sizes":[],"default_left":[0,0,0,0,0,0,0,0,0,0,0,0,0,0,0,0,0,0,0,0,0,0,0,0,0],"id":60,"left_children":[1,-1,3,5,-1,-1,7,9,-1,-1,11,13,-1,-1,15,-1,17,-1,19,-1,21,-1,23,-1,-1],"loss_changes":[5.6203194E-3,0E0,2.0222292E0,1.2258039E0,0E0,0E0,1.3068616E0,1.4201837E0,0E0,0E0,1.4299092E0,1.616035E0,0E0,0E0,1.6323252E0,0E0,1.1839046E0,0E0,1.0581694E0,0E0,9.698858E-1,0E0,9.050846E-1,0E0,0E0],"parents":[2147483647,0,0,2,2,3,3,6,6,7,7,10,10,11,11,14,14,16,16,18,18,20,20,22,22],"right_children":[2,-1,4,6,-1,-1,8,10,-1,-1,12,14,-1,-1,16,-1,18,-1,20,-1,22,-1,24,-1,-1],"split_conditions":[-1.2506223E3,-0E0,1.8158262E3,-7.8706777E3,-0E0,-0E0,6.9357275E3,-1.6430269E3,-0E0,-0E0,1E0,0E0,-0E0,-0E0,1E0,-0E0,0E0,-0E0,-9.986126E-1,-0E0,0E0,-0E0,-6.222892E5,-0E0,4.146502E-3],"split_indices":[84,0,33,83,0,0,83,38,0,0,147,108,0,0,0,0,111,0,6,0,155,0,11,0,0],"split_type":[0,0,0,0,0,0,0,0,0,0,0,0,0,0,0,0,0,0,0,0,0,0,0,0,0],"sum_hessian":[1.679E3,5.46E2,1.133E3,9.69E2,1.64E2,1.44E2,8.25E2,6.81E2,1.44E2,8.2E1,5.99E2,5.72E2,2.7E1,2.5E1,5.47E2,1.9E1,5.28E2,8E0,5.2E2,8E0,5.12E2,4.5E1,4.67E2,3.7E1,4.3E2],"tree_param":{"num_deleted":"0","num_feature":"200","num_nodes":"25","size_leaf_vector":"1"}},{"base_weights":[-0E0],"categories":[],"categories_nodes":[],"categories_segments":[],"categories_sizes":[],"default_left":[0],"id":61,"left_children":[-1],"loss_changes":[0E0],"parents":[2147483647],"right_children":[-1],"split_conditions":[-0E0],"split_indices":[0],"split_type":[0],"sum_hessian":[1.732E3],"tree_param":{"num_deleted":"0","num_feature":"200","num_nodes":"1","size_leaf_vector":"1"}},{"base_weights":[-0E0],"categories":[],"categories_nodes":[],"categories_segments":[],"categories_sizes":[],"default_left":[0],"id":62,"left_children":[-1],"loss_changes":[0E0],"parents":[2147483647],"right_children":[-1],"split_conditions":[-0E0],"split_indices":[0],"split_type":[0],"sum_hessian":[1.668E3],"tree_param":{"num_deleted":"0","num_feature":"200","num_nodes":"1","size_leaf_vector":"1"}},{"base_weights":[-0E0],"categories":[],"categories_nodes":[],"categories_segments":[],"categories_sizes":[],"default_left":[0],"id":63,"left_children":[-1],"loss_changes":[0E0],"parents":[2147483647],"right_children":[-1],"split_conditions":[-0E0],"split_indices":[0],"split_type":[0],"sum_hessian":[1.66E3],"tree_param":{"num_deleted":"0","num_feature":"200","num_nodes":"1","size_leaf_vector":"1"}},{"base_weights":[-0E0,-9.91877E-3,-0E0,-0E0,-6.539765E-2,-0E0,5.4638775E-4,-0E0,-1.0132031E-1,1.2401327E-2,-0E0,-0E0,-1.3777748E-1,2.5557945E-2,-0E0,-0E0,-1.6877382E-1,-0E0,3.8974307E-2,-1.8989941E-1,-0E0,-0E0,4.747737E-2,-2.1259318E-1,-0E0,-0E0,5.5314194E-2,-0E0,-2.399089E-1,-0E0,6.237566E-2,-0E0,-2.6704443E-1,-0E0,6.9657475E-2,-0E0,-2.8177696E-1,7.639811E-2,-0E0,-2.9258946E-1,-0E0,-0E0,8.221625E-2,-0E0,-7.120481E-3,-0E0,2.0135744E-3],"categories":[],"categories_nodes":[],"categories_segments":[],"categories_sizes":[],"default_left":[0,0,0,0,0,0,0,0,0,0,0,0,0,0,0,0,0,0,0,0,0,0,0,0,0,0,0,0,0,0,0,0,0,0,0,0,0,0,0,0,0,0,0,0,0,0,0],"id":64,"left_children":[1,3,5,-1,7,-1,9,-1,11,13,-1,-1,15,17,-1,-1,19,-1,21,23,-1,-1,25,27,-1,-1,29,-1,31,-1,33,-1,35,-1,37,-1,39,41,-1,43,-1,-1,45,-1,-1,-1,-1],"loss_changes":[8.823812E-2,2.7297502E0,2.1700631E-4,0E0,3.3711941E0,0E0,1.0173124E-1,0E0,3.4329824E0,3.121161E-1,0E0,0E0,3.9619436E0,5.047662E-1,0E0,0E0,2.9283314E0,0E0,4.108476E-1,3.3237076E0,0E0,0E0,4.4765687E-1,4.0435505E0,0E0,0E0,4.3996084E-1,0E0,3.4967613E0,0E0,4.7513628E-1,0E0,2.7069836E0,0E0,4.9960303E-1,0E0,1.6681843E0,4.6413732E-1,0E0,1.7331066E0,0E0,0E0,4.704597E-1,0E0,0E0,0E0,0E0],"parents":[2147483647,0,0,1,1,2,2,4,4,6,6,8,8,9,9,12,12,13,13,16,16,18,18,19,19,22,22,23,23,26,26,28,28,30,30,32,32,34,34,36,36,37,37,39,39,42,42],"right_children":[2,4,6,-1,8,-1,10,-1,12,14,-1,-1,16,18,-1,-1,20,-1,22,24,-1,-1,26,28,-1,-1,30,-1,32,-1,34,-1,36,-1,38,-1,40,42,-1,44,-1,-1,46,-1,-1,-1,-1],"split_conditions":[-8.912848E3,-2.5227034E2,-1.6049679E3,-0E0,-2.4420856E2,-0E0,1.2543174E2,-0E0,-2.1920443E4,6.718867E2,-0E0,-0E0,-9.8091614E-1,-8.952705E1,-0E0,-0E0,3.027951E4,-0E0,-9.9639505E-1,4.0328906E4,-0E0,-0E0,1.1244557E3,0E0,-0E0,-0E0,-9.983151E-1,-0E0,4.1511703E1,-0E0,-1.641567E10,-0E0,-1.4875489E5,-0E0,1.2326352E4,-0E0,3.2461834E4,1.36892535E-2,-0E0,8.732158E0,-0E0,-0E0,3.7874708E0,-0E0,-7.120481E-3,-0E0,2.0135744E-3],"split_indices":[88,68,14,0,98,0,98,0,15,93,0,0,7,100,0,0,79,0,6,61,0,0,94,105,0,0,7,0,26,0,18,0,76,0,34,0,39,5,0,21,0,0,21,0,0,0,0],"split_type":[0,0,0,0,0,0,0,0,0,0,0,0,0,0,0,0,0,0,0,0,0,0,0,0,0,0,0,0,0,0,0,0,0,0,0,0,0,0,0,0,0,0,0,0,0,0,0],"sum_hessian":[1.68E3,8.82E2,7.98E2,2.38E2,6.44E2,8.6E1,7.12E2,5.6E1,5.88E2,6.48E2,6.4E1,9.6E1,4.92E2,6.19E2,2.9E1,3E1,4.62E2,2.9E1,5.9E2,4.43E2,1.9E1,1.5E1,5.75E2,4.24E2,1.9E1,9E0,5.66E2,2.4E1,4E2,1.1E1,5.55E2,3.1E1,3.69E2,1.5E1,5.4E2,5E0,3.64E2,5.32E2,8E0,3.56E2,8E0,6E0,5.26E2,2.9E1,3.27E2,1.4E1,5.12E2],"tree_param":{"num_deleted":"0","num_feature":"200","num_nodes":"47","size_leaf_vector":"1"}},{"base_weights":[-0E0],"categories":[],"categories_nodes":[],"categories_segments":[],"categories_sizes":[],"default_left":[0],"id":65,"left_children":[-1],"loss_changes":[0E0],"parents":[2147483647],"right_children":[-1],"split_conditions":[-0E0],"split_indices":[0],"split_type":[0],"sum_hessian":[1.688E3],"tree_param":{"num_deleted":"0","num_feature":"200","num_nodes":"1","size_leaf_vector":"1"}},{"base_weights":[-0E0],"categories":[],"categories_nodes":[],"categories_segments":[],"categories_sizes":[],"default_left":[0],"id":66,"left_children":[-1],"loss_changes":[0E0],"parents":[2147483647],"right_children":[-1],"split_conditions":[-0E0],"split_indices":[0],"split_type":[0],"sum_hessian":[1.674E3],"tree_param":{"num_deleted":"0","num_feature":"200","num_nodes":"1","size_leaf_vector":"1"}},{"base_weights":[-0E0],"categories":[],"categories_nodes":[],"categories_segments":[],"categories_sizes":[],"default_left":[0],"id":67,"left_children":[-1],"loss_changes":[0E0],"parents":[2147483647],"right_children":[-1],"split_conditions":[-0E0],"split_indices":[0],"split_type":[0],"sum_hessian":[1.655E3],"tree_param":{"num_deleted":"0","num_feature":"200","num_nodes":"1","size_leaf_vector":"1"}},{"base_weights":[-0E0],"categories":[],"categories_nodes":[],"categories_segments":[],"categories_sizes":[],"default_left":[0],"id":68,"left_children":[-1],"loss_changes":[0E0],"parents":[2147483647],"right_children":[-1],"split_conditions":[-0E0],"split_indices":[0],"split_type":[0],"sum_hessian":[1.655E3],"tree_param":{"num_deleted":"0","num_feature":"200","num_nodes":"1","size_leaf_vector":"1"}},{"base_weights":[-0E0],"categories":[],"categories_nodes":[],"categories_segments":[],"categories_sizes":[],"default_left":[0],"id":69,"left_children":[-1],"loss_changes":[0E0],"parents":[2147483647],"right_children":[-1],"split_conditions":[-0E0],"split_indices":[0],"split_type":[0],"sum_hessian":[1.681E3],"tree_param":{"num_deleted":"0","num_feature":"200","num_nodes":"1","size_leaf_vector":"1"}},{"base_weights":[-0E0,-3.685954E-2,-0E0,-7.947924E-2,-0E0,-1.0183906E-1,-0E0,-1.2699117E-1,-0E0,-0E0,-1.4626901E-1,-0E0,-1.7329001E-1,-0E0,-1.8958741E-1,-0E0,-2.0367055E-1,-2.1891287E-1,-0E0,-0E0,-2.3934495E-1,-0E0,-2.546754E-1,-6.0716905E-3,-0E0],"categories":[],"categories_nodes":[],"categories_segments":[],"categories_sizes":[],"default_left":[0,0,0,0,0,0,0,0,0,0,0,0,0,0,0,0,0,0,0,0,0,0,0,0,0],"id":70,"left_children":[1,3,-1,5,-1,7,-1,9,-1,-1,11,-1,13,-1,15,-1,17,19,-1,-1,21,-1,23,-1,-1],"loss_changes":[1.4943427E0,2.8257751E0,0E0,2.0466857E0,0E0,2.1141448E0,0E0,1.8503656E0,0E0,0E0,1.9174786E0,0E0,1.5496216E0,0E0,1.6283379E0,0E0,1.7724209E0,2.2719421E0,0E0,0E0,2.249897E0,0E0,1.7003307E0,0E0,0E0],"parents":[2147483647,0,0,1,1,3,3,5,5,7,7,10,10,12,12,14,14,16,16,17,17,20,20,22,22],"right_children":[2,4,-1,6,-1,8,-1,10,-1,-1,12,-1,14,-1,16,-1,18,20,-1,-1,22,-1,24,-1,-1],"split_conditions":[6.891977E1,6.184297E2,-0E0,9.2973083E2,-0E0,-7.26928E2,-0E0,-1.8611354E4,-0E0,-0E0,1.5567429E4,-0E0,-7.6454585E3,-0E0,1.66375E2,-0E0,9.8215E-1,-6.539152E3,-0E0,-0E0,-4.2044207E4,-0E0,1E0,-6.0716905E-3,-0E0],"split_indices":[37,82,0,52,0,67,0,61,0,0,17,0,38,0,41,0,7,32,0,0,42,0,112,0,0],"split_type":[0,0,0,0,0,0,0,0,0,0,0,0,0,0,0,0,0,0,0,0,0,0,0,0,0],"sum_hessian":[1.687E3,1.085E3,6.02E2,6.69E2,4.16E2,5.99E2,7E1,5.11E2,8.8E1,4.3E1,4.68E2,7.5E1,3.93E2,2.4E1,3.69E2,1.2E1,3.57E2,3.44E2,1.3E1,1.9E1,3.25E2,5E0,3.2E2,3.14E2,6E0],"tree_param":{"num_deleted":"0","num_feature":"200","num_nodes":"25","size_leaf_vector":"1"}},{"base_weights":[-0E0,-0E0,1.2625324E-2,3.899684E-2,-0E0,-0E0,5.7728622E-2,8.141687E-2,-0E0,9.909548E-2,-0E0,1.13276996E-1,-0E0,1.2842943E-1,-0E0,1.3649839E-1,-0E0,-0E0,1.4474529E-1,1.5108669E-1,-0E0,-0E0,1.5801589E-1,-0E0,3.8993526E-3],"categories":[],"categories_nodes":[],"categories_segments":[],"categories_sizes":[],"default_left":[0,0,0,0,0,0,0,0,0,0,0,0,0,0,0,0,0,0,0,0,0,0,0,0,0],"id":71,"left_children":[1,-1,3,5,-1,-1,7,9,-1,11,-1,13,-1,15,-1,17,-1,-1,19,21,-1,-1,23,-1,-1],"loss_changes":[2.3493676E-1,0E0,1.7221103E0,2.041709E0,0E0,0E0,2.2050047E0,2.5152726E0,0E0,1.9170542E0,0E0,2.1285973E0,0E0,1.3748665E0,0E0,1.215436E0,0E0,0E0,1.1466303E0,1.298624E0,0E0,0E0,1.0529823E0,0E0,0E0],"parents":[2147483647,0,0,2,2,3,3,6,6,7,7,9,9,11,11,13,13,15,15,18,18,19,19,22,22],"right_children":[2,-1,4,6,-1,-1,8,10,-1,12,-1,14,-1,16,-1,18,-1,-1,20,22,-1,-1,24,-1,-1],"split_conditions":[-4.41099E3,-0E0,2.097116E3,-4.7416733E3,-0E0,-0E0,1.328E3,1.5786119E2,-0E0,3.8995637E3,-0E0,-3.0024432E2,-0E0,1.4706125E4,-0E0,-3.2431969E4,-0E0,-0E0,4.1030637E4,-1.7469566E4,-0E0,-0E0,-2.0484185E3,-0E0,3.8993526E-3],"split_indices":[63,0,36,28,0,0,197,98,0,62,0,67,0,37,0,86,0,0,85,84,0,0,38,0,0],"split_type":[0,0,0,0,0,0,0,0,0,0,0,0,0,0,0,0,0,0,0,0,0,0,0,0,0],"sum_hessian":[1.701E3,2.42E2,1.459E3,1.272E3,1.87E2,8.7E1,1.185E3,9.21E2,2.64E2,8.73E2,4.8E1,8.14E2,5.9E1,7.59E2,5.5E1,7.44E2,1.5E1,2.6E1,7.18E2,7.08E2,1E1,1E1,6.98E2,7.1E1,6.27E2],"tree_param":{"num_deleted":"0","num_feature":"200","num_nodes":"25","size_leaf_vector":"1"}},{"base_weights":[-0E0],"categories":[],"categories_nodes":[],"categories_segments":[],"categories_sizes":[],"default_left":[0],"id":72,"left_children":[-1],"loss_changes":[0E0],"parents":[2147483647],"right_children":[-1],"split_conditions":[-0E0],"split_indices":[0],"split_type":[0],"sum_hessian":[1.69E3],"tree_param":{"num_deleted":"0","num_feature":"200","num_nodes":"1","size_leaf_vector":"1"}},{"base_weights":[-0E0,-0E0,-9.420153E-3,1.1908162E-2,-0E0,-4.2195246E-2,-0E0,2.5809664E-2,-0E0,-6.563352E-2,-0E0,3.6736056E-2,-0E0,-8.631287E-2,-0E0,-0E0,4.5378942E-2,-1.1274307E-1,-0E0,-0E0,6.2088773E-2,-1.3071012E-1,-0E0,-0E0,7.881191E-2,-1.4471439E-1,-0E0,-0E0,9.321345E-2,-0E0,-1.6637546E-1,9.898898E-2,-0E0,-0E0,-1.8754882E-1,-0E0,1.0660104E-1,-0E0,-1.9869035E-1,1.11553445E-1,-0E0,-0E0,-2.0814368E-1,2.673696E-3,-0E0,-5.0032656E-3,-0E0],"categories":[],"categories_nodes":[],"categories_segments":[],"categories_sizes":[],"default_left":[0,0,0,0,0,0,0,0,0,0,0,0,0,0,0,0,0,0,0,0,0,0,0,0,0,0,0,0,0,0,0,0,0,0,0,0,0,0,0,0,0,0,0,0,0,0,0],"id":73,"left_children":[1,3,5,7,-1,9,-1,11,-1,13,-1,15,-1,17,-1,-1,19,21,-1,-1,23,25,-1,-1,27,29,-1,-1,31,-1,33,35,-1,-1,37,-1,39,-1,41,43,-1,-1,45,-1,-1,-1,-1],"loss_changes":[4.9861986E-2,1.1853326E-1,7.8853416E-1,4.169711E-1,0E0,1.1082504E0,0E0,5.048449E-1,0E0,1.263468E0,0E0,5.3475547E-1,0E0,1.6187053E0,0E0,0E0,6.4497185E-1,1.5591931E0,0E0,0E0,1.2824419E0,1.2746115E0,0E0,0E0,1.2927401E0,1.2476292E0,0E0,0E0,4.9505472E-1,0E0,1.4273033E0,4.4718075E-1,0E0,0E0,9.488869E-1,0E0,4.7081566E-1,0E0,8.829069E-1,4.8757458E-1,0E0,0E0,9.297905E-1,0E0,0E0,0E0,0E0],"parents":[2147483647,0,0,1,1,2,2,3,3,5,5,7,7,9,9,11,11,13,13,16,16,17,17,20,20,21,21,24,24,25,25,28,28,30,30,31,31,34,34,36,36,38,38,39,39,42,42],"right_children":[2,4,6,8,-1,10,-1,12,-1,14,-1,16,-1,18,-1,-1,20,22,-1,-1,24,26,-1,-1,28,30,-1,-1,32,-1,34,36,-1,-1,38,-1,40,-1,42,44,-1,-1,46,-1,-1,-1,-1],"split_conditions":[9.725345E1,1.3157E3,1.2250262E3,1E0,-0E0,1E0,-0E0,1E0,-0E0,-3.6445108E2,-0E0,-3.528751E4,-0E0,2.744E3,-0E0,-0E0,2.4028847E1,5.2133E4,-0E0,-0E0,2E0,9.746749E-1,-0E0,-0E0,-7.454614E4,2.5878832E1,-0E0,-0E0,2.0376043E4,-0E0,-1.2812743E4,5.3633347E0,-0E0,-0E0,5.0650993E1,-0E0,1.38416E5,-0E0,2.1902807E-2,2.7876167E3,-0E0,-0E0,1.1390625E4,2.673696E-3,-0E0,-5.0032656E-3,-0E0],"split_indices":[93,196,35,104,0,113,0,145,0,67,0,36,0,39,0,0,25,0,0,0,1,5,0,0,81,25,0,0,64,0,35,21,0,0,41,0,0,0,5,50,0,0,38,0,0,0,0],"split_type":[0,0,0,0,0,0,0,0,0,0,0,0,0,0,0,0,0,0,0,0,0,0,0,0,0,0,0,0,0,0,0,0,0,0,0,0,0,0,0,0,0,0,0,0,0,0,0],"sum_hessian":[1.64E3,1.093E3,5.47E2,8.21E2,2.72E2,4.56E2,9.1E1,7.89E2,3.2E1,4.37E2,1.9E1,7.56E2,3.3E1,4.16E2,2.1E1,6E0,7.5E2,3.65E2,5.1E1,1.89E2,5.61E2,3.59E2,6E0,1.2E1,5.49E2,3.51E2,8E0,1.2E1,5.37E2,4.4E1,3.07E2,5.25E2,1.2E1,2.8E1,2.79E2,3.5E1,4.9E2,8E0,2.71E2,4.84E2,6E0,5E0,2.66E2,4.7E2,1.4E1,2.56E2,1E1],"tree_param":{"num_deleted":"0","num_feature":"200","num_nodes":"47","size_leaf_vector":"1"}},{"base_weights":[-0E0],"categories":[],"categories_nodes":[],"categories_segments":[],"categories_sizes":[],"default_left":[0],"id":74,"left_children":[-1],"loss_changes":[0E0],"parents":[2147483647],"right_children":[-1],"split_conditions":[-0E0],"split_indices":[0],"split_type":[0],"sum_hessian":[1.694E3],"tree_param":{"num_deleted":"0","num_feature":"200","num_nodes":"1","size_leaf_vector":"1"}},{"base_weights":[-0E0],"categories":[],"categories_nodes":[],"categories_segments":[],"categories_sizes":[],"default_left":[0],"id":75,"left_children":[-1],"loss_changes":[0E0],"parents":[2147483647],"right_children":[-1],"split_conditions":[-0E0],"split_indices":[0],"split_type":[0],"sum_hessian":[1.722E3],"tree_param":{"num_deleted":"0","num_feature":"200","num_nodes":"1","size_leaf_vector":"1"}},{"base_weights":[-0E0],"categories":[],"categories_nodes":[],"categories_segments":[],"categories_sizes":[],"default_left":[0],"id":76,"left_children":[-1],"loss_changes":[0E0],"parents":[2147483647],"right_children":[-1],"split_conditions":[-0E0],"split_indices":[0],"split_type":[0],"sum_hessian":[1.711E3],"tree_param":{"num_deleted":"0","num_feature":"200","num_nodes":"1","size_leaf_vector":"1"}},{"base_weights":[-0E0,-0E0,-1.1903564E-2,-5.0863538E-2,-0E0,-0E0,-7.575698E-2,-1.04122035E-1,-0E0,-0E0,-1.1912526E-1,-1.5936843E-1,-0E0,-0E0,-1.7628685E-1,-1.963481E-1,-0E0,-0E0,-2.1702403E-1,-0E0,-2.4958363E-1,-2.609948E-1,-0E0,-0E0,-6.1910423E-3],"categories":[],"categories_nodes":[],"categories_segments":[],"categories_sizes":[],"default_left":[0,0,0,0,0,0,0,0,0,0,0,0,0,0,0,0,0,0,0,0,0,0,0,0,0],"id":77,"left_children":[1,-1,3,5,-1,-1,7,9,-1,-1,11,13,-1,-1,15,17,-1,-1,19,-1,21,23,-1,-1,-1],"loss_changes":[1.6789322E-1,0E0,2.0360386E0,2.117012E0,0E0,0E0,2.99584E0,2.0902176E0,0E0,0E0,2.0703096E0,1.7271118E0,0E0,0E0,1.9811678E0,2.1419601E0,0E0,0E0,2.5992203E0,0E0,1.4550819E0,1.4144974E0,0E0,0E0,0E0],"parents":[2147483647,0,0,2,2,3,3,6,6,7,7,10,10,11,11,14,14,15,15,18,18,20,20,21,21],"right_children":[2,-1,4,6,-1,-1,8,10,-1,-1,12,14,-1,-1,16,18,-1,-1,20,-1,22,24,-1,-1,-1],"split_conditions":[-6.4E1,-0E0,5.952404E-1,-3.1912238E2,-0E0,-0E0,1.162E3,-3.4289695E4,-0E0,-0E0,-1.5918538E3,0E0,-0E0,-0E0,-3.3671636E3,3.7412645E4,-0E0,-0E0,2.7402876E1,-0E0,2.5718367E3,1.1248522E3,-0E0,-0E0,-6.1910423E-3],"split_indices":[39,0,7,69,0,0,0,46,0,0,67,105,0,0,88,103,0,0,25,0,50,43,0,0,0],"split_type":[0,0,0,0,0,0,0,0,0,0,0,0,0,0,0,0,0,0,0,0,0,0,0,0,0],"sum_hessian":[1.651E3,4.81E2,1.17E3,8.37E2,3.33E2,9.9E1,7.38E2,6.6E2,7.8E1,1.2E1,6.48E2,4.37E2,2.11E2,2.7E1,4.1E2,3.79E2,3.1E1,2.6E1,3.53E2,4.8E1,3.05E2,2.99E2,6E0,6E0,2.93E2],"tree_param":{"num_deleted":"0","num_feature":"200","num_nodes":"25","size_leaf_vector":"1"}},{"base_weights":[-0E0,-0E0,1.0850663E-2,3.2873984E-2,-0E0,5.3861685E-2,-0E0,-0E0,6.900352E-2,-0E0,8.774037E-2,9.9356435E-2,-0E0,-0E0,1.1168958E-1,-0E0,1.2890117E-1,1.4260845E-1,-0E0,-0E0,1.5092513E-1,-0E0,1.5993476E-1,3.8279898E-3,-0E0],"categories":[],"categories_nodes":[],"categories_segments":[],"categories_sizes":[],"default_left":[0,0,0,0,0,0,0,0,0,0,0,0,0,0,0,0,0,0,0,0,0,0,0,0,0],"id":78,"left_children":[1,-1,3,5,-1,7,-1,-1,9,-1,11,13,-1,-1,15,-1,17,19,-1,-1,21,-1,23,-1,-1],"loss_changes":[1.6599642E-1,0E0,1.1566634E0,1.44176E0,0E0,1.1490126E0,0E0,0E0,1.8749206E0,0E0,1.4761629E0,1.5786152E0,0E0,0E0,1.9053268E0,0E0,1.8177366E0,1.2578545E0,0E0,0E0,1.1114235E0,0E0,9.6950626E-1,0E0,0E0],"parents":[2147483647,0,0,2,2,3,3,5,5,8,8,10,10,11,11,14,14,16,16,17,17,20,20,22,22],"right_children":[2,-1,4,6,-1,8,-1,-1,10,-1,12,14,-1,-1,16,-1,18,20,-1,-1,22,-1,24,-1,-1],"split_conditions":[-7.4302803E3,-0E0,1.953125E3,7.306445E-1,-0E0,1.0351007E1,-0E0,-0E0,0E0,-0E0,1.4205772E14,2.1597363E-1,-0E0,-0E0,-2.7080004E4,-0E0,4.4658363E4,-9.987235E-1,-0E0,-0E0,0E0,-0E0,1.2250262E3,3.8279898E-3,-0E0],"split_indices":[84,0,33,6,0,22,0,0,155,0,18,40,0,0,17,0,85,6,0,0,109,0,33,0,0],"split_type":[0,0,0,0,0,0,0,0,0,0,0,0,0,0,0,0,0,0,0,0,0,0,0,0,0],"sum_hessian":[1.711E3,3.16E2,1.395E3,1.209E3,1.86E2,9.38E2,2.71E2,1.31E2,8.07E2,7E1,7.37E2,7.21E2,1.6E1,2.7E1,6.94E2,6.2E1,6.32E2,6.03E2,2.9E1,1.1E1,5.92E2,2.3E1,5.69E2,5.47E2,2.2E1],"tree_param":{"num_deleted":"0","num_feature":"200","num_nodes":"25","size_leaf_vector":"1"}},{"base_weights":[-0E0],"categories":[],"categories_nodes":[],"categories_segments":[],"categories_sizes":[],"default_left":[0],"id":79,"left_children":[-1],"loss_changes":[0E0],"parents":[2147483647],"right_children":[-1],"split_conditions":[-0E0],"split_indices":[0],"split_type":[0],"sum_hessian":[1.712E3],"tree_param":{"num_deleted":"0","num_feature":"200","num_nodes":"1","size_leaf_vector":"1"}},{"base_weights":[-0E0],"categories":[],"categories_nodes":[],"categories_segments":[],"categories_sizes":[],"default_left":[0],"id":80,"left_children":[-1],"loss_changes":[0E0],"parents":[2147483647],"right_children":[-1],"split_conditions":[-0E0],"split_indices":[0],"split_type":[0],"sum_hessian":[1.623E3],"tree_param":{"num_deleted":"0","num_feature":"200","num_nodes":"1","size_leaf_vector":"1"}},{"base_weights":[-0E0],"categories":[],"categories_nodes":[],"categories_segments":[],"categories_sizes":[],"default_left":[0],"id":81,"left_children":[-1],"loss_changes":[0E0],"parents":[2147483647],"right_children":[-1],"split_conditions":[-0E0],"split_indices":[0],"split_type":[0],"sum_hessian":[1.677E3],"tree_param":{"num_deleted":"0","num_feature":"200","num_nodes":"1","size_leaf_vector":"1"}},{"base_weights":[-0E0],"categories":[],"categories_nodes":[],"categories_segments":[],"categories_sizes":[],"default_left":[0],"id":82,"left_children":[-1],"loss_changes":[0E0],"parents":[2147483647],"right_children":[-1],"split_conditions":[-0E0],"split_indices":[0],"split_type":[0],"sum_hessian":[1.694E3],"tree_param":{"num_deleted":"0","num_feature":"200","num_nodes":"1","size_leaf_vector":"1"}},{"base_weights":[-0E0],"categories":[],"categories_nodes":[],"categories_segments":[],"categories_sizes":[],"default_left":[0],"id":83,"left_children":[-1],"loss_changes":[0E0],"parents":[2147483647],"right_children":[-1],"split_conditions":[-0E0],"split_indices":[0],"split_type":[0],"sum_hessian":[1.624E3],"tree_param":{"num_deleted":"0","num_feature":"200","num_nodes":"1","size_leaf_vector":"1"}},{"base_weights":[-0E0],"categories":[],"categories_nodes":[],"categories_segments":[],"categories_sizes":[],"default_left":[0],"id":84,"left_children":[-1],"loss_changes":[0E0],"parents":[2147483647],"right_children":[-1],"split_conditions":[-0E0],"split_indices":[0],"split_type":[0],"sum_hessian":[1.707E3],"tree_param":{"num_deleted":"0","num_feature":"200","num_nodes":"1","size_leaf_vector":"1"}},{"base_weights":[-0E0],"categories":[],"categories_nodes":[],"categories_segments":[],"categories_sizes":[],"default_left":[0],"id":85,"left_children":[-1],"loss_changes":[0E0],"parents":[2147483647],"right_children":[-1],"split_conditions":[-0E0],"split_indices":[0],"split_type":[0],"sum_hessian":[1.672E3],"tree_param":{"num_deleted":"0","num_feature":"200","num_nodes":"1","size_leaf_vector":"1"}},{"base_weights":[-0E0,-0E0,-1.1967794E-2,-0E0,-3.029794E-2,-0E0,-5.038768E-2,-7.03614E-2,-0E0,-9.294475E-2,-0E0,-1.051163E-1,-0E0,-0E0,-1.2104887E-1,-1.3848072E-1,-0E0,-0E0,-1.5494992E-1,-1.6860355E-1,-0E0,-0E0,-1.8652163E-1,-4.7225556E-3,-0E0],"categories":[],"categories_nodes":[],"categories_segments":[],"categories_sizes":[],"default_left":[0,0,0,0,0,0,0,0,0,0,0,0,0,0,0,0,0,0,0,0,0,0,0,0,0],"id":86,"left_children":[1,-1,3,-1,5,-1,7,9,-1,11,-1,13,-1,-1,15,17,-1,-1,19,21,-1,-1,23,-1,-1],"loss_changes":[1.8775669E-1,0E0,9.7979677E-1,0E0,1.8204815E0,0E0,1.8433444E0,2.761137E0,0E0,1.8535705E0,0E0,1.8496752E0,0E0,0E0,2.4136772E0,2.0622177E0,0E0,0E0,2.1628408E0,2.7968102E0,0E0,0E0,2.7435703E0,0E0,0E0],"parents":[2147483647,0,0,2,2,4,4,6,6,7,7,9,9,11,11,14,14,15,15,18,18,19,19,22,22],"right_children":[2,-1,4,-1,6,-1,8,10,-1,12,-1,14,-1,-1,16,18,-1,-1,20,22,-1,-1,24,-1,-1],"split_conditions":[-3.7644516E4,-0E0,-1.0172687E3,-0E0,6.416E2,-0E0,1.0302936E3,1E0,-0E0,9.691992E-1,-0E0,8.242498E3,-0E0,-0E0,1E0,0E0,-0E0,-0E0,6.4223508E4,-2.1346254E4,-0E0,-0E0,-1.0408131E3,-4.7225556E-3,-0E0],"split_indices":[16,0,97,0,197,0,30,159,0,5,0,49,0,0,175,106,0,0,81,64,0,0,88,0,0],"split_type":[0,0,0,0,0,0,0,0,0,0,0,0,0,0,0,0,0,0,0,0,0,0,0,0,0],"sum_hessian":[1.646E3,3.5E2,1.296E3,3.9E1,1.257E3,9.5E1,1.162E3,9.61E2,2.01E2,8.64E2,9.7E1,8.4E2,2.4E1,8.4E1,7.56E2,7E2,5.6E1,5.8E1,6.42E2,6.16E2,2.6E1,3.5E1,5.81E2,5.3E2,5.1E1],"tree_param":{"num_deleted":"0","num_feature":"200","num_nodes":"25","size_leaf_vector":"1"}},{"base_weights":[-0E0,-5.803473E-3,-0E0,-0E0,-4.087311E-2,-7.001322E-2,-0E0,-1.0544233E-1,-0E0,-0E0,-1.2786195E-1,-0E0,-1.6065301E-1,-0E0,-1.7867422E-1,-1.9472685E-1,-0E0,-0E0,-2.075815E-1,-2.1936376E-1,-0E0,-0E0,-2.3076908E-1,-0E0,-5.412145E-3],"categories":[],"categories_nodes":[],"categories_segments":[],"categories_sizes":[],"default_left":[0,0,0,0,0,0,0,0,0,0,0,0,0,0,0,0,0,0,0,0,0,0,0,0,0],"id":87,"left_children":[1,3,-1,-1,5,7,-1,9,-1,-1,11,-1,13,-1,15,17,-1,-1,19,21,-1,-1,23,-1,-1],"loss_changes":[4.2770375E-2,1.6610742E0,0E0,0E0,2.60926E0,3.2904758E0,0E0,3.3319378E0,0E0,0E0,2.6374607E0,0E0,2.2581444E0,0E0,2.4036427E0,2.1853218E0,0E0,0E0,1.950777E0,1.7476654E0,0E0,0E0,1.1674862E0,0E0,0E0],"parents":[2147483647,0,0,1,1,4,4,5,5,7,7,10,10,12,12,14,14,15,15,18,18,19,19,22,22],"right_children":[2,4,-1,-1,6,8,-1,10,-1,-1,12,-1,14,-1,16,18,-1,-1,20,22,-1,-1,24,-1,-1],"split_conditions":[3.5790732E2,1.0612308E3,-0E0,-0E0,4.5945854E3,1.198357E3,-0E0,-9.95927E4,-0E0,-0E0,7.570997E4,-0E0,6.35E2,-0E0,3.1749454E10,-2.2425652E4,-0E0,-0E0,9.9275863E-1,-3.008016E4,-0E0,-0E0,-3.528751E4,-0E0,-5.412145E-3],"split_indices":[37,41,0,0,65,84,0,77,0,0,103,0,196,0,11,34,0,0,7,39,0,0,31,0,0],"split_type":[0,0,0,0,0,0,0,0,0,0,0,0,0,0,0,0,0,0,0,0,0,0,0,0,0],"sum_hessian":[1.672E3,1.255E3,4.17E2,2.5E2,1.005E3,8.65E2,1.4E2,6.69E2,1.96E2,1.5E1,6.54E2,1.43E2,5.11E2,3E1,4.81E2,4.66E2,1.5E1,7E0,4.59E2,4.5E2,9E0,1.2E1,4.38E2,6E0,4.32E2],"tree_param":{"num_deleted":"0","num_feature":"200","num_nodes":"25","size_leaf_vector":"1"}},{"base_weights":[-0E0],"categories":[],"categories_nodes":[],"categories_segments":[],"categories_sizes":[],"default_left":[0],"id":88,"left_children":[-1],"loss_changes":[0E0],"parents":[2147483647],"right_children":[-1],"split_conditions":[-0E0],"split_indices":[0],"split_type":[0],"sum_hessian":[1.729E3],"tree_param":{"num_deleted":"0","num_feature":"200","num_nodes":"1","size_leaf_vector":"1"}},{"base_weights":[-0E0],"categories":[],"categories_nodes":[],"categories_segments":[],"categories_sizes":[],"default_left":[0],"id":89,"left_children":[-1],"loss_changes":[0E0],"parents":[2147483647],"right_children":[-1],"split_conditions":[-0E0],"split_indices":[0],"split_type":[0],"sum_hessian":[1.657E3],"tree_param":{"num_deleted":"0","num_feature":"200","num_nodes":"1","size_leaf_vector":"1"}},{"base_weights":[-0E0],"categories":[],"categories_nodes":[],"categories_segments":[],"categories_sizes":[],"default_left":[0],"id":90,"left_children":[-1],"loss_changes":[0E0],"parents":[2147483647],"right_children":[-1],"split_conditions":[-0E0],"split_indices":[0],"split_type":[0],"sum_hessian":[1.717E3],"tree_param":{"num_deleted":"0","num_feature":"200","num_nodes":"1","size_leaf_vector":"1"}},{"base_weights":[-0E0],"categories":[],"categories_nodes":[],"categories_segments":[],"categories_sizes":[],"default_left":[0],"id":91,"left_children":[-1],"loss_changes":[0E0],"parents":[2147483647],"right_children":[-1],"split_conditions":[-0E0],"split_indices":[0],"split_type":[0],"sum_hessian":[1.714E3],"tree_param":{"num_deleted":"0","num_feature":"200","num_nodes":"1","size_leaf_vector":"1"}},{"base_weights":[-0E0],"categories":[],"categories_nodes":[],"categories_segments":[],"categories_sizes":[],"default_left":[0],"id":92,"left_children":[-1],"loss_changes":[0E0],"parents":[2147483647],"right_children":[-1],"split_conditions":[-0E0],"split_indices":[0],"split_type":[0],"sum_hessian":[1.697E3],"tree_param":{"num_deleted":"0","num_feature":"200","num_nodes":"1","size_leaf_vector":"1"}},{"base_weights":[-0E0,7.6835733E-3,-0E0,-0E0,3.4889348E-2,5.6625765E-2,-0E0,-0E0,7.709972E-2,-0E0,9.975409E-2,1.16734326E-1,-0E0,-0E0,1.3314112E-1,-0E0,1.4364873E-1,-0E0,1.5268612E-1,-0E0,1.6642039E-1,1.7970766E-1,-0E0,-0E0,4.2327885E-3],"categories":[],"categories_nodes":[],"categories_segments":[],"categories_sizes":[],"default_left":[0,0,0,0,0,0,0,0,0,0,0,0,0,0,0,0,0,0,0,0,0,0,0,0,0],"id":93,"left_children":[1,3,-1,-1,5,7,-1,-1,9,-1,11,13,-1,-1,15,-1,17,-1,19,-1,21,23,-1,-1,-1],"loss_changes":[5.230073E-2,8.313046E-1,0E0,0E0,1.383031E0,1.6441209E0,0E0,0E0,1.7104247E0,0E0,1.8721571E0,1.3325887E0,0E0,0E0,1.2004538E0,0E0,1.0448236E0,0E0,1.1396551E0,0E0,1.4464016E0,8.05665E-1,0E0,0E0,0E0],"parents":[2147483647,0,0,1,1,4,4,5,5,8,8,10,10,11,11,14,14,16,16,18,18,20,20,21,21],"right_children":[2,4,-1,-1,6,8,-1,-1,10,-1,12,14,-1,-1,16,-1,18,-1,20,-1,22,24,-1,-1,-1],"split_conditions":[8.7447044E5,-3.2966128E3,-0E0,-0E0,2.3309768E3,1.5625E1,-0E0,-0E0,-8.079181E3,-0E0,1.0360302E4,6.968184E2,-0E0,-0E0,2.3594282E0,-0E0,-1.5625E4,-0E0,-2.1036914E4,-0E0,3.4784992E4,-3.008016E4,-0E0,-0E0,4.2327885E-3],"split_indices":[12,14,0,0,93,40,0,0,84,0,33,89,0,0,19,0,31,0,82,0,85,30,0,0,0],"split_type":[0,0,0,0,0,0,0,0,0,0,0,0,0,0,0,0,0,0,0,0,0,0,0,0,0],"sum_hessian":[1.676E3,8.71E2,8.05E2,1.6E2,7.11E2,6.92E2,1.9E1,4.9E1,6.43E2,9.3E1,5.5E2,5.35E2,1.5E1,5.2E1,4.83E2,1.2E1,4.71E2,1.1E1,4.6E2,3.4E1,4.26E2,4.08E2,1.8E1,5E0,4.03E2],"tree_param":{"num_deleted":"0","num_feature":"200","num_nodes":"25","size_leaf_vector":"1"}},{"base_weights":[-0E0],"categories":[],"categories_nodes":[],"categories_segments":[],"categories_sizes":[],"default_left":[0],"id":94,"left_children":[-1],"loss_changes":[0E0],"parents":[2147483647],"right_children":[-1],"split_conditions":[-0E0],"split_indices":[0],"split_type":[0],"sum_hessian":[1.689E3],"tree_param":{"num_deleted":"0","num_feature":"200","num_nodes":"1","size_leaf_vector":"1"}},{"base_weights":[-0E0,1.4685347E-2,-0E0,6.1904762E-2,-0E0,8.194063E-2,-0E0,-0E0,9.996379E-2,-0E0,1.1721112E-1,-0E0,1.3239007E-1,-0E0,1.4419423E-1,1.520647E-1,-0E0,1.6130267E-1,-0E0,-0E0,1.7044853E-1,1.7531809E-1,-0E0,4.1142683E-3,-0E0],"categories":[],"categories_nodes":[],"categories_segments":[],"categories_sizes":[],"default_left":[0,0,0,0,0,0,0,0,0,0,0,0,0,0,0,0,0,0,0,0,0,0,0,0,0],"id":95,"left_children":[1,3,-1,5,-1,7,-1,-1,9,-1,11,-1,13,-1,15,17,-1,19,-1,-1,21,23,-1,-1,-1],"loss_changes":[2.6998252E-1,3.975684E0,0E0,2.7767372E0,0E0,2.4896345E0,0E0,0E0,2.7686625E0,0E0,2.6505384E0,0E0,2.0119982E0,0E0,1.6688461E0,1.4974728E0,0E0,1.4444408E0,0E0,0E0,1.0339947E0,1.1146679E0,0E0,0E0,0E0],"parents":[2147483647,0,0,1,1,3,3,5,5,8,8,10,10,12,12,14,14,15,15,17,17,20,20,21,21],"right_children":[2,4,-1,6,-1,8,-1,-1,10,-1,12,-1,14,-1,16,18,-1,20,-1,-1,22,24,-1,-1,-1],"split_conditions":[4.7453864E2,1.276368E12,-0E0,9.418207E-1,-0E0,7.119423E3,-0E0,-0E0,-2.7061719E4,-0E0,-2.0496793E4,-0E0,-2.1346254E4,-0E0,4.0328906E4,7.188975E3,-0E0,-2.8916379E4,-0E0,-0E0,9.995787E-1,7.3648228E3,-0E0,4.1142683E-3,-0E0],"split_indices":[33,12,0,5,0,96,0,0,80,0,62,0,65,0,55,35,0,84,0,0,6,10,0,0,0],"split_type":[0,0,0,0,0,0,0,0,0,0,0,0,0,0,0,0,0,0,0,0,0,0,0,0,0],"sum_hessian":[1.65E3,1.237E3,4.13E2,1.093E3,1.44E2,1.031E3,6.2E1,9.4E1,9.37E2,5.8E1,8.79E2,4.2E1,8.37E2,3.7E1,8E2,7.9E2,1E1,7.58E2,3.2E1,3.1E1,7.27E2,7.2E2,7E0,7.1E2,1E1],"tree_param":{"num_deleted":"0","num_feature":"200","num_nodes":"25","size_leaf_vector":"1"}},{"base_weights":[-0E0],"categories":[],"categories_nodes":[],"categories_segments":[],"categories_sizes":[],"default_left":[0],"id":96,"left_children":[-1],"loss_changes":[0E0],"parents":[2147483647],"right_children":[-1],"split_conditions":[-0E0],"split_indices":[0],"split_type":[0],"sum_hessian":[1.707E3],"tree_param":{"num_deleted":"0","num_feature":"200","num_nodes":"1","size_leaf_vector":"1"}},{"base_weights":[-0E0],"categories":[],"categories_nodes":[],"categories_segments":[],"categories_sizes":[],"default_left":[0],"id":97,"left_children":[-1],"loss_changes":[0E0],"parents":[2147483647],"right_children":[-1],"split_conditions":[-0E0],"split_indices":[0],"split_type":[0],"sum_hessian":[1.681E3],"tree_param":{"num_deleted":"0","num_feature":"200","num_nodes":"1","size_leaf_vector":"1"}},{"base_weights":[-0E0,-0E0,-6.9151716E-3,-4.3971594E-2,-0E0,-8.293558E-2,-0E0,-0E0,-1.0974725E-1,-0E0,-1.3104138E-1,-1.5163621E-1,-0E0,-1.7612837E-1,-0E0,-1.9312823E-1,-0E0,-0E0,-2.2354786E-1,-0E0,-2.5213096E-1,-0E0,-2.6352513E-1,-0E0,-6.453171E-3],"categories":[],"categories_nodes":[],"categories_segments":[],"categories_sizes":[],"default_left":[0,0,0,0,0,0,0,0,0,0,0,0,0,0,0,0,0,0,0,0,0,0,0,0,0],"id":98,"left_children":[1,-1,3,5,-1,7,-1,-1,9,-1,11,13,-1,15,-1,17,-1,-1,19,-1,21,-1,23,-1,-1],"loss_changes":[4.4132378E-2,0E0,1.5817354E0,3.5458856E0,0E0,3.3062587E0,0E0,0E0,3.111146E0,0E0,2.963295E0,3.095294E0,0E0,3.086235E0,0E0,2.8982067E0,0E0,0E0,3.8868313E0,0E0,2.1962204E0,0E0,2.1312885E0,0E0,0E0],"parents":[2147483647,0,0,2,2,3,3,5,5,8,8,10,10,11,11,13,13,15,15,18,18,20,20,22,22],"right_children":[2,-1,4,6,-1,8,-1,-1,10,-1,12,14,-1,16,-1,18,-1,-1,20,-1,22,-1,24,-1,-1],"split_conditions":[3.0340513E1,-0E0,1E0,2.136691E3,-0E0,-1.7435387E4,-0E0,-0E0,-6.6366772E3,-0E0,-1.4587561E3,1E0,-0E0,1.9248938E4,-0E0,-3.527205E1,-0E0,-0E0,-4.0196975E3,-0E0,-3.821894E2,-0E0,0E0,-0E0,-6.453171E-3],"split_indices":[24,0,119,90,0,61,0,0,90,0,88,151,0,39,0,73,0,0,32,0,72,0,105,0,0],"split_type":[0,0,0,0,0,0,0,0,0,0,0,0,0,0,0,0,0,0,0,0,0,0,0,0,0],"sum_hessian":[1.652E3,7.44E2,9.08E2,8.26E2,8.2E1,7.37E2,8.9E1,4.8E1,6.89E2,2.9E1,6.6E2,6.18E2,4.2E1,5.54E2,6.4E1,5.41E2,1.3E1,8.3E1,4.58E2,4E1,4.18E2,5E0,4.13E2,3.2E1,3.81E2],"tree_param":{"num_deleted":"0","num_feature":"200","num_nodes":"25","size_leaf_vector":"1"}},{"base_weights":[-0E0],"categories":[],"categories_nodes":[],"categories_segments":[],"categories_sizes":[],"default_left":[0],"id":99,"left_children":[-1],"loss_changes":[0E0],"parents":[2147483647],"right_children":[-1],"split_conditions":[-0E0],"split_indices":[0],"split_type":[0],"sum_hessian":[1.719E3],"tree_param":{"num_deleted":"0","num_feature":"200","num_nodes":"1","size_leaf_vector":"1"}},{"base_weights":[-0E0,-0E0,-2.4241937E-4,-3.2938275E-2,-0E0,-0E0,-8.06682E-2,-0E0,-1.16845585E-1,-0E0,-1.3491169E-1,-1.5132633E-1,-0E0,-1.7132035E-1,-0E0,-0E0,-1.841793E-1,-1.9466782E-1,-0E0,-2.0558298E-1,-0E0,-0E0,-2.2238459E-1,-5.4618195E-3,-0E0],"categories":[],"categories_nodes":[],"categories_segments":[],"categories_sizes":[],"default_left":[0,0,0,0,0,0,0,0,0,0,0,0,0,0,0,0,0,0,0,0,0,0,0,0,0],"id":100,"left_children":[1,-1,3,5,-1,-1,7,-1,9,-1,11,13,-1,15,-1,-1,17,19,-1,21,-1,-1,23,-1,-1],"loss_changes":[8.9143476E-5,0E0,1.3885051E0,3.8165975E0,0E0,0E0,3.0396938E0,0E0,2.4736528E0,0E0,2.4234161E0,2.5868626E0,0E0,2.0766125E0,0E0,0E0,1.8204174E0,1.9244556E0,0E0,1.5893002E0,0E0,0E0,2.4974594E0,0E0,0E0],"parents":[2147483647,0,0,2,2,3,3,6,6,8,8,10,10,11,11,13,13,16,16,17,17,19,19,22,22],"right_children":[2,-1,4,6,-1,-1,8,-1,10,-1,12,14,-1,16,-1,-1,18,20,-1,22,-1,-1,24,-1,-1],"split_conditions":[-5.2670464E3,-0E0,1.2596864E3,5.735245E3,-0E0,-0E0,2.4520096E1,-0E0,-1.7914916E7,-0E0,6.4481074E4,9.84495E-1,-0E0,6.405E2,-0E0,-0E0,4.0353348E4,5.6353573E1,-0E0,1.1773358E1,-0E0,-0E0,-9.5881464E2,-5.4618195E-3,-0E0],"split_indices":[60,0,35,43,0,0,24,0,17,0,54,7,0,198,0,0,38,21,0,22,0,0,67,0,0],"split_type":[0,0,0,0,0,0,0,0,0,0,0,0,0,0,0,0,0,0,0,0,0,0,0,0,0],"sum_hessian":[1.702E3,2E2,1.502E3,1.265E3,2.37E2,4.8E2,7.85E2,1.96E2,5.89E2,1.5E1,5.74E2,5.59E2,1.5E1,5.21E2,3.8E1,1.1E1,5.1E2,5.03E2,7E0,4.95E2,8E0,4.2E1,4.53E2,4.3E2,2.3E1],"tree_param":{"num_deleted":"0","num_feature":"200","num_nodes":"25","size_leaf_vector":"1"}},{"base_weights":[-0E0],"categories":[],"categories_nodes":[],"categories_segments":[],"categories_sizes":[],"default_left":[0],"id":101,"left_children":[-1],"loss_changes":[0E0],"parents":[2147483647],"right_children":[-1],"split_conditions":[-0E0],"split_indices":[0],"split_type":[0],"sum_hessian":[1.625E3],"tree_param":{"num_deleted":"0","num_feature":"200","num_nodes":"1","size_leaf_vector":"1"}},{"base_weights":[-0E0,-0E0,-2.5333654E-2,-6.349489E-2,-0E0,-9.6398875E-2,-0E0,-0E0,-1.1797613E-1,-1.4082733E-1,-0E0,-0E0,-1.6208605E-1,-1.8254955E-1,-0E0,-2.0680264E-1,-0E0,-0E0,-2.2325565E-1,-0E0,-2.3865505E-1,-0E0,-2.6324385E-1,-0E0,-6.2434976E-3],"categories":[],"categories_nodes":[],"categories_segments":[],"categories_sizes":[],"default_left":[0,0,0,0,0,0,0,0,0,0,0,0,0,0,0,0,0,0,0,0,0,0,0,0,0],"id":102,"left_children":[1,-1,3,5,-1,7,-1,-1,9,11,-1,-1,13,15,-1,17,-1,-1,19,-1,21,-1,23,-1,-1],"loss_changes":[4.7100818E-1,0E0,2.1007218E0,2.5104065E0,0E0,2.3905377E0,0E0,0E0,2.3422108E0,2.7928104E0,0E0,0E0,2.617962E0,2.30437E0,0E0,2.551403E0,0E0,0E0,2.1823635E0,0E0,2.3293438E0,0E0,1.7537403E0,0E0,0E0],"parents":[2147483647,0,0,2,2,3,3,5,5,8,8,9,9,12,12,13,13,15,15,18,18,20,20,22,22],"right_children":[2,-1,4,6,-1,8,-1,-1,10,12,-1,-1,14,16,-1,18,-1,-1,20,-1,22,-1,24,-1,-1],"split_conditions":[1.0582887E1,-0E0,1.0880155E4,8.9406115E-1,-0E0,-9.977069E-1,-0E0,-0E0,-8.079181E3,-2.336375E3,-0E0,-0E0,2.9E1,1E0,-0E0,-3.528751E4,-0E0,-0E0,2.62147E2,-0E0,0E0,-0E0,-8.693549E4,-0E0,-6.2434976E-3],"split_indices":[19,0,86,7,0,6,0,0,91,97,0,0,1,148,0,34,0,0,41,0,106,0,57,0,0],"split_type":[0,0,0,0,0,0,0,0,0,0,0,0,0,0,0,0,0,0,0,0,0,0,0,0,0],"sum_hessian":[1.685E3,9.66E2,7.19E2,6.23E2,9.6E1,5.32E2,9.1E1,1E1,5.22E2,4.8E2,4.2E1,1.5E1,4.65E2,4.42E2,2.3E1,3.95E2,4.7E1,7E0,3.88E2,1.2E1,3.76E2,3.6E1,3.4E2,5E0,3.35E2],"tree_param":{"num_deleted":"0","num_feature":"200","num_nodes":"25","size_leaf_vector":"1"}},{"base_weights":[-0E0],"categories":[],"categories_nodes":[],"categories_segments":[],"categories_sizes":[],"default_left":[0],"id":103,"left_children":[-1],"loss_changes":[0E0],"parents":[2147483647],"right_children":[-1],"split_conditions":[-0E0],"split_indices":[0],"split_type":[0],"sum_hessian":[1.661E3],"tree_param":{"num_deleted":"0","num_feature":"200","num_nodes":"1","size_leaf_vector":"1"}},{"base_weights":[-0E0],"categories":[],"categories_nodes":[],"categories_segments":[],"categories_sizes":[],"default_left":[0],"id":104,"left_children":[-1],"loss_changes":[0E0],"parents":[2147483647],"right_children":[-1],"split_conditions":[-0E0],"split_indices":[0],"split_type":[0],"sum_hessian":[1.743E3],"tree_param":{"num_deleted":"0","num_feature":"200","num_nodes":"1","size_leaf_vector":"1"}},{"base_weights":[-0E0],"categories":[],"categories_nodes":[],"categories_segments":[],"categories_sizes":[],"default_left":[0],"id":105,"left_children":[-1],"loss_changes":[0E0],"parents":[2147483647],"right_children":[-1],"split_conditions":[-0E0],"split_indices":[0],"split_type":[0],"sum_hessian":[1.662E3],"tree_param":{"num_deleted":"0","num_feature":"200","num_nodes":"1","size_leaf_vector":"1"}},{"base_weights":[-0E0],"categories":[],"categories_nodes":[],"categories_segments":[],"categories_sizes":[],"default_left":[0],"id":106,"left_children":[-1],"loss_changes":[0E0],"parents":[2147483647],"right_children":[-1],"split_conditions":[-0E0],"split_indices":[0],"split_type":[0],"sum_hessian":[1.623E3],"tree_param":{"num_deleted":"0","num_feature":"200","num_nodes":"1","size_leaf_vector":"1"}},{"base_weights":[-0E0],"categories":[],"categories_nodes":[],"categories_segments":[],"categories_sizes":[],"default_left":[0],"id":107,"left_children":[-1],"loss_changes":[0E0],"parents":[2147483647],"right_children":[-1],"split_conditions":[-0E0],"split_indices":[0],"split_type":[0],"sum_hessian":[1.644E3],"tree_param":{"num_deleted":"0","num_feature":"200","num_nodes":"1","size_leaf_vector":"1"}},{"base_weights":[-0E0],"categories":[],"categories_nodes":[],"categories_segments":[],"categories_sizes":[],"default_left":[0],"id":108,"left_children":[-1],"loss_changes":[0E0],"parents":[2147483647],"right_children":[-1],"split_conditions":[-0E0],"split_indices":[0],"split_type":[0],"sum_hessian":[1.691E3],"tree_param":{"num_deleted":"0","num_feature":"200","num_nodes":"1","size_leaf_vector":"1"}},{"base_weights":[-0E0],"categories":[],"categories_nodes":[],"categories_segments":[],"categories_sizes":[],"default_left":[0],"id":109,"left_children":[-1],"loss_changes":[0E0],"parents":[2147483647],"right_children":[-1],"split_conditions":[-0E0],"split_indices":[0],"split_type":[0],"sum_hessian":[1.718E3],"tree_param":{"num_deleted":"0","num_feature":"200","num_nodes":"1","size_leaf_vector":"1"}},{"base_weights":[-0E0],"categories":[],"categories_nodes":[],"categories_segments":[],"categories_sizes":[],"default_left":[0],"id":110,"left_children":[-1],"loss_changes":[0E0],"parents":[2147483647],"right_children":[-1],"split_conditions":[-0E0],"split_indices":[0],"split_type":[0],"sum_hessian":[1.667E3],"tree_param":{"num_deleted":"0","num_feature":"200","num_nodes":"1","size_leaf_vector":"1"}},{"base_weights":[-0E0],"categories":[],"categories_nodes":[],"categories_segments":[],"categories_sizes":[],"default_left":[0],"id":111,"left_children":[-1],"loss_changes":[0E0],"parents":[2147483647],"right_children":[-1],"split_conditions":[-0E0],"split_indices":[0],"split_type":[0],"sum_hessian":[1.698E3],"tree_param":{"num_deleted":"0","num_feature":"200","num_nodes":"1","size_leaf_vector":"1"}},{"base_weights":[-0E0],"categories":[],"categories_nodes":[],"categories_segments":[],"categories_sizes":[],"default_left":[0],"id":112,"left_children":[-1],"loss_changes":[0E0],"parents":[2147483647],"right_children":[-1],"split_conditions":[-0E0],"split_indices":[0],"split_type":[0],"sum_hessian":[1.662E3],"tree_param":{"num_deleted":"0","num_feature":"200","num_nodes":"1","size_leaf_vector":"1"}},{"base_weights":[-0E0],"categories":[],"categories_nodes":[],"categories_segments":[],"categories_sizes":[],"default_left":[0],"id":113,"left_children":[-1],"loss_changes":[0E0],"parents":[2147483647],"right_children":[-1],"split_conditions":[-0E0],"split_indices":[0],"split_type":[0],"sum_hessian":[1.687E3],"tree_param":{"num_deleted":"0","num_feature":"200","num_nodes":"1","size_leaf_vector":"1"}},{"base_weights":[-0E0],"categories":[],"categories_nodes":[],"categories_segments":[],"categories_sizes":[],"default_left":[0],"id":114,"left_children":[-1],"loss_changes":[0E0],"parents":[2147483647],"right_children":[-1],"split_conditions":[-0E0],"split_indices":[0],"split_type":[0],"sum_hessian":[1.763E3],"tree_param":{"num_deleted":"0","num_feature":"200","num_nodes":"1","size_leaf_vector":"1"}},{"base_weights":[-0E0],"categories":[],"categories_nodes":[],"categories_segments":[],"categories_sizes":[],"default_left":[0],"id":115,"left_children":[-1],"loss_changes":[0E0],"parents":[2147483647],"right_children":[-1],"split_conditions":[-0E0],"split_indices":[0],"split_type":[0],"sum_hessian":[1.663E3],"tree_param":{"num_deleted":"0","num_feature":"200","num_nodes":"1","size_leaf_vector":"1"}},{"base_weights":[-0E0],"categories":[],"categories_nodes":[],"categories_segments":[],"categories_sizes":[],"default_left":[0],"id":116,"left_children":[-1],"loss_changes":[0E0],"parents":[2147483647],"right_children":[-1],"split_conditions":[-0E0],"split_indices":[0],"split_type":[0],"sum_hessian":[1.703E3],"tree_param":{"num_deleted":"0","num_feature":"200","num_nodes":"1","size_leaf_vector":"1"}},{"base_weights":[-0E0],"categories":[],"categories_nodes":[],"categories_segments":[],"categories_sizes":[],"default_left":[0],"id":117,"left_children":[-1],"loss_changes":[0E0],"parents":[2147483647],"right_children":[-1],"split_conditions":[-0E0],"split_indices":[0],"split_type":[0],"sum_hessian":[1.713E3],"tree_param":{"num_deleted":"0","num_feature":"200","num_nodes":"1","size_leaf_vector":"1"}},{"base_weights":[-0E0],"categories":[],"categories_nodes":[],"categories_segments":[],"categories_sizes":[],"default_left":[0],"id":118,"left_children":[-1],"loss_changes":[0E0],"parents":[2147483647],"right_children":[-1],"split_conditions":[-0E0],"split_indices":[0],"split_type":[0],"sum_hessian":[1.677E3],"tree_param":{"num_deleted":"0","num_feature":"200","num_nodes":"1","size_leaf_vector":"1"}},{"base_weights":[-0E0],"categories":[],"categories_nodes":[],"categories_segments":[],"categories_sizes":[],"default_left":[0],"id":119,"left_children":[-1],"loss_changes":[0E0],"parents":[2147483647],"right_children":[-1],"split_conditions":[-0E0],"split_indices":[0],"split_type":[0],"sum_hessian":[1.682E3],"tree_param":{"num_deleted":"0","num_feature":"200","num_nodes":"1","size_leaf_vector":"1"}},{"base_weights":[-0E0,-0E0,6.4061033E-3,-4.161166E-2,-0E0,-0E0,2.7707564E-2,-8.109765E-2,-0E0,4.66931E-2,-0E0,-0E0,-1.125686E-1,-0E0,6.3232124E-2,-0E0,-1.3804772E-1,7.847559E-2,-0E0,-1.7863265E-1,-0E0,-0E0,9.312686E-2,-1.9784738E-1,-0E0,1.0972805E-1,-0E0,-2.1988702E-1,-0E0,1.2227039E-1,-0E0,-2.4337377E-1,-0E0,-0E0,1.4046066E-1,-2.5556675E-1,-0E0,1.4633207E-1,-0E0,-0E0,-2.6610467E-1,-0E0,1.5569493E-1,-6.320561E-3,-0E0,3.7676997E-3,-0E0],"categories":[],"categories_nodes":[],"categories_segments":[],"categories_sizes":[],"default_left":[0,0,0,0,0,0,0,0,0,0,0,0,0,0,0,0,0,0,0,0,0,0,0,0,0,0,0,0,0,0,0,0,0,0,0,0,0,0,0,0,0,0,0,0,0,0,0],"id":120,"left_children":[1,3,5,7,-1,-1,9,11,-1,13,-1,-1,15,-1,17,-1,19,21,-1,23,-1,-1,25,27,-1,29,-1,31,-1,33,-1,35,-1,-1,37,39,-1,41,-1,-1,43,-1,45,-1,-1,-1,-1],"loss_changes":[4.296256E-2,8.863582E-1,6.739956E-1,2.0198963E0,0E0,0E0,1.2668322E0,2.0216777E0,0E0,1.5462823E0,0E0,0E0,2.2164693E0,0E0,1.4637456E0,0E0,3.1909027E0,1.622458E0,0E0,2.1081676E0,0E0,0E0,1.9069295E0,2.2981977E0,0E0,1.7907286E0,0E0,2.606614E0,0E0,1.0677013E0,0E0,1.3899498E0,0E0,0E0,8.215256E-1,1.2230873E0,0E0,7.63134E-1,0E0,0E0,1.252203E0,0E0,8.786049E-1,0E0,0E0,0E0,0E0],"parents":[2147483647,0,0,1,1,2,2,3,3,6,6,7,7,9,9,12,12,14,14,16,16,17,17,19,19,22,22,23,23,25,25,27,27,29,29,31,31,34,34,35,35,37,37,40,40,42,42],"right_children":[2,4,6,8,-1,-1,10,12,-1,14,-1,-1,16,-1,18,-1,20,22,-1,24,-1,-1,26,28,-1,30,-1,32,-1,34,-1,36,-1,-1,38,40,-1,42,-1,-1,44,-1,46,-1,-1,-1,-1],"split_conditions":[-9.8608716E2,1E0,5.9320114E1,1.4428923E3,-0E0,-0E0,1.9137441E4,6.881176E4,-0E0,4.943145E2,-0E0,-0E0,-2.012354E4,-0E0,1E0,-0E0,1.8520013E2,8.701816E0,-0E0,9.691992E-1,-0E0,-0E0,2.0285654E4,-8.615932E2,-0E0,1.4706125E4,-0E0,7.880628E3,-0E0,4.476948E1,-0E0,1.1354847E5,-0E0,-0E0,-1.4034395E3,1.9164955E-2,-0E0,-1.1828602E4,-0E0,-0E0,6.12165E1,-0E0,1.2326352E4,-6.320561E-3,-0E0,3.7676997E-3,-0E0],"split_indices":[84,151,40,35,0,0,14,103,0,89,0,0,34,0,113,0,37,22,0,5,0,0,81,88,0,38,0,30,0,26,0,64,0,0,91,5,0,14,0,0,23,0,30,0,0,0,0],"split_type":[0,0,0,0,0,0,0,0,0,0,0,0,0,0,0,0,0,0,0,0,0,0,0,0,0,0,0,0,0,0,0,0,0,0,0,0,0,0,0,0,0,0,0,0,0,0,0],"sum_hessian":[1.624E3,5.92E2,1.032E3,4.97E2,9.5E1,1.13E2,9.19E2,4.27E2,7E1,8.95E2,2.4E1,5.3E1,3.74E2,2.7E1,8.68E2,1.4E1,3.6E2,7.96E2,7.2E1,3.09E2,5.1E1,4.8E1,7.48E2,3.03E2,6E0,6.93E2,5.5E1,2.9E2,1.3E1,6.75E2,1.8E1,2.78E2,1.2E1,1.13E2,5.62E2,2.72E2,6E0,5.55E2,7E0,5E0,2.67E2,3.5E1,5.2E2,2.6E2,7E0,4.9E2,3E1],